~h "BN"
    <BEGINHMM>
    <NUMSTATES> 5
    <STATE> 2
    <MEAN> 78
    1.357140e+02 1.384310e+02 1.125623e+02 1.381756e+02 1.474366e+02 1.754922e+02 1.063108e+02 1.155000e+02 1.049910e+02 1.351569e+02 1.644947e+02 3.022741e+00 1.673617e+02 1.442065e+02 1.618806e+02 1.285952e+02 1.409076e+02 4.345415e+01 9.335470e+01 1.463079e+02 1.684473e+02 1.531570e+02 9.768462e+01 1.351831e+02 7.222208e+01 8.270124e+01 1.230046e+02 5.623796e+00 3.167608e+00 2.992618e+00 2.839355e+00 2.936229e+00 4.957705e+00 9.999956e-01 1.451331e+00 8.413646e-01 6.087274e-01 9.253709e-01 8.399299e-01 6.123706e-01 9.477928e-01 2.522533e-01 2.540976e-01 4.719293e-01 4.736252e-01 1.029952e+00 1.588010e+00 4.889634e-01 1.021166e+00 1.521179e+00 1.191006e+00 1.194118e+00 8.293453e-01 1.432356e+00 1.956157e+00 8.347866e-01 1.406869e+00 1.853027e+00 1.637004e+00 1.639019e+00 6.405995e-01 1.289929e+00 7.957540e-01 1.122777e+00 1.523343e+00 9.456598e-01 1.086419e+00 7.837042e-01 1.135054e+00 1.137218e+00 1.376205e+00 5.365326e-01 8.308331e-01 1.572572e+00 1.388666e+00 1.309692e+00 7.487455e-01 9.854699e-01
    <VARIANCE> 78
    3.100067e+03 2.028726e+02 1.011415e+02 1.583090e+02 2.385769e+03 1.143123e+01 2.272170e+03 1.644958e+03 1.493873e+03 1.276219e+03 4.232318e+02 9.634795e+01 3.517037e+02 1.093608e+03 5.631816e+01 2.617621e+03 2.192720e+03 2.495056e+03 1.356159e+03 5.804636e+02 1.187698e+02 4.328682e+02 1.050017e+03 1.775834e+03 1.946053e+03 2.042598e+03 2.106499e+03 3.693524e+00 1.825773e+00 4.384004e-01 3.763447e-01 1.308069e+00 2.788752e+00 0.000000e+00 4.665671e-03 2.769161e-03 2.092652e-02 3.788703e-02 1.355353e-02 2.312087e-02 5.601307e-02 1.184301e-03 2.089155e-03 8.591157e-03 1.596913e-03 6.747105e-03 1.178405e-01 2.516214e-02 8.418964e-03 1.658128e-01 5.776294e-04 1.794323e-03 5.762765e-03 2.371635e-02 1.939083e-01 3.273216e-02 1.811687e-02 2.593783e-01 6.760553e-03 1.068953e-02 7.306821e-03 6.727535e-02 2.380483e-02 1.434908e-02 1.260363e-01 3.477801e-03 7.639357e-03 2.257382e-02 2.819366e-02 3.601380e-02 1.067911e-01 2.710090e-02 2.461779e-02 8.778149e-02 7.186179e-02 2.339959e-01 6.191352e-02 4.873841e-02
    <STATE> 3
    <MEAN> 78
    1.357140e+02 1.384310e+02 1.125623e+02 1.381756e+02 1.474366e+02 1.754922e+02 1.063108e+02 1.155000e+02 1.049910e+02 1.351569e+02 1.644947e+02 3.022741e+00 1.673617e+02 1.442065e+02 1.618806e+02 1.285952e+02 1.409076e+02 4.345415e+01 9.335470e+01 1.463079e+02 1.684473e+02 1.531570e+02 9.768462e+01 1.351831e+02 7.222208e+01 8.270124e+01 1.230046e+02 5.623796e+00 3.167608e+00 2.992618e+00 2.839355e+00 2.936229e+00 4.957705e+00 9.999956e-01 1.451331e+00 8.413646e-01 6.087274e-01 9.253709e-01 8.399299e-01 6.123706e-01 9.477928e-01 2.522533e-01 2.540976e-01 4.719293e-01 4.736252e-01 1.029952e+00 1.588010e+00 4.889634e-01 1.021166e+00 1.521179e+00 1.191006e+00 1.194118e+00 8.293453e-01 1.432356e+00 1.956157e+00 8.347866e-01 1.406869e+00 1.853027e+00 1.637004e+00 1.639019e+00 6.405995e-01 1.289929e+00 7.957540e-01 1.122777e+00 1.523343e+00 9.456598e-01 1.086419e+00 7.837042e-01 1.135054e+00 1.137218e+00 1.376205e+00 5.365326e-01 8.308331e-01 1.572572e+00 1.388666e+00 1.309692e+00 7.487455e-01 9.854699e-01
    <VARIANCE> 78
    3.100067e+03 2.028726e+02 1.011415e+02 1.583090e+02 2.385769e+03 1.143123e+01 2.272170e+03 1.644958e+03 1.493873e+03 1.276219e+03 4.232318e+02 9.634795e+01 3.517037e+02 1.093608e+03 5.631816e+01 2.617621e+03 2.192720e+03 2.495056e+03 1.356159e+03 5.804636e+02 1.187698e+02 4.328682e+02 1.050017e+03 1.775834e+03 1.946053e+03 2.042598e+03 2.106499e+03 3.693524e+00 1.825773e+00 4.384004e-01 3.763447e-01 1.308069e+00 2.788752e+00 0.000000e+00 4.665671e-03 2.769161e-03 2.092652e-02 3.788703e-02 1.355353e-02 2.312087e-02 5.601307e-02 1.184301e-03 2.089155e-03 8.591157e-03 1.596913e-03 6.747105e-03 1.178405e-01 2.516214e-02 8.418964e-03 1.658128e-01 5.776294e-04 1.794323e-03 5.762765e-03 2.371635e-02 1.939083e-01 3.273216e-02 1.811687e-02 2.593783e-01 6.760553e-03 1.068953e-02 7.306821e-03 6.727535e-02 2.380483e-02 1.434908e-02 1.260363e-01 3.477801e-03 7.639357e-03 2.257382e-02 2.819366e-02 3.601380e-02 1.067911e-01 2.710090e-02 2.461779e-02 8.778149e-02 7.186179e-02 2.339959e-01 6.191352e-02 4.873841e-02
    <STATE> 4
    <MEAN> 78
    1.357140e+02 1.384310e+02 1.125623e+02 1.381756e+02 1.474366e+02 1.754922e+02 1.063108e+02 1.155000e+02 1.049910e+02 1.351569e+02 1.644947e+02 3.022741e+00 1.673617e+02 1.442065e+02 1.618806e+02 1.285952e+02 1.409076e+02 4.345415e+01 9.335470e+01 1.463079e+02 1.684473e+02 1.531570e+02 9.768462e+01 1.351831e+02 7.222208e+01 8.270124e+01 1.230046e+02 5.623796e+00 3.167608e+00 2.992618e+00 2.839355e+00 2.936229e+00 4.957705e+00 9.999956e-01 1.451331e+00 8.413646e-01 6.087274e-01 9.253709e-01 8.399299e-01 6.123706e-01 9.477928e-01 2.522533e-01 2.540976e-01 4.719293e-01 4.736252e-01 1.029952e+00 1.588010e+00 4.889634e-01 1.021166e+00 1.521179e+00 1.191006e+00 1.194118e+00 8.293453e-01 1.432356e+00 1.956157e+00 8.347866e-01 1.406869e+00 1.853027e+00 1.637004e+00 1.639019e+00 6.405995e-01 1.289929e+00 7.957540e-01 1.122777e+00 1.523343e+00 9.456598e-01 1.086419e+00 7.837042e-01 1.135054e+00 1.137218e+00 1.376205e+00 5.365326e-01 8.308331e-01 1.572572e+00 1.388666e+00 1.309692e+00 7.487455e-01 9.854699e-01
    <VARIANCE> 78
    3.100067e+03 2.028726e+02 1.011415e+02 1.583090e+02 2.385769e+03 1.143123e+01 2.272170e+03 1.644958e+03 1.493873e+03 1.276219e+03 4.232318e+02 9.634795e+01 3.517037e+02 1.093608e+03 5.631816e+01 2.617621e+03 2.192720e+03 2.495056e+03 1.356159e+03 5.804636e+02 1.187698e+02 4.328682e+02 1.050017e+03 1.775834e+03 1.946053e+03 2.042598e+03 2.106499e+03 3.693524e+00 1.825773e+00 4.384004e-01 3.763447e-01 1.308069e+00 2.788752e+00 0.000000e+00 4.665671e-03 2.769161e-03 2.092652e-02 3.788703e-02 1.355353e-02 2.312087e-02 5.601307e-02 1.184301e-03 2.089155e-03 8.591157e-03 1.596913e-03 6.747105e-03 1.178405e-01 2.516214e-02 8.418964e-03 1.658128e-01 5.776294e-04 1.794323e-03 5.762765e-03 2.371635e-02 1.939083e-01 3.273216e-02 1.811687e-02 2.593783e-01 6.760553e-03 1.068953e-02 7.306821e-03 6.727535e-02 2.380483e-02 1.434908e-02 1.260363e-01 3.477801e-03 7.639357e-03 2.257382e-02 2.819366e-02 3.601380e-02 1.067911e-01 2.710090e-02 2.461779e-02 8.778149e-02 7.186179e-02 2.339959e-01 6.191352e-02 4.873841e-02
    <TRANSP> 5
    0.000000e+00 1.000000e+00 0.000000e+00 0.000000e+00 0.000000e+00
    0.000000e+00 6.000000e-01 4.000000e-01 0.000000e+00 0.000000e+00
    0.000000e+00 0.000000e+00 6.000000e-01 4.000000e-01 0.000000e+00
    0.000000e+00 0.000000e+00 0.000000e+00 7.000000e-01 3.000000e-01
    0.000000e+00 0.000000e+00 0.000000e+00 0.000000e+00 0.000000e+00
    <ENDHMM>
~h "BS"
    <BEGINHMM>
    <NUMSTATES> 5
    <STATE> 2
    <MEAN> 78
    1.357140e+02 1.384310e+02 1.125623e+02 1.381756e+02 1.474366e+02 1.754922e+02 1.063108e+02 1.155000e+02 1.049910e+02 1.351569e+02 1.644947e+02 3.022741e+00 1.673617e+02 1.442065e+02 1.618806e+02 1.285952e+02 1.409076e+02 4.345415e+01 9.335470e+01 1.463079e+02 1.684473e+02 1.531570e+02 9.768462e+01 1.351831e+02 7.222208e+01 8.270124e+01 1.230046e+02 5.623796e+00 3.167608e+00 2.992618e+00 2.839355e+00 2.936229e+00 4.957705e+00 9.999956e-01 1.451331e+00 8.413646e-01 6.087274e-01 9.253709e-01 8.399299e-01 6.123706e-01 9.477928e-01 2.522533e-01 2.540976e-01 4.719293e-01 4.736252e-01 1.029952e+00 1.588010e+00 4.889634e-01 1.021166e+00 1.521179e+00 1.191006e+00 1.194118e+00 8.293453e-01 1.432356e+00 1.956157e+00 8.347866e-01 1.406869e+00 1.853027e+00 1.637004e+00 1.639019e+00 6.405995e-01 1.289929e+00 7.957540e-01 1.122777e+00 1.523343e+00 9.456598e-01 1.086419e+00 7.837042e-01 1.135054e+00 1.137218e+00 1.376205e+00 5.365326e-01 8.308331e-01 1.572572e+00 1.388666e+00 1.309692e+00 7.487455e-01 9.854699e-01
    <VARIANCE> 78
    3.100067e+03 2.028726e+02 1.011415e+02 1.583090e+02 2.385769e+03 1.143123e+01 2.272170e+03 1.644958e+03 1.493873e+03 1.276219e+03 4.232318e+02 9.634795e+01 3.517037e+02 1.093608e+03 5.631816e+01 2.617621e+03 2.192720e+03 2.495056e+03 1.356159e+03 5.804636e+02 1.187698e+02 4.328682e+02 1.050017e+03 1.775834e+03 1.946053e+03 2.042598e+03 2.106499e+03 3.693524e+00 1.825773e+00 4.384004e-01 3.763447e-01 1.308069e+00 2.788752e+00 0.000000e+00 4.665671e-03 2.769161e-03 2.092652e-02 3.788703e-02 1.355353e-02 2.312087e-02 5.601307e-02 1.184301e-03 2.089155e-03 8.591157e-03 1.596913e-03 6.747105e-03 1.178405e-01 2.516214e-02 8.418964e-03 1.658128e-01 5.776294e-04 1.794323e-03 5.762765e-03 2.371635e-02 1.939083e-01 3.273216e-02 1.811687e-02 2.593783e-01 6.760553e-03 1.068953e-02 7.306821e-03 6.727535e-02 2.380483e-02 1.434908e-02 1.260363e-01 3.477801e-03 7.639357e-03 2.257382e-02 2.819366e-02 3.601380e-02 1.067911e-01 2.710090e-02 2.461779e-02 8.778149e-02 7.186179e-02 2.339959e-01 6.191352e-02 4.873841e-02
    <STATE> 3
    <MEAN> 78
    1.357140e+02 1.384310e+02 1.125623e+02 1.381756e+02 1.474366e+02 1.754922e+02 1.063108e+02 1.155000e+02 1.049910e+02 1.351569e+02 1.644947e+02 3.022741e+00 1.673617e+02 1.442065e+02 1.618806e+02 1.285952e+02 1.409076e+02 4.345415e+01 9.335470e+01 1.463079e+02 1.684473e+02 1.531570e+02 9.768462e+01 1.351831e+02 7.222208e+01 8.270124e+01 1.230046e+02 5.623796e+00 3.167608e+00 2.992618e+00 2.839355e+00 2.936229e+00 4.957705e+00 9.999956e-01 1.451331e+00 8.413646e-01 6.087274e-01 9.253709e-01 8.399299e-01 6.123706e-01 9.477928e-01 2.522533e-01 2.540976e-01 4.719293e-01 4.736252e-01 1.029952e+00 1.588010e+00 4.889634e-01 1.021166e+00 1.521179e+00 1.191006e+00 1.194118e+00 8.293453e-01 1.432356e+00 1.956157e+00 8.347866e-01 1.406869e+00 1.853027e+00 1.637004e+00 1.639019e+00 6.405995e-01 1.289929e+00 7.957540e-01 1.122777e+00 1.523343e+00 9.456598e-01 1.086419e+00 7.837042e-01 1.135054e+00 1.137218e+00 1.376205e+00 5.365326e-01 8.308331e-01 1.572572e+00 1.388666e+00 1.309692e+00 7.487455e-01 9.854699e-01
    <VARIANCE> 78
    3.100067e+03 2.028726e+02 1.011415e+02 1.583090e+02 2.385769e+03 1.143123e+01 2.272170e+03 1.644958e+03 1.493873e+03 1.276219e+03 4.232318e+02 9.634795e+01 3.517037e+02 1.093608e+03 5.631816e+01 2.617621e+03 2.192720e+03 2.495056e+03 1.356159e+03 5.804636e+02 1.187698e+02 4.328682e+02 1.050017e+03 1.775834e+03 1.946053e+03 2.042598e+03 2.106499e+03 3.693524e+00 1.825773e+00 4.384004e-01 3.763447e-01 1.308069e+00 2.788752e+00 0.000000e+00 4.665671e-03 2.769161e-03 2.092652e-02 3.788703e-02 1.355353e-02 2.312087e-02 5.601307e-02 1.184301e-03 2.089155e-03 8.591157e-03 1.596913e-03 6.747105e-03 1.178405e-01 2.516214e-02 8.418964e-03 1.658128e-01 5.776294e-04 1.794323e-03 5.762765e-03 2.371635e-02 1.939083e-01 3.273216e-02 1.811687e-02 2.593783e-01 6.760553e-03 1.068953e-02 7.306821e-03 6.727535e-02 2.380483e-02 1.434908e-02 1.260363e-01 3.477801e-03 7.639357e-03 2.257382e-02 2.819366e-02 3.601380e-02 1.067911e-01 2.710090e-02 2.461779e-02 8.778149e-02 7.186179e-02 2.339959e-01 6.191352e-02 4.873841e-02
    <STATE> 4
    <MEAN> 78
    1.357140e+02 1.384310e+02 1.125623e+02 1.381756e+02 1.474366e+02 1.754922e+02 1.063108e+02 1.155000e+02 1.049910e+02 1.351569e+02 1.644947e+02 3.022741e+00 1.673617e+02 1.442065e+02 1.618806e+02 1.285952e+02 1.409076e+02 4.345415e+01 9.335470e+01 1.463079e+02 1.684473e+02 1.531570e+02 9.768462e+01 1.351831e+02 7.222208e+01 8.270124e+01 1.230046e+02 5.623796e+00 3.167608e+00 2.992618e+00 2.839355e+00 2.936229e+00 4.957705e+00 9.999956e-01 1.451331e+00 8.413646e-01 6.087274e-01 9.253709e-01 8.399299e-01 6.123706e-01 9.477928e-01 2.522533e-01 2.540976e-01 4.719293e-01 4.736252e-01 1.029952e+00 1.588010e+00 4.889634e-01 1.021166e+00 1.521179e+00 1.191006e+00 1.194118e+00 8.293453e-01 1.432356e+00 1.956157e+00 8.347866e-01 1.406869e+00 1.853027e+00 1.637004e+00 1.639019e+00 6.405995e-01 1.289929e+00 7.957540e-01 1.122777e+00 1.523343e+00 9.456598e-01 1.086419e+00 7.837042e-01 1.135054e+00 1.137218e+00 1.376205e+00 5.365326e-01 8.308331e-01 1.572572e+00 1.388666e+00 1.309692e+00 7.487455e-01 9.854699e-01
    <VARIANCE> 78
    3.100067e+03 2.028726e+02 1.011415e+02 1.583090e+02 2.385769e+03 1.143123e+01 2.272170e+03 1.644958e+03 1.493873e+03 1.276219e+03 4.232318e+02 9.634795e+01 3.517037e+02 1.093608e+03 5.631816e+01 2.617621e+03 2.192720e+03 2.495056e+03 1.356159e+03 5.804636e+02 1.187698e+02 4.328682e+02 1.050017e+03 1.775834e+03 1.946053e+03 2.042598e+03 2.106499e+03 3.693524e+00 1.825773e+00 4.384004e-01 3.763447e-01 1.308069e+00 2.788752e+00 0.000000e+00 4.665671e-03 2.769161e-03 2.092652e-02 3.788703e-02 1.355353e-02 2.312087e-02 5.601307e-02 1.184301e-03 2.089155e-03 8.591157e-03 1.596913e-03 6.747105e-03 1.178405e-01 2.516214e-02 8.418964e-03 1.658128e-01 5.776294e-04 1.794323e-03 5.762765e-03 2.371635e-02 1.939083e-01 3.273216e-02 1.811687e-02 2.593783e-01 6.760553e-03 1.068953e-02 7.306821e-03 6.727535e-02 2.380483e-02 1.434908e-02 1.260363e-01 3.477801e-03 7.639357e-03 2.257382e-02 2.819366e-02 3.601380e-02 1.067911e-01 2.710090e-02 2.461779e-02 8.778149e-02 7.186179e-02 2.339959e-01 6.191352e-02 4.873841e-02
    <TRANSP> 5
    0.000000e+00 1.000000e+00 0.000000e+00 0.000000e+00 0.000000e+00
    0.000000e+00 6.000000e-01 4.000000e-01 0.000000e+00 0.000000e+00
    0.000000e+00 0.000000e+00 6.000000e-01 4.000000e-01 0.000000e+00
    0.000000e+00 0.000000e+00 0.000000e+00 7.000000e-01 3.000000e-01
    0.000000e+00 0.000000e+00 0.000000e+00 0.000000e+00 0.000000e+00
    <ENDHMM>
~h "CF"
    <BEGINHMM>
    <NUMSTATES> 5
    <STATE> 2
    <MEAN> 78
    1.357140e+02 1.384310e+02 1.125623e+02 1.381756e+02 1.474366e+02 1.754922e+02 1.063108e+02 1.155000e+02 1.049910e+02 1.351569e+02 1.644947e+02 3.022741e+00 1.673617e+02 1.442065e+02 1.618806e+02 1.285952e+02 1.409076e+02 4.345415e+01 9.335470e+01 1.463079e+02 1.684473e+02 1.531570e+02 9.768462e+01 1.351831e+02 7.222208e+01 8.270124e+01 1.230046e+02 5.623796e+00 3.167608e+00 2.992618e+00 2.839355e+00 2.936229e+00 4.957705e+00 9.999956e-01 1.451331e+00 8.413646e-01 6.087274e-01 9.253709e-01 8.399299e-01 6.123706e-01 9.477928e-01 2.522533e-01 2.540976e-01 4.719293e-01 4.736252e-01 1.029952e+00 1.588010e+00 4.889634e-01 1.021166e+00 1.521179e+00 1.191006e+00 1.194118e+00 8.293453e-01 1.432356e+00 1.956157e+00 8.347866e-01 1.406869e+00 1.853027e+00 1.637004e+00 1.639019e+00 6.405995e-01 1.289929e+00 7.957540e-01 1.122777e+00 1.523343e+00 9.456598e-01 1.086419e+00 7.837042e-01 1.135054e+00 1.137218e+00 1.376205e+00 5.365326e-01 8.308331e-01 1.572572e+00 1.388666e+00 1.309692e+00 7.487455e-01 9.854699e-01
    <VARIANCE> 78
    3.100067e+03 2.028726e+02 1.011415e+02 1.583090e+02 2.385769e+03 1.143123e+01 2.272170e+03 1.644958e+03 1.493873e+03 1.276219e+03 4.232318e+02 9.634795e+01 3.517037e+02 1.093608e+03 5.631816e+01 2.617621e+03 2.192720e+03 2.495056e+03 1.356159e+03 5.804636e+02 1.187698e+02 4.328682e+02 1.050017e+03 1.775834e+03 1.946053e+03 2.042598e+03 2.106499e+03 3.693524e+00 1.825773e+00 4.384004e-01 3.763447e-01 1.308069e+00 2.788752e+00 0.000000e+00 4.665671e-03 2.769161e-03 2.092652e-02 3.788703e-02 1.355353e-02 2.312087e-02 5.601307e-02 1.184301e-03 2.089155e-03 8.591157e-03 1.596913e-03 6.747105e-03 1.178405e-01 2.516214e-02 8.418964e-03 1.658128e-01 5.776294e-04 1.794323e-03 5.762765e-03 2.371635e-02 1.939083e-01 3.273216e-02 1.811687e-02 2.593783e-01 6.760553e-03 1.068953e-02 7.306821e-03 6.727535e-02 2.380483e-02 1.434908e-02 1.260363e-01 3.477801e-03 7.639357e-03 2.257382e-02 2.819366e-02 3.601380e-02 1.067911e-01 2.710090e-02 2.461779e-02 8.778149e-02 7.186179e-02 2.339959e-01 6.191352e-02 4.873841e-02
    <STATE> 3
    <MEAN> 78
    1.357140e+02 1.384310e+02 1.125623e+02 1.381756e+02 1.474366e+02 1.754922e+02 1.063108e+02 1.155000e+02 1.049910e+02 1.351569e+02 1.644947e+02 3.022741e+00 1.673617e+02 1.442065e+02 1.618806e+02 1.285952e+02 1.409076e+02 4.345415e+01 9.335470e+01 1.463079e+02 1.684473e+02 1.531570e+02 9.768462e+01 1.351831e+02 7.222208e+01 8.270124e+01 1.230046e+02 5.623796e+00 3.167608e+00 2.992618e+00 2.839355e+00 2.936229e+00 4.957705e+00 9.999956e-01 1.451331e+00 8.413646e-01 6.087274e-01 9.253709e-01 8.399299e-01 6.123706e-01 9.477928e-01 2.522533e-01 2.540976e-01 4.719293e-01 4.736252e-01 1.029952e+00 1.588010e+00 4.889634e-01 1.021166e+00 1.521179e+00 1.191006e+00 1.194118e+00 8.293453e-01 1.432356e+00 1.956157e+00 8.347866e-01 1.406869e+00 1.853027e+00 1.637004e+00 1.639019e+00 6.405995e-01 1.289929e+00 7.957540e-01 1.122777e+00 1.523343e+00 9.456598e-01 1.086419e+00 7.837042e-01 1.135054e+00 1.137218e+00 1.376205e+00 5.365326e-01 8.308331e-01 1.572572e+00 1.388666e+00 1.309692e+00 7.487455e-01 9.854699e-01
    <VARIANCE> 78
    3.100067e+03 2.028726e+02 1.011415e+02 1.583090e+02 2.385769e+03 1.143123e+01 2.272170e+03 1.644958e+03 1.493873e+03 1.276219e+03 4.232318e+02 9.634795e+01 3.517037e+02 1.093608e+03 5.631816e+01 2.617621e+03 2.192720e+03 2.495056e+03 1.356159e+03 5.804636e+02 1.187698e+02 4.328682e+02 1.050017e+03 1.775834e+03 1.946053e+03 2.042598e+03 2.106499e+03 3.693524e+00 1.825773e+00 4.384004e-01 3.763447e-01 1.308069e+00 2.788752e+00 0.000000e+00 4.665671e-03 2.769161e-03 2.092652e-02 3.788703e-02 1.355353e-02 2.312087e-02 5.601307e-02 1.184301e-03 2.089155e-03 8.591157e-03 1.596913e-03 6.747105e-03 1.178405e-01 2.516214e-02 8.418964e-03 1.658128e-01 5.776294e-04 1.794323e-03 5.762765e-03 2.371635e-02 1.939083e-01 3.273216e-02 1.811687e-02 2.593783e-01 6.760553e-03 1.068953e-02 7.306821e-03 6.727535e-02 2.380483e-02 1.434908e-02 1.260363e-01 3.477801e-03 7.639357e-03 2.257382e-02 2.819366e-02 3.601380e-02 1.067911e-01 2.710090e-02 2.461779e-02 8.778149e-02 7.186179e-02 2.339959e-01 6.191352e-02 4.873841e-02
    <STATE> 4
    <MEAN> 78
    1.357140e+02 1.384310e+02 1.125623e+02 1.381756e+02 1.474366e+02 1.754922e+02 1.063108e+02 1.155000e+02 1.049910e+02 1.351569e+02 1.644947e+02 3.022741e+00 1.673617e+02 1.442065e+02 1.618806e+02 1.285952e+02 1.409076e+02 4.345415e+01 9.335470e+01 1.463079e+02 1.684473e+02 1.531570e+02 9.768462e+01 1.351831e+02 7.222208e+01 8.270124e+01 1.230046e+02 5.623796e+00 3.167608e+00 2.992618e+00 2.839355e+00 2.936229e+00 4.957705e+00 9.999956e-01 1.451331e+00 8.413646e-01 6.087274e-01 9.253709e-01 8.399299e-01 6.123706e-01 9.477928e-01 2.522533e-01 2.540976e-01 4.719293e-01 4.736252e-01 1.029952e+00 1.588010e+00 4.889634e-01 1.021166e+00 1.521179e+00 1.191006e+00 1.194118e+00 8.293453e-01 1.432356e+00 1.956157e+00 8.347866e-01 1.406869e+00 1.853027e+00 1.637004e+00 1.639019e+00 6.405995e-01 1.289929e+00 7.957540e-01 1.122777e+00 1.523343e+00 9.456598e-01 1.086419e+00 7.837042e-01 1.135054e+00 1.137218e+00 1.376205e+00 5.365326e-01 8.308331e-01 1.572572e+00 1.388666e+00 1.309692e+00 7.487455e-01 9.854699e-01
    <VARIANCE> 78
    3.100067e+03 2.028726e+02 1.011415e+02 1.583090e+02 2.385769e+03 1.143123e+01 2.272170e+03 1.644958e+03 1.493873e+03 1.276219e+03 4.232318e+02 9.634795e+01 3.517037e+02 1.093608e+03 5.631816e+01 2.617621e+03 2.192720e+03 2.495056e+03 1.356159e+03 5.804636e+02 1.187698e+02 4.328682e+02 1.050017e+03 1.775834e+03 1.946053e+03 2.042598e+03 2.106499e+03 3.693524e+00 1.825773e+00 4.384004e-01 3.763447e-01 1.308069e+00 2.788752e+00 0.000000e+00 4.665671e-03 2.769161e-03 2.092652e-02 3.788703e-02 1.355353e-02 2.312087e-02 5.601307e-02 1.184301e-03 2.089155e-03 8.591157e-03 1.596913e-03 6.747105e-03 1.178405e-01 2.516214e-02 8.418964e-03 1.658128e-01 5.776294e-04 1.794323e-03 5.762765e-03 2.371635e-02 1.939083e-01 3.273216e-02 1.811687e-02 2.593783e-01 6.760553e-03 1.068953e-02 7.306821e-03 6.727535e-02 2.380483e-02 1.434908e-02 1.260363e-01 3.477801e-03 7.639357e-03 2.257382e-02 2.819366e-02 3.601380e-02 1.067911e-01 2.710090e-02 2.461779e-02 8.778149e-02 7.186179e-02 2.339959e-01 6.191352e-02 4.873841e-02
    <TRANSP> 5
    0.000000e+00 1.000000e+00 0.000000e+00 0.000000e+00 0.000000e+00
    0.000000e+00 6.000000e-01 4.000000e-01 0.000000e+00 0.000000e+00
    0.000000e+00 0.000000e+00 6.000000e-01 4.000000e-01 0.000000e+00
    0.000000e+00 0.000000e+00 0.000000e+00 7.000000e-01 3.000000e-01
    0.000000e+00 0.000000e+00 0.000000e+00 0.000000e+00 0.000000e+00
    <ENDHMM>
~h "CN"
    <BEGINHMM>
    <NUMSTATES> 5
    <STATE> 2
    <MEAN> 78
    1.357140e+02 1.384310e+02 1.125623e+02 1.381756e+02 1.474366e+02 1.754922e+02 1.063108e+02 1.155000e+02 1.049910e+02 1.351569e+02 1.644947e+02 3.022741e+00 1.673617e+02 1.442065e+02 1.618806e+02 1.285952e+02 1.409076e+02 4.345415e+01 9.335470e+01 1.463079e+02 1.684473e+02 1.531570e+02 9.768462e+01 1.351831e+02 7.222208e+01 8.270124e+01 1.230046e+02 5.623796e+00 3.167608e+00 2.992618e+00 2.839355e+00 2.936229e+00 4.957705e+00 9.999956e-01 1.451331e+00 8.413646e-01 6.087274e-01 9.253709e-01 8.399299e-01 6.123706e-01 9.477928e-01 2.522533e-01 2.540976e-01 4.719293e-01 4.736252e-01 1.029952e+00 1.588010e+00 4.889634e-01 1.021166e+00 1.521179e+00 1.191006e+00 1.194118e+00 8.293453e-01 1.432356e+00 1.956157e+00 8.347866e-01 1.406869e+00 1.853027e+00 1.637004e+00 1.639019e+00 6.405995e-01 1.289929e+00 7.957540e-01 1.122777e+00 1.523343e+00 9.456598e-01 1.086419e+00 7.837042e-01 1.135054e+00 1.137218e+00 1.376205e+00 5.365326e-01 8.308331e-01 1.572572e+00 1.388666e+00 1.309692e+00 7.487455e-01 9.854699e-01
    <VARIANCE> 78
    3.100067e+03 2.028726e+02 1.011415e+02 1.583090e+02 2.385769e+03 1.143123e+01 2.272170e+03 1.644958e+03 1.493873e+03 1.276219e+03 4.232318e+02 9.634795e+01 3.517037e+02 1.093608e+03 5.631816e+01 2.617621e+03 2.192720e+03 2.495056e+03 1.356159e+03 5.804636e+02 1.187698e+02 4.328682e+02 1.050017e+03 1.775834e+03 1.946053e+03 2.042598e+03 2.106499e+03 3.693524e+00 1.825773e+00 4.384004e-01 3.763447e-01 1.308069e+00 2.788752e+00 0.000000e+00 4.665671e-03 2.769161e-03 2.092652e-02 3.788703e-02 1.355353e-02 2.312087e-02 5.601307e-02 1.184301e-03 2.089155e-03 8.591157e-03 1.596913e-03 6.747105e-03 1.178405e-01 2.516214e-02 8.418964e-03 1.658128e-01 5.776294e-04 1.794323e-03 5.762765e-03 2.371635e-02 1.939083e-01 3.273216e-02 1.811687e-02 2.593783e-01 6.760553e-03 1.068953e-02 7.306821e-03 6.727535e-02 2.380483e-02 1.434908e-02 1.260363e-01 3.477801e-03 7.639357e-03 2.257382e-02 2.819366e-02 3.601380e-02 1.067911e-01 2.710090e-02 2.461779e-02 8.778149e-02 7.186179e-02 2.339959e-01 6.191352e-02 4.873841e-02
    <STATE> 3
    <MEAN> 78
    1.357140e+02 1.384310e+02 1.125623e+02 1.381756e+02 1.474366e+02 1.754922e+02 1.063108e+02 1.155000e+02 1.049910e+02 1.351569e+02 1.644947e+02 3.022741e+00 1.673617e+02 1.442065e+02 1.618806e+02 1.285952e+02 1.409076e+02 4.345415e+01 9.335470e+01 1.463079e+02 1.684473e+02 1.531570e+02 9.768462e+01 1.351831e+02 7.222208e+01 8.270124e+01 1.230046e+02 5.623796e+00 3.167608e+00 2.992618e+00 2.839355e+00 2.936229e+00 4.957705e+00 9.999956e-01 1.451331e+00 8.413646e-01 6.087274e-01 9.253709e-01 8.399299e-01 6.123706e-01 9.477928e-01 2.522533e-01 2.540976e-01 4.719293e-01 4.736252e-01 1.029952e+00 1.588010e+00 4.889634e-01 1.021166e+00 1.521179e+00 1.191006e+00 1.194118e+00 8.293453e-01 1.432356e+00 1.956157e+00 8.347866e-01 1.406869e+00 1.853027e+00 1.637004e+00 1.639019e+00 6.405995e-01 1.289929e+00 7.957540e-01 1.122777e+00 1.523343e+00 9.456598e-01 1.086419e+00 7.837042e-01 1.135054e+00 1.137218e+00 1.376205e+00 5.365326e-01 8.308331e-01 1.572572e+00 1.388666e+00 1.309692e+00 7.487455e-01 9.854699e-01
    <VARIANCE> 78
    3.100067e+03 2.028726e+02 1.011415e+02 1.583090e+02 2.385769e+03 1.143123e+01 2.272170e+03 1.644958e+03 1.493873e+03 1.276219e+03 4.232318e+02 9.634795e+01 3.517037e+02 1.093608e+03 5.631816e+01 2.617621e+03 2.192720e+03 2.495056e+03 1.356159e+03 5.804636e+02 1.187698e+02 4.328682e+02 1.050017e+03 1.775834e+03 1.946053e+03 2.042598e+03 2.106499e+03 3.693524e+00 1.825773e+00 4.384004e-01 3.763447e-01 1.308069e+00 2.788752e+00 0.000000e+00 4.665671e-03 2.769161e-03 2.092652e-02 3.788703e-02 1.355353e-02 2.312087e-02 5.601307e-02 1.184301e-03 2.089155e-03 8.591157e-03 1.596913e-03 6.747105e-03 1.178405e-01 2.516214e-02 8.418964e-03 1.658128e-01 5.776294e-04 1.794323e-03 5.762765e-03 2.371635e-02 1.939083e-01 3.273216e-02 1.811687e-02 2.593783e-01 6.760553e-03 1.068953e-02 7.306821e-03 6.727535e-02 2.380483e-02 1.434908e-02 1.260363e-01 3.477801e-03 7.639357e-03 2.257382e-02 2.819366e-02 3.601380e-02 1.067911e-01 2.710090e-02 2.461779e-02 8.778149e-02 7.186179e-02 2.339959e-01 6.191352e-02 4.873841e-02
    <STATE> 4
    <MEAN> 78
    1.357140e+02 1.384310e+02 1.125623e+02 1.381756e+02 1.474366e+02 1.754922e+02 1.063108e+02 1.155000e+02 1.049910e+02 1.351569e+02 1.644947e+02 3.022741e+00 1.673617e+02 1.442065e+02 1.618806e+02 1.285952e+02 1.409076e+02 4.345415e+01 9.335470e+01 1.463079e+02 1.684473e+02 1.531570e+02 9.768462e+01 1.351831e+02 7.222208e+01 8.270124e+01 1.230046e+02 5.623796e+00 3.167608e+00 2.992618e+00 2.839355e+00 2.936229e+00 4.957705e+00 9.999956e-01 1.451331e+00 8.413646e-01 6.087274e-01 9.253709e-01 8.399299e-01 6.123706e-01 9.477928e-01 2.522533e-01 2.540976e-01 4.719293e-01 4.736252e-01 1.029952e+00 1.588010e+00 4.889634e-01 1.021166e+00 1.521179e+00 1.191006e+00 1.194118e+00 8.293453e-01 1.432356e+00 1.956157e+00 8.347866e-01 1.406869e+00 1.853027e+00 1.637004e+00 1.639019e+00 6.405995e-01 1.289929e+00 7.957540e-01 1.122777e+00 1.523343e+00 9.456598e-01 1.086419e+00 7.837042e-01 1.135054e+00 1.137218e+00 1.376205e+00 5.365326e-01 8.308331e-01 1.572572e+00 1.388666e+00 1.309692e+00 7.487455e-01 9.854699e-01
    <VARIANCE> 78
    3.100067e+03 2.028726e+02 1.011415e+02 1.583090e+02 2.385769e+03 1.143123e+01 2.272170e+03 1.644958e+03 1.493873e+03 1.276219e+03 4.232318e+02 9.634795e+01 3.517037e+02 1.093608e+03 5.631816e+01 2.617621e+03 2.192720e+03 2.495056e+03 1.356159e+03 5.804636e+02 1.187698e+02 4.328682e+02 1.050017e+03 1.775834e+03 1.946053e+03 2.042598e+03 2.106499e+03 3.693524e+00 1.825773e+00 4.384004e-01 3.763447e-01 1.308069e+00 2.788752e+00 0.000000e+00 4.665671e-03 2.769161e-03 2.092652e-02 3.788703e-02 1.355353e-02 2.312087e-02 5.601307e-02 1.184301e-03 2.089155e-03 8.591157e-03 1.596913e-03 6.747105e-03 1.178405e-01 2.516214e-02 8.418964e-03 1.658128e-01 5.776294e-04 1.794323e-03 5.762765e-03 2.371635e-02 1.939083e-01 3.273216e-02 1.811687e-02 2.593783e-01 6.760553e-03 1.068953e-02 7.306821e-03 6.727535e-02 2.380483e-02 1.434908e-02 1.260363e-01 3.477801e-03 7.639357e-03 2.257382e-02 2.819366e-02 3.601380e-02 1.067911e-01 2.710090e-02 2.461779e-02 8.778149e-02 7.186179e-02 2.339959e-01 6.191352e-02 4.873841e-02
    <TRANSP> 5
    0.000000e+00 1.000000e+00 0.000000e+00 0.000000e+00 0.000000e+00
    0.000000e+00 6.000000e-01 4.000000e-01 0.000000e+00 0.000000e+00
    0.000000e+00 0.000000e+00 6.000000e-01 4.000000e-01 0.000000e+00
    0.000000e+00 0.000000e+00 0.000000e+00 7.000000e-01 3.000000e-01
    0.000000e+00 0.000000e+00 0.000000e+00 0.000000e+00 0.000000e+00
    <ENDHMM>
~h "CP"
    <BEGINHMM>
    <NUMSTATES> 5
    <STATE> 2
    <MEAN> 78
    1.357140e+02 1.384310e+02 1.125623e+02 1.381756e+02 1.474366e+02 1.754922e+02 1.063108e+02 1.155000e+02 1.049910e+02 1.351569e+02 1.644947e+02 3.022741e+00 1.673617e+02 1.442065e+02 1.618806e+02 1.285952e+02 1.409076e+02 4.345415e+01 9.335470e+01 1.463079e+02 1.684473e+02 1.531570e+02 9.768462e+01 1.351831e+02 7.222208e+01 8.270124e+01 1.230046e+02 5.623796e+00 3.167608e+00 2.992618e+00 2.839355e+00 2.936229e+00 4.957705e+00 9.999956e-01 1.451331e+00 8.413646e-01 6.087274e-01 9.253709e-01 8.399299e-01 6.123706e-01 9.477928e-01 2.522533e-01 2.540976e-01 4.719293e-01 4.736252e-01 1.029952e+00 1.588010e+00 4.889634e-01 1.021166e+00 1.521179e+00 1.191006e+00 1.194118e+00 8.293453e-01 1.432356e+00 1.956157e+00 8.347866e-01 1.406869e+00 1.853027e+00 1.637004e+00 1.639019e+00 6.405995e-01 1.289929e+00 7.957540e-01 1.122777e+00 1.523343e+00 9.456598e-01 1.086419e+00 7.837042e-01 1.135054e+00 1.137218e+00 1.376205e+00 5.365326e-01 8.308331e-01 1.572572e+00 1.388666e+00 1.309692e+00 7.487455e-01 9.854699e-01
    <VARIANCE> 78
    3.100067e+03 2.028726e+02 1.011415e+02 1.583090e+02 2.385769e+03 1.143123e+01 2.272170e+03 1.644958e+03 1.493873e+03 1.276219e+03 4.232318e+02 9.634795e+01 3.517037e+02 1.093608e+03 5.631816e+01 2.617621e+03 2.192720e+03 2.495056e+03 1.356159e+03 5.804636e+02 1.187698e+02 4.328682e+02 1.050017e+03 1.775834e+03 1.946053e+03 2.042598e+03 2.106499e+03 3.693524e+00 1.825773e+00 4.384004e-01 3.763447e-01 1.308069e+00 2.788752e+00 0.000000e+00 4.665671e-03 2.769161e-03 2.092652e-02 3.788703e-02 1.355353e-02 2.312087e-02 5.601307e-02 1.184301e-03 2.089155e-03 8.591157e-03 1.596913e-03 6.747105e-03 1.178405e-01 2.516214e-02 8.418964e-03 1.658128e-01 5.776294e-04 1.794323e-03 5.762765e-03 2.371635e-02 1.939083e-01 3.273216e-02 1.811687e-02 2.593783e-01 6.760553e-03 1.068953e-02 7.306821e-03 6.727535e-02 2.380483e-02 1.434908e-02 1.260363e-01 3.477801e-03 7.639357e-03 2.257382e-02 2.819366e-02 3.601380e-02 1.067911e-01 2.710090e-02 2.461779e-02 8.778149e-02 7.186179e-02 2.339959e-01 6.191352e-02 4.873841e-02
    <STATE> 3
    <MEAN> 78
    1.357140e+02 1.384310e+02 1.125623e+02 1.381756e+02 1.474366e+02 1.754922e+02 1.063108e+02 1.155000e+02 1.049910e+02 1.351569e+02 1.644947e+02 3.022741e+00 1.673617e+02 1.442065e+02 1.618806e+02 1.285952e+02 1.409076e+02 4.345415e+01 9.335470e+01 1.463079e+02 1.684473e+02 1.531570e+02 9.768462e+01 1.351831e+02 7.222208e+01 8.270124e+01 1.230046e+02 5.623796e+00 3.167608e+00 2.992618e+00 2.839355e+00 2.936229e+00 4.957705e+00 9.999956e-01 1.451331e+00 8.413646e-01 6.087274e-01 9.253709e-01 8.399299e-01 6.123706e-01 9.477928e-01 2.522533e-01 2.540976e-01 4.719293e-01 4.736252e-01 1.029952e+00 1.588010e+00 4.889634e-01 1.021166e+00 1.521179e+00 1.191006e+00 1.194118e+00 8.293453e-01 1.432356e+00 1.956157e+00 8.347866e-01 1.406869e+00 1.853027e+00 1.637004e+00 1.639019e+00 6.405995e-01 1.289929e+00 7.957540e-01 1.122777e+00 1.523343e+00 9.456598e-01 1.086419e+00 7.837042e-01 1.135054e+00 1.137218e+00 1.376205e+00 5.365326e-01 8.308331e-01 1.572572e+00 1.388666e+00 1.309692e+00 7.487455e-01 9.854699e-01
    <VARIANCE> 78
    3.100067e+03 2.028726e+02 1.011415e+02 1.583090e+02 2.385769e+03 1.143123e+01 2.272170e+03 1.644958e+03 1.493873e+03 1.276219e+03 4.232318e+02 9.634795e+01 3.517037e+02 1.093608e+03 5.631816e+01 2.617621e+03 2.192720e+03 2.495056e+03 1.356159e+03 5.804636e+02 1.187698e+02 4.328682e+02 1.050017e+03 1.775834e+03 1.946053e+03 2.042598e+03 2.106499e+03 3.693524e+00 1.825773e+00 4.384004e-01 3.763447e-01 1.308069e+00 2.788752e+00 0.000000e+00 4.665671e-03 2.769161e-03 2.092652e-02 3.788703e-02 1.355353e-02 2.312087e-02 5.601307e-02 1.184301e-03 2.089155e-03 8.591157e-03 1.596913e-03 6.747105e-03 1.178405e-01 2.516214e-02 8.418964e-03 1.658128e-01 5.776294e-04 1.794323e-03 5.762765e-03 2.371635e-02 1.939083e-01 3.273216e-02 1.811687e-02 2.593783e-01 6.760553e-03 1.068953e-02 7.306821e-03 6.727535e-02 2.380483e-02 1.434908e-02 1.260363e-01 3.477801e-03 7.639357e-03 2.257382e-02 2.819366e-02 3.601380e-02 1.067911e-01 2.710090e-02 2.461779e-02 8.778149e-02 7.186179e-02 2.339959e-01 6.191352e-02 4.873841e-02
    <STATE> 4
    <MEAN> 78
    1.357140e+02 1.384310e+02 1.125623e+02 1.381756e+02 1.474366e+02 1.754922e+02 1.063108e+02 1.155000e+02 1.049910e+02 1.351569e+02 1.644947e+02 3.022741e+00 1.673617e+02 1.442065e+02 1.618806e+02 1.285952e+02 1.409076e+02 4.345415e+01 9.335470e+01 1.463079e+02 1.684473e+02 1.531570e+02 9.768462e+01 1.351831e+02 7.222208e+01 8.270124e+01 1.230046e+02 5.623796e+00 3.167608e+00 2.992618e+00 2.839355e+00 2.936229e+00 4.957705e+00 9.999956e-01 1.451331e+00 8.413646e-01 6.087274e-01 9.253709e-01 8.399299e-01 6.123706e-01 9.477928e-01 2.522533e-01 2.540976e-01 4.719293e-01 4.736252e-01 1.029952e+00 1.588010e+00 4.889634e-01 1.021166e+00 1.521179e+00 1.191006e+00 1.194118e+00 8.293453e-01 1.432356e+00 1.956157e+00 8.347866e-01 1.406869e+00 1.853027e+00 1.637004e+00 1.639019e+00 6.405995e-01 1.289929e+00 7.957540e-01 1.122777e+00 1.523343e+00 9.456598e-01 1.086419e+00 7.837042e-01 1.135054e+00 1.137218e+00 1.376205e+00 5.365326e-01 8.308331e-01 1.572572e+00 1.388666e+00 1.309692e+00 7.487455e-01 9.854699e-01
    <VARIANCE> 78
    3.100067e+03 2.028726e+02 1.011415e+02 1.583090e+02 2.385769e+03 1.143123e+01 2.272170e+03 1.644958e+03 1.493873e+03 1.276219e+03 4.232318e+02 9.634795e+01 3.517037e+02 1.093608e+03 5.631816e+01 2.617621e+03 2.192720e+03 2.495056e+03 1.356159e+03 5.804636e+02 1.187698e+02 4.328682e+02 1.050017e+03 1.775834e+03 1.946053e+03 2.042598e+03 2.106499e+03 3.693524e+00 1.825773e+00 4.384004e-01 3.763447e-01 1.308069e+00 2.788752e+00 0.000000e+00 4.665671e-03 2.769161e-03 2.092652e-02 3.788703e-02 1.355353e-02 2.312087e-02 5.601307e-02 1.184301e-03 2.089155e-03 8.591157e-03 1.596913e-03 6.747105e-03 1.178405e-01 2.516214e-02 8.418964e-03 1.658128e-01 5.776294e-04 1.794323e-03 5.762765e-03 2.371635e-02 1.939083e-01 3.273216e-02 1.811687e-02 2.593783e-01 6.760553e-03 1.068953e-02 7.306821e-03 6.727535e-02 2.380483e-02 1.434908e-02 1.260363e-01 3.477801e-03 7.639357e-03 2.257382e-02 2.819366e-02 3.601380e-02 1.067911e-01 2.710090e-02 2.461779e-02 8.778149e-02 7.186179e-02 2.339959e-01 6.191352e-02 4.873841e-02
    <TRANSP> 5
    0.000000e+00 1.000000e+00 0.000000e+00 0.000000e+00 0.000000e+00
    0.000000e+00 6.000000e-01 4.000000e-01 0.000000e+00 0.000000e+00
    0.000000e+00 0.000000e+00 6.000000e-01 4.000000e-01 0.000000e+00
    0.000000e+00 0.000000e+00 0.000000e+00 7.000000e-01 3.000000e-01
    0.000000e+00 0.000000e+00 0.000000e+00 0.000000e+00 0.000000e+00
    <ENDHMM>
~h "CV"
    <BEGINHMM>
    <NUMSTATES> 5
    <STATE> 2
    <MEAN> 78
    1.357140e+02 1.384310e+02 1.125623e+02 1.381756e+02 1.474366e+02 1.754922e+02 1.063108e+02 1.155000e+02 1.049910e+02 1.351569e+02 1.644947e+02 3.022741e+00 1.673617e+02 1.442065e+02 1.618806e+02 1.285952e+02 1.409076e+02 4.345415e+01 9.335470e+01 1.463079e+02 1.684473e+02 1.531570e+02 9.768462e+01 1.351831e+02 7.222208e+01 8.270124e+01 1.230046e+02 5.623796e+00 3.167608e+00 2.992618e+00 2.839355e+00 2.936229e+00 4.957705e+00 9.999956e-01 1.451331e+00 8.413646e-01 6.087274e-01 9.253709e-01 8.399299e-01 6.123706e-01 9.477928e-01 2.522533e-01 2.540976e-01 4.719293e-01 4.736252e-01 1.029952e+00 1.588010e+00 4.889634e-01 1.021166e+00 1.521179e+00 1.191006e+00 1.194118e+00 8.293453e-01 1.432356e+00 1.956157e+00 8.347866e-01 1.406869e+00 1.853027e+00 1.637004e+00 1.639019e+00 6.405995e-01 1.289929e+00 7.957540e-01 1.122777e+00 1.523343e+00 9.456598e-01 1.086419e+00 7.837042e-01 1.135054e+00 1.137218e+00 1.376205e+00 5.365326e-01 8.308331e-01 1.572572e+00 1.388666e+00 1.309692e+00 7.487455e-01 9.854699e-01
    <VARIANCE> 78
    3.100067e+03 2.028726e+02 1.011415e+02 1.583090e+02 2.385769e+03 1.143123e+01 2.272170e+03 1.644958e+03 1.493873e+03 1.276219e+03 4.232318e+02 9.634795e+01 3.517037e+02 1.093608e+03 5.631816e+01 2.617621e+03 2.192720e+03 2.495056e+03 1.356159e+03 5.804636e+02 1.187698e+02 4.328682e+02 1.050017e+03 1.775834e+03 1.946053e+03 2.042598e+03 2.106499e+03 3.693524e+00 1.825773e+00 4.384004e-01 3.763447e-01 1.308069e+00 2.788752e+00 0.000000e+00 4.665671e-03 2.769161e-03 2.092652e-02 3.788703e-02 1.355353e-02 2.312087e-02 5.601307e-02 1.184301e-03 2.089155e-03 8.591157e-03 1.596913e-03 6.747105e-03 1.178405e-01 2.516214e-02 8.418964e-03 1.658128e-01 5.776294e-04 1.794323e-03 5.762765e-03 2.371635e-02 1.939083e-01 3.273216e-02 1.811687e-02 2.593783e-01 6.760553e-03 1.068953e-02 7.306821e-03 6.727535e-02 2.380483e-02 1.434908e-02 1.260363e-01 3.477801e-03 7.639357e-03 2.257382e-02 2.819366e-02 3.601380e-02 1.067911e-01 2.710090e-02 2.461779e-02 8.778149e-02 7.186179e-02 2.339959e-01 6.191352e-02 4.873841e-02
    <STATE> 3
    <MEAN> 78
    1.357140e+02 1.384310e+02 1.125623e+02 1.381756e+02 1.474366e+02 1.754922e+02 1.063108e+02 1.155000e+02 1.049910e+02 1.351569e+02 1.644947e+02 3.022741e+00 1.673617e+02 1.442065e+02 1.618806e+02 1.285952e+02 1.409076e+02 4.345415e+01 9.335470e+01 1.463079e+02 1.684473e+02 1.531570e+02 9.768462e+01 1.351831e+02 7.222208e+01 8.270124e+01 1.230046e+02 5.623796e+00 3.167608e+00 2.992618e+00 2.839355e+00 2.936229e+00 4.957705e+00 9.999956e-01 1.451331e+00 8.413646e-01 6.087274e-01 9.253709e-01 8.399299e-01 6.123706e-01 9.477928e-01 2.522533e-01 2.540976e-01 4.719293e-01 4.736252e-01 1.029952e+00 1.588010e+00 4.889634e-01 1.021166e+00 1.521179e+00 1.191006e+00 1.194118e+00 8.293453e-01 1.432356e+00 1.956157e+00 8.347866e-01 1.406869e+00 1.853027e+00 1.637004e+00 1.639019e+00 6.405995e-01 1.289929e+00 7.957540e-01 1.122777e+00 1.523343e+00 9.456598e-01 1.086419e+00 7.837042e-01 1.135054e+00 1.137218e+00 1.376205e+00 5.365326e-01 8.308331e-01 1.572572e+00 1.388666e+00 1.309692e+00 7.487455e-01 9.854699e-01
    <VARIANCE> 78
    3.100067e+03 2.028726e+02 1.011415e+02 1.583090e+02 2.385769e+03 1.143123e+01 2.272170e+03 1.644958e+03 1.493873e+03 1.276219e+03 4.232318e+02 9.634795e+01 3.517037e+02 1.093608e+03 5.631816e+01 2.617621e+03 2.192720e+03 2.495056e+03 1.356159e+03 5.804636e+02 1.187698e+02 4.328682e+02 1.050017e+03 1.775834e+03 1.946053e+03 2.042598e+03 2.106499e+03 3.693524e+00 1.825773e+00 4.384004e-01 3.763447e-01 1.308069e+00 2.788752e+00 0.000000e+00 4.665671e-03 2.769161e-03 2.092652e-02 3.788703e-02 1.355353e-02 2.312087e-02 5.601307e-02 1.184301e-03 2.089155e-03 8.591157e-03 1.596913e-03 6.747105e-03 1.178405e-01 2.516214e-02 8.418964e-03 1.658128e-01 5.776294e-04 1.794323e-03 5.762765e-03 2.371635e-02 1.939083e-01 3.273216e-02 1.811687e-02 2.593783e-01 6.760553e-03 1.068953e-02 7.306821e-03 6.727535e-02 2.380483e-02 1.434908e-02 1.260363e-01 3.477801e-03 7.639357e-03 2.257382e-02 2.819366e-02 3.601380e-02 1.067911e-01 2.710090e-02 2.461779e-02 8.778149e-02 7.186179e-02 2.339959e-01 6.191352e-02 4.873841e-02
    <STATE> 4
    <MEAN> 78
    1.357140e+02 1.384310e+02 1.125623e+02 1.381756e+02 1.474366e+02 1.754922e+02 1.063108e+02 1.155000e+02 1.049910e+02 1.351569e+02 1.644947e+02 3.022741e+00 1.673617e+02 1.442065e+02 1.618806e+02 1.285952e+02 1.409076e+02 4.345415e+01 9.335470e+01 1.463079e+02 1.684473e+02 1.531570e+02 9.768462e+01 1.351831e+02 7.222208e+01 8.270124e+01 1.230046e+02 5.623796e+00 3.167608e+00 2.992618e+00 2.839355e+00 2.936229e+00 4.957705e+00 9.999956e-01 1.451331e+00 8.413646e-01 6.087274e-01 9.253709e-01 8.399299e-01 6.123706e-01 9.477928e-01 2.522533e-01 2.540976e-01 4.719293e-01 4.736252e-01 1.029952e+00 1.588010e+00 4.889634e-01 1.021166e+00 1.521179e+00 1.191006e+00 1.194118e+00 8.293453e-01 1.432356e+00 1.956157e+00 8.347866e-01 1.406869e+00 1.853027e+00 1.637004e+00 1.639019e+00 6.405995e-01 1.289929e+00 7.957540e-01 1.122777e+00 1.523343e+00 9.456598e-01 1.086419e+00 7.837042e-01 1.135054e+00 1.137218e+00 1.376205e+00 5.365326e-01 8.308331e-01 1.572572e+00 1.388666e+00 1.309692e+00 7.487455e-01 9.854699e-01
    <VARIANCE> 78
    3.100067e+03 2.028726e+02 1.011415e+02 1.583090e+02 2.385769e+03 1.143123e+01 2.272170e+03 1.644958e+03 1.493873e+03 1.276219e+03 4.232318e+02 9.634795e+01 3.517037e+02 1.093608e+03 5.631816e+01 2.617621e+03 2.192720e+03 2.495056e+03 1.356159e+03 5.804636e+02 1.187698e+02 4.328682e+02 1.050017e+03 1.775834e+03 1.946053e+03 2.042598e+03 2.106499e+03 3.693524e+00 1.825773e+00 4.384004e-01 3.763447e-01 1.308069e+00 2.788752e+00 0.000000e+00 4.665671e-03 2.769161e-03 2.092652e-02 3.788703e-02 1.355353e-02 2.312087e-02 5.601307e-02 1.184301e-03 2.089155e-03 8.591157e-03 1.596913e-03 6.747105e-03 1.178405e-01 2.516214e-02 8.418964e-03 1.658128e-01 5.776294e-04 1.794323e-03 5.762765e-03 2.371635e-02 1.939083e-01 3.273216e-02 1.811687e-02 2.593783e-01 6.760553e-03 1.068953e-02 7.306821e-03 6.727535e-02 2.380483e-02 1.434908e-02 1.260363e-01 3.477801e-03 7.639357e-03 2.257382e-02 2.819366e-02 3.601380e-02 1.067911e-01 2.710090e-02 2.461779e-02 8.778149e-02 7.186179e-02 2.339959e-01 6.191352e-02 4.873841e-02
    <TRANSP> 5
    0.000000e+00 1.000000e+00 0.000000e+00 0.000000e+00 0.000000e+00
    0.000000e+00 6.000000e-01 4.000000e-01 0.000000e+00 0.000000e+00
    0.000000e+00 0.000000e+00 6.000000e-01 4.000000e-01 0.000000e+00
    0.000000e+00 0.000000e+00 0.000000e+00 7.000000e-01 3.000000e-01
    0.000000e+00 0.000000e+00 0.000000e+00 0.000000e+00 0.000000e+00
    <ENDHMM>
~h "DC"
    <BEGINHMM>
    <NUMSTATES> 5
    <STATE> 2
    <MEAN> 78
    1.357140e+02 1.384310e+02 1.125623e+02 1.381756e+02 1.474366e+02 1.754922e+02 1.063108e+02 1.155000e+02 1.049910e+02 1.351569e+02 1.644947e+02 3.022741e+00 1.673617e+02 1.442065e+02 1.618806e+02 1.285952e+02 1.409076e+02 4.345415e+01 9.335470e+01 1.463079e+02 1.684473e+02 1.531570e+02 9.768462e+01 1.351831e+02 7.222208e+01 8.270124e+01 1.230046e+02 5.623796e+00 3.167608e+00 2.992618e+00 2.839355e+00 2.936229e+00 4.957705e+00 9.999956e-01 1.451331e+00 8.413646e-01 6.087274e-01 9.253709e-01 8.399299e-01 6.123706e-01 9.477928e-01 2.522533e-01 2.540976e-01 4.719293e-01 4.736252e-01 1.029952e+00 1.588010e+00 4.889634e-01 1.021166e+00 1.521179e+00 1.191006e+00 1.194118e+00 8.293453e-01 1.432356e+00 1.956157e+00 8.347866e-01 1.406869e+00 1.853027e+00 1.637004e+00 1.639019e+00 6.405995e-01 1.289929e+00 7.957540e-01 1.122777e+00 1.523343e+00 9.456598e-01 1.086419e+00 7.837042e-01 1.135054e+00 1.137218e+00 1.376205e+00 5.365326e-01 8.308331e-01 1.572572e+00 1.388666e+00 1.309692e+00 7.487455e-01 9.854699e-01
    <VARIANCE> 78
    3.100067e+03 2.028726e+02 1.011415e+02 1.583090e+02 2.385769e+03 1.143123e+01 2.272170e+03 1.644958e+03 1.493873e+03 1.276219e+03 4.232318e+02 9.634795e+01 3.517037e+02 1.093608e+03 5.631816e+01 2.617621e+03 2.192720e+03 2.495056e+03 1.356159e+03 5.804636e+02 1.187698e+02 4.328682e+02 1.050017e+03 1.775834e+03 1.946053e+03 2.042598e+03 2.106499e+03 3.693524e+00 1.825773e+00 4.384004e-01 3.763447e-01 1.308069e+00 2.788752e+00 0.000000e+00 4.665671e-03 2.769161e-03 2.092652e-02 3.788703e-02 1.355353e-02 2.312087e-02 5.601307e-02 1.184301e-03 2.089155e-03 8.591157e-03 1.596913e-03 6.747105e-03 1.178405e-01 2.516214e-02 8.418964e-03 1.658128e-01 5.776294e-04 1.794323e-03 5.762765e-03 2.371635e-02 1.939083e-01 3.273216e-02 1.811687e-02 2.593783e-01 6.760553e-03 1.068953e-02 7.306821e-03 6.727535e-02 2.380483e-02 1.434908e-02 1.260363e-01 3.477801e-03 7.639357e-03 2.257382e-02 2.819366e-02 3.601380e-02 1.067911e-01 2.710090e-02 2.461779e-02 8.778149e-02 7.186179e-02 2.339959e-01 6.191352e-02 4.873841e-02
    <STATE> 3
    <MEAN> 78
    1.357140e+02 1.384310e+02 1.125623e+02 1.381756e+02 1.474366e+02 1.754922e+02 1.063108e+02 1.155000e+02 1.049910e+02 1.351569e+02 1.644947e+02 3.022741e+00 1.673617e+02 1.442065e+02 1.618806e+02 1.285952e+02 1.409076e+02 4.345415e+01 9.335470e+01 1.463079e+02 1.684473e+02 1.531570e+02 9.768462e+01 1.351831e+02 7.222208e+01 8.270124e+01 1.230046e+02 5.623796e+00 3.167608e+00 2.992618e+00 2.839355e+00 2.936229e+00 4.957705e+00 9.999956e-01 1.451331e+00 8.413646e-01 6.087274e-01 9.253709e-01 8.399299e-01 6.123706e-01 9.477928e-01 2.522533e-01 2.540976e-01 4.719293e-01 4.736252e-01 1.029952e+00 1.588010e+00 4.889634e-01 1.021166e+00 1.521179e+00 1.191006e+00 1.194118e+00 8.293453e-01 1.432356e+00 1.956157e+00 8.347866e-01 1.406869e+00 1.853027e+00 1.637004e+00 1.639019e+00 6.405995e-01 1.289929e+00 7.957540e-01 1.122777e+00 1.523343e+00 9.456598e-01 1.086419e+00 7.837042e-01 1.135054e+00 1.137218e+00 1.376205e+00 5.365326e-01 8.308331e-01 1.572572e+00 1.388666e+00 1.309692e+00 7.487455e-01 9.854699e-01
    <VARIANCE> 78
    3.100067e+03 2.028726e+02 1.011415e+02 1.583090e+02 2.385769e+03 1.143123e+01 2.272170e+03 1.644958e+03 1.493873e+03 1.276219e+03 4.232318e+02 9.634795e+01 3.517037e+02 1.093608e+03 5.631816e+01 2.617621e+03 2.192720e+03 2.495056e+03 1.356159e+03 5.804636e+02 1.187698e+02 4.328682e+02 1.050017e+03 1.775834e+03 1.946053e+03 2.042598e+03 2.106499e+03 3.693524e+00 1.825773e+00 4.384004e-01 3.763447e-01 1.308069e+00 2.788752e+00 0.000000e+00 4.665671e-03 2.769161e-03 2.092652e-02 3.788703e-02 1.355353e-02 2.312087e-02 5.601307e-02 1.184301e-03 2.089155e-03 8.591157e-03 1.596913e-03 6.747105e-03 1.178405e-01 2.516214e-02 8.418964e-03 1.658128e-01 5.776294e-04 1.794323e-03 5.762765e-03 2.371635e-02 1.939083e-01 3.273216e-02 1.811687e-02 2.593783e-01 6.760553e-03 1.068953e-02 7.306821e-03 6.727535e-02 2.380483e-02 1.434908e-02 1.260363e-01 3.477801e-03 7.639357e-03 2.257382e-02 2.819366e-02 3.601380e-02 1.067911e-01 2.710090e-02 2.461779e-02 8.778149e-02 7.186179e-02 2.339959e-01 6.191352e-02 4.873841e-02
    <STATE> 4
    <MEAN> 78
    1.357140e+02 1.384310e+02 1.125623e+02 1.381756e+02 1.474366e+02 1.754922e+02 1.063108e+02 1.155000e+02 1.049910e+02 1.351569e+02 1.644947e+02 3.022741e+00 1.673617e+02 1.442065e+02 1.618806e+02 1.285952e+02 1.409076e+02 4.345415e+01 9.335470e+01 1.463079e+02 1.684473e+02 1.531570e+02 9.768462e+01 1.351831e+02 7.222208e+01 8.270124e+01 1.230046e+02 5.623796e+00 3.167608e+00 2.992618e+00 2.839355e+00 2.936229e+00 4.957705e+00 9.999956e-01 1.451331e+00 8.413646e-01 6.087274e-01 9.253709e-01 8.399299e-01 6.123706e-01 9.477928e-01 2.522533e-01 2.540976e-01 4.719293e-01 4.736252e-01 1.029952e+00 1.588010e+00 4.889634e-01 1.021166e+00 1.521179e+00 1.191006e+00 1.194118e+00 8.293453e-01 1.432356e+00 1.956157e+00 8.347866e-01 1.406869e+00 1.853027e+00 1.637004e+00 1.639019e+00 6.405995e-01 1.289929e+00 7.957540e-01 1.122777e+00 1.523343e+00 9.456598e-01 1.086419e+00 7.837042e-01 1.135054e+00 1.137218e+00 1.376205e+00 5.365326e-01 8.308331e-01 1.572572e+00 1.388666e+00 1.309692e+00 7.487455e-01 9.854699e-01
    <VARIANCE> 78
    3.100067e+03 2.028726e+02 1.011415e+02 1.583090e+02 2.385769e+03 1.143123e+01 2.272170e+03 1.644958e+03 1.493873e+03 1.276219e+03 4.232318e+02 9.634795e+01 3.517037e+02 1.093608e+03 5.631816e+01 2.617621e+03 2.192720e+03 2.495056e+03 1.356159e+03 5.804636e+02 1.187698e+02 4.328682e+02 1.050017e+03 1.775834e+03 1.946053e+03 2.042598e+03 2.106499e+03 3.693524e+00 1.825773e+00 4.384004e-01 3.763447e-01 1.308069e+00 2.788752e+00 0.000000e+00 4.665671e-03 2.769161e-03 2.092652e-02 3.788703e-02 1.355353e-02 2.312087e-02 5.601307e-02 1.184301e-03 2.089155e-03 8.591157e-03 1.596913e-03 6.747105e-03 1.178405e-01 2.516214e-02 8.418964e-03 1.658128e-01 5.776294e-04 1.794323e-03 5.762765e-03 2.371635e-02 1.939083e-01 3.273216e-02 1.811687e-02 2.593783e-01 6.760553e-03 1.068953e-02 7.306821e-03 6.727535e-02 2.380483e-02 1.434908e-02 1.260363e-01 3.477801e-03 7.639357e-03 2.257382e-02 2.819366e-02 3.601380e-02 1.067911e-01 2.710090e-02 2.461779e-02 8.778149e-02 7.186179e-02 2.339959e-01 6.191352e-02 4.873841e-02
    <TRANSP> 5
    0.000000e+00 1.000000e+00 0.000000e+00 0.000000e+00 0.000000e+00
    0.000000e+00 6.000000e-01 4.000000e-01 0.000000e+00 0.000000e+00
    0.000000e+00 0.000000e+00 6.000000e-01 4.000000e-01 0.000000e+00
    0.000000e+00 0.000000e+00 0.000000e+00 7.000000e-01 3.000000e-01
    0.000000e+00 0.000000e+00 0.000000e+00 0.000000e+00 0.000000e+00
    <ENDHMM>
~h "FM"
    <BEGINHMM>
    <NUMSTATES> 5
    <STATE> 2
    <MEAN> 78
    1.357140e+02 1.384310e+02 1.125623e+02 1.381756e+02 1.474366e+02 1.754922e+02 1.063108e+02 1.155000e+02 1.049910e+02 1.351569e+02 1.644947e+02 3.022741e+00 1.673617e+02 1.442065e+02 1.618806e+02 1.285952e+02 1.409076e+02 4.345415e+01 9.335470e+01 1.463079e+02 1.684473e+02 1.531570e+02 9.768462e+01 1.351831e+02 7.222208e+01 8.270124e+01 1.230046e+02 5.623796e+00 3.167608e+00 2.992618e+00 2.839355e+00 2.936229e+00 4.957705e+00 9.999956e-01 1.451331e+00 8.413646e-01 6.087274e-01 9.253709e-01 8.399299e-01 6.123706e-01 9.477928e-01 2.522533e-01 2.540976e-01 4.719293e-01 4.736252e-01 1.029952e+00 1.588010e+00 4.889634e-01 1.021166e+00 1.521179e+00 1.191006e+00 1.194118e+00 8.293453e-01 1.432356e+00 1.956157e+00 8.347866e-01 1.406869e+00 1.853027e+00 1.637004e+00 1.639019e+00 6.405995e-01 1.289929e+00 7.957540e-01 1.122777e+00 1.523343e+00 9.456598e-01 1.086419e+00 7.837042e-01 1.135054e+00 1.137218e+00 1.376205e+00 5.365326e-01 8.308331e-01 1.572572e+00 1.388666e+00 1.309692e+00 7.487455e-01 9.854699e-01
    <VARIANCE> 78
    3.100067e+03 2.028726e+02 1.011415e+02 1.583090e+02 2.385769e+03 1.143123e+01 2.272170e+03 1.644958e+03 1.493873e+03 1.276219e+03 4.232318e+02 9.634795e+01 3.517037e+02 1.093608e+03 5.631816e+01 2.617621e+03 2.192720e+03 2.495056e+03 1.356159e+03 5.804636e+02 1.187698e+02 4.328682e+02 1.050017e+03 1.775834e+03 1.946053e+03 2.042598e+03 2.106499e+03 3.693524e+00 1.825773e+00 4.384004e-01 3.763447e-01 1.308069e+00 2.788752e+00 0.000000e+00 4.665671e-03 2.769161e-03 2.092652e-02 3.788703e-02 1.355353e-02 2.312087e-02 5.601307e-02 1.184301e-03 2.089155e-03 8.591157e-03 1.596913e-03 6.747105e-03 1.178405e-01 2.516214e-02 8.418964e-03 1.658128e-01 5.776294e-04 1.794323e-03 5.762765e-03 2.371635e-02 1.939083e-01 3.273216e-02 1.811687e-02 2.593783e-01 6.760553e-03 1.068953e-02 7.306821e-03 6.727535e-02 2.380483e-02 1.434908e-02 1.260363e-01 3.477801e-03 7.639357e-03 2.257382e-02 2.819366e-02 3.601380e-02 1.067911e-01 2.710090e-02 2.461779e-02 8.778149e-02 7.186179e-02 2.339959e-01 6.191352e-02 4.873841e-02
    <STATE> 3
    <MEAN> 78
    1.357140e+02 1.384310e+02 1.125623e+02 1.381756e+02 1.474366e+02 1.754922e+02 1.063108e+02 1.155000e+02 1.049910e+02 1.351569e+02 1.644947e+02 3.022741e+00 1.673617e+02 1.442065e+02 1.618806e+02 1.285952e+02 1.409076e+02 4.345415e+01 9.335470e+01 1.463079e+02 1.684473e+02 1.531570e+02 9.768462e+01 1.351831e+02 7.222208e+01 8.270124e+01 1.230046e+02 5.623796e+00 3.167608e+00 2.992618e+00 2.839355e+00 2.936229e+00 4.957705e+00 9.999956e-01 1.451331e+00 8.413646e-01 6.087274e-01 9.253709e-01 8.399299e-01 6.123706e-01 9.477928e-01 2.522533e-01 2.540976e-01 4.719293e-01 4.736252e-01 1.029952e+00 1.588010e+00 4.889634e-01 1.021166e+00 1.521179e+00 1.191006e+00 1.194118e+00 8.293453e-01 1.432356e+00 1.956157e+00 8.347866e-01 1.406869e+00 1.853027e+00 1.637004e+00 1.639019e+00 6.405995e-01 1.289929e+00 7.957540e-01 1.122777e+00 1.523343e+00 9.456598e-01 1.086419e+00 7.837042e-01 1.135054e+00 1.137218e+00 1.376205e+00 5.365326e-01 8.308331e-01 1.572572e+00 1.388666e+00 1.309692e+00 7.487455e-01 9.854699e-01
    <VARIANCE> 78
    3.100067e+03 2.028726e+02 1.011415e+02 1.583090e+02 2.385769e+03 1.143123e+01 2.272170e+03 1.644958e+03 1.493873e+03 1.276219e+03 4.232318e+02 9.634795e+01 3.517037e+02 1.093608e+03 5.631816e+01 2.617621e+03 2.192720e+03 2.495056e+03 1.356159e+03 5.804636e+02 1.187698e+02 4.328682e+02 1.050017e+03 1.775834e+03 1.946053e+03 2.042598e+03 2.106499e+03 3.693524e+00 1.825773e+00 4.384004e-01 3.763447e-01 1.308069e+00 2.788752e+00 0.000000e+00 4.665671e-03 2.769161e-03 2.092652e-02 3.788703e-02 1.355353e-02 2.312087e-02 5.601307e-02 1.184301e-03 2.089155e-03 8.591157e-03 1.596913e-03 6.747105e-03 1.178405e-01 2.516214e-02 8.418964e-03 1.658128e-01 5.776294e-04 1.794323e-03 5.762765e-03 2.371635e-02 1.939083e-01 3.273216e-02 1.811687e-02 2.593783e-01 6.760553e-03 1.068953e-02 7.306821e-03 6.727535e-02 2.380483e-02 1.434908e-02 1.260363e-01 3.477801e-03 7.639357e-03 2.257382e-02 2.819366e-02 3.601380e-02 1.067911e-01 2.710090e-02 2.461779e-02 8.778149e-02 7.186179e-02 2.339959e-01 6.191352e-02 4.873841e-02
    <STATE> 4
    <MEAN> 78
    1.357140e+02 1.384310e+02 1.125623e+02 1.381756e+02 1.474366e+02 1.754922e+02 1.063108e+02 1.155000e+02 1.049910e+02 1.351569e+02 1.644947e+02 3.022741e+00 1.673617e+02 1.442065e+02 1.618806e+02 1.285952e+02 1.409076e+02 4.345415e+01 9.335470e+01 1.463079e+02 1.684473e+02 1.531570e+02 9.768462e+01 1.351831e+02 7.222208e+01 8.270124e+01 1.230046e+02 5.623796e+00 3.167608e+00 2.992618e+00 2.839355e+00 2.936229e+00 4.957705e+00 9.999956e-01 1.451331e+00 8.413646e-01 6.087274e-01 9.253709e-01 8.399299e-01 6.123706e-01 9.477928e-01 2.522533e-01 2.540976e-01 4.719293e-01 4.736252e-01 1.029952e+00 1.588010e+00 4.889634e-01 1.021166e+00 1.521179e+00 1.191006e+00 1.194118e+00 8.293453e-01 1.432356e+00 1.956157e+00 8.347866e-01 1.406869e+00 1.853027e+00 1.637004e+00 1.639019e+00 6.405995e-01 1.289929e+00 7.957540e-01 1.122777e+00 1.523343e+00 9.456598e-01 1.086419e+00 7.837042e-01 1.135054e+00 1.137218e+00 1.376205e+00 5.365326e-01 8.308331e-01 1.572572e+00 1.388666e+00 1.309692e+00 7.487455e-01 9.854699e-01
    <VARIANCE> 78
    3.100067e+03 2.028726e+02 1.011415e+02 1.583090e+02 2.385769e+03 1.143123e+01 2.272170e+03 1.644958e+03 1.493873e+03 1.276219e+03 4.232318e+02 9.634795e+01 3.517037e+02 1.093608e+03 5.631816e+01 2.617621e+03 2.192720e+03 2.495056e+03 1.356159e+03 5.804636e+02 1.187698e+02 4.328682e+02 1.050017e+03 1.775834e+03 1.946053e+03 2.042598e+03 2.106499e+03 3.693524e+00 1.825773e+00 4.384004e-01 3.763447e-01 1.308069e+00 2.788752e+00 0.000000e+00 4.665671e-03 2.769161e-03 2.092652e-02 3.788703e-02 1.355353e-02 2.312087e-02 5.601307e-02 1.184301e-03 2.089155e-03 8.591157e-03 1.596913e-03 6.747105e-03 1.178405e-01 2.516214e-02 8.418964e-03 1.658128e-01 5.776294e-04 1.794323e-03 5.762765e-03 2.371635e-02 1.939083e-01 3.273216e-02 1.811687e-02 2.593783e-01 6.760553e-03 1.068953e-02 7.306821e-03 6.727535e-02 2.380483e-02 1.434908e-02 1.260363e-01 3.477801e-03 7.639357e-03 2.257382e-02 2.819366e-02 3.601380e-02 1.067911e-01 2.710090e-02 2.461779e-02 8.778149e-02 7.186179e-02 2.339959e-01 6.191352e-02 4.873841e-02
    <TRANSP> 5
    0.000000e+00 1.000000e+00 0.000000e+00 0.000000e+00 0.000000e+00
    0.000000e+00 6.000000e-01 4.000000e-01 0.000000e+00 0.000000e+00
    0.000000e+00 0.000000e+00 6.000000e-01 4.000000e-01 0.000000e+00
    0.000000e+00 0.000000e+00 0.000000e+00 7.000000e-01 3.000000e-01
    0.000000e+00 0.000000e+00 0.000000e+00 0.000000e+00 0.000000e+00
    <ENDHMM>
~h "FN"
    <BEGINHMM>
    <NUMSTATES> 5
    <STATE> 2
    <MEAN> 78
    1.357140e+02 1.384310e+02 1.125623e+02 1.381756e+02 1.474366e+02 1.754922e+02 1.063108e+02 1.155000e+02 1.049910e+02 1.351569e+02 1.644947e+02 3.022741e+00 1.673617e+02 1.442065e+02 1.618806e+02 1.285952e+02 1.409076e+02 4.345415e+01 9.335470e+01 1.463079e+02 1.684473e+02 1.531570e+02 9.768462e+01 1.351831e+02 7.222208e+01 8.270124e+01 1.230046e+02 5.623796e+00 3.167608e+00 2.992618e+00 2.839355e+00 2.936229e+00 4.957705e+00 9.999956e-01 1.451331e+00 8.413646e-01 6.087274e-01 9.253709e-01 8.399299e-01 6.123706e-01 9.477928e-01 2.522533e-01 2.540976e-01 4.719293e-01 4.736252e-01 1.029952e+00 1.588010e+00 4.889634e-01 1.021166e+00 1.521179e+00 1.191006e+00 1.194118e+00 8.293453e-01 1.432356e+00 1.956157e+00 8.347866e-01 1.406869e+00 1.853027e+00 1.637004e+00 1.639019e+00 6.405995e-01 1.289929e+00 7.957540e-01 1.122777e+00 1.523343e+00 9.456598e-01 1.086419e+00 7.837042e-01 1.135054e+00 1.137218e+00 1.376205e+00 5.365326e-01 8.308331e-01 1.572572e+00 1.388666e+00 1.309692e+00 7.487455e-01 9.854699e-01
    <VARIANCE> 78
    3.100067e+03 2.028726e+02 1.011415e+02 1.583090e+02 2.385769e+03 1.143123e+01 2.272170e+03 1.644958e+03 1.493873e+03 1.276219e+03 4.232318e+02 9.634795e+01 3.517037e+02 1.093608e+03 5.631816e+01 2.617621e+03 2.192720e+03 2.495056e+03 1.356159e+03 5.804636e+02 1.187698e+02 4.328682e+02 1.050017e+03 1.775834e+03 1.946053e+03 2.042598e+03 2.106499e+03 3.693524e+00 1.825773e+00 4.384004e-01 3.763447e-01 1.308069e+00 2.788752e+00 0.000000e+00 4.665671e-03 2.769161e-03 2.092652e-02 3.788703e-02 1.355353e-02 2.312087e-02 5.601307e-02 1.184301e-03 2.089155e-03 8.591157e-03 1.596913e-03 6.747105e-03 1.178405e-01 2.516214e-02 8.418964e-03 1.658128e-01 5.776294e-04 1.794323e-03 5.762765e-03 2.371635e-02 1.939083e-01 3.273216e-02 1.811687e-02 2.593783e-01 6.760553e-03 1.068953e-02 7.306821e-03 6.727535e-02 2.380483e-02 1.434908e-02 1.260363e-01 3.477801e-03 7.639357e-03 2.257382e-02 2.819366e-02 3.601380e-02 1.067911e-01 2.710090e-02 2.461779e-02 8.778149e-02 7.186179e-02 2.339959e-01 6.191352e-02 4.873841e-02
    <STATE> 3
    <MEAN> 78
    1.357140e+02 1.384310e+02 1.125623e+02 1.381756e+02 1.474366e+02 1.754922e+02 1.063108e+02 1.155000e+02 1.049910e+02 1.351569e+02 1.644947e+02 3.022741e+00 1.673617e+02 1.442065e+02 1.618806e+02 1.285952e+02 1.409076e+02 4.345415e+01 9.335470e+01 1.463079e+02 1.684473e+02 1.531570e+02 9.768462e+01 1.351831e+02 7.222208e+01 8.270124e+01 1.230046e+02 5.623796e+00 3.167608e+00 2.992618e+00 2.839355e+00 2.936229e+00 4.957705e+00 9.999956e-01 1.451331e+00 8.413646e-01 6.087274e-01 9.253709e-01 8.399299e-01 6.123706e-01 9.477928e-01 2.522533e-01 2.540976e-01 4.719293e-01 4.736252e-01 1.029952e+00 1.588010e+00 4.889634e-01 1.021166e+00 1.521179e+00 1.191006e+00 1.194118e+00 8.293453e-01 1.432356e+00 1.956157e+00 8.347866e-01 1.406869e+00 1.853027e+00 1.637004e+00 1.639019e+00 6.405995e-01 1.289929e+00 7.957540e-01 1.122777e+00 1.523343e+00 9.456598e-01 1.086419e+00 7.837042e-01 1.135054e+00 1.137218e+00 1.376205e+00 5.365326e-01 8.308331e-01 1.572572e+00 1.388666e+00 1.309692e+00 7.487455e-01 9.854699e-01
    <VARIANCE> 78
    3.100067e+03 2.028726e+02 1.011415e+02 1.583090e+02 2.385769e+03 1.143123e+01 2.272170e+03 1.644958e+03 1.493873e+03 1.276219e+03 4.232318e+02 9.634795e+01 3.517037e+02 1.093608e+03 5.631816e+01 2.617621e+03 2.192720e+03 2.495056e+03 1.356159e+03 5.804636e+02 1.187698e+02 4.328682e+02 1.050017e+03 1.775834e+03 1.946053e+03 2.042598e+03 2.106499e+03 3.693524e+00 1.825773e+00 4.384004e-01 3.763447e-01 1.308069e+00 2.788752e+00 0.000000e+00 4.665671e-03 2.769161e-03 2.092652e-02 3.788703e-02 1.355353e-02 2.312087e-02 5.601307e-02 1.184301e-03 2.089155e-03 8.591157e-03 1.596913e-03 6.747105e-03 1.178405e-01 2.516214e-02 8.418964e-03 1.658128e-01 5.776294e-04 1.794323e-03 5.762765e-03 2.371635e-02 1.939083e-01 3.273216e-02 1.811687e-02 2.593783e-01 6.760553e-03 1.068953e-02 7.306821e-03 6.727535e-02 2.380483e-02 1.434908e-02 1.260363e-01 3.477801e-03 7.639357e-03 2.257382e-02 2.819366e-02 3.601380e-02 1.067911e-01 2.710090e-02 2.461779e-02 8.778149e-02 7.186179e-02 2.339959e-01 6.191352e-02 4.873841e-02
    <STATE> 4
    <MEAN> 78
    1.357140e+02 1.384310e+02 1.125623e+02 1.381756e+02 1.474366e+02 1.754922e+02 1.063108e+02 1.155000e+02 1.049910e+02 1.351569e+02 1.644947e+02 3.022741e+00 1.673617e+02 1.442065e+02 1.618806e+02 1.285952e+02 1.409076e+02 4.345415e+01 9.335470e+01 1.463079e+02 1.684473e+02 1.531570e+02 9.768462e+01 1.351831e+02 7.222208e+01 8.270124e+01 1.230046e+02 5.623796e+00 3.167608e+00 2.992618e+00 2.839355e+00 2.936229e+00 4.957705e+00 9.999956e-01 1.451331e+00 8.413646e-01 6.087274e-01 9.253709e-01 8.399299e-01 6.123706e-01 9.477928e-01 2.522533e-01 2.540976e-01 4.719293e-01 4.736252e-01 1.029952e+00 1.588010e+00 4.889634e-01 1.021166e+00 1.521179e+00 1.191006e+00 1.194118e+00 8.293453e-01 1.432356e+00 1.956157e+00 8.347866e-01 1.406869e+00 1.853027e+00 1.637004e+00 1.639019e+00 6.405995e-01 1.289929e+00 7.957540e-01 1.122777e+00 1.523343e+00 9.456598e-01 1.086419e+00 7.837042e-01 1.135054e+00 1.137218e+00 1.376205e+00 5.365326e-01 8.308331e-01 1.572572e+00 1.388666e+00 1.309692e+00 7.487455e-01 9.854699e-01
    <VARIANCE> 78
    3.100067e+03 2.028726e+02 1.011415e+02 1.583090e+02 2.385769e+03 1.143123e+01 2.272170e+03 1.644958e+03 1.493873e+03 1.276219e+03 4.232318e+02 9.634795e+01 3.517037e+02 1.093608e+03 5.631816e+01 2.617621e+03 2.192720e+03 2.495056e+03 1.356159e+03 5.804636e+02 1.187698e+02 4.328682e+02 1.050017e+03 1.775834e+03 1.946053e+03 2.042598e+03 2.106499e+03 3.693524e+00 1.825773e+00 4.384004e-01 3.763447e-01 1.308069e+00 2.788752e+00 0.000000e+00 4.665671e-03 2.769161e-03 2.092652e-02 3.788703e-02 1.355353e-02 2.312087e-02 5.601307e-02 1.184301e-03 2.089155e-03 8.591157e-03 1.596913e-03 6.747105e-03 1.178405e-01 2.516214e-02 8.418964e-03 1.658128e-01 5.776294e-04 1.794323e-03 5.762765e-03 2.371635e-02 1.939083e-01 3.273216e-02 1.811687e-02 2.593783e-01 6.760553e-03 1.068953e-02 7.306821e-03 6.727535e-02 2.380483e-02 1.434908e-02 1.260363e-01 3.477801e-03 7.639357e-03 2.257382e-02 2.819366e-02 3.601380e-02 1.067911e-01 2.710090e-02 2.461779e-02 8.778149e-02 7.186179e-02 2.339959e-01 6.191352e-02 4.873841e-02
    <TRANSP> 5
    0.000000e+00 1.000000e+00 0.000000e+00 0.000000e+00 0.000000e+00
    0.000000e+00 6.000000e-01 4.000000e-01 0.000000e+00 0.000000e+00
    0.000000e+00 0.000000e+00 6.000000e-01 4.000000e-01 0.000000e+00
    0.000000e+00 0.000000e+00 0.000000e+00 7.000000e-01 3.000000e-01
    0.000000e+00 0.000000e+00 0.000000e+00 0.000000e+00 0.000000e+00
    <ENDHMM>
~h "FU"
    <BEGINHMM>
    <NUMSTATES> 5
    <STATE> 2
    <MEAN> 78
    1.357140e+02 1.384310e+02 1.125623e+02 1.381756e+02 1.474366e+02 1.754922e+02 1.063108e+02 1.155000e+02 1.049910e+02 1.351569e+02 1.644947e+02 3.022741e+00 1.673617e+02 1.442065e+02 1.618806e+02 1.285952e+02 1.409076e+02 4.345415e+01 9.335470e+01 1.463079e+02 1.684473e+02 1.531570e+02 9.768462e+01 1.351831e+02 7.222208e+01 8.270124e+01 1.230046e+02 5.623796e+00 3.167608e+00 2.992618e+00 2.839355e+00 2.936229e+00 4.957705e+00 9.999956e-01 1.451331e+00 8.413646e-01 6.087274e-01 9.253709e-01 8.399299e-01 6.123706e-01 9.477928e-01 2.522533e-01 2.540976e-01 4.719293e-01 4.736252e-01 1.029952e+00 1.588010e+00 4.889634e-01 1.021166e+00 1.521179e+00 1.191006e+00 1.194118e+00 8.293453e-01 1.432356e+00 1.956157e+00 8.347866e-01 1.406869e+00 1.853027e+00 1.637004e+00 1.639019e+00 6.405995e-01 1.289929e+00 7.957540e-01 1.122777e+00 1.523343e+00 9.456598e-01 1.086419e+00 7.837042e-01 1.135054e+00 1.137218e+00 1.376205e+00 5.365326e-01 8.308331e-01 1.572572e+00 1.388666e+00 1.309692e+00 7.487455e-01 9.854699e-01
    <VARIANCE> 78
    3.100067e+03 2.028726e+02 1.011415e+02 1.583090e+02 2.385769e+03 1.143123e+01 2.272170e+03 1.644958e+03 1.493873e+03 1.276219e+03 4.232318e+02 9.634795e+01 3.517037e+02 1.093608e+03 5.631816e+01 2.617621e+03 2.192720e+03 2.495056e+03 1.356159e+03 5.804636e+02 1.187698e+02 4.328682e+02 1.050017e+03 1.775834e+03 1.946053e+03 2.042598e+03 2.106499e+03 3.693524e+00 1.825773e+00 4.384004e-01 3.763447e-01 1.308069e+00 2.788752e+00 0.000000e+00 4.665671e-03 2.769161e-03 2.092652e-02 3.788703e-02 1.355353e-02 2.312087e-02 5.601307e-02 1.184301e-03 2.089155e-03 8.591157e-03 1.596913e-03 6.747105e-03 1.178405e-01 2.516214e-02 8.418964e-03 1.658128e-01 5.776294e-04 1.794323e-03 5.762765e-03 2.371635e-02 1.939083e-01 3.273216e-02 1.811687e-02 2.593783e-01 6.760553e-03 1.068953e-02 7.306821e-03 6.727535e-02 2.380483e-02 1.434908e-02 1.260363e-01 3.477801e-03 7.639357e-03 2.257382e-02 2.819366e-02 3.601380e-02 1.067911e-01 2.710090e-02 2.461779e-02 8.778149e-02 7.186179e-02 2.339959e-01 6.191352e-02 4.873841e-02
    <STATE> 3
    <MEAN> 78
    1.357140e+02 1.384310e+02 1.125623e+02 1.381756e+02 1.474366e+02 1.754922e+02 1.063108e+02 1.155000e+02 1.049910e+02 1.351569e+02 1.644947e+02 3.022741e+00 1.673617e+02 1.442065e+02 1.618806e+02 1.285952e+02 1.409076e+02 4.345415e+01 9.335470e+01 1.463079e+02 1.684473e+02 1.531570e+02 9.768462e+01 1.351831e+02 7.222208e+01 8.270124e+01 1.230046e+02 5.623796e+00 3.167608e+00 2.992618e+00 2.839355e+00 2.936229e+00 4.957705e+00 9.999956e-01 1.451331e+00 8.413646e-01 6.087274e-01 9.253709e-01 8.399299e-01 6.123706e-01 9.477928e-01 2.522533e-01 2.540976e-01 4.719293e-01 4.736252e-01 1.029952e+00 1.588010e+00 4.889634e-01 1.021166e+00 1.521179e+00 1.191006e+00 1.194118e+00 8.293453e-01 1.432356e+00 1.956157e+00 8.347866e-01 1.406869e+00 1.853027e+00 1.637004e+00 1.639019e+00 6.405995e-01 1.289929e+00 7.957540e-01 1.122777e+00 1.523343e+00 9.456598e-01 1.086419e+00 7.837042e-01 1.135054e+00 1.137218e+00 1.376205e+00 5.365326e-01 8.308331e-01 1.572572e+00 1.388666e+00 1.309692e+00 7.487455e-01 9.854699e-01
    <VARIANCE> 78
    3.100067e+03 2.028726e+02 1.011415e+02 1.583090e+02 2.385769e+03 1.143123e+01 2.272170e+03 1.644958e+03 1.493873e+03 1.276219e+03 4.232318e+02 9.634795e+01 3.517037e+02 1.093608e+03 5.631816e+01 2.617621e+03 2.192720e+03 2.495056e+03 1.356159e+03 5.804636e+02 1.187698e+02 4.328682e+02 1.050017e+03 1.775834e+03 1.946053e+03 2.042598e+03 2.106499e+03 3.693524e+00 1.825773e+00 4.384004e-01 3.763447e-01 1.308069e+00 2.788752e+00 0.000000e+00 4.665671e-03 2.769161e-03 2.092652e-02 3.788703e-02 1.355353e-02 2.312087e-02 5.601307e-02 1.184301e-03 2.089155e-03 8.591157e-03 1.596913e-03 6.747105e-03 1.178405e-01 2.516214e-02 8.418964e-03 1.658128e-01 5.776294e-04 1.794323e-03 5.762765e-03 2.371635e-02 1.939083e-01 3.273216e-02 1.811687e-02 2.593783e-01 6.760553e-03 1.068953e-02 7.306821e-03 6.727535e-02 2.380483e-02 1.434908e-02 1.260363e-01 3.477801e-03 7.639357e-03 2.257382e-02 2.819366e-02 3.601380e-02 1.067911e-01 2.710090e-02 2.461779e-02 8.778149e-02 7.186179e-02 2.339959e-01 6.191352e-02 4.873841e-02
    <STATE> 4
    <MEAN> 78
    1.357140e+02 1.384310e+02 1.125623e+02 1.381756e+02 1.474366e+02 1.754922e+02 1.063108e+02 1.155000e+02 1.049910e+02 1.351569e+02 1.644947e+02 3.022741e+00 1.673617e+02 1.442065e+02 1.618806e+02 1.285952e+02 1.409076e+02 4.345415e+01 9.335470e+01 1.463079e+02 1.684473e+02 1.531570e+02 9.768462e+01 1.351831e+02 7.222208e+01 8.270124e+01 1.230046e+02 5.623796e+00 3.167608e+00 2.992618e+00 2.839355e+00 2.936229e+00 4.957705e+00 9.999956e-01 1.451331e+00 8.413646e-01 6.087274e-01 9.253709e-01 8.399299e-01 6.123706e-01 9.477928e-01 2.522533e-01 2.540976e-01 4.719293e-01 4.736252e-01 1.029952e+00 1.588010e+00 4.889634e-01 1.021166e+00 1.521179e+00 1.191006e+00 1.194118e+00 8.293453e-01 1.432356e+00 1.956157e+00 8.347866e-01 1.406869e+00 1.853027e+00 1.637004e+00 1.639019e+00 6.405995e-01 1.289929e+00 7.957540e-01 1.122777e+00 1.523343e+00 9.456598e-01 1.086419e+00 7.837042e-01 1.135054e+00 1.137218e+00 1.376205e+00 5.365326e-01 8.308331e-01 1.572572e+00 1.388666e+00 1.309692e+00 7.487455e-01 9.854699e-01
    <VARIANCE> 78
    3.100067e+03 2.028726e+02 1.011415e+02 1.583090e+02 2.385769e+03 1.143123e+01 2.272170e+03 1.644958e+03 1.493873e+03 1.276219e+03 4.232318e+02 9.634795e+01 3.517037e+02 1.093608e+03 5.631816e+01 2.617621e+03 2.192720e+03 2.495056e+03 1.356159e+03 5.804636e+02 1.187698e+02 4.328682e+02 1.050017e+03 1.775834e+03 1.946053e+03 2.042598e+03 2.106499e+03 3.693524e+00 1.825773e+00 4.384004e-01 3.763447e-01 1.308069e+00 2.788752e+00 0.000000e+00 4.665671e-03 2.769161e-03 2.092652e-02 3.788703e-02 1.355353e-02 2.312087e-02 5.601307e-02 1.184301e-03 2.089155e-03 8.591157e-03 1.596913e-03 6.747105e-03 1.178405e-01 2.516214e-02 8.418964e-03 1.658128e-01 5.776294e-04 1.794323e-03 5.762765e-03 2.371635e-02 1.939083e-01 3.273216e-02 1.811687e-02 2.593783e-01 6.760553e-03 1.068953e-02 7.306821e-03 6.727535e-02 2.380483e-02 1.434908e-02 1.260363e-01 3.477801e-03 7.639357e-03 2.257382e-02 2.819366e-02 3.601380e-02 1.067911e-01 2.710090e-02 2.461779e-02 8.778149e-02 7.186179e-02 2.339959e-01 6.191352e-02 4.873841e-02
    <TRANSP> 5
    0.000000e+00 1.000000e+00 0.000000e+00 0.000000e+00 0.000000e+00
    0.000000e+00 6.000000e-01 4.000000e-01 0.000000e+00 0.000000e+00
    0.000000e+00 0.000000e+00 6.000000e-01 4.000000e-01 0.000000e+00
    0.000000e+00 0.000000e+00 0.000000e+00 7.000000e-01 3.000000e-01
    0.000000e+00 0.000000e+00 0.000000e+00 0.000000e+00 0.000000e+00
    <ENDHMM>
~h "MC"
    <BEGINHMM>
    <NUMSTATES> 5
    <STATE> 2
    <MEAN> 78
    1.357140e+02 1.384310e+02 1.125623e+02 1.381756e+02 1.474366e+02 1.754922e+02 1.063108e+02 1.155000e+02 1.049910e+02 1.351569e+02 1.644947e+02 3.022741e+00 1.673617e+02 1.442065e+02 1.618806e+02 1.285952e+02 1.409076e+02 4.345415e+01 9.335470e+01 1.463079e+02 1.684473e+02 1.531570e+02 9.768462e+01 1.351831e+02 7.222208e+01 8.270124e+01 1.230046e+02 5.623796e+00 3.167608e+00 2.992618e+00 2.839355e+00 2.936229e+00 4.957705e+00 9.999956e-01 1.451331e+00 8.413646e-01 6.087274e-01 9.253709e-01 8.399299e-01 6.123706e-01 9.477928e-01 2.522533e-01 2.540976e-01 4.719293e-01 4.736252e-01 1.029952e+00 1.588010e+00 4.889634e-01 1.021166e+00 1.521179e+00 1.191006e+00 1.194118e+00 8.293453e-01 1.432356e+00 1.956157e+00 8.347866e-01 1.406869e+00 1.853027e+00 1.637004e+00 1.639019e+00 6.405995e-01 1.289929e+00 7.957540e-01 1.122777e+00 1.523343e+00 9.456598e-01 1.086419e+00 7.837042e-01 1.135054e+00 1.137218e+00 1.376205e+00 5.365326e-01 8.308331e-01 1.572572e+00 1.388666e+00 1.309692e+00 7.487455e-01 9.854699e-01
    <VARIANCE> 78
    3.100067e+03 2.028726e+02 1.011415e+02 1.583090e+02 2.385769e+03 1.143123e+01 2.272170e+03 1.644958e+03 1.493873e+03 1.276219e+03 4.232318e+02 9.634795e+01 3.517037e+02 1.093608e+03 5.631816e+01 2.617621e+03 2.192720e+03 2.495056e+03 1.356159e+03 5.804636e+02 1.187698e+02 4.328682e+02 1.050017e+03 1.775834e+03 1.946053e+03 2.042598e+03 2.106499e+03 3.693524e+00 1.825773e+00 4.384004e-01 3.763447e-01 1.308069e+00 2.788752e+00 0.000000e+00 4.665671e-03 2.769161e-03 2.092652e-02 3.788703e-02 1.355353e-02 2.312087e-02 5.601307e-02 1.184301e-03 2.089155e-03 8.591157e-03 1.596913e-03 6.747105e-03 1.178405e-01 2.516214e-02 8.418964e-03 1.658128e-01 5.776294e-04 1.794323e-03 5.762765e-03 2.371635e-02 1.939083e-01 3.273216e-02 1.811687e-02 2.593783e-01 6.760553e-03 1.068953e-02 7.306821e-03 6.727535e-02 2.380483e-02 1.434908e-02 1.260363e-01 3.477801e-03 7.639357e-03 2.257382e-02 2.819366e-02 3.601380e-02 1.067911e-01 2.710090e-02 2.461779e-02 8.778149e-02 7.186179e-02 2.339959e-01 6.191352e-02 4.873841e-02
    <STATE> 3
    <MEAN> 78
    1.357140e+02 1.384310e+02 1.125623e+02 1.381756e+02 1.474366e+02 1.754922e+02 1.063108e+02 1.155000e+02 1.049910e+02 1.351569e+02 1.644947e+02 3.022741e+00 1.673617e+02 1.442065e+02 1.618806e+02 1.285952e+02 1.409076e+02 4.345415e+01 9.335470e+01 1.463079e+02 1.684473e+02 1.531570e+02 9.768462e+01 1.351831e+02 7.222208e+01 8.270124e+01 1.230046e+02 5.623796e+00 3.167608e+00 2.992618e+00 2.839355e+00 2.936229e+00 4.957705e+00 9.999956e-01 1.451331e+00 8.413646e-01 6.087274e-01 9.253709e-01 8.399299e-01 6.123706e-01 9.477928e-01 2.522533e-01 2.540976e-01 4.719293e-01 4.736252e-01 1.029952e+00 1.588010e+00 4.889634e-01 1.021166e+00 1.521179e+00 1.191006e+00 1.194118e+00 8.293453e-01 1.432356e+00 1.956157e+00 8.347866e-01 1.406869e+00 1.853027e+00 1.637004e+00 1.639019e+00 6.405995e-01 1.289929e+00 7.957540e-01 1.122777e+00 1.523343e+00 9.456598e-01 1.086419e+00 7.837042e-01 1.135054e+00 1.137218e+00 1.376205e+00 5.365326e-01 8.308331e-01 1.572572e+00 1.388666e+00 1.309692e+00 7.487455e-01 9.854699e-01
    <VARIANCE> 78
    3.100067e+03 2.028726e+02 1.011415e+02 1.583090e+02 2.385769e+03 1.143123e+01 2.272170e+03 1.644958e+03 1.493873e+03 1.276219e+03 4.232318e+02 9.634795e+01 3.517037e+02 1.093608e+03 5.631816e+01 2.617621e+03 2.192720e+03 2.495056e+03 1.356159e+03 5.804636e+02 1.187698e+02 4.328682e+02 1.050017e+03 1.775834e+03 1.946053e+03 2.042598e+03 2.106499e+03 3.693524e+00 1.825773e+00 4.384004e-01 3.763447e-01 1.308069e+00 2.788752e+00 0.000000e+00 4.665671e-03 2.769161e-03 2.092652e-02 3.788703e-02 1.355353e-02 2.312087e-02 5.601307e-02 1.184301e-03 2.089155e-03 8.591157e-03 1.596913e-03 6.747105e-03 1.178405e-01 2.516214e-02 8.418964e-03 1.658128e-01 5.776294e-04 1.794323e-03 5.762765e-03 2.371635e-02 1.939083e-01 3.273216e-02 1.811687e-02 2.593783e-01 6.760553e-03 1.068953e-02 7.306821e-03 6.727535e-02 2.380483e-02 1.434908e-02 1.260363e-01 3.477801e-03 7.639357e-03 2.257382e-02 2.819366e-02 3.601380e-02 1.067911e-01 2.710090e-02 2.461779e-02 8.778149e-02 7.186179e-02 2.339959e-01 6.191352e-02 4.873841e-02
    <STATE> 4
    <MEAN> 78
    1.357140e+02 1.384310e+02 1.125623e+02 1.381756e+02 1.474366e+02 1.754922e+02 1.063108e+02 1.155000e+02 1.049910e+02 1.351569e+02 1.644947e+02 3.022741e+00 1.673617e+02 1.442065e+02 1.618806e+02 1.285952e+02 1.409076e+02 4.345415e+01 9.335470e+01 1.463079e+02 1.684473e+02 1.531570e+02 9.768462e+01 1.351831e+02 7.222208e+01 8.270124e+01 1.230046e+02 5.623796e+00 3.167608e+00 2.992618e+00 2.839355e+00 2.936229e+00 4.957705e+00 9.999956e-01 1.451331e+00 8.413646e-01 6.087274e-01 9.253709e-01 8.399299e-01 6.123706e-01 9.477928e-01 2.522533e-01 2.540976e-01 4.719293e-01 4.736252e-01 1.029952e+00 1.588010e+00 4.889634e-01 1.021166e+00 1.521179e+00 1.191006e+00 1.194118e+00 8.293453e-01 1.432356e+00 1.956157e+00 8.347866e-01 1.406869e+00 1.853027e+00 1.637004e+00 1.639019e+00 6.405995e-01 1.289929e+00 7.957540e-01 1.122777e+00 1.523343e+00 9.456598e-01 1.086419e+00 7.837042e-01 1.135054e+00 1.137218e+00 1.376205e+00 5.365326e-01 8.308331e-01 1.572572e+00 1.388666e+00 1.309692e+00 7.487455e-01 9.854699e-01
    <VARIANCE> 78
    3.100067e+03 2.028726e+02 1.011415e+02 1.583090e+02 2.385769e+03 1.143123e+01 2.272170e+03 1.644958e+03 1.493873e+03 1.276219e+03 4.232318e+02 9.634795e+01 3.517037e+02 1.093608e+03 5.631816e+01 2.617621e+03 2.192720e+03 2.495056e+03 1.356159e+03 5.804636e+02 1.187698e+02 4.328682e+02 1.050017e+03 1.775834e+03 1.946053e+03 2.042598e+03 2.106499e+03 3.693524e+00 1.825773e+00 4.384004e-01 3.763447e-01 1.308069e+00 2.788752e+00 0.000000e+00 4.665671e-03 2.769161e-03 2.092652e-02 3.788703e-02 1.355353e-02 2.312087e-02 5.601307e-02 1.184301e-03 2.089155e-03 8.591157e-03 1.596913e-03 6.747105e-03 1.178405e-01 2.516214e-02 8.418964e-03 1.658128e-01 5.776294e-04 1.794323e-03 5.762765e-03 2.371635e-02 1.939083e-01 3.273216e-02 1.811687e-02 2.593783e-01 6.760553e-03 1.068953e-02 7.306821e-03 6.727535e-02 2.380483e-02 1.434908e-02 1.260363e-01 3.477801e-03 7.639357e-03 2.257382e-02 2.819366e-02 3.601380e-02 1.067911e-01 2.710090e-02 2.461779e-02 8.778149e-02 7.186179e-02 2.339959e-01 6.191352e-02 4.873841e-02
    <TRANSP> 5
    0.000000e+00 1.000000e+00 0.000000e+00 0.000000e+00 0.000000e+00
    0.000000e+00 6.000000e-01 4.000000e-01 0.000000e+00 0.000000e+00
    0.000000e+00 0.000000e+00 6.000000e-01 4.000000e-01 0.000000e+00
    0.000000e+00 0.000000e+00 0.000000e+00 7.000000e-01 3.000000e-01
    0.000000e+00 0.000000e+00 0.000000e+00 0.000000e+00 0.000000e+00
    <ENDHMM>
~h "NU"
    <BEGINHMM>
    <NUMSTATES> 5
    <STATE> 2
    <MEAN> 78
    1.357140e+02 1.384310e+02 1.125623e+02 1.381756e+02 1.474366e+02 1.754922e+02 1.063108e+02 1.155000e+02 1.049910e+02 1.351569e+02 1.644947e+02 3.022741e+00 1.673617e+02 1.442065e+02 1.618806e+02 1.285952e+02 1.409076e+02 4.345415e+01 9.335470e+01 1.463079e+02 1.684473e+02 1.531570e+02 9.768462e+01 1.351831e+02 7.222208e+01 8.270124e+01 1.230046e+02 5.623796e+00 3.167608e+00 2.992618e+00 2.839355e+00 2.936229e+00 4.957705e+00 9.999956e-01 1.451331e+00 8.413646e-01 6.087274e-01 9.253709e-01 8.399299e-01 6.123706e-01 9.477928e-01 2.522533e-01 2.540976e-01 4.719293e-01 4.736252e-01 1.029952e+00 1.588010e+00 4.889634e-01 1.021166e+00 1.521179e+00 1.191006e+00 1.194118e+00 8.293453e-01 1.432356e+00 1.956157e+00 8.347866e-01 1.406869e+00 1.853027e+00 1.637004e+00 1.639019e+00 6.405995e-01 1.289929e+00 7.957540e-01 1.122777e+00 1.523343e+00 9.456598e-01 1.086419e+00 7.837042e-01 1.135054e+00 1.137218e+00 1.376205e+00 5.365326e-01 8.308331e-01 1.572572e+00 1.388666e+00 1.309692e+00 7.487455e-01 9.854699e-01
    <VARIANCE> 78
    3.100067e+03 2.028726e+02 1.011415e+02 1.583090e+02 2.385769e+03 1.143123e+01 2.272170e+03 1.644958e+03 1.493873e+03 1.276219e+03 4.232318e+02 9.634795e+01 3.517037e+02 1.093608e+03 5.631816e+01 2.617621e+03 2.192720e+03 2.495056e+03 1.356159e+03 5.804636e+02 1.187698e+02 4.328682e+02 1.050017e+03 1.775834e+03 1.946053e+03 2.042598e+03 2.106499e+03 3.693524e+00 1.825773e+00 4.384004e-01 3.763447e-01 1.308069e+00 2.788752e+00 0.000000e+00 4.665671e-03 2.769161e-03 2.092652e-02 3.788703e-02 1.355353e-02 2.312087e-02 5.601307e-02 1.184301e-03 2.089155e-03 8.591157e-03 1.596913e-03 6.747105e-03 1.178405e-01 2.516214e-02 8.418964e-03 1.658128e-01 5.776294e-04 1.794323e-03 5.762765e-03 2.371635e-02 1.939083e-01 3.273216e-02 1.811687e-02 2.593783e-01 6.760553e-03 1.068953e-02 7.306821e-03 6.727535e-02 2.380483e-02 1.434908e-02 1.260363e-01 3.477801e-03 7.639357e-03 2.257382e-02 2.819366e-02 3.601380e-02 1.067911e-01 2.710090e-02 2.461779e-02 8.778149e-02 7.186179e-02 2.339959e-01 6.191352e-02 4.873841e-02
    <STATE> 3
    <MEAN> 78
    1.357140e+02 1.384310e+02 1.125623e+02 1.381756e+02 1.474366e+02 1.754922e+02 1.063108e+02 1.155000e+02 1.049910e+02 1.351569e+02 1.644947e+02 3.022741e+00 1.673617e+02 1.442065e+02 1.618806e+02 1.285952e+02 1.409076e+02 4.345415e+01 9.335470e+01 1.463079e+02 1.684473e+02 1.531570e+02 9.768462e+01 1.351831e+02 7.222208e+01 8.270124e+01 1.230046e+02 5.623796e+00 3.167608e+00 2.992618e+00 2.839355e+00 2.936229e+00 4.957705e+00 9.999956e-01 1.451331e+00 8.413646e-01 6.087274e-01 9.253709e-01 8.399299e-01 6.123706e-01 9.477928e-01 2.522533e-01 2.540976e-01 4.719293e-01 4.736252e-01 1.029952e+00 1.588010e+00 4.889634e-01 1.021166e+00 1.521179e+00 1.191006e+00 1.194118e+00 8.293453e-01 1.432356e+00 1.956157e+00 8.347866e-01 1.406869e+00 1.853027e+00 1.637004e+00 1.639019e+00 6.405995e-01 1.289929e+00 7.957540e-01 1.122777e+00 1.523343e+00 9.456598e-01 1.086419e+00 7.837042e-01 1.135054e+00 1.137218e+00 1.376205e+00 5.365326e-01 8.308331e-01 1.572572e+00 1.388666e+00 1.309692e+00 7.487455e-01 9.854699e-01
    <VARIANCE> 78
    3.100067e+03 2.028726e+02 1.011415e+02 1.583090e+02 2.385769e+03 1.143123e+01 2.272170e+03 1.644958e+03 1.493873e+03 1.276219e+03 4.232318e+02 9.634795e+01 3.517037e+02 1.093608e+03 5.631816e+01 2.617621e+03 2.192720e+03 2.495056e+03 1.356159e+03 5.804636e+02 1.187698e+02 4.328682e+02 1.050017e+03 1.775834e+03 1.946053e+03 2.042598e+03 2.106499e+03 3.693524e+00 1.825773e+00 4.384004e-01 3.763447e-01 1.308069e+00 2.788752e+00 0.000000e+00 4.665671e-03 2.769161e-03 2.092652e-02 3.788703e-02 1.355353e-02 2.312087e-02 5.601307e-02 1.184301e-03 2.089155e-03 8.591157e-03 1.596913e-03 6.747105e-03 1.178405e-01 2.516214e-02 8.418964e-03 1.658128e-01 5.776294e-04 1.794323e-03 5.762765e-03 2.371635e-02 1.939083e-01 3.273216e-02 1.811687e-02 2.593783e-01 6.760553e-03 1.068953e-02 7.306821e-03 6.727535e-02 2.380483e-02 1.434908e-02 1.260363e-01 3.477801e-03 7.639357e-03 2.257382e-02 2.819366e-02 3.601380e-02 1.067911e-01 2.710090e-02 2.461779e-02 8.778149e-02 7.186179e-02 2.339959e-01 6.191352e-02 4.873841e-02
    <STATE> 4
    <MEAN> 78
    1.357140e+02 1.384310e+02 1.125623e+02 1.381756e+02 1.474366e+02 1.754922e+02 1.063108e+02 1.155000e+02 1.049910e+02 1.351569e+02 1.644947e+02 3.022741e+00 1.673617e+02 1.442065e+02 1.618806e+02 1.285952e+02 1.409076e+02 4.345415e+01 9.335470e+01 1.463079e+02 1.684473e+02 1.531570e+02 9.768462e+01 1.351831e+02 7.222208e+01 8.270124e+01 1.230046e+02 5.623796e+00 3.167608e+00 2.992618e+00 2.839355e+00 2.936229e+00 4.957705e+00 9.999956e-01 1.451331e+00 8.413646e-01 6.087274e-01 9.253709e-01 8.399299e-01 6.123706e-01 9.477928e-01 2.522533e-01 2.540976e-01 4.719293e-01 4.736252e-01 1.029952e+00 1.588010e+00 4.889634e-01 1.021166e+00 1.521179e+00 1.191006e+00 1.194118e+00 8.293453e-01 1.432356e+00 1.956157e+00 8.347866e-01 1.406869e+00 1.853027e+00 1.637004e+00 1.639019e+00 6.405995e-01 1.289929e+00 7.957540e-01 1.122777e+00 1.523343e+00 9.456598e-01 1.086419e+00 7.837042e-01 1.135054e+00 1.137218e+00 1.376205e+00 5.365326e-01 8.308331e-01 1.572572e+00 1.388666e+00 1.309692e+00 7.487455e-01 9.854699e-01
    <VARIANCE> 78
    3.100067e+03 2.028726e+02 1.011415e+02 1.583090e+02 2.385769e+03 1.143123e+01 2.272170e+03 1.644958e+03 1.493873e+03 1.276219e+03 4.232318e+02 9.634795e+01 3.517037e+02 1.093608e+03 5.631816e+01 2.617621e+03 2.192720e+03 2.495056e+03 1.356159e+03 5.804636e+02 1.187698e+02 4.328682e+02 1.050017e+03 1.775834e+03 1.946053e+03 2.042598e+03 2.106499e+03 3.693524e+00 1.825773e+00 4.384004e-01 3.763447e-01 1.308069e+00 2.788752e+00 0.000000e+00 4.665671e-03 2.769161e-03 2.092652e-02 3.788703e-02 1.355353e-02 2.312087e-02 5.601307e-02 1.184301e-03 2.089155e-03 8.591157e-03 1.596913e-03 6.747105e-03 1.178405e-01 2.516214e-02 8.418964e-03 1.658128e-01 5.776294e-04 1.794323e-03 5.762765e-03 2.371635e-02 1.939083e-01 3.273216e-02 1.811687e-02 2.593783e-01 6.760553e-03 1.068953e-02 7.306821e-03 6.727535e-02 2.380483e-02 1.434908e-02 1.260363e-01 3.477801e-03 7.639357e-03 2.257382e-02 2.819366e-02 3.601380e-02 1.067911e-01 2.710090e-02 2.461779e-02 8.778149e-02 7.186179e-02 2.339959e-01 6.191352e-02 4.873841e-02
    <TRANSP> 5
    0.000000e+00 1.000000e+00 0.000000e+00 0.000000e+00 0.000000e+00
    0.000000e+00 6.000000e-01 4.000000e-01 0.000000e+00 0.000000e+00
    0.000000e+00 0.000000e+00 6.000000e-01 4.000000e-01 0.000000e+00
    0.000000e+00 0.000000e+00 0.000000e+00 7.000000e-01 3.000000e-01
    0.000000e+00 0.000000e+00 0.000000e+00 0.000000e+00 0.000000e+00
    <ENDHMM>
~h "OK"
    <BEGINHMM>
    <NUMSTATES> 5
    <STATE> 2
    <MEAN> 78
    1.357140e+02 1.384310e+02 1.125623e+02 1.381756e+02 1.474366e+02 1.754922e+02 1.063108e+02 1.155000e+02 1.049910e+02 1.351569e+02 1.644947e+02 3.022741e+00 1.673617e+02 1.442065e+02 1.618806e+02 1.285952e+02 1.409076e+02 4.345415e+01 9.335470e+01 1.463079e+02 1.684473e+02 1.531570e+02 9.768462e+01 1.351831e+02 7.222208e+01 8.270124e+01 1.230046e+02 5.623796e+00 3.167608e+00 2.992618e+00 2.839355e+00 2.936229e+00 4.957705e+00 9.999956e-01 1.451331e+00 8.413646e-01 6.087274e-01 9.253709e-01 8.399299e-01 6.123706e-01 9.477928e-01 2.522533e-01 2.540976e-01 4.719293e-01 4.736252e-01 1.029952e+00 1.588010e+00 4.889634e-01 1.021166e+00 1.521179e+00 1.191006e+00 1.194118e+00 8.293453e-01 1.432356e+00 1.956157e+00 8.347866e-01 1.406869e+00 1.853027e+00 1.637004e+00 1.639019e+00 6.405995e-01 1.289929e+00 7.957540e-01 1.122777e+00 1.523343e+00 9.456598e-01 1.086419e+00 7.837042e-01 1.135054e+00 1.137218e+00 1.376205e+00 5.365326e-01 8.308331e-01 1.572572e+00 1.388666e+00 1.309692e+00 7.487455e-01 9.854699e-01
    <VARIANCE> 78
    3.100067e+03 2.028726e+02 1.011415e+02 1.583090e+02 2.385769e+03 1.143123e+01 2.272170e+03 1.644958e+03 1.493873e+03 1.276219e+03 4.232318e+02 9.634795e+01 3.517037e+02 1.093608e+03 5.631816e+01 2.617621e+03 2.192720e+03 2.495056e+03 1.356159e+03 5.804636e+02 1.187698e+02 4.328682e+02 1.050017e+03 1.775834e+03 1.946053e+03 2.042598e+03 2.106499e+03 3.693524e+00 1.825773e+00 4.384004e-01 3.763447e-01 1.308069e+00 2.788752e+00 0.000000e+00 4.665671e-03 2.769161e-03 2.092652e-02 3.788703e-02 1.355353e-02 2.312087e-02 5.601307e-02 1.184301e-03 2.089155e-03 8.591157e-03 1.596913e-03 6.747105e-03 1.178405e-01 2.516214e-02 8.418964e-03 1.658128e-01 5.776294e-04 1.794323e-03 5.762765e-03 2.371635e-02 1.939083e-01 3.273216e-02 1.811687e-02 2.593783e-01 6.760553e-03 1.068953e-02 7.306821e-03 6.727535e-02 2.380483e-02 1.434908e-02 1.260363e-01 3.477801e-03 7.639357e-03 2.257382e-02 2.819366e-02 3.601380e-02 1.067911e-01 2.710090e-02 2.461779e-02 8.778149e-02 7.186179e-02 2.339959e-01 6.191352e-02 4.873841e-02
    <STATE> 3
    <MEAN> 78
    1.357140e+02 1.384310e+02 1.125623e+02 1.381756e+02 1.474366e+02 1.754922e+02 1.063108e+02 1.155000e+02 1.049910e+02 1.351569e+02 1.644947e+02 3.022741e+00 1.673617e+02 1.442065e+02 1.618806e+02 1.285952e+02 1.409076e+02 4.345415e+01 9.335470e+01 1.463079e+02 1.684473e+02 1.531570e+02 9.768462e+01 1.351831e+02 7.222208e+01 8.270124e+01 1.230046e+02 5.623796e+00 3.167608e+00 2.992618e+00 2.839355e+00 2.936229e+00 4.957705e+00 9.999956e-01 1.451331e+00 8.413646e-01 6.087274e-01 9.253709e-01 8.399299e-01 6.123706e-01 9.477928e-01 2.522533e-01 2.540976e-01 4.719293e-01 4.736252e-01 1.029952e+00 1.588010e+00 4.889634e-01 1.021166e+00 1.521179e+00 1.191006e+00 1.194118e+00 8.293453e-01 1.432356e+00 1.956157e+00 8.347866e-01 1.406869e+00 1.853027e+00 1.637004e+00 1.639019e+00 6.405995e-01 1.289929e+00 7.957540e-01 1.122777e+00 1.523343e+00 9.456598e-01 1.086419e+00 7.837042e-01 1.135054e+00 1.137218e+00 1.376205e+00 5.365326e-01 8.308331e-01 1.572572e+00 1.388666e+00 1.309692e+00 7.487455e-01 9.854699e-01
    <VARIANCE> 78
    3.100067e+03 2.028726e+02 1.011415e+02 1.583090e+02 2.385769e+03 1.143123e+01 2.272170e+03 1.644958e+03 1.493873e+03 1.276219e+03 4.232318e+02 9.634795e+01 3.517037e+02 1.093608e+03 5.631816e+01 2.617621e+03 2.192720e+03 2.495056e+03 1.356159e+03 5.804636e+02 1.187698e+02 4.328682e+02 1.050017e+03 1.775834e+03 1.946053e+03 2.042598e+03 2.106499e+03 3.693524e+00 1.825773e+00 4.384004e-01 3.763447e-01 1.308069e+00 2.788752e+00 0.000000e+00 4.665671e-03 2.769161e-03 2.092652e-02 3.788703e-02 1.355353e-02 2.312087e-02 5.601307e-02 1.184301e-03 2.089155e-03 8.591157e-03 1.596913e-03 6.747105e-03 1.178405e-01 2.516214e-02 8.418964e-03 1.658128e-01 5.776294e-04 1.794323e-03 5.762765e-03 2.371635e-02 1.939083e-01 3.273216e-02 1.811687e-02 2.593783e-01 6.760553e-03 1.068953e-02 7.306821e-03 6.727535e-02 2.380483e-02 1.434908e-02 1.260363e-01 3.477801e-03 7.639357e-03 2.257382e-02 2.819366e-02 3.601380e-02 1.067911e-01 2.710090e-02 2.461779e-02 8.778149e-02 7.186179e-02 2.339959e-01 6.191352e-02 4.873841e-02
    <STATE> 4
    <MEAN> 78
    1.357140e+02 1.384310e+02 1.125623e+02 1.381756e+02 1.474366e+02 1.754922e+02 1.063108e+02 1.155000e+02 1.049910e+02 1.351569e+02 1.644947e+02 3.022741e+00 1.673617e+02 1.442065e+02 1.618806e+02 1.285952e+02 1.409076e+02 4.345415e+01 9.335470e+01 1.463079e+02 1.684473e+02 1.531570e+02 9.768462e+01 1.351831e+02 7.222208e+01 8.270124e+01 1.230046e+02 5.623796e+00 3.167608e+00 2.992618e+00 2.839355e+00 2.936229e+00 4.957705e+00 9.999956e-01 1.451331e+00 8.413646e-01 6.087274e-01 9.253709e-01 8.399299e-01 6.123706e-01 9.477928e-01 2.522533e-01 2.540976e-01 4.719293e-01 4.736252e-01 1.029952e+00 1.588010e+00 4.889634e-01 1.021166e+00 1.521179e+00 1.191006e+00 1.194118e+00 8.293453e-01 1.432356e+00 1.956157e+00 8.347866e-01 1.406869e+00 1.853027e+00 1.637004e+00 1.639019e+00 6.405995e-01 1.289929e+00 7.957540e-01 1.122777e+00 1.523343e+00 9.456598e-01 1.086419e+00 7.837042e-01 1.135054e+00 1.137218e+00 1.376205e+00 5.365326e-01 8.308331e-01 1.572572e+00 1.388666e+00 1.309692e+00 7.487455e-01 9.854699e-01
    <VARIANCE> 78
    3.100067e+03 2.028726e+02 1.011415e+02 1.583090e+02 2.385769e+03 1.143123e+01 2.272170e+03 1.644958e+03 1.493873e+03 1.276219e+03 4.232318e+02 9.634795e+01 3.517037e+02 1.093608e+03 5.631816e+01 2.617621e+03 2.192720e+03 2.495056e+03 1.356159e+03 5.804636e+02 1.187698e+02 4.328682e+02 1.050017e+03 1.775834e+03 1.946053e+03 2.042598e+03 2.106499e+03 3.693524e+00 1.825773e+00 4.384004e-01 3.763447e-01 1.308069e+00 2.788752e+00 0.000000e+00 4.665671e-03 2.769161e-03 2.092652e-02 3.788703e-02 1.355353e-02 2.312087e-02 5.601307e-02 1.184301e-03 2.089155e-03 8.591157e-03 1.596913e-03 6.747105e-03 1.178405e-01 2.516214e-02 8.418964e-03 1.658128e-01 5.776294e-04 1.794323e-03 5.762765e-03 2.371635e-02 1.939083e-01 3.273216e-02 1.811687e-02 2.593783e-01 6.760553e-03 1.068953e-02 7.306821e-03 6.727535e-02 2.380483e-02 1.434908e-02 1.260363e-01 3.477801e-03 7.639357e-03 2.257382e-02 2.819366e-02 3.601380e-02 1.067911e-01 2.710090e-02 2.461779e-02 8.778149e-02 7.186179e-02 2.339959e-01 6.191352e-02 4.873841e-02
    <TRANSP> 5
    0.000000e+00 1.000000e+00 0.000000e+00 0.000000e+00 0.000000e+00
    0.000000e+00 6.000000e-01 4.000000e-01 0.000000e+00 0.000000e+00
    0.000000e+00 0.000000e+00 6.000000e-01 4.000000e-01 0.000000e+00
    0.000000e+00 0.000000e+00 0.000000e+00 7.000000e-01 3.000000e-01
    0.000000e+00 0.000000e+00 0.000000e+00 0.000000e+00 0.000000e+00
    <ENDHMM>
~h "PF"
    <BEGINHMM>
    <NUMSTATES> 5
    <STATE> 2
    <MEAN> 78
    1.357140e+02 1.384310e+02 1.125623e+02 1.381756e+02 1.474366e+02 1.754922e+02 1.063108e+02 1.155000e+02 1.049910e+02 1.351569e+02 1.644947e+02 3.022741e+00 1.673617e+02 1.442065e+02 1.618806e+02 1.285952e+02 1.409076e+02 4.345415e+01 9.335470e+01 1.463079e+02 1.684473e+02 1.531570e+02 9.768462e+01 1.351831e+02 7.222208e+01 8.270124e+01 1.230046e+02 5.623796e+00 3.167608e+00 2.992618e+00 2.839355e+00 2.936229e+00 4.957705e+00 9.999956e-01 1.451331e+00 8.413646e-01 6.087274e-01 9.253709e-01 8.399299e-01 6.123706e-01 9.477928e-01 2.522533e-01 2.540976e-01 4.719293e-01 4.736252e-01 1.029952e+00 1.588010e+00 4.889634e-01 1.021166e+00 1.521179e+00 1.191006e+00 1.194118e+00 8.293453e-01 1.432356e+00 1.956157e+00 8.347866e-01 1.406869e+00 1.853027e+00 1.637004e+00 1.639019e+00 6.405995e-01 1.289929e+00 7.957540e-01 1.122777e+00 1.523343e+00 9.456598e-01 1.086419e+00 7.837042e-01 1.135054e+00 1.137218e+00 1.376205e+00 5.365326e-01 8.308331e-01 1.572572e+00 1.388666e+00 1.309692e+00 7.487455e-01 9.854699e-01
    <VARIANCE> 78
    3.100067e+03 2.028726e+02 1.011415e+02 1.583090e+02 2.385769e+03 1.143123e+01 2.272170e+03 1.644958e+03 1.493873e+03 1.276219e+03 4.232318e+02 9.634795e+01 3.517037e+02 1.093608e+03 5.631816e+01 2.617621e+03 2.192720e+03 2.495056e+03 1.356159e+03 5.804636e+02 1.187698e+02 4.328682e+02 1.050017e+03 1.775834e+03 1.946053e+03 2.042598e+03 2.106499e+03 3.693524e+00 1.825773e+00 4.384004e-01 3.763447e-01 1.308069e+00 2.788752e+00 0.000000e+00 4.665671e-03 2.769161e-03 2.092652e-02 3.788703e-02 1.355353e-02 2.312087e-02 5.601307e-02 1.184301e-03 2.089155e-03 8.591157e-03 1.596913e-03 6.747105e-03 1.178405e-01 2.516214e-02 8.418964e-03 1.658128e-01 5.776294e-04 1.794323e-03 5.762765e-03 2.371635e-02 1.939083e-01 3.273216e-02 1.811687e-02 2.593783e-01 6.760553e-03 1.068953e-02 7.306821e-03 6.727535e-02 2.380483e-02 1.434908e-02 1.260363e-01 3.477801e-03 7.639357e-03 2.257382e-02 2.819366e-02 3.601380e-02 1.067911e-01 2.710090e-02 2.461779e-02 8.778149e-02 7.186179e-02 2.339959e-01 6.191352e-02 4.873841e-02
    <STATE> 3
    <MEAN> 78
    1.357140e+02 1.384310e+02 1.125623e+02 1.381756e+02 1.474366e+02 1.754922e+02 1.063108e+02 1.155000e+02 1.049910e+02 1.351569e+02 1.644947e+02 3.022741e+00 1.673617e+02 1.442065e+02 1.618806e+02 1.285952e+02 1.409076e+02 4.345415e+01 9.335470e+01 1.463079e+02 1.684473e+02 1.531570e+02 9.768462e+01 1.351831e+02 7.222208e+01 8.270124e+01 1.230046e+02 5.623796e+00 3.167608e+00 2.992618e+00 2.839355e+00 2.936229e+00 4.957705e+00 9.999956e-01 1.451331e+00 8.413646e-01 6.087274e-01 9.253709e-01 8.399299e-01 6.123706e-01 9.477928e-01 2.522533e-01 2.540976e-01 4.719293e-01 4.736252e-01 1.029952e+00 1.588010e+00 4.889634e-01 1.021166e+00 1.521179e+00 1.191006e+00 1.194118e+00 8.293453e-01 1.432356e+00 1.956157e+00 8.347866e-01 1.406869e+00 1.853027e+00 1.637004e+00 1.639019e+00 6.405995e-01 1.289929e+00 7.957540e-01 1.122777e+00 1.523343e+00 9.456598e-01 1.086419e+00 7.837042e-01 1.135054e+00 1.137218e+00 1.376205e+00 5.365326e-01 8.308331e-01 1.572572e+00 1.388666e+00 1.309692e+00 7.487455e-01 9.854699e-01
    <VARIANCE> 78
    3.100067e+03 2.028726e+02 1.011415e+02 1.583090e+02 2.385769e+03 1.143123e+01 2.272170e+03 1.644958e+03 1.493873e+03 1.276219e+03 4.232318e+02 9.634795e+01 3.517037e+02 1.093608e+03 5.631816e+01 2.617621e+03 2.192720e+03 2.495056e+03 1.356159e+03 5.804636e+02 1.187698e+02 4.328682e+02 1.050017e+03 1.775834e+03 1.946053e+03 2.042598e+03 2.106499e+03 3.693524e+00 1.825773e+00 4.384004e-01 3.763447e-01 1.308069e+00 2.788752e+00 0.000000e+00 4.665671e-03 2.769161e-03 2.092652e-02 3.788703e-02 1.355353e-02 2.312087e-02 5.601307e-02 1.184301e-03 2.089155e-03 8.591157e-03 1.596913e-03 6.747105e-03 1.178405e-01 2.516214e-02 8.418964e-03 1.658128e-01 5.776294e-04 1.794323e-03 5.762765e-03 2.371635e-02 1.939083e-01 3.273216e-02 1.811687e-02 2.593783e-01 6.760553e-03 1.068953e-02 7.306821e-03 6.727535e-02 2.380483e-02 1.434908e-02 1.260363e-01 3.477801e-03 7.639357e-03 2.257382e-02 2.819366e-02 3.601380e-02 1.067911e-01 2.710090e-02 2.461779e-02 8.778149e-02 7.186179e-02 2.339959e-01 6.191352e-02 4.873841e-02
    <STATE> 4
    <MEAN> 78
    1.357140e+02 1.384310e+02 1.125623e+02 1.381756e+02 1.474366e+02 1.754922e+02 1.063108e+02 1.155000e+02 1.049910e+02 1.351569e+02 1.644947e+02 3.022741e+00 1.673617e+02 1.442065e+02 1.618806e+02 1.285952e+02 1.409076e+02 4.345415e+01 9.335470e+01 1.463079e+02 1.684473e+02 1.531570e+02 9.768462e+01 1.351831e+02 7.222208e+01 8.270124e+01 1.230046e+02 5.623796e+00 3.167608e+00 2.992618e+00 2.839355e+00 2.936229e+00 4.957705e+00 9.999956e-01 1.451331e+00 8.413646e-01 6.087274e-01 9.253709e-01 8.399299e-01 6.123706e-01 9.477928e-01 2.522533e-01 2.540976e-01 4.719293e-01 4.736252e-01 1.029952e+00 1.588010e+00 4.889634e-01 1.021166e+00 1.521179e+00 1.191006e+00 1.194118e+00 8.293453e-01 1.432356e+00 1.956157e+00 8.347866e-01 1.406869e+00 1.853027e+00 1.637004e+00 1.639019e+00 6.405995e-01 1.289929e+00 7.957540e-01 1.122777e+00 1.523343e+00 9.456598e-01 1.086419e+00 7.837042e-01 1.135054e+00 1.137218e+00 1.376205e+00 5.365326e-01 8.308331e-01 1.572572e+00 1.388666e+00 1.309692e+00 7.487455e-01 9.854699e-01
    <VARIANCE> 78
    3.100067e+03 2.028726e+02 1.011415e+02 1.583090e+02 2.385769e+03 1.143123e+01 2.272170e+03 1.644958e+03 1.493873e+03 1.276219e+03 4.232318e+02 9.634795e+01 3.517037e+02 1.093608e+03 5.631816e+01 2.617621e+03 2.192720e+03 2.495056e+03 1.356159e+03 5.804636e+02 1.187698e+02 4.328682e+02 1.050017e+03 1.775834e+03 1.946053e+03 2.042598e+03 2.106499e+03 3.693524e+00 1.825773e+00 4.384004e-01 3.763447e-01 1.308069e+00 2.788752e+00 0.000000e+00 4.665671e-03 2.769161e-03 2.092652e-02 3.788703e-02 1.355353e-02 2.312087e-02 5.601307e-02 1.184301e-03 2.089155e-03 8.591157e-03 1.596913e-03 6.747105e-03 1.178405e-01 2.516214e-02 8.418964e-03 1.658128e-01 5.776294e-04 1.794323e-03 5.762765e-03 2.371635e-02 1.939083e-01 3.273216e-02 1.811687e-02 2.593783e-01 6.760553e-03 1.068953e-02 7.306821e-03 6.727535e-02 2.380483e-02 1.434908e-02 1.260363e-01 3.477801e-03 7.639357e-03 2.257382e-02 2.819366e-02 3.601380e-02 1.067911e-01 2.710090e-02 2.461779e-02 8.778149e-02 7.186179e-02 2.339959e-01 6.191352e-02 4.873841e-02
    <TRANSP> 5
    0.000000e+00 1.000000e+00 0.000000e+00 0.000000e+00 0.000000e+00
    0.000000e+00 6.000000e-01 4.000000e-01 0.000000e+00 0.000000e+00
    0.000000e+00 0.000000e+00 6.000000e-01 4.000000e-01 0.000000e+00
    0.000000e+00 0.000000e+00 0.000000e+00 7.000000e-01 3.000000e-01
    0.000000e+00 0.000000e+00 0.000000e+00 0.000000e+00 0.000000e+00
    <ENDHMM>
~h "PR"
    <BEGINHMM>
    <NUMSTATES> 5
    <STATE> 2
    <MEAN> 78
    1.357140e+02 1.384310e+02 1.125623e+02 1.381756e+02 1.474366e+02 1.754922e+02 1.063108e+02 1.155000e+02 1.049910e+02 1.351569e+02 1.644947e+02 3.022741e+00 1.673617e+02 1.442065e+02 1.618806e+02 1.285952e+02 1.409076e+02 4.345415e+01 9.335470e+01 1.463079e+02 1.684473e+02 1.531570e+02 9.768462e+01 1.351831e+02 7.222208e+01 8.270124e+01 1.230046e+02 5.623796e+00 3.167608e+00 2.992618e+00 2.839355e+00 2.936229e+00 4.957705e+00 9.999956e-01 1.451331e+00 8.413646e-01 6.087274e-01 9.253709e-01 8.399299e-01 6.123706e-01 9.477928e-01 2.522533e-01 2.540976e-01 4.719293e-01 4.736252e-01 1.029952e+00 1.588010e+00 4.889634e-01 1.021166e+00 1.521179e+00 1.191006e+00 1.194118e+00 8.293453e-01 1.432356e+00 1.956157e+00 8.347866e-01 1.406869e+00 1.853027e+00 1.637004e+00 1.639019e+00 6.405995e-01 1.289929e+00 7.957540e-01 1.122777e+00 1.523343e+00 9.456598e-01 1.086419e+00 7.837042e-01 1.135054e+00 1.137218e+00 1.376205e+00 5.365326e-01 8.308331e-01 1.572572e+00 1.388666e+00 1.309692e+00 7.487455e-01 9.854699e-01
    <VARIANCE> 78
    3.100067e+03 2.028726e+02 1.011415e+02 1.583090e+02 2.385769e+03 1.143123e+01 2.272170e+03 1.644958e+03 1.493873e+03 1.276219e+03 4.232318e+02 9.634795e+01 3.517037e+02 1.093608e+03 5.631816e+01 2.617621e+03 2.192720e+03 2.495056e+03 1.356159e+03 5.804636e+02 1.187698e+02 4.328682e+02 1.050017e+03 1.775834e+03 1.946053e+03 2.042598e+03 2.106499e+03 3.693524e+00 1.825773e+00 4.384004e-01 3.763447e-01 1.308069e+00 2.788752e+00 0.000000e+00 4.665671e-03 2.769161e-03 2.092652e-02 3.788703e-02 1.355353e-02 2.312087e-02 5.601307e-02 1.184301e-03 2.089155e-03 8.591157e-03 1.596913e-03 6.747105e-03 1.178405e-01 2.516214e-02 8.418964e-03 1.658128e-01 5.776294e-04 1.794323e-03 5.762765e-03 2.371635e-02 1.939083e-01 3.273216e-02 1.811687e-02 2.593783e-01 6.760553e-03 1.068953e-02 7.306821e-03 6.727535e-02 2.380483e-02 1.434908e-02 1.260363e-01 3.477801e-03 7.639357e-03 2.257382e-02 2.819366e-02 3.601380e-02 1.067911e-01 2.710090e-02 2.461779e-02 8.778149e-02 7.186179e-02 2.339959e-01 6.191352e-02 4.873841e-02
    <STATE> 3
    <MEAN> 78
    1.357140e+02 1.384310e+02 1.125623e+02 1.381756e+02 1.474366e+02 1.754922e+02 1.063108e+02 1.155000e+02 1.049910e+02 1.351569e+02 1.644947e+02 3.022741e+00 1.673617e+02 1.442065e+02 1.618806e+02 1.285952e+02 1.409076e+02 4.345415e+01 9.335470e+01 1.463079e+02 1.684473e+02 1.531570e+02 9.768462e+01 1.351831e+02 7.222208e+01 8.270124e+01 1.230046e+02 5.623796e+00 3.167608e+00 2.992618e+00 2.839355e+00 2.936229e+00 4.957705e+00 9.999956e-01 1.451331e+00 8.413646e-01 6.087274e-01 9.253709e-01 8.399299e-01 6.123706e-01 9.477928e-01 2.522533e-01 2.540976e-01 4.719293e-01 4.736252e-01 1.029952e+00 1.588010e+00 4.889634e-01 1.021166e+00 1.521179e+00 1.191006e+00 1.194118e+00 8.293453e-01 1.432356e+00 1.956157e+00 8.347866e-01 1.406869e+00 1.853027e+00 1.637004e+00 1.639019e+00 6.405995e-01 1.289929e+00 7.957540e-01 1.122777e+00 1.523343e+00 9.456598e-01 1.086419e+00 7.837042e-01 1.135054e+00 1.137218e+00 1.376205e+00 5.365326e-01 8.308331e-01 1.572572e+00 1.388666e+00 1.309692e+00 7.487455e-01 9.854699e-01
    <VARIANCE> 78
    3.100067e+03 2.028726e+02 1.011415e+02 1.583090e+02 2.385769e+03 1.143123e+01 2.272170e+03 1.644958e+03 1.493873e+03 1.276219e+03 4.232318e+02 9.634795e+01 3.517037e+02 1.093608e+03 5.631816e+01 2.617621e+03 2.192720e+03 2.495056e+03 1.356159e+03 5.804636e+02 1.187698e+02 4.328682e+02 1.050017e+03 1.775834e+03 1.946053e+03 2.042598e+03 2.106499e+03 3.693524e+00 1.825773e+00 4.384004e-01 3.763447e-01 1.308069e+00 2.788752e+00 0.000000e+00 4.665671e-03 2.769161e-03 2.092652e-02 3.788703e-02 1.355353e-02 2.312087e-02 5.601307e-02 1.184301e-03 2.089155e-03 8.591157e-03 1.596913e-03 6.747105e-03 1.178405e-01 2.516214e-02 8.418964e-03 1.658128e-01 5.776294e-04 1.794323e-03 5.762765e-03 2.371635e-02 1.939083e-01 3.273216e-02 1.811687e-02 2.593783e-01 6.760553e-03 1.068953e-02 7.306821e-03 6.727535e-02 2.380483e-02 1.434908e-02 1.260363e-01 3.477801e-03 7.639357e-03 2.257382e-02 2.819366e-02 3.601380e-02 1.067911e-01 2.710090e-02 2.461779e-02 8.778149e-02 7.186179e-02 2.339959e-01 6.191352e-02 4.873841e-02
    <STATE> 4
    <MEAN> 78
    1.357140e+02 1.384310e+02 1.125623e+02 1.381756e+02 1.474366e+02 1.754922e+02 1.063108e+02 1.155000e+02 1.049910e+02 1.351569e+02 1.644947e+02 3.022741e+00 1.673617e+02 1.442065e+02 1.618806e+02 1.285952e+02 1.409076e+02 4.345415e+01 9.335470e+01 1.463079e+02 1.684473e+02 1.531570e+02 9.768462e+01 1.351831e+02 7.222208e+01 8.270124e+01 1.230046e+02 5.623796e+00 3.167608e+00 2.992618e+00 2.839355e+00 2.936229e+00 4.957705e+00 9.999956e-01 1.451331e+00 8.413646e-01 6.087274e-01 9.253709e-01 8.399299e-01 6.123706e-01 9.477928e-01 2.522533e-01 2.540976e-01 4.719293e-01 4.736252e-01 1.029952e+00 1.588010e+00 4.889634e-01 1.021166e+00 1.521179e+00 1.191006e+00 1.194118e+00 8.293453e-01 1.432356e+00 1.956157e+00 8.347866e-01 1.406869e+00 1.853027e+00 1.637004e+00 1.639019e+00 6.405995e-01 1.289929e+00 7.957540e-01 1.122777e+00 1.523343e+00 9.456598e-01 1.086419e+00 7.837042e-01 1.135054e+00 1.137218e+00 1.376205e+00 5.365326e-01 8.308331e-01 1.572572e+00 1.388666e+00 1.309692e+00 7.487455e-01 9.854699e-01
    <VARIANCE> 78
    3.100067e+03 2.028726e+02 1.011415e+02 1.583090e+02 2.385769e+03 1.143123e+01 2.272170e+03 1.644958e+03 1.493873e+03 1.276219e+03 4.232318e+02 9.634795e+01 3.517037e+02 1.093608e+03 5.631816e+01 2.617621e+03 2.192720e+03 2.495056e+03 1.356159e+03 5.804636e+02 1.187698e+02 4.328682e+02 1.050017e+03 1.775834e+03 1.946053e+03 2.042598e+03 2.106499e+03 3.693524e+00 1.825773e+00 4.384004e-01 3.763447e-01 1.308069e+00 2.788752e+00 0.000000e+00 4.665671e-03 2.769161e-03 2.092652e-02 3.788703e-02 1.355353e-02 2.312087e-02 5.601307e-02 1.184301e-03 2.089155e-03 8.591157e-03 1.596913e-03 6.747105e-03 1.178405e-01 2.516214e-02 8.418964e-03 1.658128e-01 5.776294e-04 1.794323e-03 5.762765e-03 2.371635e-02 1.939083e-01 3.273216e-02 1.811687e-02 2.593783e-01 6.760553e-03 1.068953e-02 7.306821e-03 6.727535e-02 2.380483e-02 1.434908e-02 1.260363e-01 3.477801e-03 7.639357e-03 2.257382e-02 2.819366e-02 3.601380e-02 1.067911e-01 2.710090e-02 2.461779e-02 8.778149e-02 7.186179e-02 2.339959e-01 6.191352e-02 4.873841e-02
    <TRANSP> 5
    0.000000e+00 1.000000e+00 0.000000e+00 0.000000e+00 0.000000e+00
    0.000000e+00 6.000000e-01 4.000000e-01 0.000000e+00 0.000000e+00
    0.000000e+00 0.000000e+00 6.000000e-01 4.000000e-01 0.000000e+00
    0.000000e+00 0.000000e+00 0.000000e+00 7.000000e-01 3.000000e-01
    0.000000e+00 0.000000e+00 0.000000e+00 0.000000e+00 0.000000e+00
    <ENDHMM>
~h "SP"
    <BEGINHMM>
    <NUMSTATES> 5
    <STATE> 2
    <MEAN> 78
