~o
<STREAMINFO> 1 33
<VECSIZE> 33<NULLD><USER><DIAGC>
~h "BN"
<BEGINHMM>
<NUMSTATES> 5
<STATE> 2
<NUMMIXES> 4
<MIXTURE> 1 3.109978e-01
<MEAN> 33
 1.743865e+02 1.388235e+02 1.046027e+02 1.397243e+02 1.761977e+02 1.769602e+02 1.353573e+02 1.340972e+02 9.054545e+01 1.603591e+02 1.764941e+02 9.558661e-01 1.756485e+02 1.624415e+02 1.646061e+02 1.669070e+02 1.705718e+02 8.072073e+00 1.049867e+02 1.614216e+02 1.695219e+02 1.635802e+02 1.098305e+02 1.617588e+02 6.934961e+01 9.279056e+01 1.605749e+02 4.350749e+00 2.301057e+00 2.569139e+00 2.389571e+00 2.266735e+00 4.681098e+00
<VARIANCE> 33
 3.902650e+01 1.761670e+01 4.605967e+01 2.762490e+01 3.037716e+01 3.785532e+00 2.822034e+01 2.062020e+01 1.886277e+01 3.436393e+01 9.192005e+00 5.357184e-01 8.024690e+00 3.217423e+01 4.179502e+01 6.477080e+01 5.261195e+01 3.148238e+01 3.985796e+02 9.149937e+01 2.565658e+01 1.025103e+02 3.600730e+02 1.868091e+02 6.131913e+02 8.142665e+02 1.978356e+02 4.602477e+00 3.767779e-01 2.475878e-01 3.693123e-01 3.089610e-01 2.849432e+00
<GCONST> 1.603157e+02
<MIXTURE> 2 1.308910e-01
<MEAN> 33
 1.479932e+02 1.371528e+02 1.106210e+02 1.362246e+02 1.750464e+02 1.766890e+02 1.241601e+02 1.347246e+02 1.007169e+02 1.213944e+02 1.751171e+02 1.002121e+00 1.756131e+02 1.609463e+02 1.613568e+02 1.193251e+02 1.664436e+02 4.853373e+01 5.503229e+01 1.578317e+02 1.689345e+02 1.638048e+02 1.006357e+02 1.589985e+02 4.544086e+01 7.504096e+01 1.175608e+02 8.721260e+00 3.076105e+00 3.030063e+00 2.595281e+00 2.117335e+00 4.228475e+00
<VARIANCE> 33
 3.659026e+02 2.119765e+01 4.060360e+01 1.337602e+01 3.037716e+01 7.860036e+00 2.367094e+02 2.062020e+01 2.876375e+02 2.143663e+02 1.636342e+01 6.515383e-01 6.578511e+00 3.782205e+01 4.101082e+01 3.534915e+02 6.523407e+01 4.516492e+02 2.649030e+02 1.523394e+02 2.418742e+01 8.955574e+01 5.118894e+02 2.327785e+02 5.617654e+02 7.561089e+02 2.830901e+02 1.492640e+00 5.309954e-01 1.028999e-01 7.314654e-02 9.165625e-02 9.656142e-01
<GCONST> 1.696904e+02
<MIXTURE> 3 2.129907e-01
<MEAN> 33
 1.721805e+02 1.357999e+02 1.128596e+02 1.380313e+02 1.701010e+02 1.757600e+02 1.344382e+02 1.336700e+02 9.189177e+01 1.566707e+02 1.693841e+02 1.743304e+00 1.727752e+02 1.583949e+02 1.607294e+02 1.602179e+02 1.594575e+02 2.202726e+01 1.005664e+02 1.408093e+02 1.707354e+02 1.517759e+02 1.080181e+02 1.434740e+02 9.560005e+01 8.124189e+01 1.489627e+02 5.183496e+00 3.544663e+00 2.898168e+00 2.720948e+00 2.962324e+00 5.166082e+00
<VARIANCE> 33
 3.902650e+01 3.249661e+01 6.706339e+01 4.408779e+01 5.870908e+01 1.210849e+01 3.565091e+01 3.757851e+01 8.539301e+01 1.641072e+02 6.169392e+01 1.834984e+00 3.387571e+01 2.620215e+02 3.092616e+01 2.438342e+02 2.307587e+02 3.121051e+02 1.892626e+03 3.823595e+02 3.661903e+01 2.414676e+02 1.816315e+03 8.178856e+02 2.296525e+03 2.206015e+03 6.138309e+02 3.843707e+00 2.759841e+00 5.447119e-01 2.377599e-01 1.197256e+00 4.400236e+00
<GCONST> 1.936626e+02
<MIXTURE> 4 3.451199e-01
<MEAN> 33
 7.466026e+01 1.464902e+02 1.126233e+02 1.482695e+02 1.168166e+02 1.742266e+02 5.853408e+01 9.979642e+01 1.121644e+02 9.996641e+01 1.465948e+02 2.970850e+00 1.673443e+02 1.351408e+02 1.647745e+02 7.188873e+01 1.116560e+02 8.728449e+01 9.159399e+01 1.307247e+02 1.711384e+02 1.532097e+02 5.763286e+01 1.185948e+02 5.789112e+01 9.900461e+01 9.779686e+01 5.180639e+00 3.763637e+00 3.385735e+00 2.705916e+00 3.759737e+00 4.017310e+00
<VARIANCE> 33
 3.988881e+03 2.656459e+02 7.013113e+01 3.744830e+02 1.748128e+03 1.996717e+01 2.910358e+03 1.659659e+03 2.045666e+03 1.697790e+03 7.316216e+02 1.611966e+01 1.453162e+02 1.368108e+03 3.410111e+01 3.038171e+03 1.980209e+03 3.016902e+03 1.795274e+03 6.319435e+02 5.221693e+01 4.697823e+02 1.827738e+03 2.075625e+03 1.769706e+03 3.136912e+03 2.460696e+03 3.740072e+00 2.185241e+00 6.109319e-01 5.908626e-01 9.937913e-01 2.537687e+00
<GCONST> 2.388802e+02
<STATE> 3
<NUMMIXES> 4
<MIXTURE> 1 2.044192e-01
<MEAN> 33
 5.938682e+01 1.530732e+02 1.132647e+02 1.351837e+02 1.713006e+02 1.766134e+02 5.106400e+01 1.367349e+02 1.494019e+02 9.180681e+01 1.549932e+02 3.027176e+00 1.746619e+02 1.627280e+02 1.619532e+02 6.420858e+01 1.674779e+02 1.161221e+02 8.187736e+01 1.448198e+02 1.683373e+02 1.537267e+02 1.087504e+02 1.439455e+02 3.112909e+01 1.098429e+02 1.191476e+02 7.909487e+00 3.574896e+00 3.524324e+00 2.540090e+00 2.461883e+00 3.380533e+00
<VARIANCE> 33
 2.526370e+03 2.820940e+02 8.321667e+01 1.597529e+01 3.852116e+01 9.210732e+00 1.490252e+03 2.062020e+01 6.027054e+02 8.625085e+02 2.190204e+02 8.818692e+00 1.236659e+01 2.993449e+01 2.914711e+01 8.786221e+02 5.583712e+01 1.333277e+03 8.423363e+02 5.358541e+02 2.980221e+01 1.717361e+02 9.949183e+02 6.094451e+02 4.185869e+02 2.369940e+03 5.041446e+02 1.548504e+00 1.149070e+00 4.766841e-01 1.298195e-01 3.246753e-01 6.045565e-01
<GCONST> 1.966053e+02
<MIXTURE> 2 3.323311e-01
<MEAN> 33
 1.815095e+01 1.646419e+02 1.057292e+02 1.363390e+02 1.748407e+02 1.761766e+02 1.610281e+01 1.356235e+02 1.517255e+02 6.404576e+01 1.367097e+02 2.037541e+00 1.749355e+02 1.635912e+02 1.624697e+02 2.801123e+01 1.659498e+02 1.396180e+02 7.765069e+01 1.372433e+02 1.698230e+02 1.630601e+02 1.091388e+02 1.154531e+02 5.316371e+01 1.077688e+02 1.074004e+02 5.629142e+00 4.092577e+00 2.984400e+00 2.898518e+00 2.200131e+00 4.421426e+00
<VARIANCE> 33
 8.199399e+01 1.918724e+02 6.255225e+01 1.630247e+01 3.037716e+01 9.964550e+00 2.822034e+01 2.062020e+01 3.296923e+01 2.554712e+02 4.860055e+02 3.674433e+00 1.915255e+01 2.228520e+01 3.232920e+01 3.071743e+01 7.658353e+01 1.535688e+02 2.450836e+02 2.600797e+02 5.395545e+01 1.121646e+02 3.953138e+02 1.743729e+03 1.600329e+03 2.506369e+03 2.319614e+02 6.827081e-01 1.027707e+00 5.637163e-01 2.193897e-01 1.061265e-01 1.103710e+00
<GCONST> 1.774521e+02
<MIXTURE> 3 3.323311e-01
<MEAN> 33
 1.815095e+01 1.646419e+02 1.057292e+02 1.363390e+02 1.748407e+02 1.761766e+02 1.610281e+01 1.356235e+02 1.517255e+02 6.404576e+01 1.367097e+02 2.037541e+00 1.749355e+02 1.635912e+02 1.624697e+02 2.801123e+01 1.659498e+02 1.396180e+02 7.765069e+01 1.372433e+02 1.698230e+02 1.630601e+02 1.091388e+02 1.154531e+02 5.316371e+01 1.077688e+02 1.074004e+02 5.629142e+00 4.092577e+00 2.984400e+00 2.898518e+00 2.200131e+00 4.421426e+00
<VARIANCE> 33
 8.199399e+01 1.918724e+02 6.255225e+01 1.630247e+01 3.037716e+01 9.964550e+00 2.822034e+01 2.062020e+01 3.296923e+01 2.554712e+02 4.860055e+02 3.674433e+00 1.915255e+01 2.228520e+01 3.232920e+01 3.071743e+01 7.658353e+01 1.535688e+02 2.450836e+02 2.600797e+02 5.395545e+01 1.121646e+02 3.953138e+02 1.743729e+03 1.600329e+03 2.506369e+03 2.319614e+02 6.827081e-01 1.027707e+00 5.637163e-01 2.193897e-01 1.061265e-01 1.103710e+00
<GCONST> 1.774521e+02
<MIXTURE> 4 1.309189e-01
<MEAN> 33
 3.755011e+01 1.580139e+02 1.173311e+02 1.363318e+02 1.488748e+02 1.753078e+02 3.193072e+01 1.262995e+02 1.516330e+02 6.034813e+01 1.467940e+02 1.403649e+01 1.578228e+02 1.440331e+02 1.611496e+02 3.983560e+01 1.409898e+02 1.219634e+02 6.321733e+01 1.530844e+02 1.580694e+02 1.525696e+02 8.103467e+01 6.557967e+01 9.708469e+01 1.186723e+02 1.046326e+02 4.763186e+00 4.152068e+00 2.149510e+00 2.883317e+00 3.245295e+00 5.002229e+00
<VARIANCE> 33
 2.025520e+03 2.664951e+02 1.504481e+02 1.594724e+02 1.139300e+03 1.223032e+01 1.148295e+03 6.820579e+02 2.911313e+02 1.471200e+03 6.805539e+02 1.813396e+02 1.812034e+02 8.204512e+02 4.286488e+01 1.750009e+03 1.151000e+03 9.699372e+02 3.666132e+02 2.935580e+02 2.984621e+02 1.869240e+02 1.352456e+03 1.820683e+03 2.117528e+03 1.486892e+03 6.725579e+02 2.078744e+00 1.490089e+00 5.560052e-01 4.253826e-01 1.206621e+00 3.893560e+00
<GCONST> 2.287409e+02
<STATE> 4
<NUMMIXES> 4
<MIXTURE> 1 4.571899e-01
<MEAN> 33
 1.719857e+02 1.373732e+02 1.104394e+02 1.373913e+02 1.733173e+02 1.762239e+02 1.357639e+02 1.358013e+02 8.843476e+01 1.598113e+02 1.718368e+02 1.944794e+00 1.738466e+02 1.633274e+02 1.617114e+02 1.603846e+02 1.669936e+02 1.725373e+01 1.080463e+02 1.505337e+02 1.681353e+02 1.586068e+02 1.097005e+02 1.499432e+02 8.495509e+01 8.443206e+01 1.516393e+02 5.444102e+00 2.954370e+00 2.901254e+00 2.695810e+00 2.546708e+00 4.786406e+00
<VARIANCE> 33
 5.732547e+01 3.390971e+01 6.480914e+01 3.890840e+01 3.523038e+01 1.151588e+01 2.822034e+01 2.062020e+01 3.834506e+01 1.343138e+02 4.776880e+01 5.250300e+00 2.540602e+01 5.648363e+01 3.551330e+01 2.331885e+02 8.636628e+01 1.874377e+02 1.452077e+03 3.808177e+02 2.631129e+01 2.063252e+02 8.534512e+02 7.770646e+02 1.480657e+03 1.573406e+03 4.874408e+02 4.575089e+00 1.536459e+00 3.105526e-01 2.834873e-01 8.487062e-01 2.716238e+00
<GCONST> 1.849142e+02
<MIXTURE> 2 1.551773e-01
<MEAN> 33
 1.705086e+02 1.362240e+02 1.159149e+02 1.487327e+02 3.253311e+01 1.715596e+02 1.363633e+02 3.099502e+01 1.598482e+02 1.567159e+02 1.741234e+02 1.080875e+01 1.241878e+02 7.367957e+01 1.633836e+02 1.646338e+02 3.692771e+01 1.283968e+02 7.715948e+01 1.491804e+02 1.651615e+02 1.388693e+02 6.729607e+01 1.254946e+02 6.401575e+01 7.678227e+01 1.102098e+02 2.855019e+00 2.364290e+00 2.612799e+00 2.801796e+00 4.311304e+00 6.080002e+00
<VARIANCE> 33
 3.902650e+01 4.305795e+01 1.160084e+02 5.624419e+02 9.377469e+02 3.024412e+01 2.822034e+01 3.618300e+02 1.251542e+02 5.984255e+01 2.102974e+01 2.316267e+02 1.138152e+03 5.926268e+02 1.255918e+02 9.983517e+01 4.075011e+02 3.154466e+02 8.069909e+02 5.822066e+02 8.854745e+01 5.200689e+02 5.996508e+02 2.262979e+03 1.885043e+03 2.390348e+03 2.135916e+02 2.065992e+00 3.962350e-01 2.936174e-01 6.283433e-01 1.977706e+00 2.244412e+00
<GCONST> 2.088848e+02
<MIXTURE> 3 2.524638e-01
<MEAN> 33
 1.713997e+02 1.389966e+02 1.082230e+02 1.647512e+02 1.827062e+01 1.761896e+02 1.355618e+02 2.055700e+01 1.561188e+02 1.586971e+02 1.693390e+02 1.641978e+00 1.462191e+02 5.558748e+01 1.641460e+02 1.676861e+02 2.694532e+01 1.421597e+02 9.298674e+01 1.539413e+02 1.678969e+02 1.454195e+02 7.121956e+01 9.301662e+01 1.034082e+02 7.821425e+01 1.163338e+02 4.564637e+00 2.631992e+00 2.653804e+00 2.750032e+00 4.303435e+00 5.968297e+00
<VARIANCE> 33
 3.902650e+01 3.930376e+01 7.502859e+01 1.392047e+02 1.052628e+02 8.996217e+00 2.822034e+01 2.947676e+01 3.703130e+01 3.525299e+01 8.663769e+01 1.860716e+00 4.928255e+02 2.240002e+02 4.032780e+01 8.073734e+01 3.608572e+01 1.048703e+02 4.555360e+02 1.705337e+02 6.441782e+01 3.586559e+02 3.039305e+02 3.056248e+03 1.973016e+03 2.533358e+03 1.895097e+02 1.541594e+00 2.436836e-01 2.675290e-01 8.040046e-01 9.561183e-01 1.612817e+00
<GCONST> 1.846483e+02
<MIXTURE> 4 1.351680e-01
<MEAN> 33
 1.255144e+02 1.449751e+02 1.119674e+02 1.427654e+02 1.077482e+02 1.748551e+02 1.020237e+02 8.545840e+01 1.038368e+02 1.220799e+02 1.612465e+02 6.052261e+00 1.551989e+02 1.131253e+02 1.655961e+02 1.146446e+02 9.181950e+01 5.801510e+01 8.297833e+01 1.427434e+02 1.689541e+02 1.461245e+02 8.785514e+01 1.032562e+02 1.001783e+02 6.632039e+01 1.081431e+02 4.586654e+00 3.056373e+00 2.581569e+00 2.838583e+00 3.499940e+00 5.718366e+00
<VARIANCE> 33
 2.928322e+03 1.857390e+02 1.366803e+02 1.152639e+03 3.624822e+03 1.802066e+01 1.903847e+03 2.352394e+03 1.417331e+03 2.051650e+03 2.632469e+02 8.602162e+01 7.534225e+02 1.806568e+03 4.372789e+01 2.953938e+03 2.877054e+03 1.614094e+03 1.626828e+03 3.632681e+02 5.625231e+01 1.205287e+03 1.595314e+03 2.605535e+03 2.715085e+03 2.068926e+03 1.957057e+03 3.190914e+00 9.192960e-01 4.944802e-01 8.955246e-01 1.877122e+00 5.319883e+00
<GCONST> 2.437176e+02
<TRANSP> 5
 0.000000e+00 1.000000e+00 0.000000e+00 0.000000e+00 0.000000e+00
 0.000000e+00 8.570977e-01 1.429023e-01 0.000000e+00 0.000000e+00
 0.000000e+00 0.000000e+00 9.544056e-01 4.559441e-02 0.000000e+00
 0.000000e+00 0.000000e+00 0.000000e+00 9.514096e-01 4.859044e-02
 0.000000e+00 0.000000e+00 0.000000e+00 0.000000e+00 0.000000e+00
<ENDHMM>
~h "BS"
<BEGINHMM>
<NUMSTATES> 5
<STATE> 2
<NUMMIXES> 4
<MIXTURE> 1 2.596260e-01
<MEAN> 33
 1.732450e+02 1.369853e+02 1.079352e+02 1.380815e+02 1.749809e+02 1.763513e+02 1.354295e+02 1.346988e+02 8.987179e+01 1.566863e+02 1.751279e+02 1.049475e+00 1.749624e+02 1.600840e+02 1.625075e+02 1.606806e+02 1.655510e+02 9.871556e+00 1.002750e+02 1.584028e+02 1.701249e+02 1.625151e+02 1.050090e+02 1.592576e+02 7.477428e+01 8.196056e+01 1.489252e+02 5.291981e+00 2.639107e+00 2.693891e+00 2.550356e+00 2.245757e+00 4.842765e+00
<VARIANCE> 33
 3.902650e+01 2.161331e+01 5.624871e+01 3.114842e+01 3.037716e+01 1.143357e+01 2.822034e+01 2.062020e+01 2.658556e+01 1.127407e+02 2.008887e+01 1.254331e+00 1.734279e+01 7.521151e+01 4.159095e+01 1.360337e+02 1.027724e+02 8.110338e+01 9.108413e+02 2.122396e+02 2.537135e+01 1.755984e+02 6.201986e+02 3.177598e+02 1.038008e+03 9.686872e+02 4.005107e+02 3.954171e+00 7.838063e-01 3.107624e-01 2.787015e-01 5.261863e-01 3.586096e+00
<GCONST> 1.750461e+02
<MIXTURE> 2 2.035941e-01
<MEAN> 33
 1.117052e+02 1.366707e+02 1.157922e+02 1.394542e+02 1.226881e+02 1.752680e+02 9.914174e+01 1.039912e+02 1.137250e+02 1.154750e+02 1.644733e+02 3.967643e+00 1.616163e+02 1.196254e+02 1.598869e+02 9.437992e+01 9.671925e+01 1.285484e+01 9.492132e+01 1.359168e+02 1.700565e+02 1.504595e+02 9.305250e+01 1.467162e+02 4.072684e+01 5.711126e+01 5.456431e+01 5.539968e+00 2.865793e+00 3.083612e+00 3.015696e+00 2.989070e+00 5.336080e+00
<VARIANCE> 33
 1.346551e+03 8.428534e+01 1.000477e+02 1.106548e+02 1.011923e+03 2.112849e+01 1.534799e+03 1.154572e+03 2.227389e+03 2.523674e+02 1.245879e+02 1.792782e+02 2.754215e+02 2.555790e+02 4.118174e+01 4.950102e+02 4.972898e+02 2.273638e+02 1.889556e+03 8.296249e+02 3.200758e+01 4.171863e+02 1.409077e+03 9.793307e+02 1.268588e+03 1.673313e+03 1.261603e+03 2.423916e+00 9.814525e-01 4.013262e-01 3.220503e-01 1.031193e+00 1.814933e+00
<GCONST> 2.209908e+02
<MIXTURE> 3 2.035941e-01
<MEAN> 33
 1.117052e+02 1.366707e+02 1.157922e+02 1.394542e+02 1.226881e+02 1.752680e+02 9.914174e+01 1.039912e+02 1.137250e+02 1.154750e+02 1.644733e+02 3.967643e+00 1.616163e+02 1.196254e+02 1.598869e+02 9.437992e+01 9.671925e+01 1.285484e+01 9.492132e+01 1.359168e+02 1.700565e+02 1.504595e+02 9.305250e+01 1.467162e+02 4.072684e+01 5.711126e+01 5.456431e+01 5.539968e+00 2.865793e+00 3.083612e+00 3.015696e+00 2.989070e+00 5.336080e+00
<VARIANCE> 33
 1.346551e+03 8.428534e+01 1.000477e+02 1.106548e+02 1.011923e+03 2.112849e+01 1.534799e+03 1.154572e+03 2.227389e+03 2.523674e+02 1.245879e+02 1.792782e+02 2.754215e+02 2.555790e+02 4.118174e+01 4.950102e+02 4.972898e+02 2.273638e+02 1.889556e+03 8.296249e+02 3.200758e+01 4.171863e+02 1.409077e+03 9.793307e+02 1.268588e+03 1.673313e+03 1.261603e+03 2.423916e+00 9.814525e-01 4.013262e-01 3.220503e-01 1.031193e+00 1.814933e+00
<GCONST> 2.209908e+02
<MIXTURE> 4 3.331848e-01
<MEAN> 33
 7.373242e+01 1.333140e+02 1.106798e+02 1.386555e+02 7.033977e+01 1.739312e+02 3.593665e+01 3.552168e+01 5.093952e+01 1.053292e+02 1.515240e+02 2.283611e+00 1.540177e+02 1.063339e+02 1.626633e+02 6.829978e+01 6.929047e+01 7.265173e+00 1.135361e+02 1.096512e+02 1.689600e+02 1.264311e+02 9.892657e+01 1.285609e+02 6.184734e+01 5.674394e+01 2.199249e+01 4.021366e+00 3.028961e+00 3.732346e+00 3.531775e+00 3.498208e+00 4.030030e+00
<VARIANCE> 33
 4.935018e+02 9.682915e+01 7.105385e+01 9.675241e+01 5.668931e+02 3.612523e+01 5.227064e+02 6.005289e+02 1.380356e+03 4.307865e+02 3.161259e+02 1.207327e+01 3.218671e+02 4.147658e+02 3.969060e+01 1.560932e+02 1.646334e+02 4.680574e+01 7.644550e+02 5.790193e+02 1.237066e+02 5.556979e+02 5.853246e+02 2.036117e+03 2.331578e+03 2.343262e+03 3.064784e+02 5.679592e-01 9.877979e-01 4.198362e-01 2.796347e-01 1.064128e+00 5.488688e-01
<GCONST> 2.099804e+02
<STATE> 3
<NUMMIXES> 4
<MIXTURE> 1 2.079721e-01
<MEAN> 33
 1.519026e+02 1.576079e+02 1.104076e+02 1.604911e+02 1.547036e+02 1.751105e+02 9.313589e+01 9.208331e+01 1.637428e+02 1.211131e+02 1.689360e+02 2.297368e+00 1.609429e+02 1.095834e+02 1.646343e+02 1.010317e+02 9.131886e+01 5.143485e+01 1.263651e+02 1.601293e+02 1.642617e+02 1.529511e+02 1.206640e+02 1.359055e+02 7.740598e+01 9.748055e+01 1.529014e+02 6.439475e+00 3.527203e+00 1.820443e+00 1.667833e+00 3.973336e+00 6.327609e+00
<VARIANCE> 33
 3.309423e+02 1.008635e+02 8.408903e+01 8.570248e+01 2.478453e+02 1.582859e+01 1.388999e+02 1.255780e+02 1.284458e+02 7.795663e+02 9.743597e+01 4.974430e+00 2.409884e+02 1.045495e+03 5.575873e+01 1.564138e+03 2.362479e+03 1.675344e+03 6.224669e+02 1.367470e+02 8.550735e+01 1.832444e+02 4.692497e+02 1.808174e+03 1.210067e+03 1.193813e+03 4.196186e+02 2.388674e+00 2.557150e+00 1.298004e-01 1.323599e-01 3.591121e+00 2.800260e+00
<GCONST> 2.096308e+02
<MIXTURE> 2 2.790045e-01
<MEAN> 33
 1.369637e+02 1.394820e+02 1.159002e+02 1.397963e+02 1.486201e+02 1.756246e+02 9.108060e+01 9.456817e+01 1.662109e+02 1.024110e+02 1.724897e+02 3.148851e+00 1.722796e+02 1.062128e+02 1.601065e+02 9.067516e+01 9.533221e+01 1.011228e+01 9.918757e+01 1.499064e+02 1.695334e+02 1.545762e+02 9.858033e+01 1.431241e+02 4.931906e+01 8.061823e+01 1.167722e+02 8.116473e+00 2.195037e+00 2.398261e+00 2.289527e+00 2.379362e+00 7.911622e+00
<VARIANCE> 33
 4.705663e+02 5.422182e+01 1.232378e+02 6.750026e+01 3.978232e+02 1.469188e+01 8.056797e+01 7.503976e+01 9.987416e+01 1.633555e+02 3.891567e+01 1.259487e+01 3.791335e+01 1.944861e+02 3.961124e+01 1.786117e+02 2.382148e+02 6.683385e+01 1.065463e+03 4.812427e+02 4.023272e+01 2.892780e+02 7.574089e+02 9.408488e+02 1.397212e+03 1.247956e+03 3.700767e+02 7.860665e-01 5.533062e-01 7.671327e-02 7.715183e-02 5.888895e-01 6.407602e-01
<GCONST> 1.898782e+02
<MIXTURE> 3 2.790045e-01
<MEAN> 33
 1.369637e+02 1.394820e+02 1.159002e+02 1.397963e+02 1.486201e+02 1.756246e+02 9.108060e+01 9.456817e+01 1.662109e+02 1.024110e+02 1.724897e+02 3.148851e+00 1.722796e+02 1.062128e+02 1.601065e+02 9.067516e+01 9.533221e+01 1.011228e+01 9.918757e+01 1.499064e+02 1.695334e+02 1.545762e+02 9.858033e+01 1.431241e+02 4.931906e+01 8.061823e+01 1.167722e+02 8.116473e+00 2.195037e+00 2.398261e+00 2.289527e+00 2.379362e+00 7.911622e+00
<VARIANCE> 33
 4.705663e+02 5.422182e+01 1.232378e+02 6.750026e+01 3.978232e+02 1.469188e+01 8.056797e+01 7.503976e+01 9.987416e+01 1.633555e+02 3.891567e+01 1.259487e+01 3.791335e+01 1.944861e+02 3.961124e+01 1.786117e+02 2.382148e+02 6.683385e+01 1.065463e+03 4.812427e+02 4.023272e+01 2.892780e+02 7.574089e+02 9.408488e+02 1.397212e+03 1.247956e+03 3.700767e+02 7.860665e-01 5.533062e-01 7.671327e-02 7.715183e-02 5.888895e-01 6.407602e-01
<GCONST> 1.898782e+02
<MIXTURE> 4 2.340185e-01
<MEAN> 33
 1.048172e+02 1.543441e+02 1.072568e+02 1.617362e+02 1.134050e+02 1.671802e+02 7.116706e+01 7.080946e+01 1.417212e+02 6.596434e+01 1.692802e+02 2.652607e+00 1.677905e+02 5.941168e+01 1.628175e+02 3.798223e+01 3.139463e+01 1.577719e+01 1.317059e+02 1.608544e+02 1.666756e+02 1.620554e+02 1.254582e+02 1.330945e+02 7.962835e+01 7.841921e+01 1.497627e+02 6.283188e+00 2.956920e+00 1.928808e+00 1.692060e+00 3.339366e+00 6.961771e+00
<VARIANCE> 33
 3.893441e+02 1.181595e+02 2.818115e+01 1.134272e+02 3.981938e+02 9.862288e+01 5.701725e+01 8.646518e+01 2.398233e+02 7.377286e+02 7.618340e+01 4.443679e+00 1.150767e+02 5.582398e+02 3.628216e+01 4.548883e+02 4.828668e+02 1.474180e+02 6.266523e+02 1.377962e+02 4.964042e+01 2.310071e+02 4.115985e+02 1.197951e+03 1.548880e+03 1.399885e+03 6.140153e+02 2.078317e+00 2.993180e+00 2.707863e-01 1.735310e-01 3.239444e+00 1.602224e+00
<GCONST> 2.036486e+02
<STATE> 4
<NUMMIXES> 4
<MIXTURE> 1 4.267586e-01
<MEAN> 33
 1.742229e+02 1.365725e+02 1.090850e+02 1.382716e+02 1.739434e+02 1.768328e+02 1.358655e+02 1.354123e+02 8.872221e+01 1.621620e+02 1.748871e+02 9.301282e-01 1.748729e+02 1.652976e+02 1.615153e+02 1.652874e+02 1.683280e+02 8.604418e+00 1.083360e+02 1.605742e+02 1.683809e+02 1.660284e+02 1.148486e+02 1.589738e+02 8.345416e+01 7.776550e+01 1.556247e+02 5.510702e+00 2.355731e+00 2.975739e+00 2.699638e+00 2.172742e+00 5.141287e+00
<VARIANCE> 33
 3.902650e+01 2.113022e+01 3.832539e+01 1.833918e+01 3.037716e+01 5.430758e+00 2.822034e+01 2.062020e+01 4.043679e+01 5.479116e+01 1.550050e+01 5.357184e-01 1.032350e+01 5.349525e+01 3.105953e+01 7.301880e+01 6.518077e+01 3.298280e+01 7.806573e+02 1.105628e+02 1.831368e+01 9.047369e+01 6.838499e+02 1.660506e+02 6.377610e+02 6.755411e+02 2.313744e+02 2.178232e+00 2.570753e-01 2.702813e-01 1.687108e-01 1.605565e-01 2.159124e+00
<GCONST> 1.610347e+02
<MIXTURE> 2 1.998688e-01
<MEAN> 33
 1.670729e+02 1.412491e+02 1.123333e+02 1.431772e+02 1.662301e+02 1.759648e+02 1.259715e+02 1.249281e+02 1.091004e+02 1.391858e+02 1.712206e+02 1.526980e+00 1.689301e+02 1.415228e+02 1.623059e+02 1.364841e+02 1.365409e+02 1.092945e+01 9.204510e+01 1.596109e+02 1.654885e+02 1.628869e+02 9.636526e+01 1.554392e+02 5.694770e+01 6.025388e+01 1.145232e+02 6.728761e+00 2.586754e+00 2.565279e+00 2.516129e+00 2.555539e+00 6.942125e+00
<VARIANCE> 33
 6.922891e+01 5.772597e+01 5.726200e+01 8.016628e+01 7.583414e+01 9.562539e+00 1.833785e+02 1.472875e+02 5.777517e+02 2.128342e+02 4.295535e+01 1.732866e+00 5.800983e+01 2.008783e+02 4.303377e+01 2.272798e+02 2.234655e+02 7.572746e+01 6.178306e+02 1.665696e+02 5.922174e+01 1.350365e+02 5.236730e+02 2.966249e+02 7.221641e+02 6.261703e+02 5.030849e+02 1.589288e+00 4.350215e-01 1.268137e-01 1.599996e-01 3.359133e-01 1.361001e+00
<GCONST> 1.851577e+02
<MIXTURE> 3 2.255219e-01
<MEAN> 33
 1.708102e+02 1.393457e+02 1.122449e+02 1.419201e+02 1.687350e+02 1.745284e+02 1.343495e+02 1.325334e+02 9.311710e+01 1.586746e+02 1.720161e+02 2.704854e+00 1.696851e+02 1.623304e+02 1.620979e+02 1.632639e+02 1.597824e+02 1.486482e+01 1.100287e+02 1.455345e+02 1.670579e+02 1.501402e+02 1.241142e+02 1.428005e+02 8.557989e+01 1.037389e+02 1.470229e+02 4.617902e+00 3.664356e+00 2.625295e+00 2.498456e+00 3.099275e+00 4.787646e+00
<VARIANCE> 33
 7.617817e+01 6.406042e+01 9.305853e+01 9.700809e+01 7.655481e+01 2.090702e+01 6.011084e+01 6.960419e+01 2.035690e+02 1.831886e+02 4.327333e+01 7.869004e+00 6.152457e+01 1.663524e+02 4.322022e+01 1.569757e+02 1.884323e+02 1.704453e+02 1.833295e+03 3.081082e+02 4.821846e+01 2.882074e+02 1.458575e+03 1.584772e+03 1.635474e+03 1.491279e+03 4.909549e+02 3.108038e+00 3.075947e+00 3.607642e-01 2.610027e-01 1.289281e+00 3.023741e+00
<GCONST> 1.983541e+02
<MIXTURE> 4 1.478496e-01
<MEAN> 33
 1.251447e+02 1.365036e+02 1.155560e+02 1.417313e+02 1.041887e+02 1.709875e+02 1.068750e+02 8.680796e+01 1.051038e+02 1.178774e+02 1.674822e+02 4.480574e+00 1.624101e+02 9.891501e+01 1.600554e+02 1.032147e+02 7.676598e+01 3.494888e+01 9.892554e+01 1.296544e+02 1.687720e+02 1.450515e+02 9.254653e+01 1.316980e+02 5.529122e+01 7.613844e+01 8.265565e+01 5.562791e+00 2.952790e+00 2.959491e+00 2.861787e+00 3.705585e+00 5.756480e+00
<VARIANCE> 33
 1.718510e+03 1.201306e+02 1.554259e+02 2.232316e+02 2.664850e+03 5.269086e+01 2.045228e+03 2.694687e+03 2.929965e+03 1.419033e+03 7.369578e+01 1.982220e+01 1.570435e+02 1.405909e+03 7.157269e+01 1.936116e+03 1.604774e+03 2.206142e+03 1.628571e+03 1.020458e+03 6.246245e+01 5.854071e+02 1.119464e+03 1.546472e+03 2.042173e+03 1.992418e+03 2.696030e+03 2.023308e+00 1.048930e+00 7.197962e-01 7.196445e-01 1.385127e+00 2.323314e+00
<GCONST> 2.360444e+02
<TRANSP> 5
 0.000000e+00 1.000000e+00 0.000000e+00 0.000000e+00 0.000000e+00
 0.000000e+00 9.285088e-01 7.149122e-02 0.000000e+00 0.000000e+00
 0.000000e+00 0.000000e+00 9.350250e-01 6.497495e-02 0.000000e+00
 0.000000e+00 0.000000e+00 0.000000e+00 9.311138e-01 6.888622e-02
 0.000000e+00 0.000000e+00 0.000000e+00 0.000000e+00 0.000000e+00
<ENDHMM>
~h "CF"
<BEGINHMM>
<NUMSTATES> 5
<STATE> 2
<NUMMIXES> 4
<MIXTURE> 1 4.039596e-01
<MEAN> 33
 1.724979e+02 1.358950e+02 1.096185e+02 1.367115e+02 1.746966e+02 1.764592e+02 1.351604e+02 1.347783e+02 9.006128e+01 1.555661e+02 1.754677e+02 1.408183e+00 1.744142e+02 1.611775e+02 1.610112e+02 1.610836e+02 1.652436e+02 1.369612e+01 9.180919e+01 1.536231e+02 1.695217e+02 1.644425e+02 1.077506e+02 1.584689e+02 7.013519e+01 8.481086e+01 1.502596e+02 5.430129e+00 2.571231e+00 2.794405e+00 2.685577e+00 2.200375e+00 5.141937e+00
<VARIANCE> 33
 3.902650e+01 2.338856e+01 4.773814e+01 2.818214e+01 3.037716e+01 1.015622e+01 2.822034e+01 2.062020e+01 3.292463e+01 9.528315e+01 2.286405e+01 3.465536e+00 1.339948e+01 6.538823e+01 3.741529e+01 1.669688e+02 1.008944e+02 1.732636e+02 8.690823e+02 3.507971e+02 2.866507e+01 1.411260e+02 5.794182e+02 2.261664e+02 9.560031e+02 1.126583e+03 3.639366e+02 4.703449e+00 7.461616e-01 3.495650e-01 2.430291e-01 4.759825e-01 3.413867e+00
<GCONST> 1.762550e+02
<MIXTURE> 2 1.371709e-01
<MEAN> 33
 6.114584e+01 1.509877e+02 1.108933e+02 1.357015e+02 1.749131e+02 1.761894e+02 4.325267e+01 1.349501e+02 1.371045e+02 1.020679e+02 1.463672e+02 1.191383e+00 1.756984e+02 1.642253e+02 1.592333e+02 6.516930e+01 1.656303e+02 1.091408e+02 7.699648e+01 1.407676e+02 1.687934e+02 1.604427e+02 1.138633e+02 1.604517e+02 2.622972e+01 8.039001e+01 9.872833e+01 7.607323e+00 3.758903e+00 3.450546e+00 2.686121e+00 2.126868e+00 3.381837e+00
<VARIANCE> 33
 2.076820e+03 2.077350e+02 4.541377e+01 1.531556e+01 3.037716e+01 8.529821e+00 2.198323e+03 2.062020e+01 5.571228e+02 3.929292e+02 7.366641e+02 1.430592e+00 7.982061e+00 6.928172e+01 3.145460e+01 7.742433e+02 9.722660e+01 1.210164e+03 6.261078e+02 4.999433e+02 1.868578e+01 1.516486e+02 9.023226e+02 1.885200e+02 2.788149e+02 9.791589e+02 4.418933e+02 1.914780e+00 9.711766e-01 3.041283e-01 1.564275e-01 1.456642e-01 7.177332e-01
<GCONST> 1.903691e+02
<MIXTURE> 3 1.371709e-01
<MEAN> 33
 6.114584e+01 1.509877e+02 1.108933e+02 1.357015e+02 1.749131e+02 1.761894e+02 4.325267e+01 1.349501e+02 1.371045e+02 1.020679e+02 1.463672e+02 1.191383e+00 1.756984e+02 1.642253e+02 1.592333e+02 6.516930e+01 1.656303e+02 1.091408e+02 7.699648e+01 1.407676e+02 1.687934e+02 1.604427e+02 1.138633e+02 1.604517e+02 2.622972e+01 8.039001e+01 9.872833e+01 7.607323e+00 3.758903e+00 3.450546e+00 2.686121e+00 2.126868e+00 3.381837e+00
<VARIANCE> 33
 2.076820e+03 2.077350e+02 4.541377e+01 1.531556e+01 3.037716e+01 8.529821e+00 2.198323e+03 2.062020e+01 5.571228e+02 3.929292e+02 7.366641e+02 1.430592e+00 7.982061e+00 6.928172e+01 3.145460e+01 7.742433e+02 9.722660e+01 1.210164e+03 6.261078e+02 4.999433e+02 1.868578e+01 1.516486e+02 9.023226e+02 1.885200e+02 2.788149e+02 9.791589e+02 4.418933e+02 1.914780e+00 9.711766e-01 3.041283e-01 1.564275e-01 1.456642e-01 7.177332e-01
<GCONST> 1.903691e+02
<MIXTURE> 4 3.216990e-01
<MEAN> 33
 9.391576e+01 1.389320e+02 1.182392e+02 1.418479e+02 9.362143e+01 1.739788e+02 7.700644e+01 7.218324e+01 1.052581e+02 1.037557e+02 1.578426e+02 7.322030e+00 1.424059e+02 1.139707e+02 1.595999e+02 8.936826e+01 8.482435e+01 7.379131e+01 7.868008e+01 1.263480e+02 1.684500e+02 1.347121e+02 8.197511e+01 1.080152e+02 7.485792e+01 8.182538e+01 9.019707e+01 4.105499e+00 3.328542e+00 3.109875e+00 3.025525e+00 3.906560e+00 5.177907e+00
<VARIANCE> 33
 3.896976e+03 5.497029e+02 2.016330e+02 2.834474e+02 3.541078e+03 1.756766e+01 2.861372e+03 2.701260e+03 2.507740e+03 1.923289e+03 4.660999e+02 2.189803e+02 9.054583e+02 1.224961e+03 2.939954e+01 2.790004e+03 2.340556e+03 2.757346e+03 1.895274e+03 1.453306e+03 1.051957e+02 4.748759e+02 1.517894e+03 2.082085e+03 2.451618e+03 2.088690e+03 2.226808e+03 2.446702e+00 1.933869e+00 1.169894e+00 5.672921e-01 1.723257e+00 3.395687e+00
<GCONST> 2.475978e+02
<STATE> 3
<NUMMIXES> 4
<MIXTURE> 1 3.751139e-01
<MEAN> 33
 2.711034e+01 1.516104e+02 1.108937e+02 1.353628e+02 1.738811e+02 1.755573e+02 7.607311e+00 1.366044e+02 1.435239e+02 8.937569e+01 1.073914e+02 1.925453e+00 1.761079e+02 1.623127e+02 1.595950e+02 2.953653e+01 1.654565e+02 1.363621e+02 7.785761e+01 1.195313e+02 1.735351e+02 1.638552e+02 9.891983e+01 1.252866e+02 5.734695e+01 8.481892e+01 8.884850e+01 5.089113e+00 5.530615e+00 3.238289e+00 3.039078e+00 2.298399e+00 4.171344e+00
<VARIANCE> 33
 2.395084e+02 3.940399e+02 7.086166e+01 9.845335e+00 3.037716e+01 1.383995e+01 2.822034e+01 2.062020e+01 3.474762e+01 3.902770e+02 3.864082e+02 1.839114e+00 7.605002e+00 1.418005e+01 4.479712e+01 3.071743e+01 5.876743e+01 9.772742e+01 3.091775e+02 1.511529e+02 1.769291e+01 1.207592e+02 2.396007e+02 9.845273e+02 9.565449e+02 3.354599e+03 1.852583e+02 6.807592e-01 1.120563e+00 3.515714e-01 1.432821e-01 1.125335e-01 6.573937e-01
<GCONST> 1.728353e+02
<MIXTURE> 2 2.470260e-01
<MEAN> 33
 2.922336e+01 1.502649e+02 1.156569e+02 1.352748e+02 1.700501e+02 1.752230e+02 1.567648e+01 1.361824e+02 1.511926e+02 9.057413e+01 1.141287e+02 7.281216e+00 1.704401e+02 1.627508e+02 1.589738e+02 3.489400e+01 1.664122e+02 1.424087e+02 8.092717e+01 1.277280e+02 1.683196e+02 1.527983e+02 1.096930e+02 1.089260e+02 7.116124e+01 1.129825e+02 1.092326e+02 6.040934e+00 4.471922e+00 3.263570e+00 2.615708e+00 2.515607e+00 3.563666e+00
<VARIANCE> 33
 4.477917e+02 5.794006e+02 2.363919e+02 7.227344e+01 3.210268e+01 1.427014e+01 1.205494e+02 2.062020e+01 1.477793e+02 1.080886e+03 7.288111e+02 1.582171e+02 5.919379e+01 8.233114e+01 4.733369e+01 1.655678e+02 1.041330e+02 4.247974e+02 7.143925e+02 4.584735e+02 1.940917e+02 1.614252e+02 1.146579e+03 1.486703e+03 1.685030e+03 3.490361e+03 5.083520e+02 2.235667e+00 2.095141e+00 1.073877e+00 3.910664e-01 3.953553e-01 1.871560e+00
<GCONST> 2.081941e+02
<MIXTURE> 3 3.228653e-02
<MEAN> 33
 2.198548e+01 1.657022e+02 1.277970e+02 1.303460e+02 1.414188e+02 1.777994e+02 2.096755e+01 1.112573e+02 1.322249e+02 7.797084e+01 1.278282e+02 6.537698e+00 1.672134e+02 1.129933e+02 1.564007e+02 3.073772e+01 1.083680e+02 7.767083e+01 6.552579e+01 1.422467e+02 1.733004e+02 1.501218e+02 4.752186e+01 1.069900e+02 5.546257e+01 1.142680e+02 7.741433e+01 3.715253e+00 5.150443e+00 2.632396e+00 3.232974e+00 4.139794e+00 7.024407e+00
<VARIANCE> 33
 1.961939e+02 1.421277e+02 5.333767e+01 2.216183e+01 3.139786e+02 4.222784e+00 1.066379e+02 4.062311e+02 5.165652e+02 4.368045e+02 6.008104e+02 2.193686e+01 9.462623e+01 1.414694e+02 1.307549e+01 7.542686e+01 3.315513e+02 4.880749e+02 1.665390e+02 2.635980e+02 2.073830e+01 4.739266e+01 1.090890e+02 4.395933e+02 1.145490e+03 6.958809e+02 2.600935e+02 5.278039e-01 7.032179e-01 1.524310e-01 3.116422e-02 2.068334e-01 9.887081e-01
<GCONST> 1.856104e+02
<MIXTURE> 4 3.455724e-01
<MEAN> 33
 1.706938e+02 1.383725e+02 1.148037e+02 1.529835e+02 3.040737e+01 1.753832e+02 1.335398e+02 1.935708e+01 1.491262e+02 1.555565e+02 1.704181e+02 4.586393e+00 1.240630e+02 8.342288e+01 1.609505e+02 1.671067e+02 3.528957e+01 1.348491e+02 8.437686e+01 1.501475e+02 1.700935e+02 1.307793e+02 7.639664e+01 1.106467e+02 8.642390e+01 7.252721e+01 1.044645e+02 3.852762e+00 2.783043e+00 2.601943e+00 3.121462e+00 4.804865e+00 5.900848e+00
<VARIANCE> 33
 3.902650e+01 5.335223e+01 1.228256e+02 3.432780e+02 7.066774e+02 1.646163e+01 3.431303e+01 3.203506e+02 1.263054e+02 7.300707e+01 7.125965e+01 6.344967e+01 6.863057e+02 4.525477e+02 6.090789e+01 9.837358e+01 2.760974e+02 3.499335e+02 5.778242e+02 2.204260e+02 6.366875e+01 4.039457e+02 4.589577e+02 2.215961e+03 2.935696e+03 2.151227e+03 3.449641e+02 1.449371e+00 3.777248e-01 2.973701e-01 6.805905e-01 1.751952e+00 2.006344e+00
<GCONST> 2.042768e+02
<STATE> 4
<NUMMIXES> 4
<MIXTURE> 1 4.026253e-01
<MEAN> 33
 1.733545e+02 1.380122e+02 1.090898e+02 1.370207e+02 1.750578e+02 1.762756e+02 1.350824e+02 1.349736e+02 8.994406e+01 1.610154e+02 1.738705e+02 1.081376e+00 1.761900e+02 1.628016e+02 1.624196e+02 1.654913e+02 1.682293e+02 1.385713e+01 1.067770e+02 1.554009e+02 1.693157e+02 1.630098e+02 1.049632e+02 1.558899e+02 8.596009e+01 7.776245e+01 1.597202e+02 5.314402e+00 2.681914e+00 2.823254e+00 2.782203e+00 2.272240e+00 5.290987e+00
<VARIANCE> 33
 3.902650e+01 2.705297e+01 4.398962e+01 1.773706e+01 3.037716e+01 8.735533e+00 2.822034e+01 2.062020e+01 2.320159e+01 7.162528e+01 2.376265e+01 6.846575e-01 7.240214e+00 2.792672e+01 3.602723e+01 8.216045e+01 5.678725e+01 1.104660e+02 8.863541e+02 2.057628e+02 2.230169e+01 1.016059e+02 4.520046e+02 2.605979e+02 9.172129e+02 8.593250e+02 2.075703e+02 3.057551e+00 7.341755e-01 3.201346e-01 3.874806e-01 2.390987e-01 2.190323e+00
<GCONST> 1.669740e+02
<MIXTURE> 2 1.815693e-01
<MEAN> 33
 1.705377e+02 1.410235e+02 1.128802e+02 1.366960e+02 1.710312e+02 1.747580e+02 1.333199e+02 1.359498e+02 9.073027e+01 1.556811e+02 1.668886e+02 2.855546e+00 1.706199e+02 1.621014e+02 1.624927e+02 1.607965e+02 1.641205e+02 2.169250e+01 1.012006e+02 1.410600e+02 1.695106e+02 1.483082e+02 1.150794e+02 1.313792e+02 7.160273e+01 1.098821e+02 1.515352e+02 4.981190e+00 3.961812e+00 2.656752e+00 2.631617e+00 3.224156e+00 4.456004e+00
<VARIANCE> 33
 6.895437e+01 6.937885e+01 1.120333e+02 6.175400e+01 4.064319e+01 1.354556e+01 3.792054e+01 2.062020e+01 5.994783e+01 1.738970e+02 8.504430e+01 1.036463e+01 6.726988e+01 1.148441e+02 2.523800e+01 2.541111e+02 1.296338e+02 2.415545e+02 1.703376e+03 3.503018e+02 3.901846e+01 2.917896e+02 1.467565e+03 1.780113e+03 1.809058e+03 1.993150e+03 4.387714e+02 4.274863e+00 3.262321e+00 3.880240e-01 2.879958e-01 1.923632e+00 3.054441e+00
<GCONST> 1.958529e+02
<MIXTURE> 3 1.815693e-01
<MEAN> 33
 1.705377e+02 1.410235e+02 1.128802e+02 1.366960e+02 1.710312e+02 1.747580e+02 1.333199e+02 1.359498e+02 9.073027e+01 1.556811e+02 1.668886e+02 2.855546e+00 1.706199e+02 1.621014e+02 1.624927e+02 1.607965e+02 1.641205e+02 2.169250e+01 1.012006e+02 1.410600e+02 1.695106e+02 1.483082e+02 1.150794e+02 1.313792e+02 7.160273e+01 1.098821e+02 1.515352e+02 4.981190e+00 3.961812e+00 2.656752e+00 2.631617e+00 3.224156e+00 4.456004e+00
<VARIANCE> 33
 6.895437e+01 6.937885e+01 1.120333e+02 6.175400e+01 4.064319e+01 1.354556e+01 3.792054e+01 2.062020e+01 5.994783e+01 1.738970e+02 8.504430e+01 1.036463e+01 6.726988e+01 1.148441e+02 2.523800e+01 2.541111e+02 1.296338e+02 2.415545e+02 1.703376e+03 3.503018e+02 3.901846e+01 2.917896e+02 1.467565e+03 1.780113e+03 1.809058e+03 1.993150e+03 4.387714e+02 4.274863e+00 3.262321e+00 3.880240e-01 2.879958e-01 1.923632e+00 3.054441e+00
<GCONST> 1.958529e+02
<MIXTURE> 4 2.342352e-01
<MEAN> 33
 1.301511e+02 1.477452e+02 1.162997e+02 1.367320e+02 1.594111e+02 1.749891e+02 1.102132e+02 1.302938e+02 1.154539e+02 1.400799e+02 1.580405e+02 3.105607e+00 1.716341e+02 1.509958e+02 1.605793e+02 1.161800e+02 1.474655e+02 6.442693e+01 9.268690e+01 1.422575e+02 1.714071e+02 1.549693e+02 9.447945e+01 1.364669e+02 4.784038e+01 8.745125e+01 1.099384e+02 6.971182e+00 3.278913e+00 2.903012e+00 2.689597e+00 2.732913e+00 4.882921e+00
<VARIANCE> 33
 1.597516e+03 2.297727e+02 1.063805e+02 8.502621e+01 5.917423e+02 1.380960e+01 1.188808e+03 3.467628e+02 1.137853e+03 5.889163e+02 3.034122e+02 1.549552e+01 8.468254e+01 3.823251e+02 3.710344e+01 1.264159e+03 8.577321e+02 8.839886e+02 1.353314e+03 5.274548e+02 2.677385e+01 2.700558e+02 8.761189e+02 1.052997e+03 1.263704e+03 2.371559e+03 1.013404e+03 5.449918e+00 1.247351e+00 3.328914e-01 2.263172e-01 1.223505e+00 4.884716e+00
<GCONST> 2.201138e+02
<TRANSP> 5
 0.000000e+00 1.000000e+00 0.000000e+00 0.000000e+00 0.000000e+00
 0.000000e+00 8.756193e-01 1.243807e-01 0.000000e+00 0.000000e+00
 0.000000e+00 0.000000e+00 9.601532e-01 3.984676e-02 0.000000e+00
 0.000000e+00 0.000000e+00 0.000000e+00 9.385975e-01 6.140253e-02
 0.000000e+00 0.000000e+00 0.000000e+00 0.000000e+00 0.000000e+00
<ENDHMM>
~h "CN"
<BEGINHMM>
<NUMSTATES> 5
<STATE> 2
<NUMMIXES> 4
<MIXTURE> 1 3.810840e-01
<MEAN> 33
 1.731153e+02 1.376597e+02 1.068782e+02 1.393045e+02 1.744380e+02 1.760802e+02 1.350464e+02 1.342877e+02 9.066590e+01 1.557721e+02 1.759754e+02 1.472575e+00 1.748994e+02 1.596209e+02 1.627526e+02 1.630630e+02 1.665176e+02 9.804229e+00 9.364236e+01 1.534148e+02 1.702476e+02 1.617779e+02 1.033610e+02 1.550583e+02 7.300623e+01 8.557976e+01 1.530113e+02 4.778591e+00 2.746328e+00 2.589938e+00 2.450267e+00 2.362807e+00 4.710308e+00
<VARIANCE> 33
 3.902650e+01 2.376983e+01 6.711356e+01 3.311138e+01 3.037716e+01 1.186034e+01 2.822034e+01 2.062020e+01 2.870739e+01 7.449083e+01 2.154599e+01 3.118081e+00 1.602857e+01 7.641367e+01 4.503113e+01 1.040824e+02 9.938976e+01 8.154217e+01 7.511318e+02 2.194122e+02 2.476624e+01 1.454236e+02 6.137200e+02 3.820874e+02 1.486508e+03 1.486789e+03 3.234720e+02 4.418844e+00 1.130930e+00 3.275526e-01 3.481047e-01 6.797295e-01 3.446845e+00
<GCONST> 1.771240e+02
<MIXTURE> 2 1.757325e-01
<MEAN> 33
 1.012401e+02 1.398102e+02 1.076608e+02 1.437874e+02 9.380196e+01 1.734577e+02 8.969894e+01 7.300473e+01 1.018155e+02 1.051273e+02 1.684435e+02 1.532948e+00 1.700091e+02 1.022623e+02 1.640518e+02 9.335619e+01 9.185587e+01 1.750566e+01 6.996293e+01 1.453684e+02 1.706331e+02 1.600312e+02 5.973655e+01 1.498179e+02 5.139471e+01 4.152615e+01 4.520510e+01 4.399578e+00 3.136748e+00 3.092315e+00 2.992875e+00 3.763180e+00 4.397150e+00
<VARIANCE> 33
 1.229269e+03 4.706823e+01 7.774212e+01 8.054912e+01 1.819057e+03 2.650255e+01 2.320999e+03 2.321653e+03 2.494210e+03 4.157461e+02 9.839436e+01 2.705605e+00 6.283744e+01 5.365433e+02 3.606710e+01 6.083475e+02 7.994805e+02 5.939874e+02 8.396863e+02 5.525830e+02 2.956367e+01 2.272410e+02 4.525728e+02 8.689458e+02 1.665304e+03 1.155526e+03 1.365016e+03 2.117523e+00 6.688083e-01 2.636124e-01 2.979144e-01 1.704723e+00 2.113225e+00
<GCONST> 2.150866e+02
<MIXTURE> 3 1.757325e-01
<MEAN> 33
 1.012401e+02 1.398102e+02 1.076608e+02 1.437874e+02 9.380196e+01 1.734577e+02 8.969894e+01 7.300473e+01 1.018155e+02 1.051273e+02 1.684435e+02 1.532948e+00 1.700091e+02 1.022623e+02 1.640518e+02 9.335619e+01 9.185587e+01 1.750566e+01 6.996293e+01 1.453684e+02 1.706331e+02 1.600312e+02 5.973655e+01 1.498179e+02 5.139471e+01 4.152615e+01 4.520510e+01 4.399578e+00 3.136748e+00 3.092315e+00 2.992875e+00 3.763180e+00 4.397150e+00
<VARIANCE> 33
 1.229269e+03 4.706823e+01 7.774212e+01 8.054912e+01 1.819057e+03 2.650255e+01 2.320999e+03 2.321653e+03 2.494210e+03 4.157461e+02 9.839436e+01 2.705605e+00 6.283744e+01 5.365433e+02 3.606710e+01 6.083475e+02 7.994805e+02 5.939874e+02 8.396863e+02 5.525830e+02 2.956367e+01 2.272410e+02 4.525728e+02 8.689458e+02 1.665304e+03 1.155526e+03 1.365016e+03 2.117523e+00 6.688083e-01 2.636124e-01 2.979144e-01 1.704723e+00 2.113225e+00
<GCONST> 2.150866e+02
<MIXTURE> 4 2.674507e-01
<MEAN> 33
 5.900896e+01 1.229776e+02 1.201026e+02 1.272489e+02 6.822153e+01 1.665717e+02 1.986763e+01 3.084117e+01 4.607444e+01 8.273961e+01 1.369017e+02 1.104488e+01 1.426268e+02 1.067586e+02 1.685640e+02 4.445155e+01 5.188520e+01 1.255977e+01 1.072026e+02 9.730118e+01 1.640970e+02 1.124371e+02 9.147597e+01 9.623313e+01 1.072544e+02 1.068546e+02 4.314647e+01 3.935707e+00 3.268530e+00 3.452260e+00 3.374324e+00 3.475984e+00 3.602093e+00
<VARIANCE> 33
 7.464091e+02 3.851769e+02 2.062249e+02 5.249839e+02 9.146641e+02 6.403349e+01 2.233285e+02 6.762908e+02 8.162937e+02 8.954102e+02 3.342983e+02 5.011402e+02 4.214821e+02 1.463583e+03 7.678493e+01 1.623357e+02 3.456326e+02 2.492322e+02 6.435508e+02 4.715390e+02 2.118477e+02 3.784383e+02 3.263651e+02 3.122670e+03 2.111467e+03 2.464106e+03 7.437551e+02 8.152120e-01 2.064287e+00 7.441221e-01 4.555327e-01 1.139063e+00 9.500703e-01
<GCONST> 2.267158e+02
<STATE> 3
<NUMMIXES> 4
<MIXTURE> 1 2.824932e-01
<MEAN> 33
 6.388689e+01 1.320072e+02 1.111795e+02 1.393006e+02 4.944044e+01 1.740279e+02 2.708871e+01 1.829619e+01 3.071690e+01 8.587331e+01 1.548571e+02 2.320414e+00 1.566704e+02 8.434843e+01 1.626832e+02 5.859230e+01 5.606035e+01 8.241217e+00 1.092223e+02 1.057876e+02 1.722025e+02 1.283046e+02 9.389309e+01 1.101985e+02 7.286188e+01 7.689220e+01 2.104563e+01 3.773277e+00 2.936564e+00 3.627728e+00 3.359241e+00 3.205023e+00 3.790816e+00
<VARIANCE> 33
 2.379592e+02 1.030932e+02 1.445552e+02 1.058079e+02 3.777573e+02 2.472416e+01 3.403985e+02 2.854403e+02 5.526213e+02 5.063976e+02 7.654678e+01 7.190441e+00 9.694522e+01 3.746622e+02 6.239848e+01 2.293230e+02 1.436371e+02 7.217590e+01 4.672922e+02 4.305426e+02 3.603896e+01 4.187254e+02 5.365684e+02 2.742595e+03 2.169432e+03 2.269913e+03 3.956689e+02 5.281917e-01 1.250348e+00 5.120722e-01 5.569037e-01 1.609771e+00 5.335374e-01
<GCONST> 2.047913e+02
<MIXTURE> 2 2.719283e-01
<MEAN> 33
 4.824297e+01 1.347376e+02 1.149352e+02 1.367973e+02 4.488680e+01 1.755027e+02 6.746845e+00 5.166527e+00 6.822249e+00 7.432342e+01 1.573362e+02 1.518089e+00 1.582605e+02 7.581345e+01 1.593271e+02 5.054873e+01 5.013482e+01 2.472213e+00 9.801978e+01 1.203601e+02 1.737107e+02 1.318436e+02 8.820859e+01 1.354452e+02 4.493076e+01 4.500304e+01 5.570465e+00 3.492775e+00 3.496518e+00 3.971027e+00 3.827183e+00 3.682764e+00 3.455564e+00
<VARIANCE> 33
 6.328642e+01 4.465503e+01 6.193620e+01 4.917295e+01 6.532122e+01 1.654229e+01 2.822034e+01 2.062020e+01 2.937228e+01 7.699130e+01 6.392406e+01 3.311770e+00 7.923828e+01 7.973680e+01 5.102852e+01 3.408754e+01 3.008370e+01 3.148238e+01 4.229900e+02 4.466800e+02 2.088276e+01 4.137454e+02 3.744492e+02 1.019141e+03 9.953781e+02 1.014524e+03 2.139633e+01 9.908023e-02 5.469868e-01 2.646060e-01 1.593935e-01 7.602303e-01 1.216749e-01
<GCONST> 1.686069e+02
<MIXTURE> 3 2.719283e-01
<MEAN> 33
 4.824297e+01 1.347376e+02 1.149352e+02 1.367973e+02 4.488680e+01 1.755027e+02 6.746845e+00 5.166527e+00 6.822249e+00 7.432342e+01 1.573362e+02 1.518089e+00 1.582605e+02 7.581345e+01 1.593271e+02 5.054873e+01 5.013482e+01 2.472213e+00 9.801978e+01 1.203601e+02 1.737107e+02 1.318436e+02 8.820859e+01 1.354452e+02 4.493076e+01 4.500304e+01 5.570465e+00 3.492775e+00 3.496518e+00 3.971027e+00 3.827183e+00 3.682764e+00 3.455564e+00
<VARIANCE> 33
 6.328642e+01 4.465503e+01 6.193620e+01 4.917295e+01 6.532122e+01 1.654229e+01 2.822034e+01 2.062020e+01 2.937228e+01 7.699130e+01 6.392406e+01 3.311770e+00 7.923828e+01 7.973680e+01 5.102852e+01 3.408754e+01 3.008370e+01 3.148238e+01 4.229900e+02 4.466800e+02 2.088276e+01 4.137454e+02 3.744492e+02 1.019141e+03 9.953781e+02 1.014524e+03 2.139633e+01 9.908023e-02 5.469868e-01 2.646060e-01 1.593935e-01 7.602303e-01 1.216749e-01
<GCONST> 1.686069e+02
<MIXTURE> 4 1.736502e-01
<MEAN> 33
 3.813117e+01 1.396542e+02 1.005574e+02 1.404676e+02 2.709379e+01 1.736779e+02 9.723387e+00 7.212542e+00 7.492030e+00 5.924654e+01 1.671635e+02 1.152313e+00 1.699317e+02 5.868742e+01 1.675240e+02 4.236816e+01 4.133688e+01 4.078444e+00 1.069724e+02 1.187038e+02 1.652876e+02 1.323161e+02 9.946111e+01 4.131914e+01 1.316518e+02 1.291340e+02 8.860982e+00 3.409659e+00 3.306228e+00 3.501409e+00 3.470997e+00 3.309455e+00 3.248531e+00
<VARIANCE> 33
 1.151201e+02 9.324966e+01 5.412062e+01 6.582426e+01 9.568616e+01 1.543794e+01 4.062341e+01 2.463680e+01 2.477273e+01 5.049390e+01 7.280121e+01 1.277110e+00 3.908410e+01 5.233060e+01 3.661359e+01 4.109579e+01 2.601832e+01 3.148238e+01 3.499715e+02 4.626933e+02 1.189507e+02 2.294991e+02 2.331456e+02 8.672006e+02 9.448503e+02 8.524507e+02 4.464865e+01 1.068979e-01 3.853661e-01 1.933124e-01 1.416288e-01 3.921206e-01 9.072176e-02
<GCONST> 1.673285e+02
<STATE> 4
<NUMMIXES> 4
<MIXTURE> 1 4.651668e-01
<MEAN> 33
 1.726804e+02 1.370293e+02 1.128794e+02 1.374912e+02 1.727071e+02 1.756684e+02 1.347061e+02 1.342354e+02 9.105848e+01 1.625939e+02 1.745536e+02 1.652480e+00 1.744052e+02 1.644290e+02 1.601896e+02 1.655623e+02 1.654493e+02 9.223251e+00 1.151326e+02 1.503706e+02 1.712666e+02 1.560826e+02 1.232845e+02 1.499392e+02 7.827008e+01 9.728571e+01 1.534609e+02 5.004528e+00 2.859640e+00 2.707530e+00 2.583011e+00 2.745669e+00 4.878628e+00
<VARIANCE> 33
 3.902650e+01 2.516479e+01 5.903833e+01 3.292188e+01 3.037716e+01 1.402897e+01 2.822034e+01 2.062020e+01 5.347464e+01 1.273507e+02 2.195832e+01 2.471850e+00 2.034273e+01 1.194015e+02 4.514542e+01 8.596851e+01 9.161784e+01 5.387539e+01 1.527904e+03 2.902968e+02 2.363079e+01 2.270932e+02 1.436274e+03 8.508105e+02 1.434473e+03 1.799119e+03 2.948684e+02 2.819357e+00 1.585785e+00 2.435403e-01 1.979168e-01 1.523345e+00 2.225262e+00
<GCONST> 1.806593e+02
<MIXTURE> 2 1.204947e-01
<MEAN> 33
 1.518794e+02 1.439886e+02 1.201411e+02 1.427912e+02 1.613953e+02 1.757653e+02 1.051974e+02 1.115407e+02 1.371071e+02 1.282951e+02 1.695785e+02 2.459264e+00 1.674512e+02 1.321488e+02 1.641705e+02 1.135772e+02 1.252959e+02 1.768182e+01 1.198254e+02 1.512796e+02 1.709058e+02 1.485051e+02 1.096551e+02 1.256436e+02 6.083710e+01 1.214730e+02 1.152881e+02 7.406523e+00 2.797065e+00 2.354283e+00 2.214907e+00 2.802812e+00 6.880765e+00
<VARIANCE> 33
 9.829652e+02 4.777365e+01 6.862741e+01 6.434834e+01 3.210526e+02 1.186540e+01 4.104082e+02 2.121690e+02 6.506107e+02 1.040957e+03 5.645894e+01 4.459930e+00 7.481702e+01 9.885875e+02 1.680087e+01 7.925213e+02 7.175862e+02 1.898930e+02 1.557926e+03 2.953929e+02 4.226074e+01 2.346215e+02 1.941224e+03 2.007403e+03 1.834097e+03 1.415147e+03 6.284010e+02 1.115434e+00 8.570877e-01 1.023983e-01 5.647807e-02 4.538448e-01 1.344744e+00
<GCONST> 2.038424e+02
<MIXTURE> 3 1.853246e-01
<MEAN> 33
 1.598619e+02 1.344844e+02 1.119757e+02 1.360516e+02 1.600730e+02 1.749012e+02 1.456095e+02 1.418555e+02 7.245782e+01 1.554574e+02 1.680104e+02 1.189346e+00 1.662605e+02 1.585948e+02 1.615293e+02 1.360161e+02 1.374296e+02 5.492825e+00 1.166608e+02 1.331361e+02 1.734177e+02 1.415213e+02 1.153709e+02 1.343228e+02 5.340974e+01 7.449480e+01 7.844434e+01 5.676913e+00 2.370791e+00 2.947176e+00 2.922651e+00 2.532712e+00 5.504988e+00
<VARIANCE> 33
 1.378835e+02 3.875661e+01 5.267976e+01 3.803504e+01 1.419963e+02 1.711475e+01 1.019647e+02 6.329738e+01 2.520444e+02 1.885011e+02 4.707828e+01 8.884273e-01 4.971592e+01 1.701394e+02 5.805011e+01 1.580159e+02 1.679992e+02 3.148238e+01 1.231830e+03 7.816740e+02 2.535980e+01 4.351787e+02 8.196135e+02 1.471225e+03 1.628286e+03 1.968626e+03 8.174091e+02 8.986490e-01 2.139397e-01 1.412577e-01 1.050897e-01 2.290970e-01 8.600326e-01
<GCONST> 1.859396e+02
<MIXTURE> 4 2.290131e-01
<MEAN> 33
 1.113268e+02 1.326072e+02 1.131701e+02 1.356168e+02 1.165520e+02 1.737204e+02 1.109534e+02 1.105670e+02 6.644306e+01 1.287312e+02 1.614822e+02 2.031833e+00 1.619958e+02 1.339518e+02 1.640054e+02 9.715442e+01 1.002271e+02 9.745036e+00 1.199950e+02 1.132219e+02 1.725732e+02 1.309665e+02 1.095609e+02 1.188240e+02 7.227282e+01 8.363619e+01 2.397934e+01 4.460417e+00 2.905602e+00 3.454116e+00 3.418835e+00 3.274339e+00 4.518465e+00
<VARIANCE> 33
 1.205104e+03 9.484898e+01 8.273422e+01 7.708061e+01 1.094470e+03 2.218481e+01 3.043586e+03 2.540622e+03 2.658273e+03 6.044811e+02 9.793845e+01 7.467399e+00 7.854579e+01 5.659118e+02 6.805860e+01 4.466348e+02 5.220768e+02 4.001174e+02 1.069516e+03 6.871553e+02 3.618691e+01 4.578080e+02 8.213396e+02 2.115847e+03 2.184298e+03 2.295169e+03 4.453057e+02 1.129375e+00 4.762085e-01 2.517790e-01 2.403538e-01 7.076216e-01 1.324489e+00
<GCONST> 2.168012e+02
<TRANSP> 5
 0.000000e+00 1.000000e+00 0.000000e+00 0.000000e+00 0.000000e+00
 0.000000e+00 9.181417e-01 8.185832e-02 0.000000e+00 0.000000e+00
 0.000000e+00 0.000000e+00 9.634664e-01 3.653355e-02 0.000000e+00
 0.000000e+00 0.000000e+00 0.000000e+00 9.217615e-01 7.823855e-02
 0.000000e+00 0.000000e+00 0.000000e+00 0.000000e+00 0.000000e+00
<ENDHMM>
~h "CP"
<BEGINHMM>
<NUMSTATES> 5
<STATE> 2
<NUMMIXES> 4
<MIXTURE> 1 3.259807e-01
<MEAN> 33
 1.734663e+02 1.369818e+02 1.096950e+02 1.374313e+02 1.740461e+02 1.754930e+02 1.343321e+02 1.337557e+02 9.191228e+01 1.564524e+02 1.749468e+02 1.729311e+00 1.745003e+02 1.594393e+02 1.629818e+02 1.624485e+02 1.631107e+02 8.563230e+00 9.631342e+01 1.512713e+02 1.699244e+02 1.597058e+02 1.062928e+02 1.544298e+02 7.652012e+01 8.469633e+01 1.487182e+02 5.340815e+00 2.794051e+00 2.702198e+00 2.599041e+00 2.556036e+00 5.289138e+00
<VARIANCE> 33
 3.902650e+01 3.309498e+01 5.129653e+01 2.728960e+01 3.037716e+01 1.614115e+01 2.822034e+01 2.062020e+01 5.377408e+01 1.197439e+02 2.080559e+01 3.346565e+00 1.793914e+01 9.500581e+01 3.809542e+01 1.077195e+02 1.002758e+02 5.207608e+01 1.196103e+03 2.960244e+02 2.242601e+01 1.919819e+02 9.035676e+02 4.786592e+02 1.317569e+03 1.417184e+03 3.272120e+02 3.448781e+00 1.325853e+00 2.353277e-01 1.701559e-01 1.019724e+00 3.089004e+00
<GCONST> 1.787560e+02
<MIXTURE> 2 2.092292e-01
<MEAN> 33
 1.683339e+02 1.470225e+02 1.044177e+02 1.460322e+02 1.672272e+02 1.720319e+02 1.169840e+02 1.169677e+02 1.257422e+02 1.375966e+02 1.666106e+02 2.162017e+00 1.679852e+02 1.376678e+02 1.664832e+02 1.350278e+02 1.324639e+02 1.656327e+01 1.010854e+02 1.441638e+02 1.700039e+02 1.464813e+02 9.928298e+01 1.019580e+02 7.613737e+01 8.798470e+01 1.227808e+02 6.748050e+00 2.691484e+00 2.299918e+00 2.331381e+00 2.757703e+00 6.728909e+00
<VARIANCE> 33
 8.504279e+01 1.124875e+02 7.953878e+01 1.059457e+02 9.406109e+01 3.506217e+01 1.886664e+02 1.853675e+02 6.208645e+02 4.825944e+02 1.056573e+02 8.550959e+00 8.205068e+01 4.788401e+02 5.999162e+01 6.265661e+02 5.266765e+02 1.942573e+02 2.236478e+03 3.405198e+02 5.098619e+01 3.398529e+02 1.808133e+03 2.968506e+03 2.837779e+03 2.457339e+03 8.293143e+02 2.564594e+00 8.598067e-01 1.258554e-01 1.515401e-01 9.159563e-01 2.683509e+00
<GCONST> 2.084918e+02
<MIXTURE> 3 2.092292e-01
<MEAN> 33
 1.683339e+02 1.470225e+02 1.044177e+02 1.460322e+02 1.672272e+02 1.720319e+02 1.169840e+02 1.169677e+02 1.257422e+02 1.375966e+02 1.666106e+02 2.162017e+00 1.679852e+02 1.376678e+02 1.664832e+02 1.350278e+02 1.324639e+02 1.656327e+01 1.010854e+02 1.441638e+02 1.700039e+02 1.464813e+02 9.928298e+01 1.019580e+02 7.613737e+01 8.798470e+01 1.227808e+02 6.748050e+00 2.691484e+00 2.299918e+00 2.331381e+00 2.757703e+00 6.728909e+00
<VARIANCE> 33
 8.504279e+01 1.124875e+02 7.953878e+01 1.059457e+02 9.406109e+01 3.506217e+01 1.886664e+02 1.853675e+02 6.208645e+02 4.825944e+02 1.056573e+02 8.550959e+00 8.205068e+01 4.788401e+02 5.999162e+01 6.265661e+02 5.266765e+02 1.942573e+02 2.236478e+03 3.405198e+02 5.098619e+01 3.398529e+02 1.808133e+03 2.968506e+03 2.837779e+03 2.457339e+03 8.293143e+02 2.564594e+00 8.598067e-01 1.258554e-01 1.515401e-01 9.159563e-01 2.683509e+00
<GCONST> 2.084918e+02
<MIXTURE> 4 2.555607e-01
<MEAN> 33
 1.176638e+02 1.407463e+02 1.104303e+02 1.445129e+02 1.157720e+02 1.725300e+02 9.420358e+01 8.897800e+01 1.245694e+02 1.024282e+02 1.678308e+02 2.701034e+00 1.656535e+02 1.004311e+02 1.647962e+02 9.420007e+01 8.646053e+01 2.727197e+01 7.599277e+01 1.358095e+02 1.699209e+02 1.478900e+02 8.434390e+01 1.270246e+02 5.891501e+01 7.015211e+01 9.058408e+01 5.783802e+00 3.166898e+00 2.775750e+00 2.687876e+00 3.405606e+00 5.825879e+00
<VARIANCE> 33
 2.018060e+03 1.987560e+02 7.240528e+01 2.145783e+02 2.435155e+03 3.926791e+01 1.541014e+03 1.147366e+03 2.021865e+03 8.711200e+02 1.049691e+02 7.027551e+00 1.400025e+02 1.011633e+03 6.678463e+01 1.285972e+03 1.170462e+03 1.729130e+03 1.976374e+03 9.360950e+02 4.264591e+01 5.346552e+02 1.585945e+03 2.489140e+03 2.531905e+03 1.857934e+03 1.747724e+03 2.978619e+00 1.740663e+00 7.491755e-01 5.410401e-01 1.455578e+00 3.411574e+00
<GCONST> 2.326130e+02
<STATE> 3
<NUMMIXES> 4
<MIXTURE> 1 4.771086e-01
<MEAN> 33
 1.548036e+02 1.390338e+02 1.163316e+02 1.388617e+02 1.558411e+02 1.756512e+02 1.275208e+02 1.237605e+02 1.087187e+02 1.281796e+02 1.744108e+02 2.669336e+00 1.748887e+02 1.260473e+02 1.628172e+02 1.302781e+02 1.294987e+02 8.225085e+00 5.483633e+01 1.566646e+02 1.643761e+02 1.560961e+02 5.603619e+01 1.579349e+02 3.929330e+01 6.364153e+01 1.017388e+02 6.287898e+00 3.203663e+00 2.863878e+00 2.734789e+00 3.339704e+00 6.423425e+00
<VARIANCE> 33
 1.603739e+02 2.280013e+01 1.074440e+02 3.526800e+01 1.673443e+02 1.694262e+01 1.034700e+02 7.979907e+01 2.844365e+02 1.321762e+02 1.770680e+01 6.286216e+00 2.100397e+01 1.477016e+02 3.439575e+01 2.190276e+02 2.617831e+02 6.428781e+01 4.398052e+02 1.675411e+02 1.796911e+01 1.551667e+02 3.522904e+02 3.005367e+02 5.988004e+02 5.389592e+02 4.600096e+02 8.713518e-01 5.215510e-01 7.508374e-02 8.511916e-02 7.981566e-01 6.888912e-01
<GCONST> 1.790947e+02
<MIXTURE> 2 1.215408e-01
<MEAN> 33
 1.124052e+02 1.531907e+02 1.233395e+02 1.442171e+02 1.286081e+02 1.751302e+02 1.024459e+02 1.006492e+02 1.517441e+02 1.144534e+02 1.713306e+02 5.380671e+00 1.682035e+02 1.153165e+02 1.550443e+02 9.833450e+01 9.758362e+01 6.847812e+00 5.958027e+01 1.689973e+02 1.660721e+02 1.668315e+02 6.602051e+01 1.564535e+02 2.939669e+01 5.946780e+01 8.262824e+01 5.919306e+00 4.005571e+00 2.862883e+00 2.972982e+00 3.655850e+00 5.683415e+00
<VARIANCE> 33
 2.977072e+02 1.442922e+02 6.182116e+01 7.937150e+01 3.317216e+02 1.756066e+01 2.153990e+02 1.308479e+02 3.160972e+02 1.389169e+02 4.237160e+01 2.624238e+01 6.628104e+01 1.303339e+02 3.666826e+01 1.208758e+02 1.306982e+02 3.148238e+01 1.697453e+02 7.940108e+01 1.691542e+01 1.109997e+02 3.215494e+02 3.063153e+02 6.200595e+02 8.962080e+02 2.736603e+02 3.686084e-01 4.088312e-01 1.238523e-01 9.538762e-02 4.506757e-01 4.778872e-01
<GCONST> 1.817374e+02
<MIXTURE> 3 1.215408e-01
<MEAN> 33
 1.124052e+02 1.531907e+02 1.233395e+02 1.442171e+02 1.286081e+02 1.751302e+02 1.024459e+02 1.006492e+02 1.517441e+02 1.144534e+02 1.713306e+02 5.380671e+00 1.682035e+02 1.153165e+02 1.550443e+02 9.833450e+01 9.758362e+01 6.847812e+00 5.958027e+01 1.689973e+02 1.660721e+02 1.668315e+02 6.602051e+01 1.564535e+02 2.939669e+01 5.946780e+01 8.262824e+01 5.919306e+00 4.005571e+00 2.862883e+00 2.972982e+00 3.655850e+00 5.683415e+00
<VARIANCE> 33
 2.977072e+02 1.442922e+02 6.182116e+01 7.937150e+01 3.317216e+02 1.756066e+01 2.153990e+02 1.308479e+02 3.160972e+02 1.389169e+02 4.237160e+01 2.624238e+01 6.628104e+01 1.303339e+02 3.666826e+01 1.208758e+02 1.306982e+02 3.148238e+01 1.697453e+02 7.940108e+01 1.691542e+01 1.109997e+02 3.215494e+02 3.063153e+02 6.200595e+02 8.962080e+02 2.736603e+02 3.686084e-01 4.088312e-01 1.238523e-01 9.538762e-02 4.506757e-01 4.778872e-01
<GCONST> 1.817374e+02
<MIXTURE> 4 2.798092e-01
<MEAN> 33
 1.466982e+02 1.394245e+02 1.124362e+02 1.400421e+02 1.559354e+02 1.760207e+02 8.935975e+01 9.249709e+01 1.560714e+02 1.001514e+02 1.730813e+02 1.214336e+00 1.748051e+02 9.997660e+01 1.620949e+02 8.739899e+01 9.067254e+01 9.690368e+00 5.283464e+01 1.480389e+02 1.659014e+02 1.464833e+02 5.140983e+01 1.594420e+02 5.740118e+01 3.678796e+01 9.408980e+01 6.046423e+00 3.135652e+00 2.725335e+00 2.649857e+00 3.103822e+00 6.397395e+00
<VARIANCE> 33
 5.778329e+02 3.795613e+01 1.941276e+01 1.609280e+01 3.610731e+02 8.245220e+00 2.645156e+02 2.014615e+02 2.262841e+02 1.886952e+02 2.765452e+01 8.642550e-01 1.615214e+01 1.265829e+02 3.468346e+01 3.058009e+02 2.330364e+02 7.177099e+01 3.918692e+02 1.621170e+02 1.876014e+01 1.260633e+02 1.818936e+02 1.740101e+02 4.149067e+02 3.259443e+02 2.766388e+02 1.033316e+00 3.506454e-01 6.693073e-02 5.956865e-02 2.089968e-01 7.219251e-01
<GCONST> 1.739214e+02
<STATE> 4
<NUMMIXES> 4
<MIXTURE> 1 3.974160e-01
<MEAN> 33
 1.750404e+02 1.378594e+02 1.064947e+02 1.392492e+02 1.756025e+02 1.757199e+02 1.346486e+02 1.340414e+02 9.130998e+01 1.627371e+02 1.765787e+02 1.155550e+00 1.755797e+02 1.659459e+02 1.623797e+02 1.686191e+02 1.708578e+02 7.420882e+00 1.087067e+02 1.600157e+02 1.679446e+02 1.625921e+02 1.203984e+02 1.597590e+02 7.910989e+01 9.111078e+01 1.626875e+02 5.003601e+00 2.427635e+00 2.851830e+00 2.594104e+00 2.085178e+00 4.526351e+00
<VARIANCE> 33
 3.902650e+01 1.233856e+01 4.526985e+01 2.193097e+01 3.037716e+01 1.130853e+01 2.822034e+01 2.062020e+01 1.886277e+01 4.225513e+01 7.386533e+00 6.359940e-01 6.371561e+00 4.274930e+01 2.015945e+01 3.738407e+01 4.452305e+01 3.165849e+01 6.123339e+02 1.059327e+02 1.742887e+01 8.050575e+01 6.620150e+02 2.358666e+02 6.406055e+02 6.944940e+02 1.290089e+02 2.560243e+00 3.225439e-01 2.414336e-01 2.099918e-01 2.213755e-01 2.511160e+00
<GCONST> 1.580343e+02
<MIXTURE> 2 1.451561e-01
<MEAN> 33
 1.723062e+02 1.336315e+02 1.134615e+02 1.366256e+02 1.715918e+02 1.748964e+02 1.379305e+02 1.353978e+02 8.667174e+01 1.606335e+02 1.700800e+02 2.358407e+00 1.707817e+02 1.616688e+02 1.616748e+02 1.590364e+02 1.624110e+02 1.269407e+01 1.107061e+02 1.529010e+02 1.640453e+02 1.616512e+02 1.124106e+02 1.621395e+02 6.680434e+01 8.827009e+01 1.437687e+02 5.836816e+00 2.451916e+00 3.276266e+00 2.720685e+00 2.441383e+00 5.461207e+00
<VARIANCE> 33
 3.933050e+01 2.776481e+01 8.018533e+01 2.527471e+01 3.866528e+01 1.652678e+01 2.822034e+01 2.062020e+01 5.436566e+01 1.134779e+02 2.918385e+01 5.554626e+00 3.271090e+01 1.093755e+02 3.809702e+01 1.463530e+02 1.486351e+02 1.142657e+02 1.456065e+03 4.899790e+02 2.295724e+01 1.698758e+02 1.045359e+03 2.176253e+02 6.540920e+02 7.113416e+02 5.197062e+02 2.145635e+00 7.344575e-01 4.510169e-01 2.204655e-01 3.730421e-01 2.178102e+00
<GCONST> 1.797744e+02
<MIXTURE> 3 1.451561e-01
<MEAN> 33
 1.723062e+02 1.336315e+02 1.134615e+02 1.366256e+02 1.715918e+02 1.748964e+02 1.379305e+02 1.353978e+02 8.667174e+01 1.606335e+02 1.700800e+02 2.358407e+00 1.707817e+02 1.616688e+02 1.616748e+02 1.590364e+02 1.624110e+02 1.269407e+01 1.107061e+02 1.529010e+02 1.640453e+02 1.616512e+02 1.124106e+02 1.621395e+02 6.680434e+01 8.827009e+01 1.437687e+02 5.836816e+00 2.451916e+00 3.276266e+00 2.720685e+00 2.441383e+00 5.461207e+00
<VARIANCE> 33
 3.933050e+01 2.776481e+01 8.018533e+01 2.527471e+01 3.866528e+01 1.652678e+01 2.822034e+01 2.062020e+01 5.436566e+01 1.134779e+02 2.918385e+01 5.554626e+00 3.271090e+01 1.093755e+02 3.809702e+01 1.463530e+02 1.486351e+02 1.142657e+02 1.456065e+03 4.899790e+02 2.295724e+01 1.698758e+02 1.045359e+03 2.176253e+02 6.540920e+02 7.113416e+02 5.197062e+02 2.145635e+00 7.344575e-01 4.510169e-01 2.204655e-01 3.730421e-01 2.178102e+00
<GCONST> 1.797744e+02
<MIXTURE> 4 3.122700e-01
<MEAN> 33
 1.595173e+02 1.491743e+02 9.805591e+01 1.507584e+02 1.559890e+02 1.727378e+02 1.328147e+02 1.307115e+02 9.629778e+01 1.349191e+02 1.760838e+02 1.092055e+00 1.726797e+02 1.300365e+02 1.693609e+02 1.434604e+02 1.415134e+02 9.419685e+00 6.526513e+01 1.592929e+02 1.681779e+02 1.590639e+02 6.680279e+01 1.407279e+02 5.363313e+01 6.118860e+01 1.127157e+02 5.186826e+00 2.855848e+00 2.182461e+00 2.141881e+00 2.972218e+00 5.975996e+00
<VARIANCE> 33
 1.719890e+02 4.661892e+01 2.689792e+01 5.491297e+01 2.500519e+02 1.645917e+01 6.310563e+01 8.621132e+01 1.633130e+02 1.231054e+02 7.684643e+00 1.487486e+00 1.855162e+01 2.566026e+02 1.290440e+01 1.889638e+02 2.480569e+02 1.520785e+02 2.564697e+02 1.350740e+02 2.305430e+01 1.201368e+02 4.323224e+02 5.447401e+02 7.739038e+02 1.110356e+03 5.491868e+02 4.357732e+00 8.527900e-01 1.048537e-01 1.557171e-01 1.940509e+00 2.931958e+00
<GCONST> 1.826692e+02
<TRANSP> 5
 0.000000e+00 1.000000e+00 0.000000e+00 0.000000e+00 0.000000e+00
 0.000000e+00 9.303064e-01 6.969349e-02 0.000000e+00 0.000000e+00
 0.000000e+00 0.000000e+00 9.386168e-01 6.138320e-02 0.000000e+00
 0.000000e+00 0.000000e+00 0.000000e+00 9.375184e-01 6.248165e-02
 0.000000e+00 0.000000e+00 0.000000e+00 0.000000e+00 0.000000e+00
<ENDHMM>
~h "CV"
<BEGINHMM>
<NUMSTATES> 5
<STATE> 2
<NUMMIXES> 4
<MIXTURE> 1 4.213597e-01
<MEAN> 33
 1.738765e+02 1.370670e+02 1.073917e+02 1.387250e+02 1.743463e+02 1.752484e+02 1.354159e+02 1.347386e+02 8.984545e+01 1.593267e+02 1.761838e+02 1.697836e+00 1.752394e+02 1.613810e+02 1.625771e+02 1.662194e+02 1.695206e+02 9.291970e+00 9.947603e+01 1.527014e+02 1.695274e+02 1.613154e+02 1.073228e+02 1.588065e+02 6.530949e+01 9.846946e+01 1.585167e+02 4.351718e+00 2.550374e+00 2.530517e+00 2.442710e+00 2.356196e+00 4.346811e+00
<VARIANCE> 33
 3.902650e+01 1.922575e+01 6.550861e+01 3.170993e+01 3.037716e+01 1.333186e+01 2.822034e+01 2.062020e+01 2.453274e+01 5.954115e+01 2.104165e+01 4.222177e+00 1.188723e+01 5.087212e+01 4.581284e+01 7.628944e+01 7.313343e+01 5.708774e+01 7.959695e+02 2.845852e+02 2.851286e+01 1.213520e+02 4.793316e+02 2.243994e+02 9.155242e+02 1.095700e+03 2.304023e+02 4.427736e+00 6.828591e-01 4.161868e-01 3.134193e-01 7.376707e-01 3.724005e+00
<GCONST> 1.733577e+02
<MIXTURE> 2 2.135458e-01
<MEAN> 33
 1.228928e+02 1.343790e+02 1.158540e+02 1.403834e+02 9.831676e+01 1.723445e+02 9.835447e+01 7.991143e+01 1.363098e+02 1.170770e+02 1.638210e+02 4.706464e+00 1.607971e+02 1.086179e+02 1.607668e+02 1.119507e+02 9.484508e+01 7.828257e+01 8.702168e+01 1.267221e+02 1.692790e+02 1.511886e+02 8.426940e+01 1.370645e+02 5.892632e+01 7.510242e+01 9.413772e+01 4.922415e+00 2.998503e+00 3.138019e+00 2.893371e+00 3.694951e+00 5.388576e+00
<VARIANCE> 33
 3.658165e+03 1.509192e+02 1.028032e+02 2.030210e+02 4.111858e+03 3.217036e+01 2.145191e+03 2.391290e+03 1.346306e+03 1.606263e+03 1.947740e+02 3.666981e+01 2.537978e+02 1.585360e+03 8.051302e+01 2.380624e+03 2.423117e+03 2.363601e+03 2.344812e+03 8.956047e+02 5.696917e+01 4.490941e+02 1.075147e+03 1.382021e+03 2.361377e+03 1.616030e+03 1.534725e+03 5.207219e+00 1.598486e+00 5.667489e-01 4.594632e-01 1.647355e+00 3.458177e+00
<GCONST> 2.390738e+02
<MIXTURE> 3 1.247496e-01
<MEAN> 33
 1.377843e+02 1.392413e+02 1.095194e+02 1.385526e+02 1.457030e+02 1.755377e+02 1.174358e+02 1.167510e+02 1.216599e+02 1.132564e+02 1.746401e+02 1.609468e+00 1.745919e+02 1.180010e+02 1.639785e+02 1.114323e+02 1.148800e+02 1.146099e+01 4.964566e+01 1.537455e+02 1.687067e+02 1.590472e+02 5.961344e+01 1.580465e+02 3.107103e+01 5.217634e+01 7.281709e+01 5.947479e+00 3.064574e+00 2.817751e+00 2.763448e+00 2.959145e+00 5.823120e+00
<VARIANCE> 33
 5.471451e+02 4.215581e+01 6.043341e+01 4.500786e+01 5.350876e+02 1.731985e+01 5.008716e+02 3.489521e+02 1.105616e+03 2.814570e+02 2.005836e+01 2.117953e+00 1.406300e+01 4.188788e+02 3.688805e+01 3.858381e+02 5.254229e+02 1.707110e+02 4.820706e+02 2.068509e+02 2.459003e+01 1.979504e+02 5.338842e+02 2.010975e+02 5.668975e+02 8.058752e+02 6.917286e+02 1.398530e+00 3.610701e-01 1.896393e-01 1.474720e-01 6.164541e-01 1.107391e+00
<GCONST> 1.923698e+02
<MIXTURE> 4 2.403448e-01
<MEAN> 33
 2.727994e+01 1.387211e+02 1.117052e+02 1.444536e+02 2.802652e+01 1.743596e+02 2.402903e+01 2.939550e+01 5.015119e+01 6.636998e+01 1.485327e+02 6.249176e+00 1.501105e+02 7.052287e+01 1.640647e+02 4.338321e+01 4.143896e+01 5.699954e+00 1.059498e+02 1.225814e+02 1.654190e+02 1.385332e+02 9.848730e+01 1.073905e+02 8.946542e+01 9.187611e+01 5.631209e+01 4.647284e+00 2.853349e+00 2.977431e+00 2.851038e+00 3.429602e+00 4.652607e+00
<VARIANCE> 33
 5.549182e+02 4.435859e+02 2.246519e+02 4.364395e+02 4.118180e+02 2.182853e+01 1.234321e+02 1.724481e+02 6.556202e+02 4.362621e+02 4.801532e+02 1.296207e+02 5.882831e+02 6.184288e+02 8.167702e+01 1.649344e+02 1.608969e+02 3.148238e+01 1.485222e+03 1.205810e+03 1.790018e+02 7.376711e+02 7.302788e+02 2.778622e+03 2.060092e+03 2.237216e+03 8.520225e+02 1.171506e+00 5.939922e-01 6.663246e-01 5.538770e-01 8.578969e-01 1.024591e+00
<GCONST> 2.193869e+02
<STATE> 3
<NUMMIXES> 4
<MIXTURE> 1 1.884622e-01
<MEAN> 33
 6.700155e+01 1.387383e+02 1.104045e+02 1.389756e+02 6.578699e+01 1.748644e+02 3.972477e+01 4.639946e+01 7.678219e+01 8.355427e+01 1.694463e+02 2.031660e+00 1.689141e+02 8.506313e+01 1.629642e+02 6.857332e+01 6.736514e+01 7.283474e+00 6.644644e+01 1.493127e+02 1.670844e+02 1.550260e+02 6.831314e+01 1.564005e+02 2.426372e+01 3.741611e+01 3.554918e+01 4.426767e+00 3.155736e+00 3.241817e+00 3.201565e+00 3.313319e+00 4.430743e+00
<VARIANCE> 33
 5.366205e+02 6.987157e+01 8.755604e+01 4.472446e+01 8.072780e+02 2.131019e+01 4.940880e+02 4.433628e+02 1.752117e+03 1.744872e+02 6.828673e+01 4.198593e+00 6.689731e+01 1.661620e+02 3.853919e+01 1.919015e+02 1.591728e+02 1.323889e+02 1.226292e+03 5.612168e+02 2.381983e+01 3.003698e+02 8.442651e+02 3.066998e+02 5.088669e+02 6.471346e+02 3.699785e+02 5.980915e-01 4.603186e-01 3.452811e-01 2.514732e-01 6.538801e-01 6.031793e-01
<GCONST> 1.967100e+02
<MIXTURE> 2 1.588814e-01
<MEAN> 33
 3.258516e+01 1.322467e+02 1.111774e+02 1.391220e+02 2.083006e+01 1.758001e+02 1.799091e+01 2.597059e+01 4.056382e+01 6.478372e+01 1.636767e+02 1.515757e+00 1.663080e+02 6.184741e+01 1.618245e+02 4.731938e+01 4.504607e+01 5.065115e+00 1.083315e+02 1.260022e+02 1.725091e+02 1.467585e+02 9.326109e+01 1.327681e+02 5.046671e+01 5.212749e+01 3.850406e+01 4.324690e+00 2.638641e+00 3.503196e+00 3.262407e+00 2.856716e+00 4.023066e+00
<VARIANCE> 33
 3.032453e+02 8.260413e+01 1.175088e+02 1.330087e+02 2.344856e+02 1.394607e+01 6.358346e+01 7.501482e+01 2.495975e+02 8.663922e+01 7.358524e+01 1.792892e+00 5.958268e+01 9.756319e+01 4.319373e+01 8.083169e+01 5.491506e+01 3.148238e+01 7.524404e+02 7.067853e+02 2.517875e+01 4.567246e+02 6.347830e+02 1.313619e+03 1.289615e+03 1.542600e+03 2.180794e+02 3.462167e-01 5.808105e-01 5.598628e-01 6.006591e-01 9.939719e-01 2.667982e-01
<GCONST> 1.881781e+02
<MIXTURE> 3 1.588814e-01
<MEAN> 33
 3.258516e+01 1.322467e+02 1.111774e+02 1.391220e+02 2.083006e+01 1.758001e+02 1.799091e+01 2.597059e+01 4.056382e+01 6.478372e+01 1.636767e+02 1.515757e+00 1.663080e+02 6.184741e+01 1.618245e+02 4.731938e+01 4.504607e+01 5.065115e+00 1.083315e+02 1.260022e+02 1.725091e+02 1.467585e+02 9.326109e+01 1.327681e+02 5.046671e+01 5.212749e+01 3.850406e+01 4.324690e+00 2.638641e+00 3.503196e+00 3.262407e+00 2.856716e+00 4.023066e+00
<VARIANCE> 33
 3.032453e+02 8.260413e+01 1.175088e+02 1.330087e+02 2.344856e+02 1.394607e+01 6.358346e+01 7.501482e+01 2.495975e+02 8.663922e+01 7.358524e+01 1.792892e+00 5.958268e+01 9.756319e+01 4.319373e+01 8.083169e+01 5.491506e+01 3.148238e+01 7.524404e+02 7.067853e+02 2.517875e+01 4.567246e+02 6.347830e+02 1.313619e+03 1.289615e+03 1.542600e+03 2.180794e+02 3.462167e-01 5.808105e-01 5.598628e-01 6.006591e-01 9.939719e-01 2.667982e-01
<GCONST> 1.881781e+02
<MIXTURE> 4 4.937735e-01
<MEAN> 33
 2.985249e+01 1.249244e+02 1.251107e+02 1.277092e+02 2.621589e+01 1.761556e+02 2.095619e+01 2.489119e+01 4.504966e+01 7.549467e+01 1.426235e+02 4.708632e+00 1.419218e+02 7.688264e+01 1.627874e+02 5.034902e+01 4.875632e+01 3.440181e+00 1.361987e+02 9.708903e+01 1.664169e+02 1.139990e+02 1.201646e+02 1.502226e+02 2.709602e+01 4.048035e+01 3.618119e+01 4.128204e+00 2.965970e+00 4.277246e+00 3.969354e+00 3.281344e+00 4.044805e+00
<VARIANCE> 33
 1.400957e+02 9.931065e+01 1.373895e+02 8.161798e+01 1.541249e+02 1.246122e+01 5.915300e+01 7.244419e+01 2.214196e+02 1.068058e+02 1.155157e+02 3.041081e+01 1.325584e+02 1.067119e+02 5.290174e+01 6.115516e+01 5.473294e+01 3.148238e+01 2.953564e+02 2.243170e+02 4.201016e+01 3.697646e+02 4.035448e+02 4.947877e+02 4.016358e+02 7.522590e+02 8.926982e+01 2.906139e-01 4.022188e-01 3.901661e-01 2.596746e-01 4.309851e-01 2.436181e-01
<GCONST> 1.821418e+02
<STATE> 4
<NUMMIXES> 4
<MIXTURE> 1 4.604355e-01
<MEAN> 33
 1.737598e+02 1.357152e+02 1.133327e+02 1.356247e+02 1.739727e+02 1.757727e+02 1.361588e+02 1.353163e+02 8.852493e+01 1.640305e+02 1.749994e+02 1.951326e+00 1.742276e+02 1.655909e+02 1.617643e+02 1.686020e+02 1.685530e+02 7.590299e+00 1.133650e+02 1.539975e+02 1.684819e+02 1.597762e+02 1.223518e+02 1.602733e+02 7.580282e+01 9.848129e+01 1.583820e+02 4.925993e+00 2.748451e+00 2.862706e+00 2.732819e+00 2.588331e+00 4.757432e+00
<VARIANCE> 33
 3.902650e+01 2.053613e+01 7.601772e+01 2.750284e+01 3.037716e+01 1.289278e+01 2.822034e+01 2.062020e+01 3.965108e+01 7.808712e+01 1.938981e+01 5.256681e+00 2.250150e+01 8.139037e+01 3.432039e+01 5.975792e+01 6.595072e+01 3.663441e+01 1.368283e+03 2.091333e+02 2.026200e+01 1.771323e+02 1.087662e+03 2.679806e+02 8.716243e+02 1.117546e+03 2.128783e+02 2.408713e+00 1.470056e+00 3.312601e-01 2.135419e-01 1.205343e+00 2.349008e+00
<GCONST> 1.750482e+02
<MIXTURE> 2 1.521306e-01
<MEAN> 33
 1.678489e+02 1.347499e+02 1.143094e+02 1.376050e+02 1.669357e+02 1.764644e+02 1.377189e+02 1.346643e+02 8.761684e+01 1.566721e+02 1.666313e+02 1.483624e+00 1.662316e+02 1.576936e+02 1.623739e+02 1.440302e+02 1.442757e+02 9.681919e+00 1.197547e+02 1.427814e+02 1.683632e+02 1.504375e+02 1.175939e+02 1.464655e+02 6.689791e+01 7.647890e+01 1.083108e+02 6.067771e+00 2.443595e+00 2.811082e+00 2.696332e+00 2.495345e+00 6.042156e+00
<VARIANCE> 33
 9.676845e+01 5.141426e+01 7.741528e+01 7.700457e+01 9.814543e+01 9.151300e+00 8.382364e+01 7.129826e+01 2.647376e+02 1.933880e+02 5.437020e+01 1.677147e+00 6.058298e+01 2.078253e+02 3.656690e+01 2.106695e+02 2.468752e+02 9.015003e+01 1.514071e+03 5.555339e+02 4.041741e+01 4.443822e+02 1.446420e+03 1.503686e+03 2.263010e+03 1.684840e+03 8.981678e+02 1.306633e+00 3.535474e-01 3.096779e-01 1.954823e-01 3.236395e-01 1.255975e+00
<GCONST> 1.926162e+02
<MIXTURE> 3 1.521306e-01
<MEAN> 33
 1.678489e+02 1.347499e+02 1.143094e+02 1.376050e+02 1.669357e+02 1.764644e+02 1.377189e+02 1.346643e+02 8.761684e+01 1.566721e+02 1.666313e+02 1.483624e+00 1.662316e+02 1.576936e+02 1.623739e+02 1.440302e+02 1.442757e+02 9.681919e+00 1.197547e+02 1.427814e+02 1.683632e+02 1.504375e+02 1.175939e+02 1.464655e+02 6.689791e+01 7.647890e+01 1.083108e+02 6.067771e+00 2.443595e+00 2.811082e+00 2.696332e+00 2.495345e+00 6.042156e+00
<VARIANCE> 33
 9.676845e+01 5.141426e+01 7.741528e+01 7.700457e+01 9.814543e+01 9.151300e+00 8.382364e+01 7.129826e+01 2.647376e+02 1.933880e+02 5.437020e+01 1.677147e+00 6.058298e+01 2.078253e+02 3.656690e+01 2.106695e+02 2.468752e+02 9.015003e+01 1.514071e+03 5.555339e+02 4.041741e+01 4.443822e+02 1.446420e+03 1.503686e+03 2.263010e+03 1.684840e+03 8.981678e+02 1.306633e+00 3.535474e-01 3.096779e-01 1.954823e-01 3.236395e-01 1.255975e+00
<GCONST> 1.926162e+02
<MIXTURE> 4 2.353035e-01
<MEAN> 33
 1.222439e+02 1.315628e+02 1.204148e+02 1.339042e+02 1.148022e+02 1.756531e+02 1.051620e+02 9.922214e+01 1.033501e+02 1.225048e+02 1.602499e+02 3.752515e+00 1.603335e+02 1.202354e+02 1.619151e+02 9.936047e+01 9.482094e+01 1.357761e+01 1.086480e+02 1.253092e+02 1.687770e+02 1.393946e+02 9.469981e+01 1.365136e+02 4.316673e+01 5.766714e+01 4.657521e+01 5.181311e+00 2.924858e+00 3.472266e+00 3.312062e+00 3.385515e+00 5.197881e+00
<VARIANCE> 33
 1.376461e+03 9.394450e+01 1.528927e+02 1.047967e+02 1.060074e+03 1.341883e+01 1.770669e+03 1.628000e+03 2.380016e+03 5.628334e+02 1.527046e+02 2.393166e+01 1.501172e+02 3.567029e+02 5.011140e+01 6.048500e+02 4.559703e+02 3.604759e+02 1.742430e+03 8.776954e+02 3.893877e+01 6.640247e+02 1.134716e+03 1.694402e+03 1.438603e+03 1.424856e+03 9.306876e+02 1.264130e+00 6.112276e-01 4.251949e-01 3.256674e-01 6.463175e-01 1.556061e+00
<GCONST> 2.200774e+02
<TRANSP> 5
 0.000000e+00 1.000000e+00 0.000000e+00 0.000000e+00 0.000000e+00
 0.000000e+00 9.230423e-01 7.695775e-02 0.000000e+00 0.000000e+00
 0.000000e+00 0.000000e+00 9.491916e-01 5.080842e-02 0.000000e+00
 0.000000e+00 0.000000e+00 0.000000e+00 9.311528e-01 6.884716e-02
 0.000000e+00 0.000000e+00 0.000000e+00 0.000000e+00 0.000000e+00
<ENDHMM>
~h "DC"
<BEGINHMM>
<NUMSTATES> 5
<STATE> 2
<NUMMIXES> 4
<MIXTURE> 1 5.381626e-01
<MEAN> 33
 1.736079e+02 1.365011e+02 1.080740e+02 1.381538e+02 1.749376e+02 1.759408e+02 1.351786e+02 1.343713e+02 9.045014e+01 1.574878e+02 1.751844e+02 1.563092e+00 1.747486e+02 1.610694e+02 1.619388e+02 1.626019e+02 1.676401e+02 1.091871e+01 9.812737e+01 1.531757e+02 1.692514e+02 1.623192e+02 1.064165e+02 1.569535e+02 7.326838e+01 8.768459e+01 1.540747e+02 4.699825e+00 2.600365e+00 2.664867e+00 2.473148e+00 2.347976e+00 4.584117e+00
<VARIANCE> 33
 3.902650e+01 2.366863e+01 6.131279e+01 2.855100e+01 3.037716e+01 1.112015e+01 2.822034e+01 2.062020e+01 2.522693e+01 8.149384e+01 2.459803e+01 4.018687e+00 1.995484e+01 4.610182e+01 5.209860e+01 1.174255e+02 6.997786e+01 1.044081e+02 8.978311e+02 2.903881e+02 2.918602e+01 1.498273e+02 4.434337e+02 2.929334e+02 1.138307e+03 1.262045e+03 2.894200e+02 5.288774e+00 8.689150e-01 3.846156e-01 3.715326e-01 7.864006e-01 3.337399e+00
<GCONST> 1.768155e+02
<MIXTURE> 2 1.272604e-01
<MEAN> 33
 1.313998e+02 1.382094e+02 1.110953e+02 1.385076e+02 1.366352e+02 1.772166e+02 1.177826e+02 1.122481e+02 1.220407e+02 1.138821e+02 1.736544e+02 1.258916e+00 1.733515e+02 1.137943e+02 1.621294e+02 1.063099e+02 1.066696e+02 5.458092e+00 6.248434e+01 1.597329e+02 1.697246e+02 1.628274e+02 6.564076e+01 1.548152e+02 3.506161e+01 3.919886e+01 5.784681e+01 5.904399e+00 2.987638e+00 2.979328e+00 2.896416e+00 3.032123e+00 5.779456e+00
<VARIANCE> 33
 4.843228e+02 2.247080e+01 6.711002e+01 3.171073e+01 5.072834e+02 5.975049e+00 5.366962e+02 4.620596e+02 1.102452e+03 1.423996e+02 2.629219e+01 1.417601e+00 2.573209e+01 1.799085e+02 3.946350e+01 2.904228e+02 3.392521e+02 3.148238e+01 4.929986e+02 1.908961e+02 2.714928e+01 1.457938e+02 4.110151e+02 3.962661e+02 7.211250e+02 7.106423e+02 6.421968e+02 8.421129e-01 3.582807e-01 1.816529e-01 1.525110e-01 6.219041e-01 7.847108e-01
<GCONST> 1.865374e+02
<MIXTURE> 3 1.272604e-01
<MEAN> 33
 1.313998e+02 1.382094e+02 1.110953e+02 1.385076e+02 1.366352e+02 1.772166e+02 1.177826e+02 1.122481e+02 1.220407e+02 1.138821e+02 1.736544e+02 1.258916e+00 1.733515e+02 1.137943e+02 1.621294e+02 1.063099e+02 1.066696e+02 5.458092e+00 6.248434e+01 1.597329e+02 1.697246e+02 1.628274e+02 6.564076e+01 1.548152e+02 3.506161e+01 3.919886e+01 5.784681e+01 5.904399e+00 2.987638e+00 2.979328e+00 2.896416e+00 3.032123e+00 5.779456e+00
<VARIANCE> 33
 4.843228e+02 2.247080e+01 6.711002e+01 3.171073e+01 5.072834e+02 5.975049e+00 5.366962e+02 4.620596e+02 1.102452e+03 1.423996e+02 2.629219e+01 1.417601e+00 2.573209e+01 1.799085e+02 3.946350e+01 2.904228e+02 3.392521e+02 3.148238e+01 4.929986e+02 1.908961e+02 2.714928e+01 1.457938e+02 4.110151e+02 3.962661e+02 7.211250e+02 7.106423e+02 6.421968e+02 8.421129e-01 3.582807e-01 1.816529e-01 1.525110e-01 6.219041e-01 7.847108e-01
<GCONST> 1.865374e+02
<MIXTURE> 4 2.073162e-01
<MEAN> 33
 1.152740e+02 1.291561e+02 1.125631e+02 1.410244e+02 1.055807e+02 1.712191e+02 9.354914e+01 8.360507e+01 9.923983e+01 1.207870e+02 1.585952e+02 3.508505e+00 1.602775e+02 1.141285e+02 1.590466e+02 1.040047e+02 9.226976e+01 4.150461e+01 1.094680e+02 1.130558e+02 1.712375e+02 1.450361e+02 9.830383e+01 1.250468e+02 6.322088e+01 7.377849e+01 6.454967e+01 5.265007e+00 2.572197e+00 3.213198e+00 2.894385e+00 3.190725e+00 5.446461e+00
<VARIANCE> 33
 1.888868e+03 3.089048e+02 1.473091e+02 2.235239e+02 2.769684e+03 4.643958e+01 2.436584e+03 2.148292e+03 2.752621e+03 7.540128e+02 3.271480e+02 1.571251e+01 1.851745e+02 7.547624e+02 8.429617e+01 1.345140e+03 1.087241e+03 2.721251e+03 1.999974e+03 1.464596e+03 3.200768e+01 6.076526e+02 1.279514e+03 1.666336e+03 2.495551e+03 2.415949e+03 2.071900e+03 2.709544e+00 1.489188e+00 7.842594e-01 4.830820e-01 1.466415e+00 2.580737e+00
<GCONST> 2.373834e+02
<STATE> 3
<NUMMIXES> 4
<MIXTURE> 1 2.917887e-01
<MEAN> 33
 9.455447e+01 1.381052e+02 1.104379e+02 1.421021e+02 9.134616e+01 1.739249e+02 8.221330e+01 7.978419e+01 7.928928e+01 1.160126e+02 1.643066e+02 1.926794e+00 1.650097e+02 1.121828e+02 1.626662e+02 8.804834e+01 8.681748e+01 3.655835e+00 9.424091e+01 1.340874e+02 1.720225e+02 1.478222e+02 8.373638e+01 1.146115e+02 6.701035e+01 6.713816e+01 1.746060e+01 4.323693e+00 3.380675e+00 3.482934e+00 3.279952e+00 3.875040e+00 4.442126e+00
<VARIANCE> 33
 1.757057e+02 6.235540e+01 1.686161e+02 1.303120e+02 3.980214e+02 2.295210e+01 1.529107e+03 1.569455e+03 3.068825e+03 1.474132e+02 5.965083e+01 3.479072e+00 7.102897e+01 1.712390e+02 2.254067e+01 5.344602e+01 4.518786e+01 3.148238e+01 8.040602e+02 5.659848e+02 2.626668e+01 4.273459e+02 7.669489e+02 2.260583e+03 2.409268e+03 2.185927e+03 2.072701e+02 5.079051e-01 8.876133e-01 3.404711e-01 3.757503e-01 1.397547e+00 5.262938e-01
<GCONST> 2.002486e+02
<MIXTURE> 2 2.240124e-01
<MEAN> 33
 7.248057e+01 1.295076e+02 1.128239e+02 1.361265e+02 6.457873e+01 1.754976e+02 3.057276e+01 2.447155e+01 3.669416e+01 9.522466e+01 1.562162e+02 2.605908e+00 1.605897e+02 9.464112e+01 1.614361e+02 6.627285e+01 6.586201e+01 2.750240e+00 1.197834e+02 1.018052e+02 1.705498e+02 1.389221e+02 8.779744e+01 1.476605e+02 4.650171e+01 4.114812e+01 1.910012e+01 4.420884e+00 3.045642e+00 3.988929e+00 3.800351e+00 3.657257e+00 3.966407e+00
<VARIANCE> 33
 2.024810e+02 3.603114e+01 5.090644e+01 2.943026e+01 2.076336e+02 2.085425e+01 3.720073e+02 2.973531e+02 8.184627e+02 1.263751e+02 9.930547e+01 7.925400e+00 5.746370e+01 1.099922e+02 3.099901e+01 4.369651e+01 4.285066e+01 3.148238e+01 6.313394e+02 6.609670e+02 2.798144e+01 4.070742e+02 6.007577e+02 4.170383e+02 6.513660e+02 6.136802e+02 2.481646e+02 4.257760e-01 7.004202e-01 1.696831e-01 1.035583e-01 6.311203e-01 2.291670e-01
<GCONST> 1.841702e+02
<MIXTURE> 3 2.554017e-01
<MEAN> 33
 7.816708e+01 1.403793e+02 1.090816e+02 1.398349e+02 7.555639e+01 1.753755e+02 3.118533e+01 3.303736e+01 4.664084e+01 1.090897e+02 1.597850e+02 8.323861e-01 1.618807e+02 1.064066e+02 1.592731e+02 7.521131e+01 7.474178e+01 2.169650e+00 1.028329e+02 1.283227e+02 1.720921e+02 1.338969e+02 1.012239e+02 1.124723e+02 6.112317e+01 6.293521e+01 1.585751e+01 4.355692e+00 3.671730e+00 3.682347e+00 3.518880e+00 3.623250e+00 4.366625e+00
<VARIANCE> 33
 8.894207e+01 4.104945e+01 4.562359e+01 5.105142e+01 2.536221e+02 9.690672e+00 3.898120e+02 3.828747e+02 1.130687e+03 5.875085e+01 3.512111e+01 5.357184e-01 4.806750e+01 6.508051e+01 2.627618e+01 3.071743e+01 2.601832e+01 3.148238e+01 3.597324e+02 2.801960e+02 2.135698e+01 3.018658e+02 3.254154e+02 2.090284e+03 2.655758e+03 2.482809e+03 1.611720e+02 4.614685e-01 5.210338e-01 1.231523e-01 8.687401e-02 3.165565e-01 3.496674e-01
<GCONST> 1.781573e+02
<MIXTURE> 4 2.287954e-01
<MEAN> 33
 7.122906e+01 1.202859e+02 1.147753e+02 1.336949e+02 5.865726e+01 1.702586e+02 2.168581e+01 1.680497e+01 2.320194e+01 1.141745e+02 1.379582e+02 3.518591e+00 1.413675e+02 1.144542e+02 1.542276e+02 6.543685e+01 6.568530e+01 2.436324e+00 1.428074e+02 9.009645e+01 1.721115e+02 1.069130e+02 1.277701e+02 1.033876e+02 8.722945e+01 8.654856e+01 1.092750e+01 3.993769e+00 2.545317e+00 3.945417e+00 3.842458e+00 3.118474e+00 3.919070e+00
<VARIANCE> 33
 7.207559e+02 2.631161e+02 1.406068e+02 8.434881e+01 5.212702e+02 6.321063e+01 3.457004e+02 1.841860e+02 4.314462e+02 3.998397e+02 1.890617e+02 4.237466e+01 1.923206e+02 3.763167e+02 9.779626e+01 1.101756e+02 1.038261e+02 3.148238e+01 2.642233e+02 2.434511e+02 6.709203e+01 1.619031e+02 2.812037e+02 2.022940e+03 2.314727e+03 2.416115e+03 1.233655e+02 4.166899e-01 4.132125e-01 3.901922e-01 3.212146e-01 7.632319e-01 4.713125e-01
<GCONST> 2.023715e+02
<STATE> 4
<NUMMIXES> 4
<MIXTURE> 1 4.669552e-01
<MEAN> 33
 1.722587e+02 1.382956e+02 1.106707e+02 1.387014e+02 1.733998e+02 1.761461e+02 1.346190e+02 1.343475e+02 9.103358e+01 1.641772e+02 1.742090e+02 1.289866e+00 1.748484e+02 1.665949e+02 1.612851e+02 1.660019e+02 1.659338e+02 1.023278e+01 1.214349e+02 1.542211e+02 1.693410e+02 1.569874e+02 1.315377e+02 1.510387e+02 8.538074e+01 9.556506e+01 1.545167e+02 4.832018e+00 2.845842e+00 2.782435e+00 2.535230e+00 2.533760e+00 4.666405e+00
<VARIANCE> 33
 3.902650e+01 2.275136e+01 8.078568e+01 2.914246e+01 3.345791e+01 1.188647e+01 2.822034e+01 2.062020e+01 4.042142e+01 1.036656e+02 1.900686e+01 2.382850e+00 1.624047e+01 9.146460e+01 4.713054e+01 8.067054e+01 8.775762e+01 8.740404e+01 1.527380e+03 2.359343e+02 3.308402e+01 1.728306e+02 1.292180e+03 8.452258e+02 1.217322e+03 1.322376e+03 2.587545e+02 2.761609e+00 1.512795e+00 3.372969e-01 1.970630e-01 9.043955e-01 2.394487e+00
<GCONST> 1.788891e+02
<MIXTURE> 2 1.340195e-01
<MEAN> 33
 1.678755e+02 1.380170e+02 1.096437e+02 1.397346e+02 1.681257e+02 1.748905e+02 1.374343e+02 1.325681e+02 8.999760e+01 1.634699e+02 1.666504e+02 1.348116e+00 1.667458e+02 1.638516e+02 1.619895e+02 1.409541e+02 1.408694e+02 9.442030e+00 1.345779e+02 1.330732e+02 1.705821e+02 1.451092e+02 1.337782e+02 1.297407e+02 7.396030e+01 9.829702e+01 1.022647e+02 6.137650e+00 2.307024e+00 2.703656e+00 2.647983e+00 2.387395e+00 6.037164e+00
<VARIANCE> 33
 9.822186e+01 5.910472e+01 5.696357e+01 5.166525e+01 8.592948e+01 1.931687e+01 1.033379e+02 8.123502e+01 2.732132e+02 1.525183e+02 5.502200e+01 1.703731e+00 5.913556e+01 1.538248e+02 4.129055e+01 1.793156e+02 2.471917e+02 7.020594e+01 1.335153e+03 6.818157e+02 3.671308e+01 3.894117e+02 1.107946e+03 2.273227e+03 2.500718e+03 2.169011e+03 6.816115e+02 8.563215e-01 2.267441e-01 2.238578e-01 1.271277e-01 1.879506e-01 7.518964e-01
<GCONST> 1.896230e+02
<MIXTURE> 3 1.340195e-01
<MEAN> 33
 1.678755e+02 1.380170e+02 1.096437e+02 1.397346e+02 1.681257e+02 1.748905e+02 1.374343e+02 1.325681e+02 8.999760e+01 1.634699e+02 1.666504e+02 1.348116e+00 1.667458e+02 1.638516e+02 1.619895e+02 1.409541e+02 1.408694e+02 9.442030e+00 1.345779e+02 1.330732e+02 1.705821e+02 1.451092e+02 1.337782e+02 1.297407e+02 7.396030e+01 9.829702e+01 1.022647e+02 6.137650e+00 2.307024e+00 2.703656e+00 2.647983e+00 2.387395e+00 6.037164e+00
<VARIANCE> 33
 9.822186e+01 5.910472e+01 5.696357e+01 5.166525e+01 8.592948e+01 1.931687e+01 1.033379e+02 8.123502e+01 2.732132e+02 1.525183e+02 5.502200e+01 1.703731e+00 5.913556e+01 1.538248e+02 4.129055e+01 1.793156e+02 2.471917e+02 7.020594e+01 1.335153e+03 6.818157e+02 3.671308e+01 3.894117e+02 1.107946e+03 2.273227e+03 2.500718e+03 2.169011e+03 6.816115e+02 8.563215e-01 2.267441e-01 2.238578e-01 1.271277e-01 1.879506e-01 7.518964e-01
<GCONST> 1.896230e+02
<MIXTURE> 4 2.650053e-01
<MEAN> 33
 1.359076e+02 1.330276e+02 1.127177e+02 1.385626e+02 1.289260e+02 1.720248e+02 1.275922e+02 1.220253e+02 8.370110e+01 1.361767e+02 1.629535e+02 2.969981e+00 1.612368e+02 1.335824e+02 1.610438e+02 1.098414e+02 1.067888e+02 1.049681e+01 1.135914e+02 1.200469e+02 1.707586e+02 1.376812e+02 9.954903e+01 1.274063e+02 6.146649e+01 7.107207e+01 4.610618e+01 4.715636e+00 2.803164e+00 3.305873e+00 3.218734e+00 3.247963e+00 5.060782e+00
<VARIANCE> 33
 5.774643e+02 1.308230e+02 1.268592e+02 1.262323e+02 7.580264e+02 4.731459e+01 1.208726e+03 1.236910e+03 2.265627e+03 3.373604e+02 1.036436e+02 3.169249e+01 1.375915e+02 4.208895e+02 6.947240e+01 4.094324e+02 4.067245e+02 2.433991e+02 1.481590e+03 1.188249e+03 4.299420e+01 6.804287e+02 1.503120e+03 1.840789e+03 2.150779e+03 2.066141e+03 1.205698e+03 1.562266e+00 5.902091e-01 4.299473e-01 3.875640e-01 8.696712e-01 1.252713e+00
<GCONST> 2.207504e+02
<TRANSP> 5
 0.000000e+00 1.000000e+00 0.000000e+00 0.000000e+00 0.000000e+00
 0.000000e+00 8.875083e-01 1.124917e-01 0.000000e+00 0.000000e+00
 0.000000e+00 0.000000e+00 9.593636e-01 4.063639e-02 0.000000e+00
 0.000000e+00 0.000000e+00 0.000000e+00 9.290670e-01 7.093301e-02
 0.000000e+00 0.000000e+00 0.000000e+00 0.000000e+00 0.000000e+00
<ENDHMM>
~h "FM"
<BEGINHMM>
<NUMSTATES> 5
<STATE> 2
<NUMMIXES> 4
<MIXTURE> 1 2.690900e-01
<MEAN> 33
 1.723265e+02 1.377407e+02 1.085732e+02 1.382474e+02 1.748042e+02 1.764959e+02 1.349391e+02 1.340643e+02 9.099664e+01 1.561946e+02 1.749958e+02 1.383343e+00 1.751643e+02 1.612259e+02 1.618401e+02 1.631068e+02 1.670594e+02 1.141885e+01 9.397813e+01 1.526625e+02 1.699084e+02 1.620015e+02 1.084546e+02 1.584394e+02 7.095676e+01 9.092555e+01 1.542238e+02 5.024978e+00 2.798656e+00 2.647550e+00 2.520220e+00 2.331035e+00 4.856522e+00
<VARIANCE> 33
 3.902650e+01 2.987413e+01 7.353143e+01 3.438355e+01 3.037716e+01 9.888467e+00 2.822034e+01 2.062020e+01 3.726300e+01 8.565004e+01 2.246342e+01 3.041319e+00 1.602164e+01 5.222490e+01 4.868246e+01 1.260412e+02 8.573402e+01 1.198628e+02 9.676535e+02 2.338172e+02 2.226009e+01 1.408669e+02 5.630238e+02 2.165453e+02 9.791451e+02 1.208597e+03 2.865380e+02 4.971011e+00 9.087031e-01 2.854269e-01 4.204096e-01 7.802058e-01 3.151718e+00
<GCONST> 1.766196e+02
<MIXTURE> 2 2.654384e-01
<MEAN> 33
 1.720001e+02 1.389371e+02 1.104526e+02 1.674755e+02 1.001324e+02 1.735016e+02 1.351386e+02 9.331097e+01 1.315373e+02 1.557440e+02 1.699846e+02 4.593104e+00 1.527254e+02 1.076373e+02 1.620763e+02 1.689371e+02 9.968391e+01 7.302602e+01 8.349870e+01 1.435130e+02 1.676919e+02 1.583668e+02 4.372956e+01 1.226155e+02 6.534766e+01 1.017559e+02 1.450089e+02 3.742326e+00 2.733648e+00 2.614332e+00 2.137109e+00 6.278038e+00 6.610366e+00
<VARIANCE> 33
 3.902650e+01 5.649951e+01 1.207763e+02 9.054414e+01 5.284124e+02 4.795945e+01 2.822034e+01 2.490997e+02 3.079799e+02 7.649948e+01 9.796873e+01 2.485619e+01 2.853994e+02 6.537568e+02 7.051878e+01 6.771007e+01 1.277645e+03 1.187985e+03 5.820533e+02 4.622110e+02 5.531508e+01 1.420578e+02 1.967283e+02 2.260784e+03 2.251406e+03 1.777226e+03 4.291771e+02 2.173204e+00 1.003787e+00 2.354308e-01 3.697212e-01 2.397435e+00 3.873587e+00
<GCONST> 2.056603e+02
<MIXTURE> 3 2.654384e-01
<MEAN> 33
 1.720001e+02 1.389371e+02 1.104526e+02 1.674755e+02 1.001324e+02 1.735016e+02 1.351386e+02 9.331097e+01 1.315373e+02 1.557440e+02 1.699846e+02 4.593104e+00 1.527254e+02 1.076373e+02 1.620763e+02 1.689371e+02 9.968391e+01 7.302602e+01 8.349870e+01 1.435130e+02 1.676919e+02 1.583668e+02 4.372956e+01 1.226155e+02 6.534766e+01 1.017559e+02 1.450089e+02 3.742326e+00 2.733648e+00 2.614332e+00 2.137109e+00 6.278038e+00 6.610366e+00
<VARIANCE> 33
 3.902650e+01 5.649951e+01 1.207763e+02 9.054414e+01 5.284124e+02 4.795945e+01 2.822034e+01 2.490997e+02 3.079799e+02 7.649948e+01 9.796873e+01 2.485619e+01 2.853994e+02 6.537568e+02 7.051878e+01 6.771007e+01 1.277645e+03 1.187985e+03 5.820533e+02 4.622110e+02 5.531508e+01 1.420578e+02 1.967283e+02 2.260784e+03 2.251406e+03 1.777226e+03 4.291771e+02 2.173204e+00 1.003787e+00 2.354308e-01 3.697212e-01 2.397435e+00 3.873587e+00
<GCONST> 2.056603e+02
<MIXTURE> 4 2.000327e-01
<MEAN> 33
 1.039808e+02 1.565482e+02 1.132978e+02 1.506640e+02 1.246456e+02 1.706933e+02 8.511343e+01 1.038491e+02 1.350683e+02 1.015693e+02 1.653666e+02 2.594853e+00 1.626491e+02 1.328826e+02 1.630938e+02 8.484974e+01 1.147160e+02 8.021088e+01 6.191437e+01 1.559136e+02 1.677237e+02 1.513501e+02 6.665359e+01 1.342452e+02 6.391638e+01 8.142266e+01 1.161025e+02 5.767791e+00 5.520076e+00 2.586471e+00 2.677947e+00 3.808290e+00 4.271414e+00
<VARIANCE> 33
 1.348875e+03 3.032419e+02 8.721169e+01 6.346750e+02 1.280568e+03 5.139216e+01 1.005559e+03 9.207325e+02 2.313466e+03 7.405121e+02 1.634945e+02 5.276350e+00 2.441104e+02 7.925380e+02 5.970913e+01 9.341788e+02 1.331201e+03 4.110042e+03 1.717450e+03 4.436692e+02 5.789967e+01 6.653810e+02 1.714298e+03 1.193868e+03 1.822413e+03 2.394219e+03 2.858598e+03 3.729850e+00 7.428470e+00 6.533414e-01 5.813438e-01 1.392407e+00 2.563018e+00
<GCONST> 2.345640e+02
<STATE> 3
<NUMMIXES> 4
<MIXTURE> 1 3.906364e-01
<MEAN> 33
 1.207207e+02 1.625612e+02 1.150585e+02 1.351869e+02 1.734224e+02 1.742231e+02 1.077729e+02 1.361546e+02 1.160725e+02 1.198908e+02 1.653815e+02 2.500596e+00 1.748673e+02 1.634433e+02 1.636642e+02 1.197310e+02 1.713551e+02 5.867628e+01 4.693546e+01 1.609622e+02 1.646255e+02 1.533078e+02 1.017942e+02 1.538479e+02 8.070802e+01 7.157830e+01 1.506666e+02 7.799524e+00 6.393664e+00 2.566302e+00 2.604340e+00 2.296575e+00 3.710423e+00
<VARIANCE> 33
 4.243948e+02 8.254279e+01 1.028346e+02 1.990644e+01 3.037716e+01 1.867991e+01 1.164123e+02 2.062020e+01 1.201422e+02 3.267279e+02 7.843718e+01 5.608675e+00 1.109383e+01 3.643998e+01 3.766109e+01 3.956872e+02 4.500473e+01 4.489999e+02 1.247108e+02 9.126952e+01 2.358141e+01 1.642626e+02 9.197869e+02 3.636976e+02 6.209290e+02 7.860997e+02 2.750798e+02 2.780084e+00 2.999853e+00 2.265654e-01 1.528359e-01 4.785091e-01 9.387610e-01
<GCONST> 1.820474e+02
<MIXTURE> 2 2.163251e-01
<MEAN> 33
 1.017217e+02 1.685883e+02 1.124096e+02 1.360783e+02 1.767249e+02 1.741103e+02 8.189046e+01 1.359839e+02 1.420982e+02 9.711108e+01 1.638805e+02 4.830507e+00 1.744584e+02 1.625097e+02 1.667305e+02 7.561361e+01 1.708012e+02 9.576279e+01 4.262929e+01 1.625702e+02 1.632658e+02 1.538443e+02 9.147858e+01 1.504386e+02 9.286037e+01 4.428620e+01 1.371449e+02 7.967437e+00 6.507757e+00 2.401446e+00 2.734163e+00 2.055133e+00 4.015019e+00
<VARIANCE> 33
 2.410710e+02 3.789003e+01 1.751819e+01 1.125423e+01 3.037716e+01 1.820054e+01 8.299928e+01 2.062020e+01 8.733437e+01 7.229292e+01 8.846388e+01 7.544087e+00 1.007718e+01 1.317438e+01 5.232331e+01 1.648619e+02 2.656648e+01 1.600993e+02 1.913619e+01 7.378347e+01 3.424561e+01 1.869787e+02 2.200000e+02 4.871076e+02 3.791160e+02 4.213521e+02 1.220973e+02 1.945354e+00 1.005848e+00 1.050430e-01 1.162519e-01 5.992885e-02 6.097754e-01
<GCONST> 1.637165e+02
<MIXTURE> 3 2.163251e-01
<MEAN> 33
 1.017217e+02 1.685883e+02 1.124096e+02 1.360783e+02 1.767249e+02 1.741103e+02 8.189046e+01 1.359839e+02 1.420982e+02 9.711108e+01 1.638805e+02 4.830507e+00 1.744584e+02 1.625097e+02 1.667305e+02 7.561361e+01 1.708012e+02 9.576279e+01 4.262929e+01 1.625702e+02 1.632658e+02 1.538443e+02 9.147858e+01 1.504386e+02 9.286037e+01 4.428620e+01 1.371449e+02 7.967437e+00 6.507757e+00 2.401446e+00 2.734163e+00 2.055133e+00 4.015019e+00
<VARIANCE> 33
 2.410710e+02 3.789003e+01 1.751819e+01 1.125423e+01 3.037716e+01 1.820054e+01 8.299928e+01 2.062020e+01 8.733437e+01 7.229292e+01 8.846388e+01 7.544087e+00 1.007718e+01 1.317438e+01 5.232331e+01 1.648619e+02 2.656648e+01 1.600993e+02 1.913619e+01 7.378347e+01 3.424561e+01 1.869787e+02 2.200000e+02 4.871076e+02 3.791160e+02 4.213521e+02 1.220973e+02 1.945354e+00 1.005848e+00 1.050430e-01 1.162519e-01 5.992885e-02 6.097754e-01
<GCONST> 1.637165e+02
<MIXTURE> 4 1.767118e-01
<MEAN> 33
 9.816759e+01 1.644090e+02 1.206787e+02 1.321351e+02 1.658842e+02 1.710266e+02 9.050183e+01 1.297685e+02 1.391174e+02 1.092477e+02 1.538094e+02 9.540748e+00 1.645921e+02 1.503653e+02 1.607571e+02 9.233165e+01 1.553982e+02 7.780470e+01 4.304846e+01 1.609720e+02 1.695228e+02 1.451167e+02 8.931474e+01 1.142062e+02 6.771373e+01 8.873781e+01 1.397639e+02 6.261235e+00 5.849072e+00 2.256659e+00 2.952696e+00 3.176764e+00 4.677618e+00
<VARIANCE> 33
 8.867369e+02 1.195829e+02 1.707414e+02 3.450703e+02 2.554059e+02 5.433822e+01 3.355285e+02 1.272588e+02 3.497476e+02 4.684942e+02 3.431963e+02 5.267573e+02 5.408649e+02 3.673157e+02 6.275323e+01 1.351751e+03 5.074351e+02 1.539227e+03 3.321274e+02 1.321062e+02 4.019477e+01 4.217490e+02 1.703214e+03 1.401488e+03 2.444323e+03 3.100657e+03 6.478358e+02 3.015763e+00 2.751534e+00 3.232217e-01 3.956033e-01 1.468501e+00 3.082439e+00
<GCONST> 2.236299e+02
<STATE> 4
<NUMMIXES> 4
<MIXTURE> 1 3.407474e-01
<MEAN> 33
 1.755807e+02 1.354913e+02 1.087613e+02 1.360708e+02 1.776834e+02 1.763000e+02 1.349752e+02 1.345721e+02 9.045277e+01 1.595731e+02 1.770893e+02 1.083182e+00 1.756073e+02 1.646373e+02 1.628013e+02 1.668776e+02 1.693137e+02 6.385043e+00 9.599350e+01 1.598900e+02 1.691346e+02 1.675218e+02 1.113592e+02 1.533356e+02 8.619214e+01 7.264055e+01 1.586438e+02 6.274676e+00 2.252090e+00 2.921131e+00 2.737602e+00 1.897362e+00 5.754941e+00
<VARIANCE> 33
 3.902650e+01 1.296200e+01 2.285095e+01 9.213917e+00 3.037716e+01 7.748785e+00 2.822034e+01 2.062020e+01 1.886277e+01 1.739437e+01 5.691536e+00 7.578003e-01 6.541692e+00 1.398052e+01 2.505140e+01 3.071743e+01 4.210355e+01 3.148238e+01 2.378008e+02 8.079678e+01 1.408007e+01 5.601565e+01 2.193553e+02 2.906134e+02 8.266482e+02 8.983837e+02 1.142470e+02 9.936070e-01 1.550737e-01 7.704128e-02 7.858485e-02 4.340473e-02 1.169958e+00
<GCONST> 1.455549e+02
<MIXTURE> 2 2.305554e-01
<MEAN> 33
 1.694795e+02 1.361975e+02 1.142269e+02 1.363879e+02 1.729037e+02 1.742920e+02 1.349544e+02 1.364023e+02 8.864333e+01 1.566626e+02 1.734279e+02 3.000045e+00 1.741206e+02 1.616404e+02 1.632787e+02 1.657541e+02 1.700426e+02 1.282237e+01 9.385959e+01 1.512468e+02 1.662686e+02 1.564332e+02 9.821733e+01 1.439937e+02 9.428908e+01 7.522391e+01 1.599758e+02 5.047091e+00 3.483535e+00 2.902409e+00 2.597423e+00 2.758340e+00 4.790124e+00
<VARIANCE> 33
 6.571910e+01 3.244974e+01 6.955878e+01 2.867408e+01 3.655893e+01 1.720313e+01 2.822034e+01 2.062020e+01 3.702275e+01 1.165825e+02 2.653666e+01 6.368657e+00 1.737357e+01 4.362191e+01 3.667813e+01 1.264981e+02 5.405133e+01 1.208910e+02 1.229163e+03 3.494271e+02 3.131779e+01 1.597953e+02 7.908682e+02 4.775148e+02 1.605489e+03 1.828550e+03 2.361163e+02 4.165221e+00 2.128316e+00 3.632943e-01 2.502516e-01 1.496088e+00 2.304420e+00
<GCONST> 1.817902e+02
<MIXTURE> 3 2.305554e-01
<MEAN> 33
 1.694795e+02 1.361975e+02 1.142269e+02 1.363879e+02 1.729037e+02 1.742920e+02 1.349544e+02 1.364023e+02 8.864333e+01 1.566626e+02 1.734279e+02 3.000045e+00 1.741206e+02 1.616404e+02 1.632787e+02 1.657541e+02 1.700426e+02 1.282237e+01 9.385959e+01 1.512468e+02 1.662686e+02 1.564332e+02 9.821733e+01 1.439937e+02 9.428908e+01 7.522391e+01 1.599758e+02 5.047091e+00 3.483535e+00 2.902409e+00 2.597423e+00 2.758340e+00 4.790124e+00
<VARIANCE> 33
 6.571910e+01 3.244974e+01 6.955878e+01 2.867408e+01 3.655893e+01 1.720313e+01 2.822034e+01 2.062020e+01 3.702275e+01 1.165825e+02 2.653666e+01 6.368657e+00 1.737357e+01 4.362191e+01 3.667813e+01 1.264981e+02 5.405133e+01 1.208910e+02 1.229163e+03 3.494271e+02 3.131779e+01 1.597953e+02 7.908682e+02 4.775148e+02 1.605489e+03 1.828550e+03 2.361163e+02 4.165221e+00 2.128316e+00 3.632943e-01 2.502516e-01 1.496088e+00 2.304420e+00
<GCONST> 1.817902e+02
<MIXTURE> 4 1.981407e-01
<MEAN> 33
 1.234612e+02 1.605906e+02 1.089410e+02 1.424083e+02 1.655780e+02 1.745461e+02 1.161732e+02 1.321824e+02 1.091968e+02 1.284251e+02 1.580404e+02 4.513020e+00 1.711127e+02 1.518645e+02 1.638468e+02 1.497101e+02 1.607544e+02 2.962659e+01 4.706627e+01 1.548114e+02 1.671318e+02 1.473242e+02 8.783768e+01 1.271084e+02 1.160076e+02 4.955351e+01 1.497096e+02 3.492800e+00 5.037363e+00 2.069826e+00 2.189464e+00 2.681763e+00 3.638835e+00
<VARIANCE> 33
 7.363947e+02 2.666976e+02 1.539106e+02 1.435593e+02 4.297105e+02 1.495673e+01 2.605870e+02 2.559366e+02 6.039401e+02 4.481077e+02 1.069787e+02 4.828240e+01 1.081667e+02 3.034137e+02 3.778321e+01 6.678123e+02 7.112557e+02 6.450399e+02 1.397371e+03 2.138649e+02 3.685865e+01 2.141962e+02 1.078949e+03 9.262146e+02 1.677149e+03 1.109955e+03 1.522092e+03 3.837220e+00 2.494086e+00 5.039193e-01 4.609236e-01 1.261407e+00 4.816711e+00
<GCONST> 2.171107e+02
<TRANSP> 5
 0.000000e+00 1.000000e+00 0.000000e+00 0.000000e+00 0.000000e+00
 0.000000e+00 9.335566e-01 6.644344e-02 0.000000e+00 0.000000e+00
 0.000000e+00 0.000000e+00 9.471190e-01 5.288097e-02 0.000000e+00
 0.000000e+00 0.000000e+00 0.000000e+00 9.192765e-01 8.072349e-02
 0.000000e+00 0.000000e+00 0.000000e+00 0.000000e+00 0.000000e+00
<ENDHMM>
~h "FN"
<BEGINHMM>
<NUMSTATES> 5
<STATE> 2
<NUMMIXES> 4
<MIXTURE> 1 3.189895e-01
<MEAN> 33
 1.729274e+02 1.369326e+02 1.091151e+02 1.376494e+02 1.745979e+02 1.754303e+02 1.350722e+02 1.342616e+02 9.066625e+01 1.570458e+02 1.753453e+02 1.725119e+00 1.749003e+02 1.629439e+02 1.619303e+02 1.634107e+02 1.663738e+02 1.299779e+01 9.770617e+01 1.527157e+02 1.694442e+02 1.625130e+02 1.155685e+02 1.580741e+02 6.964555e+01 9.382148e+01 1.544559e+02 4.904747e+00 2.672131e+00 2.771560e+00 2.526076e+00 2.376770e+00 4.943891e+00
<VARIANCE> 33
 3.902650e+01 2.451229e+01 7.426464e+01 3.022572e+01 3.037716e+01 1.345007e+01 2.822034e+01 2.062020e+01 3.506200e+01 1.194195e+02 2.132650e+01 5.374432e+00 1.925117e+01 6.988609e+01 5.042896e+01 1.628536e+02 8.944498e+01 1.475121e+02 1.058550e+03 2.696127e+02 2.563856e+01 1.331124e+02 7.723536e+02 2.964543e+02 9.504854e+02 1.258289e+03 3.640565e+02 5.525156e+00 1.276370e+00 3.392087e-01 3.845181e-01 6.764549e-01 2.789206e+00
<GCONST> 1.798768e+02
<MIXTURE> 2 2.514856e-01
<MEAN> 33
 1.711171e+02 1.403304e+02 1.097802e+02 1.486074e+02 3.053241e+01 1.747760e+02 1.344362e+02 2.376727e+01 1.539451e+02 1.569134e+02 1.705084e+02 2.863282e+00 1.415895e+02 7.549725e+01 1.665864e+02 1.685392e+02 4.105941e+01 1.294684e+02 8.894774e+01 1.510139e+02 1.697930e+02 1.297237e+02 1.005080e+02 1.045418e+02 6.951971e+01 7.648422e+01 1.048813e+02 3.612789e+00 2.502589e+00 2.517382e+00 3.109790e+00 3.658035e+00 7.026886e+00
<VARIANCE> 33
 3.902650e+01 3.759400e+01 1.152263e+02 2.530466e+02 8.876105e+02 1.515800e+01 2.822034e+01 3.192557e+02 1.239165e+02 5.045512e+01 7.168895e+01 9.879650e+00 6.680927e+02 5.709600e+02 4.054259e+01 8.953609e+01 1.934060e+02 2.402569e+02 5.108141e+02 2.452262e+02 5.069714e+01 6.016514e+02 1.029343e+03 2.568494e+03 2.719288e+03 1.880288e+03 3.819785e+02 1.049868e+00 3.044507e-01 1.888639e-01 6.695334e-01 1.242213e+00 1.152143e+00
<GCONST> 1.993275e+02
<MIXTURE> 3 2.514856e-01
<MEAN> 33
 1.711171e+02 1.403304e+02 1.097802e+02 1.486074e+02 3.053241e+01 1.747760e+02 1.344362e+02 2.376727e+01 1.539451e+02 1.569134e+02 1.705084e+02 2.863282e+00 1.415895e+02 7.549725e+01 1.665864e+02 1.685392e+02 4.105941e+01 1.294684e+02 8.894774e+01 1.510139e+02 1.697930e+02 1.297237e+02 1.005080e+02 1.045418e+02 6.951971e+01 7.648422e+01 1.048813e+02 3.612789e+00 2.502589e+00 2.517382e+00 3.109790e+00 3.658035e+00 7.026886e+00
<VARIANCE> 33
 3.902650e+01 3.759400e+01 1.152263e+02 2.530466e+02 8.876105e+02 1.515800e+01 2.822034e+01 3.192557e+02 1.239165e+02 5.045512e+01 7.168895e+01 9.879650e+00 6.680927e+02 5.709600e+02 4.054259e+01 8.953609e+01 1.934060e+02 2.402569e+02 5.108141e+02 2.452262e+02 5.069714e+01 6.016514e+02 1.029343e+03 2.568494e+03 2.719288e+03 1.880288e+03 3.819785e+02 1.049868e+00 3.044507e-01 1.888639e-01 6.695334e-01 1.242213e+00 1.152143e+00
<GCONST> 1.993275e+02
<MIXTURE> 4 1.780391e-01
<MEAN> 33
 1.293105e+02 1.349148e+02 1.111227e+02 1.442321e+02 1.004987e+02 1.731220e+02 1.032259e+02 8.608698e+01 1.223796e+02 1.296812e+02 1.648713e+02 4.909526e+00 1.616057e+02 1.115402e+02 1.620404e+02 1.204267e+02 9.631303e+01 7.469196e+01 8.139386e+01 1.207814e+02 1.676390e+02 1.510674e+02 7.880377e+01 1.331578e+02 6.533735e+01 7.312379e+01 8.839767e+01 4.619919e+00 2.686086e+00 3.026224e+00 2.935644e+00 3.603038e+00 5.642077e+00
<VARIANCE> 33
 2.497922e+03 1.286696e+02 8.633475e+01 1.726325e+02 3.761109e+03 4.216496e+01 2.394426e+03 2.528711e+03 1.564976e+03 1.304466e+03 1.607968e+02 7.649752e+01 3.870120e+02 1.395987e+03 4.832062e+01 2.304600e+03 2.290718e+03 1.872129e+03 1.744855e+03 1.396952e+03 6.267738e+01 3.163112e+02 1.245206e+03 1.930380e+03 2.480670e+03 1.930066e+03 1.375923e+03 4.642155e+00 1.374878e+00 4.669978e-01 3.242384e-01 1.429933e+00 4.569490e+00
<GCONST> 2.383137e+02
<STATE> 3
<NUMMIXES> 4
<MIXTURE> 1 2.607994e-01
<MEAN> 33
 8.808652e+01 1.398614e+02 1.121559e+02 1.349141e+02 1.747636e+02 1.764903e+02 6.633109e+01 1.359199e+02 1.461306e+02 1.142754e+02 1.521906e+02 2.039191e+00 1.748212e+02 1.625839e+02 1.671201e+02 7.950562e+01 1.643876e+02 8.847699e+01 1.176618e+02 1.274224e+02 1.705995e+02 1.630118e+02 1.083390e+02 1.301995e+02 5.113427e+01 8.441262e+01 1.016793e+02 8.413852e+00 2.786580e+00 3.223329e+00 2.522973e+00 2.101421e+00 3.451278e+00
<VARIANCE> 33
 2.189270e+03 1.777959e+02 6.279614e+01 1.631093e+01 3.037716e+01 8.764356e+00 1.301742e+03 2.062020e+01 7.094595e+02 4.234222e+02 3.598799e+02 3.121906e+00 1.305097e+01 2.623388e+01 6.283600e+01 3.159567e+02 7.216989e+01 3.899425e+02 2.236800e+03 7.189944e+02 2.930205e+01 1.670813e+02 5.582365e+02 1.749423e+03 1.146943e+03 2.642663e+03 4.535817e+02 1.155744e+00 1.185257e+00 2.528118e-01 8.101561e-02 1.437380e-01 5.935640e-01
<GCONST> 1.934352e+02
<MIXTURE> 2 4.461068e-01
<MEAN> 33
 2.294124e+01 1.315102e+02 1.112370e+02 1.357020e+02 1.749328e+02 1.753277e+02 1.009486e+01 1.348654e+02 1.442580e+02 6.682602e+01 1.440346e+02 1.474335e+00 1.743680e+02 1.627473e+02 1.667611e+02 3.859103e+01 1.622299e+02 1.242412e+02 1.225101e+02 1.040933e+02 1.698297e+02 1.659689e+02 1.092460e+02 1.226489e+02 6.246535e+01 8.035883e+01 8.441653e+01 6.447541e+00 2.999234e+00 3.324889e+00 2.871559e+00 2.197416e+00 3.650222e+00
<VARIANCE> 33
 1.384676e+02 1.396771e+02 4.708385e+01 1.839562e+01 3.037716e+01 1.570579e+01 4.176881e+01 2.062020e+01 5.941218e+01 2.162524e+02 3.488682e+02 1.380173e+00 1.439775e+01 2.027424e+01 4.492478e+01 7.015254e+01 8.114449e+01 1.181000e+02 6.619263e+02 3.672346e+02 3.300247e+01 9.103069e+01 3.792798e+02 2.359192e+03 2.131998e+03 2.512001e+03 1.687507e+02 1.214800e+00 1.002215e+00 4.738107e-01 2.937033e-01 1.267758e-01 9.188072e-01
<GCONST> 1.795578e+02
<MIXTURE> 3 1.591017e-01
<MEAN> 33
 1.848709e+01 1.406168e+02 1.273604e+02 1.284670e+02 1.683191e+02 1.766085e+02 1.376955e+01 1.375163e+02 1.509723e+02 6.969588e+01 1.370960e+02 7.436512e+00 1.691299e+02 1.632279e+02 1.665202e+02 3.806822e+01 1.704665e+02 1.425128e+02 9.916566e+01 1.164619e+02 1.707454e+02 1.513400e+02 1.043472e+02 1.251866e+02 5.588950e+01 1.146106e+02 1.092397e+02 6.656292e+00 4.274761e+00 3.999426e+00 2.687859e+00 2.858779e+00 3.695161e+00
<VARIANCE> 33
 1.685176e+02 4.113729e+02 6.237115e+01 3.756378e+01 3.037716e+01 1.039573e+01 6.883897e+01 2.062020e+01 8.564408e+01 1.620951e+02 1.560959e+02 7.254044e+01 1.728448e+02 7.683836e+01 2.773018e+01 7.256884e+01 5.609779e+01 1.427528e+02 4.356843e+02 4.799029e+02 3.308652e+01 1.311624e+02 1.210266e+03 9.909775e+02 1.103724e+03 3.193233e+03 2.849116e+02 2.134629e+00 5.153728e-01 4.364870e-01 6.566582e-02 1.951673e-01 3.320066e-01
<GCONST> 1.866886e+02
<MIXTURE> 4 1.339917e-01
<MEAN> 33
