~o
<STREAMINFO> 1 33
<VECSIZE> 33<NULLD><USER><DIAGC>
~h "BN"
<BEGINHMM>
<NUMSTATES> 5
<STATE> 2
<NUMMIXES> 4
<MIXTURE> 1 3.107876e-01
<MEAN> 33
 1.743873e+02 1.388270e+02 1.045973e+02 1.397277e+02 1.762000e+02 1.769607e+02 1.353557e+02 1.340964e+02 9.054787e+01 1.603625e+02 1.764967e+02 9.553824e-01 1.756488e+02 1.624428e+02 1.646079e+02 1.669131e+02 1.705743e+02 8.066804e+00 1.049945e+02 1.614265e+02 1.695231e+02 1.635803e+02 1.098368e+02 1.617604e+02 6.936013e+01 9.278629e+01 1.605829e+02 4.349380e+00 2.300793e+00 2.568745e+00 2.389284e+00 2.266644e+00 4.680253e+00
<VARIANCE> 33
 3.902650e+01 1.760494e+01 4.602275e+01 2.762746e+01 3.037716e+01 3.783361e+00 2.822034e+01 2.062020e+01 1.886277e+01 3.431767e+01 9.177373e+00 5.357184e-01 8.021186e+00 3.213522e+01 4.178593e+01 6.472311e+01 5.260704e+01 3.148238e+01 3.980597e+02 9.139471e+01 2.564635e+01 1.025192e+02 3.596330e+02 1.865943e+02 6.126655e+02 8.141034e+02 1.977686e+02 4.601376e+00 3.765247e-01 2.473868e-01 3.693397e-01 3.090392e-01 2.849856e+00
<GCONST> 1.603004e+02
<MIXTURE> 2 1.308778e-01
<MEAN> 33
 1.479853e+02 1.371543e+02 1.106197e+02 1.362252e+02 1.750468e+02 1.766899e+02 1.241541e+02 1.347243e+02 1.007231e+02 1.213889e+02 1.751172e+02 1.001806e+00 1.756128e+02 1.609443e+02 1.613575e+02 1.193158e+02 1.664419e+02 4.854071e+01 5.503261e+01 1.578371e+02 1.689336e+02 1.638067e+02 1.006285e+02 1.590008e+02 4.543564e+01 7.503556e+01 1.175528e+02 8.721192e+00 3.076028e+00 3.030006e+00 2.595259e+00 2.117319e+00 4.228425e+00
<VARIANCE> 33
 3.659909e+02 2.119763e+01 4.059141e+01 1.337179e+01 3.037716e+01 7.853131e+00 2.367678e+02 2.062020e+01 2.877070e+02 2.143777e+02 1.636647e+01 6.505876e-01 6.579026e+00 3.780564e+01 4.101117e+01 3.533861e+02 6.522603e+01 4.516548e+02 2.647395e+02 1.522362e+02 2.418349e+01 8.952535e+01 5.115038e+02 2.326470e+02 5.616209e+02 7.559038e+02 2.829430e+02 1.492118e+00 5.310107e-01 1.028996e-01 7.314424e-02 9.166253e-02 9.654374e-01
<GCONST> 1.696830e+02
<MIXTURE> 3 2.130270e-01
<MEAN> 33
 1.721877e+02 1.357923e+02 1.128614e+02 1.380201e+02 1.701250e+02 1.757599e+02 1.344446e+02 1.336875e+02 9.186791e+01 1.566826e+02 1.693924e+02 1.742612e+00 1.727862e+02 1.584413e+02 1.607292e+02 1.602189e+02 1.595205e+02 2.198698e+01 1.005712e+02 1.408256e+02 1.707329e+02 1.517999e+02 1.080517e+02 1.434899e+02 9.555065e+01 8.129087e+01 1.490036e+02 5.186155e+00 3.543541e+00 2.899008e+00 2.721025e+00 2.960406e+00 5.163586e+00
<VARIANCE> 33
 3.902650e+01 3.241069e+01 6.703943e+01 4.399257e+01 5.826673e+01 1.211124e+01 3.553685e+01 3.720059e+01 8.477029e+01 1.634001e+02 6.166594e+01 1.833626e+00 3.379567e+01 2.601790e+02 3.093775e+01 2.435511e+02 2.291004e+02 3.110113e+02 1.890677e+03 3.824359e+02 3.659756e+01 2.414914e+02 1.813586e+03 8.175328e+02 2.296854e+03 2.203063e+03 6.118829e+02 3.845935e+00 2.755784e+00 5.445922e-01 2.378509e-01 1.195976e+00 4.386521e+00
<GCONST> 1.935904e+02
<MIXTURE> 4 3.453076e-01
<MEAN> 33
 7.469114e+01 1.464871e+02 1.126244e+02 1.482674e+02 1.168304e+02 1.742275e+02 5.855819e+01 9.980718e+01 1.121617e+02 9.997998e+01 1.466009e+02 2.970991e+00 1.673418e+02 1.351495e+02 1.647742e+02 7.191875e+01 1.116626e+02 8.726775e+01 9.159382e+01 1.307237e+02 1.711367e+02 1.532040e+02 5.765541e+01 1.186125e+02 5.789357e+01 9.901469e+01 9.780525e+01 5.180170e+00 3.764089e+00 3.385440e+00 2.705953e+00 3.759641e+00 4.017615e+00
<VARIANCE> 33
 3.990734e+03 2.656027e+02 7.011010e+01 3.744301e+02 1.748242e+03 1.996334e+01 2.911298e+03 1.659403e+03 2.045158e+03 1.698098e+03 7.315245e+02 1.612059e+01 1.453017e+02 1.367796e+03 3.409077e+01 3.039987e+03 1.979685e+03 3.016810e+03 1.795458e+03 6.317750e+02 5.221323e+01 4.697542e+02 1.829480e+03 2.075820e+03 1.769274e+03 3.136793e+03 2.460502e+03 3.740304e+00 2.187548e+00 6.110883e-01 5.907555e-01 9.940832e-01 2.537871e+00
<GCONST> 2.388816e+02
<STATE> 3
<NUMMIXES> 4
<MIXTURE> 1 2.044244e-01
<MEAN> 33
 5.939085e+01 1.530749e+02 1.132657e+02 1.351835e+02 1.712992e+02 1.766133e+02 5.106920e+01 1.367354e+02 1.493992e+02 9.180798e+01 1.549919e+02 3.027876e+00 1.746616e+02 1.627280e+02 1.619536e+02 6.421049e+01 1.674775e+02 1.161222e+02 8.187517e+01 1.448196e+02 1.683373e+02 1.537253e+02 1.087518e+02 1.439422e+02 3.113000e+01 1.098505e+02 1.191522e+02 7.909477e+00 3.575036e+00 3.524387e+00 2.540059e+00 2.461977e+00 3.380527e+00
<VARIANCE> 33
 2.526761e+03 2.821450e+02 8.322029e+01 1.597756e+01 3.851952e+01 9.211445e+00 1.490563e+03 2.062020e+01 6.029095e+02 8.626259e+02 2.190407e+02 8.819954e+00 1.236643e+01 2.993681e+01 2.914302e+01 8.789208e+02 5.584827e+01 1.333740e+03 8.423389e+02 5.357964e+02 2.980238e+01 1.717332e+02 9.949693e+02 6.095090e+02 4.186211e+02 2.370162e+03 5.041721e+02 1.548730e+00 1.149098e+00 4.767193e-01 1.298271e-01 3.247307e-01 6.046121e-01
<GCONST> 1.966084e+02
<MIXTURE> 2 3.321680e-01
<MEAN> 33
 1.814887e+01 1.646413e+02 1.057258e+02 1.363397e+02 1.748436e+02 1.761771e+02 1.610165e+01 1.356230e+02 1.517239e+02 6.405059e+01 1.367067e+02 2.034739e+00 1.749421e+02 1.635898e+02 1.624702e+02 2.801339e+01 1.659498e+02 1.396137e+02 7.765732e+01 1.372352e+02 1.698287e+02 1.630642e+02 1.091334e+02 1.154903e+02 5.313249e+01 1.077579e+02 1.073944e+02 5.629411e+00 4.092330e+00 2.984670e+00 2.898619e+00 2.200013e+00 4.421617e+00
<VARIANCE> 33
 8.197131e+01 1.919191e+02 6.249206e+01 1.627878e+01 3.037716e+01 9.964534e+00 2.822034e+01 2.062020e+01 3.296734e+01 2.553101e+02 4.859540e+02 3.657108e+00 1.905149e+01 2.228004e+01 3.233125e+01 3.071743e+01 7.654725e+01 1.534958e+02 2.450925e+02 2.599748e+02 5.385562e+01 1.121168e+02 3.951696e+02 1.741794e+03 1.598688e+03 2.506678e+03 2.318700e+02 6.826335e-01 1.026973e+00 5.632153e-01 2.192947e-01 1.060917e-01 1.103290e+00
<GCONST> 1.774295e+02
<MIXTURE> 3 3.321680e-01
<MEAN> 33
 1.814887e+01 1.646413e+02 1.057258e+02 1.363397e+02 1.748436e+02 1.761771e+02 1.610165e+01 1.356230e+02 1.517239e+02 6.405059e+01 1.367067e+02 2.034739e+00 1.749421e+02 1.635898e+02 1.624702e+02 2.801339e+01 1.659498e+02 1.396137e+02 7.765732e+01 1.372352e+02 1.698287e+02 1.630642e+02 1.091334e+02 1.154903e+02 5.313249e+01 1.077579e+02 1.073944e+02 5.629411e+00 4.092330e+00 2.984670e+00 2.898619e+00 2.200013e+00 4.421617e+00
<VARIANCE> 33
 8.197131e+01 1.919191e+02 6.249206e+01 1.627878e+01 3.037716e+01 9.964534e+00 2.822034e+01 2.062020e+01 3.296734e+01 2.553101e+02 4.859540e+02 3.657108e+00 1.905149e+01 2.228004e+01 3.233125e+01 3.071743e+01 7.654725e+01 1.534958e+02 2.450925e+02 2.599748e+02 5.385562e+01 1.121168e+02 3.951696e+02 1.741794e+03 1.598688e+03 2.506678e+03 2.318700e+02 6.826335e-01 1.026973e+00 5.632153e-01 2.192947e-01 1.060917e-01 1.103290e+00
<GCONST> 1.774295e+02
<MIXTURE> 4 1.312391e-01
<MEAN> 33
 3.750659e+01 1.580321e+02 1.173161e+02 1.363286e+02 1.489476e+02 1.753076e+02 3.189202e+01 1.263399e+02 1.516279e+02 6.033159e+01 1.467850e+02 1.401993e+01 1.578324e+02 1.441040e+02 1.611497e+02 3.979343e+01 1.410722e+02 1.220200e+02 6.322438e+01 1.530864e+02 1.580689e+02 1.525761e+02 8.113740e+01 6.551641e+01 9.713792e+01 1.186914e+02 1.046749e+02 4.764306e+00 4.152887e+00 2.150026e+00 2.882754e+00 3.242902e+00 4.999696e+00
<VARIANCE> 33
 2.020687e+03 2.661615e+02 1.504908e+02 1.592149e+02 1.136812e+03 1.222218e+01 1.145607e+03 6.798578e+02 2.911082e+02 1.468738e+03 6.803041e+02 1.810307e+02 1.809042e+02 8.188640e+02 4.283598e+01 1.746090e+03 1.148895e+03 9.699437e+02 3.658964e+02 2.933889e+02 2.980234e+02 1.867951e+02 1.354134e+03 1.818127e+03 2.115445e+03 1.486566e+03 6.718406e+02 2.076092e+00 1.492757e+00 5.575653e-01 4.253643e-01 1.205778e+00 3.892071e+00
<GCONST> 2.287104e+02
<STATE> 4
<NUMMIXES> 4
<MIXTURE> 1 4.571853e-01
<MEAN> 33
 1.719860e+02 1.373733e+02 1.104390e+02 1.373925e+02 1.733163e+02 1.762237e+02 1.357637e+02 1.358011e+02 8.843520e+01 1.598115e+02 1.718364e+02 1.945081e+00 1.738460e+02 1.633268e+02 1.617116e+02 1.603852e+02 1.669923e+02 1.725440e+01 1.080463e+02 1.505332e+02 1.681352e+02 1.586068e+02 1.097005e+02 1.499400e+02 8.495755e+01 8.442985e+01 1.516389e+02 5.443962e+00 2.954348e+00 2.901212e+00 2.695797e+00 2.546776e+00 4.786558e+00
<VARIANCE> 33
 5.732122e+01 3.390975e+01 6.481549e+01 3.893152e+01 3.524997e+01 1.151705e+01 2.822034e+01 2.062020e+01 3.834490e+01 1.343074e+02 4.777704e+01 5.252858e+00 2.541465e+01 5.650761e+01 3.551403e+01 2.331801e+02 8.639034e+01 1.874342e+02 1.452078e+03 3.808214e+02 2.631296e+01 2.063322e+02 8.535266e+02 7.773870e+02 1.480745e+03 1.573477e+03 4.873899e+02 4.575264e+00 1.536551e+00 3.105578e-01 2.834871e-01 8.488272e-01 2.716693e+00
<GCONST> 1.849182e+02
<MIXTURE> 2 1.396887e-01
<MEAN> 33
 1.710456e+02 1.361390e+02 1.157137e+02 1.486967e+02 3.271524e+01 1.712564e+02 1.366985e+02 3.292880e+01 1.609572e+02 1.572318e+02 1.739337e+02 1.166994e+01 1.262952e+02 7.383296e+01 1.622593e+02 1.655460e+02 3.893326e+01 1.273065e+02 7.731770e+01 1.472677e+02 1.644431e+02 1.409456e+02 6.768723e+01 1.260554e+02 6.302096e+01 7.953191e+01 1.106672e+02 2.725925e+00 2.294424e+00 2.629915e+00 2.769531e+00 4.351867e+00 6.182621e+00
<VARIANCE> 33
 3.902650e+01 4.689032e+01 1.215018e+02 5.999629e+02 1.024588e+03 3.153444e+01 2.822034e+01 3.825220e+02 1.224301e+02 5.823817e+01 2.237009e+01 2.494636e+02 1.170395e+03 6.418511e+02 1.214107e+02 8.706445e+01 4.227215e+02 3.341095e+02 8.570967e+02 5.925342e+02 8.997034e+01 5.025481e+02 5.566580e+02 2.170488e+03 1.817681e+03 2.495866e+03 2.133699e+02 2.044261e+00 3.810864e-01 3.034513e-01 6.126285e-01 2.125208e+00 2.291243e+00
<GCONST> 2.093846e+02
<MIXTURE> 3 2.678615e-01
<MEAN> 33
 1.710967e+02 1.388892e+02 1.087674e+02 1.638753e+02 1.921416e+01 1.760686e+02 1.354263e+02 2.030317e+01 1.557294e+02 1.583627e+02 1.697046e+02 1.727882e+00 1.439040e+02 5.664598e+01 1.646861e+02 1.671120e+02 2.659514e+01 1.418949e+02 9.203495e+01 1.546201e+02 1.680953e+02 1.440239e+02 7.076881e+01 9.454098e+01 1.017643e+02 7.674972e+01 1.158681e+02 4.526181e+00 2.651598e+00 2.640780e+00 2.769234e+00 4.282955e+00 5.931640e+00
<VARIANCE> 33
 3.902650e+01 3.779109e+01 7.934987e+01 1.549601e+02 1.350792e+02 9.320427e+00 2.822034e+01 3.009510e+01 3.984048e+01 3.756242e+01 8.425069e+01 2.057300e+00 5.810189e+02 2.394532e+02 4.569857e+01 8.819277e+01 3.944390e+01 1.053880e+02 4.658937e+02 1.783266e+02 6.306956e+01 3.895297e+02 3.471682e+02 3.098374e+03 2.039672e+03 2.468285e+03 1.888825e+02 1.513523e+00 2.431559e-01 2.633402e-01 8.037312e-01 9.395137e-01 1.612457e+00
<GCONST> 1.860502e+02
<MIXTURE> 4 1.352635e-01
<MEAN> 33
 1.254840e+02 1.449548e+02 1.119765e+02 1.427112e+02 1.072790e+02 1.748797e+02 1.020560e+02 8.512221e+01 1.039339e+02 1.219998e+02 1.612727e+02 6.037391e+00 1.550893e+02 1.128925e+02 1.655978e+02 1.145174e+02 9.154058e+01 5.814044e+01 8.288657e+01 1.428393e+02 1.689926e+02 1.459960e+02 8.785992e+01 1.033881e+02 9.994813e+01 6.620514e+01 1.078819e+02 4.600567e+00 3.058835e+00 2.585099e+00 2.839848e+00 3.500200e+00 5.699078e+00
<VARIANCE> 33
 2.922756e+03 1.856800e+02 1.363618e+02 1.154416e+03 3.663845e+03 1.795823e+01 1.904428e+03 2.373265e+03 1.422697e+03 2.045726e+03 2.634549e+02 8.607174e+01 7.573605e+02 1.817755e+03 4.357911e+01 2.942862e+03 2.892108e+03 1.622491e+03 1.624807e+03 3.652585e+02 5.633706e+01 1.204823e+03 1.590172e+03 2.602344e+03 2.731229e+03 2.066267e+03 1.965416e+03 3.184306e+00 9.140343e-01 4.969283e-01 8.935359e-01 1.869685e+00 5.298059e+00
<GCONST> 2.437444e+02
<TRANSP> 5
 0.000000e+00 1.000000e+00 0.000000e+00 0.000000e+00 0.000000e+00
 0.000000e+00 8.570682e-01 1.429318e-01 0.000000e+00 0.000000e+00
 0.000000e+00 0.000000e+00 9.544053e-01 4.559469e-02 0.000000e+00
 0.000000e+00 0.000000e+00 0.000000e+00 9.514133e-01 4.858672e-02
 0.000000e+00 0.000000e+00 0.000000e+00 0.000000e+00 0.000000e+00
<ENDHMM>
~h "BS"
<BEGINHMM>
<NUMSTATES> 5
<STATE> 2
<NUMMIXES> 4
<MIXTURE> 1 2.607950e-01
<MEAN> 33
 1.732470e+02 1.369856e+02 1.079345e+02 1.380822e+02 1.749816e+02 1.763508e+02 1.354289e+02 1.346980e+02 8.987307e+01 1.566893e+02 1.751276e+02 1.049618e+00 1.749610e+02 1.600875e+02 1.625082e+02 1.606830e+02 1.655499e+02 9.874191e+00 1.002803e+02 1.584013e+02 1.701248e+02 1.625132e+02 1.050181e+02 1.592552e+02 7.477867e+01 8.196721e+01 1.489283e+02 5.291687e+00 2.639043e+00 2.693821e+00 2.550335e+00 2.245738e+00 4.842850e+00
<VARIANCE> 33
 3.902650e+01 2.161705e+01 5.624026e+01 3.115004e+01 3.037716e+01 1.143589e+01 2.822034e+01 2.062020e+01 2.660394e+01 1.126975e+02 2.009315e+01 1.255024e+00 1.735948e+01 7.517370e+01 4.159869e+01 1.359825e+02 1.028356e+02 8.128538e+01 9.108268e+02 2.122513e+02 2.537453e+01 1.756820e+02 6.203044e+02 3.178426e+02 1.037985e+03 9.688276e+02 4.003083e+02 3.954512e+00 7.837550e-01 3.107676e-01 2.787019e-01 5.261975e-01 3.586468e+00
<GCONST> 1.750514e+02
<MIXTURE> 2 2.023570e-01
<MEAN> 33
 1.116962e+02 1.366421e+02 1.158123e+02 1.393194e+02 1.226610e+02 1.753772e+02 9.931030e+01 1.042929e+02 1.132789e+02 1.153581e+02 1.646143e+02 3.963184e+00 1.618089e+02 1.195881e+02 1.599741e+02 9.448489e+01 9.694726e+01 1.288099e+01 9.421073e+01 1.361685e+02 1.700029e+02 1.506766e+02 9.248725e+01 1.470880e+02 4.032048e+01 5.659576e+01 5.434075e+01 5.522357e+00 2.879746e+00 3.091083e+00 3.022956e+00 2.995502e+00 5.326393e+00
<VARIANCE> 33
 1.345950e+03 8.312164e+01 1.006295e+02 1.090169e+02 9.983583e+02 1.963998e+01 1.545305e+03 1.156538e+03 2.233840e+03 2.489766e+02 1.230807e+02 1.811131e+02 2.730305e+02 2.522967e+02 4.022020e+01 4.968161e+02 4.969861e+02 2.293553e+02 1.855863e+03 8.290371e+02 3.169509e+01 4.145453e+02 1.388452e+03 9.605703e+02 1.242054e+03 1.656135e+03 1.270873e+03 2.425807e+00 9.668804e-01 4.005876e-01 3.211563e-01 1.032223e+00 1.820855e+00
<GCONST> 2.207356e+02
<MIXTURE> 3 2.023570e-01
<MEAN> 33
 1.116962e+02 1.366421e+02 1.158123e+02 1.393194e+02 1.226610e+02 1.753772e+02 9.931030e+01 1.042929e+02 1.132789e+02 1.153581e+02 1.646143e+02 3.963184e+00 1.618089e+02 1.195881e+02 1.599741e+02 9.448489e+01 9.694726e+01 1.288099e+01 9.421073e+01 1.361685e+02 1.700029e+02 1.506766e+02 9.248725e+01 1.470880e+02 4.032048e+01 5.659576e+01 5.434075e+01 5.522357e+00 2.879746e+00 3.091083e+00 3.022956e+00 2.995502e+00 5.326393e+00
<VARIANCE> 33
 1.345950e+03 8.312164e+01 1.006295e+02 1.090169e+02 9.983583e+02 1.963998e+01 1.545305e+03 1.156538e+03 2.233840e+03 2.489766e+02 1.230807e+02 1.811131e+02 2.730305e+02 2.522967e+02 4.022020e+01 4.968161e+02 4.969861e+02 2.293553e+02 1.855863e+03 8.290371e+02 3.169509e+01 4.145453e+02 1.388452e+03 9.605703e+02 1.242054e+03 1.656135e+03 1.270873e+03 2.425807e+00 9.668804e-01 4.005876e-01 3.211563e-01 1.032223e+00 1.820855e+00
<GCONST> 2.207356e+02
<MIXTURE> 4 3.344902e-01
<MEAN> 33
 7.372188e+01 1.332944e+02 1.106820e+02 1.386498e+02 7.029672e+01 1.739214e+02 3.593885e+01 3.549063e+01 5.095363e+01 1.053207e+02 1.515094e+02 2.285379e+00 1.539921e+02 1.063495e+02 1.626562e+02 6.829128e+01 6.927605e+01 7.266483e+00 1.136129e+02 1.095984e+02 1.689595e+02 1.263804e+02 9.899697e+01 1.285406e+02 6.189230e+01 5.678339e+01 2.200726e+01 4.021999e+00 3.026884e+00 3.732051e+00 3.531493e+00 3.496917e+00 4.030206e+00
<VARIANCE> 33
 4.945680e+02 9.643854e+01 7.104492e+01 9.652052e+01 5.666913e+02 3.621957e+01 5.228681e+02 5.992831e+02 1.382256e+03 4.305947e+02 3.161770e+02 1.208265e+01 3.221021e+02 4.152581e+02 3.981672e+01 1.561041e+02 1.645372e+02 4.678410e+01 7.648350e+02 5.779387e+02 1.237793e+02 5.545632e+02 5.857043e+02 2.036740e+03 2.333471e+03 2.343098e+03 3.067377e+02 5.693709e-01 9.890629e-01 4.203952e-01 2.798181e-01 1.065569e+00 5.508994e-01
<GCONST> 2.099930e+02
<STATE> 3
<NUMMIXES> 4
<MIXTURE> 1 1.974124e-01
<MEAN> 33
 1.518847e+02 1.568495e+02 1.109454e+02 1.599907e+02 1.549064e+02 1.753389e+02 9.389745e+01 9.253366e+01 1.645253e+02 1.206040e+02 1.699983e+02 2.285563e+00 1.621508e+02 1.097284e+02 1.645026e+02 1.031076e+02 9.300565e+01 5.287670e+01 1.248191e+02 1.604831e+02 1.638385e+02 1.534818e+02 1.198980e+02 1.396840e+02 7.533732e+01 9.693697e+01 1.541816e+02 6.400817e+00 3.586825e+00 1.819587e+00 1.673363e+00 4.016298e+00 6.328889e+00
<VARIANCE> 33
 3.299580e+02 9.597896e+01 8.429968e+01 8.657388e+01 2.426029e+02 1.330016e+01 1.190965e+02 1.214923e+02 1.189452e+02 7.086180e+02 7.008894e+01 4.902318e+00 2.142139e+02 9.806224e+02 5.657554e+01 1.492467e+03 2.380183e+03 1.686182e+03 5.935040e+02 1.295690e+02 8.475220e+01 1.689545e+02 4.541203e+02 1.506434e+03 1.072166e+03 1.123532e+03 3.482689e+02 2.371809e+00 2.561697e+00 1.247948e-01 1.337843e-01 3.621593e+00 2.882199e+00
<GCONST> 2.077202e+02
<MIXTURE> 2 2.780108e-01
<MEAN> 33
 1.370568e+02 1.394443e+02 1.159090e+02 1.397696e+02 1.487032e+02 1.756226e+02 9.115424e+01 9.462276e+01 1.661897e+02 1.024465e+02 1.724967e+02 3.153975e+00 1.722734e+02 1.062895e+02 1.600989e+02 9.077132e+01 9.542038e+01 1.006573e+01 9.910348e+01 1.498648e+02 1.695589e+02 1.545674e+02 9.856869e+01 1.431299e+02 4.919038e+01 8.061638e+01 1.166378e+02 8.118598e+00 2.192567e+00 2.399138e+00 2.291038e+00 2.377075e+00 7.912296e+00
<VARIANCE> 33
 4.706343e+02 5.385787e+01 1.235231e+02 6.749073e+01 3.980267e+02 1.471544e+01 8.035809e+01 7.502986e+01 1.002682e+02 1.639388e+02 3.879874e+01 1.262925e+01 3.828958e+01 1.952483e+02 3.966987e+01 1.780204e+02 2.363503e+02 6.613829e+01 1.063620e+03 4.828007e+02 4.011441e+01 2.896328e+02 7.588823e+02 9.410447e+02 1.391831e+03 1.249782e+03 3.694627e+02 7.842406e-01 5.490171e-01 7.681121e-02 7.696132e-02 5.848255e-01 6.327859e-01
<GCONST> 1.898411e+02
<MIXTURE> 3 2.780108e-01
<MEAN> 33
 1.370568e+02 1.394443e+02 1.159090e+02 1.397696e+02 1.487032e+02 1.756226e+02 9.115424e+01 9.462276e+01 1.661897e+02 1.024465e+02 1.724967e+02 3.153975e+00 1.722734e+02 1.062895e+02 1.600989e+02 9.077132e+01 9.542038e+01 1.006573e+01 9.910348e+01 1.498648e+02 1.695589e+02 1.545674e+02 9.856869e+01 1.431299e+02 4.919038e+01 8.061638e+01 1.166378e+02 8.118598e+00 2.192567e+00 2.399138e+00 2.291038e+00 2.377075e+00 7.912296e+00
<VARIANCE> 33
 4.706343e+02 5.385787e+01 1.235231e+02 6.749073e+01 3.980267e+02 1.471544e+01 8.035809e+01 7.502986e+01 1.002682e+02 1.639388e+02 3.879874e+01 1.262925e+01 3.828958e+01 1.952483e+02 3.966987e+01 1.780204e+02 2.363503e+02 6.613829e+01 1.063620e+03 4.828007e+02 4.011441e+01 2.896328e+02 7.588823e+02 9.410447e+02 1.391831e+03 1.249782e+03 3.694627e+02 7.842406e-01 5.490171e-01 7.681121e-02 7.696132e-02 5.848255e-01 6.327859e-01
<GCONST> 1.898411e+02
<MIXTURE> 4 2.465653e-01
<MEAN> 33
 1.064438e+02 1.549467e+02 1.071080e+02 1.618815e+02 1.147999e+02 1.675015e+02 7.118977e+01 7.123839e+01 1.421854e+02 6.865276e+01 1.684468e+02 2.649096e+00 1.667611e+02 6.137918e+01 1.629307e+02 3.898742e+01 3.282071e+01 1.611281e+01 1.322615e+02 1.605004e+02 1.667756e+02 1.613803e+02 1.252453e+02 1.309048e+02 8.146828e+01 7.897736e+01 1.485352e+02 6.337652e+00 2.939931e+00 1.931929e+00 1.693835e+00 3.330739e+00 6.943911e+00
<VARIANCE> 33
 4.680340e+02 1.252997e+02 2.831948e+01 1.128801e+02 4.482269e+02 9.707237e+01 5.773689e+01 8.892760e+01 2.385351e+02 9.091761e+02 9.934654e+01 4.512570e+00 1.495969e+02 6.650688e+02 3.642070e+01 4.763228e+02 5.209625e+02 1.702156e+02 6.409560e+02 1.461724e+02 5.053858e+01 2.440998e+02 4.212964e+02 1.380908e+03 1.619832e+03 1.431867e+03 6.755765e+02 2.113250e+00 2.916296e+00 2.712049e-01 1.726939e-01 3.182587e+00 1.622823e+00
<GCONST> 2.056914e+02
<STATE> 4
<NUMMIXES> 4
<MIXTURE> 1 4.249096e-01
<MEAN> 33
 1.742401e+02 1.365856e+02 1.090750e+02 1.382822e+02 1.739439e+02 1.768258e+02 1.358607e+02 1.354165e+02 8.872279e+01 1.622297e+02 1.748877e+02 9.304597e-01 1.748811e+02 1.653627e+02 1.615311e+02 1.653712e+02 1.683960e+02 8.602609e+00 1.084947e+02 1.605638e+02 1.683723e+02 1.659975e+02 1.150225e+02 1.589647e+02 8.358165e+01 7.790946e+01 1.557821e+02 5.499155e+00 2.358299e+00 2.975240e+00 2.698616e+00 2.173512e+00 5.130601e+00
<VARIANCE> 33
 3.902650e+01 2.119474e+01 3.841867e+01 1.831938e+01 3.037716e+01 5.473466e+00 2.822034e+01 2.062020e+01 4.049990e+01 5.445581e+01 1.553660e+01 5.357184e-01 1.029775e+01 5.325132e+01 3.107173e+01 7.166330e+01 6.432392e+01 3.299741e+01 7.834857e+02 1.104868e+02 1.836590e+01 9.090295e+01 6.870115e+02 1.666569e+02 6.380709e+02 6.738633e+02 2.262093e+02 2.188151e+00 2.611113e-01 2.720662e-01 1.694599e-01 1.622808e-01 2.168726e+00
<GCONST> 1.610470e+02
<MIXTURE> 2 1.969717e-01
<MEAN> 33
 1.669823e+02 1.411414e+02 1.121454e+02 1.431139e+02 1.661626e+02 1.759818e+02 1.265580e+02 1.255807e+02 1.078613e+02 1.397900e+02 1.711802e+02 1.457901e+00 1.689006e+02 1.422905e+02 1.623236e+02 1.368990e+02 1.371129e+02 1.080011e+01 9.213164e+01 1.597899e+02 1.656493e+02 1.631429e+02 9.639661e+01 1.555151e+02 5.694555e+01 5.956894e+01 1.142898e+02 6.710323e+00 2.565329e+00 2.575339e+00 2.526241e+00 2.530630e+00 6.917420e+00
<VARIANCE> 33
 6.869024e+01 5.715222e+01 5.589441e+01 8.027660e+01 7.590536e+01 9.299659e+00 1.806242e+02 1.434028e+02 5.664520e+02 2.131695e+02 4.253786e+01 1.418282e+00 5.762840e+01 1.995940e+02 4.278029e+01 2.222174e+02 2.211726e+02 7.286272e+01 6.154932e+02 1.640578e+02 5.819097e+01 1.305899e+02 5.134047e+02 2.913228e+02 7.082112e+02 5.997153e+02 4.935635e+02 1.579548e+00 4.114625e-01 1.257230e-01 1.591402e-01 3.027323e-01 1.360675e+00
<GCONST> 1.843600e+02
<MIXTURE> 3 2.248235e-01
<MEAN> 33
 1.709197e+02 1.394000e+02 1.123036e+02 1.420219e+02 1.688015e+02 1.745021e+02 1.341338e+02 1.322376e+02 9.362869e+01 1.584279e+02 1.720393e+02 2.746737e+00 1.696417e+02 1.619388e+02 1.620942e+02 1.631583e+02 1.595801e+02 1.493193e+01 1.097577e+02 1.454447e+02 1.670233e+02 1.501511e+02 1.238769e+02 1.424499e+02 8.524789e+01 1.039718e+02 1.470947e+02 4.638234e+00 3.665201e+00 2.621194e+00 2.493776e+00 3.112961e+00 4.812228e+00
<VARIANCE> 33
 7.574986e+01 6.648934e+01 9.316740e+01 9.978171e+01 7.624215e+01 2.114136e+01 6.231646e+01 7.367699e+01 2.153486e+02 1.868993e+02 4.299297e+01 8.051153e+00 6.132318e+01 1.768469e+02 4.341737e+01 1.585879e+02 1.911052e+02 1.717395e+02 1.846454e+03 3.055053e+02 4.824976e+01 2.859037e+02 1.470055e+03 1.629981e+03 1.666933e+03 1.494010e+03 4.848492e+02 3.131057e+00 3.076338e+00 3.603976e-01 2.626894e-01 1.296419e+00 3.043149e+00
<GCONST> 1.987625e+02
<MIXTURE> 4 1.532940e-01
<MEAN> 33
 1.261784e+02 1.368147e+02 1.154715e+02 1.420147e+02 1.061814e+02 1.708057e+02 1.067880e+02 8.714242e+01 1.069340e+02 1.186377e+02 1.670895e+02 4.437795e+00 1.618078e+02 1.002923e+02 1.599232e+02 1.033763e+02 7.749091e+01 3.415456e+01 1.007781e+02 1.296372e+02 1.689407e+02 1.444200e+02 9.439154e+01 1.309328e+02 5.564008e+01 7.787867e+01 8.308471e+01 5.621122e+00 2.922094e+00 2.931651e+00 2.836830e+00 3.664004e+00 5.787880e+00
<VARIANCE> 33
 1.697417e+03 1.236636e+02 1.537439e+02 2.193831e+02 2.698221e+03 5.393088e+01 1.971323e+03 2.599793e+03 2.907392e+03 1.399556e+03 7.865352e+01 1.922612e+01 1.701414e+02 1.425735e+03 7.377561e+01 1.871376e+03 1.573720e+03 2.142253e+03 1.698985e+03 1.005664e+03 6.361786e+01 5.806486e+02 1.206354e+03 1.573163e+03 2.020890e+03 2.033977e+03 2.622158e+03 2.056474e+00 1.070555e+00 7.138282e-01 7.128280e-01 1.393243e+00 2.298585e+00
<GCONST> 2.361764e+02
<TRANSP> 5
 0.000000e+00 1.000000e+00 0.000000e+00 0.000000e+00 0.000000e+00
 0.000000e+00 9.281867e-01 7.181337e-02 0.000000e+00 0.000000e+00
 0.000000e+00 0.000000e+00 9.351003e-01 6.489974e-02 0.000000e+00
 0.000000e+00 0.000000e+00 0.000000e+00 9.313262e-01 6.867379e-02
 0.000000e+00 0.000000e+00 0.000000e+00 0.000000e+00 0.000000e+00
<ENDHMM>
~h "CF"
<BEGINHMM>
<NUMSTATES> 5
<STATE> 2
<NUMMIXES> 4
<MIXTURE> 1 4.043722e-01
<MEAN> 33
 1.724998e+02 1.358943e+02 1.096186e+02 1.367116e+02 1.746966e+02 1.764592e+02 1.351614e+02 1.347783e+02 9.006032e+01 1.555708e+02 1.754684e+02 1.408290e+00 1.744139e+02 1.611764e+02 1.610108e+02 1.610882e+02 1.652447e+02 1.369006e+01 9.181427e+01 1.536243e+02 1.695215e+02 1.644448e+02 1.077455e+02 1.584682e+02 7.013847e+01 8.480933e+01 1.502611e+02 5.429606e+00 2.570868e+00 2.794356e+00 2.685602e+00 2.200411e+00 5.142207e+00
<VARIANCE> 33
 3.902650e+01 2.338653e+01 4.774484e+01 2.818525e+01 3.037716e+01 1.015698e+01 2.822034e+01 2.062020e+01 3.291425e+01 9.515048e+01 2.285801e+01 3.466095e+00 1.339973e+01 6.536254e+01 3.741805e+01 1.668508e+02 1.008836e+02 1.730338e+02 8.689372e+02 3.508180e+02 2.866800e+01 1.410843e+02 5.791119e+02 2.261869e+02 9.560665e+02 1.126553e+03 3.637784e+02 4.702495e+00 7.448329e-01 3.495783e-01 2.430543e-01 4.760479e-01 3.413801e+00
<GCONST> 1.762482e+02
<MIXTURE> 2 1.369013e-01
<MEAN> 33
 6.139561e+01 1.508784e+02 1.108943e+02 1.356954e+02 1.748839e+02 1.761967e+02 4.342406e+01 1.349570e+02 1.370661e+02 1.020497e+02 1.466259e+02 1.190673e+00 1.756849e+02 1.641493e+02 1.592726e+02 6.534945e+01 1.655659e+02 1.088182e+02 7.704971e+01 1.408181e+02 1.688039e+02 1.605307e+02 1.136799e+02 1.604727e+02 2.613234e+01 8.036442e+01 9.857378e+01 7.605650e+00 3.754036e+00 3.445260e+00 2.688545e+00 2.129137e+00 3.388877e+00
<VARIANCE> 33
 2.077000e+03 2.070139e+02 4.549417e+01 1.536162e+01 3.037716e+01 8.514633e+00 2.204130e+03 2.062020e+01 5.598715e+02 3.945591e+02 7.279240e+02 1.435313e+00 7.976165e+00 7.018056e+01 3.117892e+01 7.727233e+02 9.880582e+01 1.203568e+03 6.300040e+02 5.020938e+02 1.875984e+01 1.510099e+02 9.027352e+02 1.883555e+02 2.776117e+02 9.849402e+02 4.470738e+02 1.930728e+00 9.709163e-01 3.000923e-01 1.572517e-01 1.467716e-01 7.180393e-01
<GCONST> 1.904147e+02
<MIXTURE> 3 1.369013e-01
<MEAN> 33
 6.139561e+01 1.508784e+02 1.108943e+02 1.356954e+02 1.748839e+02 1.761967e+02 4.342406e+01 1.349570e+02 1.370661e+02 1.020497e+02 1.466259e+02 1.190673e+00 1.756849e+02 1.641493e+02 1.592726e+02 6.534945e+01 1.655659e+02 1.088182e+02 7.704971e+01 1.408181e+02 1.688039e+02 1.605307e+02 1.136799e+02 1.604727e+02 2.613234e+01 8.036442e+01 9.857378e+01 7.605650e+00 3.754036e+00 3.445260e+00 2.688545e+00 2.129137e+00 3.388877e+00
<VARIANCE> 33
 2.077000e+03 2.070139e+02 4.549417e+01 1.536162e+01 3.037716e+01 8.514633e+00 2.204130e+03 2.062020e+01 5.598715e+02 3.945591e+02 7.279240e+02 1.435313e+00 7.976165e+00 7.018056e+01 3.117892e+01 7.727233e+02 9.880582e+01 1.203568e+03 6.300040e+02 5.020938e+02 1.875984e+01 1.510099e+02 9.027352e+02 1.883555e+02 2.776117e+02 9.849402e+02 4.470738e+02 1.930728e+00 9.709163e-01 3.000923e-01 1.572517e-01 1.467716e-01 7.180393e-01
<GCONST> 1.904147e+02
<MIXTURE> 4 3.218256e-01
<MEAN> 33
 9.392955e+01 1.389320e+02 1.182454e+02 1.418516e+02 9.356982e+01 1.739771e+02 7.703065e+01 7.213332e+01 1.052316e+02 1.037659e+02 1.578367e+02 7.327368e+00 1.423785e+02 1.139527e+02 1.596002e+02 8.938185e+01 8.478650e+01 7.379808e+01 7.868917e+01 1.263357e+02 1.684474e+02 1.346863e+02 8.198260e+01 1.079744e+02 7.490031e+01 8.186452e+01 9.022659e+01 4.104601e+00 3.328621e+00 3.109949e+00 3.025426e+00 3.907407e+00 5.178009e+00
<VARIANCE> 33
 3.898485e+03 5.501266e+02 2.017399e+02 2.836453e+02 3.540541e+03 1.757330e+01 2.860966e+03 2.700232e+03 2.508276e+03 1.924381e+03 4.661988e+02 2.191227e+02 9.052545e+02 1.225495e+03 2.940998e+01 2.791266e+03 2.340521e+03 2.759065e+03 1.895680e+03 1.453834e+03 1.052570e+02 4.743397e+02 1.518783e+03 2.081689e+03 2.451119e+03 2.088066e+03 2.227029e+03 2.446757e+00 1.935397e+00 1.170769e+00 5.675471e-01 1.723688e+00 3.398036e+00
<GCONST> 2.476061e+02
<STATE> 3
<NUMMIXES> 4
<MIXTURE> 1 3.754875e-01
<MEAN> 33
 2.710167e+01 1.516201e+02 1.108932e+02 1.353631e+02 1.738842e+02 1.755564e+02 7.608494e+00 1.366026e+02 1.435247e+02 8.939479e+01 1.073852e+02 1.925310e+00 1.761089e+02 1.623189e+02 1.595896e+02 2.954189e+01 1.654653e+02 1.363738e+02 7.785760e+01 1.195366e+02 1.735309e+02 1.638419e+02 9.894289e+01 1.253104e+02 5.733100e+01 8.482318e+01 8.886658e+01 5.091274e+00 5.529749e+00 3.239054e+00 3.038570e+00 2.298169e+00 4.170189e+00
<VARIANCE> 33
 2.395193e+02 3.940471e+02 7.085582e+01 9.843396e+00 3.037716e+01 1.383705e+01 2.822034e+01 2.062020e+01 3.472759e+01 3.904859e+02 3.861693e+02 1.838563e+00 7.603190e+00 1.422021e+01 4.486729e+01 3.071743e+01 5.880026e+01 9.798930e+01 3.093288e+02 1.511418e+02 1.770998e+01 1.209144e+02 2.402247e+02 9.846273e+02 9.563113e+02 3.352755e+03 1.854355e+02 6.850109e-01 1.120670e+00 3.521997e-01 1.434074e-01 1.125809e-01 6.584011e-01
<GCONST> 1.728578e+02
<MIXTURE> 2 2.466787e-01
<MEAN> 33
 2.917960e+01 1.502753e+02 1.156580e+02 1.352780e+02 1.700506e+02 1.752236e+02 1.565089e+01 1.361804e+02 1.511734e+02 9.051720e+01 1.140923e+02 7.286896e+00 1.704370e+02 1.627661e+02 1.589676e+02 3.484457e+01 1.664115e+02 1.424927e+02 8.087637e+01 1.277310e+02 1.683109e+02 1.527756e+02 1.097547e+02 1.089035e+02 7.120610e+01 1.129846e+02 1.092779e+02 6.039301e+00 4.473030e+00 3.264629e+00 2.615129e+00 2.515365e+00 3.562315e+00
<VARIANCE> 33
 4.467615e+02 5.796394e+02 2.364738e+02 7.233154e+01 3.205789e+01 1.426676e+01 1.197977e+02 2.062020e+01 1.474686e+02 1.078787e+03 7.288959e+02 1.583926e+02 5.925606e+01 8.236411e+01 4.730010e+01 1.642817e+02 1.039677e+02 4.230251e+02 7.130871e+02 4.582640e+02 1.942699e+02 1.613598e+02 1.148606e+03 1.487239e+03 1.684206e+03 3.489783e+03 5.074632e+02 2.232807e+00 2.094782e+00 1.076093e+00 3.913079e-01 3.957131e-01 1.874355e+00
<GCONST> 2.081714e+02
<MIXTURE> 3 3.228367e-02
<MEAN> 33
 2.198622e+01 1.657010e+02 1.277966e+02 1.303463e+02 1.414194e+02 1.777992e+02 2.096668e+01 1.112577e+02 1.322244e+02 7.797176e+01 1.278268e+02 6.537694e+00 1.672132e+02 1.129937e+02 1.564006e+02 3.073722e+01 1.083686e+02 7.767194e+01 6.552590e+01 1.422462e+02 1.733003e+02 1.501218e+02 4.752241e+01 1.069881e+02 5.546534e+01 1.142689e+02 7.741374e+01 3.715258e+00 5.150496e+00 2.632378e+00 3.232971e+00 4.139782e+00 7.024394e+00
<VARIANCE> 33
 1.962302e+02 1.421909e+02 5.334470e+01 2.216665e+01 3.139863e+02 4.224239e+00 1.066325e+02 4.062259e+02 5.165609e+02 4.368477e+02 6.008307e+02 2.193669e+01 9.462486e+01 1.414654e+02 1.307544e+01 7.540998e+01 3.315485e+02 4.880402e+02 1.665381e+02 2.635934e+02 2.074013e+01 4.739238e+01 1.090985e+02 4.396823e+02 1.145714e+03 6.958965e+02 2.601042e+02 5.277991e-01 7.032679e-01 1.524301e-01 3.116507e-02 2.068276e-01 9.887100e-01
<GCONST> 1.856121e+02
<MIXTURE> 4 3.455487e-01
<MEAN> 33
 1.706939e+02 1.383726e+02 1.148035e+02 1.529837e+02 3.040963e+01 1.753832e+02 1.335398e+02 1.935935e+01 1.491257e+02 1.555565e+02 1.704182e+02 4.586303e+00 1.240641e+02 8.342432e+01 1.609505e+02 1.671068e+02 3.529128e+01 1.348474e+02 8.437709e+01 1.501476e+02 1.700935e+02 1.307801e+02 7.639699e+01 1.106476e+02 8.642282e+01 7.252682e+01 1.044646e+02 3.852730e+00 2.783020e+00 2.601933e+00 3.121444e+00 4.804819e+00 5.900930e+00
<VARIANCE> 33
 3.902650e+01 5.335234e+01 1.228249e+02 3.432702e+02 7.068155e+02 1.646144e+01 3.431230e+01 3.205000e+02 1.263080e+02 7.300580e+01 7.125874e+01 6.344794e+01 6.863195e+02 4.526049e+02 6.090693e+01 9.837165e+01 2.761792e+02 3.500123e+02 5.778170e+02 2.204209e+02 6.366685e+01 4.039545e+02 4.589628e+02 2.215951e+03 2.935666e+03 2.151207e+03 3.449569e+02 1.449381e+00 3.777364e-01 2.973692e-01 6.805863e-01 1.752005e+00 2.006526e+00
<GCONST> 2.042781e+02
<STATE> 4
<NUMMIXES> 4
<MIXTURE> 1 4.035414e-01
<MEAN> 33
 1.733619e+02 1.380188e+02 1.090798e+02 1.370282e+02 1.750545e+02 1.762735e+02 1.350789e+02 1.349753e+02 8.994581e+01 1.610184e+02 1.738659e+02 1.082145e+00 1.761888e+02 1.628071e+02 1.624289e+02 1.655013e+02 1.682355e+02 1.387099e+01 1.068117e+02 1.553710e+02 1.693158e+02 1.629767e+02 1.049900e+02 1.558636e+02 8.598952e+01 7.781235e+01 1.597435e+02 5.308229e+00 2.684089e+00 2.822127e+00 2.781743e+00 2.273916e+00 5.286891e+00
<VARIANCE> 33
 3.902650e+01 2.701433e+01 4.396325e+01 1.782127e+01 3.037716e+01 8.740130e+00 2.822034e+01 2.062020e+01 2.319305e+01 7.161925e+01 2.378800e+01 6.859177e-01 7.248932e+00 2.801558e+01 3.599766e+01 8.214204e+01 5.681183e+01 1.107207e+02 8.880857e+02 2.060155e+02 2.234150e+01 1.020560e+02 4.540926e+02 2.612697e+02 9.203960e+02 8.626976e+02 2.071846e+02 3.063899e+00 7.394394e-01 3.205138e-01 3.882735e-01 2.417539e-01 2.197305e+00
<GCONST> 1.670345e+02
<MIXTURE> 2 1.814128e-01
<MEAN> 33
 1.704801e+02 1.410357e+02 1.129081e+02 1.366873e+02 1.710150e+02 1.747547e+02 1.333178e+02 1.359482e+02 9.073408e+01 1.556440e+02 1.668743e+02 2.861818e+00 1.706100e+02 1.620823e+02 1.624780e+02 1.607173e+02 1.640855e+02 2.173951e+01 1.011080e+02 1.410751e+02 1.695102e+02 1.483232e+02 1.150507e+02 1.313610e+02 7.148538e+01 1.098762e+02 1.514272e+02 4.993127e+00 3.961731e+00 2.658041e+00 2.631272e+00 3.223343e+00 4.458797e+00
<VARIANCE> 33
 7.022176e+01 6.973418e+01 1.121423e+02 6.177056e+01 4.087602e+01 1.356943e+01 3.809050e+01 2.062020e+01 6.020196e+01 1.744560e+02 8.520384e+01 1.041810e+01 6.734868e+01 1.151532e+02 2.527191e+01 2.556823e+02 1.300749e+02 2.424626e+02 1.703168e+03 3.515861e+02 3.900599e+01 2.922017e+02 1.467860e+03 1.781919e+03 1.805465e+03 1.994801e+03 4.408776e+02 4.291570e+00 3.263542e+00 3.880824e-01 2.866461e-01 1.925749e+00 3.058622e+00
<GCONST> 1.959340e+02
<MIXTURE> 3 1.814128e-01
<MEAN> 33
 1.704801e+02 1.410357e+02 1.129081e+02 1.366873e+02 1.710150e+02 1.747547e+02 1.333178e+02 1.359482e+02 9.073408e+01 1.556440e+02 1.668743e+02 2.861818e+00 1.706100e+02 1.620823e+02 1.624780e+02 1.607173e+02 1.640855e+02 2.173951e+01 1.011080e+02 1.410751e+02 1.695102e+02 1.483232e+02 1.150507e+02 1.313610e+02 7.148538e+01 1.098762e+02 1.514272e+02 4.993127e+00 3.961731e+00 2.658041e+00 2.631272e+00 3.223343e+00 4.458797e+00
<VARIANCE> 33
 7.022176e+01 6.973418e+01 1.121423e+02 6.177056e+01 4.087602e+01 1.356943e+01 3.809050e+01 2.062020e+01 6.020196e+01 1.744560e+02 8.520384e+01 1.041810e+01 6.734868e+01 1.151532e+02 2.527191e+01 2.556823e+02 1.300749e+02 2.424626e+02 1.703168e+03 3.515861e+02 3.900599e+01 2.922017e+02 1.467860e+03 1.781919e+03 1.805465e+03 1.994801e+03 4.408776e+02 4.291570e+00 3.263542e+00 3.880824e-01 2.866461e-01 1.925749e+00 3.058622e+00
<GCONST> 1.959340e+02
<MIXTURE> 4 2.336317e-01
<MEAN> 33
 1.299119e+02 1.477736e+02 1.163039e+02 1.367261e+02 1.594021e+02 1.749904e+02 1.099829e+02 1.302886e+02 1.156470e+02 1.400334e+02 1.579554e+02 3.102396e+00 1.716372e+02 1.509864e+02 1.605760e+02 1.159921e+02 1.474622e+02 6.460822e+01 9.273065e+01 1.422040e+02 1.714173e+02 1.549674e+02 9.444184e+01 1.364436e+02 4.780195e+01 8.745668e+01 1.098408e+02 6.971857e+00 3.279249e+00 2.903599e+00 2.690374e+00 2.732934e+00 4.880467e+00
<VARIANCE> 33
 1.608424e+03 2.304944e+02 1.063863e+02 8.500473e+01 5.924592e+02 1.378949e+01 1.199172e+03 3.473110e+02 1.143077e+03 5.899720e+02 3.048550e+02 1.544997e+01 8.465105e+01 3.825659e+02 3.713927e+01 1.267629e+03 8.588401e+02 8.844958e+02 1.352167e+03 5.268342e+02 2.673002e+01 2.701441e+02 8.743278e+02 1.052104e+03 1.262957e+03 2.372861e+03 1.012543e+03 5.443413e+00 1.243214e+00 3.327298e-01 2.261640e-01 1.222146e+00 4.881962e+00
<GCONST> 2.201331e+02
<TRANSP> 5
 0.000000e+00 1.000000e+00 0.000000e+00 0.000000e+00 0.000000e+00
 0.000000e+00 8.754708e-01 1.245293e-01 0.000000e+00 0.000000e+00
 0.000000e+00 0.000000e+00 9.601572e-01 3.984280e-02 0.000000e+00
 0.000000e+00 0.000000e+00 0.000000e+00 9.386242e-01 6.137583e-02
 0.000000e+00 0.000000e+00 0.000000e+00 0.000000e+00 0.000000e+00
<ENDHMM>
~h "CN"
<BEGINHMM>
<NUMSTATES> 5
<STATE> 2
<NUMMIXES> 4
<MIXTURE> 1 3.811885e-01
<MEAN> 33
 1.731155e+02 1.376597e+02 1.068781e+02 1.393045e+02 1.744382e+02 1.760802e+02 1.350464e+02 1.342877e+02 9.066590e+01 1.557725e+02 1.759754e+02 1.472582e+00 1.748994e+02 1.596213e+02 1.627527e+02 1.630633e+02 1.665180e+02 9.804234e+00 9.364291e+01 1.534148e+02 1.702477e+02 1.617779e+02 1.033617e+02 1.550584e+02 7.300656e+01 8.558030e+01 1.530121e+02 4.778568e+00 2.746326e+00 2.589936e+00 2.450264e+00 2.362800e+00 4.710282e+00
<VARIANCE> 33
 3.902650e+01 2.376965e+01 6.711349e+01 3.311130e+01 3.037716e+01 1.186042e+01 2.822034e+01 2.062020e+01 2.870613e+01 7.448487e+01 2.154568e+01 3.118124e+00 1.602864e+01 7.640347e+01 4.503139e+01 1.040748e+02 9.937878e+01 8.154223e+01 7.511215e+02 2.194144e+02 2.476635e+01 1.454224e+02 6.136964e+02 3.820819e+02 1.486504e+03 1.486779e+03 3.234330e+02 4.418826e+00 1.130934e+00 3.275554e-01 3.481087e-01 6.797279e-01 3.446830e+00
<GCONST> 1.771234e+02
<MIXTURE> 2 1.756697e-01
<MEAN> 33
 1.012586e+02 1.398134e+02 1.076564e+02 1.437869e+02 9.383183e+01 1.734608e+02 8.973125e+01 7.301414e+01 1.018333e+02 1.051310e+02 1.684480e+02 1.532632e+00 1.700100e+02 1.022691e+02 1.640523e+02 9.336314e+01 9.186702e+01 1.751071e+01 6.993009e+01 1.453917e+02 1.706280e+02 1.600321e+02 5.971656e+01 1.498229e+02 5.138162e+01 4.149279e+01 4.521903e+01 4.399966e+00 3.136427e+00 3.091917e+00 2.992303e+00 3.761770e+00 4.397175e+00
<VARIANCE> 33
 1.229636e+03 4.708313e+01 7.763938e+01 8.052660e+01 1.818748e+03 2.648544e+01 2.320983e+03 2.323474e+03 2.495427e+03 4.159934e+02 9.843211e+01 2.704761e+00 6.285486e+01 5.368817e+02 3.606377e+01 6.088290e+02 7.999039e+02 5.943124e+02 8.392932e+02 5.527907e+02 2.956008e+01 2.273778e+02 4.525669e+02 8.692922e+02 1.666148e+03 1.155017e+03 1.365686e+03 2.118176e+00 6.683279e-01 2.632756e-01 2.975703e-01 1.703702e+00 2.113446e+00
<GCONST> 2.150874e+02
<MIXTURE> 3 1.756697e-01
<MEAN> 33
 1.012586e+02 1.398134e+02 1.076564e+02 1.437869e+02 9.383183e+01 1.734608e+02 8.973125e+01 7.301414e+01 1.018333e+02 1.051310e+02 1.684480e+02 1.532632e+00 1.700100e+02 1.022691e+02 1.640523e+02 9.336314e+01 9.186702e+01 1.751071e+01 6.993009e+01 1.453917e+02 1.706280e+02 1.600321e+02 5.971656e+01 1.498229e+02 5.138162e+01 4.149279e+01 4.521903e+01 4.399966e+00 3.136427e+00 3.091917e+00 2.992303e+00 3.761770e+00 4.397175e+00
<VARIANCE> 33
 1.229636e+03 4.708313e+01 7.763938e+01 8.052660e+01 1.818748e+03 2.648544e+01 2.320983e+03 2.323474e+03 2.495427e+03 4.159934e+02 9.843211e+01 2.704761e+00 6.285486e+01 5.368817e+02 3.606377e+01 6.088290e+02 7.999039e+02 5.943124e+02 8.392932e+02 5.527907e+02 2.956008e+01 2.273778e+02 4.525669e+02 8.692922e+02 1.666148e+03 1.155017e+03 1.365686e+03 2.118176e+00 6.683279e-01 2.632756e-01 2.975703e-01 1.703702e+00 2.113446e+00
<GCONST> 2.150874e+02
<MIXTURE> 4 2.674716e-01
<MEAN> 33
 5.900477e+01 1.229793e+02 1.200962e+02 1.272519e+02 6.821583e+01 1.665701e+02 1.986478e+01 3.083633e+01 4.606701e+01 8.273959e+01 1.368999e+02 1.104385e+01 1.426236e+02 1.067511e+02 1.685687e+02 4.444599e+01 5.187588e+01 1.256151e+01 1.072051e+02 9.730573e+01 1.640949e+02 1.124262e+02 9.148494e+01 9.622276e+01 1.072720e+02 1.068684e+02 4.314976e+01 3.936102e+00 3.268520e+00 3.451963e+00 3.373996e+00 3.475450e+00 3.602060e+00
<VARIANCE> 33
 7.466002e+02 3.852903e+02 2.062620e+02 5.251745e+02 9.151227e+02 6.402464e+01 2.232969e+02 6.760015e+02 8.159766e+02 8.956140e+02 3.344013e+02 5.012544e+02 4.214506e+02 1.464864e+03 7.674329e+01 1.623051e+02 3.456685e+02 2.492520e+02 6.428928e+02 4.717353e+02 2.118835e+02 3.779318e+02 3.260463e+02 3.122931e+03 2.110950e+03 2.463361e+03 7.436567e+02 8.156040e-01 2.064148e+00 7.439398e-01 4.560132e-01 1.138250e+00 9.500248e-01
<GCONST> 2.267143e+02
<STATE> 3
<NUMMIXES> 4
<MIXTURE> 1 2.792538e-01
<MEAN> 33
 6.402437e+01 1.321526e+02 1.113082e+02 1.392799e+02 4.989976e+01 1.739883e+02 2.717427e+01 1.834169e+01 3.099837e+01 8.623389e+01 1.548864e+02 2.340475e+00 1.566087e+02 8.472778e+01 1.626317e+02 5.887843e+01 5.631511e+01 8.297323e+00 1.089114e+02 1.061905e+02 1.721383e+02 1.285219e+02 9.343980e+01 1.103945e+02 7.308994e+01 7.710725e+01 2.116866e+01 3.780941e+00 2.941080e+00 3.622115e+00 3.359559e+00 3.219897e+00 3.796416e+00
<VARIANCE> 33
 2.385858e+02 1.026887e+02 1.447703e+02 1.068001e+02 3.676072e+02 2.485969e+01 3.436201e+02 2.894484e+02 5.546530e+02 5.023967e+02 7.753068e+01 7.254629e+00 9.763496e+01 3.689467e+02 6.289943e+01 2.267645e+02 1.417375e+02 7.258582e+01 4.691184e+02 4.287409e+02 3.611516e+01 4.220752e+02 5.283811e+02 2.768823e+03 2.179081e+03 2.281743e+03 3.986282e+02 5.294467e-01 1.262172e+00 5.154257e-01 5.613559e-01 1.613600e+00 5.387245e-01
<GCONST> 2.048600e+02
<MIXTURE> 2 2.702157e-01
<MEAN> 33
 4.824620e+01 1.347776e+02 1.150269e+02 1.367993e+02 4.499604e+01 1.754934e+02 6.717930e+00 5.138344e+00 6.836909e+00 7.440073e+01 1.573288e+02 1.524594e+00 1.582286e+02 7.591605e+01 1.592732e+02 5.059877e+01 5.018598e+01 2.476139e+00 9.782410e+01 1.205456e+02 1.736988e+02 1.319263e+02 8.802972e+01 1.353166e+02 4.505018e+01 4.511967e+01 5.575811e+00 3.493262e+00 3.503152e+00 3.971177e+00 3.828838e+00 3.690868e+00 3.455823e+00
<VARIANCE> 33
 6.327751e+01 4.466317e+01 6.099229e+01 4.938438e+01 6.253166e+01 1.661256e+01 2.822034e+01 2.062020e+01 2.951563e+01 7.609818e+01 6.414449e+01 3.325531e+00 7.950804e+01 7.815080e+01 5.083228e+01 3.347960e+01 2.939802e+01 3.148238e+01 4.161481e+02 4.410097e+02 2.087247e+01 4.123506e+02 3.680743e+02 1.027335e+03 1.003006e+03 1.023811e+03 2.147301e+01 9.899758e-02 5.428824e-01 2.660536e-01 1.592404e-01 7.539068e-01 1.220762e-01
<GCONST> 1.684650e+02
<MIXTURE> 3 2.702157e-01
<MEAN> 33
 4.824620e+01 1.347776e+02 1.150269e+02 1.367993e+02 4.499604e+01 1.754934e+02 6.717930e+00 5.138344e+00 6.836909e+00 7.440073e+01 1.573288e+02 1.524594e+00 1.582286e+02 7.591605e+01 1.592732e+02 5.059877e+01 5.018598e+01 2.476139e+00 9.782410e+01 1.205456e+02 1.736988e+02 1.319263e+02 8.802972e+01 1.353166e+02 4.505018e+01 4.511967e+01 5.575811e+00 3.493262e+00 3.503152e+00 3.971177e+00 3.828838e+00 3.690868e+00 3.455823e+00
<VARIANCE> 33
 6.327751e+01 4.466317e+01 6.099229e+01 4.938438e+01 6.253166e+01 1.661256e+01 2.822034e+01 2.062020e+01 2.951563e+01 7.609818e+01 6.414449e+01 3.325531e+00 7.950804e+01 7.815080e+01 5.083228e+01 3.347960e+01 2.939802e+01 3.148238e+01 4.161481e+02 4.410097e+02 2.087247e+01 4.123506e+02 3.680743e+02 1.027335e+03 1.003006e+03 1.023811e+03 2.147301e+01 9.899758e-02 5.428824e-01 2.660536e-01 1.592404e-01 7.539068e-01 1.220762e-01
<GCONST> 1.684650e+02
<MIXTURE> 4 1.803143e-01
<MEAN> 33
 3.859540e+01 1.390765e+02 1.005566e+02 1.404035e+02 2.682313e+01 1.738032e+02 9.963203e+00 7.437034e+00 7.483472e+00 5.925493e+01 1.667349e+02 1.131932e+00 1.696687e+02 5.861798e+01 1.675179e+02 4.225684e+01 4.125597e+01 4.026892e+00 1.079158e+02 1.173217e+02 1.657117e+02 1.316731e+02 1.003827e+02 4.444278e+01 1.282375e+02 1.259295e+02 8.828223e+00 3.404932e+00 3.276395e+00 3.520741e+00 3.470455e+00 3.269025e+00 3.253931e+00
<VARIANCE> 33
 1.193933e+02 9.884058e+01 5.245956e+01 6.431133e+01 9.712262e+01 1.542583e+01 4.249653e+01 2.592126e+01 2.494917e+01 5.004366e+01 7.544805e+01 1.244082e+00 3.982110e+01 5.052916e+01 3.547839e+01 4.053151e+01 2.601832e+01 3.148238e+01 3.630620e+02 4.958513e+02 1.195210e+02 2.382322e+02 2.545423e+02 1.114596e+03 1.224949e+03 1.098990e+03 4.452454e+01 1.072873e-01 3.980526e-01 1.967781e-01 1.417086e-01 4.245992e-01 8.977064e-02
<GCONST> 1.685459e+02
<STATE> 4
<NUMMIXES> 4
<MIXTURE> 1 4.652683e-01
<MEAN> 33
 1.726804e+02 1.370292e+02 1.128794e+02 1.374912e+02 1.727071e+02 1.756684e+02 1.347061e+02 1.342354e+02 9.105846e+01 1.625940e+02 1.745535e+02 1.652477e+00 1.744051e+02 1.644290e+02 1.601896e+02 1.655622e+02 1.654492e+02 9.223241e+00 1.151328e+02 1.503704e+02 1.712666e+02 1.560824e+02 1.232849e+02 1.499393e+02 7.827004e+01 9.728578e+01 1.534607e+02 5.004530e+00 2.859634e+00 2.707531e+00 2.583012e+00 2.745666e+00 4.878633e+00
<VARIANCE> 33
 3.902650e+01 2.516546e+01 5.903819e+01 3.292206e+01 3.037716e+01 1.402894e+01 2.822034e+01 2.062020e+01 5.347525e+01 1.273508e+02 2.195892e+01 2.471832e+00 2.034337e+01 1.194014e+02 4.514550e+01 8.596898e+01 9.161932e+01 5.387519e+01 1.527908e+03 2.903097e+02 2.363078e+01 2.270966e+02 1.436275e+03 8.508092e+02 1.434477e+03 1.799121e+03 2.948729e+02 2.819347e+00 1.585783e+00 2.435419e-01 1.979169e-01 1.523335e+00 2.225256e+00
<GCONST> 1.806595e+02
<MIXTURE> 2 1.205220e-01
<MEAN> 33
 1.518778e+02 1.439885e+02 1.201412e+02 1.427910e+02 1.613941e+02 1.757654e+02 1.051967e+02 1.115401e+02 1.371072e+02 1.282946e+02 1.695783e+02 2.459228e+00 1.674513e+02 1.321481e+02 1.641704e+02 1.135763e+02 1.252949e+02 1.768158e+01 1.198260e+02 1.512792e+02 1.709059e+02 1.485054e+02 1.096549e+02 1.256429e+02 6.083718e+01 1.214734e+02 1.152873e+02 7.406519e+00 2.797051e+00 2.354288e+00 2.214913e+00 2.802804e+00 6.880771e+00
<VARIANCE> 33
 9.830984e+02 4.777348e+01 6.862677e+01 6.434921e+01 3.211392e+02 1.186529e+01 4.104289e+02 2.121896e+02 6.506072e+02 1.040957e+03 5.646293e+01 4.459855e+00 7.481773e+01 9.886060e+02 1.680096e+01 7.925405e+02 7.176194e+02 1.898930e+02 1.557929e+03 2.954010e+02 4.226080e+01 2.346291e+02 1.941199e+03 2.007409e+03 1.834078e+03 1.415123e+03 6.284197e+02 1.115409e+00 8.570789e-01 1.023983e-01 5.648003e-02 4.538475e-01 1.344784e+00
<GCONST> 2.038432e+02
<MIXTURE> 3 1.853456e-01
<MEAN> 33
 1.598625e+02 1.344847e+02 1.119759e+02 1.360518e+02 1.600736e+02 1.749011e+02 1.456087e+02 1.418548e+02 7.245955e+01 1.554573e+02 1.680106e+02 1.189337e+00 1.662606e+02 1.585948e+02 1.615289e+02 1.360167e+02 1.374303e+02 5.492921e+00 1.166589e+02 1.331386e+02 1.734178e+02 1.415228e+02 1.153697e+02 1.343230e+02 5.340765e+01 7.449248e+01 7.844695e+01 5.677026e+00 2.370781e+00 2.947154e+00 2.922619e+00 2.532694e+00 5.505086e+00
<VARIANCE> 33
 1.378788e+02 3.875455e+01 5.267965e+01 3.803297e+01 1.419895e+02 1.711530e+01 1.019470e+02 6.328247e+01 2.519704e+02 1.885044e+02 4.707711e+01 8.884011e-01 4.971367e+01 1.701403e+02 5.804984e+01 1.580043e+02 1.679875e+02 3.148238e+01 1.231851e+03 7.816320e+02 2.535992e+01 4.351614e+02 8.196071e+02 1.471197e+03 1.628180e+03 1.968524e+03 8.172441e+02 8.985266e-01 2.139244e-01 1.412423e-01 1.050668e-01 2.290832e-01 8.598934e-01
<GCONST> 1.859373e+02
<MIXTURE> 4 2.288637e-01
<MEAN> 33
 1.113611e+02 1.326037e+02 1.131676e+02 1.356135e+02 1.165930e+02 1.737218e+02 1.110290e+02 1.106386e+02 6.645232e+01 1.287517e+02 1.614824e+02 2.032021e+00 1.619967e+02 1.339742e+02 1.640132e+02 9.717576e+01 1.002512e+02 9.750056e+00 1.200169e+02 1.132069e+02 1.725726e+02 1.309629e+02 1.095704e+02 1.188407e+02 7.226955e+01 8.364180e+01 2.398142e+01 4.460332e+00 2.905411e+00 3.454113e+00 3.418897e+00 3.274213e+00 4.518289e+00
<VARIANCE> 33
 1.204792e+03 9.487961e+01 8.275352e+01 7.713293e+01 1.093577e+03 2.217677e+01 3.040331e+03 2.537395e+03 2.659450e+03 6.043911e+02 9.798760e+01 7.469400e+00 7.856113e+01 5.657338e+02 6.801427e+01 4.465831e+02 5.219811e+02 4.004326e+02 1.069474e+03 6.872938e+02 3.619989e+01 4.581466e+02 8.218298e+02 2.114526e+03 2.184371e+03 2.294266e+03 4.452400e+02 1.129454e+00 4.762017e-01 2.517016e-01 2.403896e-01 7.072093e-01 1.324330e+00
<GCONST> 2.167993e+02
<TRANSP> 5
 0.000000e+00 1.000000e+00 0.000000e+00 0.000000e+00 0.000000e+00
 0.000000e+00 9.181179e-01 8.188213e-02 0.000000e+00 0.000000e+00
 0.000000e+00 0.000000e+00 9.634748e-01 3.652528e-02 0.000000e+00
 0.000000e+00 0.000000e+00 0.000000e+00 9.217451e-01 7.825488e-02
 0.000000e+00 0.000000e+00 0.000000e+00 0.000000e+00 0.000000e+00
<ENDHMM>
~h "CP"
<BEGINHMM>
<NUMSTATES> 5
<STATE> 2
<NUMMIXES> 4
<MIXTURE> 1 3.244761e-01
<MEAN> 33
 1.734891e+02 1.369560e+02 1.097075e+02 1.374166e+02 1.740922e+02 1.755707e+02 1.343695e+02 1.337877e+02 9.184282e+01 1.564924e+02 1.749596e+02 1.720273e+00 1.744851e+02 1.595392e+02 1.629662e+02 1.625301e+02 1.631440e+02 8.548301e+00 9.640717e+01 1.511471e+02 1.699645e+02 1.597414e+02 1.065508e+02 1.544147e+02 7.680602e+01 8.454665e+01 1.487807e+02 5.332652e+00 2.795729e+00 2.700265e+00 2.599224e+00 2.552931e+00 5.278830e+00
<VARIANCE> 33
 3.902650e+01 3.311894e+01 5.156274e+01 2.738818e+01 3.037716e+01 1.523666e+01 2.822034e+01 2.062020e+01 5.327334e+01 1.199779e+02 2.083355e+01 3.348807e+00 1.808049e+01 9.381960e+01 3.798943e+01 1.071448e+02 1.005790e+02 5.213789e+01 1.200080e+03 2.946260e+02 2.216793e+01 1.930497e+02 8.956519e+02 4.806581e+02 1.316958e+03 1.423919e+03 3.283404e+02 3.462987e+00 1.334770e+00 2.358210e-01 1.710028e-01 1.024800e+00 3.094919e+00
<GCONST> 1.787142e+02
<MIXTURE> 2 2.097553e-01
<MEAN> 33
 1.683324e+02 1.470139e+02 1.044232e+02 1.460298e+02 1.672244e+02 1.720266e+02 1.169890e+02 1.169658e+02 1.257383e+02 1.375932e+02 1.666138e+02 2.162382e+00 1.679909e+02 1.376678e+02 1.664954e+02 1.350280e+02 1.324668e+02 1.656452e+01 1.010711e+02 1.441615e+02 1.700032e+02 1.465006e+02 9.929240e+01 1.019628e+02 7.611715e+01 8.798746e+01 1.227811e+02 6.748193e+00 2.690743e+00 2.300005e+00 2.331192e+00 2.757170e+00 6.729221e+00
<VARIANCE> 33
 8.514585e+01 1.125661e+02 7.956872e+01 1.060189e+02 9.416195e+01 3.511556e+01 1.888993e+02 1.855532e+02 6.215786e+02 4.826324e+02 1.056738e+02 8.553111e+00 8.203055e+01 4.788343e+02 5.995522e+01 6.270750e+02 5.272351e+02 1.941978e+02 2.235947e+03 3.408418e+02 5.099472e+01 3.399129e+02 1.806672e+03 2.968939e+03 2.835430e+03 2.457765e+03 8.296896e+02 2.565565e+00 8.586721e-01 1.259295e-01 1.514951e-01 9.147966e-01 2.683439e+00
<GCONST> 2.085002e+02
<MIXTURE> 3 2.097553e-01
<MEAN> 33
 1.683324e+02 1.470139e+02 1.044232e+02 1.460298e+02 1.672244e+02 1.720266e+02 1.169890e+02 1.169658e+02 1.257383e+02 1.375932e+02 1.666138e+02 2.162382e+00 1.679909e+02 1.376678e+02 1.664954e+02 1.350280e+02 1.324668e+02 1.656452e+01 1.010711e+02 1.441615e+02 1.700032e+02 1.465006e+02 9.929240e+01 1.019628e+02 7.611715e+01 8.798746e+01 1.227811e+02 6.748193e+00 2.690743e+00 2.300005e+00 2.331192e+00 2.757170e+00 6.729221e+00
<VARIANCE> 33
 8.514585e+01 1.125661e+02 7.956872e+01 1.060189e+02 9.416195e+01 3.511556e+01 1.888993e+02 1.855532e+02 6.215786e+02 4.826324e+02 1.056738e+02 8.553111e+00 8.203055e+01 4.788343e+02 5.995522e+01 6.270750e+02 5.272351e+02 1.941978e+02 2.235947e+03 3.408418e+02 5.099472e+01 3.399129e+02 1.806672e+03 2.968939e+03 2.835430e+03 2.457765e+03 8.296896e+02 2.565565e+00 8.586721e-01 1.259295e-01 1.514951e-01 9.147966e-01 2.683439e+00
<GCONST> 2.085002e+02
<MIXTURE> 4 2.560129e-01
<MEAN> 33
 1.176458e+02 1.407450e+02 1.104305e+02 1.445125e+02 1.157552e+02 1.725303e+02 9.419993e+01 8.897411e+01 1.245550e+02 1.024258e+02 1.678291e+02 2.701241e+00 1.656489e+02 1.004272e+02 1.647946e+02 9.419943e+01 8.645725e+01 2.728096e+01 7.599171e+01 1.358034e+02 1.699214e+02 1.478828e+02 8.434224e+01 1.270281e+02 5.892008e+01 7.015121e+01 9.058495e+01 5.783125e+00 3.167477e+00 2.775882e+00 2.688020e+00 3.406212e+00 5.825103e+00
<VARIANCE> 33
 2.018253e+03 1.987780e+02 7.242025e+01 2.145824e+02 2.435610e+03 3.926499e+01 1.541484e+03 1.147760e+03 2.021899e+03 8.714182e+02 1.049900e+02 7.027827e+00 1.400490e+02 1.012026e+03 6.677303e+01 1.286592e+03 1.171022e+03 1.729812e+03 1.976300e+03 9.361739e+02 4.264802e+01 5.347944e+02 1.586204e+03 2.489083e+03 2.532078e+03 1.857661e+03 1.748549e+03 2.978175e+00 1.741855e+00 7.493697e-01 5.411425e-01 1.456521e+00 3.411637e+00
<GCONST> 2.326191e+02
<STATE> 3
<NUMMIXES> 4
<MIXTURE> 1 4.780506e-01
<MEAN> 33
 1.547948e+02 1.390505e+02 1.163115e+02 1.388673e+02 1.558367e+02 1.756498e+02 1.274909e+02 1.237420e+02 1.087671e+02 1.281673e+02 1.744175e+02 2.667078e+00 1.748931e+02 1.260273e+02 1.628036e+02 1.302614e+02 1.294722e+02 8.210255e+00 5.483346e+01 1.566609e+02 1.643862e+02 1.560813e+02 5.601008e+01 1.579480e+02 3.927251e+01 6.365657e+01 1.017378e+02 6.286870e+00 3.202651e+00 2.863612e+00 2.735227e+00 3.339013e+00 6.423338e+00
<VARIANCE> 33
 1.603047e+02 2.288640e+01 1.075171e+02 3.524751e+01 1.672632e+02 1.686952e+01 1.036732e+02 7.991871e+01 2.850448e+02 1.324180e+02 1.768706e+01 6.277047e+00 2.097355e+01 1.475467e+02 3.437009e+01 2.197721e+02 2.620614e+02 6.416785e+01 4.388134e+02 1.673058e+02 1.799597e+01 1.550900e+02 3.512728e+02 3.003043e+02 5.980991e+02 5.397657e+02 4.609367e+02 8.707160e-01 5.211053e-01 7.502685e-02 8.488706e-02 7.970647e-01 6.886018e-01
<GCONST> 1.790866e+02
<MIXTURE> 2 1.214573e-01
<MEAN> 33
 1.124004e+02 1.531946e+02 1.233356e+02 1.442171e+02 1.286104e+02 1.751293e+02 1.024336e+02 1.006431e+02 1.517628e+02 1.144483e+02 1.713290e+02 5.380840e+00 1.682002e+02 1.153164e+02 1.550447e+02 9.832372e+01 9.757575e+01 6.846630e+00 5.958642e+01 1.689997e+02 1.660719e+02 1.668348e+02 6.603014e+01 1.564508e+02 2.939419e+01 5.946400e+01 8.262311e+01 5.919288e+00 4.005526e+00 2.862787e+00 2.973004e+00 3.655415e+00 5.683397e+00
<VARIANCE> 33
 2.977821e+02 1.442899e+02 6.185922e+01 7.937182e+01 3.318524e+02 1.755965e+01 2.151370e+02 1.307600e+02 3.156613e+02 1.388274e+02 4.237686e+01 2.625249e+01 6.627676e+01 1.303045e+02 3.667907e+01 1.206849e+02 1.305824e+02 3.148238e+01 1.695703e+02 7.937164e+01 1.692039e+01 1.109402e+02 3.214353e+02 3.062895e+02 6.200098e+02 8.964169e+02 2.736541e+02 3.688129e-01 4.090689e-01 1.238422e-01 9.537326e-02 4.506280e-01 4.777194e-01
<GCONST> 1.817312e+02
<MIXTURE> 3 1.214573e-01
<MEAN> 33
 1.124004e+02 1.531946e+02 1.233356e+02 1.442171e+02 1.286104e+02 1.751293e+02 1.024336e+02 1.006431e+02 1.517628e+02 1.144483e+02 1.713290e+02 5.380840e+00 1.682002e+02 1.153164e+02 1.550447e+02 9.832372e+01 9.757575e+01 6.846630e+00 5.958642e+01 1.689997e+02 1.660719e+02 1.668348e+02 6.603014e+01 1.564508e+02 2.939419e+01 5.946400e+01 8.262311e+01 5.919288e+00 4.005526e+00 2.862787e+00 2.973004e+00 3.655415e+00 5.683397e+00
<VARIANCE> 33
 2.977821e+02 1.442899e+02 6.185922e+01 7.937182e+01 3.318524e+02 1.755965e+01 2.151370e+02 1.307600e+02 3.156613e+02 1.388274e+02 4.237686e+01 2.625249e+01 6.627676e+01 1.303045e+02 3.667907e+01 1.206849e+02 1.305824e+02 3.148238e+01 1.695703e+02 7.937164e+01 1.692039e+01 1.109402e+02 3.214353e+02 3.062895e+02 6.200098e+02 8.964169e+02 2.736541e+02 3.688129e-01 4.090689e-01 1.238422e-01 9.537326e-02 4.506280e-01 4.777194e-01
<GCONST> 1.817312e+02
<MIXTURE> 4 2.790334e-01
<MEAN> 33
 1.466858e+02 1.394211e+02 1.124429e+02 1.400438e+02 1.559366e+02 1.760207e+02 8.930370e+01 9.244839e+01 1.561177e+02 1.001141e+02 1.730757e+02 1.214784e+00 1.748006e+02 9.994101e+01 1.620856e+02 8.734650e+01 9.062680e+01 9.700200e+00 5.283746e+01 1.480212e+02 1.659045e+02 1.464648e+02 5.141019e+01 1.594491e+02 5.745444e+01 3.675806e+01 9.411363e+01 6.046628e+00 3.135936e+00 2.725138e+00 2.649659e+00 3.104230e+00 6.397584e+00
<VARIANCE> 33
 5.789048e+02 3.800528e+01 1.938291e+01 1.609480e+01 3.618359e+02 8.250431e+00 2.638914e+02 2.009820e+02 2.257824e+02 1.885241e+02 2.768510e+01 8.645722e-01 1.615730e+01 1.263416e+02 3.470241e+01 3.053961e+02 2.327264e+02 7.183620e+01 3.921101e+02 1.620600e+02 1.876218e+01 1.259473e+02 1.818511e+02 1.739973e+02 4.138954e+02 3.258105e+02 2.764648e+02 1.033955e+00 3.510892e-01 6.698570e-02 5.958618e-02 2.092228e-01 7.224265e-01
<GCONST> 1.739171e+02
<STATE> 4
<NUMMIXES> 4
<MIXTURE> 1 3.969865e-01
<MEAN> 33
 1.750311e+02 1.378435e+02 1.065340e+02 1.392357e+02 1.755958e+02 1.757336e+02 1.346558e+02 1.340442e+02 9.130002e+01 1.627543e+02 1.765750e+02 1.154864e+00 1.755844e+02 1.659585e+02 1.623631e+02 1.686405e+02 1.708732e+02 7.423890e+00 1.087237e+02 1.600083e+02 1.679381e+02 1.625832e+02 1.204429e+02 1.597980e+02 7.916939e+01 9.113631e+01 1.627195e+02 5.001455e+00 2.429924e+00 2.853599e+00 2.594660e+00 2.086881e+00 4.522940e+00
<VARIANCE> 33
 3.902650e+01 1.225216e+01 4.555206e+01 2.188564e+01 3.037716e+01 1.122126e+01 2.822034e+01 2.062020e+01 1.886277e+01 4.231758e+01 7.405591e+00 6.347541e-01 6.341167e+00 4.266150e+01 2.024607e+01 3.735911e+01 4.437093e+01 3.164330e+01 6.145878e+02 1.057639e+02 1.744046e+01 8.052541e+01 6.632371e+02 2.353769e+02 6.402495e+02 6.936751e+02 1.286712e+02 2.558159e+00 3.242890e-01 2.423223e-01 2.102712e-01 2.228434e-01 2.508446e+00
<GCONST> 1.580322e+02
<MIXTURE> 2 1.457385e-01
<MEAN> 33
 1.723046e+02 1.336931e+02 1.133794e+02 1.366616e+02 1.715761e+02 1.748178e+02 1.378734e+02 1.353600e+02 8.676656e+01 1.605479e+02 1.700892e+02 2.363720e+00 1.707992e+02 1.615588e+02 1.617314e+02 1.589272e+02 1.623502e+02 1.269146e+01 1.105318e+02 1.530311e+02 1.640384e+02 1.616255e+02 1.121144e+02 1.620301e+02 6.656622e+01 8.829082e+01 1.436546e+02 5.846061e+00 2.450225e+00 3.272298e+00 2.718709e+00 2.442848e+00 5.474794e+00
<VARIANCE> 33
 3.923069e+01 2.830824e+01 8.035858e+01 2.538811e+01 3.859158e+01 1.732312e+01 2.822034e+01 2.062020e+01 5.542144e+01 1.136628e+02 2.908704e+01 5.534724e+00 3.266818e+01 1.105755e+02 3.812143e+01 1.459950e+02 1.480442e+02 1.139128e+02 1.452719e+03 4.905279e+02 2.295348e+01 1.695038e+02 1.050297e+03 2.181363e+02 6.541263e+02 7.096214e+02 5.163986e+02 2.132194e+00 7.293485e-01 4.502030e-01 2.193802e-01 3.745413e-01 2.167753e+00
<GCONST> 1.798317e+02
<MIXTURE> 3 1.457385e-01
<MEAN> 33
 1.723046e+02 1.336931e+02 1.133794e+02 1.366616e+02 1.715761e+02 1.748178e+02 1.378734e+02 1.353600e+02 8.676656e+01 1.605479e+02 1.700892e+02 2.363720e+00 1.707992e+02 1.615588e+02 1.617314e+02 1.589272e+02 1.623502e+02 1.269146e+01 1.105318e+02 1.530311e+02 1.640384e+02 1.616255e+02 1.121144e+02 1.620301e+02 6.656622e+01 8.829082e+01 1.436546e+02 5.846061e+00 2.450225e+00 3.272298e+00 2.718709e+00 2.442848e+00 5.474794e+00
<VARIANCE> 33
 3.923069e+01 2.830824e+01 8.035858e+01 2.538811e+01 3.859158e+01 1.732312e+01 2.822034e+01 2.062020e+01 5.542144e+01 1.136628e+02 2.908704e+01 5.534724e+00 3.266818e+01 1.105755e+02 3.812143e+01 1.459950e+02 1.480442e+02 1.139128e+02 1.452719e+03 4.905279e+02 2.295348e+01 1.695038e+02 1.050297e+03 2.181363e+02 6.541263e+02 7.096214e+02 5.163986e+02 2.132194e+00 7.293485e-01 4.502030e-01 2.193802e-01 3.745413e-01 2.167753e+00
<GCONST> 1.798317e+02
<MIXTURE> 4 3.115364e-01
<MEAN> 33
 1.595175e+02 1.491724e+02 9.805644e+01 1.507625e+02 1.559799e+02 1.727324e+02 1.328115e+02 1.307068e+02 9.630554e+01 1.349084e+02 1.760835e+02 1.092302e+00 1.726819e+02 1.300169e+02 1.693666e+02 1.434516e+02 1.415086e+02 9.425882e+00 6.525579e+01 1.592886e+02 1.681783e+02 1.590575e+02 6.677205e+01 1.407141e+02 5.362332e+01 6.119261e+01 1.127084e+02 5.185922e+00 2.856797e+00 2.182356e+00 2.141381e+00 2.973114e+00 5.975875e+00
<VARIANCE> 33
 1.720790e+02 4.665068e+01 2.688144e+01 5.489943e+01 2.500340e+02 1.652181e+01 6.312981e+01 8.624016e+01 1.633705e+02 1.229045e+02 7.689903e+00 1.486970e+00 1.855213e+01 2.560922e+02 1.289785e+01 1.889012e+02 2.481052e+02 1.520889e+02 2.561803e+02 1.349520e+02 2.306453e+01 1.200749e+02 4.310870e+02 5.447605e+02 7.742156e+02 1.111523e+03 5.492130e+02 4.358220e+00 8.530174e-01 1.049248e-01 1.554749e-01 1.940522e+00 2.933286e+00
<GCONST> 1.826671e+02
<TRANSP> 5
 0.000000e+00 1.000000e+00 0.000000e+00 0.000000e+00 0.000000e+00
 0.000000e+00 9.301499e-01 6.985019e-02 0.000000e+00 0.000000e+00
 0.000000e+00 0.000000e+00 9.386349e-01 6.136515e-02 0.000000e+00
 0.000000e+00 0.000000e+00 0.000000e+00 9.376252e-01 6.237482e-02
 0.000000e+00 0.000000e+00 0.000000e+00 0.000000e+00 0.000000e+00
<ENDHMM>
~h "CV"
<BEGINHMM>
<NUMSTATES> 5
<STATE> 2
<NUMMIXES> 4
<MIXTURE> 1 4.214598e-01
<MEAN> 33
 1.738762e+02 1.370673e+02 1.073916e+02 1.387248e+02 1.743463e+02 1.752487e+02 1.354159e+02 1.347390e+02 8.984509e+01 1.593252e+02 1.761835e+02 1.697441e+00 1.752397e+02 1.613814e+02 1.625775e+02 1.662175e+02 1.695203e+02 9.292122e+00 9.947531e+01 1.527028e+02 1.695280e+02 1.613146e+02 1.073224e+02 1.588062e+02 6.531156e+01 9.846554e+01 1.585140e+02 4.352019e+00 2.550450e+00 2.530555e+00 2.442739e+00 2.356106e+00 4.346862e+00
<VARIANCE> 33
 3.902650e+01 1.922462e+01 6.550422e+01 3.171075e+01 3.037716e+01 1.332984e+01 2.822034e+01 2.062020e+01 2.453688e+01 5.957253e+01 2.104947e+01 4.218076e+00 1.188309e+01 5.086191e+01 4.580930e+01 7.631824e+01 7.314371e+01 5.709958e+01 7.959647e+02 2.845375e+02 2.850892e+01 1.213654e+02 4.793454e+02 2.244116e+02 9.155239e+02 1.095817e+03 2.305061e+02 4.427857e+00 6.830874e-01 4.161803e-01 3.134123e-01 7.374591e-01 3.724134e+00
<GCONST> 1.733582e+02
<MIXTURE> 2 2.136360e-01
<MEAN> 33
 1.229011e+02 1.343652e+02 1.158716e+02 1.403607e+02 9.830670e+01 1.723391e+02 9.834315e+01 7.990064e+01 1.362742e+02 1.170844e+02 1.638219e+02 4.713377e+00 1.607882e+02 1.086240e+02 1.607557e+02 1.119611e+02 9.485164e+01 7.826883e+01 8.704302e+01 1.267060e+02 1.692699e+02 1.511908e+02 8.425677e+01 1.371504e+02 5.885955e+01 7.506181e+01 9.409353e+01 4.919902e+00 2.998226e+00 3.139385e+00 2.894165e+00 3.696548e+00 5.386600e+00
<VARIANCE> 33
 3.655590e+03 1.508377e+02 1.027686e+02 2.028185e+02 4.111606e+03 3.216445e+01 2.146498e+03 2.391975e+03 1.348604e+03 1.605651e+03 1.947569e+02 3.671503e+01 2.537433e+02 1.584703e+03 8.068302e+01 2.379816e+03 2.422351e+03 2.363966e+03 2.344817e+03 8.956271e+02 5.697872e+01 4.489697e+02 1.075161e+03 1.376417e+03 2.358820e+03 1.613216e+03 1.537981e+03 5.206923e+00 1.597979e+00 5.681665e-01 4.592562e-01 1.650896e+00 3.456799e+00
<GCONST> 2.390739e+02
<MIXTURE> 3 1.247969e-01
<MEAN> 33
 1.377449e+02 1.392455e+02 1.095168e+02 1.385562e+02 1.456679e+02 1.755388e+02 1.174047e+02 1.167258e+02 1.216946e+02 1.132357e+02 1.746400e+02 1.609397e+00 1.745932e+02 1.179767e+02 1.639793e+02 1.114054e+02 1.148506e+02 1.145270e+01 4.963711e+01 1.537510e+02 1.687080e+02 1.590512e+02 5.960236e+01 1.580447e+02 3.106636e+01 5.216501e+01 7.278416e+01 5.946811e+00 3.064766e+00 2.817764e+00 2.763450e+00 2.959417e+00 5.822531e+00
<VARIANCE> 33
 5.484968e+02 4.217744e+01 6.045290e+01 4.502852e+01 5.363341e+02 1.731784e+01 5.016746e+02 3.493845e+02 1.106049e+03 2.815663e+02 2.004864e+01 2.117785e+00 1.405882e+01 4.187561e+02 3.688131e+01 3.858373e+02 5.253425e+02 1.704170e+02 4.818320e+02 2.068803e+02 2.458974e+01 1.979584e+02 5.335535e+02 2.012001e+02 5.666218e+02 8.059868e+02 6.918759e+02 1.397549e+00 3.611327e-01 1.897140e-01 1.476175e-01 6.165552e-01 1.107215e+00
<GCONST> 1.923764e+02
<MIXTURE> 4 2.401065e-01
<MEAN> 33
 2.724725e+01 1.387518e+02 1.116696e+02 1.444931e+02 2.800282e+01 1.743650e+02 2.403204e+01 2.939358e+01 5.016689e+01 6.634085e+01 1.485431e+02 6.239800e+00 1.501407e+02 7.047811e+01 1.640757e+02 4.335853e+01 4.141549e+01 5.698887e+00 1.058861e+02 1.226328e+02 1.654168e+02 1.385590e+02 9.849283e+01 1.073088e+02 8.954115e+01 9.193005e+01 5.637078e+01 4.649362e+00 2.854077e+00 2.975311e+00 2.849563e+00 3.427703e+00 4.654284e+00
<VARIANCE> 33
 5.547330e+02 4.435616e+02 2.241756e+02 4.362881e+02 4.114151e+02 2.180689e+01 1.235267e+02 1.725966e+02 6.565171e+02 4.361729e+02 4.803477e+02 1.296858e+02 5.883530e+02 6.173837e+02 8.148861e+01 1.643054e+02 1.605641e+02 3.148238e+01 1.485060e+03 1.205706e+03 1.791811e+02 7.373134e+02 7.303683e+02 2.780244e+03 2.059350e+03 2.237391e+03 8.519423e+02 1.172681e+00 5.932913e-01 6.625451e-01 5.532336e-01 8.528160e-01 1.025511e+00
<GCONST> 2.193645e+02
<STATE> 3
<NUMMIXES> 4
<MIXTURE> 1 1.886674e-01
<MEAN> 33
 6.697324e+01 1.387193e+02 1.104276e+02 1.389626e+02 6.572302e+01 1.748689e+02 3.968497e+01 4.634741e+01 7.670136e+01 8.355325e+01 1.694272e+02 2.031970e+00 1.689029e+02 8.504720e+01 1.629545e+02 6.854861e+01 6.733244e+01 7.274172e+00 6.651962e+01 1.492711e+02 1.670919e+02 1.550158e+02 6.834814e+01 1.563749e+02 2.428679e+01 3.742987e+01 3.553424e+01 4.426426e+00 3.155606e+00 3.243155e+00 3.202651e+00 3.313614e+00 4.429700e+00
<VARIANCE> 33
 5.356060e+02 6.997566e+01 8.776712e+01 4.476693e+01 8.057744e+02 2.130042e+01 4.922655e+02 4.422123e+02 1.749038e+03 1.743260e+02 6.840015e+01 4.205710e+00 6.692552e+01 1.660335e+02 3.860830e+01 1.916018e+02 1.588403e+02 1.320485e+02 1.227341e+03 5.616014e+02 2.383080e+01 3.003673e+02 8.445464e+02 3.073698e+02 5.096750e+02 6.469457e+02 3.695869e+02 5.970875e-01 4.592474e-01 3.457673e-01 2.513031e-01 6.535395e-01 6.031446e-01
<GCONST> 1.967010e+02
<MIXTURE> 2 1.581850e-01
<MEAN> 33
 3.253076e+01 1.322620e+02 1.111608e+02 1.391549e+02 2.074998e+01 1.758039e+02 1.800329e+01 2.599756e+01 4.061728e+01 6.474827e+01 1.637050e+02 1.516184e+00 1.663384e+02 6.179597e+01 1.618247e+02 4.731251e+01 4.503138e+01 5.067985e+00 1.082798e+02 1.260820e+02 1.725063e+02 1.468580e+02 9.320433e+01 1.327033e+02 5.049510e+01 5.214193e+01 3.856635e+01 4.326530e+00 2.638340e+00 3.501337e+00 3.260682e+00 2.855298e+00 4.024891e+00
<VARIANCE> 33
 3.024503e+02 8.258053e+01 1.176612e+02 1.329653e+02 2.324731e+02 1.392806e+01 6.335081e+01 7.444527e+01 2.477891e+02 8.632140e+01 7.342857e+01 1.792467e+00 5.930338e+01 9.670263e+01 4.311890e+01 8.091059e+01 5.484776e+01 3.148238e+01 7.524399e+02 7.055463e+02 2.515718e+01 4.526289e+02 6.321038e+02 1.315922e+03 1.291367e+03 1.545490e+03 2.166320e+02 3.452689e-01 5.821987e-01 5.601283e-01 6.015421e-01 9.927804e-01 2.647805e-01
<GCONST> 1.881014e+02
<MIXTURE> 3 1.581850e-01
<MEAN> 33
 3.253076e+01 1.322620e+02 1.111608e+02 1.391549e+02 2.074998e+01 1.758039e+02 1.800329e+01 2.599756e+01 4.061728e+01 6.474827e+01 1.637050e+02 1.516184e+00 1.663384e+02 6.179597e+01 1.618247e+02 4.731251e+01 4.503138e+01 5.067985e+00 1.082798e+02 1.260820e+02 1.725063e+02 1.468580e+02 9.320433e+01 1.327033e+02 5.049510e+01 5.214193e+01 3.856635e+01 4.326530e+00 2.638340e+00 3.501337e+00 3.260682e+00 2.855298e+00 4.024891e+00
<VARIANCE> 33
 3.024503e+02 8.258053e+01 1.176612e+02 1.329653e+02 2.324731e+02 1.392806e+01 6.335081e+01 7.444527e+01 2.477891e+02 8.632140e+01 7.342857e+01 1.792467e+00 5.930338e+01 9.670263e+01 4.311890e+01 8.091059e+01 5.484776e+01 3.148238e+01 7.524399e+02 7.055463e+02 2.515718e+01 4.526289e+02 6.321038e+02 1.315922e+03 1.291367e+03 1.545490e+03 2.166320e+02 3.452689e-01 5.821987e-01 5.601283e-01 6.015421e-01 9.927804e-01 2.647805e-01
<GCONST> 1.881014e+02
<MIXTURE> 4 4.949604e-01
<MEAN> 33
 2.990042e+01 1.249258e+02 1.250958e+02 1.277107e+02 2.626980e+01 1.761509e+02 2.094783e+01 2.488762e+01 4.501114e+01 7.550419e+01 1.426453e+02 4.704518e+00 1.419446e+02 7.690290e+01 1.627860e+02 5.035303e+01 4.876562e+01 3.442787e+00 1.361901e+02 9.708245e+01 1.664340e+02 1.139970e+02 1.201508e+02 1.502188e+02 2.713966e+01 4.050198e+01 3.614215e+01 4.127399e+00 2.965217e+00 4.276769e+00 3.968857e+00 3.281492e+00 4.043834e+00
<VARIANCE> 33
 1.413295e+02 9.928207e+01 1.374788e+02 8.162206e+01 1.558418e+02 1.248602e+01 5.953664e+01 7.297472e+01 2.234702e+02 1.071554e+02 1.156742e+02 3.039725e+01 1.328546e+02 1.075833e+02 5.294035e+01 6.132141e+01 5.494674e+01 3.148238e+01 2.955399e+02 2.243164e+02 4.209063e+01 3.702143e+02 4.045894e+02 4.948378e+02 4.036695e+02 7.527206e+02 9.035879e+01 2.909118e-01 4.024669e-01 3.904104e-01 2.596057e-01 4.331655e-01 2.450909e-01
<GCONST> 1.822462e+02
<STATE> 4
<NUMMIXES> 4
<MIXTURE> 1 4.601455e-01
<MEAN> 33
 1.737600e+02 1.357169e+02 1.133332e+02 1.356236e+02 1.739737e+02 1.757718e+02 1.361582e+02 1.353152e+02 8.852656e+01 1.640318e+02 1.750050e+02 1.952549e+00 1.742312e+02 1.655921e+02 1.617634e+02 1.686115e+02 1.685611e+02 7.588084e+00 1.133551e+02 1.540038e+02 1.684818e+02 1.597784e+02 1.223530e+02 1.602789e+02 7.579566e+01 9.850356e+01 1.584007e+02 4.925287e+00 2.748711e+00 2.862673e+00 2.732923e+00 2.588550e+00 4.756462e+00
<VARIANCE> 33
 3.902650e+01 2.052099e+01 7.604617e+01 2.747891e+01 3.037716e+01 1.289949e+01 2.822034e+01 2.062020e+01 3.960887e+01 7.806290e+01 1.934300e+01 5.261433e+00 2.248467e+01 8.135342e+01 3.431852e+01 5.965515e+01 6.585523e+01 3.660514e+01 1.368201e+03 2.088422e+02 2.023960e+01 1.770282e+02 1.087319e+03 2.676523e+02 8.708211e+02 1.116531e+03 2.124866e+02 2.408578e+00 1.470377e+00 3.311461e-01 2.135638e-01 1.205881e+00 2.348881e+00
<GCONST> 1.750314e+02
<MIXTURE> 2 1.520317e-01
<MEAN> 33
 1.679121e+02 1.347436e+02 1.143035e+02 1.376010e+02 1.669993e+02 1.764669e+02 1.377090e+02 1.346708e+02 8.762018e+01 1.567287e+02 1.666322e+02 1.479652e+00 1.662392e+02 1.577532e+02 1.623719e+02 1.441019e+02 1.443566e+02 9.678694e+00 1.198449e+02 1.427668e+02 1.683637e+02 1.504310e+02 1.176784e+02 1.464829e+02 6.701926e+01 7.650652e+01 1.084650e+02 6.067926e+00 2.442956e+00 2.810814e+00 2.695695e+00 2.494027e+00 6.041643e+00
<VARIANCE> 33
 9.548823e+01 5.136378e+01 7.716869e+01 7.699149e+01 9.678629e+01 9.110951e+00 8.354541e+01 7.113181e+01 2.641231e+02 1.924998e+02 5.439094e+01 1.665380e+00 6.057121e+01 2.068517e+02 3.655638e+01 2.100093e+02 2.460576e+02 8.991386e+01 1.512609e+03 5.553416e+02 4.044650e+01 4.440924e+02 1.445887e+03 1.503368e+03 2.262847e+03 1.685897e+03 8.953799e+02 1.307236e+00 3.544100e-01 3.100991e-01 1.953752e-01 3.229821e-01 1.257458e+00
<GCONST> 1.925452e+02
<MIXTURE> 3 1.520317e-01
<MEAN> 33
 1.679121e+02 1.347436e+02 1.143035e+02 1.376010e+02 1.669993e+02 1.764669e+02 1.377090e+02 1.346708e+02 8.762018e+01 1.567287e+02 1.666322e+02 1.479652e+00 1.662392e+02 1.577532e+02 1.623719e+02 1.441019e+02 1.443566e+02 9.678694e+00 1.198449e+02 1.427668e+02 1.683637e+02 1.504310e+02 1.176784e+02 1.464829e+02 6.701926e+01 7.650652e+01 1.084650e+02 6.067926e+00 2.442956e+00 2.810814e+00 2.695695e+00 2.494027e+00 6.041643e+00
<VARIANCE> 33
 9.548823e+01 5.136378e+01 7.716869e+01 7.699149e+01 9.678629e+01 9.110951e+00 8.354541e+01 7.113181e+01 2.641231e+02 1.924998e+02 5.439094e+01 1.665380e+00 6.057121e+01 2.068517e+02 3.655638e+01 2.100093e+02 2.460576e+02 8.991386e+01 1.512609e+03 5.553416e+02 4.044650e+01 4.440924e+02 1.445887e+03 1.503368e+03 2.262847e+03 1.685897e+03 8.953799e+02 1.307236e+00 3.544100e-01 3.100991e-01 1.953752e-01 3.229821e-01 1.257458e+00
<GCONST> 1.925452e+02
<MIXTURE> 4 2.357909e-01
<MEAN> 33
 1.224405e+02 1.316027e+02 1.203715e+02 1.339398e+02 1.150317e+02 1.756504e+02 1.054125e+02 9.945468e+01 1.033843e+02 1.225936e+02 1.603096e+02 3.744544e+00 1.603866e+02 1.203278e+02 1.619252e+02 9.950722e+01 9.497378e+01 1.359241e+01 1.085131e+02 1.254622e+02 1.687765e+02 1.394899e+02 9.462747e+01 1.364989e+02 4.316517e+01 5.775159e+01 4.670061e+01 5.185439e+00 2.923491e+00 3.468373e+00 3.308926e+00 3.383493e+00 5.202952e+00
<VARIANCE> 33
 1.370436e+03 9.383626e+01 1.529499e+02 1.048791e+02 1.055926e+03 1.345266e+01 1.763985e+03 1.622710e+03 2.374191e+03 5.624429e+02 1.523002e+02 2.383202e+01 1.495921e+02 3.574684e+02 5.001055e+01 6.051120e+02 4.572056e+02 3.604319e+02 1.743413e+03 8.791537e+02 3.894576e+01 6.646157e+02 1.134200e+03 1.696120e+03 1.438402e+03 1.427655e+03 9.321976e+02 1.267028e+00 6.113371e-01 4.243896e-01 3.259423e-01 6.478499e-01 1.558828e+00
<GCONST> 2.200671e+02
<TRANSP> 5
 0.000000e+00 1.000000e+00 0.000000e+00 0.000000e+00 0.000000e+00
 0.000000e+00 9.230269e-01 7.697309e-02 0.000000e+00 0.000000e+00
 0.000000e+00 0.000000e+00 9.492133e-01 5.078675e-02 0.000000e+00
 0.000000e+00 0.000000e+00 0.000000e+00 9.311253e-01 6.887472e-02
 0.000000e+00 0.000000e+00 0.000000e+00 0.000000e+00 0.000000e+00
<ENDHMM>
~h "DC"
<BEGINHMM>
<NUMSTATES> 5
<STATE> 2
<NUMMIXES> 4
<MIXTURE> 1 5.379412e-01
<MEAN> 33
 1.736082e+02 1.365009e+02 1.080743e+02 1.381538e+02 1.749377e+02 1.759408e+02 1.351786e+02 1.343714e+02 9.045001e+01 1.574886e+02 1.751840e+02 1.563125e+00 1.747482e+02 1.610705e+02 1.619387e+02 1.626024e+02 1.676406e+02 1.091967e+01 9.812911e+01 1.531758e+02 1.692511e+02 1.623185e+02 1.064190e+02 1.569530e+02 7.326999e+01 8.768519e+01 1.540765e+02 4.699811e+00 2.600394e+00 2.664907e+00 2.473144e+00 2.347980e+00 4.584049e+00
<VARIANCE> 33
 3.902650e+01 2.367220e+01 6.131893e+01 2.855296e+01 3.037716e+01 1.112034e+01 2.822034e+01 2.062020e+01 2.522906e+01 8.148008e+01 2.460433e+01 4.018810e+00 1.996077e+01 4.609046e+01 5.209875e+01 1.174153e+02 6.996288e+01 1.044459e+02 8.977951e+02 2.903885e+02 2.918911e+01 1.498470e+02 4.434611e+02 2.929524e+02 1.138343e+03 1.262042e+03 2.893546e+02 5.288938e+00 8.690330e-01 3.847566e-01 3.715432e-01 7.864434e-01 3.337428e+00
<GCONST> 1.768168e+02
<MIXTURE> 2 1.270857e-01
<MEAN> 33
 1.314285e+02 1.382093e+02 1.110890e+02 1.385091e+02 1.366668e+02 1.772166e+02 1.178019e+02 1.122703e+02 1.220191e+02 1.138924e+02 1.736592e+02 1.257934e+00 1.733593e+02 1.138045e+02 1.621291e+02 1.063279e+02 1.066907e+02 5.460211e+00 6.248228e+01 1.597327e+02 1.697269e+02 1.628358e+02 6.563461e+01 1.548159e+02 3.507426e+01 3.920315e+01 5.787518e+01 5.905082e+00 2.986997e+00 2.979000e+00 2.896018e+00 3.031523e+00 5.780078e+00
<VARIANCE> 33
 4.840499e+02 2.247048e+01 6.704720e+01 3.169051e+01 5.067433e+02 5.975631e+00 5.364059e+02 4.615242e+02 1.101635e+03 1.424226e+02 2.625561e+01 1.414428e+00 2.563443e+01 1.799360e+02 3.948028e+01 2.905549e+02 3.393186e+02 3.148238e+01 4.928973e+02 1.908700e+02 2.714347e+01 1.456244e+02 4.105668e+02 3.963925e+02 7.215246e+02 7.108837e+02 6.423808e+02 8.420286e-01 3.577167e-01 1.815313e-01 1.523126e-01 6.215877e-01 7.848489e-01
<GCONST> 1.865205e+02
<MIXTURE> 3 1.270857e-01
<MEAN> 33
 1.314285e+02 1.382093e+02 1.110890e+02 1.385091e+02 1.366668e+02 1.772166e+02 1.178019e+02 1.122703e+02 1.220191e+02 1.138924e+02 1.736592e+02 1.257934e+00 1.733593e+02 1.138045e+02 1.621291e+02 1.063279e+02 1.066907e+02 5.460211e+00 6.248228e+01 1.597327e+02 1.697269e+02 1.628358e+02 6.563461e+01 1.548159e+02 3.507426e+01 3.920315e+01 5.787518e+01 5.905082e+00 2.986997e+00 2.979000e+00 2.896018e+00 3.031523e+00 5.780078e+00
<VARIANCE> 33
 4.840499e+02 2.247048e+01 6.704720e+01 3.169051e+01 5.067433e+02 5.975631e+00 5.364059e+02 4.615242e+02 1.101635e+03 1.424226e+02 2.625561e+01 1.414428e+00 2.563443e+01 1.799360e+02 3.948028e+01 2.905549e+02 3.393186e+02 3.148238e+01 4.928973e+02 1.908700e+02 2.714347e+01 1.456244e+02 4.105668e+02 3.963925e+02 7.215246e+02 7.108837e+02 6.423808e+02 8.420286e-01 3.577167e-01 1.815313e-01 1.523126e-01 6.215877e-01 7.848489e-01
<GCONST> 1.865205e+02
<MIXTURE> 4 2.078873e-01
<MEAN> 33
 1.152610e+02 1.291239e+02 1.125650e+02 1.410097e+02 1.056700e+02 1.712266e+02 9.357477e+01 8.365736e+01 9.903001e+01 1.208256e+02 1.585872e+02 3.502714e+00 1.603200e+02 1.141129e+02 1.590663e+02 1.039737e+02 9.226561e+01 4.138478e+01 1.095632e+02 1.129523e+02 1.712543e+02 1.451082e+02 9.824905e+01 1.249225e+02 6.336341e+01 7.391665e+01 6.439203e+01 5.263430e+00 2.571924e+00 3.214049e+00 2.896189e+00 3.191151e+00 5.443276e+00
<VARIANCE> 33
 1.884636e+03 3.084362e+02 1.471081e+02 2.231046e+02 2.768340e+03 4.633485e+01 2.430776e+03 2.144917e+03 2.762398e+03 7.527193e+02 3.262792e+02 1.569285e+01 1.855000e+02 7.523381e+02 8.424257e+01 1.341257e+03 1.083900e+03 2.717188e+03 1.998979e+03 1.464966e+03 3.207235e+01 6.082827e+02 1.277444e+03 1.671880e+03 2.504470e+03 2.426403e+03 2.072285e+03 2.702241e+00 1.485565e+00 7.821998e-01 4.827530e-01 1.462645e+00 2.576771e+00
<GCONST> 2.373580e+02
<STATE> 3
<NUMMIXES> 4
<MIXTURE> 1 2.911926e-01
<MEAN> 33
 9.456319e+01 1.381251e+02 1.104585e+02 1.420873e+02 9.135011e+01 1.739336e+02 8.229527e+01 7.983294e+01 7.944716e+01 1.159946e+02 1.643284e+02 1.924529e+00 1.649992e+02 1.121887e+02 1.626629e+02 8.806753e+01 8.683232e+01 3.652862e+00 9.412537e+01 1.342119e+02 1.720272e+02 1.477966e+02 8.374005e+01 1.147683e+02 6.679590e+01 6.695742e+01 1.746616e+01 4.323034e+00 3.383241e+00 3.483010e+00 3.280307e+00 3.874644e+00 4.443107e+00
<VARIANCE> 33
 1.750929e+02 6.196494e+01 1.686559e+02 1.302994e+02 3.949728e+02 2.289467e+01 1.526251e+03 1.568642e+03 3.068716e+03 1.470002e+02 5.950351e+01 3.468538e+00 7.092727e+01 1.711130e+02 2.250967e+01 5.304753e+01 4.493312e+01 3.148238e+01 8.011057e+02 5.615708e+02 2.619670e+01 4.272598e+02 7.666735e+02 2.251335e+03 2.401734e+03 2.177131e+03 2.072363e+02 5.080695e-01 8.877614e-01 3.409058e-01 3.760826e-01 1.397296e+00 5.263749e-01
<GCONST> 2.001779e+02
<MIXTURE> 2 2.246616e-01
<MEAN> 33
 7.261568e+01 1.295249e+02 1.128465e+02 1.361431e+02 6.474535e+01 1.755033e+02 3.068833e+01 2.459358e+01 3.683659e+01 9.530171e+01 1.562666e+02 2.606003e+00 1.606529e+02 9.469988e+01 1.614467e+02 6.635461e+01 6.595241e+01 2.763631e+00 1.196114e+02 1.019507e+02 1.705337e+02 1.391254e+02 8.758232e+01 1.477297e+02 4.642437e+01 4.106232e+01 1.913005e+01 4.421486e+00 3.049908e+00 3.988947e+00 3.799533e+00 3.661914e+00 3.968016e+00
<VARIANCE> 33
 2.015669e+02 3.597121e+01 5.132468e+01 2.949792e+01 2.073948e+02 2.088694e+01 3.726463e+02 2.994895e+02 8.221090e+02 1.267465e+02 9.926835e+01 7.918494e+00 5.724802e+01 1.098900e+02 3.066239e+01 4.377004e+01 4.305843e+01 3.148238e+01 6.356132e+02 6.654200e+02 2.787182e+01 4.058457e+02 5.979042e+02 4.171280e+02 6.515027e+02 6.119935e+02 2.481810e+02 4.265798e-01 7.051190e-01 1.693607e-01 1.031612e-01 6.314047e-01 2.295427e-01
<GCONST> 1.841852e+02
<MIXTURE> 3 2.548845e-01
<MEAN> 33
 7.813464e+01 1.404103e+02 1.090126e+02 1.398771e+02 7.550211e+01 1.753642e+02 3.111363e+01 3.302611e+01 4.659034e+01 1.091384e+02 1.597617e+02 8.314592e-01 1.618535e+02 1.064604e+02 1.592593e+02 7.520620e+01 7.473745e+01 2.165236e+00 1.029602e+02 1.282536e+02 1.720854e+02 1.337912e+02 1.013803e+02 1.120400e+02 6.155166e+01 6.334764e+01 1.584925e+01 4.356802e+00 3.667973e+00 3.679523e+00 3.516353e+00 3.621096e+00 4.366717e+00
<VARIANCE> 33
 8.903340e+01 4.094897e+01 4.528627e+01 5.134085e+01 2.553031e+02 9.715067e+00 3.889606e+02 3.831401e+02 1.129123e+03 5.912010e+01 3.511702e+01 5.357184e-01 4.827187e+01 6.546453e+01 2.636142e+01 3.071743e+01 2.601832e+01 3.148238e+01 3.602693e+02 2.799942e+02 2.148330e+01 3.007468e+02 3.241567e+02 2.104264e+03 2.675670e+03 2.499959e+03 1.612944e+02 4.614667e-01 5.218839e-01 1.227135e-01 8.729532e-02 3.185652e-01 3.505723e-01
<GCONST> 1.782126e+02
<MIXTURE> 4 2.292593e-01
<MEAN> 33
 7.116566e+01 1.202912e+02 1.147869e+02 1.336803e+02 5.860183e+01 1.702626e+02 2.165716e+01 1.676831e+01 2.312474e+01 1.140823e+02 1.379784e+02 3.515765e+00 1.413889e+02 1.143540e+02 1.542447e+02 6.539948e+01 6.564294e+01 2.431849e+00 1.427778e+02 9.009621e+01 1.721265e+02 1.069144e+02 1.277455e+02 1.035808e+02 8.703337e+01 8.635358e+01 1.091050e+01 3.993088e+00 2.546338e+00 3.946666e+00 3.843589e+00 3.118731e+00 3.918540e+00
<VARIANCE> 33
 7.202718e+02 2.625731e+02 1.401977e+02 8.409367e+01 5.201894e+02 6.314968e+01 3.450320e+02 1.831846e+02 4.278208e+02 4.010339e+02 1.890323e+02 4.231087e+01 1.923566e+02 3.781212e+02 9.799802e+01 1.101121e+02 1.037607e+02 3.148238e+01 2.645266e+02 2.435533e+02 6.698636e+01 1.618117e+02 2.810398e+02 2.017550e+03 2.312639e+03 2.413661e+03 1.228875e+02 4.155099e-01 4.129910e-01 3.895661e-01 3.207931e-01 7.622825e-01 4.704870e-01
<GCONST> 2.023321e+02
<STATE> 4
<NUMMIXES> 4
<MIXTURE> 1 4.668944e-01
<MEAN> 33
 1.722590e+02 1.382957e+02 1.106705e+02 1.387013e+02 1.734001e+02 1.761461e+02 1.346188e+02 1.343475e+02 9.103371e+01 1.641778e+02 1.742093e+02 1.289873e+00 1.748486e+02 1.665956e+02 1.612853e+02 1.660029e+02 1.659345e+02 1.023276e+01 1.214363e+02 1.542214e+02 1.693410e+02 1.569871e+02 1.315401e+02 1.510385e+02 8.538149e+01 9.556680e+01 1.545185e+02 4.831909e+00 2.845861e+00 2.782429e+00 2.535221e+00 2.533760e+00 4.666301e+00
<VARIANCE> 33
 3.902650e+01 2.274943e+01 8.078720e+01 2.914075e+01 3.345311e+01 1.188672e+01 2.822034e+01 2.062020e+01 4.041796e+01 1.036608e+02 1.900529e+01 2.382895e+00 1.623866e+01 9.145845e+01 4.713025e+01 8.065720e+01 8.775050e+01 8.740445e+01 1.527358e+03 2.359272e+02 3.308381e+01 1.728259e+02 1.292116e+03 8.452618e+02 1.217294e+03 1.322338e+03 2.587094e+02 2.761542e+00 1.512860e+00 3.373058e-01 1.970688e-01 9.044397e-01 2.394439e+00
<GCONST> 1.788880e+02
<MIXTURE> 2 1.340375e-01
<MEAN> 33
 1.678745e+02 1.380169e+02 1.096447e+02 1.397345e+02 1.681246e+02 1.748908e+02 1.374343e+02 1.325684e+02 8.999733e+01 1.634681e+02 1.666511e+02 1.348116e+00 1.667467e+02 1.638499e+02 1.619891e+02 1.409553e+02 1.408712e+02 9.442318e+00 1.345711e+02 1.330765e+02 1.705822e+02 1.451123e+02 1.337710e+02 1.297450e+02 7.395751e+01 9.829177e+01 1.022677e+02 6.137668e+00 2.307091e+00 2.703700e+00 2.647996e+00 2.387455e+00 6.037159e+00
<VARIANCE> 33
 9.823901e+01 5.910146e+01 5.697002e+01 5.166576e+01 8.595455e+01 1.931450e+01 1.033298e+02 8.122696e+01 2.731849e+02 1.525327e+02 5.501909e+01 1.703847e+00 5.913424e+01 1.538340e+02 4.129098e+01 1.793257e+02 2.472065e+02 7.021014e+01 1.335371e+03 6.818079e+02 3.671186e+01 3.894301e+02 1.108201e+03 2.272936e+03 2.500556e+03 2.168966e+03 6.816837e+02 8.564904e-01 2.268068e-01 2.238666e-01 1.271260e-01 1.880084e-01 7.519603e-01
<GCONST> 1.896246e+02
<MIXTURE> 3 1.340375e-01
<MEAN> 33
 1.678745e+02 1.380169e+02 1.096447e+02 1.397345e+02 1.681246e+02 1.748908e+02 1.374343e+02 1.325684e+02 8.999733e+01 1.634681e+02 1.666511e+02 1.348116e+00 1.667467e+02 1.638499e+02 1.619891e+02 1.409553e+02 1.408712e+02 9.442318e+00 1.345711e+02 1.330765e+02 1.705822e+02 1.451123e+02 1.337710e+02 1.297450e+02 7.395751e+01 9.829177e+01 1.022677e+02 6.137668e+00 2.307091e+00 2.703700e+00 2.647996e+00 2.387455e+00 6.037159e+00
<VARIANCE> 33
 9.823901e+01 5.910146e+01 5.697002e+01 5.166576e+01 8.595455e+01 1.931450e+01 1.033298e+02 8.122696e+01 2.731849e+02 1.525327e+02 5.501909e+01 1.703847e+00 5.913424e+01 1.538340e+02 4.129098e+01 1.793257e+02 2.472065e+02 7.021014e+01 1.335371e+03 6.818079e+02 3.671186e+01 3.894301e+02 1.108201e+03 2.272936e+03 2.500556e+03 2.168966e+03 6.816837e+02 8.564904e-01 2.268068e-01 2.238666e-01 1.271260e-01 1.880084e-01 7.519603e-01
<GCONST> 1.896246e+02
<MIXTURE> 4 2.650291e-01
<MEAN> 33
 1.359046e+02 1.330273e+02 1.127151e+02 1.385633e+02 1.289209e+02 1.720245e+02 1.275855e+02 1.220160e+02 8.370610e+01 1.361787e+02 1.629509e+02 2.969232e+00 1.612364e+02 1.335816e+02 1.610440e+02 1.098369e+02 1.067836e+02 1.049602e+01 1.135992e+02 1.200406e+02 1.707585e+02 1.376772e+02 9.955294e+01 1.273939e+02 6.148326e+01 7.108363e+01 4.609930e+01 4.715519e+00 2.803065e+00 3.305855e+00 3.218768e+00 3.247942e+00 5.060602e+00
<VARIANCE> 33
 5.773820e+02 1.308363e+02 1.268567e+02 1.262323e+02 7.581021e+02 4.732320e+01 1.208989e+03 1.237363e+03 2.265774e+03 3.372284e+02 1.036617e+02 3.168092e+01 1.376136e+02 4.208872e+02 6.948103e+01 4.094191e+02 4.066993e+02 2.433646e+02 1.481595e+03 1.188234e+03 4.299458e+01 6.804074e+02 1.503251e+03 1.841511e+03 2.151594e+03 2.066797e+03 1.205548e+03 1.561857e+00 5.902045e-01 4.299149e-01 3.875541e-01 8.696930e-01 1.252651e+00
<GCONST> 2.207514e+02
<TRANSP> 5
 0.000000e+00 1.000000e+00 0.000000e+00 0.000000e+00 0.000000e+00
 0.000000e+00 8.875536e-01 1.124464e-01 0.000000e+00 0.000000e+00
 0.000000e+00 0.000000e+00 9.593565e-01 4.064349e-02 0.000000e+00
 0.000000e+00 0.000000e+00 0.000000e+00 9.290707e-01 7.092934e-02
 0.000000e+00 0.000000e+00 0.000000e+00 0.000000e+00 0.000000e+00
<ENDHMM>
~h "FM"
<BEGINHMM>
<NUMSTATES> 5
<STATE> 2
<NUMMIXES> 4
<MIXTURE> 1 2.690898e-01
<MEAN> 33
 1.723265e+02 1.377407e+02 1.085732e+02 1.382473e+02 1.748042e+02 1.764959e+02 1.349390e+02 1.340643e+02 9.099664e+01 1.561946e+02 1.749958e+02 1.383322e+00 1.751643e+02 1.612259e+02 1.618401e+02 1.631068e+02 1.670594e+02 1.141894e+01 9.397828e+01 1.526626e+02 1.699084e+02 1.620015e+02 1.084546e+02 1.584394e+02 7.095703e+01 9.092531e+01 1.542237e+02 5.024992e+00 2.798659e+00 2.647553e+00 2.520225e+00 2.331031e+00 4.856524e+00
<VARIANCE> 33
 3.902650e+01 2.987425e+01 7.353123e+01 3.438341e+01 3.037716e+01 9.888330e+00 2.822034e+01 2.062020e+01 3.726326e+01 8.564999e+01 2.246400e+01 3.041216e+00 1.602164e+01 5.222456e+01 4.868227e+01 1.260427e+02 8.573409e+01 1.198668e+02 9.676630e+02 2.338169e+02 2.226005e+01 1.408671e+02 5.630240e+02 2.165458e+02 9.791442e+02 1.208588e+03 2.865381e+02 4.970955e+00 9.086849e-01 2.854282e-01 4.204140e-01 7.801998e-01 3.151723e+00
<GCONST> 1.766196e+02
<MIXTURE> 2 2.654391e-01
<MEAN> 33
 1.720001e+02 1.389371e+02 1.104526e+02 1.674755e+02 1.001324e+02 1.735016e+02 1.351386e+02 9.331093e+01 1.315374e+02 1.557440e+02 1.699846e+02 4.593106e+00 1.527254e+02 1.076372e+02 1.620763e+02 1.689371e+02 9.968384e+01 7.302608e+01 8.349869e+01 1.435130e+02 1.676919e+02 1.583668e+02 4.372958e+01 1.226155e+02 6.534775e+01 1.017558e+02 1.450088e+02 3.742328e+00 2.733650e+00 2.614333e+00 2.137109e+00 6.278035e+00 6.610366e+00
<VARIANCE> 33
 3.902650e+01 5.649971e+01 1.207766e+02 9.054456e+01 5.284128e+02 4.795965e+01 2.822034e+01 2.490992e+02 3.079803e+02 7.649985e+01 9.796898e+01 2.485630e+01 2.854000e+02 6.537579e+02 7.051917e+01 6.771094e+01 1.277644e+03 1.187986e+03 5.820551e+02 4.622120e+02 5.531526e+01 1.420585e+02 1.967313e+02 2.260792e+03 2.251416e+03 1.777233e+03 4.291785e+02 2.173217e+00 1.003791e+00 2.354315e-01 3.697221e-01 2.397441e+00 3.873592e+00
<GCONST> 2.056604e+02
<MIXTURE> 3 2.654391e-01
<MEAN> 33
 1.720001e+02 1.389371e+02 1.104526e+02 1.674755e+02 1.001324e+02 1.735016e+02 1.351386e+02 9.331093e+01 1.315374e+02 1.557440e+02 1.699846e+02 4.593106e+00 1.527254e+02 1.076372e+02 1.620763e+02 1.689371e+02 9.968384e+01 7.302608e+01 8.349869e+01 1.435130e+02 1.676919e+02 1.583668e+02 4.372958e+01 1.226155e+02 6.534775e+01 1.017558e+02 1.450088e+02 3.742328e+00 2.733650e+00 2.614333e+00 2.137109e+00 6.278035e+00 6.610366e+00
<VARIANCE> 33
 3.902650e+01 5.649971e+01 1.207766e+02 9.054456e+01 5.284128e+02 4.795965e+01 2.822034e+01 2.490992e+02 3.079803e+02 7.649985e+01 9.796898e+01 2.485630e+01 2.854000e+02 6.537579e+02 7.051917e+01 6.771094e+01 1.277644e+03 1.187986e+03 5.820551e+02 4.622120e+02 5.531526e+01 1.420585e+02 1.967313e+02 2.260792e+03 2.251416e+03 1.777233e+03 4.291785e+02 2.173217e+00 1.003791e+00 2.354315e-01 3.697221e-01 2.397441e+00 3.873592e+00
<GCONST> 2.056604e+02
<MIXTURE> 4 2.000321e-01
<MEAN> 33
 1.039805e+02 1.565483e+02 1.132978e+02 1.506640e+02 1.246455e+02 1.706933e+02 8.511320e+01 1.038490e+02 1.350683e+02 1.015690e+02 1.653666e+02 2.594859e+00 1.626492e+02 1.328826e+02 1.630939e+02 8.484942e+01 1.147160e+02 8.021095e+01 6.191411e+01 1.559136e+02 1.677237e+02 1.513501e+02 6.665346e+01 1.342452e+02 6.391609e+01 8.142281e+01 1.161023e+02 5.767793e+00 5.520083e+00 2.586469e+00 2.677947e+00 3.808292e+00 4.271409e+00
<VARIANCE> 33
 1.348872e+03 3.032448e+02 8.721242e+01 6.346818e+02 1.280574e+03 5.139236e+01 1.005565e+03 9.207399e+02 2.313492e+03 7.405079e+02 1.634961e+02 5.276401e+00 2.441106e+02 7.925412e+02 5.970942e+01 9.341732e+02 1.331205e+03 4.110079e+03 1.717444e+03 4.436728e+02 5.790014e+01 6.653881e+02 1.714305e+03 1.193872e+03 1.822401e+03 2.394237e+03 2.858626e+03 3.729869e+00 7.428517e+00 6.533479e-01 5.813411e-01 1.392416e+00 2.563031e+00
<GCONST> 2.345641e+02
<STATE> 3
<NUMMIXES> 4
<MIXTURE> 1 3.906237e-01
<MEAN> 33
 1.207209e+02 1.625611e+02 1.150585e+02 1.351869e+02 1.734223e+02 1.742231e+02 1.077733e+02 1.361546e+02 1.160721e+02 1.198913e+02 1.653817e+02 2.500593e+00 1.748673e+02 1.634434e+02 1.636642e+02 1.197317e+02 1.713552e+02 5.867577e+01 4.693555e+01 1.609623e+02 1.646254e+02 1.533078e+02 1.017942e+02 1.538480e+02 8.070782e+01 7.157868e+01 1.506668e+02 7.799541e+00 6.393660e+00 2.566309e+00 2.604335e+00 2.296581e+00 3.710408e+00
<VARIANCE> 33
 4.243970e+02 8.254243e+01 1.028368e+02 1.990678e+01 3.037716e+01 1.868008e+01 1.164074e+02 2.062020e+01 1.201370e+02 3.267223e+02 7.843613e+01 5.608715e+00 1.109387e+01 3.643999e+01 3.766042e+01 3.956747e+02 4.500459e+01 4.489893e+02 1.247125e+02 9.126981e+01 2.358123e+01 1.642611e+02 9.197887e+02 3.636963e+02 6.209263e+02 7.860968e+02 2.750808e+02 2.780053e+00 2.999876e+00 2.265663e-01 1.528354e-01 4.785196e-01 9.387459e-01
<GCONST> 1.820472e+02
<MIXTURE> 2 2.163329e-01
<MEAN> 33
 1.017220e+02 1.685883e+02 1.124097e+02 1.360783e+02 1.767249e+02 1.741103e+02 8.189072e+01 1.359839e+02 1.420979e+02 9.711121e+01 1.638803e+02 4.830472e+00 1.744584e+02 1.625097e+02 1.667303e+02 7.561373e+01 1.708011e+02 9.576263e+01 4.262922e+01 1.625700e+02 1.632659e+02 1.538444e+02 9.147887e+01 1.504384e+02 9.286060e+01 4.428633e+01 1.371453e+02 7.967391e+00 6.507757e+00 2.401439e+00 2.734171e+00 2.055136e+00 4.015036e+00
<VARIANCE> 33
 2.410732e+02 3.789052e+01 1.751868e+01 1.125421e+01 3.037716e+01 1.820051e+01 8.300105e+01 2.062020e+01 8.733588e+01 7.229385e+01 8.846608e+01 7.544296e+00 1.007714e+01 1.317438e+01 5.232515e+01 1.648845e+02 2.656761e+01 1.601234e+02 1.913756e+01 7.378346e+01 3.424543e+01 1.869798e+02 2.200156e+02 4.871064e+02 3.791288e+02 4.213615e+02 1.221034e+02 1.945490e+00 1.005866e+00 1.050448e-01 1.162591e-01 5.993078e-02 6.098094e-01
<GCONST> 1.637175e+02
<MIXTURE> 3 2.163329e-01
<MEAN> 33
 1.017220e+02 1.685883e+02 1.124097e+02 1.360783e+02 1.767249e+02 1.741103e+02 8.189072e+01 1.359839e+02 1.420979e+02 9.711121e+01 1.638803e+02 4.830472e+00 1.744584e+02 1.625097e+02 1.667303e+02 7.561373e+01 1.708011e+02 9.576263e+01 4.262922e+01 1.625700e+02 1.632659e+02 1.538444e+02 9.147887e+01 1.504384e+02 9.286060e+01 4.428633e+01 1.371453e+02 7.967391e+00 6.507757e+00 2.401439e+00 2.734171e+00 2.055136e+00 4.015036e+00
<VARIANCE> 33
 2.410732e+02 3.789052e+01 1.751868e+01 1.125421e+01 3.037716e+01 1.820051e+01 8.300105e+01 2.062020e+01 8.733588e+01 7.229385e+01 8.846608e+01 7.544296e+00 1.007714e+01 1.317438e+01 5.232515e+01 1.648845e+02 2.656761e+01 1.601234e+02 1.913756e+01 7.378346e+01 3.424543e+01 1.869798e+02 2.200156e+02 4.871064e+02 3.791288e+02 4.213615e+02 1.221034e+02 1.945490e+00 1.005866e+00 1.050448e-01 1.162591e-01 5.993078e-02 6.098094e-01
<GCONST> 1.637175e+02
<MIXTURE> 4 1.767087e-01
<MEAN> 33
 9.816769e+01 1.644087e+02 1.206787e+02 1.321351e+02 1.658839e+02 1.710265e+02 9.050217e+01 1.297684e+02 1.391172e+02 1.092481e+02 1.538095e+02 9.540756e+00 1.645919e+02 1.503651e+02 1.607572e+02 9.233303e+01 1.553979e+02 7.780351e+01 4.304874e+01 1.609720e+02 1.695229e+02 1.451162e+02 8.931481e+01 1.142059e+02 6.771210e+01 8.873936e+01 1.397635e+02 6.261267e+00 5.849061e+00 2.256665e+00 2.952681e+00 3.176784e+00 4.677603e+00
<VARIANCE> 33
 8.867621e+02 1.195832e+02 1.707449e+02 3.450773e+02 2.554076e+02 5.433862e+01 3.355345e+02 1.272608e+02 3.497560e+02 4.685066e+02 3.431997e+02 5.267641e+02 5.408716e+02 3.673218e+02 6.275271e+01 1.351706e+03 5.074454e+02 1.539198e+03 3.321332e+02 1.321095e+02 4.019484e+01 4.217464e+02 1.703259e+03 1.401507e+03 2.444288e+03 3.100627e+03 6.478484e+02 3.015758e+00 2.751629e+00 3.232238e-01 3.956006e-01 1.468517e+00 3.082493e+00
<GCONST> 2.236302e+02
<STATE> 4
<NUMMIXES> 4
<MIXTURE> 1 3.408270e-01
<MEAN> 33
 1.755808e+02 1.354908e+02 1.087617e+02 1.360710e+02 1.776829e+02 1.762997e+02 1.349756e+02 1.345721e+02 9.045229e+01 1.595733e+02 1.770883e+02 1.083336e+00 1.756072e+02 1.646374e+02 1.628015e+02 1.668770e+02 1.693144e+02 6.386106e+00 9.599570e+01 1.598913e+02 1.691340e+02 1.675207e+02 1.113581e+02 1.533331e+02 8.619439e+01 7.263857e+01 1.586440e+02 6.274732e+00 2.252142e+00 2.921233e+00 2.737582e+00 1.897395e+00 5.754840e+00
<VARIANCE> 33
 3.902650e+01 1.296466e+01 2.285387e+01 9.214255e+00 3.037716e+01 7.750531e+00 2.822034e+01 2.062020e+01 1.886277e+01 1.739660e+01 5.697334e+00 7.580478e-01 6.542724e+00 1.398164e+01 2.505305e+01 3.071743e+01 4.210048e+01 3.148238e+01 2.378597e+02 8.081051e+01 1.408256e+01 5.602289e+01 2.194303e+02 2.906736e+02 8.266982e+02 8.984775e+02 1.142434e+02 9.937241e-01 1.551341e-01 7.712171e-02 7.858611e-02 4.341644e-02 1.169951e+00
<GCONST> 1.455604e+02
<MIXTURE> 2 2.305197e-01
<MEAN> 33
 1.694782e+02 1.361981e+02 1.142275e+02 1.363878e+02 1.729032e+02 1.742917e+02 1.349539e+02 1.364025e+02 8.864357e+01 1.566616e+02 1.734280e+02 3.000322e+00 1.741204e+02 1.616397e+02 1.632785e+02 1.657542e+02 1.700421e+02 1.282279e+01 9.385723e+01 1.512442e+02 1.662686e+02 1.564320e+02 9.821558e+01 1.439938e+02 9.428898e+01 7.522563e+01 1.599759e+02 5.046825e+00 3.483725e+00 2.902323e+00 2.597408e+00 2.758470e+00 4.790027e+00
<VARIANCE> 33
 6.572501e+01 3.245196e+01 6.956358e+01 2.867834e+01 3.656364e+01 1.720368e+01 2.822034e+01 2.062020e+01 3.702918e+01 1.166012e+02 2.653945e+01 6.369667e+00 1.737467e+01 4.362577e+01 3.667993e+01 1.265142e+02 5.405756e+01 1.209066e+02 1.229290e+03 3.494309e+02 3.132029e+01 1.598062e+02 7.909119e+02 4.775283e+02 1.605618e+03 1.828651e+03 2.361405e+02 4.165407e+00 2.128479e+00 3.632815e-01 2.502857e-01 1.496251e+00 2.304595e+00
<GCONST> 1.817930e+02
<MIXTURE> 3 2.305197e-01
<MEAN> 33
 1.694782e+02 1.361981e+02 1.142275e+02 1.363878e+02 1.729032e+02 1.742917e+02 1.349539e+02 1.364025e+02 8.864357e+01 1.566616e+02 1.734280e+02 3.000322e+00 1.741204e+02 1.616397e+02 1.632785e+02 1.657542e+02 1.700421e+02 1.282279e+01 9.385723e+01 1.512442e+02 1.662686e+02 1.564320e+02 9.821558e+01 1.439938e+02 9.428898e+01 7.522563e+01 1.599759e+02 5.046825e+00 3.483725e+00 2.902323e+00 2.597408e+00 2.758470e+00 4.790027e+00
<VARIANCE> 33
 6.572501e+01 3.245196e+01 6.956358e+01 2.867834e+01 3.656364e+01 1.720368e+01 2.822034e+01 2.062020e+01 3.702918e+01 1.166012e+02 2.653945e+01 6.369667e+00 1.737467e+01 4.362577e+01 3.667993e+01 1.265142e+02 5.405756e+01 1.209066e+02 1.229290e+03 3.494309e+02 3.132029e+01 1.598062e+02 7.909119e+02 4.775283e+02 1.605618e+03 1.828651e+03 2.361405e+02 4.165407e+00 2.128479e+00 3.632815e-01 2.502857e-01 1.496251e+00 2.304595e+00
<GCONST> 1.817930e+02
<MIXTURE> 4 1.981323e-01
<MEAN> 33
 1.234597e+02 1.605913e+02 1.089407e+02 1.424085e+02 1.655778e+02 1.745462e+02 1.161729e+02 1.321823e+02 1.091971e+02 1.284245e+02 1.580399e+02 4.512939e+00 1.711127e+02 1.518643e+02 1.638470e+02 1.497097e+02 1.607544e+02 2.962694e+01 4.706494e+01 1.548116e+02 1.671319e+02 1.473241e+02 8.783768e+01 1.271082e+02 1.160077e+02 4.955342e+01 1.497095e+02 3.492749e+00 5.037393e+00 2.069804e+00 2.189452e+00 2.681763e+00 3.638783e+00
<VARIANCE> 33
 7.363629e+02 2.666936e+02 1.539106e+02 1.435591e+02 4.297208e+02 1.495602e+01 2.605910e+02 2.559441e+02 6.039554e+02 4.481068e+02 1.069744e+02 4.828297e+01 1.081699e+02 3.034195e+02 3.778111e+01 6.678201e+02 7.112725e+02 6.450471e+02 1.397331e+03 2.138647e+02 3.685807e+01 2.141927e+02 1.078942e+03 9.262155e+02 1.677156e+03 1.109947e+03 1.522129e+03 3.837078e+00 2.494068e+00 5.039188e-01 4.609206e-01 1.261430e+00 4.816759e+00
<GCONST> 2.171106e+02
<TRANSP> 5
 0.000000e+00 1.000000e+00 0.000000e+00 0.000000e+00 0.000000e+00
 0.000000e+00 9.335565e-01 6.644353e-02 0.000000e+00 0.000000e+00
 0.000000e+00 0.000000e+00 9.471190e-01 5.288099e-02 0.000000e+00
 0.000000e+00 0.000000e+00 0.000000e+00 9.192767e-01 8.072329e-02
 0.000000e+00 0.000000e+00 0.000000e+00 0.000000e+00 0.000000e+00
<ENDHMM>
~h "FN"
<BEGINHMM>
<NUMSTATES> 5
<STATE> 2
<NUMMIXES> 4
<MIXTURE> 1 3.189861e-01
<MEAN> 33
 1.729278e+02 1.369326e+02 1.091148e+02 1.376495e+02 1.745980e+02 1.754303e+02 1.350723e+02 1.342615e+02 9.066626e+01 1.570464e+02 1.753454e+02 1.725132e+00 1.749004e+02 1.629439e+02 1.619303e+02 1.634110e+02 1.663739e+02 1.299721e+01 9.770717e+01 1.527159e+02 1.694442e+02 1.625135e+02 1.155680e+02 1.580738e+02 6.964558e+01 9.382139e+01 1.544557e+02 4.904676e+00 2.672053e+00 2.771551e+00 2.526075e+00 2.376757e+00 4.943914e+00
<VARIANCE> 33
 3.902650e+01 2.451264e+01 7.426050e+01 3.022539e+01 3.037716e+01 1.345016e+01 2.822034e+01 2.062020e+01 3.506238e+01 1.193972e+02 2.132603e+01 5.374466e+00 1.925110e+01 6.988730e+01 5.042945e+01 1.628507e+02 8.944514e+01 1.474897e+02 1.058492e+03 2.696145e+02 2.563881e+01 1.331028e+02 7.723352e+02 2.964588e+02 9.504947e+02 1.258309e+03 3.640541e+02 5.524889e+00 1.276027e+00 3.392091e-01 3.845220e-01 6.764604e-01 2.789195e+00
<GCONST> 1.798760e+02
<MIXTURE> 2 2.514824e-01
<MEAN> 33
 1.711171e+02 1.403304e+02 1.097802e+02 1.486073e+02 3.053086e+01 1.747759e+02 1.344362e+02 2.376632e+01 1.539452e+02 1.569134e+02 1.705085e+02 2.863300e+00 1.415891e+02 7.549672e+01 1.665864e+02 1.685391e+02 4.105885e+01 1.294688e+02 8.894735e+01 1.510139e+02 1.697930e+02 1.297233e+02 1.005076e+02 1.045424e+02 6.951944e+01 7.648388e+01 1.048807e+02 3.612785e+00 2.502594e+00 2.517386e+00 3.109797e+00 3.658034e+00 7.026853e+00
<VARIANCE> 33
 3.902650e+01 3.759579e+01 1.152279e+02 2.530491e+02 8.874922e+02 1.515822e+01 2.822034e+01 3.192093e+02 1.239173e+02 5.045577e+01 7.168884e+01 9.880019e+00 6.680906e+02 5.709500e+02 4.054320e+01 8.953741e+01 1.933890e+02 2.402506e+02 5.108122e+02 2.452375e+02 5.069905e+01 6.016441e+02 1.029334e+03 2.568479e+03 2.719310e+03 1.880288e+03 3.819558e+02 1.049888e+00 3.044526e-01 1.888672e-01 6.695318e-01 1.242212e+00 1.152094e+00
<GCONST> 1.993273e+02
<MIXTURE> 3 2.514824e-01
<MEAN> 33
 1.711171e+02 1.403304e+02 1.097802e+02 1.486073e+02 3.053086e+01 1.747759e+02 1.344362e+02 2.376632e+01 1.539452e+02 1.569134e+02 1.705085e+02 2.863300e+00 1.415891e+02 7.549672e+01 1.665864e+02 1.685391e+02 4.105885e+01 1.294688e+02 8.894735e+01 1.510139e+02 1.697930e+02 1.297233e+02 1.005076e+02 1.045424e+02 6.951944e+01 7.648388e+01 1.048807e+02 3.612785e+00 2.502594e+00 2.517386e+00 3.109797e+00 3.658034e+00 7.026853e+00
<VARIANCE> 33
 3.902650e+01 3.759579e+01 1.152279e+02 2.530491e+02 8.874922e+02 1.515822e+01 2.822034e+01 3.192093e+02 1.239173e+02 5.045577e+01 7.168884e+01 9.880019e+00 6.680906e+02 5.709500e+02 4.054320e+01 8.953741e+01 1.933890e+02 2.402506e+02 5.108122e+02 2.452375e+02 5.069905e+01 6.016441e+02 1.029334e+03 2.568479e+03 2.719310e+03 1.880288e+03 3.819558e+02 1.049888e+00 3.044526e-01 1.888672e-01 6.695318e-01 1.242212e+00 1.152094e+00
<GCONST> 1.993273e+02
<MIXTURE> 4 1.780489e-01
<MEAN> 33
 1.293068e+02 1.349150e+02 1.111228e+02 1.442312e+02 1.005046e+02 1.731220e+02 1.032245e+02 8.609153e+01 1.223793e+02 1.296784e+02 1.648721e+02 4.909383e+00 1.616063e+02 1.115439e+02 1.620404e+02 1.204233e+02 9.631860e+01 7.469135e+01 8.139397e+01 1.207833e+02 1.676394e+02 1.510682e+02 7.880511e+01 1.331608e+02 6.533440e+01 7.312553e+01 8.839718e+01 4.620011e+00 2.686142e+00 3.026231e+00 2.935645e+00 3.602937e+00 5.641872e+00
<VARIANCE> 33
 2.497980e+03 1.286599e+02 8.633927e+01 1.726303e+02 3.761150e+03 4.216215e+01 2.394496e+03 2.528703e+03 1.565032e+03 1.304493e+03 1.607871e+02 7.648984e+01 3.869823e+02 1.396031e+03 4.831814e+01 2.304567e+03 2.290885e+03 1.872061e+03 1.744836e+03 1.396964e+03 6.267228e+01 3.163014e+02 1.245200e+03 1.930210e+03 2.480560e+03 1.930131e+03 1.375871e+03 4.641923e+00 1.374935e+00 4.669715e-01 3.242167e-01 1.429978e+00 4.569766e+00
<GCONST> 2.383131e+02
<STATE> 3
<NUMMIXES> 4
<MIXTURE> 1 2.611438e-01
<MEAN> 33
 8.802715e+01 1.398950e+02 1.121772e+02 1.349066e+02 1.747456e+02 1.764931e+02 6.632263e+01 1.359243e+02 1.461530e+02 1.142709e+02 1.521807e+02 2.047209e+00 1.748211e+02 1.625844e+02 1.671130e+02 7.949451e+01 1.643929e+02 8.852897e+01 1.176442e+02 1.274497e+02 1.706005e+02 1.629829e+02 1.083461e+02 1.301919e+02 5.111263e+01 8.454361e+01 1.017397e+02 8.415537e+00 2.788512e+00 3.224348e+00 2.522896e+00 2.102613e+00 3.451229e+00
<VARIANCE> 33
 2.192990e+03 1.787133e+02 6.293314e+01 1.630358e+01 3.037716e+01 8.755493e+00 1.301140e+03 2.062020e+01 7.099298e+02 4.232416e+02 3.597473e+02 3.164267e+00 1.306944e+01 2.623285e+01 6.278321e+01 3.164071e+02 7.212486e+01 3.922145e+02 2.234123e+03 7.184744e+02 2.928093e+01 1.673359e+02 5.588806e+02 1.746819e+03 1.146295e+03 2.649640e+03 4.551843e+02 1.156054e+00 1.186087e+00 2.530881e-01 8.081613e-02 1.442433e-01 5.923036e-01
<GCONST> 1.934679e+02
<MIXTURE> 2 4.455063e-01
<MEAN> 33
 2.294798e+01 1.315126e+02 1.112220e+02 1.357033e+02 1.749391e+02 1.753258e+02 1.009663e+01 1.348628e+02 1.442567e+02 6.683057e+01 1.440593e+02 1.472043e+00 1.743679e+02 1.627467e+02 1.667640e+02 3.860316e+01 1.622192e+02 1.242190e+02 1.225366e+02 1.040952e+02 1.698316e+02 1.659728e+02 1.092766e+02 1.226423e+02 6.246578e+01 8.038976e+01 8.440398e+01 6.449098e+00 2.997271e+00 3.323956e+00 2.871402e+00 2.196830e+00 3.649800e+00
<VARIANCE> 33
 1.385577e+02 1.393860e+02 4.696381e+01 1.840707e+01 3.037716e+01 1.572079e+01 4.181820e+01 2.062020e+01 5.947971e+01 2.164949e+02 3.488878e+02 1.371244e+00 1.439131e+01 2.027327e+01 4.492989e+01 7.024000e+01 8.115128e+01 1.180459e+02 6.622872e+02 3.677237e+02 3.301681e+01 9.102405e+01 3.784364e+02 2.361118e+03 2.133170e+03 2.512516e+03 1.686990e+02 1.214768e+00 1.000656e+00 4.736128e-01 2.939662e-01 1.266929e-01 9.198442e-01
<GCONST> 1.795535e+02
<MIXTURE> 3 1.594201e-01
<MEAN> 33
 1.848339e+01 1.405249e+02 1.273409e+02 1.284911e+02 1.683375e+02 1.766023e+02 1.369013e+01 1.375080e+02 1.509018e+02 6.960409e+01 1.370495e+02 7.418380e+00 1.691413e+02 1.632213e+02 1.665225e+02 3.799359e+01 1.704642e+02 1.425068e+02 9.915812e+01 1.163603e+02 1.707349e+02 1.514012e+02 1.042467e+02 1.251802e+02 5.595492e+01 1.142508e+02 1.091101e+02 6.645157e+00 4.276352e+00 3.999128e+00 2.689495e+00 2.857970e+00 3.696743e+00
<VARIANCE> 33
 1.677709e+02 4.106416e+02 6.250818e+01 3.769928e+01 3.037716e+01 1.040477e+01 6.676768e+01 2.062020e+01 8.451495e+01 1.593920e+02 1.561158e+02 7.242236e+01 1.724667e+02 7.693114e+01 2.780003e+01 7.147237e+01 5.611032e+01 1.425278e+02 4.346809e+02 4.785944e+02 3.309747e+01 1.317907e+02 1.209712e+03 9.945791e+02 1.105601e+03 3.200113e+03 2.845466e+02 2.122941e+00 5.153124e-01 4.366818e-01 6.628995e-02 1.957107e-01 3.328022e-01
<GCONST> 1.866272e+02
<MIXTURE> 4 1.339290e-01
<MEAN> 33
