~o
<STREAMINFO> 1 33
<VECSIZE> 33<NULLD><USER><DIAGC>
~h "BN"
<BEGINHMM>
<NUMSTATES> 5
<STATE> 2
<NUMMIXES> 4
<MIXTURE> 1 3.110724e-01
<MEAN> 33
 1.743864e+02 1.388226e+02 1.046041e+02 1.397234e+02 1.761970e+02 1.769600e+02 1.353578e+02 1.340975e+02 9.054477e+01 1.603581e+02 1.764933e+02 9.559952e-01 1.756484e+02 1.624412e+02 1.646057e+02 1.669053e+02 1.705711e+02 8.073625e+00 1.049845e+02 1.614201e+02 1.695216e+02 1.635801e+02 1.098288e+02 1.617582e+02 6.934656e+01 9.279184e+01 1.605726e+02 4.351135e+00 2.301134e+00 2.569247e+00 2.389651e+00 2.266760e+00 4.681338e+00
<VARIANCE> 33
 3.902650e+01 1.761999e+01 4.606908e+01 2.762411e+01 3.037716e+01 3.786160e+00 2.822034e+01 2.062020e+01 1.886277e+01 3.437812e+01 9.195989e+00 5.357184e-01 8.025620e+00 3.218554e+01 4.179673e+01 6.478469e+01 5.261349e+01 3.148238e+01 3.987288e+02 9.153046e+01 2.565930e+01 1.025079e+02 3.602000e+02 1.868741e+02 6.133516e+02 8.143221e+02 1.978551e+02 4.602805e+00 3.768564e-01 2.476408e-01 3.693045e-01 3.089380e-01 2.849325e+00
<GCONST> 1.603201e+02
<MIXTURE> 2 1.308998e-01
<MEAN> 33
 1.479953e+02 1.371523e+02 1.106214e+02 1.362244e+02 1.750462e+02 1.766888e+02 1.241618e+02 1.347247e+02 1.007151e+02 1.213958e+02 1.751170e+02 1.002223e+00 1.756131e+02 1.609469e+02 1.613566e+02 1.193275e+02 1.664440e+02 4.853200e+01 5.503207e+01 1.578301e+02 1.689348e+02 1.638044e+02 1.006383e+02 1.589979e+02 4.544199e+01 7.504265e+01 1.175628e+02 8.721296e+00 3.076121e+00 3.030079e+00 2.595290e+00 2.117338e+00 4.228476e+00
<VARIANCE> 33
 3.658667e+02 2.119785e+01 4.060747e+01 1.337751e+01 3.037716e+01 7.862206e+00 2.366914e+02 2.062020e+01 2.876168e+02 2.143573e+02 1.636260e+01 6.518371e-01 6.578324e+00 3.782761e+01 4.101101e+01 3.535094e+02 6.523759e+01 4.516356e+02 2.649567e+02 1.523730e+02 2.418868e+01 8.956299e+01 5.120068e+02 2.328177e+02 5.617960e+02 7.561710e+02 2.831277e+02 1.492792e+00 5.309898e-01 1.029000e-01 7.314764e-02 9.165440e-02 9.656620e-01
<GCONST> 1.696925e+02
<MIXTURE> 3 2.129819e-01
<MEAN> 33
 1.721779e+02 1.358007e+02 1.128612e+02 1.380333e+02 1.700948e+02 1.757602e+02 1.344367e+02 1.336650e+02 9.189828e+01 1.566665e+02 1.693822e+02 1.743711e+00 1.727727e+02 1.583846e+02 1.607280e+02 1.602161e+02 1.594410e+02 2.203579e+01 1.005615e+02 1.408049e+02 1.707353e+02 1.517700e+02 1.080114e+02 1.434750e+02 9.560688e+01 8.123335e+01 1.489500e+02 5.182969e+00 3.545031e+00 2.898032e+00 2.720988e+00 2.962744e+00 5.166476e+00
<VARIANCE> 33
 3.902650e+01 3.250944e+01 6.706287e+01 4.410495e+01 5.880054e+01 1.210855e+01 3.568418e+01 3.767349e+01 8.554484e+01 1.643033e+02 6.170314e+01 1.835717e+00 3.389231e+01 2.623884e+02 3.092088e+01 2.439114e+02 2.312108e+02 3.123001e+02 1.893181e+03 3.823434e+02 3.661896e+01 2.414532e+02 1.816933e+03 8.179702e+02 2.296302e+03 2.206606e+03 6.144540e+02 3.842756e+00 2.760966e+00 5.447008e-01 2.377212e-01 1.197472e+00 4.401829e+00
<GCONST> 1.936789e+02
<MIXTURE> 4 3.450451e-01
<MEAN> 33
 7.463848e+01 1.464918e+02 1.126225e+02 1.482668e+02 1.168154e+02 1.742264e+02 5.851759e+01 9.979472e+01 1.121626e+02 9.995274e+01 1.465901e+02 2.970800e+00 1.673466e+02 1.351373e+02 1.647749e+02 7.186819e+01 1.116550e+02 8.729018e+01 9.158774e+01 1.307241e+02 1.711390e+02 1.532096e+02 5.763151e+01 1.185857e+02 5.788279e+01 9.900029e+01 9.778642e+01 5.180846e+00 3.763496e+00 3.385963e+00 2.706005e+00 3.759549e+00 4.017356e+00
<VARIANCE> 33
 3.987464e+03 2.656729e+02 7.014354e+01 3.744510e+02 1.748234e+03 1.996947e+01 2.909800e+03 1.659817e+03 2.045985e+03 1.697247e+03 7.316469e+02 1.611890e+01 1.453132e+02 1.368350e+03 3.410776e+01 3.036917e+03 1.980565e+03 3.017178e+03 1.795069e+03 6.320605e+02 5.222332e+01 4.698188e+02 1.827185e+03 2.075557e+03 1.769638e+03 3.137272e+03 2.460702e+03 3.740318e+00 2.184764e+00 6.108330e-01 5.908436e-01 9.934219e-01 2.537492e+00
<GCONST> 2.388794e+02
<STATE> 3
<NUMMIXES> 4
<MIXTURE> 1 2.044162e-01
<MEAN> 33
 5.938483e+01 1.530724e+02 1.132643e+02 1.351838e+02 1.713012e+02 1.766135e+02 5.106173e+01 1.367348e+02 1.494031e+02 9.180633e+01 1.549939e+02 3.026859e+00 1.746620e+02 1.627280e+02 1.619531e+02 6.420766e+01 1.674781e+02 1.161222e+02 8.187821e+01 1.448199e+02 1.683373e+02 1.537272e+02 1.087498e+02 1.439470e+02 3.112906e+01 1.098390e+02 1.191453e+02 7.909500e+00 3.574830e+00 3.524296e+00 2.540103e+00 2.461840e+00 3.380525e+00
<VARIANCE> 33
 2.526153e+03 2.820702e+02 8.321526e+01 1.597502e+01 3.852177e+01 9.210505e+00 1.490116e+03 2.062020e+01 6.026207e+02 8.624500e+02 2.190116e+02 8.818112e+00 1.236731e+01 2.993394e+01 2.914933e+01 8.784749e+02 5.583260e+01 1.333046e+03 8.423350e+02 5.358785e+02 2.980237e+01 1.717399e+02 9.949106e+02 6.094185e+02 4.185951e+02 2.369889e+03 5.041318e+02 1.548387e+00 1.149053e+00 4.766696e-01 1.298172e-01 3.246498e-01 6.045318e-01
<GCONST> 1.966041e+02
<MIXTURE> 2 3.324039e-01
<MEAN> 33
 1.815184e+01 1.646422e+02 1.057307e+02 1.363386e+02 1.748395e+02 1.761764e+02 1.610333e+01 1.356237e+02 1.517262e+02 6.404355e+01 1.367111e+02 2.038794e+00 1.749326e+02 1.635918e+02 1.624695e+02 2.801028e+01 1.659497e+02 1.396198e+02 7.764777e+01 1.372469e+02 1.698205e+02 1.630583e+02 1.091412e+02 1.154366e+02 5.317743e+01 1.077737e+02 1.074030e+02 5.629026e+00 4.092682e+00 2.984279e+00 2.898474e+00 2.200184e+00 4.421344e+00
<VARIANCE> 33
 8.200364e+01 1.918516e+02 6.257852e+01 1.631307e+01 3.037716e+01 9.964594e+00 2.822034e+01 2.062020e+01 3.297020e+01 2.555437e+02 4.860295e+02 3.682231e+00 1.919674e+01 2.228742e+01 3.232830e+01 3.071743e+01 7.660007e+01 1.536010e+02 2.450791e+02 2.601280e+02 5.400061e+01 1.121857e+02 3.953775e+02 1.744581e+03 1.601053e+03 2.506239e+03 2.320027e+02 6.827410e-01 1.028017e+00 5.639385e-01 2.194322e-01 1.061432e-01 1.103899e+00
<GCONST> 1.774622e+02
<MIXTURE> 3 3.324039e-01
<MEAN> 33
 1.815184e+01 1.646422e+02 1.057307e+02 1.363386e+02 1.748395e+02 1.761764e+02 1.610333e+01 1.356237e+02 1.517262e+02 6.404355e+01 1.367111e+02 2.038794e+00 1.749326e+02 1.635918e+02 1.624695e+02 2.801028e+01 1.659497e+02 1.396198e+02 7.764777e+01 1.372469e+02 1.698205e+02 1.630583e+02 1.091412e+02 1.154366e+02 5.317743e+01 1.077737e+02 1.074030e+02 5.629026e+00 4.092682e+00 2.984279e+00 2.898474e+00 2.200184e+00 4.421344e+00
<VARIANCE> 33
 8.200364e+01 1.918516e+02 6.257852e+01 1.631307e+01 3.037716e+01 9.964594e+00 2.822034e+01 2.062020e+01 3.297020e+01 2.555437e+02 4.860295e+02 3.682231e+00 1.919674e+01 2.228742e+01 3.232830e+01 3.071743e+01 7.660007e+01 1.536010e+02 2.450791e+02 2.601280e+02 5.400061e+01 1.121857e+02 3.953775e+02 1.744581e+03 1.601053e+03 2.506239e+03 2.320027e+02 6.827410e-01 1.028017e+00 5.639385e-01 2.194322e-01 1.061432e-01 1.103899e+00
<GCONST> 1.774622e+02
<MIXTURE> 4 1.307770e-01
<MEAN> 33
 3.756881e+01 1.580061e+02 1.173378e+02 1.363337e+02 1.488443e+02 1.753079e+02 3.194719e+01 1.262827e+02 1.516329e+02 6.035636e+01 1.467977e+02 1.404386e+01 1.578183e+02 1.440033e+02 1.611494e+02 3.985445e+01 1.409552e+02 1.219366e+02 6.321443e+01 1.530838e+02 1.580697e+02 1.525664e+02 8.098952e+01 6.560711e+01 9.706209e+01 1.186639e+02 1.046151e+02 4.762677e+00 4.151740e+00 2.149292e+00 2.883520e+00 3.246349e+00 5.003345e+00
<VARIANCE> 33
 2.027571e+03 2.666380e+02 1.504321e+02 1.595918e+02 1.140350e+03 1.223393e+01 1.149483e+03 6.830510e+02 2.913419e+02 1.472358e+03 6.806732e+02 1.814789e+02 1.813367e+02 8.210514e+02 4.287812e+01 1.751795e+03 1.151869e+03 9.701407e+02 3.668943e+02 2.936167e+02 2.986552e+02 1.869902e+02 1.351710e+03 1.821794e+03 2.118422e+03 1.487043e+03 6.729772e+02 2.080019e+00 1.489012e+00 5.553446e-01 4.254093e-01 1.206930e+00 3.894829e+00
<GCONST> 2.287556e+02
<STATE> 4
<NUMMIXES> 4
<MIXTURE> 1 4.571416e-01
<MEAN> 33
 1.719850e+02 1.373730e+02 1.104399e+02 1.373894e+02 1.733193e+02 1.762242e+02 1.357642e+02 1.358017e+02 8.843413e+01 1.598109e+02 1.718370e+02 1.944429e+00 1.738473e+02 1.633291e+02 1.617112e+02 1.603833e+02 1.669961e+02 1.725301e+01 1.080472e+02 1.505339e+02 1.681354e+02 1.586065e+02 1.097023e+02 1.499475e+02 8.495113e+01 8.443533e+01 1.516401e+02 5.444361e+00 2.954427e+00 2.901326e+00 2.695830e+00 2.546583e+00 4.786068e+00
<VARIANCE> 33
 5.733435e+01 3.391061e+01 6.479723e+01 3.887062e+01 3.518692e+01 1.151421e+01 2.822034e+01 2.062020e+01 3.834653e+01 1.343323e+02 4.776328e+01 5.247018e+00 2.539631e+01 5.642878e+01 3.551201e+01 2.332214e+02 8.631061e+01 1.874482e+02 1.452096e+03 3.808293e+02 2.630836e+01 2.063144e+02 8.533192e+02 7.766719e+02 1.480466e+03 1.573304e+03 4.875070e+02 4.574964e+00 1.536378e+00 3.105444e-01 2.834891e-01 8.484697e-01 2.715234e+00
<GCONST> 1.849079e+02
<MIXTURE> 2 1.600162e-01
<MEAN> 33
 1.703782e+02 1.362176e+02 1.159600e+02 1.487752e+02 3.190203e+01 1.716348e+02 1.363495e+02 3.038403e+01 1.597175e+02 1.567105e+02 1.741925e+02 1.056297e+01 1.241678e+02 7.343450e+01 1.635130e+02 1.645565e+02 3.648143e+01 1.288169e+02 7.703680e+01 1.496028e+02 1.653658e+02 1.385557e+02 6.774149e+01 1.260847e+02 6.470558e+01 7.591258e+01 1.101276e+02 2.901295e+00 2.383182e+00 2.614212e+00 2.822809e+00 4.292147e+00 6.076955e+00
<VARIANCE> 33
 3.902650e+01 4.200461e+01 1.147322e+02 5.510823e+02 8.993356e+02 2.970058e+01 2.822034e+01 3.472391e+02 1.231994e+02 5.982516e+01 2.069321e+01 2.265737e+02 1.117847e+03 5.785250e+02 1.244716e+02 1.020397e+02 3.917551e+02 3.072190e+02 8.065496e+02 5.728271e+02 8.784609e+01 5.108831e+02 5.998548e+02 2.240032e+03 1.913862e+03 2.360976e+03 2.148375e+02 2.097591e+00 4.006603e-01 2.921824e-01 6.460721e-01 1.944234e+00 2.217930e+00
<GCONST> 2.085547e+02
<MIXTURE> 3 2.472724e-01
<MEAN> 33
 1.714888e+02 1.390467e+02 1.080466e+02 1.650582e+02 1.816961e+01 1.762397e+02 1.355604e+02 2.059819e+01 1.561586e+02 1.587202e+02 1.692017e+02 1.612698e+00 1.466314e+02 5.528234e+01 1.640769e+02 1.677601e+02 2.691201e+01 1.422482e+02 9.337519e+01 1.537970e+02 1.678235e+02 1.457228e+02 7.103997e+01 9.199825e+01 1.037795e+02 7.875858e+01 1.164639e+02 4.572558e+00 2.625958e+00 2.654609e+00 2.735447e+00 4.315440e+00 5.962051e+00
<VARIANCE> 33
 3.902650e+01 3.963409e+01 7.325499e+01 1.337136e+02 9.983124e+01 8.870193e+00 2.822034e+01 2.907116e+01 3.622248e+01 3.505106e+01 8.730872e+01 1.773784e+00 4.830182e+02 2.194398e+02 3.943673e+01 7.977295e+01 3.533907e+01 1.038607e+02 4.399276e+02 1.692769e+02 6.500208e+01 3.576303e+02 2.972493e+02 3.040902e+03 1.957775e+03 2.555219e+03 1.895983e+02 1.554284e+00 2.423674e-01 2.687428e-01 7.947276e-01 9.565646e-01 1.613041e+00
<GCONST> 1.842722e+02
<MIXTURE> 4 1.355685e-01
<MEAN> 33
 1.256813e+02 1.449730e+02 1.119487e+02 1.427921e+02 1.079519e+02 1.748430e+02 1.021165e+02 8.558219e+01 1.039151e+02 1.222304e+02 1.612685e+02 6.056844e+00 1.552354e+02 1.131955e+02 1.655930e+02 1.148743e+02 9.190528e+01 5.805727e+01 8.302077e+01 1.427072e+02 1.689411e+02 1.461797e+02 8.775452e+01 1.032330e+02 1.001147e+02 6.644009e+01 1.082667e+02 4.578027e+00 3.053378e+00 2.579867e+00 2.838056e+00 3.502666e+00 5.730236e+00
<VARIANCE> 33
 2.928135e+03 1.854098e+02 1.368961e+02 1.149952e+03 3.599988e+03 1.812062e+01 1.900536e+03 2.338707e+03 1.416013e+03 2.051791e+03 2.627805e+02 8.585859e+01 7.518419e+02 1.798436e+03 4.379861e+01 2.958410e+03 2.864217e+03 1.611178e+03 1.626857e+03 3.639249e+02 5.618655e+01 1.203073e+03 1.599808e+03 2.605231e+03 2.717109e+03 2.067883e+03 1.948533e+03 3.187538e+00 9.206465e-01 4.920638e-01 8.939580e-01 1.879555e+00 5.325521e+00
<GCONST> 2.436853e+02
<TRANSP> 5
 0.000000e+00 1.000000e+00 0.000000e+00 0.000000e+00 0.000000e+00
 0.000000e+00 8.570991e-01 1.429010e-01 0.000000e+00 0.000000e+00
 0.000000e+00 0.000000e+00 9.544057e-01 4.559436e-02 0.000000e+00
 0.000000e+00 0.000000e+00 0.000000e+00 9.514093e-01 4.859068e-02
 0.000000e+00 0.000000e+00 0.000000e+00 0.000000e+00 0.000000e+00
<ENDHMM>
~h "BS"
<BEGINHMM>
<NUMSTATES> 5
<STATE> 2
<NUMMIXES> 4
<MIXTURE> 1 2.587949e-01
<MEAN> 33
 1.732424e+02 1.369850e+02 1.079358e+02 1.380803e+02 1.749803e+02 1.763522e+02 1.354302e+02 1.347000e+02 8.986974e+01 1.566824e+02 1.751285e+02 1.049079e+00 1.749647e+02 1.600796e+02 1.625066e+02 1.606774e+02 1.655535e+02 9.866659e+00 1.002692e+02 1.584055e+02 1.701254e+02 1.625187e+02 1.049967e+02 1.592615e+02 7.476836e+01 8.195013e+01 1.489216e+02 5.292449e+00 2.639193e+00 2.693992e+00 2.550386e+00 2.245727e+00 4.842572e+00
<VARIANCE> 33
 3.902650e+01 2.160682e+01 5.625608e+01 3.114605e+01 3.037716e+01 1.142944e+01 2.822034e+01 2.062020e+01 2.655490e+01 1.127927e+02 2.008304e+01 1.252072e+00 1.731451e+01 7.524624e+01 4.157468e+01 1.360967e+02 1.026453e+02 8.078688e+01 9.108297e+02 2.122018e+02 2.536481e+01 1.754573e+02 6.199445e+02 3.176111e+02 1.038022e+03 9.684427e+02 4.007829e+02 3.953338e+00 7.838695e-01 3.107613e-01 2.787115e-01 5.260944e-01 3.585528e+00
<GCONST> 1.750344e+02
<MIXTURE> 2 2.045715e-01
<MEAN> 33
 1.114871e+02 1.367233e+02 1.157731e+02 1.396111e+02 1.225064e+02 1.752247e+02 9.892067e+01 1.037107e+02 1.139329e+02 1.154332e+02 1.643737e+02 3.956530e+00 1.614911e+02 1.195444e+02 1.598397e+02 9.421672e+01 9.649266e+01 1.281891e+01 9.532624e+01 1.358411e+02 1.700805e+02 1.503520e+02 9.346815e+01 1.463600e+02 4.114331e+01 5.724599e+01 5.479878e+01 5.553611e+00 2.857115e+00 3.078402e+00 3.009171e+00 2.983766e+00 5.348046e+00
<VARIANCE> 33
 1.355069e+03 8.541464e+01 9.956074e+01 1.135390e+02 1.023446e+03 2.157231e+01 1.530505e+03 1.156841e+03 2.213761e+03 2.539168e+02 1.262605e+02 1.779198e+02 2.766237e+02 2.577418e+02 4.177612e+01 4.966284e+02 5.012769e+02 2.261667e+02 1.898934e+03 8.277341e+02 3.198821e+01 4.172686e+02 1.419404e+03 9.988686e+02 1.291262e+03 1.685856e+03 1.256787e+03 2.428096e+00 9.842914e-01 4.011995e-01 3.237923e-01 1.029187e+00 1.819853e+00
<GCONST> 2.211625e+02
<MIXTURE> 3 2.045715e-01
<MEAN> 33
 1.114871e+02 1.367233e+02 1.157731e+02 1.396111e+02 1.225064e+02 1.752247e+02 9.892067e+01 1.037107e+02 1.139329e+02 1.154332e+02 1.643737e+02 3.956530e+00 1.614911e+02 1.195444e+02 1.598397e+02 9.421672e+01 9.649266e+01 1.281891e+01 9.532624e+01 1.358411e+02 1.700805e+02 1.503520e+02 9.346815e+01 1.463600e+02 4.114331e+01 5.724599e+01 5.479878e+01 5.553611e+00 2.857115e+00 3.078402e+00 3.009171e+00 2.983766e+00 5.348046e+00
<VARIANCE> 33
 1.355069e+03 8.541464e+01 9.956074e+01 1.135390e+02 1.023446e+03 2.157231e+01 1.530505e+03 1.156841e+03 2.213761e+03 2.539168e+02 1.262605e+02 1.779198e+02 2.766237e+02 2.577418e+02 4.177612e+01 4.966284e+02 5.012769e+02 2.261667e+02 1.898934e+03 8.277341e+02 3.198821e+01 4.172686e+02 1.419404e+03 9.988686e+02 1.291262e+03 1.685856e+03 1.256787e+03 2.428096e+00 9.842914e-01 4.011995e-01 3.237923e-01 1.029187e+00 1.819853e+00
<GCONST> 2.211625e+02
<MIXTURE> 4 3.320617e-01
<MEAN> 33
 7.375019e+01 1.333151e+02 1.106799e+02 1.386454e+02 7.037035e+01 1.739429e+02 3.591875e+01 3.552542e+01 5.087078e+01 1.053137e+02 1.515462e+02 2.281132e+00 1.540417e+02 1.063264e+02 1.626728e+02 6.830370e+01 6.930286e+01 7.266989e+00 1.134445e+02 1.096980e+02 1.689549e+02 1.264695e+02 9.885197e+01 1.286393e+02 6.176345e+01 5.662474e+01 2.194375e+01 4.019205e+00 3.031184e+00 3.733392e+00 3.533051e+00 3.499620e+00 4.028511e+00
<VARIANCE> 33
 4.922800e+02 9.647400e+01 7.106332e+01 9.655107e+01 5.658765e+02 3.602132e+01 5.225032e+02 6.010748e+02 1.375293e+03 4.300120e+02 3.160428e+02 1.206435e+01 3.217177e+02 4.142216e+02 3.955942e+01 1.561150e+02 1.647782e+02 4.684151e+01 7.639995e+02 5.802584e+02 1.236690e+02 5.566198e+02 5.842018e+02 2.033331e+03 2.329702e+03 2.339165e+03 3.050829e+02 5.641287e-01 9.864164e-01 4.188449e-01 2.785377e-01 1.062482e+00 5.445653e-01
<GCONST> 2.099270e+02
<STATE> 3
<NUMMIXES> 4
<MIXTURE> 1 2.108562e-01
<MEAN> 33
 1.515904e+02 1.577613e+02 1.103265e+02 1.606058e+02 1.545016e+02 1.750623e+02 9.284837e+01 9.192793e+01 1.635825e+02 1.205525e+02 1.687897e+02 2.298442e+00 1.606925e+02 1.091826e+02 1.646120e+02 1.001792e+02 9.066594e+01 5.129606e+01 1.264408e+02 1.600581e+02 1.643367e+02 1.527298e+02 1.206350e+02 1.353733e+02 7.786594e+01 9.746022e+01 1.528137e+02 6.433749e+00 3.535418e+00 1.816890e+00 1.665259e+00 3.986866e+00 6.312878e+00
<VARIANCE> 33
 3.374842e+02 1.029131e+02 8.392957e+01 8.587748e+01 2.511401e+02 1.659699e+01 1.444621e+02 1.260695e+02 1.299520e+02 8.174510e+02 9.836562e+01 4.966795e+00 2.429691e+02 1.056170e+03 5.547475e+01 1.605437e+03 2.367662e+03 1.667400e+03 6.224157e+02 1.384396e+02 8.531342e+01 1.856745e+02 4.705512e+02 1.846438e+03 1.222936e+03 1.200947e+03 4.367708e+02 2.388724e+00 2.578945e+00 1.335008e-01 1.320662e-01 3.610658e+00 2.771030e+00
<GCONST> 2.100110e+02
<MIXTURE> 2 2.798210e-01
<MEAN> 33
 1.368952e+02 1.395002e+02 1.158892e+02 1.398067e+02 1.485578e+02 1.756270e+02 9.104537e+01 9.454089e+01 1.662268e+02 1.023777e+02 1.724909e+02 3.145696e+00 1.722953e+02 1.061650e+02 1.601209e+02 9.062851e+01 9.529274e+01 1.012763e+01 9.922502e+01 1.499417e+02 1.695258e+02 1.545964e+02 9.858544e+01 1.431329e+02 4.934370e+01 8.061491e+01 1.168397e+02 8.116452e+00 2.195186e+00 2.397539e+00 2.288732e+00 2.379312e+00 7.913705e+00
<VARIANCE> 33
 4.709992e+02 5.435814e+01 1.232462e+02 6.761407e+01 3.980074e+02 1.461588e+01 8.046307e+01 7.501894e+01 9.945991e+01 1.631561e+02 3.888071e+01 1.258543e+01 3.738104e+01 1.938962e+02 3.959251e+01 1.788950e+02 2.387617e+02 6.705249e+01 1.065159e+03 4.803905e+02 4.026279e+01 2.890272e+02 7.561559e+02 9.398607e+02 1.397959e+03 1.247351e+03 3.692583e+02 7.866490e-01 5.547234e-01 7.673343e-02 7.728735e-02 5.899273e-01 6.409912e-01
<GCONST> 1.898600e+02
<MIXTURE> 3 2.798210e-01
<MEAN> 33
 1.368952e+02 1.395002e+02 1.158892e+02 1.398067e+02 1.485578e+02 1.756270e+02 9.104537e+01 9.454089e+01 1.662268e+02 1.023777e+02 1.724909e+02 3.145696e+00 1.722953e+02 1.061650e+02 1.601209e+02 9.062851e+01 9.529274e+01 1.012763e+01 9.922502e+01 1.499417e+02 1.695258e+02 1.545964e+02 9.858544e+01 1.431329e+02 4.934370e+01 8.061491e+01 1.168397e+02 8.116452e+00 2.195186e+00 2.397539e+00 2.288732e+00 2.379312e+00 7.913705e+00
<VARIANCE> 33
 4.709992e+02 5.435814e+01 1.232462e+02 6.761407e+01 3.980074e+02 1.461588e+01 8.046307e+01 7.501894e+01 9.945991e+01 1.631561e+02 3.888071e+01 1.258543e+01 3.738104e+01 1.938962e+02 3.959251e+01 1.788950e+02 2.387617e+02 6.705249e+01 1.065159e+03 4.803905e+02 4.026279e+01 2.890272e+02 7.561559e+02 9.398607e+02 1.397959e+03 1.247351e+03 3.692583e+02 7.866490e-01 5.547234e-01 7.673343e-02 7.728735e-02 5.899273e-01 6.409912e-01
<GCONST> 1.898600e+02
<MIXTURE> 4 2.295014e-01
<MEAN> 33
 1.047816e+02 1.542210e+02 1.072482e+02 1.617039e+02 1.131560e+02 1.670259e+02 7.123848e+01 7.069670e+01 1.416742e+02 6.550349e+01 1.694926e+02 2.667109e+00 1.681399e+02 5.878012e+01 1.628211e+02 3.767687e+01 3.085400e+01 1.558352e+01 1.318678e+02 1.610069e+02 1.666303e+02 1.624108e+02 1.255751e+02 1.335300e+02 7.929020e+01 7.854852e+01 1.503296e+02 6.269886e+00 2.950368e+00 1.928408e+00 1.688006e+00 3.333245e+00 6.971641e+00
<VARIANCE> 33
 3.676343e+02 1.158471e+02 2.795453e+01 1.135244e+02 3.888367e+02 9.899001e+01 5.591127e+01 8.534570e+01 2.391529e+02 7.223845e+02 7.285206e+01 4.465425e+00 1.072067e+02 5.423824e+02 3.666086e+01 4.475602e+02 4.709149e+02 1.361654e+02 6.248454e+02 1.355714e+02 4.957806e+01 2.257821e+02 4.067524e+02 1.159318e+03 1.549762e+03 1.378075e+03 5.769902e+02 2.073347e+00 2.991074e+00 2.690454e-01 1.720500e-01 3.223445e+00 1.595618e+00
<GCONST> 2.030455e+02
<STATE> 4
<NUMMIXES> 4
<MIXTURE> 1 4.264594e-01
<MEAN> 33
 1.742133e+02 1.365598e+02 1.090924e+02 1.382607e+02 1.739468e+02 1.768392e+02 1.358680e+02 1.354070e+02 8.872500e+01 1.621081e+02 1.748898e+02 9.295501e-01 1.748679e+02 1.652444e+02 1.615013e+02 1.652266e+02 1.682786e+02 8.604379e+00 1.081946e+02 1.605912e+02 1.683895e+02 1.660592e+02 1.146977e+02 1.589892e+02 8.334157e+01 7.765443e+01 1.555123e+02 5.521249e+00 2.352776e+00 2.976415e+00 2.700717e+00 2.171804e+00 5.151168e+00
<VARIANCE> 33
 3.902650e+01 2.106201e+01 3.824923e+01 1.832809e+01 3.037716e+01 5.388848e+00 2.822034e+01 2.062020e+01 4.034005e+01 5.497654e+01 1.545692e+01 5.357184e-01 1.033619e+01 5.364103e+01 3.104036e+01 7.394167e+01 6.578596e+01 3.294632e+01 7.772793e+02 1.103570e+02 1.823837e+01 9.006271e+01 6.806166e+02 1.654228e+02 6.370579e+02 6.762267e+02 2.349674e+02 2.165956e+00 2.524799e-01 2.687304e-01 1.680324e-01 1.588105e-01 2.148765e+00
<GCONST> 1.609861e+02
<MIXTURE> 2 2.009792e-01
<MEAN> 33
 1.671299e+02 1.413092e+02 1.124591e+02 1.432309e+02 1.662860e+02 1.759616e+02 1.255952e+02 1.244756e+02 1.099292e+02 1.388564e+02 1.711891e+02 1.578707e+00 1.689087e+02 1.410394e+02 1.622616e+02 1.361483e+02 1.360840e+02 1.102888e+01 9.215427e+01 1.594123e+02 1.653931e+02 1.626743e+02 9.648769e+01 1.553583e+02 5.691050e+01 6.080024e+01 1.145643e+02 6.741659e+00 2.595290e+00 2.559122e+00 2.508912e+00 2.569298e+00 6.956881e+00
<VARIANCE> 33
 6.951773e+01 5.851144e+01 5.810464e+01 8.064229e+01 7.569296e+01 9.713014e+00 1.845923e+02 1.505501e+02 5.851080e+02 2.119310e+02 4.376765e+01 1.975736e+00 5.844793e+01 2.002264e+02 4.328685e+01 2.296776e+02 2.253781e+02 7.818207e+01 6.268729e+02 1.705481e+02 5.969822e+01 1.382926e+02 5.310935e+02 2.997104e+02 7.313445e+02 6.537958e+02 5.090692e+02 1.589421e+00 4.415751e-01 1.284177e-01 1.624842e-01 3.520569e-01 1.362878e+00
<GCONST> 1.857108e+02
<MIXTURE> 3 2.269303e-01
<MEAN> 33
 1.707601e+02 1.393731e+02 1.121785e+02 1.419191e+02 1.686995e+02 1.745322e+02 1.344443e+02 1.326853e+02 9.287048e+01 1.588866e+02 1.719901e+02 2.670862e+00 1.697236e+02 1.626143e+02 1.621308e+02 1.633224e+02 1.599326e+02 1.473449e+01 1.103370e+02 1.456812e+02 1.670668e+02 1.502370e+02 1.243323e+02 1.428541e+02 8.569022e+01 1.035528e+02 1.470513e+02 4.607907e+00 3.657476e+00 2.626745e+00 2.499506e+00 3.087315e+00 4.770716e+00
<VARIANCE> 33
 7.620280e+01 6.370687e+01 9.276292e+01 9.612733e+01 7.648576e+01 2.079144e+01 5.954359e+01 6.802972e+01 2.002190e+02 1.805329e+02 4.333522e+01 7.698159e+00 6.134606e+01 1.590730e+02 4.322889e+01 1.550886e+02 1.853292e+02 1.680711e+02 1.825931e+03 3.089246e+02 4.816010e+01 2.881943e+02 1.450960e+03 1.580505e+03 1.618544e+03 1.488421e+03 4.907145e+02 3.094209e+00 3.066182e+00 3.609308e-01 2.597608e-01 1.277928e+00 3.002757e+00
<GCONST> 1.981047e+02
<MIXTURE> 4 1.456298e-01
<MEAN> 33
 1.249308e+02 1.364225e+02 1.155059e+02 1.415977e+02 1.036944e+02 1.710152e+02 1.069964e+02 8.677278e+01 1.044403e+02 1.176342e+02 1.676867e+02 4.497051e+00 1.625592e+02 9.847776e+01 1.601841e+02 1.032380e+02 7.648056e+01 3.538237e+01 9.812330e+01 1.296663e+02 1.688099e+02 1.452108e+02 9.184272e+01 1.319449e+02 5.494146e+01 7.573347e+01 8.249689e+01 5.540142e+00 2.963922e+00 2.968369e+00 2.874175e+00 3.717746e+00 5.745689e+00
<VARIANCE> 33
 1.720411e+03 1.197526e+02 1.567742e+02 2.242834e+02 2.648265e+03 5.266490e+01 2.072011e+03 2.731654e+03 2.945182e+03 1.429447e+03 7.112261e+01 2.012073e+01 1.536462e+02 1.408715e+03 6.998290e+01 1.964052e+03 1.620291e+03 2.228276e+03 1.609053e+03 1.028841e+03 6.189457e+01 5.904203e+02 1.100217e+03 1.539733e+03 2.042177e+03 1.990967e+03 2.724797e+03 2.019098e+00 1.045266e+00 7.220526e-01 7.186915e-01 1.391784e+00 2.337800e+00
<GCONST> 2.360501e+02
<TRANSP> 5
 0.000000e+00 1.000000e+00 0.000000e+00 0.000000e+00 0.000000e+00
 0.000000e+00 9.287340e-01 7.126602e-02 0.000000e+00 0.000000e+00
 0.000000e+00 0.000000e+00 9.348351e-01 6.516495e-02 0.000000e+00
 0.000000e+00 0.000000e+00 0.000000e+00 9.311169e-01 6.888308e-02
 0.000000e+00 0.000000e+00 0.000000e+00 0.000000e+00 0.000000e+00
<ENDHMM>
~h "CF"
<BEGINHMM>
<NUMSTATES> 5
<STATE> 2
<NUMMIXES> 4
<MIXTURE> 1 4.037088e-01
<MEAN> 33
 1.724967e+02 1.358955e+02 1.096184e+02 1.367115e+02 1.746966e+02 1.764592e+02 1.351599e+02 1.347783e+02 9.006181e+01 1.555634e+02 1.754673e+02 1.408124e+00 1.744144e+02 1.611779e+02 1.610115e+02 1.610808e+02 1.652428e+02 1.369934e+01 9.180620e+01 1.536225e+02 1.695218e+02 1.644413e+02 1.077530e+02 1.584691e+02 7.013328e+01 8.481135e+01 1.502583e+02 5.430418e+00 2.571412e+00 2.794430e+00 2.685564e+00 2.200357e+00 5.141801e+00
<VARIANCE> 33
 3.902650e+01 2.338989e+01 4.773438e+01 2.818042e+01 3.037716e+01 1.015575e+01 2.822034e+01 2.062020e+01 3.292991e+01 9.536030e+01 2.286676e+01 3.465231e+00 1.339948e+01 6.540483e+01 3.741368e+01 1.670421e+02 1.009034e+02 1.733838e+02 8.691658e+02 3.507814e+02 2.866352e+01 1.411430e+02 5.795933e+02 2.261549e+02 9.559681e+02 1.126613e+03 3.640457e+02 4.703959e+00 7.467573e-01 3.495567e-01 2.430153e-01 4.759465e-01 3.413874e+00
<GCONST> 1.762588e+02
<MIXTURE> 2 1.373157e-01
<MEAN> 33
 6.099474e+01 1.510572e+02 1.108934e+02 1.357053e+02 1.749334e+02 1.761842e+02 4.315277e+01 1.349460e+02 1.371292e+02 1.020847e+02 1.462036e+02 1.192126e+00 1.757067e+02 1.642770e+02 1.592084e+02 6.506079e+01 1.656759e+02 1.093462e+02 7.696370e+01 1.407370e+02 1.687861e+02 1.603847e+02 1.139849e+02 1.604365e+02 2.629702e+01 8.041458e+01 9.883739e+01 7.608895e+00 3.761964e+00 3.453957e+00 2.684466e+00 2.125374e+00 3.377072e+00
<VARIANCE> 33
 2.076981e+03 2.081895e+02 4.537320e+01 1.528979e+01 3.037716e+01 8.541907e+00 2.194825e+03 2.062020e+01 5.555085e+02 3.918532e+02 7.421466e+02 1.427737e+00 7.986811e+00 6.862208e+01 3.164953e+01 7.752966e+02 9.605921e+01 1.214163e+03 6.237570e+02 4.986233e+02 1.863938e+01 1.520851e+02 9.019018e+02 1.886757e+02 2.797379e+02 9.752198e+02 4.382404e+02 1.903666e+00 9.715703e-01 3.067541e-01 1.558295e-01 1.449541e-01 7.172849e-01
<GCONST> 1.903373e+02
<MIXTURE> 3 1.373157e-01
<MEAN> 33
 6.099474e+01 1.510572e+02 1.108934e+02 1.357053e+02 1.749334e+02 1.761842e+02 4.315277e+01 1.349460e+02 1.371292e+02 1.020847e+02 1.462036e+02 1.192126e+00 1.757067e+02 1.642770e+02 1.592084e+02 6.506079e+01 1.656759e+02 1.093462e+02 7.696370e+01 1.407370e+02 1.687861e+02 1.603847e+02 1.139849e+02 1.604365e+02 2.629702e+01 8.041458e+01 9.883739e+01 7.608895e+00 3.761964e+00 3.453957e+00 2.684466e+00 2.125374e+00 3.377072e+00
<VARIANCE> 33
 2.076981e+03 2.081895e+02 4.537320e+01 1.528979e+01 3.037716e+01 8.541907e+00 2.194825e+03 2.062020e+01 5.555085e+02 3.918532e+02 7.421466e+02 1.427737e+00 7.986811e+00 6.862208e+01 3.164953e+01 7.752966e+02 9.605921e+01 1.214163e+03 6.237570e+02 4.986233e+02 1.863938e+01 1.520851e+02 9.019018e+02 1.886757e+02 2.797379e+02 9.752198e+02 4.382404e+02 1.903666e+00 9.715703e-01 3.067541e-01 1.558295e-01 1.449541e-01 7.172849e-01
<GCONST> 1.903373e+02
<MIXTURE> 4 3.216596e-01
<MEAN> 33
 9.390388e+01 1.389322e+02 1.182346e+02 1.418449e+02 9.366044e+01 1.739802e+02 7.698634e+01 7.222108e+01 1.052777e+02 1.037467e+02 1.578477e+02 7.318016e+00 1.424266e+02 1.139846e+02 1.595994e+02 8.935676e+01 8.485278e+01 7.378611e+01 7.867273e+01 1.263582e+02 1.684522e+02 1.347319e+02 8.196970e+01 1.080456e+02 7.482585e+01 8.179546e+01 9.017365e+01 4.106172e+00 3.328498e+00 3.109814e+00 3.025619e+00 3.905911e+00 5.177814e+00
<VARIANCE> 33
 3.895795e+03 5.493848e+02 2.015520e+02 2.832984e+02 3.541502e+03 1.756375e+01 2.861719e+03 2.702072e+03 2.507296e+03 1.922468e+03 4.659979e+02 2.188750e+02 9.056208e+02 1.224565e+03 2.938933e+01 2.789016e+03 2.340568e+03 2.756045e+03 1.894896e+03 1.452915e+03 1.051497e+02 4.753021e+02 1.517218e+03 2.082385e+03 2.452000e+03 2.089243e+03 2.226714e+03 2.446644e+00 1.932745e+00 1.169227e+00 5.670907e-01 1.722951e+00 3.393807e+00
<GCONST> 2.475915e+02
<STATE> 3
<NUMMIXES> 4
<MIXTURE> 1 3.749542e-01
<MEAN> 33
 2.711486e+01 1.516050e+02 1.108941e+02 1.353626e+02 1.738795e+02 1.755577e+02 7.606746e+00 1.366053e+02 1.435234e+02 8.936642e+01 1.073954e+02 1.925550e+00 1.761073e+02 1.623095e+02 1.595977e+02 2.953435e+01 1.654520e+02 1.363553e+02 7.785853e+01 1.195286e+02 1.735374e+02 1.638624e+02 9.890800e+01 1.252747e+02 5.735407e+01 8.481716e+01 8.883869e+01 5.088057e+00 5.530997e+00 3.237880e+00 3.039340e+00 2.298522e+00 4.171938e+00
<VARIANCE> 33
 2.394960e+02 3.940282e+02 7.086655e+01 9.846546e+00 3.037716e+01 1.384163e+01 2.822034e+01 2.062020e+01 3.476168e+01 3.902096e+02 3.865470e+02 1.839455e+00 7.605702e+00 1.416058e+01 4.476324e+01 3.071743e+01 5.875196e+01 9.759689e+01 3.091221e+02 1.511667e+02 1.768291e+01 1.206760e+02 2.392948e+02 9.844548e+02 9.566767e+02 3.355590e+03 1.851735e+02 6.787146e-01 1.120597e+00 3.512083e-01 1.432190e-01 1.125055e-01 6.568400e-01
<GCONST> 1.728244e+02
<MIXTURE> 2 2.471498e-01
<MEAN> 33
 2.924609e+01 1.502551e+02 1.156568e+02 1.352731e+02 1.700481e+02 1.752230e+02 1.568839e+01 1.361837e+02 1.512016e+02 9.059509e+01 1.141494e+02 7.279752e+00 1.704398e+02 1.627405e+02 1.589788e+02 3.491660e+01 1.664109e+02 1.423650e+02 8.095394e+01 1.277256e+02 1.683236e+02 1.528112e+02 1.096561e+02 1.089283e+02 7.114358e+01 1.129885e+02 1.092067e+02 6.041257e+00 4.471415e+00 3.262823e+00 2.616072e+00 2.515882e+00 3.564663e+00
<VARIANCE> 33
 4.483051e+02 5.793406e+02 2.363955e+02 7.226012e+01 3.212388e+01 1.427226e+01 1.208962e+02 2.062020e+01 1.479401e+02 1.081902e+03 7.288668e+02 1.581631e+02 5.916251e+01 8.233076e+01 4.733273e+01 1.661405e+02 1.042667e+02 4.256282e+02 7.151108e+02 4.586783e+02 1.940493e+02 1.614640e+02 1.145553e+03 1.486454e+03 1.685786e+03 3.491038e+03 5.090544e+02 2.237059e+00 2.095767e+00 1.072732e+00 3.910517e-01 3.951949e-01 1.870314e+00
<GCONST> 2.082078e+02
<MIXTURE> 3 3.228947e-02
<MEAN> 33
 2.198475e+01 1.657031e+02 1.277974e+02 1.303457e+02 1.414183e+02 1.777996e+02 2.096821e+01 1.112570e+02 1.322252e+02 7.797000e+01 1.278294e+02 6.537697e+00 1.672136e+02 1.129930e+02 1.564008e+02 3.073805e+01 1.083675e+02 7.766998e+01 6.552567e+01 1.422470e+02 1.733006e+02 1.501217e+02 4.752139e+01 1.069916e+02 5.546029e+01 1.142672e+02 7.741481e+01 3.715243e+00 5.150401e+00 2.632410e+00 3.232977e+00 4.139804e+00 7.024419e+00
<VARIANCE> 33
 1.961588e+02 1.420733e+02 5.333170e+01 2.215771e+01 3.139738e+02 4.221549e+00 1.066389e+02 4.062379e+02 5.165721e+02 4.367670e+02 6.007900e+02 2.193707e+01 9.462746e+01 1.414720e+02 1.307546e+01 7.543750e+01 3.315510e+02 4.880942e+02 1.665406e+02 2.636010e+02 2.073673e+01 4.739311e+01 1.090809e+02 4.395158e+02 1.145297e+03 6.958667e+02 2.600851e+02 5.278023e-01 7.031761e-01 1.524304e-01 3.116349e-02 2.068383e-01 9.887092e-01
<GCONST> 1.856088e+02
<MIXTURE> 4 3.456064e-01
<MEAN> 33
 1.706938e+02 1.383725e+02 1.148037e+02 1.529835e+02 3.040684e+01 1.753832e+02 1.335398e+02 1.935658e+01 1.491263e+02 1.555565e+02 1.704181e+02 4.586425e+00 1.240628e+02 8.342258e+01 1.609504e+02 1.671067e+02 3.528918e+01 1.348495e+02 8.437674e+01 1.501474e+02 1.700934e+02 1.307791e+02 7.639660e+01 1.106464e+02 8.642406e+01 7.252740e+01 1.044644e+02 3.852768e+00 2.783048e+00 2.601945e+00 3.121465e+00 4.804878e+00 5.900830e+00
<VARIANCE> 33
 3.902650e+01 5.335204e+01 1.228253e+02 3.432791e+02 7.066415e+02 1.646161e+01 3.431303e+01 3.203160e+02 1.263048e+02 7.300708e+01 7.125971e+01 6.344991e+01 6.862996e+02 4.525360e+02 6.090787e+01 9.837355e+01 2.760778e+02 3.499153e+02 5.778232e+02 2.204288e+02 6.366920e+01 4.039421e+02 4.589571e+02 2.215958e+03 2.935693e+03 2.151225e+03 3.449658e+02 1.449363e+00 3.777206e-01 2.973688e-01 6.805888e-01 1.751932e+00 2.006303e+00
<GCONST> 2.042764e+02
<STATE> 4
<NUMMIXES> 4
<MIXTURE> 1 4.020799e-01
<MEAN> 33
 1.733495e+02 1.380088e+02 1.090958e+02 1.370159e+02 1.750598e+02 1.762768e+02 1.350844e+02 1.349726e+02 8.994303e+01 1.610135e+02 1.738728e+02 1.080948e+00 1.761908e+02 1.627984e+02 1.624142e+02 1.654846e+02 1.682260e+02 1.384964e+01 1.067571e+02 1.554178e+02 1.693156e+02 1.630287e+02 1.049470e+02 1.559053e+02 8.594148e+01 7.773438e+01 1.597060e+02 5.318132e+00 2.680665e+00 2.823920e+00 2.782483e+00 2.271268e+00 5.293312e+00
<VARIANCE> 33
 3.902650e+01 2.708129e+01 4.400586e+01 1.768711e+01 3.037716e+01 8.733061e+00 2.822034e+01 2.062020e+01 2.320870e+01 7.163559e+01 2.375178e+01 6.839543e-01 7.234876e+00 2.787057e+01 3.604463e+01 8.218402e+01 5.676892e+01 1.103269e+02 8.854216e+02 2.056425e+02 2.227802e+01 1.013509e+02 4.507340e+02 2.602065e+02 9.153325e+02 8.573428e+02 2.078061e+02 3.053962e+00 7.311170e-01 3.199117e-01 3.870476e-01 2.375885e-01 2.186139e+00
<GCONST> 1.669396e+02
<MIXTURE> 2 1.816398e-01
<MEAN> 33
 1.705736e+02 1.410152e+02 1.128645e+02 1.367018e+02 1.710388e+02 1.747598e+02 1.333213e+02 1.359505e+02 9.072823e+01 1.557026e+02 1.668977e+02 2.852430e+00 1.706245e+02 1.621110e+02 1.625010e+02 1.608460e+02 1.641380e+02 2.166387e+01 1.012517e+02 1.410507e+02 1.695107e+02 1.482998e+02 1.150959e+02 1.313882e+02 7.167076e+01 1.098860e+02 1.515986e+02 4.973741e+00 3.961813e+00 2.655931e+00 2.631823e+00 3.224782e+00 4.454688e+00
<VARIANCE> 33
 6.815619e+01 6.916207e+01 1.119785e+02 6.175093e+01 4.053408e+01 1.353350e+01 3.781681e+01 2.062020e+01 5.980016e+01 1.735575e+02 8.494791e+01 1.033908e+01 6.723075e+01 1.147070e+02 2.522003e+01 2.531359e+02 1.294357e+02 2.410086e+02 1.703477e+03 3.495264e+02 3.902747e+01 2.915646e+02 1.467529e+03 1.779079e+03 1.811269e+03 1.992279e+03 4.375381e+02 4.264266e+00 3.261755e+00 3.879704e-01 2.887569e-01 1.922521e+00 3.053176e+00
<GCONST> 1.958066e+02
<MIXTURE> 3 1.816398e-01
<MEAN> 33
 1.705736e+02 1.410152e+02 1.128645e+02 1.367018e+02 1.710388e+02 1.747598e+02 1.333213e+02 1.359505e+02 9.072823e+01 1.557026e+02 1.668977e+02 2.852430e+00 1.706245e+02 1.621110e+02 1.625010e+02 1.608460e+02 1.641380e+02 2.166387e+01 1.012517e+02 1.410507e+02 1.695107e+02 1.482998e+02 1.150959e+02 1.313882e+02 7.167076e+01 1.098860e+02 1.515986e+02 4.973741e+00 3.961813e+00 2.655931e+00 2.631823e+00 3.224782e+00 4.454688e+00
<VARIANCE> 33
 6.815619e+01 6.916207e+01 1.119785e+02 6.175093e+01 4.053408e+01 1.353350e+01 3.781681e+01 2.062020e+01 5.980016e+01 1.735575e+02 8.494791e+01 1.033908e+01 6.723075e+01 1.147070e+02 2.522003e+01 2.531359e+02 1.294357e+02 2.410086e+02 1.703477e+03 3.495264e+02 3.902747e+01 2.915646e+02 1.467529e+03 1.779079e+03 1.811269e+03 1.992279e+03 4.375381e+02 4.264266e+00 3.261755e+00 3.879704e-01 2.887569e-01 1.922521e+00 3.053176e+00
<GCONST> 1.958066e+02
<MIXTURE> 4 2.346388e-01
<MEAN> 33
 1.302663e+02 1.477329e+02 1.162963e+02 1.367337e+02 1.594236e+02 1.749883e+02 1.103259e+02 1.303000e+02 1.153557e+02 1.401058e+02 1.580819e+02 3.106503e+00 1.716350e+02 1.510068e+02 1.605812e+02 1.162716e+02 1.474782e+02 6.433255e+01 9.266722e+01 1.422866e+02 1.714014e+02 1.549705e+02 9.450365e+01 1.364809e+02 4.786381e+01 8.745072e+01 1.099924e+02 6.971690e+00 3.278994e+00 2.902833e+00 2.689101e+00 2.732580e+00 4.883400e+00
<VARIANCE> 33
 1.592151e+03 2.293971e+02 1.063740e+02 8.500198e+01 5.911380e+02 1.381827e+01 1.183932e+03 3.463201e+02 1.135291e+03 5.883020e+02 3.027104e+02 1.551161e+01 8.466081e+01 3.821058e+02 3.708508e+01 1.262083e+03 8.569352e+02 8.837759e+02 1.353836e+03 5.277964e+02 2.679729e+01 2.699563e+02 8.770538e+02 1.053428e+03 1.264018e+03 2.370901e+03 1.013702e+03 5.451009e+00 1.249810e+00 3.329408e-01 2.263466e-01 1.223693e+00 4.884425e+00
<GCONST> 2.200998e+02
<TRANSP> 5
 0.000000e+00 1.000000e+00 0.000000e+00 0.000000e+00 0.000000e+00
 0.000000e+00 8.757086e-01 1.242914e-01 0.000000e+00 0.000000e+00
 0.000000e+00 0.000000e+00 9.601490e-01 3.985096e-02 0.000000e+00
 0.000000e+00 0.000000e+00 0.000000e+00 9.385856e-01 6.141433e-02
 0.000000e+00 0.000000e+00 0.000000e+00 0.000000e+00 0.000000e+00
<ENDHMM>
~h "CN"
<BEGINHMM>
<NUMSTATES> 5
<STATE> 2
<NUMMIXES> 4
<MIXTURE> 1 3.805087e-01
<MEAN> 33
 1.731149e+02 1.376598e+02 1.068783e+02 1.393045e+02 1.744374e+02 1.760802e+02 1.350464e+02 1.342876e+02 9.066592e+01 1.557713e+02 1.759753e+02 1.472572e+00 1.748993e+02 1.596198e+02 1.627526e+02 1.630621e+02 1.665166e+02 9.804236e+00 9.364102e+01 1.534148e+02 1.702476e+02 1.617777e+02 1.033591e+02 1.550578e+02 7.300561e+01 8.557841e+01 1.530095e+02 4.778644e+00 2.746344e+00 2.589940e+00 2.450272e+00 2.362830e+00 4.710375e+00
<VARIANCE> 33
 3.902650e+01 2.377070e+01 6.711447e+01 3.311224e+01 3.037716e+01 1.186018e+01 2.822034e+01 2.062020e+01 2.871071e+01 7.450556e+01 2.154846e+01 3.118024e+00 1.602895e+01 7.643992e+01 4.503043e+01 1.041002e+02 9.941526e+01 8.154247e+01 7.511592e+02 2.194097e+02 2.476606e+01 1.454286e+02 6.137873e+02 3.821210e+02 1.486527e+03 1.486825e+03 3.235629e+02 4.418905e+00 1.130953e+00 3.275462e-01 3.480958e-01 6.797459e-01 3.446882e+00
<GCONST> 1.771259e+02
<MIXTURE> 2 1.756528e-01
<MEAN> 33
 1.012015e+02 1.398073e+02 1.076664e+02 1.437856e+02 9.375500e+01 1.734561e+02 8.963093e+01 7.296658e+01 1.017596e+02 1.051116e+02 1.684385e+02 1.533332e+00 1.700068e+02 1.022449e+02 1.640502e+02 9.333401e+01 9.182974e+01 1.749346e+01 6.999155e+01 1.453514e+02 1.706362e+02 1.600322e+02 5.975586e+01 1.498226e+02 5.139314e+01 4.155037e+01 4.517236e+01 4.398898e+00 3.137156e+00 3.092826e+00 2.993654e+00 3.764444e+00 4.396739e+00
<VARIANCE> 33
 1.228944e+03 4.703869e+01 7.784790e+01 8.055141e+01 1.818944e+03 2.651766e+01 2.322380e+03 2.320345e+03 2.495113e+03 4.155533e+02 9.832658e+01 2.705576e+00 6.280568e+01 5.361533e+02 3.606788e+01 6.079128e+02 7.989952e+02 5.935054e+02 8.398752e+02 5.523384e+02 2.957211e+01 2.270599e+02 4.525300e+02 8.684105e+02 1.664181e+03 1.155813e+03 1.364184e+03 2.115949e+00 6.691444e-01 2.639340e-01 2.982370e-01 1.705288e+00 2.112284e+00
<GCONST> 2.150830e+02
<MIXTURE> 3 1.756528e-01
<MEAN> 33
 1.012015e+02 1.398073e+02 1.076664e+02 1.437856e+02 9.375500e+01 1.734561e+02 8.963093e+01 7.296658e+01 1.017596e+02 1.051116e+02 1.684385e+02 1.533332e+00 1.700068e+02 1.022449e+02 1.640502e+02 9.333401e+01 9.182974e+01 1.749346e+01 6.999155e+01 1.453514e+02 1.706362e+02 1.600322e+02 5.975586e+01 1.498226e+02 5.139314e+01 4.155037e+01 4.517236e+01 4.398898e+00 3.137156e+00 3.092826e+00 2.993654e+00 3.764444e+00 4.396739e+00
<VARIANCE> 33
 1.228944e+03 4.703869e+01 7.784790e+01 8.055141e+01 1.818944e+03 2.651766e+01 2.322380e+03 2.320345e+03 2.495113e+03 4.155533e+02 9.832658e+01 2.705576e+00 6.280568e+01 5.361533e+02 3.606788e+01 6.079128e+02 7.989952e+02 5.935054e+02 8.398752e+02 5.523384e+02 2.957211e+01 2.270599e+02 4.525300e+02 8.684105e+02 1.664181e+03 1.155813e+03 1.364184e+03 2.115949e+00 6.691444e-01 2.639340e-01 2.982370e-01 1.705288e+00 2.112284e+00
<GCONST> 2.150830e+02
<MIXTURE> 4 2.681858e-01
<MEAN> 33
 5.905444e+01 1.229634e+02 1.201162e+02 1.272638e+02 6.823380e+01 1.665812e+02 1.994099e+01 3.090865e+01 4.623357e+01 8.270923e+01 1.369322e+02 1.100349e+01 1.426106e+02 1.066908e+02 1.685020e+02 4.448554e+01 5.188126e+01 1.252309e+01 1.071881e+02 9.727338e+01 1.641434e+02 1.124105e+02 9.143804e+01 9.629071e+01 1.069361e+02 1.067881e+02 4.326437e+01 3.938305e+00 3.267040e+00 3.455039e+00 3.376876e+00 3.475548e+00 3.603908e+00
<VARIANCE> 33
 7.439138e+02 3.835926e+02 2.053618e+02 5.227436e+02 9.105585e+02 6.393472e+01 2.241451e+02 6.752886e+02 8.202690e+02 8.918080e+02 3.330293e+02 4.994342e+02 4.199586e+02 1.458379e+03 7.733194e+01 1.619315e+02 3.443497e+02 2.485503e+02 6.419257e+02 4.696561e+02 2.114636e+02 3.781026e+02 3.257332e+02 3.116864e+03 2.125785e+03 2.460103e+03 7.455043e+02 8.144096e-01 2.056966e+00 7.429265e-01 4.543789e-01 1.136388e+00 9.479476e-01
<GCONST> 2.266617e+02
<STATE> 3
<NUMMIXES> 4
<MIXTURE> 1 2.838310e-01
<MEAN> 33
 6.377420e+01 1.319524e+02 1.110843e+02 1.393285e+02 4.915787e+01 1.740576e+02 2.700728e+01 1.821087e+01 3.045786e+01 8.568102e+01 1.548607e+02 2.311036e+00 1.567338e+02 8.413358e+01 1.627275e+02 5.843139e+01 5.592643e+01 8.226933e+00 1.094188e+02 1.055865e+02 1.722329e+02 1.282213e+02 9.414612e+01 1.099673e+02 7.292496e+01 7.686248e+01 2.089947e+01 3.768142e+00 2.933704e+00 3.629716e+00 3.357682e+00 3.196976e+00 3.786564e+00
<VARIANCE> 33
 2.384182e+02 1.031203e+02 1.445640e+02 1.053991e+02 3.824316e+02 2.457468e+01 3.391431e+02 2.818615e+02 5.466683e+02 5.096737e+02 7.599332e+01 7.152312e+00 9.622069e+01 3.778320e+02 6.211908e+01 2.311631e+02 1.445546e+02 7.205200e+01 4.666422e+02 4.306036e+02 3.609362e+01 4.157817e+02 5.404395e+02 2.734362e+03 2.162767e+03 2.263118e+03 3.895798e+02 5.261620e-01 1.246581e+00 5.106888e-01 5.554945e-01 1.608301e+00 5.310274e-01
<GCONST> 2.047299e+02
<MIXTURE> 2 2.723165e-01
<MEAN> 33
 4.825122e+01 1.347324e+02 1.149203e+02 1.367935e+02 4.488103e+01 1.755034e+02 6.750063e+00 5.171641e+00 6.816156e+00 7.431808e+01 1.573430e+02 1.517511e+00 1.582710e+02 7.580054e+01 1.593345e+02 5.054982e+01 5.013485e+01 2.472326e+00 9.803877e+01 1.203465e+02 1.737136e+02 1.318401e+02 8.823174e+01 1.354890e+02 4.488798e+01 4.495714e+01 5.564517e+00 3.492895e+00 3.495549e+00 3.971062e+00 3.826902e+00 3.681447e+00 3.455580e+00
<VARIANCE> 33
 6.334027e+01 4.459779e+01 6.212223e+01 4.910563e+01 6.584045e+01 1.652912e+01 2.822034e+01 2.062020e+01 2.929413e+01 7.714040e+01 6.390005e+01 3.313473e+00 7.920538e+01 7.999657e+01 5.103777e+01 3.421278e+01 3.024053e+01 3.148238e+01 4.240982e+02 4.474914e+02 2.089763e+01 4.140728e+02 3.755907e+02 1.015254e+03 9.916682e+02 1.010079e+03 2.133153e+01 9.908978e-02 5.475711e-01 2.643955e-01 1.594435e-01 7.614422e-01 1.216495e-01
<GCONST> 1.686226e+02
<MIXTURE> 3 2.723165e-01
<MEAN> 33
 4.825122e+01 1.347324e+02 1.149203e+02 1.367935e+02 4.488103e+01 1.755034e+02 6.750063e+00 5.171641e+00 6.816156e+00 7.431808e+01 1.573430e+02 1.517511e+00 1.582710e+02 7.580054e+01 1.593345e+02 5.054982e+01 5.013485e+01 2.472326e+00 9.803877e+01 1.203465e+02 1.737136e+02 1.318401e+02 8.823174e+01 1.354890e+02 4.488798e+01 4.495714e+01 5.564517e+00 3.492895e+00 3.495549e+00 3.971062e+00 3.826902e+00 3.681447e+00 3.455580e+00
<VARIANCE> 33
 6.334027e+01 4.459779e+01 6.212223e+01 4.910563e+01 6.584045e+01 1.652912e+01 2.822034e+01 2.062020e+01 2.929413e+01 7.714040e+01 6.390005e+01 3.313473e+00 7.920538e+01 7.999657e+01 5.103777e+01 3.421278e+01 3.024053e+01 3.148238e+01 4.240982e+02 4.474914e+02 2.089763e+01 4.140728e+02 3.755907e+02 1.015254e+03 9.916682e+02 1.010079e+03 2.133153e+01 9.908978e-02 5.475711e-01 2.643955e-01 1.594435e-01 7.614422e-01 1.216495e-01
<GCONST> 1.686226e+02
<MIXTURE> 4 1.715358e-01
<MEAN> 33
 3.795189e+01 1.398858e+02 1.005748e+02 1.404775e+02 2.720758e+01 1.736377e+02 9.621593e+00 7.097302e+00 7.487079e+00 5.926372e+01 1.673117e+02 1.159499e+00 1.700039e+02 5.872236e+01 1.675274e+02 4.242305e+01 4.136357e+01 4.075713e+00 1.066166e+02 1.192254e+02 1.651243e+02 1.325409e+02 9.909962e+01 4.056544e+01 1.326549e+02 1.300520e+02 8.845231e+00 3.410679e+00 3.317155e+00 3.494445e+00 3.472850e+00 3.325071e+00 3.247444e+00
<VARIANCE> 33
 1.130788e+02 9.054932e+01 5.470552e+01 6.642203e+01 9.401566e+01 1.544254e+01 3.977794e+01 2.371712e+01 2.454907e+01 5.035915e+01 7.184493e+01 1.288157e+00 3.906345e+01 5.310149e+01 3.712411e+01 4.106160e+01 2.601832e+01 3.148238e+01 3.457566e+02 4.497053e+02 1.183244e+02 2.277136e+02 2.255889e+02 8.252097e+02 8.741860e+02 7.924389e+02 4.440643e+01 1.063326e-01 3.798032e-01 1.916388e-01 1.409157e-01 3.778358e-01 9.108116e-02
<GCONST> 1.668762e+02
<STATE> 4
<NUMMIXES> 4
<MIXTURE> 1 4.650622e-01
<MEAN> 33
 1.726804e+02 1.370293e+02 1.128794e+02 1.374912e+02 1.727070e+02 1.756684e+02 1.347062e+02 1.342355e+02 9.105836e+01 1.625939e+02 1.745536e+02 1.652473e+00 1.744052e+02 1.644290e+02 1.601896e+02 1.655622e+02 1.654492e+02 9.223222e+00 1.151325e+02 1.503707e+02 1.712667e+02 1.560826e+02 1.232844e+02 1.499392e+02 7.826990e+01 9.728546e+01 1.534606e+02 5.004541e+00 2.859634e+00 2.707531e+00 2.583013e+00 2.745664e+00 4.878637e+00
<VARIANCE> 33
 3.902650e+01 2.516454e+01 5.903843e+01 3.292188e+01 3.037716e+01 1.402905e+01 2.822034e+01 2.062020e+01 5.347533e+01 1.273510e+02 2.195813e+01 2.471838e+00 2.034265e+01 1.194020e+02 4.514566e+01 8.596957e+01 9.161817e+01 5.387538e+01 1.527909e+03 2.902961e+02 2.363086e+01 2.270954e+02 1.436279e+03 8.508111e+02 1.434481e+03 1.799129e+03 2.948755e+02 2.819368e+00 1.585777e+00 2.435387e-01 1.979159e-01 1.523339e+00 2.225266e+00
<GCONST> 1.806593e+02
<MIXTURE> 2 1.204644e-01
<MEAN> 33
 1.518818e+02 1.439886e+02 1.201410e+02 1.427914e+02 1.613970e+02 1.757652e+02 1.051986e+02 1.115417e+02 1.371067e+02 1.282960e+02 1.695788e+02 2.459308e+00 1.674510e+02 1.321501e+02 1.641705e+02 1.135785e+02 1.252973e+02 1.768213e+01 1.198248e+02 1.512799e+02 1.709056e+02 1.485045e+02 1.096555e+02 1.256447e+02 6.083724e+01 1.214729e+02 1.152891e+02 7.406524e+00 2.797085e+00 2.354276e+00 2.214898e+00 2.802824e+00 6.880755e+00
<VARIANCE> 33
 9.827767e+02 4.777388e+01 6.862862e+01 6.434705e+01 3.209300e+02 1.186551e+01 4.103810e+02 2.121407e+02 6.506218e+02 1.040968e+03 5.645355e+01 4.460045e+00 7.481670e+01 9.885679e+02 1.680061e+01 7.925001e+02 7.175400e+02 1.898931e+02 1.557933e+03 2.953861e+02 4.226070e+01 2.346131e+02 1.941284e+03 2.007408e+03 1.834138e+03 1.415170e+03 6.283757e+02 1.115477e+00 8.571003e-01 1.023984e-01 5.647501e-02 4.538422e-01 1.344687e+00
<GCONST> 2.038413e+02
<MIXTURE> 3 1.853039e-01
<MEAN> 33
 1.598599e+02 1.344841e+02 1.119753e+02 1.360512e+02 1.600710e+02 1.749011e+02 1.456114e+02 1.418570e+02 7.245415e+01 1.554568e+02 1.680100e+02 1.189373e+00 1.662603e+02 1.585940e+02 1.615300e+02 1.360138e+02 1.374272e+02 5.492512e+00 1.166630e+02 1.331321e+02 1.734175e+02 1.415188e+02 1.153710e+02 1.343217e+02 5.341233e+01 7.449733e+01 7.843668e+01 5.676706e+00 2.370823e+00 2.947221e+00 2.922719e+00 2.532758e+00 5.504796e+00
<VARIANCE> 33
 1.378962e+02 3.875869e+01 5.268039e+01 3.803804e+01 1.420101e+02 1.711436e+01 1.019978e+02 6.332601e+01 2.521781e+02 1.884930e+02 4.708058e+01 8.885078e-01 4.971959e+01 1.701368e+02 5.805119e+01 1.580261e+02 1.680098e+02 3.148238e+01 1.231745e+03 7.817307e+02 2.536016e+01 4.352045e+02 8.195493e+02 1.471304e+03 1.628442e+03 1.968758e+03 8.176080e+02 8.988272e-01 2.139565e-01 1.412776e-01 1.051285e-01 2.291184e-01 8.602688e-01
<GCONST> 1.859431e+02
<MIXTURE> 4 2.291691e-01
<MEAN> 33
 1.112874e+02 1.326104e+02 1.131730e+02 1.356194e+02 1.165058e+02 1.737190e+02 1.108677e+02 1.104852e+02 6.643343e+01 1.287078e+02 1.614810e+02 2.031654e+00 1.619937e+02 1.339261e+02 1.639969e+02 9.712952e+01 1.001992e+02 9.739681e+00 1.199743e+02 1.132368e+02 1.725741e+02 1.309683e+02 1.095533e+02 1.188105e+02 7.227187e+01 8.362488e+01 2.397629e+01 4.460510e+00 2.905810e+00 3.454179e+00 3.418803e+00 3.274462e+00 4.518703e+00
<VARIANCE> 33
 1.205410e+03 9.481258e+01 8.271239e+01 7.702682e+01 1.095394e+03 2.219341e+01 3.047173e+03 2.544262e+03 2.657049e+03 6.045181e+02 9.789041e+01 7.465611e+00 7.853093e+01 5.660870e+02 6.810890e+01 4.466779e+02 5.221732e+02 3.997773e+02 1.069452e+03 6.870026e+02 3.617174e+01 4.574786e+02 8.208274e+02 2.116978e+03 2.184093e+03 2.296041e+03 4.453632e+02 1.129269e+00 4.762160e-01 2.518562e-01 2.403032e-01 7.080138e-01 1.324603e+00
<GCONST> 2.168027e+02
<TRANSP> 5
 0.000000e+00 1.000000e+00 0.000000e+00 0.000000e+00 0.000000e+00
 0.000000e+00 9.182688e-01 8.173118e-02 0.000000e+00 0.000000e+00
 0.000000e+00 0.000000e+00 9.634371e-01 3.656291e-02 0.000000e+00
 0.000000e+00 0.000000e+00 0.000000e+00 9.217797e-01 7.822030e-02
 0.000000e+00 0.000000e+00 0.000000e+00 0.000000e+00 0.000000e+00
<ENDHMM>
~h "CP"
<BEGINHMM>
<NUMSTATES> 5
<STATE> 2
<NUMMIXES> 4
<MIXTURE> 1 3.267676e-01
<MEAN> 33
 1.734629e+02 1.369873e+02 1.097008e+02 1.374284e+02 1.740360e+02 1.754792e+02 1.343203e+02 1.337433e+02 9.193639e+01 1.564431e+02 1.749429e+02 1.730045e+00 1.745017e+02 1.594251e+02 1.629938e+02 1.624260e+02 1.630828e+02 8.567865e+00 9.633247e+01 1.512778e+02 1.699263e+02 1.596914e+02 1.063024e+02 1.544120e+02 7.642660e+01 8.477129e+01 1.486811e+02 5.343791e+00 2.793011e+00 2.701925e+00 2.598588e+00 2.555680e+00 5.293204e+00
<VARIANCE> 33
 3.902650e+01 3.308635e+01 5.121368e+01 2.731439e+01 3.037716e+01 1.636313e+01 2.822034e+01 2.062020e+01 5.418745e+01 1.201957e+02 2.078915e+01 3.348037e+00 1.789727e+01 9.541826e+01 3.821011e+01 1.080571e+02 1.005117e+02 5.214824e+01 1.199110e+03 2.960997e+02 2.245986e+01 1.919467e+02 9.059355e+02 4.797439e+02 1.319414e+03 1.416611e+03 3.278405e+02 3.443975e+00 1.323505e+00 2.352559e-01 1.699455e-01 1.018207e+00 3.090195e+00
<GCONST> 1.787977e+02
<MIXTURE> 2 2.088848e-01
<MEAN> 33
 1.683338e+02 1.470350e+02 1.044128e+02 1.460402e+02 1.672256e+02 1.720395e+02 1.169643e+02 1.169533e+02 1.257759e+02 1.375971e+02 1.666017e+02 2.161230e+00 1.679746e+02 1.376640e+02 1.664762e+02 1.350048e+02 1.324350e+02 1.656984e+01 1.011394e+02 1.441628e+02 1.700025e+02 1.464587e+02 9.931255e+01 1.019207e+02 7.620295e+01 8.797160e+01 1.227649e+02 6.749084e+00 2.691780e+00 2.299540e+00 2.331214e+00 2.757698e+00 6.729563e+00
<VARIANCE> 33
 8.504597e+01 1.124656e+02 7.956208e+01 1.059725e+02 9.409124e+01 3.501198e+01 1.885379e+02 1.853568e+02 6.205679e+02 4.833359e+02 1.056967e+02 8.553351e+00 8.208221e+01 4.795790e+02 5.995646e+01 6.265593e+02 5.264914e+02 1.943357e+02 2.238696e+03 3.403443e+02 5.099902e+01 3.399342e+02 1.810684e+03 2.969593e+03 2.838584e+03 2.457998e+03 8.292023e+02 2.562651e+00 8.602379e-01 1.258311e-01 1.515525e-01 9.167861e-01 2.682351e+00
<GCONST> 2.084967e+02
<MIXTURE> 3 2.088848e-01
<MEAN> 33
 1.683338e+02 1.470350e+02 1.044128e+02 1.460402e+02 1.672256e+02 1.720395e+02 1.169643e+02 1.169533e+02 1.257759e+02 1.375971e+02 1.666017e+02 2.161230e+00 1.679746e+02 1.376640e+02 1.664762e+02 1.350048e+02 1.324350e+02 1.656984e+01 1.011394e+02 1.441628e+02 1.700025e+02 1.464587e+02 9.931255e+01 1.019207e+02 7.620295e+01 8.797160e+01 1.227649e+02 6.749084e+00 2.691780e+00 2.299540e+00 2.331214e+00 2.757698e+00 6.729563e+00
<VARIANCE> 33
 8.504597e+01 1.124656e+02 7.956208e+01 1.059725e+02 9.409124e+01 3.501198e+01 1.885379e+02 1.853568e+02 6.205679e+02 4.833359e+02 1.056967e+02 8.553351e+00 8.208221e+01 4.795790e+02 5.995646e+01 6.265593e+02 5.264914e+02 1.943357e+02 2.238696e+03 3.403443e+02 5.099902e+01 3.399342e+02 1.810684e+03 2.969593e+03 2.838584e+03 2.457998e+03 8.292023e+02 2.562651e+00 8.602379e-01 1.258311e-01 1.515525e-01 9.167861e-01 2.682351e+00
<GCONST> 2.084967e+02
<MIXTURE> 4 2.554623e-01
<MEAN> 33
 1.176680e+02 1.407436e+02 1.104317e+02 1.445115e+02 1.157768e+02 1.725292e+02 9.421221e+01 8.898434e+01 1.245606e+02 1.024321e+02 1.678322e+02 2.701427e+00 1.656554e+02 1.004361e+02 1.647950e+02 9.420477e+01 8.646738e+01 2.726863e+01 7.598862e+01 1.358091e+02 1.699197e+02 1.478931e+02 8.434267e+01 1.270334e+02 5.890506e+01 7.015254e+01 9.058012e+01 5.783643e+00 3.166691e+00 2.775819e+00 2.687879e+00 3.405520e+00 5.825633e+00
<VARIANCE> 33
 2.017938e+03 1.987393e+02 7.239813e+01 2.145487e+02 2.435042e+03 3.927232e+01 1.541309e+03 1.147509e+03 2.021859e+03 8.711422e+02 1.049568e+02 7.029408e+00 1.399844e+02 1.011690e+03 6.679716e+01 1.285976e+03 1.170665e+03 1.728951e+03 1.976561e+03 9.361279e+02 4.264774e+01 5.346128e+02 1.585779e+03 2.488871e+03 2.531613e+03 1.857735e+03 1.747418e+03 2.978740e+00 1.740263e+00 7.491019e-01 5.409971e-01 1.455073e+00 3.411790e+00
<GCONST> 2.326122e+02
<STATE> 3
<NUMMIXES> 4
<MIXTURE> 1 4.768188e-01
<MEAN> 33
 1.548100e+02 1.390321e+02 1.163349e+02 1.388624e+02 1.558458e+02 1.756514e+02 1.275289e+02 1.237661e+02 1.087050e+02 1.281906e+02 1.744093e+02 2.670057e+00 1.748865e+02 1.260580e+02 1.628165e+02 1.302924e+02 1.295119e+02 8.228350e+00 5.484868e+01 1.566641e+02 1.643745e+02 1.560960e+02 5.604680e+01 1.579389e+02 3.931421e+01 6.364535e+01 1.017527e+02 6.288144e+00 3.203625e+00 2.863783e+00 2.734724e+00 3.339781e+00 6.423543e+00
<VARIANCE> 33
 1.603674e+02 2.279282e+01 1.074580e+02 3.526028e+01 1.673462e+02 1.693657e+01 1.033791e+02 7.971062e+01 2.840834e+02 1.322877e+02 1.771964e+01 6.288364e+00 2.102088e+01 1.478877e+02 3.439565e+01 2.189330e+02 2.616879e+02 6.431507e+01 4.411587e+02 1.675569e+02 1.795716e+01 1.551845e+02 3.533557e+02 3.005105e+02 5.996549e+02 5.391165e+02 4.600836e+02 8.715051e-01 5.217825e-01 7.517339e-02 8.517101e-02 7.984511e-01 6.890121e-01
<GCONST> 1.791046e+02
<MIXTURE> 2 1.215610e-01
<MEAN> 33
 1.124085e+02 1.531892e+02 1.233403e+02 1.442175e+02 1.286078e+02 1.751308e+02 1.024510e+02 1.006522e+02 1.517361e+02 1.144565e+02 1.713313e+02 5.380293e+00 1.682050e+02 1.153174e+02 1.550444e+02 9.833945e+01 9.758729e+01 6.848043e+00 5.957893e+01 1.689970e+02 1.660723e+02 1.668311e+02 6.601735e+01 1.564551e+02 2.939773e+01 5.946870e+01 8.263063e+01 5.919338e+00 4.005527e+00 2.862893e+00 2.972964e+00 3.655946e+00 5.683469e+00
<VARIANCE> 33
 2.977086e+02 1.442813e+02 6.180630e+01 7.936803e+01 3.316638e+02 1.755880e+01 2.154827e+02 1.308846e+02 3.162558e+02 1.389632e+02 4.236720e+01 2.623814e+01 6.628170e+01 1.303419e+02 3.666528e+01 1.209627e+02 1.307466e+02 3.148238e+01 1.697878e+02 7.940352e+01 1.691248e+01 1.110124e+02 3.215583e+02 3.063243e+02 6.200396e+02 8.960913e+02 2.736473e+02 3.685118e-01 4.087711e-01 1.238382e-01 9.538993e-02 4.506189e-01 4.779558e-01
<GCONST> 1.817387e+02
<MIXTURE> 3 1.215610e-01
<MEAN> 33
 1.124085e+02 1.531892e+02 1.233403e+02 1.442175e+02 1.286078e+02 1.751308e+02 1.024510e+02 1.006522e+02 1.517361e+02 1.144565e+02 1.713313e+02 5.380293e+00 1.682050e+02 1.153174e+02 1.550444e+02 9.833945e+01 9.758729e+01 6.848043e+00 5.957893e+01 1.689970e+02 1.660723e+02 1.668311e+02 6.601735e+01 1.564551e+02 2.939773e+01 5.946870e+01 8.263063e+01 5.919338e+00 4.005527e+00 2.862893e+00 2.972964e+00 3.655946e+00 5.683469e+00
<VARIANCE> 33
 2.977086e+02 1.442813e+02 6.180630e+01 7.936803e+01 3.316638e+02 1.755880e+01 2.154827e+02 1.308846e+02 3.162558e+02 1.389632e+02 4.236720e+01 2.623814e+01 6.628170e+01 1.303419e+02 3.666528e+01 1.209627e+02 1.307466e+02 3.148238e+01 1.697878e+02 7.940352e+01 1.691248e+01 1.110124e+02 3.215583e+02 3.063243e+02 6.200396e+02 8.960913e+02 2.736473e+02 3.685118e-01 4.087711e-01 1.238382e-01 9.538993e-02 4.506189e-01 4.779558e-01
<GCONST> 1.817387e+02
<MIXTURE> 4 2.800586e-01
<MEAN> 33
 1.467025e+02 1.394259e+02 1.124336e+02 1.400414e+02 1.559349e+02 1.760207e+02 8.938061e+01 9.251551e+01 1.560538e+02 1.001650e+02 1.730836e+02 1.214154e+00 1.748070e+02 9.999000e+01 1.620984e+02 8.741842e+01 9.068964e+01 9.686565e+00 5.283270e+01 1.480452e+02 1.659004e+02 1.464902e+02 5.140930e+01 1.594391e+02 5.738049e+01 3.679950e+01 9.408049e+01 6.046312e+00 3.135559e+00 2.725405e+00 2.649937e+00 3.103662e+00 6.397296e+00
<VARIANCE> 33
 5.774285e+02 3.793792e+01 1.942313e+01 1.609171e+01 3.607890e+02 8.243422e+00 2.647476e+02 2.016519e+02 2.264832e+02 1.887487e+02 2.764272e+01 8.640929e-01 1.614995e+01 1.266760e+02 3.467674e+01 3.059427e+02 2.331547e+02 7.174458e+01 3.917535e+02 1.621275e+02 1.875954e+01 1.260995e+02 1.819018e+02 1.740171e+02 4.153147e+02 3.260096e+02 2.767010e+02 1.033055e+00 3.504714e-01 6.690817e-02 5.956109e-02 2.089105e-01 7.217042e-01
<GCONST> 1.739226e+02
<STATE> 4
<NUMMIXES> 4
<MIXTURE> 1 3.973466e-01
<MEAN> 33
 1.750476e+02 1.378751e+02 1.064577e+02 1.392635e+02 1.756086e+02 1.757070e+02 1.346415e+02 1.340377e+02 9.132079e+01 1.627165e+02 1.765827e+02 1.156157e+00 1.755755e+02 1.659294e+02 1.623950e+02 1.685976e+02 1.708422e+02 7.417352e+00 1.086739e+02 1.600198e+02 1.679488e+02 1.626002e+02 1.203427e+02 1.597218e+02 7.906181e+01 9.107869e+01 1.626561e+02 5.005236e+00 2.425852e+00 2.850093e+00 2.593632e+00 2.084007e+00 4.529305e+00
<VARIANCE> 33
 3.902650e+01 1.242108e+01 4.500660e+01 2.194990e+01 3.037716e+01 1.138299e+01 2.822034e+01 2.062020e+01 1.886277e+01 4.218047e+01 7.364894e+00 6.371903e-01 6.397564e+00 4.283778e+01 2.008388e+01 3.741449e+01 4.468510e+01 3.167590e+01 6.097220e+02 1.061071e+02 1.741582e+01 8.046470e+01 6.609156e+02 2.362982e+02 6.409141e+02 6.955458e+02 1.293756e+02 2.562877e+00 3.212216e-01 2.405609e-01 2.097844e-01 2.204695e-01 2.513489e+00
<GCONST> 1.580374e+02
<MIXTURE> 2 1.449486e-01
<MEAN> 33
 1.723036e+02 1.335895e+02 1.135126e+02 1.366045e+02 1.715898e+02 1.749149e+02 1.379588e+02 1.354157e+02 8.662550e+01 1.606662e+02 1.700712e+02 2.358806e+00 1.707877e+02 1.616970e+02 1.616503e+02 1.590950e+02 1.624763e+02 1.270403e+01 1.107276e+02 1.528768e+02 1.640355e+02 1.616678e+02 1.124668e+02 1.621901e+02 6.687256e+01 8.829472e+01 1.438678e+02 5.831563e+00 2.454486e+00 3.280280e+00 2.721788e+00 2.443060e+00 5.452783e+00
<VARIANCE> 33
 3.927303e+01 2.722124e+01 7.989275e+01 2.513248e+01 3.866116e+01 1.640853e+01 2.822034e+01 2.062020e+01 5.367521e+01 1.131712e+02 2.917705e+01 5.558318e+00 3.275436e+01 1.089196e+02 3.821395e+01 1.467482e+02 1.483983e+02 1.142269e+02 1.454681e+03 4.900558e+02 2.291939e+01 1.693937e+02 1.044197e+03 2.171400e+02 6.542089e+02 7.107695e+02 5.210176e+02 2.152548e+00 7.370205e-01 4.493033e-01 2.208944e-01 3.720207e-01 2.184063e+00
<GCONST> 1.797206e+02
<MIXTURE> 3 1.449486e-01
<MEAN> 33
 1.723036e+02 1.335895e+02 1.135126e+02 1.366045e+02 1.715898e+02 1.749149e+02 1.379588e+02 1.354157e+02 8.662550e+01 1.606662e+02 1.700712e+02 2.358806e+00 1.707877e+02 1.616970e+02 1.616503e+02 1.590950e+02 1.624763e+02 1.270403e+01 1.107276e+02 1.528768e+02 1.640355e+02 1.616678e+02 1.124668e+02 1.621901e+02 6.687256e+01 8.829472e+01 1.438678e+02 5.831563e+00 2.454486e+00 3.280280e+00 2.721788e+00 2.443060e+00 5.452783e+00
<VARIANCE> 33
 3.927303e+01 2.722124e+01 7.989275e+01 2.513248e+01 3.866116e+01 1.640853e+01 2.822034e+01 2.062020e+01 5.367521e+01 1.131712e+02 2.917705e+01 5.558318e+00 3.275436e+01 1.089196e+02 3.821395e+01 1.467482e+02 1.483983e+02 1.142269e+02 1.454681e+03 4.900558e+02 2.291939e+01 1.693937e+02 1.044197e+03 2.171400e+02 6.542089e+02 7.107695e+02 5.210176e+02 2.152548e+00 7.370205e-01 4.493033e-01 2.208944e-01 3.720207e-01 2.184063e+00
<GCONST> 1.797206e+02
<MIXTURE> 4 3.127558e-01
<MEAN> 33
 1.595223e+02 1.491698e+02 9.806223e+01 1.507483e+02 1.560031e+02 1.727381e+02 1.328156e+02 1.307148e+02 9.629374e+01 1.349325e+02 1.760824e+02 1.092711e+00 1.726792e+02 1.300598e+02 1.693568e+02 1.434681e+02 1.415248e+02 9.416971e+00 6.527402e+01 1.592991e+02 1.681745e+02 1.590674e+02 6.682959e+01 1.407411e+02 5.363355e+01 6.120261e+01 1.127317e+02 5.188189e+00 2.855401e+00 2.182930e+00 2.142467e+00 2.971711e+00 5.976350e+00
<VARIANCE> 33
 1.719041e+02 4.664331e+01 2.700540e+01 5.498110e+01 2.500342e+02 1.645913e+01 6.306458e+01 8.614986e+01 1.632109e+02 1.232807e+02 7.684383e+00 1.489075e+00 1.854899e+01 2.570249e+02 1.291479e+01 1.889566e+02 2.480374e+02 1.520377e+02 2.567253e+02 1.351712e+02 2.305366e+01 1.201620e+02 4.332875e+02 5.445002e+02 7.735302e+02 1.109529e+03 5.491546e+02 4.355978e+00 8.526205e-01 1.050281e-01 1.559262e-01 1.940073e+00 2.929751e+00
<GCONST> 1.826805e+02
<TRANSP> 5
 0.000000e+00 1.000000e+00 0.000000e+00 0.000000e+00 0.000000e+00
 0.000000e+00 9.303423e-01 6.965768e-02 0.000000e+00 0.000000e+00
 0.000000e+00 0.000000e+00 9.386189e-01 6.138111e-02 0.000000e+00
 0.000000e+00 0.000000e+00 0.000000e+00 9.374874e-01 6.251262e-02
 0.000000e+00 0.000000e+00 0.000000e+00 0.000000e+00 0.000000e+00
<ENDHMM>
~h "CV"
<BEGINHMM>
<NUMSTATES> 5
<STATE> 2
<NUMMIXES> 4
<MIXTURE> 1 4.213553e-01
<MEAN> 33
 1.738766e+02 1.370670e+02 1.073916e+02 1.387250e+02 1.743463e+02 1.752484e+02 1.354159e+02 1.347385e+02 8.984557e+01 1.593271e+02 1.761838e+02 1.697893e+00 1.752394e+02 1.613811e+02 1.625770e+02 1.662199e+02 1.695210e+02 9.292001e+00 9.947669e+01 1.527012e+02 1.695274e+02 1.613154e+02 1.073231e+02 1.588065e+02 6.530934e+01 9.847060e+01 1.585177e+02 4.351646e+00 2.550368e+00 2.530508e+00 2.442701e+00 2.356208e+00 4.346776e+00
<VARIANCE> 33
 3.902650e+01 1.922574e+01 6.550883e+01 3.170983e+01 3.037716e+01 1.333219e+01 2.822034e+01 2.062020e+01 2.453106e+01 5.953227e+01 2.104152e+01 4.222724e+00 1.188760e+01 5.087191e+01 4.581326e+01 7.628014e+01 7.312747e+01 5.708684e+01 7.959556e+02 2.845950e+02 2.851358e+01 1.213524e+02 4.793268e+02 2.243984e+02 9.155347e+02 1.095658e+03 2.303609e+02 4.427656e+00 6.828613e-01 4.161906e-01 3.134218e-01 7.377037e-01 3.723988e+00
<GCONST> 1.733574e+02
<MIXTURE> 2 2.135401e-01
<MEAN> 33
 1.228915e+02 1.343795e+02 1.158534e+02 1.403845e+02 9.831651e+01 1.723447e+02 9.835346e+01 7.991120e+01 1.363117e+02 1.170764e+02 1.638204e+02 4.706255e+00 1.607970e+02 1.086172e+02 1.607673e+02 1.119494e+02 9.484385e+01 7.828409e+01 8.702271e+01 1.267216e+02 1.692794e+02 1.511887e+02 8.427016e+01 1.370599e+02 5.892942e+01 7.510490e+01 9.413918e+01 4.922541e+00 2.998492e+00 3.137984e+00 2.893349e+00 3.694918e+00 5.388648e+00
<VARIANCE> 33
 3.658339e+03 1.509282e+02 1.028070e+02 2.030332e+02 4.111812e+03 3.217065e+01 2.145206e+03 2.391247e+03 1.346237e+03 1.606309e+03 1.947738e+02 3.666856e+01 2.538017e+02 1.585407e+03 8.050858e+01 2.380673e+03 2.423155e+03 2.363617e+03 2.344835e+03 8.955951e+02 5.696886e+01 4.491093e+02 1.075140e+03 1.382323e+03 2.361520e+03 1.616166e+03 1.534572e+03 5.207205e+00 1.598512e+00 5.667138e-01 4.594827e-01 1.647200e+00 3.458366e+00
<GCONST> 2.390742e+02
<MIXTURE> 3 1.247452e-01
<MEAN> 33
 1.377939e+02 1.392402e+02 1.095201e+02 1.385518e+02 1.457123e+02 1.755374e+02 1.174433e+02 1.167573e+02 1.216516e+02 1.132621e+02 1.746400e+02 1.609434e+00 1.745916e+02 1.180078e+02 1.639781e+02 1.114394e+02 1.148884e+02 1.146292e+01 4.964849e+01 1.537449e+02 1.687067e+02 1.590459e+02 5.961687e+01 1.580468e+02 3.107419e+01 5.217820e+01 7.282620e+01 5.947651e+00 3.064535e+00 2.817752e+00 2.763443e+00 2.959065e+00 5.823212e+00
<VARIANCE> 33
 5.468492e+02 4.215341e+01 6.042958e+01 4.500633e+01 5.348182e+02 1.732042e+01 5.006798e+02 3.488625e+02 1.105584e+03 2.814390e+02 2.006121e+01 2.117940e+00 1.406419e+01 4.189397e+02 3.688886e+01 3.858758e+02 5.254780e+02 1.707991e+02 4.821115e+02 2.068517e+02 2.458944e+01 1.979500e+02 5.339978e+02 2.010787e+02 5.669865e+02 8.058784e+02 6.917964e+02 1.398931e+00 3.610810e-01 1.896255e-01 1.474398e-01 6.164721e-01 1.107507e+00
<GCONST> 1.923696e+02
<MIXTURE> 4 2.403595e-01
<MEAN> 33
 2.728079e+01 1.387195e+02 1.117060e+02 1.444533e+02 2.802614e+01 1.743595e+02 2.402847e+01 2.939526e+01 5.015017e+01 6.637040e+01 1.485327e+02 6.249390e+00 1.501098e+02 7.052300e+01 1.640644e+02 4.338375e+01 4.143930e+01 5.699837e+00 1.059529e+02 1.225791e+02 1.654192e+02 1.385332e+02 9.848712e+01 1.073923e+02 8.946379e+01 9.187377e+01 5.631021e+01 4.647220e+00 2.853292e+00 2.977497e+00 2.851053e+00 3.429622e+00 4.652553e+00
<VARIANCE> 33
 5.549226e+02 4.435789e+02 2.246705e+02 4.364415e+02 4.117808e+02 2.183010e+01 1.234233e+02 1.724300e+02 6.555572e+02 4.362431e+02 4.801427e+02 1.296162e+02 5.882817e+02 6.184382e+02 8.168320e+01 1.649551e+02 1.609077e+02 3.148238e+01 1.485236e+03 1.205818e+03 1.789939e+02 7.376777e+02 7.302448e+02 2.778536e+03 2.060079e+03 2.237180e+03 8.520059e+02 1.171431e+00 5.940353e-01 6.664330e-01 5.538777e-01 8.580598e-01 1.024534e+00
<GCONST> 2.193870e+02
<STATE> 3
<NUMMIXES> 4
<MIXTURE> 1 1.882885e-01
<MEAN> 33
 6.701671e+01 1.387467e+02 1.103962e+02 1.389811e+02 6.580851e+01 1.748626e+02 3.974437e+01 4.642021e+01 7.682065e+01 8.355794e+01 1.694545e+02 2.031928e+00 1.689197e+02 8.506849e+01 1.629684e+02 6.858632e+01 6.737748e+01 7.286411e+00 6.641227e+01 1.493319e+02 1.670820e+02 1.550327e+02 6.829660e+01 1.564027e+02 2.426201e+01 3.741932e+01 3.555732e+01 4.427055e+00 3.155820e+00 3.241182e+00 3.201049e+00 3.313195e+00 4.431250e+00
<VARIANCE> 33
 5.367996e+02 6.982336e+01 8.750347e+01 4.472218e+01 8.076520e+02 2.131730e+01 4.944601e+02 4.434257e+02 1.752648e+03 1.744901e+02 6.823604e+01 4.198417e+00 6.687277e+01 1.661217e+02 3.851063e+01 1.919249e+02 1.591840e+02 1.325100e+02 1.225557e+03 5.605787e+02 2.382144e+01 3.001792e+02 8.441204e+02 3.066573e+02 5.090257e+02 6.472460e+02 3.700649e+02 5.983406e-01 4.605319e-01 3.450555e-01 2.515037e-01 6.539834e-01 6.033067e-01
<GCONST> 1.967087e+02
<MIXTURE> 2 1.591746e-01
<MEAN> 33
 3.260595e+01 1.322425e+02 1.111867e+02 1.391093e+02 2.086109e+01 1.757989e+02 1.798966e+01 2.596583e+01 4.055452e+01 6.480097e+01 1.636653e+02 1.515719e+00 1.662967e+02 6.187047e+01 1.618252e+02 4.732482e+01 4.505430e+01 5.063842e+00 1.083455e+02 1.259787e+02 1.725069e+02 1.467311e+02 9.327406e+01 1.328063e+02 5.044018e+01 5.211620e+01 3.848645e+01 4.324090e+00 2.639000e+00 3.503898e+00 3.263010e+00 2.857490e+00 4.022680e+00
<VARIANCE> 33
 3.034135e+02 8.259045e+01 1.174627e+02 1.329529e+02 2.351088e+02 1.394953e+01 6.366236e+01 7.519329e+01 2.501922e+02 8.679854e+01 7.364465e+01 1.792945e+00 5.965659e+01 9.786781e+01 4.321993e+01 8.079507e+01 5.493102e+01 3.148238e+01 7.526196e+02 7.071545e+02 2.519354e+01 4.577938e+02 6.354504e+02 1.312788e+03 1.288856e+03 1.541383e+03 2.184575e+02 3.464738e-01 5.803983e-01 5.595784e-01 6.001213e-01 9.941247e-01 2.673973e-01
<GCONST> 1.881996e+02
<MIXTURE> 3 1.591746e-01
<MEAN> 33
 3.260595e+01 1.322425e+02 1.111867e+02 1.391093e+02 2.086109e+01 1.757989e+02 1.798966e+01 2.596583e+01 4.055452e+01 6.480097e+01 1.636653e+02 1.515719e+00 1.662967e+02 6.187047e+01 1.618252e+02 4.732482e+01 4.505430e+01 5.063842e+00 1.083455e+02 1.259787e+02 1.725069e+02 1.467311e+02 9.327406e+01 1.328063e+02 5.044018e+01 5.211620e+01 3.848645e+01 4.324090e+00 2.639000e+00 3.503898e+00 3.263010e+00 2.857490e+00 4.022680e+00
<VARIANCE> 33
 3.034135e+02 8.259045e+01 1.174627e+02 1.329529e+02 2.351088e+02 1.394953e+01 6.366236e+01 7.519329e+01 2.501922e+02 8.679854e+01 7.364465e+01 1.792945e+00 5.965659e+01 9.786781e+01 4.321993e+01 8.079507e+01 5.493102e+01 3.148238e+01 7.526196e+02 7.071545e+02 2.519354e+01 4.577938e+02 6.354504e+02 1.312788e+03 1.288856e+03 1.541383e+03 2.184575e+02 3.464738e-01 5.803983e-01 5.595784e-01 6.001213e-01 9.941247e-01 2.673973e-01
<GCONST> 1.881996e+02
<MIXTURE> 4 4.933605e-01
<MEAN> 33
 2.983974e+01 1.249220e+02 1.251168e+02 1.277069e+02 2.620471e+01 1.761569e+02 2.095873e+01 2.489169e+01 4.505811e+01 7.549348e+01 1.426142e+02 4.710896e+00 1.419097e+02 7.688193e+01 1.627873e+02 5.034864e+01 4.875529e+01 3.439612e+00 1.362054e+02 9.708596e+01 1.664123e+02 1.139914e+02 1.201734e+02 1.502198e+02 2.708589e+01 4.047201e+01 3.618841e+01 4.128380e+00 2.966128e+00 4.277465e+00 3.969643e+00 3.281323e+00 4.045018e+00
<VARIANCE> 33
 1.397898e+02 9.932493e+01 1.373828e+02 8.162645e+01 1.538450e+02 1.245569e+01 5.906018e+01 7.233254e+01 2.209223e+02 1.067546e+02 1.154741e+02 3.042296e+01 1.324474e+02 1.066269e+02 5.289506e+01 6.113472e+01 5.471123e+01 3.148238e+01 2.952994e+02 2.242697e+02 4.199206e+01 3.694187e+02 4.031755e+02 4.947961e+02 4.012092e+02 7.521094e+02 8.897175e+01 2.905551e-01 4.022427e-01 3.902253e-01 2.596069e-01 4.305626e-01 2.432103e-01
<GCONST> 1.821190e+02
<STATE> 4
<NUMMIXES> 4
<MIXTURE> 1 4.607031e-01
<MEAN> 33
 1.737606e+02 1.357129e+02 1.133325e+02 1.356232e+02 1.739738e+02 1.757733e+02 1.361602e+02 1.353178e+02 8.852200e+01 1.640302e+02 1.749959e+02 1.950599e+00 1.742251e+02 1.655905e+02 1.617651e+02 1.685933e+02 1.685453e+02 7.591730e+00 1.133736e+02 1.539944e+02 1.684817e+02 1.597763e+02 1.223541e+02 1.602735e+02 7.579955e+01 9.846773e+01 1.583638e+02 4.926768e+00 2.747960e+00 2.862790e+00 2.732816e+00 2.587916e+00 4.758349e+00
<VARIANCE> 33
 3.902650e+01 2.054231e+01 7.598973e+01 2.749333e+01 3.037716e+01 1.288922e+01 2.822034e+01 2.062020e+01 3.964544e+01 7.809128e+01 1.941556e+01 5.253339e+00 2.250889e+01 8.140554e+01 3.431541e+01 5.984818e+01 6.603873e+01 3.664928e+01 1.368242e+03 2.093418e+02 2.027112e+01 1.772117e+02 1.087632e+03 2.680074e+02 8.716838e+02 1.117985e+03 2.132503e+02 2.408975e+00 1.469352e+00 3.312975e-01 2.134927e-01 1.204670e+00 2.349435e+00
<GCONST> 1.750550e+02
<MIXTURE> 2 1.521699e-01
<MEAN> 33
 1.678116e+02 1.347545e+02 1.143131e+02 1.376092e+02 1.668973e+02 1.764634e+02 1.377231e+02 1.346600e+02 8.761696e+01 1.566381e+02 1.666293e+02 1.485631e+00 1.662257e+02 1.576586e+02 1.623745e+02 1.439894e+02 1.442301e+02 9.682586e+00 1.197052e+02 1.427830e+02 1.683635e+02 1.504337e+02 1.175453e+02 1.464508e+02 6.683807e+01 7.645837e+01 1.082239e+02 6.067332e+00 2.444419e+00 2.811175e+00 2.696665e+00 2.496472e+00 6.042032e+00
<VARIANCE> 33
 9.747121e+01 5.145547e+01 7.755344e+01 7.703929e+01 9.887151e+01 9.168254e+00 8.399876e+01 7.140548e+01 2.651531e+02 1.938987e+02 5.436865e+01 1.683531e+00 6.059953e+01 2.083520e+02 3.658559e+01 2.111776e+02 2.474625e+02 9.026581e+01 1.514990e+03 5.556441e+02 4.040836e+01 4.445976e+02 1.446944e+03 1.504019e+03 2.264197e+03 1.684552e+03 9.005018e+02 1.306661e+00 3.539273e-01 3.094827e-01 1.956161e-01 3.243995e-01 1.255359e+00
<GCONST> 1.926642e+02
<MIXTURE> 3 1.521699e-01
<MEAN> 33
 1.678116e+02 1.347545e+02 1.143131e+02 1.376092e+02 1.668973e+02 1.764634e+02 1.377231e+02 1.346600e+02 8.761696e+01 1.566381e+02 1.666293e+02 1.485631e+00 1.662257e+02 1.576586e+02 1.623745e+02 1.439894e+02 1.442301e+02 9.682586e+00 1.197052e+02 1.427830e+02 1.683635e+02 1.504337e+02 1.175453e+02 1.464508e+02 6.683807e+01 7.645837e+01 1.082239e+02 6.067332e+00 2.444419e+00 2.811175e+00 2.696665e+00 2.496472e+00 6.042032e+00
<VARIANCE> 33
 9.747121e+01 5.145547e+01 7.755344e+01 7.703929e+01 9.887151e+01 9.168254e+00 8.399876e+01 7.140548e+01 2.651531e+02 1.938987e+02 5.436865e+01 1.683531e+00 6.059953e+01 2.083520e+02 3.658559e+01 2.111776e+02 2.474625e+02 9.026581e+01 1.514990e+03 5.556441e+02 4.040836e+01 4.445976e+02 1.446944e+03 1.504019e+03 2.264197e+03 1.684552e+03 9.005018e+02 1.306661e+00 3.539273e-01 3.094827e-01 1.956161e-01 3.243995e-01 1.255359e+00
<GCONST> 1.926642e+02
<MIXTURE> 4 2.349557e-01
<MEAN> 33
 1.221688e+02 1.315495e+02 1.204285e+02 1.338935e+02 1.147147e+02 1.756533e+02 1.050618e+02 9.912889e+01 1.033631e+02 1.224644e+02 1.602294e+02 3.755790e+00 1.603169e+02 1.201916e+02 1.619112e+02 9.929822e+01 9.475565e+01 1.357895e+01 1.086951e+02 1.252510e+02 1.687771e+02 1.393595e+02 9.471712e+01 1.365036e+02 4.318375e+01 5.764421e+01 4.652838e+01 5.179757e+00 2.925401e+00 3.473631e+00 3.313119e+00 3.386523e+00 5.195957e+00
<VARIANCE> 33
 1.378666e+03 9.400088e+01 1.528924e+02 1.048224e+02 1.060813e+03 1.340761e+01 1.772589e+03 1.629456e+03 2.383203e+03 5.631531e+02 1.528492e+02 2.397402e+01 1.502963e+02 3.563774e+02 5.013715e+01 6.046304e+02 4.551895e+02 3.606994e+02 1.742624e+03 8.771340e+02 3.894810e+01 6.637468e+02 1.135111e+03 1.694950e+03 1.439316e+03 1.425023e+03 9.305099e+02 1.263125e+00 6.114803e-01 4.254807e-01 3.257060e-01 6.458111e-01 1.555958e+00
<GCONST> 2.200855e+02
<TRANSP> 5
 0.000000e+00 1.000000e+00 0.000000e+00 0.000000e+00 0.000000e+00
 0.000000e+00 9.230417e-01 7.695833e-02 0.000000e+00 0.000000e+00
 0.000000e+00 0.000000e+00 9.491874e-01 5.081261e-02 0.000000e+00
 0.000000e+00 0.000000e+00 0.000000e+00 9.311610e-01 6.883902e-02
 0.000000e+00 0.000000e+00 0.000000e+00 0.000000e+00 0.000000e+00
<ENDHMM>
~h "DC"
<BEGINHMM>
<NUMSTATES> 5
<STATE> 2
<NUMMIXES> 4
<MIXTURE> 1 5.390097e-01
<MEAN> 33
 1.736077e+02 1.365014e+02 1.080735e+02 1.381539e+02 1.749376e+02 1.759408e+02 1.351786e+02 1.343712e+02 9.045020e+01 1.574875e+02 1.751850e+02 1.563062e+00 1.747493e+02 1.610686e+02 1.619390e+02 1.626019e+02 1.676402e+02 1.091747e+01 9.812627e+01 1.531757e+02 1.692516e+02 1.623202e+02 1.064141e+02 1.569541e+02 7.326674e+01 8.768464e+01 1.540737e+02 4.699776e+00 2.600313e+00 2.664811e+00 2.473142e+00 2.347962e+00 4.584149e+00
<VARIANCE> 33
 3.902650e+01 2.366422e+01 6.130629e+01 2.854897e+01 3.037716e+01 1.112026e+01 2.822034e+01 2.062020e+01 2.522354e+01 8.149774e+01 2.458965e+01 4.018625e+00 1.994598e+01 4.610316e+01 5.209964e+01 1.174260e+02 6.998137e+01 1.043568e+02 8.978509e+02 2.903912e+02 2.918215e+01 1.497949e+02 4.433611e+02 2.929119e+02 1.138271e+03 1.262052e+03 2.894518e+02 5.288610e+00 8.687460e-01 3.844440e-01 3.715291e-01 7.863392e-01 3.337388e+00
<GCONST> 1.768126e+02
<MIXTURE> 2 1.275407e-01
<MEAN> 33
 1.313783e+02 1.382091e+02 1.110992e+02 1.385064e+02 1.366106e+02 1.772168e+02 1.177688e+02 1.122321e+02 1.220522e+02 1.138758e+02 1.736518e+02 1.259484e+00 1.733478e+02 1.137871e+02 1.621293e+02 1.062973e+02 1.066550e+02 5.456930e+00 6.248641e+01 1.597339e+02 1.697235e+02 1.628243e+02 6.564247e+01 1.548135e+02 3.505365e+01 3.919512e+01 5.782548e+01 5.903852e+00 2.987973e+00 2.979563e+00 2.896687e+00 3.032428e+00 5.778939e+00
<VARIANCE> 33
 4.845847e+02 2.246513e+01 6.715183e+01 3.172124e+01 5.077595e+02 5.973660e+00 5.369728e+02 4.625213e+02 1.103087e+03 1.423934e+02 2.631179e+01 1.419394e+00 2.577539e+01 1.799090e+02 3.945568e+01 2.903473e+02 3.392260e+02 3.148238e+01 4.930330e+02 1.909092e+02 2.715167e+01 1.458476e+02 4.111505e+02 3.961987e+02 7.209471e+02 7.104954e+02 6.419791e+02 8.420714e-01 3.584500e-01 1.817196e-01 1.526501e-01 6.219674e-01 7.844478e-01
<GCONST> 1.865460e+02
<MIXTURE> 3 1.275407e-01
<MEAN> 33
 1.313783e+02 1.382091e+02 1.110992e+02 1.385064e+02 1.366106e+02 1.772168e+02 1.177688e+02 1.122321e+02 1.220522e+02 1.138758e+02 1.736518e+02 1.259484e+00 1.733478e+02 1.137871e+02 1.621293e+02 1.062973e+02 1.066550e+02 5.456930e+00 6.248641e+01 1.597339e+02 1.697235e+02 1.628243e+02 6.564247e+01 1.548135e+02 3.505365e+01 3.919512e+01 5.782548e+01 5.903852e+00 2.987973e+00 2.979563e+00 2.896687e+00 3.032428e+00 5.778939e+00
<VARIANCE> 33
 4.845847e+02 2.246513e+01 6.715183e+01 3.172124e+01 5.077595e+02 5.973660e+00 5.369728e+02 4.625213e+02 1.103087e+03 1.423934e+02 2.631179e+01 1.419394e+00 2.577539e+01 1.799090e+02 3.945568e+01 2.903473e+02 3.392260e+02 3.148238e+01 4.930330e+02 1.909092e+02 2.715167e+01 1.458476e+02 4.111505e+02 3.961987e+02 7.209471e+02 7.104954e+02 6.419791e+02 8.420714e-01 3.584500e-01 1.817196e-01 1.526501e-01 6.219674e-01 7.844478e-01
<GCONST> 1.865460e+02
<MIXTURE> 4 2.059083e-01
<MEAN> 33
 1.152556e+02 1.292639e+02 1.125578e+02 1.410751e+02 1.052169e+02 1.711955e+02 9.342825e+01 8.343317e+01 9.993723e+01 1.206315e+02 1.586135e+02 3.529098e+00 1.601279e+02 1.141612e+02 1.589817e+02 1.040579e+02 9.225222e+01 4.182378e+01 1.091627e+02 1.133990e+02 1.711798e+02 1.447901e+02 9.847047e+01 1.254800e+02 6.277950e+01 7.333434e+01 6.500357e+01 5.270514e+00 2.573338e+00 3.210224e+00 2.889863e+00 3.190798e+00 5.456173e+00
<VARIANCE> 33
 1.904119e+03 3.100252e+02 1.479665e+02 2.248572e+02 2.771630e+03 4.673542e+01 2.454273e+03 2.160068e+03 2.715804e+03 7.572749e+02 3.297976e+02 1.579045e+01 1.838611e+02 7.613052e+02 8.443517e+01 1.356369e+03 1.096356e+03 2.732097e+03 2.005103e+03 1.462943e+03 3.179761e+01 6.049836e+02 1.286036e+03 1.647347e+03 2.464244e+03 2.379573e+03 2.067279e+03 2.728959e+00 1.501490e+00 7.898695e-01 4.846153e-01 1.478332e+00 2.591112e+00
<GCONST> 2.374447e+02
<STATE> 3
<NUMMIXES> 4
<MIXTURE> 1 2.925223e-01
<MEAN> 33
 9.459939e+01 1.380544e+02 1.104276e+02 1.420992e+02 9.145168e+01 1.739209e+02 8.221652e+01 7.980316e+01 7.909132e+01 1.160738e+02 1.642771e+02 1.925600e+00 1.650378e+02 1.121833e+02 1.626744e+02 8.805839e+01 8.682575e+01 3.658131e+00 9.441041e+01 1.338983e+02 1.720310e+02 1.478759e+02 8.373772e+01 1.144305e+02 6.723700e+01 6.736299e+01 1.744896e+01 4.324720e+00 3.377273e+00 3.482982e+00 3.279871e+00 3.873708e+00 4.441261e+00
<VARIANCE> 33
 1.770115e+02 6.334818e+01 1.684055e+02 1.302171e+02 4.065526e+02 2.294019e+01 1.529566e+03 1.568775e+03 3.070843e+03 1.485262e+02 5.979353e+01 3.476438e+00 7.133031e+01 1.711551e+02 2.255992e+01 5.380746e+01 4.549081e+01 3.148238e+01 8.092349e+02 5.742968e+02 2.634261e+01 4.281142e+02 7.663251e+02 2.268046e+03 2.420489e+03 2.201029e+03 2.070556e+02 5.072696e-01 8.876511e-01 3.396382e-01 3.749353e-01 1.396443e+00 5.256408e-01
<GCONST> 2.003491e+02
<MIXTURE> 2 2.235781e-01
<MEAN> 33
 7.241421e+01 1.294989e+02 1.128137e+02 1.361182e+02 6.449668e+01 1.754938e+02 3.051774e+01 2.441059e+01 3.662118e+01 9.518603e+01 1.561922e+02 2.606335e+00 1.605586e+02 9.461188e+01 1.614315e+02 6.623255e+01 6.581805e+01 2.744002e+00 1.198666e+02 1.017343e+02 1.705577e+02 1.388238e+02 8.790186e+01 1.476237e+02 4.654267e+01 4.119263e+01 1.908454e+01 4.420378e+00 3.043600e+00 3.988980e+00 3.800766e+00 3.655067e+00 3.965723e+00
<VARIANCE> 33
 2.029456e+02 3.605868e+01 5.070576e+01 2.940367e+01 2.077940e+02 2.085174e+01 3.717531e+02 2.962919e+02 8.165411e+02 1.261972e+02 9.932008e+01 7.930148e+00 5.756654e+01 1.100367e+02 3.117371e+01 4.368174e+01 4.277289e+01 3.148238e+01 6.292116e+02 6.587635e+02 2.803698e+01 4.077366e+02 6.022473e+02 4.170323e+02 6.512875e+02 6.145817e+02 2.481295e+02 4.254192e-01 6.979570e-01 1.698198e-01 1.037738e-01 6.310200e-01 2.290032e-01
<GCONST> 1.841657e+02
<MIXTURE> 3 2.555085e-01
<MEAN> 33
 7.818343e+01 1.403641e+02 1.091195e+02 1.398096e+02 7.558920e+01 1.753814e+02 3.122431e+01 3.304212e+01 4.667112e+01 1.090634e+02 1.597967e+02 8.327946e-01 1.618923e+02 1.063810e+02 1.592805e+02 7.521381e+01 7.474437e+01 2.171772e+00 1.027631e+02 1.283627e+02 1.720965e+02 1.339443e+02 1.011484e+02 1.127103e+02 6.088453e+01 6.270899e+01 1.586107e+01 4.355090e+00 3.673814e+00 3.683783e+00 3.520305e+00 3.624159e+00 4.366637e+00
<VARIANCE> 33
 8.890909e+01 4.109214e+01 4.578822e+01 5.087054e+01 2.526293e+02 9.678356e+00 3.903342e+02 3.826793e+02 1.131834e+03 5.854492e+01 3.512826e+01 5.357184e-01 4.794880e+01 6.487328e+01 2.623647e+01 3.071743e+01 2.601832e+01 3.148238e+01 3.594297e+02 2.802989e+02 2.128878e+01 3.023612e+02 3.259076e+02 2.081857e+03 2.644381e+03 2.473033e+03 1.611003e+02 4.614421e-01 5.205471e-01 1.233650e-01 8.658733e-02 3.152340e-01 3.491225e-01
<GCONST> 1.781227e+02
<MIXTURE> 4 2.283906e-01
<MEAN> 33
 7.125535e+01 1.202817e+02 1.147707e+02 1.337017e+02 5.867904e+01 1.702563e+02 2.169438e+01 1.682053e+01 2.323615e+01 1.142178e+02 1.379462e+02 3.520493e+00 1.413544e+02 1.145023e+02 1.542173e+02 6.545325e+01 6.570371e+01 2.438283e+00 1.428235e+02 9.009563e+01 1.721035e+02 1.069108e+02 1.277836e+02 1.032970e+02 8.732172e+01 8.664193e+01 1.093607e+01 3.994096e+00 2.544811e+00 3.944865e+00 3.841974e+00 3.118399e+00 3.919206e+00
<VARIANCE> 33
 7.208655e+02 2.634036e+02 1.408029e+02 8.447414e+01 5.216544e+02 6.324673e+01 3.458070e+02 1.845557e+02 4.329134e+02 3.991298e+02 1.890811e+02 4.241402e+01 1.922995e+02 3.753665e+02 9.768916e+01 1.101615e+02 1.038135e+02 3.148238e+01 2.640881e+02 2.433844e+02 6.715289e+01 1.619294e+02 2.812830e+02 2.025374e+03 2.315676e+03 2.417268e+03 1.236076e+02 4.172764e-01 4.133264e-01 3.904882e-01 3.213689e-01 7.637282e-01 4.716905e-01
<GCONST> 2.023868e+02
<STATE> 4
<NUMMIXES> 4
<MIXTURE> 1 4.670216e-01
<MEAN> 33
 1.722587e+02 1.382956e+02 1.106708e+02 1.387013e+02 1.733997e+02 1.761461e+02 1.346190e+02 1.343475e+02 9.103352e+01 1.641770e+02 1.742090e+02 1.289865e+00 1.748484e+02 1.665948e+02 1.612851e+02 1.660017e+02 1.659336e+02 1.023276e+01 1.214346e+02 1.542210e+02 1.693410e+02 1.569875e+02 1.315372e+02 1.510388e+02 8.538049e+01 9.556464e+01 1.545162e+02 4.832048e+00 2.845833e+00 2.782438e+00 2.535232e+00 2.533758e+00 4.666432e+00
<VARIANCE> 33
 3.902650e+01 2.275163e+01 8.078523e+01 2.914266e+01 3.345839e+01 1.188634e+01 2.822034e+01 2.062020e+01 4.042202e+01 1.036660e+02 1.900713e+01 2.382836e+00 1.624052e+01 9.146563e+01 4.713039e+01 8.067385e+01 8.775934e+01 8.740354e+01 1.527381e+03 2.359357e+02 3.308409e+01 1.728305e+02 1.292189e+03 8.452147e+02 1.217323e+03 1.322387e+03 2.587660e+02 2.761628e+00 1.512769e+00 3.372947e-01 1.970613e-01 9.043828e-01 2.394500e+00
<GCONST> 1.788893e+02
<MIXTURE> 2 1.340284e-01
<MEAN> 33
 1.678760e+02 1.380171e+02 1.096433e+02 1.397345e+02 1.681262e+02 1.748904e+02 1.374343e+02 1.325680e+02 8.999773e+01 1.634707e+02 1.666502e+02 1.348105e+00 1.667456e+02 1.638523e+02 1.619896e+02 1.409538e+02 1.408689e+02 9.441875e+00 1.345805e+02 1.330720e+02 1.705821e+02 1.451081e+02 1.337809e+02 1.297392e+02 7.396180e+01 9.829893e+01 1.022640e+02 6.137644e+00 2.306999e+00 2.703640e+00 2.647978e+00 2.387369e+00 6.037165e+00
<VARIANCE> 33
 9.821379e+01 5.910583e+01 5.696020e+01 5.166468e+01 8.591679e+01 1.931758e+01 1.033386e+02 8.123656e+01 2.732190e+02 1.525106e+02 5.502271e+01 1.703663e+00 5.913615e+01 1.538183e+02 4.129074e+01 1.793129e+02 2.471882e+02 7.020300e+01 1.335069e+03 6.818137e+02 3.671354e+01 3.894032e+02 1.107846e+03 2.273333e+03 2.500765e+03 2.169031e+03 6.815906e+02 8.562506e-01 2.267218e-01 2.238540e-01 1.271278e-01 1.879246e-01 7.518696e-01
<GCONST> 1.896221e+02
<MIXTURE> 3 1.340284e-01
<MEAN> 33
 1.678760e+02 1.380171e+02 1.096433e+02 1.397345e+02 1.681262e+02 1.748904e+02 1.374343e+02 1.325680e+02 8.999773e+01 1.634707e+02 1.666502e+02 1.348105e+00 1.667456e+02 1.638523e+02 1.619896e+02 1.409538e+02 1.408689e+02 9.441875e+00 1.345805e+02 1.330720e+02 1.705821e+02 1.451081e+02 1.337809e+02 1.297392e+02 7.396180e+01 9.829893e+01 1.022640e+02 6.137644e+00 2.306999e+00 2.703640e+00 2.647978e+00 2.387369e+00 6.037165e+00
<VARIANCE> 33
 9.821379e+01 5.910583e+01 5.696020e+01 5.166468e+01 8.591679e+01 1.931758e+01 1.033386e+02 8.123656e+01 2.732190e+02 1.525106e+02 5.502271e+01 1.703663e+00 5.913615e+01 1.538183e+02 4.129074e+01 1.793129e+02 2.471882e+02 7.020300e+01 1.335069e+03 6.818137e+02 3.671354e+01 3.894032e+02 1.107846e+03 2.273333e+03 2.500765e+03 2.169031e+03 6.815906e+02 8.562506e-01 2.267218e-01 2.238540e-01 1.271278e-01 1.879246e-01 7.518696e-01
<GCONST> 1.896221e+02
<MIXTURE> 4 2.649196e-01
<MEAN> 33
 1.359169e+02 1.330274e+02 1.127205e+02 1.385625e+02 1.289340e+02 1.720241e+02 1.276048e+02 1.220395e+02 8.369164e+01 1.361765e+02 1.629569e+02 2.970919e+00 1.612368e+02 1.335850e+02 1.610433e+02 1.098505e+02 1.067975e+02 1.049947e+01 1.135831e+02 1.200541e+02 1.707581e+02 1.376848e+02 9.954518e+01 1.274180e+02 6.145304e+01 7.106352e+01 4.611945e+01 4.715744e+00 2.803227e+00 3.305838e+00 3.218657e+00 3.248024e+00 5.061091e+00
<VARIANCE> 33
 5.775307e+02 1.308272e+02 1.268794e+02 1.262632e+02 7.581081e+02 4.731416e+01 1.208527e+03 1.236539e+03 2.265008e+03 3.375206e+02 1.036329e+02 3.170789e+01 1.375950e+02 4.209731e+02 6.948168e+01 4.094872e+02 4.068073e+02 2.434904e+02 1.481912e+03 1.188388e+03 4.299986e+01 6.804863e+02 1.503153e+03 1.840165e+03 2.150191e+03 2.065599e+03 1.206016e+03 1.562919e+00 5.902725e-01 4.300431e-01 3.876303e-01 8.697713e-01 1.252906e+00
<GCONST> 2.207534e+02
<TRANSP> 5
 0.000000e+00 1.000000e+00 0.000000e+00 0.000000e+00 0.000000e+00
 0.000000e+00 8.873286e-01 1.126714e-01 0.000000e+00 0.000000e+00
 0.000000e+00 0.000000e+00 9.593900e-01 4.061000e-02 0.000000e+00
 0.000000e+00 0.000000e+00 0.000000e+00 9.290579e-01 7.094211e-02
 0.000000e+00 0.000000e+00 0.000000e+00 0.000000e+00 0.000000e+00
<ENDHMM>
~h "FM"
<BEGINHMM>
<NUMSTATES> 5
<STATE> 2
<NUMMIXES> 4
<MIXTURE> 1 2.690898e-01
<MEAN> 33
 1.723265e+02 1.377407e+02 1.085732e+02 1.382474e+02 1.748042e+02 1.764959e+02 1.349391e+02 1.340643e+02 9.099664e+01 1.561946e+02 1.749958e+02 1.383343e+00 1.751643e+02 1.612259e+02 1.618401e+02 1.631068e+02 1.670594e+02 1.141883e+01 9.397812e+01 1.526625e+02 1.699084e+02 1.620015e+02 1.084546e+02 1.584394e+02 7.095676e+01 9.092554e+01 1.542238e+02 5.024976e+00 2.798655e+00 2.647549e+00 2.520220e+00 2.331035e+00 4.856523e+00
<VARIANCE> 33
 3.902650e+01 2.987407e+01 7.353134e+01 3.438354e+01 3.037716e+01 9.888466e+00 2.822034e+01 2.062020e+01 3.726294e+01 8.564993e+01 2.246330e+01 3.041321e+00 1.602164e+01 5.222491e+01 4.868245e+01 1.260409e+02 8.573399e+01 1.198619e+02 9.676516e+02 2.338168e+02 2.226008e+01 1.408668e+02 5.630229e+02 2.165452e+02 9.791424e+02 1.208596e+03 2.865377e+02 4.971007e+00 9.087024e-01 2.854261e-01 4.204084e-01 7.802063e-01 3.151718e+00
<GCONST> 1.766195e+02
<MIXTURE> 2 2.654385e-01
<MEAN> 33
 1.720001e+02 1.389371e+02 1.104526e+02 1.674755e+02 1.001324e+02 1.735016e+02 1.351386e+02 9.331098e+01 1.315373e+02 1.557441e+02 1.699846e+02 4.593103e+00 1.527254e+02 1.076373e+02 1.620763e+02 1.689371e+02 9.968395e+01 7.302600e+01 8.349870e+01 1.435130e+02 1.676919e+02 1.583668e+02 4.372957e+01 1.226155e+02 6.534762e+01 1.017560e+02 1.450089e+02 3.742325e+00 2.733648e+00 2.614332e+00 2.137110e+00 6.278039e+00 6.610365e+00
<VARIANCE> 33
 3.902650e+01 5.649945e+01 1.207762e+02 9.054400e+01 5.284122e+02 4.795937e+01 2.822034e+01 2.490999e+02 3.079801e+02 7.649941e+01 9.796869e+01 2.485614e+01 2.853993e+02 6.537561e+02 7.051867e+01 6.770972e+01 1.277645e+03 1.187985e+03 5.820527e+02 4.622109e+02 5.531506e+01 1.420576e+02 1.967277e+02 2.260782e+03 2.251403e+03 1.777225e+03 4.291768e+02 2.173199e+00 1.003785e+00 2.354305e-01 3.697211e-01 2.397433e+00 3.873584e+00
<GCONST> 2.056603e+02
<MIXTURE> 3 2.654385e-01
<MEAN> 33
 1.720001e+02 1.389371e+02 1.104526e+02 1.674755e+02 1.001324e+02 1.735016e+02 1.351386e+02 9.331098e+01 1.315373e+02 1.557441e+02 1.699846e+02 4.593103e+00 1.527254e+02 1.076373e+02 1.620763e+02 1.689371e+02 9.968395e+01 7.302600e+01 8.349870e+01 1.435130e+02 1.676919e+02 1.583668e+02 4.372957e+01 1.226155e+02 6.534762e+01 1.017560e+02 1.450089e+02 3.742325e+00 2.733648e+00 2.614332e+00 2.137110e+00 6.278039e+00 6.610365e+00
<VARIANCE> 33
 3.902650e+01 5.649945e+01 1.207762e+02 9.054400e+01 5.284122e+02 4.795937e+01 2.822034e+01 2.490999e+02 3.079801e+02 7.649941e+01 9.796869e+01 2.485614e+01 2.853993e+02 6.537561e+02 7.051867e+01 6.770972e+01 1.277645e+03 1.187985e+03 5.820527e+02 4.622109e+02 5.531506e+01 1.420576e+02 1.967277e+02 2.260782e+03 2.251403e+03 1.777225e+03 4.291768e+02 2.173199e+00 1.003785e+00 2.354305e-01 3.697211e-01 2.397433e+00 3.873584e+00
<GCONST> 2.056603e+02
<MIXTURE> 4 2.000331e-01
<MEAN> 33
 1.039809e+02 1.565482e+02 1.132978e+02 1.506640e+02 1.246457e+02 1.706933e+02 8.511348e+01 1.038491e+02 1.350683e+02 1.015693e+02 1.653666e+02 2.594852e+00 1.626491e+02 1.328825e+02 1.630938e+02 8.484981e+01 1.147160e+02 8.021084e+01 6.191443e+01 1.559136e+02 1.677238e+02 1.513501e+02 6.665360e+01 1.342452e+02 6.391645e+01 8.142262e+01 1.161025e+02 5.767791e+00 5.520073e+00 2.586471e+00 2.677947e+00 3.808290e+00 4.271416e+00
<VARIANCE> 33
 1.348880e+03 3.032420e+02 8.721176e+01 6.346750e+02 1.280569e+03 5.139222e+01 1.005560e+03 9.207328e+02 2.313465e+03 7.405148e+02 1.634945e+02 5.276350e+00 2.441110e+02 7.925394e+02 5.970918e+01 9.341821e+02 1.331203e+03 4.110040e+03 1.717455e+03 4.436693e+02 5.789968e+01 6.653810e+02 1.714300e+03 1.193870e+03 1.822420e+03 2.394220e+03 2.858597e+03 3.729853e+00 7.428467e+00 6.533418e-01 5.813456e-01 1.392408e+00 2.563019e+00
<GCONST> 2.345640e+02
<STATE> 3
<NUMMIXES> 4
<MIXTURE> 1 3.906397e-01
<MEAN> 33
 1.207208e+02 1.625612e+02 1.150585e+02 1.351869e+02 1.734224e+02 1.742231e+02 1.077729e+02 1.361546e+02 1.160725e+02 1.198908e+02 1.653815e+02 2.500597e+00 1.748673e+02 1.634433e+02 1.636642e+02 1.197309e+02 1.713551e+02 5.867630e+01 4.693547e+01 1.609622e+02 1.646255e+02 1.533078e+02 1.017941e+02 1.538479e+02 8.070808e+01 7.157820e+01 1.506666e+02 7.799521e+00 6.393662e+00 2.566302e+00 2.604340e+00 2.296574e+00 3.710426e+00
<VARIANCE> 33
 4.243952e+02 8.254333e+01 1.028342e+02 1.990632e+01 3.037716e+01 1.867987e+01 1.164136e+02 2.062020e+01 1.201439e+02 3.267289e+02 7.843731e+01 5.608656e+00 1.109383e+01 3.643999e+01 3.766122e+01 3.956894e+02 4.500466e+01 4.490020e+02 1.247110e+02 9.126955e+01 2.358143e+01 1.642628e+02 9.197859e+02 3.636974e+02 6.209279e+02 7.860987e+02 2.750797e+02 2.780083e+00 2.999850e+00 2.265658e-01 1.528358e-01 4.785075e-01 9.387652e-01
<GCONST> 1.820474e+02
<MIXTURE> 2 2.163232e-01
<MEAN> 33
 1.017216e+02 1.685883e+02 1.124096e+02 1.360783e+02 1.767249e+02 1.741103e+02 8.189042e+01 1.359839e+02 1.420982e+02 9.711105e+01 1.638806e+02 4.830511e+00 1.744584e+02 1.625097e+02 1.667305e+02 7.561362e+01 1.708012e+02 9.576280e+01 4.262931e+01 1.625702e+02 1.632657e+02 1.538442e+02 9.147854e+01 1.504386e+02 9.286028e+01 4.428621e+01 1.371448e+02 7.967449e+00 6.507758e+00 2.401447e+00 2.734160e+00 2.055133e+00 4.015014e+00
<VARIANCE> 33
 2.410706e+02 3.788987e+01 1.751803e+01 1.125423e+01 3.037716e+01 1.820053e+01 8.299908e+01 2.062020e+01 8.733417e+01 7.229269e+01 8.846318e+01 7.544039e+00 1.007718e+01 1.317438e+01 5.232277e+01 1.648563e+02 2.656619e+01 1.600936e+02 1.913586e+01 7.378339e+01 3.424561e+01 1.869783e+02 2.199975e+02 4.871075e+02 3.791128e+02 4.213507e+02 1.220959e+02 1.945318e+00 1.005846e+00 1.050424e-01 1.162499e-01 5.992839e-02 6.097660e-01
<GCONST> 1.637162e+02
<MIXTURE> 3 2.163232e-01
<MEAN> 33
 1.017216e+02 1.685883e+02 1.124096e+02 1.360783e+02 1.767249e+02 1.741103e+02 8.189042e+01 1.359839e+02 1.420982e+02 9.711105e+01 1.638806e+02 4.830511e+00 1.744584e+02 1.625097e+02 1.667305e+02 7.561362e+01 1.708012e+02 9.576280e+01 4.262931e+01 1.625702e+02 1.632657e+02 1.538442e+02 9.147854e+01 1.504386e+02 9.286028e+01 4.428621e+01 1.371448e+02 7.967449e+00 6.507758e+00 2.401447e+00 2.734160e+00 2.055133e+00 4.015014e+00
<VARIANCE> 33
 2.410706e+02 3.788987e+01 1.751803e+01 1.125423e+01 3.037716e+01 1.820053e+01 8.299908e+01 2.062020e+01 8.733417e+01 7.229269e+01 8.846318e+01 7.544039e+00 1.007718e+01 1.317438e+01 5.232277e+01 1.648563e+02 2.656619e+01 1.600936e+02 1.913586e+01 7.378339e+01 3.424561e+01 1.869783e+02 2.199975e+02 4.871075e+02 3.791128e+02 4.213507e+02 1.220959e+02 1.945318e+00 1.005846e+00 1.050424e-01 1.162499e-01 5.992839e-02 6.097660e-01
<GCONST> 1.637162e+02
<MIXTURE> 4 1.767129e-01
<MEAN> 33
 9.816754e+01 1.644091e+02 1.206787e+02 1.321351e+02 1.658843e+02 1.710266e+02 9.050172e+01 1.297686e+02 1.391175e+02 1.092475e+02 1.538094e+02 9.540708e+00 1.645922e+02 1.503654e+02 1.607570e+02 9.233125e+01 1.553983e+02 7.780504e+01 4.304837e+01 1.609720e+02 1.695227e+02 1.451168e+02 8.931477e+01 1.142064e+02 6.771416e+01 8.873740e+01 1.397641e+02 6.261229e+00 5.849078e+00 2.256658e+00 2.952700e+00 3.176757e+00 4.677619e+00
<VARIANCE> 33
 8.867267e+02 1.195823e+02 1.707398e+02 3.450660e+02 2.554034e+02 5.433800e+01 3.355255e+02 1.272576e+02 3.497437e+02 4.684894e+02 3.431942e+02 5.267506e+02 5.408586e+02 3.673132e+02 6.275333e+01 1.351756e+03 5.074305e+02 1.539231e+03 3.321245e+02 1.321050e+02 4.019465e+01 4.217472e+02 1.703199e+03 1.401479e+03 2.444330e+03 3.100659e+03 6.478316e+02 3.015759e+00 2.751508e+00 3.232202e-01 3.956023e-01 1.468488e+00 3.082417e+00
<GCONST> 2.236297e+02
<STATE> 4
<NUMMIXES> 4
<MIXTURE> 1 3.407151e-01
<MEAN> 33
 1.755807e+02 1.354915e+02 1.087612e+02 1.360707e+02 1.776836e+02 1.763001e+02 1.349750e+02 1.345720e+02 9.045296e+01 1.595730e+02 1.770897e+02 1.083118e+00 1.756074e+02 1.646373e+02 1.628012e+02 1.668779e+02 1.693134e+02 6.384614e+00 9.599258e+01 1.598894e+02 1.691349e+02 1.675223e+02 1.113596e+02 1.533367e+02 8.619125e+01 7.264131e+01 1.586437e+02 6.274654e+00 2.252069e+00 2.921090e+00 2.737609e+00 1.897349e+00 5.754983e+00
<VARIANCE> 33
 3.902650e+01 1.296094e+01 2.284978e+01 9.213788e+00 3.037716e+01 7.748077e+00 2.822034e+01 2.062020e+01 1.886277e+01 1.739344e+01 5.689199e+00 7.576999e-01 6.541270e+00 1.398008e+01 2.505076e+01 3.071743e+01 4.210493e+01 3.148238e+01 2.377763e+02 8.079121e+01 1.407909e+01 5.601276e+01 2.193246e+02 2.905889e+02 8.266277e+02 8.983452e+02 1.142485e+02 9.935593e-01 1.550492e-01 7.700887e-02 7.858440e-02 4.340008e-02 1.169962e+00
<GCONST> 1.455527e+02
<MIXTURE> 2 2.305697e-01
<MEAN> 33
 1.694801e+02 1.361972e+02 1.142266e+02 1.363879e+02 1.729039e+02 1.742920e+02 1.349546e+02 1.364022e+02 8.864321e+01 1.566630e+02 1.734279e+02 2.999933e+00 1.741207e+02 1.616407e+02 1.632788e+02 1.657540e+02 1.700428e+02 1.282216e+01 9.386060e+01 1.512478e+02 1.662687e+02 1.564337e+02 9.821814e+01 1.439936e+02 9.428899e+01 7.522336e+01 1.599758e+02 5.047193e+00 3.483454e+00 2.902444e+00 2.597428e+00 2.758288e+00 4.790164e+00
<VARIANCE> 33
 6.571584e+01 3.244864e+01 6.955693e+01 2.867236e+01 3.655705e+01 1.720291e+01 2.822034e+01 2.062020e+01 3.701993e+01 1.165743e+02 2.653548e+01 6.368239e+00 1.737313e+01 4.362044e+01 3.667736e+01 1.264911e+02 5.404879e+01 1.208843e+02 1.229112e+03 3.494259e+02 3.131665e+01 1.597911e+02 7.908521e+02 4.775092e+02 1.605446e+03 1.828516e+03 2.361064e+02 4.165155e+00 2.128251e+00 3.632998e-01 2.502384e-01 1.496022e+00 2.304345e+00
<GCONST> 1.817891e+02
<MIXTURE> 3 2.305697e-01
<MEAN> 33
 1.694801e+02 1.361972e+02 1.142266e+02 1.363879e+02 1.729039e+02 1.742920e+02 1.349546e+02 1.364022e+02 8.864321e+01 1.566630e+02 1.734279e+02 2.999933e+00 1.741207e+02 1.616407e+02 1.632788e+02 1.657540e+02 1.700428e+02 1.282216e+01 9.386060e+01 1.512478e+02 1.662687e+02 1.564337e+02 9.821814e+01 1.439936e+02 9.428899e+01 7.522336e+01 1.599758e+02 5.047193e+00 3.483454e+00 2.902444e+00 2.597428e+00 2.758288e+00 4.790164e+00
<VARIANCE> 33
 6.571584e+01 3.244864e+01 6.955693e+01 2.867236e+01 3.655705e+01 1.720291e+01 2.822034e+01 2.062020e+01 3.701993e+01 1.165743e+02 2.653548e+01 6.368239e+00 1.737313e+01 4.362044e+01 3.667736e+01 1.264911e+02 5.404879e+01 1.208843e+02 1.229112e+03 3.494259e+02 3.131665e+01 1.597911e+02 7.908521e+02 4.775092e+02 1.605446e+03 1.828516e+03 2.361064e+02 4.165155e+00 2.128251e+00 3.632998e-01 2.502384e-01 1.496022e+00 2.304345e+00
<GCONST> 1.817891e+02
<MIXTURE> 4 1.981446e-01
<MEAN> 33
 1.234619e+02 1.605903e+02 1.089412e+02 1.424082e+02 1.655780e+02 1.745461e+02 1.161734e+02 1.321824e+02 1.091966e+02 1.284254e+02 1.580407e+02 4.513057e+00 1.711127e+02 1.518645e+02 1.638467e+02 1.497103e+02 1.607544e+02 2.962642e+01 4.706689e+01 1.548113e+02 1.671318e+02 1.473242e+02 8.783767e+01 1.271085e+02 1.160075e+02 4.955354e+01 1.497096e+02 3.492823e+00 5.037348e+00 2.069837e+00 2.189470e+00 2.681763e+00 3.638861e+00
<VARIANCE> 33
 7.364085e+02 2.666992e+02 1.539104e+02 1.435591e+02 4.297059e+02 1.495706e+01 2.605850e+02 2.559333e+02 6.039335e+02 4.481077e+02 1.069805e+02 4.828237e+01 1.081659e+02 3.034114e+02 3.778423e+01 6.678082e+02 7.112476e+02 6.450362e+02 1.397390e+03 2.138650e+02 3.685885e+01 2.141974e+02 1.078951e+03 9.262141e+02 1.677142e+03 1.109959e+03 1.522075e+03 3.837276e+00 2.494089e+00 5.039192e-01 4.609244e-01 1.261397e+00 4.816684e+00
<GCONST> 2.171107e+02
<TRANSP> 5
 0.000000e+00 1.000000e+00 0.000000e+00 0.000000e+00 0.000000e+00
 0.000000e+00 9.335566e-01 6.644341e-02 0.000000e+00 0.000000e+00
 0.000000e+00 0.000000e+00 9.471191e-01 5.288097e-02 0.000000e+00
 0.000000e+00 0.000000e+00 0.000000e+00 9.192764e-01 8.072359e-02
 0.000000e+00 0.000000e+00 0.000000e+00 0.000000e+00 0.000000e+00
<ENDHMM>
~h "FN"
<BEGINHMM>
<NUMSTATES> 5
<STATE> 2
<NUMMIXES> 4
<MIXTURE> 1 3.189905e-01
<MEAN> 33
 1.729272e+02 1.369326e+02 1.091153e+02 1.376493e+02 1.745978e+02 1.754303e+02 1.350721e+02 1.342616e+02 9.066623e+01 1.570455e+02 1.753453e+02 1.725116e+00 1.749003e+02 1.629439e+02 1.619303e+02 1.634107e+02 1.663737e+02 1.299804e+01 9.770567e+01 1.527154e+02 1.694441e+02 1.625127e+02 1.155688e+02 1.580743e+02 6.964558e+01 9.382162e+01 1.544561e+02 4.904780e+00 2.672177e+00 2.771565e+00 2.526075e+00 2.376779e+00 4.943882e+00
<VARIANCE> 33
 3.902650e+01 2.451200e+01 7.426706e+01 3.022584e+01 3.037716e+01 1.345007e+01 2.822034e+01 2.062020e+01 3.506154e+01 1.194301e+02 2.132673e+01 5.374422e+00 1.925122e+01 6.988552e+01 5.042861e+01 1.628508e+02 8.944511e+01 1.475226e+02 1.058582e+03 2.696110e+02 2.563834e+01 1.331178e+02 7.723649e+02 2.964513e+02 9.504793e+02 1.258273e+03 3.640545e+02 5.525295e+00 1.276572e+00 3.392079e-01 3.845157e-01 6.764507e-01 2.789205e+00
<GCONST> 1.798771e+02
<MIXTURE> 2 2.514879e-01
<MEAN> 33
 1.711172e+02 1.403305e+02 1.097801e+02 1.486075e+02 3.053338e+01 1.747760e+02 1.344362e+02 2.376787e+01 1.539451e+02 1.569135e+02 1.705083e+02 2.863273e+00 1.415897e+02 7.549760e+01 1.665864e+02 1.685392e+02 4.105978e+01 1.294682e+02 8.894797e+01 1.510139e+02 1.697930e+02 1.297240e+02 1.005082e+02 1.045415e+02 6.951987e+01 7.648444e+01 1.048817e+02 3.612792e+00 2.502587e+00 2.517380e+00 3.109785e+00 3.658036e+00 7.026905e+00
<VARIANCE> 33
 3.902650e+01 3.759336e+01 1.152256e+02 2.530460e+02 8.876885e+02 1.515792e+01 2.822034e+01 3.192854e+02 1.239164e+02 5.045508e+01 7.168952e+01 9.879485e+00 6.680961e+02 5.709696e+02 4.054234e+01 8.953589e+01 1.934178e+02 2.402629e+02 5.108172e+02 2.452216e+02 5.069642e+01 6.016574e+02 1.029353e+03 2.568510e+03 2.719283e+03 1.880295e+03 3.819934e+02 1.049861e+00 3.044510e-01 1.888625e-01 6.695361e-01 1.242219e+00 1.152177e+00
<GCONST> 1.993279e+02
<MIXTURE> 3 2.514879e-01
<MEAN> 33
 1.711172e+02 1.403305e+02 1.097801e+02 1.486075e+02 3.053338e+01 1.747760e+02 1.344362e+02 2.376787e+01 1.539451e+02 1.569135e+02 1.705083e+02 2.863273e+00 1.415897e+02 7.549760e+01 1.665864e+02 1.685392e+02 4.105978e+01 1.294682e+02 8.894797e+01 1.510139e+02 1.697930e+02 1.297240e+02 1.005082e+02 1.045415e+02 6.951987e+01 7.648444e+01 1.048817e+02 3.612792e+00 2.502587e+00 2.517380e+00 3.109785e+00 3.658036e+00 7.026905e+00
<VARIANCE> 33
 3.902650e+01 3.759336e+01 1.152256e+02 2.530460e+02 8.876885e+02 1.515792e+01 2.822034e+01 3.192854e+02 1.239164e+02 5.045508e+01 7.168952e+01 9.879485e+00 6.680961e+02 5.709696e+02 4.054234e+01 8.953589e+01 1.934178e+02 2.402629e+02 5.108172e+02 2.452216e+02 5.069642e+01 6.016574e+02 1.029353e+03 2.568510e+03 2.719283e+03 1.880295e+03 3.819934e+02 1.049861e+00 3.044510e-01 1.888625e-01 6.695361e-01 1.242219e+00 1.152177e+00
<GCONST> 1.993279e+02
<MIXTURE> 4 1.780332e-01
<MEAN> 33
 1.293123e+02 1.349147e+02 1.111228e+02 1.442325e+02 1.004955e+02 1.731219e+02 1.032264e+02 8.608454e+01 1.223801e+02 1.296825e+02 1.648709e+02 4.909699e+00 1.616053e+02 1.115384e+02 1.620403e+02 1.204284e+02 9.631019e+01 7.469252e+01 8.139335e+01 1.207805e+02 1.676387e+02 1.510669e+02 7.880325e+01 1.331562e+02 6.533873e+01 7.312300e+01 8.839825e+01 4.619877e+00 2.686066e+00 3.026222e+00 2.935646e+00 3.603095e+00 5.642191e+00
<VARIANCE> 33
 2.497906e+03 1.286747e+02 8.633381e+01 1.726355e+02 3.761083e+03 4.216630e+01 2.394384e+03 2.528704e+03 1.564945e+03 1.304462e+03 1.608013e+02 7.650305e+01 3.870284e+02 1.395971e+03 4.832169e+01 2.304624e+03 2.290638e+03 1.872163e+03 1.744863e+03 1.396946e+03 6.267954e+01 3.163150e+02 1.245221e+03 1.930466e+03 2.480728e+03 1.930020e+03 1.375946e+03 4.642321e+00 1.374865e+00 4.670090e-01 3.242486e-01 1.429895e+00 4.569291e+00
<GCONST> 2.383140e+02
<STATE> 3
<NUMMIXES> 4
<MIXTURE> 1 2.605934e-01
<MEAN> 33
 8.812399e+01 1.398423e+02 1.121425e+02 1.349188e+02 1.747745e+02 1.764887e+02 6.634103e+01 1.359172e+02 1.461149e+02 1.142795e+02 1.521968e+02 2.034476e+00 1.748216e+02 1.625834e+02 1.671243e+02 7.951405e+01 1.643840e+02 8.844351e+01 1.176721e+02 1.274071e+02 1.705988e+02 1.630299e+02 1.083346e+02 1.302039e+02 5.114762e+01 8.433286e+01 1.016435e+02 8.412879e+00 2.785408e+00 3.222678e+00 2.523023e+00 2.100688e+00 3.451346e+00
<VARIANCE> 33
 2.187277e+03 1.772865e+02 6.270108e+01 1.631228e+01 3.037716e+01 8.769944e+00 1.302167e+03 2.062020e+01 7.093075e+02 4.235456e+02 3.599478e+02 3.097467e+00 1.303631e+01 2.623485e+01 6.286834e+01 3.157214e+02 7.219421e+01 3.886335e+02 2.238346e+03 7.192643e+02 2.931323e+01 1.669125e+02 5.578528e+02 1.750893e+03 1.147298e+03 2.638503e+03 4.526226e+02 1.155565e+00 1.184662e+00 2.526079e-01 8.113149e-02 1.434146e-01 5.943274e-01
<GCONST> 1.934152e+02
<MIXTURE> 2 4.464468e-01
<MEAN> 33
 2.293716e+01 1.315092e+02 1.112455e+02 1.357012e+02 1.749293e+02 1.753289e+02 1.009395e+01 1.348669e+02 1.442589e+02 6.682335e+01 1.440206e+02 1.475620e+00 1.743680e+02 1.627478e+02 1.667594e+02 3.858410e+01 1.622361e+02 1.242540e+02 1.224947e+02 1.040925e+02 1.698286e+02 1.659666e+02 1.092289e+02 1.226526e+02 6.246476e+01 8.034212e+01 8.442392e+01 6.446653e+00 3.000362e+00 3.325413e+00 2.871648e+00 2.197748e+00 3.650468e+00
<VARIANCE> 33
 1.384158e+02 1.398408e+02 4.715121e+01 1.838949e+01 3.037716e+01 1.569724e+01 4.174112e+01 2.062020e+01 5.937437e+01 2.161171e+02 3.488535e+02 1.385186e+00 1.440151e+01 2.027550e+01 4.492209e+01 7.010476e+01 8.114040e+01 1.181334e+02 6.617349e+02 3.669586e+02 3.299482e+01 9.103390e+01 3.797647e+02 2.358107e+03 2.131333e+03 2.511699e+03 1.687838e+02 1.214846e+00 1.003153e+00 4.739186e-01 2.935544e-01 1.268255e-01 9.182237e-01
<GCONST> 1.795604e+02
<MIXTURE> 3 1.589218e-01
<MEAN> 33
 1.849372e+01 1.406682e+02 1.273721e+02 1.284532e+02 1.683089e+02 1.766125e+02 1.381553e+01 1.375216e+02 1.510137e+02 6.975291e+01 1.371225e+02 7.446555e+00 1.691237e+02 1.632338e+02 1.665185e+02 3.811366e+01 1.704692e+02 1.425162e+02 9.917204e+01 1.165201e+02 1.707514e+02 1.513048e+02 1.044074e+02 1.251919e+02 5.585127e+01 1.148172e+02 1.093151e+02 6.662991e+00 4.273707e+00 3.999691e+00 2.686881e+00 2.859169e+00 3.694110e+00
<VARIANCE> 33
 1.690712e+02 4.117632e+02 6.228579e+01 3.748528e+01 3.037716e+01 1.038403e+01 7.003225e+01 2.062020e+01 8.630341e+01 1.637880e+02 1.560883e+02 7.260045e+01 1.730484e+02 7.671989e+01 2.768958e+01 7.324010e+01 5.606250e+01 1.428677e+02 4.363492e+02 4.806809e+02 3.308026e+01 1.308010e+02 1.210379e+03 9.888475e+02 1.102649e+03 3.189235e+03 2.850901e+02 2.141201e+00 5.154571e-01 4.363068e-01 6.529717e-02 1.947779e-01 3.314671e-01
<GCONST> 1.867220e+02
<MIXTURE> 4 1.340369e-01
<MEAN> 33
