~o
<STREAMINFO> 1 33
<VECSIZE> 33<NULLD><USER><DIAGC>
~h "BN"
<BEGINHMM>
<NUMSTATES> 5
<STATE> 2
<NUMMIXES> 4
<MIXTURE> 1 3.105906e-01
<MEAN> 33
 1.743880e+02 1.388311e+02 1.045910e+02 1.397317e+02 1.762027e+02 1.769613e+02 1.353539e+02 1.340954e+02 9.055074e+01 1.603663e+02 1.765000e+02 9.548187e-01 1.756494e+02 1.624440e+02 1.646099e+02 1.669201e+02 1.705769e+02 8.060493e+00 1.050027e+02 1.614322e+02 1.695248e+02 1.635802e+02 1.098435e+02 1.617622e+02 6.937216e+01 9.278104e+01 1.605921e+02 4.347829e+00 2.300487e+00 2.568278e+00 2.388942e+00 2.266544e+00 4.679296e+00
<VARIANCE> 33
 3.902650e+01 1.759123e+01 4.597980e+01 2.763034e+01 3.037716e+01 3.780950e+00 2.822034e+01 2.062020e+01 1.886277e+01 3.426575e+01 9.158699e+00 5.357184e-01 8.016698e+00 3.209386e+01 4.177436e+01 6.466719e+01 5.260402e+01 3.148238e+01 3.974621e+02 9.126798e+01 2.563318e+01 1.025307e+02 3.591496e+02 1.863428e+02 6.120764e+02 8.139346e+02 1.976967e+02 4.600224e+00 3.762471e-01 2.471296e-01 3.693583e-01 3.091324e-01 2.850432e+00
<GCONST> 1.602825e+02
<MIXTURE> 2 1.308737e-01
<MEAN> 33
 1.479761e+02 1.371563e+02 1.106180e+02 1.362260e+02 1.750474e+02 1.766911e+02 1.241469e+02 1.347241e+02 1.007303e+02 1.213823e+02 1.751174e+02 1.001331e+00 1.756125e+02 1.609410e+02 1.613585e+02 1.193041e+02 1.664385e+02 4.854829e+01 5.503383e+01 1.578447e+02 1.689324e+02 1.638094e+02 1.006175e+02 1.590031e+02 4.542874e+01 7.502745e+01 1.175414e+02 8.721041e+00 3.075905e+00 3.029927e+00 2.595238e+00 2.117288e+00 4.228461e+00
<VARIANCE> 33
 3.660659e+02 2.119649e+01 4.057108e+01 1.336665e+01 3.037716e+01 7.843539e+00 2.368243e+02 2.062020e+01 2.877899e+02 2.143790e+02 1.637041e+01 6.491513e-01 6.579713e+00 3.778865e+01 4.101133e+01 3.532302e+02 6.522769e+01 4.516964e+02 2.645109e+02 1.520908e+02 2.417838e+01 8.948861e+01 5.109763e+02 2.324746e+02 5.614758e+02 7.556185e+02 2.827566e+02 1.491578e+00 5.310290e-01 1.029016e-01 7.313687e-02 9.166994e-02 9.654006e-01
<GCONST> 1.696730e+02
<MIXTURE> 3 2.130010e-01
<MEAN> 33
 1.721968e+02 1.357802e+02 1.128679e+02 1.380036e+02 1.701579e+02 1.757598e+02 1.344520e+02 1.337131e+02 9.183492e+01 1.567004e+02 1.694021e+02 1.742286e+00 1.728003e+02 1.585174e+02 1.607272e+02 1.602180e+02 1.596125e+02 2.192757e+01 1.005840e+02 1.408401e+02 1.707279e+02 1.518299e+02 1.081147e+02 1.435197e+02 9.548032e+01 8.137688e+01 1.490631e+02 5.189774e+00 3.542610e+00 2.900326e+00 2.721245e+00 2.957783e+00 5.158701e+00
<VARIANCE> 33
 3.902650e+01 3.228853e+01 6.699535e+01 4.385782e+01 5.763180e+01 1.211697e+01 3.540489e+01 3.661973e+01 8.388474e+01 1.624990e+02 6.164706e+01 1.833007e+00 3.368437e+01 2.571045e+02 3.094183e+01 2.432172e+02 2.265772e+02 3.093661e+02 1.888600e+03 3.825581e+02 3.655790e+01 2.415264e+02 1.809738e+03 8.169355e+02 2.296759e+03 2.199126e+03 6.093129e+02 3.848444e+00 2.751253e+00 5.444862e-01 2.379914e-01 1.194503e+00 4.362247e+00
<GCONST> 1.934856e+02
<MIXTURE> 4 3.455335e-01
<MEAN> 33
 7.471109e+01 1.464844e+02 1.126252e+02 1.482604e+02 1.168511e+02 1.742285e+02 5.857479e+01 9.982213e+01 1.121546e+02 9.998257e+01 1.466044e+02 2.971015e+00 1.673413e+02 1.351584e+02 1.647742e+02 7.193900e+01 1.116717e+02 8.724873e+01 9.158346e+01 1.307221e+02 1.711348e+02 1.531946e+02 5.769017e+01 1.186285e+02 5.788636e+01 9.902287e+01 9.780402e+01 5.179687e+00 3.764644e+00 3.385275e+00 2.706143e+00 3.759199e+00 4.018224e+00
<VARIANCE> 33
 3.991627e+03 2.655669e+02 7.009209e+01 3.742969e+02 1.748564e+03 1.996035e+01 2.911996e+03 1.659220e+03 2.044771e+03 1.697754e+03 7.313859e+02 1.612005e+01 1.452686e+02 1.367619e+03 3.408263e+01 3.041110e+03 1.979284e+03 3.017022e+03 1.795426e+03 6.316609e+02 5.221392e+01 4.697534e+02 1.831573e+03 2.076031e+03 1.768510e+03 3.137037e+03 2.460181e+03 3.740945e+00 2.190613e+00 6.111962e-01 5.905519e-01 9.940217e-01 2.537976e+00
<GCONST> 2.388822e+02
<STATE> 3
<NUMMIXES> 4
<MIXTURE> 1 2.044267e-01
<MEAN> 33
 5.939792e+01 1.530758e+02 1.132668e+02 1.351832e+02 1.712981e+02 1.766131e+02 5.107705e+01 1.367357e+02 1.493951e+02 9.181075e+01 1.549913e+02 3.028533e+00 1.746613e+02 1.627282e+02 1.619539e+02 6.421458e+01 1.674773e+02 1.161199e+02 8.187243e+01 1.448194e+02 1.683374e+02 1.537241e+02 1.087535e+02 1.439395e+02 3.113135e+01 1.098567e+02 1.191566e+02 7.909524e+00 3.575161e+00 3.524434e+00 2.540030e+00 2.462053e+00 3.380519e+00
<VARIANCE> 33
 2.527260e+03 2.821904e+02 8.322481e+01 1.598039e+01 3.851709e+01 9.212480e+00 1.491001e+03 2.062020e+01 6.031909e+02 8.627523e+02 2.190610e+02 8.821100e+00 1.236665e+01 2.994032e+01 2.914036e+01 8.792746e+02 5.586097e+01 1.334250e+03 8.423741e+02 5.357383e+02 2.980305e+01 1.717337e+02 9.950305e+02 6.095658e+02 4.186787e+02 2.370362e+03 5.041946e+02 1.548946e+00 1.149126e+00 4.767488e-01 1.298351e-01 3.247752e-01 6.046634e-01
<GCONST> 1.966122e+02
<MIXTURE> 2 3.320103e-01
<MEAN> 33
 1.814679e+01 1.646407e+02 1.057225e+02 1.363404e+02 1.748464e+02 1.761776e+02 1.610054e+01 1.356226e+02 1.517224e+02 6.405521e+01 1.367039e+02 2.032041e+00 1.749485e+02 1.635883e+02 1.624707e+02 2.801555e+01 1.659499e+02 1.396096e+02 7.766383e+01 1.372274e+02 1.698343e+02 1.630681e+02 1.091281e+02 1.155269e+02 5.310163e+01 1.077478e+02 1.073887e+02 5.629684e+00 4.092082e+00 2.984938e+00 2.898717e+00 2.199903e+00 4.421801e+00
<VARIANCE> 33
 8.194904e+01 1.919664e+02 6.243297e+01 1.625602e+01 3.037716e+01 9.964471e+00 2.822034e+01 2.062020e+01 3.296582e+01 2.551530e+02 4.859038e+02 3.640520e+00 1.895285e+01 2.227497e+01 3.233313e+01 3.071743e+01 7.651261e+01 1.534272e+02 2.451014e+02 2.598748e+02 5.375896e+01 1.120710e+02 3.950300e+02 1.739894e+03 1.597054e+03 2.507001e+03 2.317859e+02 6.825706e-01 1.026228e+00 5.627264e-01 2.192023e-01 1.060633e-01 1.102880e+00
<GCONST> 1.774076e+02
<MIXTURE> 3 3.320103e-01
<MEAN> 33
 1.814679e+01 1.646407e+02 1.057225e+02 1.363404e+02 1.748464e+02 1.761776e+02 1.610054e+01 1.356226e+02 1.517224e+02 6.405521e+01 1.367039e+02 2.032041e+00 1.749485e+02 1.635883e+02 1.624707e+02 2.801555e+01 1.659499e+02 1.396096e+02 7.766383e+01 1.372274e+02 1.698343e+02 1.630681e+02 1.091281e+02 1.155269e+02 5.310163e+01 1.077478e+02 1.073887e+02 5.629684e+00 4.092082e+00 2.984938e+00 2.898717e+00 2.199903e+00 4.421801e+00
<VARIANCE> 33
 8.194904e+01 1.919664e+02 6.243297e+01 1.625602e+01 3.037716e+01 9.964471e+00 2.822034e+01 2.062020e+01 3.296582e+01 2.551530e+02 4.859038e+02 3.640520e+00 1.895285e+01 2.227497e+01 3.233313e+01 3.071743e+01 7.651261e+01 1.534272e+02 2.451014e+02 2.598748e+02 5.375896e+01 1.120710e+02 3.950300e+02 1.739894e+03 1.597054e+03 2.507001e+03 2.317859e+02 6.825706e-01 1.026228e+00 5.627264e-01 2.192023e-01 1.060633e-01 1.102880e+00
<GCONST> 1.774076e+02
<MIXTURE> 4 1.315525e-01
<MEAN> 33
 3.746384e+01 1.580504e+02 1.173015e+02 1.363256e+02 1.490262e+02 1.753074e+02 3.185322e+01 1.263853e+02 1.516157e+02 6.031675e+01 1.467758e+02 1.400380e+01 1.578413e+02 1.441784e+02 1.611499e+02 3.975277e+01 1.411591e+02 1.220669e+02 6.323145e+01 1.530887e+02 1.580686e+02 1.525809e+02 8.123706e+01 6.545301e+01 9.719188e+01 1.187102e+02 1.047189e+02 4.765427e+00 4.153754e+00 2.150524e+00 2.882135e+00 3.240555e+00 4.997195e+00
<VARIANCE> 33
 2.015844e+03 2.658215e+02 1.505435e+02 1.589694e+02 1.134133e+03 1.221458e+01 1.142891e+03 6.774957e+02 2.915939e+02 1.466430e+03 6.800604e+02 1.807316e+02 1.806101e+02 8.168922e+02 4.280886e+01 1.742305e+03 1.146378e+03 9.708231e+02 3.651672e+02 2.932148e+02 2.975970e+02 1.866740e+02 1.355737e+03 1.815401e+03 2.113380e+03 1.486221e+03 6.713260e+02 2.073751e+00 1.495521e+00 5.591124e-01 4.253746e-01 1.204860e+00 3.891498e+00
<GCONST> 2.286823e+02
<STATE> 4
<NUMMIXES> 4
<MIXTURE> 1 4.571083e-01
<MEAN> 33
 1.719860e+02 1.373732e+02 1.104389e+02 1.373921e+02 1.733172e+02 1.762237e+02 1.357637e+02 1.358013e+02 8.843503e+01 1.598117e+02 1.718360e+02 1.945103e+00 1.738459e+02 1.633281e+02 1.617116e+02 1.603848e+02 1.669934e+02 1.725410e+01 1.080479e+02 1.505322e+02 1.681351e+02 1.586064e+02 1.097030e+02 1.499395e+02 8.495725e+01 8.443036e+01 1.516394e+02 5.444037e+00 2.954385e+00 2.901230e+00 2.695807e+00 2.546725e+00 4.786386e+00
<VARIANCE> 33
 5.731983e+01 3.390992e+01 6.481147e+01 3.892510e+01 3.522602e+01 1.151683e+01 2.822034e+01 2.062020e+01 3.834826e+01 1.343148e+02 4.778404e+01 5.253399e+00 2.541671e+01 5.647712e+01 3.551274e+01 2.331958e+02 8.636144e+01 1.874304e+02 1.452130e+03 3.808558e+02 2.631190e+01 2.063306e+02 8.535023e+02 7.774686e+02 1.480698e+03 1.573494e+03 4.874097e+02 4.575222e+00 1.536599e+00 3.105574e-01 2.834893e-01 8.486962e-01 2.716152e+00
<GCONST> 1.849167e+02
<MIXTURE> 2 1.317144e-01
<MEAN> 33
 1.713127e+02 1.360704e+02 1.155743e+02 1.489116e+02 3.218148e+01 1.711102e+02 1.368231e+02 3.398583e+01 1.616761e+02 1.575659e+02 1.738210e+02 1.215860e+01 1.280070e+02 7.362300e+01 1.615540e+02 1.660691e+02 4.013476e+01 1.266494e+02 7.768201e+01 1.462137e+02 1.640049e+02 1.421897e+02 6.835203e+01 1.270169e+02 6.343599e+01 8.079590e+01 1.110894e+02 2.649014e+00 2.254973e+00 2.638656e+00 2.745675e+00 4.356440e+00 6.264137e+00
<VARIANCE> 33
 3.902650e+01 4.902156e+01 1.246587e+02 6.120355e+02 1.045629e+03 3.217182e+01 2.822034e+01 3.816824e+02 1.190072e+02 5.756825e+01 2.314824e+01 2.599979e+02 1.157455e+03 6.675143e+02 1.176748e+02 8.028230e+01 4.168948e+02 3.358675e+02 8.972260e+02 5.993352e+02 8.987214e+01 4.789736e+02 5.255137e+02 2.081746e+03 1.791354e+03 2.550091e+03 2.112487e+02 2.027529e+00 3.727258e-01 3.137345e-01 6.053591e-01 2.218885e+00 2.250685e+00
<GCONST> 2.093774e+02
<MIXTURE> 3 2.754078e-01
<MEAN> 33
 1.709705e+02 1.388378e+02 1.090334e+02 1.634150e+02 1.977417e+01 1.759983e+02 1.354063e+02 2.014684e+01 1.555531e+02 1.581823e+02 1.698773e+02 1.777048e+00 1.426144e+02 5.720778e+01 1.649491e+02 1.668213e+02 2.635820e+01 1.418139e+02 9.145876e+01 1.549186e+02 1.681916e+02 1.433629e+02 7.038447e+01 9.494984e+01 1.005448e+02 7.622829e+01 1.155640e+02 4.511031e+00 2.659598e+00 2.636268e+00 2.780416e+00 4.282584e+00 5.901889e+00
<VARIANCE> 33
 3.902650e+01 3.705614e+01 8.120012e+01 1.648942e+02 1.539083e+02 9.643687e+00 2.822034e+01 3.059332e+01 4.027224e+01 3.847212e+01 8.312405e+01 2.189662e+00 6.350176e+02 2.489106e+02 4.783739e+01 9.170882e+01 4.151756e+01 1.056101e+02 4.683917e+02 1.806947e+02 6.266147e+01 4.056777e+02 3.693419e+02 3.114925e+03 2.097751e+03 2.440477e+03 1.913599e+02 1.495449e+00 2.406619e-01 2.596118e-01 8.022810e-01 9.283074e-01 1.624230e+00
<GCONST> 1.867527e+02
<MIXTURE> 4 1.357692e-01
<MEAN> 33
 1.256511e+02 1.449424e+02 1.119674e+02 1.426115e+02 1.072261e+02 1.748866e+02 1.021737e+02 8.498849e+01 1.040722e+02 1.221073e+02 1.613138e+02 6.029451e+00 1.549985e+02 1.127944e+02 1.655998e+02 1.147001e+02 9.140611e+01 5.832726e+01 8.287287e+01 1.428673e+02 1.690100e+02 1.459576e+02 8.771809e+01 1.034868e+02 9.976186e+01 6.619854e+01 1.078165e+02 4.599623e+00 3.058416e+00 2.585094e+00 2.839898e+00 3.503557e+00 5.698426e+00
<VARIANCE> 33
 2.919142e+03 1.851501e+02 1.363710e+02 1.158417e+03 3.659351e+03 1.792409e+01 1.900876e+03 2.375198e+03 1.423566e+03 2.041839e+03 2.629068e+02 8.588098e+01 7.663964e+02 1.815500e+03 4.370959e+01 2.941592e+03 2.890461e+03 1.633066e+03 1.622650e+03 3.644090e+02 5.631245e+01 1.204152e+03 1.590395e+03 2.598077e+03 2.738997e+03 2.063712e+03 1.961836e+03 3.176709e+00 9.109998e-01 4.958800e-01 8.905351e-01 1.869546e+00 5.303328e+00
<GCONST> 2.437366e+02
<TRANSP> 5
 0.000000e+00 1.000000e+00 0.000000e+00 0.000000e+00 0.000000e+00
 0.000000e+00 8.570122e-01 1.429878e-01 0.000000e+00 0.000000e+00
 0.000000e+00 0.000000e+00 9.544052e-01 4.559470e-02 0.000000e+00
 0.000000e+00 0.000000e+00 0.000000e+00 9.514197e-01 4.858026e-02
 0.000000e+00 0.000000e+00 0.000000e+00 0.000000e+00 0.000000e+00
<ENDHMM>
~h "BS"
<BEGINHMM>
<NUMSTATES> 5
<STATE> 2
<NUMMIXES> 4
<MIXTURE> 1 2.610873e-01
<MEAN> 33
 1.732471e+02 1.369857e+02 1.079344e+02 1.380822e+02 1.749818e+02 1.763509e+02 1.354288e+02 1.346981e+02 8.987303e+01 1.566893e+02 1.751276e+02 1.049529e+00 1.749612e+02 1.600874e+02 1.625083e+02 1.606828e+02 1.655502e+02 9.873525e+00 1.002808e+02 1.584016e+02 1.701249e+02 1.625135e+02 1.050178e+02 1.592557e+02 7.477863e+01 8.196651e+01 1.489281e+02 5.291734e+00 2.639043e+00 2.693823e+00 2.550336e+00 2.245717e+00 4.842833e+00
<VARIANCE> 33
 3.902650e+01 2.161672e+01 5.623864e+01 3.115007e+01 3.037716e+01 1.143542e+01 2.822034e+01 2.062020e+01 2.660388e+01 1.126992e+02 2.009359e+01 1.254466e+00 1.735767e+01 7.517224e+01 4.159609e+01 1.359854e+02 1.028241e+02 8.125265e+01 9.108356e+02 2.122431e+02 2.537353e+01 1.756721e+02 6.202784e+02 3.178262e+02 1.037982e+03 9.688151e+02 4.003268e+02 3.954340e+00 7.837492e-01 3.107708e-01 2.787060e-01 5.261616e-01 3.586449e+00
<GCONST> 1.750500e+02
<MIXTURE> 2 2.020501e-01
<MEAN> 33
 1.115972e+02 1.366315e+02 1.157984e+02 1.392763e+02 1.225754e+02 1.753842e+02 9.933360e+01 1.043525e+02 1.131243e+02 1.152847e+02 1.646759e+02 3.970700e+00 1.618661e+02 1.195375e+02 1.600011e+02 9.449548e+01 9.699551e+01 1.290181e+01 9.401221e+01 1.362164e+02 1.699903e+02 1.507301e+02 9.231433e+01 1.470733e+02 4.031831e+01 5.657329e+01 5.428711e+01 5.518162e+00 2.883666e+00 3.092891e+00 3.024760e+00 2.998216e+00 5.320827e+00
<VARIANCE> 33
 1.343814e+03 8.303282e+01 1.009043e+02 1.085055e+02 9.956486e+02 1.947201e+01 1.549406e+03 1.158224e+03 2.231753e+03 2.480272e+02 1.222620e+02 1.815808e+02 2.727095e+02 2.524056e+02 4.002361e+01 4.982319e+02 4.982163e+02 2.300409e+02 1.849584e+03 8.306546e+02 3.169652e+01 4.149623e+02 1.382260e+03 9.610966e+02 1.243823e+03 1.658524e+03 1.274083e+03 2.427556e+00 9.632519e-01 4.005277e-01 3.210484e-01 1.031129e+00 1.816385e+00
<GCONST> 2.207116e+02
<MIXTURE> 3 2.020501e-01
<MEAN> 33
 1.115972e+02 1.366315e+02 1.157984e+02 1.392763e+02 1.225754e+02 1.753842e+02 9.933360e+01 1.043525e+02 1.131243e+02 1.152847e+02 1.646759e+02 3.970700e+00 1.618661e+02 1.195375e+02 1.600011e+02 9.449548e+01 9.699551e+01 1.290181e+01 9.401221e+01 1.362164e+02 1.699903e+02 1.507301e+02 9.231433e+01 1.470733e+02 4.031831e+01 5.657329e+01 5.428711e+01 5.518162e+00 2.883666e+00 3.092891e+00 3.024760e+00 2.998216e+00 5.320827e+00
<VARIANCE> 33
 1.343814e+03 8.303282e+01 1.009043e+02 1.085055e+02 9.956486e+02 1.947201e+01 1.549406e+03 1.158224e+03 2.231753e+03 2.480272e+02 1.222620e+02 1.815808e+02 2.727095e+02 2.524056e+02 4.002361e+01 4.982319e+02 4.982163e+02 2.300409e+02 1.849584e+03 8.306546e+02 3.169652e+01 4.149623e+02 1.382260e+03 9.610966e+02 1.243823e+03 1.658524e+03 1.274083e+03 2.427556e+00 9.632519e-01 4.005277e-01 3.210484e-01 1.031129e+00 1.816385e+00
<GCONST> 2.207116e+02
<MIXTURE> 4 3.348119e-01
<MEAN> 33
 7.371941e+01 1.332934e+02 1.106822e+02 1.386487e+02 7.029408e+01 1.739213e+02 3.593518e+01 3.548475e+01 5.094846e+01 1.053205e+02 1.515066e+02 2.285205e+00 1.539899e+02 1.063502e+02 1.626565e+02 6.828901e+01 6.927385e+01 7.266365e+00 1.136173e+02 1.095926e+02 1.689593e+02 1.263745e+02 9.900097e+01 1.285475e+02 6.188591e+01 5.678156e+01 2.200679e+01 4.021884e+00 3.026850e+00 3.732115e+00 3.531586e+00 3.496886e+00 4.030078e+00
<VARIANCE> 33
 4.946863e+02 9.644174e+01 7.104178e+01 9.649858e+01 5.666854e+02 3.622405e+01 5.227317e+02 5.990321e+02 1.381964e+03 4.306396e+02 3.161776e+02 1.208055e+01 3.220900e+02 4.153246e+02 3.981009e+01 1.560949e+02 1.645249e+02 4.678425e+01 7.646177e+02 5.777792e+02 1.237942e+02 5.544391e+02 5.854907e+02 2.036465e+03 2.333201e+03 2.343012e+03 3.067088e+02 5.690818e-01 9.890254e-01 4.203910e-01 2.797258e-01 1.065652e+00 5.507643e-01
<GCONST> 2.099895e+02
<STATE> 3
<NUMMIXES> 4
<MIXTURE> 1 1.864672e-01
<MEAN> 33
 1.509326e+02 1.559550e+02 1.115914e+02 1.591631e+02 1.542223e+02 1.755528e+02 9.407271e+01 9.269245e+01 1.650452e+02 1.186200e+02 1.709851e+02 2.268830e+00 1.634465e+02 1.084069e+02 1.642494e+02 1.039633e+02 9.400500e+01 5.406549e+01 1.221785e+02 1.607543e+02 1.633767e+02 1.538494e+02 1.180352e+02 1.454921e+02 7.415339e+01 9.570570e+01 1.556656e+02 6.342347e+00 3.688910e+00 1.820665e+00 1.674417e+00 4.113835e+00 6.282791e+00
<VARIANCE> 33
 3.264110e+02 9.206790e+01 8.361338e+01 8.345124e+01 2.414709e+02 1.083681e+01 1.088267e+02 1.226366e+02 1.174835e+02 6.488176e+02 4.956238e+01 4.996425e+00 1.868567e+02 9.131094e+02 5.774735e+01 1.477127e+03 2.429831e+03 1.691491e+03 5.380424e+02 1.229472e+02 8.469347e+01 1.557900e+02 4.038033e+02 9.256500e+02 9.617438e+02 1.040771e+03 2.862831e+02 2.320377e+00 2.540871e+00 1.255433e-01 1.236746e-01 3.624414e+00 2.891794e+00
<GCONST> 2.054140e+02
<MIXTURE> 2 2.798245e-01
<MEAN> 33
 1.370844e+02 1.394655e+02 1.158737e+02 1.398074e+02 1.487249e+02 1.756189e+02 9.117456e+01 9.462906e+01 1.661389e+02 1.025267e+02 1.724597e+02 3.150605e+00 1.722419e+02 1.063566e+02 1.601186e+02 9.082338e+01 9.545072e+01 1.004206e+01 9.921449e+01 1.498559e+02 1.695928e+02 1.545911e+02 9.867577e+01 1.430932e+02 4.913321e+01 8.057091e+01 1.165087e+02 8.119881e+00 2.188003e+00 2.398741e+00 2.291226e+00 2.372040e+00 7.915627e+00
<VARIANCE> 33
 4.730542e+02 5.398784e+01 1.238581e+02 6.839389e+01 3.989748e+02 1.472781e+01 8.090422e+01 7.546697e+01 1.009216e+02 1.665569e+02 3.969371e+01 1.264033e+01 3.915094e+01 1.963641e+02 3.988634e+01 1.787981e+02 2.353782e+02 6.574100e+01 1.067513e+03 4.835008e+02 3.993776e+01 2.897378e+02 7.623034e+02 9.455849e+02 1.390578e+03 1.251865e+03 3.687516e+02 7.826326e-01 5.452853e-01 7.706665e-02 7.723092e-02 5.788088e-01 6.243206e-01
<GCONST> 1.899374e+02
<MIXTURE> 3 2.798245e-01
<MEAN> 33
 1.370844e+02 1.394655e+02 1.158737e+02 1.398074e+02 1.487249e+02 1.756189e+02 9.117456e+01 9.462906e+01 1.661389e+02 1.025267e+02 1.724597e+02 3.150605e+00 1.722419e+02 1.063566e+02 1.601186e+02 9.082338e+01 9.545072e+01 1.004206e+01 9.921449e+01 1.498559e+02 1.695928e+02 1.545911e+02 9.867577e+01 1.430932e+02 4.913321e+01 8.057091e+01 1.165087e+02 8.119881e+00 2.188003e+00 2.398741e+00 2.291226e+00 2.372040e+00 7.915627e+00
<VARIANCE> 33
 4.730542e+02 5.398784e+01 1.238581e+02 6.839389e+01 3.989748e+02 1.472781e+01 8.090422e+01 7.546697e+01 1.009216e+02 1.665569e+02 3.969371e+01 1.264033e+01 3.915094e+01 1.963641e+02 3.988634e+01 1.787981e+02 2.353782e+02 6.574100e+01 1.067513e+03 4.835008e+02 3.993776e+01 2.897378e+02 7.623034e+02 9.455849e+02 1.390578e+03 1.251865e+03 3.687516e+02 7.826326e-01 5.452853e-01 7.706665e-02 7.723092e-02 5.788088e-01 6.243206e-01
<GCONST> 1.899374e+02
<MIXTURE> 4 2.538834e-01
<MEAN> 33
 1.078164e+02 1.554233e+02 1.070191e+02 1.621010e+02 1.159747e+02 1.677010e+02 7.135204e+01 7.151707e+01 1.426316e+02 7.030602e+01 1.680806e+02 2.665092e+00 1.662075e+02 6.243800e+01 1.630105e+02 3.955264e+01 3.341800e+01 1.639264e+01 1.329214e+02 1.605208e+02 1.667906e+02 1.611422e+02 1.253795e+02 1.289709e+02 8.237229e+01 7.948213e+01 1.482946e+02 6.369608e+00 2.920583e+00 1.929666e+00 1.687491e+00 3.320463e+00 6.949090e+00
<VARIANCE> 33
 5.309075e+02 1.291132e+02 2.808836e+01 1.125975e+02 4.924406e+02 9.670200e+01 5.794511e+01 9.063457e+01 2.414571e+02 1.012917e+03 1.075450e+02 4.502540e+00 1.671649e+02 7.229646e+02 3.640234e+01 4.895844e+02 5.422454e+02 1.844873e+02 6.411065e+02 1.441700e+02 5.092228e+01 2.495483e+02 4.218744e+02 1.533804e+03 1.662693e+03 1.458688e+03 6.764421e+02 2.158630e+00 2.878994e+00 2.690158e-01 1.735820e-01 3.159254e+00 1.653309e+00
<GCONST> 2.066740e+02
<STATE> 4
<NUMMIXES> 4
<MIXTURE> 1 4.220890e-01
<MEAN> 33
 1.742472e+02 1.365924e+02 1.090704e+02 1.382887e+02 1.739429e+02 1.768219e+02 1.358588e+02 1.354181e+02 8.872310e+01 1.622634e+02 1.748873e+02 9.306720e-01 1.748848e+02 1.653954e+02 1.615390e+02 1.654112e+02 1.684295e+02 8.602025e+00 1.085762e+02 1.605578e+02 1.683681e+02 1.659828e+02 1.151107e+02 1.589619e+02 8.364127e+01 7.798154e+01 1.558576e+02 5.493621e+00 2.359529e+00 2.974994e+00 2.698107e+00 2.173941e+00 5.125284e+00
<VARIANCE> 33
 3.902650e+01 2.123137e+01 3.847041e+01 1.831296e+01 3.037716e+01 5.496547e+00 2.822034e+01 2.062020e+01 4.054815e+01 5.429079e+01 1.555960e+01 5.357184e-01 1.028852e+01 5.312952e+01 3.107834e+01 7.102711e+01 6.388793e+01 3.300593e+01 7.847944e+02 1.104048e+02 1.839115e+01 9.109999e+01 6.886785e+02 1.669384e+02 6.380950e+02 6.727502e+02 2.237388e+02 2.192919e+00 2.630951e-01 2.729595e-01 1.697969e-01 1.631500e-01 2.173125e+00
<GCONST> 1.610534e+02
<MIXTURE> 2 1.942200e-01
<MEAN> 33
 1.669439e+02 1.410799e+02 1.120457e+02 1.430607e+02 1.661321e+02 1.759872e+02 1.268775e+02 1.259382e+02 1.071843e+02 1.401020e+02 1.711641e+02 1.423682e+00 1.688949e+02 1.426748e+02 1.623271e+02 1.371004e+02 1.374080e+02 1.074761e+01 9.216632e+01 1.598833e+02 1.657374e+02 1.632615e+02 9.640328e+01 1.555389e+02 5.690402e+01 5.923215e+01 1.141219e+02 6.699552e+00 2.552960e+00 2.581094e+00 2.531475e+00 2.515869e+00 6.903019e+00
<VARIANCE> 33
 6.836251e+01 5.707747e+01 5.525851e+01 8.045838e+01 7.595424e+01 9.167173e+00 1.792449e+02 1.411162e+02 5.597297e+02 2.123875e+02 4.217135e+01 1.279713e+00 5.727478e+01 1.975384e+02 4.271523e+01 2.193681e+02 2.193076e+02 7.163680e+01 6.143545e+02 1.633051e+02 5.748546e+01 1.285095e+02 5.065689e+02 2.886793e+02 7.024578e+02 5.885071e+02 4.892095e+02 1.577657e+00 3.956017e-01 1.253702e-01 1.594289e-01 2.806262e-01 1.362022e+00
<GCONST> 1.839144e+02
<MIXTURE> 3 2.228194e-01
<MEAN> 33
 1.709671e+02 1.393429e+02 1.123863e+02 1.419990e+02 1.688152e+02 1.745191e+02 1.340835e+02 1.321590e+02 9.375749e+01 1.582500e+02 1.721120e+02 2.779900e+00 1.697088e+02 1.617439e+02 1.620479e+02 1.631725e+02 1.595300e+02 1.497688e+01 1.093774e+02 1.454113e+02 1.669634e+02 1.502381e+02 1.235838e+02 1.426273e+02 8.524073e+01 1.039009e+02 1.471501e+02 4.641086e+00 3.670308e+00 2.621042e+00 2.493811e+00 3.119895e+00 4.820168e+00
<VARIANCE> 33
 7.559683e+01 6.632471e+01 9.324987e+01 1.002198e+02 7.654217e+01 2.104442e+01 6.274104e+01 7.479156e+01 2.182912e+02 1.885027e+02 4.198467e+01 8.210083e+00 5.958709e+01 1.808885e+02 4.314603e+01 1.584745e+02 1.912060e+02 1.722944e+02 1.846979e+03 3.050521e+02 4.822679e+01 2.849049e+02 1.473844e+03 1.616491e+03 1.672973e+03 1.495467e+03 4.822912e+02 3.133094e+00 3.075162e+00 3.605793e-01 2.636789e-01 1.298405e+00 3.052281e+00
<GCONST> 1.987904e+02
<MIXTURE> 4 1.608708e-01
<MEAN> 33
 1.284157e+02 1.380549e+02 1.149415e+02 1.432990e+02 1.094019e+02 1.707497e+02 1.066760e+02 8.773286e+01 1.093813e+02 1.206398e+02 1.665971e+02 4.289795e+00 1.609159e+02 1.028689e+02 1.602692e+02 1.040541e+02 7.873534e+01 3.412675e+01 1.037600e+02 1.306125e+02 1.690246e+02 1.441691e+02 9.748240e+01 1.279968e+02 5.632446e+01 8.027565e+01 8.534375e+01 5.689248e+00 2.895924e+00 2.879031e+00 2.791867e+00 3.610683e+00 5.841516e+00
<VARIANCE> 33
 1.709428e+03 1.497381e+02 1.544359e+02 2.415714e+02 2.757508e+03 5.369993e+01 1.873282e+03 2.471108e+03 2.864516e+03 1.426287e+03 8.409916e+01 1.844192e+01 1.835250e+02 1.509610e+03 7.549344e+01 1.827022e+03 1.571887e+03 2.104959e+03 1.789958e+03 9.851252e+02 6.276249e+01 5.608523e+02 1.351784e+03 1.850349e+03 1.983538e+03 2.102275e+03 2.619468e+03 2.099061e+00 1.055794e+00 7.301557e-01 7.224531e-01 1.404829e+00 2.297417e+00
<GCONST> 2.368571e+02
<TRANSP> 5
 0.000000e+00 1.000000e+00 0.000000e+00 0.000000e+00 0.000000e+00
 0.000000e+00 9.281052e-01 7.189486e-02 0.000000e+00 0.000000e+00
 0.000000e+00 0.000000e+00 9.347917e-01 6.520832e-02 0.000000e+00
 0.000000e+00 0.000000e+00 0.000000e+00 9.317420e-01 6.825802e-02
 0.000000e+00 0.000000e+00 0.000000e+00 0.000000e+00 0.000000e+00
<ENDHMM>
~h "CF"
<BEGINHMM>
<NUMSTATES> 5
<STATE> 2
<NUMMIXES> 4
<MIXTURE> 1 4.047075e-01
<MEAN> 33
 1.725013e+02 1.358937e+02 1.096186e+02 1.367117e+02 1.746965e+02 1.764593e+02 1.351622e+02 1.347783e+02 9.005952e+01 1.555747e+02 1.754691e+02 1.408378e+00 1.744138e+02 1.611753e+02 1.610103e+02 1.610921e+02 1.652456e+02 1.368465e+01 9.181840e+01 1.536255e+02 1.695215e+02 1.644470e+02 1.077406e+02 1.584677e+02 7.014123e+01 8.480758e+01 1.502620e+02 5.429156e+00 2.570531e+00 2.794310e+00 2.685625e+00 2.200443e+00 5.142457e+00
<VARIANCE> 33
 3.902650e+01 2.338493e+01 4.775025e+01 2.818769e+01 3.037716e+01 1.015748e+01 2.822034e+01 2.062020e+01 3.290438e+01 9.504020e+01 2.285168e+01 3.466546e+00 1.339993e+01 6.534232e+01 3.742012e+01 1.667558e+02 1.008767e+02 1.728255e+02 8.688102e+02 3.508281e+02 2.867033e+01 1.410401e+02 5.788480e+02 2.262030e+02 9.561144e+02 1.126539e+03 3.636617e+02 4.701627e+00 7.435192e-01 3.495864e-01 2.430744e-01 4.761008e-01 3.413686e+00
<GCONST> 1.762419e+02
<MIXTURE> 2 1.366587e-01
<MEAN> 33
 6.159820e+01 1.507940e+02 1.108963e+02 1.356905e+02 1.748637e+02 1.762018e+02 4.356763e+01 1.349627e+02 1.370367e+02 1.020423e+02 1.468275e+02 1.190500e+00 1.756742e+02 1.640951e+02 1.593027e+02 6.549601e+01 1.655224e+02 1.085697e+02 7.709170e+01 1.408600e+02 1.688113e+02 1.605961e+02 1.135449e+02 1.604863e+02 2.606476e+01 8.035401e+01 9.846806e+01 7.604989e+00 3.750211e+00 3.441239e+00 2.690279e+00 2.130810e+00 3.393939e+00
<VARIANCE> 33
 2.077421e+03 2.064440e+02 4.556883e+01 1.540082e+01 3.037716e+01 8.506314e+00 2.208842e+03 2.062020e+01 5.621470e+02 3.957928e+02 7.210886e+02 1.439161e+00 7.972887e+00 7.075624e+01 3.099188e+01 7.716323e+02 9.982197e+01 1.198210e+03 6.331176e+02 5.037636e+02 1.881797e+01 1.505555e+02 9.028100e+02 1.882961e+02 2.768904e+02 9.891309e+02 4.506371e+02 1.941981e+00 9.709805e-01 2.970734e-01 1.577915e-01 1.475976e-01 7.179942e-01
<GCONST> 1.904464e+02
<MIXTURE> 3 1.366587e-01
<MEAN> 33
 6.159820e+01 1.507940e+02 1.108963e+02 1.356905e+02 1.748637e+02 1.762018e+02 4.356763e+01 1.349627e+02 1.370367e+02 1.020423e+02 1.468275e+02 1.190500e+00 1.756742e+02 1.640951e+02 1.593027e+02 6.549601e+01 1.655224e+02 1.085697e+02 7.709170e+01 1.408600e+02 1.688113e+02 1.605961e+02 1.135449e+02 1.604863e+02 2.606476e+01 8.035401e+01 9.846806e+01 7.604989e+00 3.750211e+00 3.441239e+00 2.690279e+00 2.130810e+00 3.393939e+00
<VARIANCE> 33
 2.077421e+03 2.064440e+02 4.556883e+01 1.540082e+01 3.037716e+01 8.506314e+00 2.208842e+03 2.062020e+01 5.621470e+02 3.957928e+02 7.210886e+02 1.439161e+00 7.972887e+00 7.075624e+01 3.099188e+01 7.716323e+02 9.982197e+01 1.198210e+03 6.331176e+02 5.037636e+02 1.881797e+01 1.505555e+02 9.028100e+02 1.882961e+02 2.768904e+02 9.891309e+02 4.506371e+02 1.941981e+00 9.709805e-01 2.970734e-01 1.577915e-01 1.475976e-01 7.179942e-01
<GCONST> 1.904464e+02
<MIXTURE> 4 3.219755e-01
<MEAN> 33
 9.393694e+01 1.389321e+02 1.182493e+02 1.418538e+02 9.353735e+01 1.739762e+02 7.704449e+01 7.210204e+01 1.052146e+02 1.037709e+02 1.578338e+02 7.330781e+00 1.423611e+02 1.139417e+02 1.596000e+02 8.938924e+01 8.476257e+01 7.380173e+01 7.869387e+01 1.263291e+02 1.684461e+02 1.346703e+02 8.198764e+01 1.079482e+02 7.492698e+01 8.188898e+01 9.024404e+01 4.104047e+00 3.328689e+00 3.109988e+00 3.025385e+00 3.907933e+00 5.178045e+00
<VARIANCE> 33
 3.899361e+03 5.503965e+02 2.018071e+02 2.837715e+02 3.540238e+03 1.757716e+01 2.860706e+03 2.699625e+03 2.508609e+03 1.925056e+03 4.662247e+02 2.192152e+02 9.051346e+02 1.225844e+03 2.941382e+01 2.791987e+03 2.340492e+03 2.760163e+03 1.895883e+03 1.454191e+03 1.052959e+02 4.740176e+02 1.519344e+03 2.081444e+03 2.450804e+03 2.087757e+03 2.227243e+03 2.446809e+00 1.936390e+00 1.171315e+00 5.676946e-01 1.723976e+00 3.399367e+00
<GCONST> 2.476113e+02
<STATE> 3
<NUMMIXES> 4
<MIXTURE> 1 3.758945e-01
<MEAN> 33
 2.709343e+01 1.516292e+02 1.108929e+02 1.353631e+02 1.738872e+02 1.755557e+02 7.609730e+00 1.366010e+02 1.435255e+02 8.941396e+01 1.073804e+02 1.925212e+00 1.761098e+02 1.623247e+02 1.595842e+02 2.954786e+01 1.654736e+02 1.363840e+02 7.785887e+01 1.195417e+02 1.735271e+02 1.638296e+02 9.896509e+01 1.253334e+02 5.731420e+01 8.482819e+01 8.888337e+01 5.093430e+00 5.528825e+00 3.239765e+00 3.038085e+00 2.297956e+00 4.169076e+00
<VARIANCE> 33
 2.395181e+02 3.940378e+02 7.085233e+01 9.841848e+00 3.037716e+01 1.383438e+01 2.822034e+01 2.062020e+01 3.471350e+01 3.907451e+02 3.859588e+02 1.838118e+00 7.601134e+00 1.426031e+01 4.493844e+01 3.071743e+01 5.883273e+01 9.824834e+01 3.095012e+02 1.511413e+02 1.772423e+01 1.210599e+02 2.408454e+02 9.846734e+02 9.560904e+02 3.351034e+03 1.856177e+02 6.892985e-01 1.120888e+00 3.527433e-01 1.435297e-01 1.126188e-01 6.593204e-01
<GCONST> 1.728801e+02
<MIXTURE> 2 2.462605e-01
<MEAN> 33
 2.913830e+01 1.502779e+02 1.156598e+02 1.352810e+02 1.700483e+02 1.752246e+02 1.562458e+01 1.361787e+02 1.511537e+02 9.044942e+01 1.140605e+02 7.294598e+00 1.704309e+02 1.627768e+02 1.589647e+02 3.479290e+01 1.664079e+02 1.425720e+02 8.082950e+01 1.277325e+02 1.683018e+02 1.527559e+02 1.098050e+02 1.088672e+02 7.125747e+01 1.129980e+02 1.093174e+02 6.036946e+00 4.474171e+00 3.265324e+00 2.614673e+00 2.515377e+00 3.561503e+00
<VARIANCE> 33
 4.457756e+02 5.799667e+02 2.366237e+02 7.241325e+01 3.201271e+01 1.426435e+01 1.190252e+02 2.062020e+01 1.471724e+02 1.076641e+03 7.291289e+02 1.586152e+02 5.931614e+01 8.242716e+01 4.723832e+01 1.629097e+02 1.038875e+02 4.211967e+02 7.119467e+02 4.582282e+02 1.945157e+02 1.613041e+02 1.150603e+03 1.487782e+03 1.683924e+03 3.489782e+03 5.069970e+02 2.229878e+00 2.095168e+00 1.078208e+00 3.917097e-01 3.960982e-01 1.877329e+00
<GCONST> 2.081529e+02
<MIXTURE> 3 3.228317e-02
<MEAN> 33
 2.198626e+01 1.657008e+02 1.277965e+02 1.303463e+02 1.414196e+02 1.777992e+02 2.096626e+01 1.112579e+02 1.322242e+02 7.797194e+01 1.278262e+02 6.537678e+00 1.672130e+02 1.129938e+02 1.564005e+02 3.073686e+01 1.083688e+02 7.767249e+01 6.552591e+01 1.422460e+02 1.733002e+02 1.501218e+02 4.752256e+01 1.069873e+02 5.546625e+01 1.142691e+02 7.741356e+01 3.715251e+00 5.150516e+00 2.632368e+00 3.232971e+00 4.139775e+00 7.024395e+00
<VARIANCE> 33
 1.962337e+02 1.422079e+02 5.334677e+01 2.216797e+01 3.139886e+02 4.224658e+00 1.066250e+02 4.062243e+02 5.165611e+02 4.368614e+02 6.008333e+02 2.193674e+01 9.462437e+01 1.414624e+02 1.307535e+01 7.539815e+01 3.315425e+02 4.880115e+02 1.665385e+02 2.635911e+02 2.074057e+01 4.739254e+01 1.091013e+02 4.397047e+02 1.145779e+03 6.959012e+02 2.601081e+02 5.277895e-01 7.032809e-01 1.524281e-01 3.116496e-02 2.068250e-01 9.887134e-01
<GCONST> 1.856123e+02
<MIXTURE> 4 3.455607e-01
<MEAN> 33
 1.706941e+02 1.383727e+02 1.148032e+02 1.529839e+02 3.041279e+01 1.753832e+02 1.335399e+02 1.936259e+01 1.491251e+02 1.555566e+02 1.704183e+02 4.586172e+00 1.240655e+02 8.342642e+01 1.609505e+02 1.671068e+02 3.529373e+01 1.348450e+02 8.437731e+01 1.501476e+02 1.700936e+02 1.307811e+02 7.639756e+01 1.106490e+02 8.642121e+01 7.252630e+01 1.044648e+02 3.852685e+00 2.782988e+00 2.601920e+00 3.121419e+00 4.804754e+00 5.901048e+00
<VARIANCE> 33
 3.902650e+01 5.335281e+01 1.228246e+02 3.432612e+02 7.070077e+02 1.646127e+01 3.431134e+01 3.207155e+02 1.263126e+02 7.300430e+01 7.125774e+01 6.344531e+01 6.863412e+02 4.526953e+02 6.090602e+01 9.836923e+01 2.762977e+02 3.501288e+02 5.778083e+02 2.204180e+02 6.366460e+01 4.039687e+02 4.589740e+02 2.215944e+03 2.935659e+03 2.151194e+03 3.449485e+02 1.449404e+00 3.777552e-01 2.973700e-01 6.805856e-01 1.752084e+00 2.006802e+00
<GCONST> 2.042801e+02
<STATE> 4
<NUMMIXES> 4
<MIXTURE> 1 4.042078e-01
<MEAN> 33
 1.733665e+02 1.380244e+02 1.090725e+02 1.370334e+02 1.750523e+02 1.762718e+02 1.350761e+02 1.349767e+02 8.994719e+01 1.610207e+02 1.738618e+02 1.082766e+00 1.761880e+02 1.628114e+02 1.624360e+02 1.655076e+02 1.682408e+02 1.388244e+01 1.068390e+02 1.553472e+02 1.693158e+02 1.629510e+02 1.050098e+02 1.558437e+02 8.600979e+01 7.785223e+01 1.597606e+02 5.303707e+00 2.685776e+00 2.821283e+00 2.781422e+00 2.275209e+00 5.283670e+00
<VARIANCE> 33
 3.902650e+01 2.699321e+01 4.394410e+01 1.788371e+01 3.037716e+01 8.743886e+00 2.822034e+01 2.062020e+01 2.318922e+01 7.162292e+01 2.381294e+01 6.869334e-01 7.255081e+00 2.807569e+01 3.597488e+01 8.214562e+01 5.682300e+01 1.109284e+02 8.895103e+02 2.062483e+02 2.237093e+01 1.024071e+02 4.556008e+02 2.617836e+02 9.227713e+02 8.652472e+02 2.068999e+02 3.068857e+00 7.434591e-01 3.207980e-01 3.889352e-01 2.438450e-01 2.202443e+00
<GCONST> 1.670816e+02
<MIXTURE> 2 1.812649e-01
<MEAN> 33
 1.704391e+02 1.410435e+02 1.129300e+02 1.366822e+02 1.709996e+02 1.747520e+02 1.333164e+02 1.359463e+02 9.073734e+01 1.556153e+02 1.668647e+02 2.867352e+00 1.706008e+02 1.620648e+02 1.624665e+02 1.606610e+02 1.640537e+02 2.177390e+01 1.010322e+02 1.410868e+02 1.695098e+02 1.483355e+02 1.150268e+02 1.313454e+02 7.139473e+01 1.098708e+02 1.513440e+02 5.001597e+00 3.961538e+00 2.658920e+00 2.630999e+00 3.222911e+00 4.461500e+00
<VARIANCE> 33
 7.111369e+01 6.999289e+01 1.122376e+02 6.179379e+01 4.109985e+01 1.359034e+01 3.821481e+01 2.062020e+01 6.040026e+01 1.748645e+02 8.531844e+01 1.046678e+01 6.741664e+01 1.154653e+02 2.530108e+01 2.568073e+02 1.305182e+02 2.431344e+02 1.702943e+03 3.525391e+02 3.899879e+01 2.925380e+02 1.468281e+03 1.783294e+03 1.802869e+03 1.996255e+03 4.425116e+02 4.303307e+00 3.264610e+00 3.880890e-01 2.855529e-01 1.927562e+00 3.063823e+00
<GCONST> 1.959983e+02
<MIXTURE> 3 1.812649e-01
<MEAN> 33
 1.704391e+02 1.410435e+02 1.129300e+02 1.366822e+02 1.709996e+02 1.747520e+02 1.333164e+02 1.359463e+02 9.073734e+01 1.556153e+02 1.668647e+02 2.867352e+00 1.706008e+02 1.620648e+02 1.624665e+02 1.606610e+02 1.640537e+02 2.177390e+01 1.010322e+02 1.410868e+02 1.695098e+02 1.483355e+02 1.150268e+02 1.313454e+02 7.139473e+01 1.098708e+02 1.513440e+02 5.001597e+00 3.961538e+00 2.658920e+00 2.630999e+00 3.222911e+00 4.461500e+00
<VARIANCE> 33
 7.111369e+01 6.999289e+01 1.122376e+02 6.179379e+01 4.109985e+01 1.359034e+01 3.821481e+01 2.062020e+01 6.040026e+01 1.748645e+02 8.531844e+01 1.046678e+01 6.741664e+01 1.154653e+02 2.530108e+01 2.568073e+02 1.305182e+02 2.431344e+02 1.702943e+03 3.525391e+02 3.899879e+01 2.925380e+02 1.468281e+03 1.783294e+03 1.802869e+03 1.996255e+03 4.425116e+02 4.303307e+00 3.264610e+00 3.880890e-01 2.855529e-01 1.927562e+00 3.063823e+00
<GCONST> 1.959983e+02
<MIXTURE> 4 2.332603e-01
<MEAN> 33
 1.296770e+02 1.478038e+02 1.163061e+02 1.367179e+02 1.594087e+02 1.749914e+02 1.097598e+02 1.302906e+02 1.158265e+02 1.399949e+02 1.578723e+02 3.098428e+00 1.716444e+02 1.509898e+02 1.605727e+02 1.158104e+02 1.474796e+02 6.477251e+01 9.277444e+01 1.421572e+02 1.714258e+02 1.549668e+02 9.441721e+01 1.364262e+02 4.777299e+01 8.746647e+01 1.097586e+02 6.973962e+00 3.280033e+00 2.904361e+00 2.690921e+00 2.732369e+00 4.876750e+00
<VARIANCE> 33
 1.618997e+03 2.311547e+02 1.063877e+02 8.491815e+01 5.926583e+02 1.376945e+01 1.209627e+03 3.475007e+02 1.148123e+03 5.907858e+02 3.062788e+02 1.539903e+01 8.455621e+01 3.826009e+02 3.717619e+01 1.270326e+03 8.593940e+02 8.850612e+02 1.351018e+03 5.263148e+02 2.669250e+01 2.701279e+02 8.727308e+02 1.051182e+03 1.262142e+03 2.374069e+03 1.011500e+03 5.433636e+00 1.240097e+00 3.325315e-01 2.259386e-01 1.219976e+00 4.876464e+00
<GCONST> 2.201442e+02
<TRANSP> 5
 0.000000e+00 1.000000e+00 0.000000e+00 0.000000e+00 0.000000e+00
 0.000000e+00 8.753488e-01 1.246512e-01 0.000000e+00 0.000000e+00
 0.000000e+00 0.000000e+00 9.601576e-01 3.984232e-02 0.000000e+00
 0.000000e+00 0.000000e+00 0.000000e+00 9.386527e-01 6.134729e-02
 0.000000e+00 0.000000e+00 0.000000e+00 0.000000e+00 0.000000e+00
<ENDHMM>
~h "CN"
<BEGINHMM>
<NUMSTATES> 5
<STATE> 2
<NUMMIXES> 4
<MIXTURE> 1 3.812003e-01
<MEAN> 33
 1.731155e+02 1.376597e+02 1.068781e+02 1.393045e+02 1.744382e+02 1.760802e+02 1.350464e+02 1.342877e+02 9.066590e+01 1.557725e+02 1.759754e+02 1.472584e+00 1.748993e+02 1.596213e+02 1.627527e+02 1.630633e+02 1.665180e+02 9.804236e+00 9.364297e+01 1.534147e+02 1.702477e+02 1.617779e+02 1.033618e+02 1.550584e+02 7.300662e+01 8.558033e+01 1.530122e+02 4.778565e+00 2.746327e+00 2.589936e+00 2.450264e+00 2.362801e+00 4.710280e+00
<VARIANCE> 33
 3.902650e+01 2.376964e+01 6.711340e+01 3.311131e+01 3.037716e+01 1.186039e+01 2.822034e+01 2.062020e+01 2.870595e+01 7.448421e+01 2.154591e+01 3.118122e+00 1.602866e+01 7.640254e+01 4.503122e+01 1.040738e+02 9.937716e+01 8.154208e+01 7.511189e+02 2.194141e+02 2.476627e+01 1.454221e+02 6.136935e+02 3.820846e+02 1.486501e+03 1.486775e+03 3.234277e+02 4.418811e+00 1.130937e+00 3.275547e-01 3.481079e-01 6.797279e-01 3.446820e+00
<GCONST> 1.771234e+02
<MIXTURE> 2 1.756637e-01
<MEAN> 33
 1.012589e+02 1.398146e+02 1.076551e+02 1.437861e+02 9.383623e+01 1.734622e+02 8.973125e+01 7.300854e+01 1.018278e+02 1.051289e+02 1.684494e+02 1.532527e+00 1.700101e+02 1.022681e+02 1.640523e+02 9.336138e+01 9.186661e+01 1.751014e+01 6.991873e+01 1.454008e+02 1.706261e+02 1.600331e+02 5.970991e+01 1.498270e+02 5.137399e+01 4.148024e+01 4.521793e+01 4.399982e+00 3.136329e+00 3.091804e+00 2.992174e+00 3.761292e+00 4.397104e+00
<VARIANCE> 33
 1.229757e+03 4.708353e+01 7.760534e+01 8.051472e+01 1.818554e+03 2.648032e+01 2.321368e+03 2.324251e+03 2.496441e+03 4.160867e+02 9.843371e+01 2.704223e+00 6.285390e+01 5.369720e+02 3.606109e+01 6.089836e+02 8.000087e+02 5.943649e+02 8.391482e+02 5.528639e+02 2.956073e+01 2.274087e+02 4.525521e+02 8.693362e+02 1.666316e+03 1.154836e+03 1.365875e+03 2.118143e+00 6.681308e-01 2.631578e-01 2.974494e-01 1.703305e+00 2.113297e+00
<GCONST> 2.150869e+02
<MIXTURE> 3 1.756637e-01
<MEAN> 33
 1.012589e+02 1.398146e+02 1.076551e+02 1.437861e+02 9.383623e+01 1.734622e+02 8.973125e+01 7.300854e+01 1.018278e+02 1.051289e+02 1.684494e+02 1.532527e+00 1.700101e+02 1.022681e+02 1.640523e+02 9.336138e+01 9.186661e+01 1.751014e+01 6.991873e+01 1.454008e+02 1.706261e+02 1.600331e+02 5.970991e+01 1.498270e+02 5.137399e+01 4.148024e+01 4.521793e+01 4.399982e+00 3.136329e+00 3.091804e+00 2.992174e+00 3.761292e+00 4.397104e+00
<VARIANCE> 33
 1.229757e+03 4.708353e+01 7.760534e+01 8.051472e+01 1.818554e+03 2.648032e+01 2.321368e+03 2.324251e+03 2.496441e+03 4.160867e+02 9.843371e+01 2.704223e+00 6.285390e+01 5.369720e+02 3.606109e+01 6.089836e+02 8.000087e+02 5.943649e+02 8.391482e+02 5.528639e+02 2.956073e+01 2.274087e+02 4.525521e+02 8.693362e+02 1.666316e+03 1.154836e+03 1.365875e+03 2.118143e+00 6.681308e-01 2.631578e-01 2.974494e-01 1.703305e+00 2.113297e+00
<GCONST> 2.150869e+02
<MIXTURE> 4 2.674718e-01
<MEAN> 33
 5.900385e+01 1.229795e+02 1.200947e+02 1.272525e+02 6.821457e+01 1.665695e+02 1.986437e+01 3.083504e+01 4.606551e+01 8.273943e+01 1.368992e+02 1.104334e+01 1.426225e+02 1.067494e+02 1.685698e+02 4.444456e+01 5.187355e+01 1.256161e+01 1.072065e+02 9.730598e+01 1.640947e+02 1.124229e+02 9.148778e+01 9.622160e+01 1.072751e+02 1.068718e+02 4.315071e+01 3.936203e+00 3.268497e+00 3.451900e+00 3.373946e+00 3.475314e+00 3.602051e+00
<VARIANCE> 33
 7.466342e+02 3.853065e+02 2.062640e+02 5.252025e+02 9.151991e+02 6.402190e+01 2.232909e+02 6.759224e+02 8.159138e+02 8.956460e+02 3.344017e+02 5.012713e+02 4.214278e+02 1.465101e+03 7.673500e+01 1.622952e+02 3.456659e+02 2.492518e+02 6.427131e+02 4.717521e+02 2.118907e+02 3.777856e+02 3.259425e+02 3.123027e+03 2.110845e+03 2.463120e+03 7.436403e+02 8.156670e-01 2.064074e+00 7.438876e-01 4.561237e-01 1.138044e+00 9.500028e-01
<GCONST> 2.267133e+02
<STATE> 3
<NUMMIXES> 4
<MIXTURE> 1 2.782027e-01
<MEAN> 33
 6.406873e+01 1.321962e+02 1.113482e+02 1.392801e+02 5.004386e+01 1.739763e+02 2.720000e+01 1.836083e+01 3.108077e+01 8.634740e+01 1.548964e+02 2.347669e+00 1.565925e+02 8.484648e+01 1.626138e+02 5.897074e+01 5.639768e+01 8.316529e+00 1.088047e+02 1.063253e+02 1.721160e+02 1.286024e+02 9.328706e+01 1.103971e+02 7.319069e+01 7.720664e+01 2.120061e+01 3.783233e+00 2.942927e+00 3.620480e+00 3.359557e+00 3.224877e+00 3.797954e+00
<VARIANCE> 33
 2.388544e+02 1.026138e+02 1.448257e+02 1.071434e+02 3.648733e+02 2.490073e+01 3.447072e+02 2.906711e+02 5.555268e+02 5.012497e+02 7.787514e+01 7.269727e+00 9.794878e+01 3.674221e+02 6.303251e+01 2.259365e+02 1.411703e+02 7.273605e+01 4.695814e+02 4.281207e+02 3.614966e+01 4.229971e+02 5.253173e+02 2.776113e+03 2.179064e+03 2.282757e+03 3.997057e+02 5.303063e-01 1.265763e+00 5.167356e-01 5.632271e-01 1.614177e+00 5.405270e-01
<GCONST> 2.048836e+02
<MIXTURE> 2 2.689508e-01
<MEAN> 33
 4.824828e+01 1.348098e+02 1.150918e+02 1.368029e+02 4.508204e+01 1.754897e+02 6.695085e+00 5.115788e+00 6.847416e+00 7.445657e+01 1.573314e+02 1.529052e+00 1.582136e+02 7.599007e+01 1.592352e+02 5.063866e+01 5.022759e+01 2.479153e+00 9.766994e+01 1.206979e+02 1.736908e+02 1.320086e+02 8.788018e+01 1.351935e+02 4.512635e+01 4.519830e+01 5.579271e+00 3.493736e+00 3.507878e+00 3.971221e+00 3.829515e+00 3.696923e+00 3.456181e+00
<VARIANCE> 33
 6.336425e+01 4.459497e+01 6.036898e+01 4.957286e+01 6.061627e+01 1.667558e+01 2.822034e+01 2.062020e+01 2.959039e+01 7.560798e+01 6.431181e+01 3.338124e+00 7.976250e+01 7.715715e+01 5.069807e+01 3.311433e+01 2.896140e+01 3.148238e+01 4.111235e+02 4.362870e+02 2.088075e+01 4.114608e+02 3.632219e+02 1.030050e+03 1.007572e+03 1.029068e+03 2.151692e+01 9.898891e-02 5.402592e-01 2.670921e-01 1.593785e-01 7.493316e-01 1.223682e-01
<GCONST> 1.683678e+02
<MIXTURE> 3 2.689508e-01
<MEAN> 33
 4.824828e+01 1.348098e+02 1.150918e+02 1.368029e+02 4.508204e+01 1.754897e+02 6.695085e+00 5.115788e+00 6.847416e+00 7.445657e+01 1.573314e+02 1.529052e+00 1.582136e+02 7.599007e+01 1.592352e+02 5.063866e+01 5.022759e+01 2.479153e+00 9.766994e+01 1.206979e+02 1.736908e+02 1.320086e+02 8.788018e+01 1.351935e+02 4.512635e+01 4.519830e+01 5.579271e+00 3.493736e+00 3.507878e+00 3.971221e+00 3.829515e+00 3.696923e+00 3.456181e+00
<VARIANCE> 33
 6.336425e+01 4.459497e+01 6.036898e+01 4.957286e+01 6.061627e+01 1.667558e+01 2.822034e+01 2.062020e+01 2.959039e+01 7.560798e+01 6.431181e+01 3.338124e+00 7.976250e+01 7.715715e+01 5.069807e+01 3.311433e+01 2.896140e+01 3.148238e+01 4.111235e+02 4.362870e+02 2.088075e+01 4.114608e+02 3.632219e+02 1.030050e+03 1.007572e+03 1.029068e+03 2.151692e+01 9.898891e-02 5.402592e-01 2.670921e-01 1.593785e-01 7.493316e-01 1.223682e-01
<GCONST> 1.683678e+02
<MIXTURE> 4 1.838949e-01
<MEAN> 33
 3.880790e+01 1.388167e+02 1.005697e+02 1.403372e+02 2.674112e+01 1.738549e+02 1.005275e+01 7.518863e+00 7.471279e+00 5.929165e+01 1.665150e+02 1.120916e+00 1.695061e+02 5.861916e+01 1.675136e+02 4.221901e+01 4.122672e+01 3.993312e+00 1.084011e+02 1.166483e+02 1.659172e+02 1.312989e+02 1.008450e+02 4.642297e+01 1.264089e+02 1.241683e+02 8.800278e+00 3.403575e+00 3.261037e+00 3.529895e+00 3.472828e+00 3.249794e+00 3.256736e+00
<VARIANCE> 33
 1.204454e+02 1.006016e+02 5.167265e+01 6.354639e+01 9.667152e+01 1.533419e+01 4.295533e+01 2.614195e+01 2.509351e+01 4.978910e+01 7.673808e+01 1.227259e+00 4.056261e+01 4.959473e+01 3.502028e+01 4.011839e+01 2.601832e+01 3.148238e+01 3.703561e+02 5.109807e+02 1.194983e+02 2.433620e+02 2.642427e+02 1.302625e+03 1.375904e+03 1.238601e+03 4.447953e+01 1.067662e-01 4.040398e-01 1.977213e-01 1.414380e-01 4.371578e-01 8.943080e-02
<GCONST> 1.690718e+02
<STATE> 4
<NUMMIXES> 4
<MIXTURE> 1 4.653049e-01
<MEAN> 33
 1.726803e+02 1.370292e+02 1.128794e+02 1.374912e+02 1.727071e+02 1.756684e+02 1.347062e+02 1.342355e+02 9.105833e+01 1.625940e+02 1.745534e+02 1.652469e+00 1.744050e+02 1.644291e+02 1.601896e+02 1.655620e+02 1.654490e+02 9.223212e+00 1.151330e+02 1.503701e+02 1.712667e+02 1.560822e+02 1.232851e+02 1.499392e+02 7.826986e+01 9.728565e+01 1.534603e+02 5.004542e+00 2.859624e+00 2.707533e+00 2.583014e+00 2.745659e+00 4.878647e+00
<VARIANCE> 33
 3.902650e+01 2.516619e+01 5.903810e+01 3.292231e+01 3.037716e+01 1.402894e+01 2.822034e+01 2.062020e+01 5.347641e+01 1.273511e+02 2.195954e+01 2.471808e+00 2.034420e+01 1.194017e+02 4.514571e+01 8.597021e+01 9.162119e+01 5.387497e+01 1.527913e+03 2.903259e+02 2.363079e+01 2.271026e+02 1.436279e+03 8.508101e+02 1.434485e+03 1.799126e+03 2.948839e+02 2.819337e+00 1.585773e+00 2.435423e-01 1.979160e-01 1.523322e+00 2.225245e+00
<GCONST> 1.806598e+02
<MIXTURE> 2 1.205305e-01
<MEAN> 33
 1.518778e+02 1.439885e+02 1.201412e+02 1.427910e+02 1.613941e+02 1.757654e+02 1.051968e+02 1.115401e+02 1.371070e+02 1.282949e+02 1.695782e+02 2.459216e+00 1.674513e+02 1.321483e+02 1.641704e+02 1.135765e+02 1.252949e+02 1.768151e+01 1.198264e+02 1.512790e+02 1.709059e+02 1.485053e+02 1.096553e+02 1.256433e+02 6.083740e+01 1.214737e+02 1.152873e+02 7.406512e+00 2.797049e+00 2.354286e+00 2.214914e+00 2.802802e+00 6.880773e+00
<VARIANCE> 33
 9.831155e+02 4.777318e+01 6.862677e+01 6.434888e+01 3.211506e+02 1.186521e+01 4.104336e+02 2.121932e+02 6.506125e+02 1.040966e+03 5.646342e+01 4.459834e+00 7.481828e+01 9.886132e+02 1.680074e+01 7.925460e+02 7.176204e+02 1.898919e+02 1.557939e+03 2.954041e+02 4.226076e+01 2.346323e+02 1.941214e+03 2.007397e+03 1.834076e+03 1.415108e+03 6.284147e+02 1.115409e+00 8.570712e-01 1.023976e-01 5.647953e-02 4.538458e-01 1.344777e+00
<GCONST> 2.038433e+02
<MIXTURE> 3 1.853504e-01
<MEAN> 33
 1.598618e+02 1.344848e+02 1.119759e+02 1.360519e+02 1.600729e+02 1.749011e+02 1.456090e+02 1.418550e+02 7.245901e+01 1.554566e+02 1.680105e+02 1.189341e+00 1.662605e+02 1.585942e+02 1.615289e+02 1.360157e+02 1.374294e+02 5.492804e+00 1.166581e+02 1.331388e+02 1.734177e+02 1.415228e+02 1.153682e+02 1.343224e+02 5.340673e+01 7.449116e+01 7.844458e+01 5.677019e+00 2.370790e+00 2.947161e+00 2.922629e+00 2.532705e+00 5.505072e+00
<VARIANCE> 33
 1.378812e+02 3.875339e+01 5.267988e+01 3.803240e+01 1.419902e+02 1.711566e+01 1.019483e+02 6.328416e+01 2.519731e+02 1.885022e+02 4.707735e+01 8.884197e-01 4.971337e+01 1.701386e+02 5.805050e+01 1.579964e+02 1.679798e+02 3.148238e+01 1.231812e+03 7.816198e+02 2.536024e+01 4.351589e+02 8.195466e+02 1.471216e+03 1.628149e+03 1.968486e+03 8.171777e+02 8.984982e-01 2.139158e-01 1.412362e-01 1.050649e-01 2.290791e-01 8.598828e-01
<GCONST> 1.859369e+02
<MIXTURE> 4 2.288132e-01
<MEAN> 33
 1.113708e+02 1.326027e+02 1.131670e+02 1.356126e+02 1.166046e+02 1.737221e+02 1.110510e+02 1.106592e+02 6.645598e+01 1.287575e+02 1.614824e+02 2.032099e+00 1.619969e+02 1.339802e+02 1.640154e+02 9.718166e+01 1.002579e+02 9.751735e+00 1.200236e+02 1.132023e+02 1.725724e+02 1.309620e+02 1.095731e+02 1.188460e+02 7.226820e+01 8.364290e+01 2.398203e+01 4.460309e+00 2.905346e+00 3.454116e+00 3.418915e+00 3.274185e+00 4.518256e+00
<VARIANCE> 33
 1.204677e+03 9.488972e+01 8.275943e+01 7.714751e+01 1.093306e+03 2.217459e+01 3.039335e+03 2.536449e+03 2.659849e+03 6.043592e+02 9.800240e+01 7.470139e+00 7.856445e+01 5.656871e+02 6.800259e+01 4.465649e+02 5.219526e+02 4.005365e+02 1.069453e+03 6.873401e+02 3.620393e+01 4.582438e+02 8.219731e+02 2.114133e+03 2.184410e+03 2.294011e+03 4.452263e+02 1.129483e+00 4.761848e-01 2.516691e-01 2.403985e-01 7.070959e-01 1.324318e+00
<GCONST> 2.167989e+02
<TRANSP> 5
 0.000000e+00 1.000000e+00 0.000000e+00 0.000000e+00 0.000000e+00
 0.000000e+00 9.181152e-01 8.188476e-02 0.000000e+00 0.000000e+00
 0.000000e+00 0.000000e+00 9.634764e-01 3.652366e-02 0.000000e+00
 0.000000e+00 0.000000e+00 0.000000e+00 9.217401e-01 7.825986e-02
 0.000000e+00 0.000000e+00 0.000000e+00 0.000000e+00 0.000000e+00
<ENDHMM>
~h "CP"
<BEGINHMM>
<NUMSTATES> 5
<STATE> 2
<NUMMIXES> 4
<MIXTURE> 1 3.244762e-01
<MEAN> 33
 1.734913e+02 1.369556e+02 1.097058e+02 1.374186e+02 1.740978e+02 1.755794e+02 1.343723e+02 1.337906e+02 9.183716e+01 1.564934e+02 1.749595e+02 1.719443e+00 1.744795e+02 1.595461e+02 1.629676e+02 1.625399e+02 1.631476e+02 8.549892e+00 9.641437e+01 1.511304e+02 1.699708e+02 1.597381e+02 1.065724e+02 1.543983e+02 7.685486e+01 8.451882e+01 1.487895e+02 5.331338e+00 2.796351e+00 2.699793e+00 2.599113e+00 2.553022e+00 5.277219e+00
<VARIANCE> 33
 3.902650e+01 3.312933e+01 5.161362e+01 2.741806e+01 3.037716e+01 1.512498e+01 2.822034e+01 2.062020e+01 5.323643e+01 1.200196e+02 2.084826e+01 3.349814e+00 1.814874e+01 9.370615e+01 3.798882e+01 1.070710e+02 1.006411e+02 5.217346e+01 1.200213e+03 2.944187e+02 2.213787e+01 1.934409e+02 8.945693e+02 4.815786e+02 1.318167e+03 1.425151e+03 3.284335e+02 3.465561e+00 1.336428e+00 2.358479e-01 1.710965e-01 1.026248e+00 3.095556e+00
<GCONST> 1.787201e+02
<MIXTURE> 2 2.097835e-01
<MEAN> 33
 1.683279e+02 1.470138e+02 1.044236e+02 1.460305e+02 1.672183e+02 1.720249e+02 1.169801e+02 1.169549e+02 1.257573e+02 1.375791e+02 1.666142e+02 2.162177e+00 1.679943e+02 1.376549e+02 1.664981e+02 1.350069e+02 1.324465e+02 1.656298e+01 1.010640e+02 1.441626e+02 1.700023e+02 1.465100e+02 9.929233e+01 1.019543e+02 7.609585e+01 8.798862e+01 1.227624e+02 6.749248e+00 2.690009e+00 2.300056e+00 2.331153e+00 2.756481e+00 6.730221e+00
<VARIANCE> 33
 8.522485e+01 1.126097e+02 7.957396e+01 1.060817e+02 9.425040e+01 3.512612e+01 1.890285e+02 1.856826e+02 6.219692e+02 4.828636e+02 1.056939e+02 8.552880e+00 8.200613e+01 4.790338e+02 5.995634e+01 6.272941e+02 5.274946e+02 1.941608e+02 2.236151e+03 3.410228e+02 5.099577e+01 3.398622e+02 1.806441e+03 2.969208e+03 2.834594e+03 2.458047e+03 8.297348e+02 2.563583e+00 8.568428e-01 1.259922e-01 1.514945e-01 9.130904e-01 2.681422e+00
<GCONST> 2.085022e+02
<MIXTURE> 3 2.097835e-01
<MEAN> 33
 1.683279e+02 1.470138e+02 1.044236e+02 1.460305e+02 1.672183e+02 1.720249e+02 1.169801e+02 1.169549e+02 1.257573e+02 1.375791e+02 1.666142e+02 2.162177e+00 1.679943e+02 1.376549e+02 1.664981e+02 1.350069e+02 1.324465e+02 1.656298e+01 1.010640e+02 1.441626e+02 1.700023e+02 1.465100e+02 9.929233e+01 1.019543e+02 7.609585e+01 8.798862e+01 1.227624e+02 6.749248e+00 2.690009e+00 2.300056e+00 2.331153e+00 2.756481e+00 6.730221e+00
<VARIANCE> 33
 8.522485e+01 1.126097e+02 7.957396e+01 1.060817e+02 9.425040e+01 3.512612e+01 1.890285e+02 1.856826e+02 6.219692e+02 4.828636e+02 1.056939e+02 8.552880e+00 8.200613e+01 4.790338e+02 5.995634e+01 6.272941e+02 5.274946e+02 1.941608e+02 2.236151e+03 3.410228e+02 5.099577e+01 3.398622e+02 1.806441e+03 2.969208e+03 2.834594e+03 2.458047e+03 8.297348e+02 2.563583e+00 8.568428e-01 1.259922e-01 1.514945e-01 9.130904e-01 2.681422e+00
<GCONST> 2.085022e+02
<MIXTURE> 4 2.559561e-01
<MEAN> 33
 1.176279e+02 1.407435e+02 1.104308e+02 1.445124e+02 1.157392e+02 1.725303e+02 9.420006e+01 8.897296e+01 1.245347e+02 1.024262e+02 1.678272e+02 2.701740e+00 1.656436e+02 1.004262e+02 1.647922e+02 9.420269e+01 8.645879e+01 2.729061e+01 7.599107e+01 1.357971e+02 1.699216e+02 1.478753e+02 8.434061e+01 1.270341e+02 5.892603e+01 7.015196e+01 9.058801e+01 5.782248e+00 3.168166e+00 2.776014e+00 2.688140e+00 3.406963e+00 5.824058e+00
<VARIANCE> 33
 2.018427e+03 1.988059e+02 7.244226e+01 2.145798e+02 2.436077e+03 3.926406e+01 1.542160e+03 1.148276e+03 2.021946e+03 8.718023e+02 1.050125e+02 7.029610e+00 1.401029e+02 1.012534e+03 6.676427e+01 1.287408e+03 1.171922e+03 1.730490e+03 1.976278e+03 9.362491e+02 4.265474e+01 5.349560e+02 1.586468e+03 2.489056e+03 2.532377e+03 1.857293e+03 1.749512e+03 2.977984e+00 1.743511e+00 7.495766e-01 5.412602e-01 1.457822e+00 3.412170e+00
<GCONST> 2.326279e+02
<STATE> 3
<NUMMIXES> 4
<MIXTURE> 1 4.788636e-01
<MEAN> 33
 1.547836e+02 1.390556e+02 1.163021e+02 1.388690e+02 1.558300e+02 1.756503e+02 1.274632e+02 1.237194e+02 1.088174e+02 1.281412e+02 1.744205e+02 2.664930e+00 1.748970e+02 1.259998e+02 1.628057e+02 1.302224e+02 1.294321e+02 8.204880e+00 5.482099e+01 1.566562e+02 1.643877e+02 1.560737e+02 5.599230e+01 1.579481e+02 3.926061e+01 6.363591e+01 1.017066e+02 6.286170e+00 3.202506e+00 2.863536e+00 2.735299e+00 3.338692e+00 6.423120e+00
<VARIANCE> 33
 1.603234e+02 2.289747e+01 1.074890e+02 3.522607e+01 1.672307e+02 1.684344e+01 1.039175e+02 8.008204e+01 2.858178e+02 1.324997e+02 1.767215e+01 6.272120e+00 2.095517e+01 1.474973e+02 3.435600e+01 2.201858e+02 2.622613e+02 6.411507e+01 4.383516e+02 1.672127e+02 1.799568e+01 1.550313e+02 3.508767e+02 3.001099e+02 5.975726e+02 5.396685e+02 4.609700e+02 8.705437e-01 5.206125e-01 7.499005e-02 8.482463e-02 7.963184e-01 6.885540e-01
<GCONST> 1.790827e+02
<MIXTURE> 2 1.214561e-01
<MEAN> 33
 1.124032e+02 1.531958e+02 1.233298e+02 1.442171e+02 1.286159e+02 1.751291e+02 1.024258e+02 1.006405e+02 1.517759e+02 1.144461e+02 1.713276e+02 5.379927e+00 1.681987e+02 1.153179e+02 1.550466e+02 9.831697e+01 9.757150e+01 6.844984e+00 5.959285e+01 1.690023e+02 1.660717e+02 1.668390e+02 6.603812e+01 1.564500e+02 2.939206e+01 5.945812e+01 8.261771e+01 5.919280e+00 4.005229e+00 2.862679e+00 2.972974e+00 3.654871e+00 5.683516e+00
<VARIANCE> 33
 2.979697e+02 1.442745e+02 6.190700e+01 7.936105e+01 3.319291e+02 1.755593e+01 2.149011e+02 1.306674e+02 3.153148e+02 1.387583e+02 4.237227e+01 2.625907e+01 6.626714e+01 1.302584e+02 3.669684e+01 1.205292e+02 1.304786e+02 3.148238e+01 1.694160e+02 7.933995e+01 1.692401e+01 1.108678e+02 3.212587e+02 3.062604e+02 6.198734e+02 8.964439e+02 2.736329e+02 3.690322e-01 4.094046e-01 1.238063e-01 9.535114e-02 4.505226e-01 4.775850e-01
<GCONST> 1.817248e+02
<MIXTURE> 3 1.214561e-01
<MEAN> 33
 1.124032e+02 1.531958e+02 1.233298e+02 1.442171e+02 1.286159e+02 1.751291e+02 1.024258e+02 1.006405e+02 1.517759e+02 1.144461e+02 1.713276e+02 5.379927e+00 1.681987e+02 1.153179e+02 1.550466e+02 9.831697e+01 9.757150e+01 6.844984e+00 5.959285e+01 1.690023e+02 1.660717e+02 1.668390e+02 6.603812e+01 1.564500e+02 2.939206e+01 5.945812e+01 8.261771e+01 5.919280e+00 4.005229e+00 2.862679e+00 2.972974e+00 3.654871e+00 5.683516e+00
<VARIANCE> 33
 2.979697e+02 1.442745e+02 6.190700e+01 7.936105e+01 3.319291e+02 1.755593e+01 2.149011e+02 1.306674e+02 3.153148e+02 1.387583e+02 4.237227e+01 2.625907e+01 6.626714e+01 1.302584e+02 3.669684e+01 1.205292e+02 1.304786e+02 3.148238e+01 1.694160e+02 7.933995e+01 1.692401e+01 1.108678e+02 3.212587e+02 3.062604e+02 6.198734e+02 8.964439e+02 2.736329e+02 3.690322e-01 4.094046e-01 1.238063e-01 9.535114e-02 4.505226e-01 4.775850e-01
<GCONST> 1.817248e+02
<MIXTURE> 4 2.782232e-01
<MEAN> 33
 1.466711e+02 1.394172e+02 1.124509e+02 1.400457e+02 1.559383e+02 1.760208e+02 8.923685e+01 9.239082e+01 1.561723e+02 1.000695e+02 1.730692e+02 1.215317e+00 1.747954e+02 9.989883e+01 1.620743e+02 8.728418e+01 9.057268e+01 9.711943e+00 5.284009e+01 1.479994e+02 1.659086e+02 1.464422e+02 5.141029e+01 1.594573e+02 5.751781e+01 3.672308e+01 9.414260e+01 6.046854e+00 3.136288e+00 2.724888e+00 2.649426e+00 3.104705e+00 6.397808e+00
<VARIANCE> 33
 5.801781e+02 3.806377e+01 1.934552e+01 1.609607e+01 3.627348e+02 8.256557e+00 2.631413e+02 2.004269e+02 2.252062e+02 1.883114e+02 2.772105e+01 8.649068e-01 1.616314e+01 1.260609e+02 3.472440e+01 3.049169e+02 2.323696e+02 7.191237e+01 3.923676e+02 1.619682e+02 1.876414e+01 1.257925e+02 1.817917e+02 1.739806e+02 4.127099e+02 3.256793e+02 2.762485e+02 1.034691e+00 3.516071e-01 6.704867e-02 5.960242e-02 2.094950e-01 7.230056e-01
<GCONST> 1.739114e+02
<STATE> 4
<NUMMIXES> 4
<MIXTURE> 1 3.970257e-01
<MEAN> 33
 1.750248e+02 1.378334e+02 1.065595e+02 1.392278e+02 1.755911e+02 1.757417e+02 1.346597e+02 1.340453e+02 9.129501e+01 1.627627e+02 1.765730e+02 1.154502e+00 1.755878e+02 1.659638e+02 1.623521e+02 1.686531e+02 1.708823e+02 7.425005e+00 1.087271e+02 1.600018e+02 1.679333e+02 1.625767e+02 1.204616e+02 1.598215e+02 7.921127e+01 9.114675e+01 1.627387e+02 4.999930e+00 2.431561e+00 2.854704e+00 2.594991e+00 2.088173e+00 4.520763e+00
<VARIANCE> 33
 3.902650e+01 1.219115e+01 4.572797e+01 2.185019e+01 3.037716e+01 1.117201e+01 2.822034e+01 2.062020e+01 1.886277e+01 4.235535e+01 7.416067e+00 6.340876e-01 6.319678e+00 4.262104e+01 2.030071e+01 3.734822e+01 4.427563e+01 3.163387e+01 6.158644e+02 1.056499e+02 1.744747e+01 8.052551e+01 6.641019e+02 2.350429e+02 6.399452e+02 6.932172e+02 1.284670e+02 2.556914e+00 3.255710e-01 2.428703e-01 2.104449e-01 2.240466e-01 2.506779e+00
<GCONST> 1.580317e+02
<MIXTURE> 2 1.458638e-01
<MEAN> 33
 1.723039e+02 1.337189e+02 1.133398e+02 1.366768e+02 1.715739e+02 1.747978e+02 1.378594e+02 1.353525e+02 8.678809e+01 1.605198e+02 1.700921e+02 2.364636e+00 1.707965e+02 1.615314e+02 1.617515e+02 1.588877e+02 1.623174e+02 1.268743e+01 1.104880e+02 1.530638e+02 1.640417e+02 1.616295e+02 1.120418e+02 1.619895e+02 6.647431e+01 8.827326e+01 1.435950e+02 5.849954e+00 2.448130e+00 3.270305e+00 2.718159e+00 2.441693e+00 5.480485e+00
<VARIANCE> 33
 3.925994e+01 2.864711e+01 8.058848e+01 2.549656e+01 3.862790e+01 1.747323e+01 2.822034e+01 2.062020e+01 5.563196e+01 1.137321e+02 2.907647e+01 5.531858e+00 3.264353e+01 1.108352e+02 3.807413e+01 1.457379e+02 1.479617e+02 1.139321e+02 1.451594e+03 4.908616e+02 2.297450e+01 1.694764e+02 1.050064e+03 2.185785e+02 6.531699e+02 7.095824e+02 5.154548e+02 2.126420e+00 7.269654e-01 4.504919e-01 2.190095e-01 3.742769e-01 2.162065e+00
<GCONST> 1.798515e+02
<MIXTURE> 3 1.458638e-01
<MEAN> 33
 1.723039e+02 1.337189e+02 1.133398e+02 1.366768e+02 1.715739e+02 1.747978e+02 1.378594e+02 1.353525e+02 8.678809e+01 1.605198e+02 1.700921e+02 2.364636e+00 1.707965e+02 1.615314e+02 1.617515e+02 1.588877e+02 1.623174e+02 1.268743e+01 1.104880e+02 1.530638e+02 1.640417e+02 1.616295e+02 1.120418e+02 1.619895e+02 6.647431e+01 8.827326e+01 1.435950e+02 5.849954e+00 2.448130e+00 3.270305e+00 2.718159e+00 2.441693e+00 5.480485e+00
<VARIANCE> 33
 3.925994e+01 2.864711e+01 8.058848e+01 2.549656e+01 3.862790e+01 1.747323e+01 2.822034e+01 2.062020e+01 5.563196e+01 1.137321e+02 2.907647e+01 5.531858e+00 3.264353e+01 1.108352e+02 3.807413e+01 1.457379e+02 1.479617e+02 1.139321e+02 1.451594e+03 4.908616e+02 2.297450e+01 1.694764e+02 1.050064e+03 2.185785e+02 6.531699e+02 7.095824e+02 5.154548e+02 2.126420e+00 7.269654e-01 4.504919e-01 2.190095e-01 3.742769e-01 2.162065e+00
<GCONST> 1.798515e+02
<MIXTURE> 4 3.112453e-01
<MEAN> 33
 1.595145e+02 1.491733e+02 9.805502e+01 1.507676e+02 1.559707e+02 1.727324e+02 1.328107e+02 1.307040e+02 9.630903e+01 1.348979e+02 1.760842e+02 1.092163e+00 1.726827e+02 1.299999e+02 1.693689e+02 1.434460e+02 1.415016e+02 9.428621e+00 6.524498e+01 1.592814e+02 1.681799e+02 1.590528e+02 6.674912e+01 1.407048e+02 5.362375e+01 6.118420e+01 1.126985e+02 5.185102e+00 2.857270e+00 2.182135e+00 2.141042e+00 2.973733e+00 5.975549e+00
<VARIANCE> 33
 1.721418e+02 4.665540e+01 2.687202e+01 5.488087e+01 2.500388e+02 1.652496e+01 6.315716e+01 8.627753e+01 1.634376e+02 1.227651e+02 7.690836e+00 1.486670e+00 1.855514e+01 2.557492e+02 1.289539e+01 1.889197e+02 2.481444e+02 1.521218e+02 2.560629e+02 1.348848e+02 2.306736e+01 1.200761e+02 4.303332e+02 5.448544e+02 7.745179e+02 1.112074e+03 5.492930e+02 4.359403e+00 8.532798e-01 1.048779e-01 1.553712e-01 1.941156e+00 2.934817e+00
<GCONST> 1.826651e+02
<TRANSP> 5
 0.000000e+00 1.000000e+00 0.000000e+00 0.000000e+00 0.000000e+00
 0.000000e+00 9.301326e-01 6.986737e-02 0.000000e+00 0.000000e+00
 0.000000e+00 0.000000e+00 9.386309e-01 6.136908e-02 0.000000e+00
 0.000000e+00 0.000000e+00 0.000000e+00 9.376430e-01 6.235705e-02
 0.000000e+00 0.000000e+00 0.000000e+00 0.000000e+00 0.000000e+00
<ENDHMM>
~h "CV"
<BEGINHMM>
<NUMSTATES> 5
<STATE> 2
<NUMMIXES> 4
<MIXTURE> 1 4.231229e-01
<MEAN> 33
 1.738759e+02 1.370677e+02 1.073913e+02 1.387248e+02 1.743465e+02 1.752490e+02 1.354158e+02 1.347393e+02 8.984489e+01 1.593238e+02 1.761835e+02 1.696980e+00 1.752402e+02 1.613821e+02 1.625780e+02 1.662159e+02 1.695203e+02 9.291984e+00 9.947463e+01 1.527050e+02 1.695285e+02 1.613138e+02 1.073223e+02 1.588057e+02 6.531378e+01 9.846181e+01 1.585120e+02 4.352316e+00 2.550524e+00 2.530580e+00 2.442761e+00 2.355994e+00 4.346884e+00
<VARIANCE> 33
 3.902650e+01 1.922157e+01 6.549756e+01 3.171140e+01 3.037716e+01 1.332749e+01 2.822034e+01 2.062020e+01 2.453900e+01 5.960070e+01 2.105065e+01 4.213274e+00 1.187720e+01 5.084435e+01 4.580507e+01 7.634125e+01 7.314642e+01 5.710058e+01 7.959105e+02 2.844579e+02 2.850374e+01 1.213800e+02 4.793406e+02 2.244295e+02 9.155298e+02 1.095924e+03 2.305872e+02 4.427928e+00 6.833333e-01 4.161665e-01 3.134083e-01 7.372219e-01 3.724223e+00
<GCONST> 1.733569e+02
<MIXTURE> 2 2.133057e-01
<MEAN> 33
 1.229262e+02 1.342440e+02 1.159730e+02 1.402270e+02 9.803748e+01 1.722936e+02 9.843206e+01 7.980798e+01 1.361597e+02 1.172370e+02 1.638327e+02 4.738730e+00 1.608034e+02 1.085768e+02 1.607135e+02 1.121376e+02 9.468272e+01 7.836085e+01 8.704443e+01 1.265729e+02 1.692204e+02 1.512340e+02 8.410317e+01 1.375597e+02 5.830276e+01 7.513385e+01 9.379571e+01 4.904030e+00 2.990705e+00 3.147033e+00 2.900866e+00 3.701851e+00 5.378630e+00
<VARIANCE> 33
 3.661553e+03 1.496589e+02 1.022036e+02 2.017417e+02 4.112289e+03 3.205909e+01 2.156459e+03 2.402773e+03 1.355411e+03 1.606970e+03 1.958058e+02 3.692385e+01 2.545536e+02 1.588045e+03 8.119083e+01 2.382249e+03 2.417981e+03 2.370518e+03 2.355133e+03 8.981262e+02 5.704240e+01 4.498571e+02 1.073906e+03 1.355231e+03 2.326444e+03 1.602116e+03 1.530812e+03 5.196622e+00 1.587615e+00 5.662981e-01 4.549364e-01 1.661372e+00 3.456766e+00
<GCONST> 2.390466e+02
<MIXTURE> 3 1.252920e-01
<MEAN> 33
 1.377058e+02 1.392508e+02 1.095135e+02 1.385610e+02 1.456246e+02 1.755397e+02 1.173770e+02 1.166970e+02 1.217303e+02 1.132167e+02 1.746401e+02 1.609437e+00 1.745946e+02 1.179464e+02 1.639815e+02 1.113794e+02 1.148140e+02 1.143231e+01 4.962992e+01 1.537589e+02 1.687095e+02 1.590554e+02 5.958837e+01 1.580418e+02 3.106371e+01 5.215218e+01 7.274416e+01 5.945856e+00 3.064964e+00 2.817769e+00 2.763453e+00 2.959845e+00 5.822032e+00
<VARIANCE> 33
 5.497928e+02 4.220815e+01 6.048803e+01 4.505914e+01 5.377375e+02 1.731704e+01 5.022008e+02 3.498617e+02 1.106710e+03 2.816561e+02 2.003526e+01 2.117658e+00 1.405621e+01 4.184858e+02 3.686098e+01 3.857359e+02 5.250709e+02 1.694978e+02 4.816227e+02 2.069058e+02 2.459177e+01 1.979585e+02 5.331765e+02 2.013719e+02 5.664365e+02 8.063187e+02 6.922108e+02 1.395976e+00 3.612254e-01 1.897847e-01 1.477980e-01 6.167504e-01 1.106830e+00
<GCONST> 1.923795e+02
<MIXTURE> 4 2.382787e-01
<MEAN> 33
 2.717206e+01 1.389911e+02 1.113157e+02 1.448780e+02 2.763795e+01 1.743610e+02 2.410128e+01 2.938599e+01 5.047357e+01 6.625554e+01 1.486483e+02 6.107302e+00 1.505248e+02 6.998412e+01 1.640962e+02 4.334129e+01 4.130646e+01 5.691842e+00 1.053846e+02 1.231062e+02 1.653445e+02 1.390011e+02 9.846819e+01 1.069323e+02 8.999860e+01 9.246146e+01 5.680424e+01 4.663491e+00 2.856724e+00 2.954006e+00 2.830580e+00 3.411594e+00 4.664726e+00
<VARIANCE> 33
 5.599651e+02 4.435512e+02 2.162802e+02 4.292990e+02 3.991987e+02 2.186509e+01 1.244526e+02 1.710677e+02 6.599435e+02 4.390911e+02 4.824368e+02 1.283291e+02 5.836249e+02 6.013820e+02 8.154503e+01 1.649507e+02 1.605334e+02 3.148238e+01 1.481386e+03 1.204014e+03 1.807302e+02 7.304945e+02 7.357894e+02 2.803184e+03 2.056989e+03 2.228191e+03 8.480983e+02 1.177237e+00 5.950717e-01 6.195552e-01 5.301594e-01 8.307034e-01 1.032474e+00
<GCONST> 2.191477e+02
<STATE> 3
<NUMMIXES> 4
<MIXTURE> 1 1.883479e-01
<MEAN> 33
 6.687473e+01 1.387049e+02 1.104458e+02 1.389476e+02 6.564704e+01 1.748727e+02 3.959678e+01 4.626991e+01 7.665909e+01 8.348390e+01 1.694051e+02 2.033041e+00 1.688874e+02 8.497226e+01 1.629488e+02 6.843220e+01 6.724980e+01 7.249593e+00 6.655887e+01 1.492256e+02 1.670910e+02 1.549913e+02 6.832384e+01 1.563037e+02 2.431838e+01 3.743222e+01 3.549511e+01 4.429087e+00 3.152551e+00 3.244122e+00 3.202585e+00 3.314359e+00 4.431579e+00
<VARIANCE> 33
 5.246395e+02 7.010274e+01 8.801873e+01 4.471822e+01 7.999587e+02 2.129555e+01 4.850229e+02 4.364930e+02 1.747163e+03 1.711038e+02 6.860417e+01 4.212313e+00 6.701583e+01 1.602558e+02 3.866651e+01 1.840123e+02 1.528700e+02 1.308507e+02 1.226774e+03 5.620140e+02 2.376637e+01 3.005372e+02 8.378176e+02 3.150550e+02 5.181325e+02 6.462427e+02 3.625765e+02 6.041840e-01 4.510185e-01 3.466798e-01 2.531906e-01 6.521200e-01 6.156192e-01
<GCONST> 1.965462e+02
<MIXTURE> 2 1.573952e-01
<MEAN> 33
 3.249434e+01 1.322787e+02 1.111500e+02 1.391810e+02 2.069275e+01 1.758077e+02 1.802386e+01 2.603249e+01 4.068761e+01 6.472514e+01 1.637327e+02 1.516057e+00 1.663686e+02 6.175940e+01 1.618238e+02 4.731583e+01 4.502768e+01 5.071967e+00 1.082169e+02 1.261678e+02 1.724939e+02 1.469690e+02 9.313077e+01 1.326892e+02 5.046307e+01 5.212411e+01 3.862962e+01 4.328374e+00 2.638421e+00 3.499800e+00 3.259059e+00 2.854458e+00 4.027167e+00
<VARIANCE> 33
 3.015482e+02 8.243929e+01 1.177786e+02 1.327456e+02 2.307661e+02 1.391052e+01 6.331755e+01 7.399207e+01 2.466227e+02 8.614197e+01 7.314694e+01 1.789156e+00 5.893198e+01 9.601674e+01 4.300061e+01 8.099319e+01 5.481195e+01 3.148238e+01 7.527072e+02 7.041682e+02 2.517228e+01 4.484821e+02 6.293019e+02 1.318661e+03 1.292905e+03 1.547613e+03 2.153974e+02 3.443587e-01 5.836589e-01 5.602393e-01 6.020261e-01 9.914948e-01 2.631942e-01
<GCONST> 1.880303e+02
<MIXTURE> 3 1.573952e-01
<MEAN> 33
 3.249434e+01 1.322787e+02 1.111500e+02 1.391810e+02 2.069275e+01 1.758077e+02 1.802386e+01 2.603249e+01 4.068761e+01 6.472514e+01 1.637327e+02 1.516057e+00 1.663686e+02 6.175940e+01 1.618238e+02 4.731583e+01 4.502768e+01 5.071967e+00 1.082169e+02 1.261678e+02 1.724939e+02 1.469690e+02 9.313077e+01 1.326892e+02 5.046307e+01 5.212411e+01 3.862962e+01 4.328374e+00 2.638421e+00 3.499800e+00 3.259059e+00 2.854458e+00 4.027167e+00
<VARIANCE> 33
 3.015482e+02 8.243929e+01 1.177786e+02 1.327456e+02 2.307661e+02 1.391052e+01 6.331755e+01 7.399207e+01 2.466227e+02 8.614197e+01 7.314694e+01 1.789156e+00 5.893198e+01 9.601674e+01 4.300061e+01 8.099319e+01 5.481195e+01 3.148238e+01 7.527072e+02 7.041682e+02 2.517228e+01 4.484821e+02 6.293019e+02 1.318661e+03 1.292905e+03 1.547613e+03 2.153974e+02 3.443587e-01 5.836589e-01 5.602393e-01 6.020261e-01 9.914948e-01 2.631942e-01
<GCONST> 1.880303e+02
<MIXTURE> 4 4.968602e-01
<MEAN> 33
 2.994284e+01 1.249095e+02 1.251333e+02 1.276656e+02 2.643518e+01 1.761439e+02 2.093217e+01 2.490036e+01 4.489761e+01 7.549574e+01 1.426563e+02 4.745223e+00 1.418813e+02 7.704182e+01 1.627869e+02 5.032785e+01 4.877454e+01 3.455781e+00 1.362081e+02 9.703107e+01 1.664758e+02 1.139405e+02 1.200841e+02 1.501184e+02 2.731984e+01 4.057315e+01 3.605599e+01 4.124889e+00 2.963582e+00 4.277658e+00 3.970038e+00 3.286436e+00 4.042362e+00
<VARIANCE> 33
 1.422885e+02 9.930621e+01 1.381420e+02 8.250057e+01 1.628067e+02 1.251299e+01 5.993732e+01 7.465741e+01 2.259714e+02 1.076128e+02 1.163470e+02 3.128181e+01 1.346106e+02 1.131151e+02 5.300519e+01 6.161752e+01 5.523091e+01 3.148238e+01 2.967128e+02 2.238182e+02 4.219557e+01 3.693141e+02 4.058533e+02 4.961224e+02 4.126466e+02 7.558412e+02 9.203964e+01 2.912400e-01 4.026151e-01 3.942478e-01 2.597884e-01 4.429258e-01 2.460671e-01
<GCONST> 1.825588e+02
<STATE> 4
<NUMMIXES> 4
<MIXTURE> 1 4.595041e-01
<MEAN> 33
 1.737604e+02 1.357178e+02 1.133335e+02 1.356225e+02 1.739746e+02 1.757713e+02 1.361581e+02 1.353148e+02 8.852705e+01 1.640335e+02 1.750089e+02 1.953348e+00 1.742339e+02 1.655936e+02 1.617628e+02 1.686183e+02 1.685665e+02 7.586213e+00 1.133497e+02 1.540086e+02 1.684818e+02 1.597802e+02 1.223551e+02 1.602832e+02 7.578990e+01 9.851975e+01 1.584135e+02 4.924797e+00 2.748801e+00 2.862666e+00 2.733016e+00 2.588650e+00 4.755824e+00
<VARIANCE> 33
 3.902650e+01 2.051169e+01 7.606411e+01 2.745753e+01 3.037716e+01 1.290349e+01 2.822034e+01 2.062020e+01 3.957075e+01 7.803928e+01 1.931079e+01 5.264338e+00 2.247382e+01 8.132368e+01 3.431662e+01 5.957573e+01 6.578750e+01 3.657577e+01 1.368112e+03 2.086417e+02 2.022541e+01 1.769615e+02 1.087034e+03 2.674343e+02 8.701962e+02 1.115864e+03 2.122143e+02 2.408331e+00 1.470414e+00 3.310779e-01 2.135819e-01 1.206201e+00 2.348852e+00
<GCONST> 1.750185e+02
<MIXTURE> 2 1.519891e-01
<MEAN> 33
 1.679479e+02 1.347517e+02 1.142918e+02 1.376127e+02 1.670387e+02 1.764708e+02 1.376867e+02 1.346671e+02 8.764626e+01 1.567505e+02 1.666306e+02 1.477203e+00 1.662345e+02 1.577907e+02 1.623730e+02 1.441535e+02 1.444058e+02 9.705008e+00 1.199008e+02 1.427595e+02 1.683704e+02 1.504171e+02 1.177630e+02 1.464847e+02 6.713528e+01 7.649976e+01 1.085921e+02 6.066624e+00 2.445294e+00 2.810197e+00 2.695514e+00 2.493221e+00 6.040338e+00
<VARIANCE> 33
 9.469412e+01 5.152715e+01 7.704607e+01 7.727940e+01 9.588879e+01 9.087152e+00 8.372456e+01 7.107776e+01 2.644706e+02 1.919457e+02 5.437158e+01 1.657517e+00 6.063252e+01 2.061763e+02 3.653962e+01 2.097442e+02 2.455487e+02 9.089037e+01 1.510662e+03 5.549464e+02 4.048558e+01 4.437566e+02 1.446105e+03 1.501854e+03 2.264825e+03 1.685440e+03 8.961838e+02 1.309003e+00 3.641737e-01 3.105918e-01 1.952268e-01 3.223960e-01 1.258103e+00
<GCONST> 1.925565e+02
<MIXTURE> 3 1.519891e-01
<MEAN> 33
 1.679479e+02 1.347517e+02 1.142918e+02 1.376127e+02 1.670387e+02 1.764708e+02 1.376867e+02 1.346671e+02 8.764626e+01 1.567505e+02 1.666306e+02 1.477203e+00 1.662345e+02 1.577907e+02 1.623730e+02 1.441535e+02 1.444058e+02 9.705008e+00 1.199008e+02 1.427595e+02 1.683704e+02 1.504171e+02 1.177630e+02 1.464847e+02 6.713528e+01 7.649976e+01 1.085921e+02 6.066624e+00 2.445294e+00 2.810197e+00 2.695514e+00 2.493221e+00 6.040338e+00
<VARIANCE> 33
 9.469412e+01 5.152715e+01 7.704607e+01 7.727940e+01 9.588879e+01 9.087152e+00 8.372456e+01 7.107776e+01 2.644706e+02 1.919457e+02 5.437158e+01 1.657517e+00 6.063252e+01 2.061763e+02 3.653962e+01 2.097442e+02 2.455487e+02 9.089037e+01 1.510662e+03 5.549464e+02 4.048558e+01 4.437566e+02 1.446105e+03 1.501854e+03 2.264825e+03 1.685440e+03 8.961838e+02 1.309003e+00 3.641737e-01 3.105918e-01 1.952268e-01 3.223960e-01 1.258103e+00
<GCONST> 1.925565e+02
<MIXTURE> 4 2.365179e-01
<MEAN> 33
 1.226727e+02 1.317054e+02 1.202757e+02 1.340538e+02 1.153455e+02 1.756591e+02 1.055562e+02 9.964158e+01 1.036312e+02 1.225999e+02 1.603645e+02 3.730164e+00 1.604211e+02 1.204300e+02 1.619451e+02 9.961388e+01 9.526345e+01 1.381201e+01 1.083549e+02 1.256552e+02 1.688016e+02 1.395852e+02 9.461195e+01 1.363543e+02 4.347496e+01 5.778243e+01 4.713096e+01 5.195066e+00 2.928886e+00 3.460871e+00 3.301801e+00 3.381274e+00 5.208793e+00
<VARIANCE> 33
 1.364531e+03 9.496918e+01 1.536204e+02 1.066691e+02 1.057490e+03 1.348336e+01 1.753001e+03 1.613244e+03 2.371580e+03 5.622960e+02 1.514653e+02 2.368046e+01 1.489937e+02 3.587720e+02 4.981032e+01 6.054114e+02 4.693874e+02 3.733012e+02 1.741539e+03 8.789926e+02 3.904919e+01 6.636299e+02 1.134591e+03 1.701027e+03 1.462051e+03 1.436121e+03 9.681157e+02 1.285872e+00 6.262997e-01 4.287220e-01 3.317758e-01 6.488075e-01 1.563460e+00
<GCONST> 2.202664e+02
<TRANSP> 5
 0.000000e+00 1.000000e+00 0.000000e+00 0.000000e+00 0.000000e+00
 0.000000e+00 9.227237e-01 7.727635e-02 0.000000e+00 0.000000e+00
 0.000000e+00 0.000000e+00 9.493191e-01 5.068088e-02 0.000000e+00
 0.000000e+00 0.000000e+00 0.000000e+00 9.311720e-01 6.882805e-02
 0.000000e+00 0.000000e+00 0.000000e+00 0.000000e+00 0.000000e+00
<ENDHMM>
~h "DC"
<BEGINHMM>
<NUMSTATES> 5
<STATE> 2
<NUMMIXES> 4
<MIXTURE> 1 5.378873e-01
<MEAN> 33
 1.736085e+02 1.365008e+02 1.080744e+02 1.381538e+02 1.749378e+02 1.759408e+02 1.351786e+02 1.343715e+02 9.044988e+01 1.574893e+02 1.751838e+02 1.563152e+00 1.747478e+02 1.610714e+02 1.619387e+02 1.626030e+02 1.676413e+02 1.092027e+01 9.813067e+01 1.531758e+02 1.692509e+02 1.623182e+02 1.064209e+02 1.569528e+02 7.327117e+01 8.768587e+01 1.540782e+02 4.699780e+00 2.600407e+00 2.664930e+00 2.473138e+00 2.347980e+00 4.583986e+00
<VARIANCE> 33
 3.902650e+01 2.367434e+01 6.132297e+01 2.855415e+01 3.037716e+01 1.112049e+01 2.822034e+01 2.062020e+01 2.523002e+01 8.146535e+01 2.460806e+01 4.018896e+00 1.996399e+01 4.607798e+01 5.209864e+01 1.174026e+02 6.994714e+01 1.044675e+02 8.977532e+02 2.903873e+02 2.919089e+01 1.498560e+02 4.434628e+02 2.929622e+02 1.138358e+03 1.262028e+03 2.892910e+02 5.289032e+00 8.690995e-01 3.848460e-01 3.715504e-01 7.864654e-01 3.337422e+00
<GCONST> 1.768171e+02
<MIXTURE> 2 1.269762e-01
<MEAN> 33
 1.314499e+02 1.382090e+02 1.110843e+02 1.385100e+02 1.366900e+02 1.772169e+02 1.178170e+02 1.122874e+02 1.220010e+02 1.139003e+02 1.736636e+02 1.257168e+00 1.733665e+02 1.138121e+02 1.621287e+02 1.063422e+02 1.067076e+02 5.461998e+00 6.247953e+01 1.597331e+02 1.697291e+02 1.628440e+02 6.562735e+01 1.548158e+02 3.508424e+01 3.920711e+01 5.789702e+01 5.905570e+00 2.986478e+00 2.978752e+00 2.895709e+00 3.031043e+00 5.780505e+00
<VARIANCE> 33
 4.838891e+02 2.246711e+01 6.700175e+01 3.167246e+01 5.063799e+02 5.975626e+00 5.361959e+02 4.611248e+02 1.100974e+03 1.424510e+02 2.622253e+01 1.411916e+00 2.554311e+01 1.799698e+02 3.949474e+01 2.906701e+02 3.393851e+02 3.148238e+01 4.927952e+02 1.908432e+02 2.713744e+01 1.454569e+02 4.101244e+02 3.964915e+02 7.218632e+02 7.110916e+02 6.425109e+02 8.419281e-01 3.572266e-01 1.814316e-01 1.521586e-01 6.213355e-01 7.848976e-01
<GCONST> 1.865060e+02
<MIXTURE> 3 1.269762e-01
<MEAN> 33
 1.314499e+02 1.382090e+02 1.110843e+02 1.385100e+02 1.366900e+02 1.772169e+02 1.178170e+02 1.122874e+02 1.220010e+02 1.139003e+02 1.736636e+02 1.257168e+00 1.733665e+02 1.138121e+02 1.621287e+02 1.063422e+02 1.067076e+02 5.461998e+00 6.247953e+01 1.597331e+02 1.697291e+02 1.628440e+02 6.562735e+01 1.548158e+02 3.508424e+01 3.920711e+01 5.789702e+01 5.905570e+00 2.986478e+00 2.978752e+00 2.895709e+00 3.031043e+00 5.780505e+00
<VARIANCE> 33
 4.838891e+02 2.246711e+01 6.700175e+01 3.167246e+01 5.063799e+02 5.975626e+00 5.361959e+02 4.611248e+02 1.100974e+03 1.424510e+02 2.622253e+01 1.411916e+00 2.554311e+01 1.799698e+02 3.949474e+01 2.906701e+02 3.393851e+02 3.148238e+01 4.927952e+02 1.908432e+02 2.713744e+01 1.454569e+02 4.101244e+02 3.964915e+02 7.218632e+02 7.110916e+02 6.425109e+02 8.419281e-01 3.572266e-01 1.814316e-01 1.521586e-01 6.213355e-01 7.848976e-01
<GCONST> 1.865060e+02
<MIXTURE> 4 2.081601e-01
<MEAN> 33
 1.152439e+02 1.291153e+02 1.125674e+02 1.410043e+02 1.056810e+02 1.712294e+02 9.357525e+01 8.367240e+01 9.897160e+01 1.208293e+02 1.585843e+02 3.501912e+00 1.603305e+02 1.141040e+02 1.590724e+02 1.039544e+02 9.225858e+01 4.133183e+01 1.095884e+02 1.129264e+02 1.712582e+02 1.451279e+02 9.822755e+01 1.248948e+02 6.340528e+01 7.395344e+01 6.433152e+01 5.263093e+00 2.572018e+00 3.214302e+00 2.897043e+00 3.191644e+00 5.442166e+00
<VARIANCE> 33
 1.883643e+03 3.081985e+02 1.470608e+02 2.229857e+02 2.767281e+03 4.629350e+01 2.428646e+03 2.144022e+03 2.764415e+03 7.521285e+02 3.259775e+02 1.569408e+01 1.855341e+02 7.513256e+02 8.421931e+01 1.339740e+03 1.082511e+03 2.715373e+03 1.999069e+03 1.464967e+03 3.209035e+01 6.083245e+02 1.276876e+03 1.673217e+03 2.506353e+03 2.428672e+03 2.071815e+03 2.699098e+00 1.484656e+00 7.813864e-01 4.827489e-01 1.461431e+00 2.575089e+00
<GCONST> 2.373461e+02
<STATE> 3
<NUMMIXES> 4
<MIXTURE> 1 2.908077e-01
<MEAN> 33
 9.457977e+01 1.381369e+02 1.104716e+02 1.420751e+02 9.137214e+01 1.739429e+02 8.236538e+01 7.987541e+01 7.956030e+01 1.159945e+02 1.643419e+02 1.920842e+00 1.649936e+02 1.121968e+02 1.626597e+02 8.808836e+01 8.684711e+01 3.648905e+00 9.405457e+01 1.342947e+02 1.720340e+02 1.477749e+02 8.375674e+01 1.148596e+02 6.665122e+01 6.684666e+01 1.746806e+01 4.322744e+00 3.385040e+00 3.483027e+00 3.280550e+00 3.873853e+00 4.443848e+00
<VARIANCE> 33
 1.748178e+02 6.178865e+01 1.686167e+02 1.302486e+02 3.940128e+02 2.281097e+01 1.523865e+03 1.568065e+03 3.068400e+03 1.468302e+02 5.938885e+01 3.451632e+00 7.090865e+01 1.709950e+02 2.247761e+01 5.269858e+01 4.475978e+01 3.148238e+01 7.992943e+02 5.587107e+02 2.614222e+01 4.274167e+02 7.663556e+02 2.245205e+03 2.398137e+03 2.172950e+03 2.071251e+02 5.080557e-01 8.880373e-01 3.410751e-01 3.761874e-01 1.396879e+00 5.264939e-01
<GCONST> 2.001287e+02
<MIXTURE> 2 2.252750e-01
<MEAN> 33
 7.274003e+01 1.295393e+02 1.128684e+02 1.361579e+02 6.489917e+01 1.755051e+02 3.080140e+01 2.470714e+01 3.695819e+01 9.537227e+01 1.563118e+02 2.607116e+00 1.607107e+02 9.475396e+01 1.614575e+02 6.642850e+01 6.603651e+01 2.777309e+00 1.194560e+02 1.020788e+02 1.705189e+02 1.393129e+02 8.738222e+01 1.477854e+02 4.636524e+01 4.099022e+01 1.915627e+01 4.421610e+00 3.053779e+00 3.989057e+00 3.798797e+00 3.666384e+00 3.969695e+00
<VARIANCE> 33
 2.008657e+02 3.591473e+01 5.171950e+01 2.958735e+01 2.073782e+02 2.095586e+01 3.735144e+02 3.015897e+02 8.253957e+02 1.271432e+02 9.923573e+01 7.915298e+00 5.706569e+01 1.098690e+02 3.038490e+01 4.388854e+01 4.331823e+01 3.148238e+01 6.392676e+02 6.693436e+02 2.777779e+01 4.049282e+02 5.955465e+02 4.173902e+02 6.517115e+02 6.105564e+02 2.481755e+02 4.275607e-01 7.090610e-01 1.690713e-01 1.028521e-01 6.319122e-01 2.299113e-01
<GCONST> 1.842122e+02
<MIXTURE> 3 2.543256e-01
<MEAN> 33
 7.810126e+01 1.404369e+02 1.089542e+02 1.399099e+02 7.545383e+01 1.753546e+02 3.104361e+01 3.301266e+01 4.654349e+01 1.091765e+02 1.597401e+02 8.303559e-01 1.618263e+02 1.065074e+02 1.592469e+02 7.519817e+01 7.473054e+01 2.161117e+00 1.030716e+02 1.281925e+02 1.720809e+02 1.336886e+02 1.015272e+02 1.116778e+02 6.190991e+01 6.369589e+01 1.584144e+01 4.357845e+00 3.664639e+00 3.676995e+00 3.514290e+00 3.618767e+00 4.366745e+00
<VARIANCE> 33
 8.910790e+01 4.084816e+01 4.495764e+01 5.155435e+01 2.566812e+02 9.735897e+00 3.881075e+02 3.832375e+02 1.127847e+03 5.941804e+01 3.512391e+01 5.357184e-01 4.843346e+01 6.577433e+01 2.644477e+01 3.071743e+01 2.601832e+01 3.148238e+01 3.607947e+02 2.798763e+02 2.159087e+01 2.995694e+02 3.226553e+02 2.114741e+03 2.691615e+03 2.513698e+03 1.614240e+02 4.613563e-01 5.225534e-01 1.222694e-01 8.761112e-02 3.197370e-01 3.512442e-01
<GCONST> 1.782500e+02
<MIXTURE> 4 2.295890e-01
<MEAN> 33
 7.110838e+01 1.202935e+02 1.147984e+02 1.336672e+02 5.855016e+01 1.702657e+02 2.162968e+01 1.673504e+01 2.305405e+01 1.140019e+02 1.379936e+02 3.513796e+00 1.414050e+02 1.142664e+02 1.542581e+02 6.536632e+01 6.560460e+01 2.427587e+00 1.427550e+02 9.009380e+01 1.721391e+02 1.069146e+02 1.277256e+02 1.037555e+02 8.685749e+01 8.618031e+01 1.089489e+01 3.992482e+00 2.547179e+00 3.947808e+00 3.844606e+00 3.118970e+00 3.917957e+00
<VARIANCE> 33
 7.198137e+02 2.621094e+02 1.398450e+02 8.387157e+01 5.191790e+02 6.310302e+01 3.443767e+02 1.822495e+02 4.244501e+02 4.019753e+02 1.889954e+02 4.226203e+01 1.923871e+02 3.796356e+02 9.816526e+01 1.100285e+02 1.036722e+02 3.148238e+01 2.647759e+02 2.436010e+02 6.690144e+01 1.617247e+02 2.808821e+02 2.012878e+03 2.310881e+03 2.411550e+03 1.224405e+02 4.144315e-01 4.128108e-01 3.890226e-01 3.203887e-01 7.615219e-01 4.697438e-01
<GCONST> 2.022951e+02
<STATE> 4
<NUMMIXES> 4
<MIXTURE> 1 4.668298e-01
<MEAN> 33
 1.722596e+02 1.382959e+02 1.106702e+02 1.387012e+02 1.734008e+02 1.761460e+02 1.346186e+02 1.343475e+02 9.103387e+01 1.641789e+02 1.742098e+02 1.289884e+00 1.748490e+02 1.665967e+02 1.612855e+02 1.660045e+02 1.659356e+02 1.023271e+01 1.214388e+02 1.542220e+02 1.693409e+02 1.569866e+02 1.315440e+02 1.510383e+02 8.538263e+01 9.556971e+01 1.545214e+02 4.831729e+00 2.845885e+00 2.782421e+00 2.535206e+00 2.533756e+00 4.666125e+00
<VARIANCE> 33
 3.902650e+01 2.274559e+01 8.078948e+01 2.913728e+01 3.344322e+01 1.188699e+01 2.822034e+01 2.062020e+01 4.041134e+01 1.036513e+02 1.900241e+01 2.382951e+00 1.623489e+01 9.144681e+01 4.712907e+01 8.063470e+01 8.773773e+01 8.740416e+01 1.527307e+03 2.359157e+02 3.308337e+01 1.728158e+02 1.291992e+03 8.453154e+02 1.217239e+03 1.322265e+03 2.586339e+02 2.761440e+00 1.512946e+00 3.373199e-01 1.970776e-01 9.045064e-01 2.394368e+00
<GCONST> 1.788859e+02
<MIXTURE> 2 1.340756e-01
<MEAN> 33
 1.678732e+02 1.380167e+02 1.096461e+02 1.397345e+02 1.681232e+02 1.748913e+02 1.374341e+02 1.325688e+02 8.999706e+01 1.634654e+02 1.666522e+02 1.348106e+00 1.667481e+02 1.638476e+02 1.619885e+02 1.409575e+02 1.408744e+02 9.442691e+00 1.345609e+02 1.330817e+02 1.705822e+02 1.451170e+02 1.337603e+02 1.297512e+02 7.395451e+01 9.828411e+01 1.022732e+02 6.137694e+00 2.307191e+00 2.703762e+00 2.648010e+00 2.387539e+00 6.037151e+00
<VARIANCE> 33
 9.826091e+01 5.909692e+01 5.697906e+01 5.166631e+01 8.598726e+01 1.931108e+01 1.033143e+02 8.121300e+01 2.731360e+02 1.525500e+02 5.501459e+01 1.703995e+00 5.913271e+01 1.538427e+02 4.129274e+01 1.793449e+02 2.472348e+02 7.021479e+01 1.335701e+03 6.817894e+02 3.671036e+01 3.894548e+02 1.108580e+03 2.272514e+03 2.500300e+03 2.168896e+03 6.818068e+02 8.567402e-01 2.269067e-01 2.238778e-01 1.271222e-01 1.880908e-01 7.520601e-01
<GCONST> 1.896268e+02
<MIXTURE> 3 1.340756e-01
<MEAN> 33
 1.678732e+02 1.380167e+02 1.096461e+02 1.397345e+02 1.681232e+02 1.748913e+02 1.374341e+02 1.325688e+02 8.999706e+01 1.634654e+02 1.666522e+02 1.348106e+00 1.667481e+02 1.638476e+02 1.619885e+02 1.409575e+02 1.408744e+02 9.442691e+00 1.345609e+02 1.330817e+02 1.705822e+02 1.451170e+02 1.337603e+02 1.297512e+02 7.395451e+01 9.828411e+01 1.022732e+02 6.137694e+00 2.307191e+00 2.703762e+00 2.648010e+00 2.387539e+00 6.037151e+00
<VARIANCE> 33
 9.826091e+01 5.909692e+01 5.697906e+01 5.166631e+01 8.598726e+01 1.931108e+01 1.033143e+02 8.121300e+01 2.731360e+02 1.525500e+02 5.501459e+01 1.703995e+00 5.913271e+01 1.538427e+02 4.129274e+01 1.793449e+02 2.472348e+02 7.021479e+01 1.335701e+03 6.817894e+02 3.671036e+01 3.894548e+02 1.108580e+03 2.272514e+03 2.500300e+03 2.168896e+03 6.818068e+02 8.567402e-01 2.269067e-01 2.238778e-01 1.271222e-01 1.880908e-01 7.520601e-01
<GCONST> 1.896268e+02
<MIXTURE> 4 2.650189e-01
<MEAN> 33
 1.359052e+02 1.330266e+02 1.127133e+02 1.385640e+02 1.289178e+02 1.720239e+02 1.275845e+02 1.220125e+02 8.370785e+01 1.361809e+02 1.629494e+02 2.968711e+00 1.612363e+02 1.335810e+02 1.610441e+02 1.098356e+02 1.067813e+02 1.049640e+01 1.136042e+02 1.200360e+02 1.707582e+02 1.376749e+02 9.955449e+01 1.273862e+02 6.149533e+01 7.109169e+01 4.609677e+01 4.715406e+00 2.802990e+00 3.305829e+00 3.218784e+00 3.247972e+00 5.060490e+00
<VARIANCE> 33
 5.773047e+02 1.308544e+02 1.268604e+02 1.262459e+02 7.582448e+02 4.733409e+01 1.209160e+03 1.237677e+03 2.265652e+03 3.371299e+02 1.036780e+02 3.167289e+01 1.376383e+02 4.209207e+02 6.949311e+01 4.094230e+02 4.066983e+02 2.433621e+02 1.481766e+03 1.188296e+03 4.299684e+01 6.803942e+02 1.503428e+03 1.841990e+03 2.152198e+03 2.067288e+03 1.205533e+03 1.561595e+00 5.902769e-01 4.299285e-01 3.875735e-01 8.697860e-01 1.252667e+00
<GCONST> 2.207536e+02
<TRANSP> 5
 0.000000e+00 1.000000e+00 0.000000e+00 0.000000e+00 0.000000e+00
 0.000000e+00 8.875626e-01 1.124375e-01 0.000000e+00 0.000000e+00
 0.000000e+00 0.000000e+00 9.593552e-01 4.064486e-02 0.000000e+00
 0.000000e+00 0.000000e+00 0.000000e+00 9.290712e-01 7.092878e-02
 0.000000e+00 0.000000e+00 0.000000e+00 0.000000e+00 0.000000e+00
<ENDHMM>
~h "FM"
<BEGINHMM>
<NUMSTATES> 5
<STATE> 2
<NUMMIXES> 4
<MIXTURE> 1 2.690888e-01
<MEAN> 33
 1.723266e+02 1.377407e+02 1.085732e+02 1.382473e+02 1.748042e+02 1.764960e+02 1.349390e+02 1.340643e+02 9.099667e+01 1.561946e+02 1.749957e+02 1.383271e+00 1.751643e+02 1.612259e+02 1.618400e+02 1.631066e+02 1.670593e+02 1.141913e+01 9.397871e+01 1.526627e+02 1.699084e+02 1.620015e+02 1.084545e+02 1.584394e+02 7.095776e+01 9.092462e+01 1.542236e+02 5.025025e+00 2.798665e+00 2.647558e+00 2.520238e+00 2.331022e+00 4.856528e+00
<VARIANCE> 33
 3.902650e+01 2.987460e+01 7.353098e+01 3.438334e+01 3.037716e+01 9.888043e+00 2.822034e+01 2.062020e+01 3.726394e+01 8.565011e+01 2.246545e+01 3.040980e+00 1.602169e+01 5.222396e+01 4.868214e+01 1.260464e+02 8.573424e+01 1.198763e+02 9.676880e+02 2.338173e+02 2.226011e+01 1.408681e+02 5.630234e+02 2.165479e+02 9.791429e+02 1.208564e+03 2.865396e+02 4.970847e+00 9.086454e-01 2.854300e-01 4.204253e-01 7.801909e-01 3.151750e+00
<GCONST> 1.766197e+02
<MIXTURE> 2 2.654403e-01
<MEAN> 33
 1.720001e+02 1.389371e+02 1.104526e+02 1.674755e+02 1.001324e+02 1.735016e+02 1.351386e+02 9.331089e+01 1.315374e+02 1.557440e+02 1.699846e+02 4.593103e+00 1.527253e+02 1.076372e+02 1.620763e+02 1.689371e+02 9.968375e+01 7.302612e+01 8.349870e+01 1.435130e+02 1.676919e+02 1.583668e+02 4.372962e+01 1.226155e+02 6.534792e+01 1.017557e+02 1.450088e+02 3.742332e+00 2.733652e+00 2.614335e+00 2.137108e+00 6.278029e+00 6.610366e+00
<VARIANCE> 33
 3.902650e+01 5.649969e+01 1.207765e+02 9.054475e+01 5.284123e+02 4.795977e+01 2.822034e+01 2.490984e+02 3.079794e+02 7.649997e+01 9.796879e+01 2.485623e+01 2.854001e+02 6.537573e+02 7.051940e+01 6.771255e+01 1.277639e+03 1.187983e+03 5.820544e+02 4.622112e+02 5.531518e+01 1.420591e+02 1.967375e+02 2.260791e+03 2.251425e+03 1.777238e+03 4.291793e+02 2.173232e+00 1.003794e+00 2.354318e-01 3.697217e-01 2.397440e+00 3.873584e+00
<GCONST> 2.056604e+02
<MIXTURE> 3 2.654403e-01
<MEAN> 33
 1.720001e+02 1.389371e+02 1.104526e+02 1.674755e+02 1.001324e+02 1.735016e+02 1.351386e+02 9.331089e+01 1.315374e+02 1.557440e+02 1.699846e+02 4.593103e+00 1.527253e+02 1.076372e+02 1.620763e+02 1.689371e+02 9.968375e+01 7.302612e+01 8.349870e+01 1.435130e+02 1.676919e+02 1.583668e+02 4.372962e+01 1.226155e+02 6.534792e+01 1.017557e+02 1.450088e+02 3.742332e+00 2.733652e+00 2.614335e+00 2.137108e+00 6.278029e+00 6.610366e+00
<VARIANCE> 33
 3.902650e+01 5.649969e+01 1.207765e+02 9.054475e+01 5.284123e+02 4.795977e+01 2.822034e+01 2.490984e+02 3.079794e+02 7.649997e+01 9.796879e+01 2.485623e+01 2.854001e+02 6.537573e+02 7.051940e+01 6.771255e+01 1.277639e+03 1.187983e+03 5.820544e+02 4.622112e+02 5.531518e+01 1.420591e+02 1.967375e+02 2.260791e+03 2.251425e+03 1.777238e+03 4.291793e+02 2.173232e+00 1.003794e+00 2.354318e-01 3.697217e-01 2.397440e+00 3.873584e+00
<GCONST> 2.056604e+02
<MIXTURE> 4 2.000305e-01
<MEAN> 33
 1.039797e+02 1.565484e+02 1.132979e+02 1.506640e+02 1.246452e+02 1.706932e+02 8.511276e+01 1.038489e+02 1.350684e+02 1.015684e+02 1.653666e+02 2.594868e+00 1.626492e+02 1.328826e+02 1.630939e+02 8.484880e+01 1.147159e+02 8.021114e+01 6.191344e+01 1.559137e+02 1.677236e+02 1.513501e+02 6.665316e+01 1.342453e+02 6.391537e+01 8.142315e+01 1.161021e+02 5.767800e+00 5.520105e+00 2.586467e+00 2.677946e+00 3.808296e+00 4.271397e+00
<VARIANCE> 33
 1.348843e+03 3.032469e+02 8.721265e+01 6.346859e+02 1.280571e+03 5.139215e+01 1.005560e+03 9.207415e+02 2.313511e+03 7.404849e+02 1.634969e+02 5.276421e+00 2.441069e+02 7.925363e+02 5.970909e+01 9.341483e+02 1.331194e+03 4.110105e+03 1.717397e+03 4.436730e+02 5.790028e+01 6.653915e+02 1.714296e+03 1.193865e+03 1.822350e+03 2.394242e+03 2.858641e+03 3.729865e+00 7.428539e+00 6.533512e-01 5.813245e-01 1.392414e+00 2.563030e+00
<GCONST> 2.345639e+02
<STATE> 3
<NUMMIXES> 4
<MIXTURE> 1 3.905993e-01
<MEAN> 33
 1.207215e+02 1.625608e+02 1.150586e+02 1.351870e+02 1.734221e+02 1.742231e+02 1.077743e+02 1.361546e+02 1.160711e+02 1.198924e+02 1.653821e+02 2.500587e+00 1.748673e+02 1.634433e+02 1.636641e+02 1.197333e+02 1.713553e+02 5.867441e+01 4.693586e+01 1.609626e+02 1.646253e+02 1.533078e+02 1.017939e+02 1.538481e+02 8.070757e+01 7.157930e+01 1.506670e+02 7.799574e+00 6.393635e+00 2.566328e+00 2.604324e+00 2.296593e+00 3.710385e+00
<VARIANCE> 33
 4.244002e+02 8.254344e+01 1.028410e+02 1.990739e+01 3.037716e+01 1.868040e+01 1.163984e+02 2.062020e+01 1.201274e+02 3.267121e+02 7.843354e+01 5.608756e+00 1.109394e+01 3.643986e+01 3.765893e+01 3.956493e+02 4.500418e+01 4.489628e+02 1.247186e+02 9.127103e+01 2.358091e+01 1.642569e+02 9.197851e+02 3.636927e+02 6.209193e+02 7.860935e+02 2.750840e+02 2.779985e+00 2.999899e+00 2.265709e-01 1.528333e-01 4.785414e-01 9.387167e-01
<GCONST> 1.820470e+02
<MIXTURE> 2 2.163468e-01
<MEAN> 33
 1.017226e+02 1.685883e+02 1.124098e+02 1.360781e+02 1.767249e+02 1.741103e+02 8.189130e+01 1.359839e+02 1.420974e+02 9.711143e+01 1.638799e+02 4.830380e+00 1.744584e+02 1.625097e+02 1.667300e+02 7.561421e+01 1.708009e+02 9.576217e+01 4.262911e+01 1.625697e+02 1.632660e+02 1.538446e+02 9.147954e+01 1.504382e+02 9.286079e+01 4.428688e+01 1.371460e+02 7.967317e+00 6.507767e+00 2.401428e+00 2.734183e+00 2.055139e+00 4.015059e+00
<VARIANCE> 33
 2.410777e+02 3.789103e+01 1.751924e+01 1.125408e+01 3.037716e+01 1.820032e+01 8.300407e+01 2.062020e+01 8.733834e+01 7.229502e+01 8.846844e+01 7.544582e+00 1.007704e+01 1.317438e+01 5.232741e+01 1.649207e+02 2.656941e+01 1.601627e+02 1.913959e+01 7.378345e+01 3.424504e+01 1.869816e+02 2.200521e+02 4.871019e+02 3.791493e+02 4.213813e+02 1.221138e+02 1.945700e+00 1.005905e+00 1.050468e-01 1.162688e-01 5.993341e-02 6.098626e-01
<GCONST> 1.637190e+02
<MIXTURE> 3 2.163468e-01
<MEAN> 33
 1.017226e+02 1.685883e+02 1.124098e+02 1.360781e+02 1.767249e+02 1.741103e+02 8.189130e+01 1.359839e+02 1.420974e+02 9.711143e+01 1.638799e+02 4.830380e+00 1.744584e+02 1.625097e+02 1.667300e+02 7.561421e+01 1.708009e+02 9.576217e+01 4.262911e+01 1.625697e+02 1.632660e+02 1.538446e+02 9.147954e+01 1.504382e+02 9.286079e+01 4.428688e+01 1.371460e+02 7.967317e+00 6.507767e+00 2.401428e+00 2.734183e+00 2.055139e+00 4.015059e+00
<VARIANCE> 33
 2.410777e+02 3.789103e+01 1.751924e+01 1.125408e+01 3.037716e+01 1.820032e+01 8.300407e+01 2.062020e+01 8.733834e+01 7.229502e+01 8.846844e+01 7.544582e+00 1.007704e+01 1.317438e+01 5.232741e+01 1.649207e+02 2.656941e+01 1.601627e+02 1.913959e+01 7.378345e+01 3.424504e+01 1.869816e+02 2.200521e+02 4.871019e+02 3.791493e+02 4.213813e+02 1.221138e+02 1.945700e+00 1.005905e+00 1.050468e-01 1.162688e-01 5.993341e-02 6.098626e-01
<GCONST> 1.637190e+02
<MIXTURE> 4 1.767053e-01
<MEAN> 33
 9.816785e+01 1.644084e+02 1.206787e+02 1.321350e+02 1.658835e+02 1.710265e+02 9.050272e+01 1.297684e+02 1.391167e+02 1.092487e+02 1.538096e+02 9.540790e+00 1.645918e+02 1.503649e+02 1.607575e+02 9.233514e+01 1.553976e+02 7.780179e+01 4.304916e+01 1.609720e+02 1.695231e+02 1.451155e+02 8.931528e+01 1.142058e+02 6.770980e+01 8.874158e+01 1.397630e+02 6.261308e+00 5.849049e+00 2.256673e+00 2.952661e+00 3.176806e+00 4.677577e+00
<VARIANCE> 33
 8.867999e+02 1.195840e+02 1.707496e+02 3.450871e+02 2.554104e+02 5.433888e+01 3.355433e+02 1.272640e+02 3.497686e+02 4.685300e+02 3.432036e+02 5.267761e+02 5.408823e+02 3.673315e+02 6.275240e+01 1.351642e+03 5.074597e+02 1.539157e+03 3.321419e+02 1.321149e+02 4.019483e+01 4.217448e+02 1.703340e+03 1.401548e+03 2.444241e+03 3.100572e+03 6.478669e+02 3.015772e+00 2.751801e+00 3.232253e-01 3.956011e-01 1.468537e+00 3.082559e+00
<GCONST> 2.236307e+02
<STATE> 4
<NUMMIXES> 4
<MIXTURE> 1 3.409148e-01
<MEAN> 33
 1.755809e+02 1.354903e+02 1.087622e+02 1.360712e+02 1.776824e+02 1.762995e+02 1.349760e+02 1.345723e+02 9.045177e+01 1.595736e+02 1.770872e+02 1.083504e+00 1.756071e+02 1.646375e+02 1.628018e+02 1.668764e+02 1.693152e+02 6.387260e+00 9.599805e+01 1.598928e+02 1.691334e+02 1.675195e+02 1.113568e+02 1.533304e+02 8.619697e+01 7.263629e+01 1.586442e+02 6.274793e+00 2.252202e+00 2.921346e+00 2.737560e+00 1.897431e+00 5.754730e+00
<VARIANCE> 33
 3.902650e+01 1.296752e+01 2.285705e+01 9.214548e+00 3.037716e+01 7.752378e+00 2.822034e+01 2.062020e+01 1.886277e+01 1.739899e+01 5.703690e+00 7.583091e-01 6.543823e+00 1.398274e+01 2.505472e+01 3.071743e+01 4.209676e+01 3.148238e+01 2.379230e+02 8.082500e+01 1.408519e+01 5.603079e+01 2.195103e+02 2.907389e+02 8.267457e+02 8.985707e+02 1.142388e+02 9.938462e-01 1.552016e-01 7.721024e-02 7.858697e-02 4.342930e-02 1.169935e+00
<GCONST> 1.455664e+02
<MIXTURE> 2 2.304802e-01
<MEAN> 33
 1.694768e+02 1.361988e+02 1.142282e+02 1.363878e+02 1.729027e+02 1.742915e+02 1.349535e+02 1.364027e+02 8.864382e+01 1.566607e+02 1.734281e+02 3.000629e+00 1.741202e+02 1.616390e+02 1.632784e+02 1.657545e+02 1.700416e+02 1.282314e+01 9.385481e+01 1.512413e+02 1.662685e+02 1.564307e+02 9.821396e+01 1.439939e+02 9.428845e+01 7.522801e+01 1.599760e+02 5.046509e+00 3.483914e+00 2.902223e+00 2.597389e+00 2.758615e+00 4.789924e+00
<VARIANCE> 33
 6.572878e+01 3.245369e+01 6.956926e+01 2.868301e+01 3.656870e+01 1.720417e+01 2.822034e+01 2.062020e+01 3.703577e+01 1.166192e+02 2.654212e+01 6.370738e+00 1.737581e+01 4.363003e+01 3.668159e+01 1.265291e+02 5.406451e+01 1.209212e+02 1.229419e+03 3.494342e+02 3.132286e+01 1.598183e+02 7.909622e+02 4.775403e+02 1.605779e+03 1.828775e+03 2.361661e+02 4.165607e+00 2.128656e+00 3.632669e-01 2.503244e-01 1.496426e+00 2.304777e+00
<GCONST> 1.817957e+02
<MIXTURE> 3 2.304802e-01
<MEAN> 33
 1.694768e+02 1.361988e+02 1.142282e+02 1.363878e+02 1.729027e+02 1.742915e+02 1.349535e+02 1.364027e+02 8.864382e+01 1.566607e+02 1.734281e+02 3.000629e+00 1.741202e+02 1.616390e+02 1.632784e+02 1.657545e+02 1.700416e+02 1.282314e+01 9.385481e+01 1.512413e+02 1.662685e+02 1.564307e+02 9.821396e+01 1.439939e+02 9.428845e+01 7.522801e+01 1.599760e+02 5.046509e+00 3.483914e+00 2.902223e+00 2.597389e+00 2.758615e+00 4.789924e+00
<VARIANCE> 33
 6.572878e+01 3.245369e+01 6.956926e+01 2.868301e+01 3.656870e+01 1.720417e+01 2.822034e+01 2.062020e+01 3.703577e+01 1.166192e+02 2.654212e+01 6.370738e+00 1.737581e+01 4.363003e+01 3.668159e+01 1.265291e+02 5.406451e+01 1.209212e+02 1.229419e+03 3.494342e+02 3.132286e+01 1.598183e+02 7.909622e+02 4.775403e+02 1.605779e+03 1.828775e+03 2.361661e+02 4.165607e+00 2.128656e+00 3.632669e-01 2.503244e-01 1.496426e+00 2.304777e+00
<GCONST> 1.817957e+02
<MIXTURE> 4 1.981239e-01
<MEAN> 33
 1.234583e+02 1.605920e+02 1.089404e+02 1.424087e+02 1.655775e+02 1.745463e+02 1.161725e+02 1.321822e+02 1.091975e+02 1.284239e+02 1.580394e+02 4.512852e+00 1.711126e+02 1.518640e+02 1.638472e+02 1.497092e+02 1.607542e+02 2.962735e+01 4.706369e+01 1.548117e+02 1.671320e+02 1.473240e+02 8.783765e+01 1.271080e+02 1.160077e+02 4.955330e+01 1.497093e+02 3.492703e+00 5.037418e+00 2.069785e+00 2.189443e+00 2.681766e+00 3.638735e+00
<VARIANCE> 33
 7.363295e+02 2.666904e+02 1.539105e+02 1.435590e+02 4.297373e+02 1.495525e+01 2.605979e+02 2.559559e+02 6.039790e+02 4.481053e+02 1.069698e+02 4.828344e+01 1.081740e+02 3.034286e+02 3.777896e+01 6.678309e+02 7.112958e+02 6.450588e+02 1.397298e+03 2.138664e+02 3.685733e+01 2.141898e+02 1.078934e+03 9.262199e+02 1.677167e+03 1.109936e+03 1.522184e+03 3.836932e+00 2.494047e+00 5.039211e-01 4.609215e-01 1.261454e+00 4.816811e+00
<GCONST> 2.171107e+02
<TRANSP> 5
 0.000000e+00 1.000000e+00 0.000000e+00 0.000000e+00 0.000000e+00
 0.000000e+00 9.335563e-01 6.644376e-02 0.000000e+00 0.000000e+00
 0.000000e+00 0.000000e+00 9.471191e-01 5.288090e-02 0.000000e+00
 0.000000e+00 0.000000e+00 0.000000e+00 9.192769e-01 8.072314e-02
 0.000000e+00 0.000000e+00 0.000000e+00 0.000000e+00 0.000000e+00
<ENDHMM>
~h "FN"
<BEGINHMM>
<NUMSTATES> 5
<STATE> 2
<NUMMIXES> 4
<MIXTURE> 1 3.189828e-01
<MEAN> 33
 1.729282e+02 1.369326e+02 1.091145e+02 1.376496e+02 1.745981e+02 1.754302e+02 1.350724e+02 1.342614e+02 9.066623e+01 1.570470e+02 1.753455e+02 1.725148e+00 1.749004e+02 1.629439e+02 1.619304e+02 1.634115e+02 1.663739e+02 1.299666e+01 9.770805e+01 1.527160e+02 1.694442e+02 1.625138e+02 1.155676e+02 1.580736e+02 6.964561e+01 9.382150e+01 1.544557e+02 4.904613e+00 2.671993e+00 2.771543e+00 2.526074e+00 2.376751e+00 4.943937e+00
<VARIANCE> 33
 3.902650e+01 2.451285e+01 7.425764e+01 3.022528e+01 3.037716e+01 1.345031e+01 2.822034e+01 2.062020e+01 3.506241e+01 1.193773e+02 2.132576e+01 5.374517e+00 1.925119e+01 6.988864e+01 5.043003e+01 1.628417e+02 8.944570e+01 1.474689e+02 1.058449e+03 2.696160e+02 2.563900e+01 1.330960e+02 7.723263e+02 2.964643e+02 9.505052e+02 1.258322e+03 3.640488e+02 5.524684e+00 1.275781e+00 3.392095e-01 3.845267e-01 6.764686e-01 2.789192e+00
<GCONST> 1.798754e+02
<MIXTURE> 2 2.514802e-01
<MEAN> 33
 1.711170e+02 1.403303e+02 1.097803e+02 1.486072e+02 3.052965e+01 1.747759e+02 1.344363e+02 2.376558e+01 1.539453e+02 1.569133e+02 1.705085e+02 2.863316e+00 1.415887e+02 7.549635e+01 1.665864e+02 1.685390e+02 4.105842e+01 1.294690e+02 8.894703e+01 1.510139e+02 1.697930e+02 1.297229e+02 1.005074e+02 1.045429e+02 6.951920e+01 7.648357e+01 1.048801e+02 3.612781e+00 2.502597e+00 2.517390e+00 3.109804e+00 3.658032e+00 7.026828e+00
<VARIANCE> 33
 3.902650e+01 3.759724e+01 1.152289e+02 2.530503e+02 8.873952e+02 1.515835e+01 2.822034e+01 3.191722e+02 1.239174e+02 5.045617e+01 7.168845e+01 9.880289e+00 6.680862e+02 5.709419e+02 4.054357e+01 8.953832e+01 1.933759e+02 2.402465e+02 5.108088e+02 2.452460e+02 5.070050e+01 6.016343e+02 1.029323e+03 2.568458e+03 2.719315e+03 1.880281e+03 3.819355e+02 1.049901e+00 3.044527e-01 1.888693e-01 6.695282e-01 1.242207e+00 1.152053e+00
<GCONST> 1.993270e+02
<MIXTURE> 3 2.514802e-01
<MEAN> 33
 1.711170e+02 1.403303e+02 1.097803e+02 1.486072e+02 3.052965e+01 1.747759e+02 1.344363e+02 2.376558e+01 1.539453e+02 1.569133e+02 1.705085e+02 2.863316e+00 1.415887e+02 7.549635e+01 1.665864e+02 1.685390e+02 4.105842e+01 1.294690e+02 8.894703e+01 1.510139e+02 1.697930e+02 1.297229e+02 1.005074e+02 1.045429e+02 6.951920e+01 7.648357e+01 1.048801e+02 3.612781e+00 2.502597e+00 2.517390e+00 3.109804e+00 3.658032e+00 7.026828e+00
<VARIANCE> 33
 3.902650e+01 3.759724e+01 1.152289e+02 2.530503e+02 8.873952e+02 1.515835e+01 2.822034e+01 3.191722e+02 1.239174e+02 5.045617e+01 7.168845e+01 9.880289e+00 6.680862e+02 5.709419e+02 4.054357e+01 8.953832e+01 1.933759e+02 2.402465e+02 5.108088e+02 2.452460e+02 5.070050e+01 6.016343e+02 1.029323e+03 2.568458e+03 2.719315e+03 1.880281e+03 3.819355e+02 1.049901e+00 3.044527e-01 1.888693e-01 6.695282e-01 1.242207e+00 1.152053e+00
<GCONST> 1.993270e+02
<MIXTURE> 4 1.780568e-01
<MEAN> 33
 1.293031e+02 1.349152e+02 1.111232e+02 1.442302e+02 1.005093e+02 1.731219e+02 1.032226e+02 8.609515e+01 1.223795e+02 1.296758e+02 1.648728e+02 4.909383e+00 1.616067e+02 1.115469e+02 1.620404e+02 1.204202e+02 9.632318e+01 7.469113e+01 8.139340e+01 1.207851e+02 1.676397e+02 1.510686e+02 7.880635e+01 1.331635e+02 6.533171e+01 7.312707e+01 8.839700e+01 4.620097e+00 2.686206e+00 3.026243e+00 2.935648e+00 3.602866e+00 5.641707e+00
<VARIANCE> 33
 2.498089e+03 1.286534e+02 8.634494e+01 1.726316e+02 3.761199e+03 4.215997e+01 2.394575e+03 2.528714e+03 1.565090e+03 1.304551e+03 1.607800e+02 7.648576e+01 3.869611e+02 1.396087e+03 4.831607e+01 2.304579e+03 2.291047e+03 1.872017e+03 1.744825e+03 1.396989e+03 6.266768e+01 3.162943e+02 1.245219e+03 1.930077e+03 2.480499e+03 1.930184e+03 1.375836e+03 4.641812e+00 1.375018e+00 4.669499e-01 3.241998e-01 1.430003e+00 4.569921e+00
<GCONST> 2.383130e+02
<STATE> 3
<NUMMIXES> 4
<MIXTURE> 1 2.613608e-01
<MEAN> 33
 8.799663e+01 1.399172e+02 1.121910e+02 1.349018e+02 1.747339e+02 1.764951e+02 6.632673e+01 1.359272e+02 1.461626e+02 1.142720e+02 1.521753e+02 2.052483e+00 1.748214e+02 1.625844e+02 1.671082e+02 7.949174e+01 1.643961e+02 8.855740e+01 1.176312e+02 1.274698e+02 1.706011e+02 1.629650e+02 1.083493e+02 1.301874e+02 5.109945e+01 8.462600e+01 1.017798e+02 8.416669e+00 2.789799e+00 3.224974e+00 2.522850e+00 2.103378e+00 3.451267e+00
<VARIANCE> 33
 2.195572e+03 1.793335e+02 6.301186e+01 1.629513e+01 3.037716e+01 8.749250e+00 1.300905e+03 2.062020e+01 7.104672e+02 4.231312e+02 3.596516e+02 3.192240e+00 1.307821e+01 2.623349e+01 6.275009e+01 3.167682e+02 7.209470e+01 3.937281e+02 2.232321e+03 7.180793e+02 2.926588e+01 1.674857e+02 5.593427e+02 1.744981e+03 1.145863e+03 2.654070e+03 4.562258e+02 1.156218e+00 1.186571e+00 2.532222e-01 8.067313e-02 1.445484e-01 5.914556e-01
<GCONST> 1.934885e+02
<MIXTURE> 2 4.450088e-01
<MEAN> 33
 2.295299e+01 1.315151e+02 1.112094e+02 1.357043e+02 1.749444e+02 1.753241e+02 1.009823e+01 1.348607e+02 1.442558e+02 6.683401e+01 1.440799e+02 1.470133e+00 1.743679e+02 1.627463e+02 1.667665e+02 3.861294e+01 1.622104e+02 1.242008e+02 1.225582e+02 1.040971e+02 1.698332e+02 1.659760e+02 1.093026e+02 1.226367e+02 6.246590e+01 8.041718e+01 8.439395e+01 6.450367e+00 2.995668e+00 3.323171e+00 2.871271e+00 2.196341e+00 3.649468e+00
<VARIANCE> 33
 1.386306e+02 1.391501e+02 4.686168e+01 1.841698e+01 3.037716e+01 1.573325e+01 4.185914e+01 2.062020e+01 5.953590e+01 2.166971e+02 3.489034e+02 1.363886e+00 1.438605e+01 2.027358e+01 4.493459e+01 7.031250e+01 8.115655e+01 1.180049e+02 6.626108e+02 3.681347e+02 3.302972e+01 9.101849e+01 3.777370e+02 2.362735e+03 2.134180e+03 2.512931e+03 1.686645e+02 1.214786e+00 9.994476e-01 4.734427e-01 2.941855e-01 1.266253e-01 9.207026e-01
<GCONST> 1.795503e+02
<MIXTURE> 3 1.597390e-01
<MEAN> 33
 1.848651e+01 1.404562e+02 1.273236e+02 1.285121e+02 1.683514e+02 1.765986e+02 1.363558e+01 1.375022e+02 1.508524e+02 6.954556e+01 1.370129e+02 7.402560e+00 1.691532e+02 1.632183e+02 1.665225e+02 3.794353e+01 1.704630e+02 1.424986e+02 9.915988e+01 1.162842e+02 1.707263e+02 1.514498e+02 1.041721e+02 1.251775e+02 5.600079e+01 1.139727e+02 1.090141e+02 6.637414e+00 4.277226e+00 3.998947e+00 2.690720e+00 2.857178e+00 3.697700e+00
<VARIANCE> 33
 1.673317e+02 4.101390e+02 6.260420e+01 3.779912e+01 3.037716e+01 1.040232e+01 6.539424e+01 2.062020e+01 8.375953e+01 1.577004e+02 1.561269e+02 7.227747e+01 1.720733e+02 7.689818e+01 2.785366e+01 7.076922e+01 5.607637e+01 1.423146e+02 4.339774e+02 4.776140e+02 3.309824e+01 1.322669e+02 1.208832e+03 9.971217e+02 1.106892e+03 3.205827e+03 2.843979e+02 2.115191e+00 5.153700e-01 4.366346e-01 6.678101e-02 1.959806e-01 3.333190e-01
<GCONST> 1.865830e+02
<MIXTURE> 4 1.338901e-01
<MEAN> 33
