~o
<STREAMINFO> 1 33
<VECSIZE> 33<NULLD><USER><DIAGC>
~h "BN"
<BEGINHMM>
<NUMSTATES> 5
<STATE> 2
<NUMMIXES> 4
<MIXTURE> 1 3.103867e-01
<MEAN> 33
 1.743894e+02 1.388414e+02 1.045756e+02 1.397423e+02 1.762095e+02 1.769630e+02 1.353490e+02 1.340926e+02 9.055840e+01 1.603747e+02 1.765099e+02 9.534409e-01 1.756514e+02 1.624449e+02 1.646142e+02 1.669380e+02 1.705827e+02 8.041578e+00 1.050171e+02 1.614505e+02 1.695298e+02 1.635786e+02 1.098557e+02 1.617705e+02 6.940109e+01 9.276443e+01 1.606135e+02 4.344181e+00 2.299596e+00 2.567049e+00 2.387947e+00 2.266319e+00 4.676903e+00
<VARIANCE> 33
 3.902650e+01 1.755509e+01 4.587776e+01 2.763766e+01 3.037716e+01 3.775657e+00 2.822034e+01 2.062020e+01 1.886277e+01 3.412969e+01 9.098746e+00 5.357184e-01 8.003110e+00 3.200742e+01 4.174718e+01 6.452357e+01 5.261659e+01 3.148238e+01 3.958877e+02 9.084328e+01 2.559231e+01 1.025671e+02 3.580162e+02 1.855574e+02 6.105498e+02 8.134842e+02 1.975713e+02 4.598269e+00 3.754812e-01 2.463450e-01 3.692605e-01 3.093945e-01 2.852355e+00
<GCONST> 1.602342e+02
<MIXTURE> 2 1.308830e-01
<MEAN> 33
 1.479504e+02 1.371658e+02 1.106061e+02 1.362306e+02 1.750497e+02 1.767007e+02 1.241202e+02 1.347243e+02 1.007560e+02 1.213660e+02 1.751198e+02 9.973990e-01 1.756113e+02 1.609135e+02 1.613668e+02 1.192658e+02 1.664103e+02 4.855508e+01 5.505850e+01 1.578938e+02 1.689256e+02 1.638174e+02 1.005267e+02 1.590050e+02 4.541299e+01 7.496507e+01 1.174869e+02 8.719015e+00 3.075191e+00 3.029532e+00 2.595031e+00 2.117022e+00 4.230440e+00
<VARIANCE> 33
 3.662639e+02 2.116595e+01 4.038866e+01 1.332933e+01 3.037716e+01 7.781638e+00 2.368488e+02 2.062020e+01 2.880302e+02 2.144431e+02 1.638971e+01 6.377167e-01 6.586662e+00 3.770256e+01 4.099838e+01 3.527206e+02 6.530434e+01 4.526691e+02 2.628430e+02 1.510363e+02 2.415258e+01 8.943835e+01 5.076522e+02 2.316296e+02 5.618290e+02 7.539080e+02 2.821288e+02 1.490950e+00 5.311431e-01 1.029766e-01 7.301056e-02 9.170961e-02 9.674649e-01
<GCONST> 1.696143e+02
<MIXTURE> 3 2.121984e-01
<MEAN> 33
 1.722400e+02 1.357420e+02 1.128920e+02 1.379484e+02 1.702880e+02 1.757589e+02 1.344687e+02 1.338478e+02 9.168353e+01 1.568114e+02 1.694165e+02 1.742957e+00 1.728389e+02 1.589052e+02 1.607305e+02 1.602357e+02 1.600423e+02 2.167941e+01 1.007625e+02 1.408376e+02 1.706985e+02 1.519113e+02 1.084872e+02 1.435935e+02 9.531612e+01 8.180655e+01 1.493786e+02 5.199400e+00 3.543310e+00 2.905454e+00 2.721878e+00 2.949093e+00 5.132422e+00
<VARIANCE> 33
 3.902650e+01 3.196836e+01 6.687252e+01 4.342181e+01 5.541969e+01 1.214276e+01 3.504341e+01 3.366138e+01 8.011409e+01 1.587476e+02 6.169036e+01 1.835063e+00 3.329836e+01 2.414952e+02 3.096952e+01 2.420376e+02 2.130603e+02 3.023603e+02 1.883084e+03 3.834248e+02 3.645566e+01 2.418607e+02 1.795458e+03 8.138275e+02 2.292636e+03 2.188150e+03 5.972823e+02 3.860301e+00 2.741087e+00 5.457222e-01 2.390418e-01 1.192973e+00 4.264606e+00
<GCONST> 1.930437e+02
<MIXTURE> 4 3.465311e-01
<MEAN> 33
 7.475433e+01 1.464788e+02 1.126295e+02 1.482311e+02 1.169207e+02 1.742314e+02 5.861407e+01 9.987471e+01 1.121252e+02 9.997697e+01 1.466108e+02 2.971890e+00 1.673397e+02 1.351870e+02 1.647738e+02 7.198721e+01 1.117027e+02 8.719193e+01 9.153513e+01 1.307198e+02 1.711293e+02 1.531632e+02 5.781280e+01 1.186701e+02 5.785894e+01 9.904471e+01 9.778822e+01 5.178268e+00 3.766846e+00 3.384861e+00 2.706996e+00 3.757363e+00 4.020553e+00
<VARIANCE> 33
 3.993371e+03 2.655047e+02 7.005344e+01 3.739160e+02 1.749944e+03 1.995475e+01 2.914103e+03 1.659108e+03 2.043853e+03 1.696113e+03 7.308596e+02 1.613814e+01 1.452396e+02 1.367319e+03 3.406398e+01 3.043617e+03 1.978352e+03 3.018177e+03 1.794966e+03 6.314055e+02 5.222335e+01 4.698164e+02 1.839151e+03 2.076877e+03 1.766341e+03 3.137887e+03 2.459340e+03 3.743969e+00 2.202338e+00 6.115166e-01 5.899222e-01 9.938243e-01 2.538886e+00
<GCONST> 2.388895e+02
<STATE> 3
<NUMMIXES> 4
<MIXTURE> 1 2.044473e-01
<MEAN> 33
 5.947041e+01 1.530727e+02 1.132715e+02 1.351822e+02 1.712945e+02 1.766112e+02 5.114786e+01 1.367370e+02 1.493561e+02 9.184222e+01 1.549973e+02 3.031354e+00 1.746599e+02 1.627298e+02 1.619540e+02 6.426139e+01 1.674777e+02 1.160785e+02 8.185167e+01 1.448203e+02 1.683385e+02 1.537217e+02 1.087661e+02 1.439341e+02 3.114098e+01 1.098734e+02 1.191774e+02 7.910380e+00 3.575602e+00 3.524413e+00 2.539862e+00 2.462197e+00 3.380456e+00
<VARIANCE> 33
 2.531490e+03 2.823639e+02 8.326956e+01 1.600358e+01 3.849819e+01 9.222077e+00 1.494759e+03 2.062020e+01 6.055359e+02 8.635591e+02 2.191624e+02 8.825746e+00 1.236859e+01 2.997223e+01 2.913955e+01 8.818809e+02 5.594584e+01 1.337606e+03 8.430194e+02 5.354222e+02 2.981066e+01 1.717568e+02 9.953799e+02 6.097943e+02 4.190740e+02 2.370883e+03 5.042865e+02 1.550177e+00 1.149435e+00 4.769213e-01 1.299054e-01 3.249202e-01 6.050435e-01
<GCONST> 1.966391e+02
<MIXTURE> 2 3.312401e-01
<MEAN> 33
 1.813684e+01 1.646380e+02 1.057083e+02 1.363427e+02 1.748596e+02 1.761799e+02 1.609506e+01 1.356204e+02 1.517146e+02 6.408022e+01 1.366884e+02 2.018701e+00 1.749795e+02 1.635814e+02 1.624728e+02 2.802675e+01 1.659513e+02 1.395920e+02 7.769617e+01 1.371870e+02 1.698627e+02 1.630852e+02 1.091034e+02 1.157114e+02 5.293916e+01 1.077035e+02 1.073636e+02 5.631123e+00 4.090930e+00 2.986497e+00 2.899173e+00 2.199426e+00 4.422673e+00
<VARIANCE> 33
 8.184397e+01 1.922186e+02 6.215079e+01 1.614507e+01 3.037716e+01 9.963771e+00 2.822034e+01 2.062020e+01 3.295666e+01 2.543177e+02 4.855987e+02 3.558165e+00 1.848262e+01 2.225130e+01 3.234091e+01 3.071743e+01 7.634399e+01 1.531383e+02 2.451654e+02 2.593313e+02 5.325734e+01 1.118800e+02 3.944255e+02 1.730249e+03 1.587992e+03 2.508707e+03 2.314702e+02 6.823396e-01 1.022290e+00 5.601393e-01 2.187206e-01 1.059811e-01 1.100565e+00
<GCONST> 1.772988e+02
<MIXTURE> 3 3.312401e-01
<MEAN> 33
 1.813684e+01 1.646380e+02 1.057083e+02 1.363427e+02 1.748596e+02 1.761799e+02 1.609506e+01 1.356204e+02 1.517146e+02 6.408022e+01 1.366884e+02 2.018701e+00 1.749795e+02 1.635814e+02 1.624728e+02 2.802675e+01 1.659513e+02 1.395920e+02 7.769617e+01 1.371870e+02 1.698627e+02 1.630852e+02 1.091034e+02 1.157114e+02 5.293916e+01 1.077035e+02 1.073636e+02 5.631123e+00 4.090930e+00 2.986497e+00 2.899173e+00 2.199426e+00 4.422673e+00
<VARIANCE> 33
 8.184397e+01 1.922186e+02 6.215079e+01 1.614507e+01 3.037716e+01 9.963771e+00 2.822034e+01 2.062020e+01 3.295666e+01 2.543177e+02 4.855987e+02 3.558165e+00 1.848262e+01 2.225130e+01 3.234091e+01 3.071743e+01 7.634399e+01 1.531383e+02 2.451654e+02 2.593313e+02 5.325734e+01 1.118800e+02 3.944255e+02 1.730249e+03 1.587992e+03 2.508707e+03 2.314702e+02 6.823396e-01 1.022290e+00 5.601393e-01 2.187206e-01 1.059811e-01 1.100565e+00
<GCONST> 1.772988e+02
<MIXTURE> 4 1.330714e-01
<MEAN> 33
 3.722233e+01 1.581433e+02 1.172213e+02 1.363178e+02 1.494226e+02 1.753083e+02 3.164039e+01 1.266242e+02 1.515601e+02 6.021849e+01 1.467319e+02 1.392651e+01 1.578885e+02 1.445568e+02 1.611546e+02 3.953094e+01 1.415969e+02 1.223202e+02 6.327944e+01 1.531086e+02 1.580598e+02 1.526119e+02 8.173212e+01 6.512041e+01 9.750455e+01 1.187929e+02 1.049420e+02 4.770721e+00 4.157542e+00 2.152046e+00 2.879227e+00 3.228770e+00 4.984388e+00
<VARIANCE> 33
 1.989986e+03 2.640274e+02 1.509010e+02 1.577624e+02 1.121464e+03 1.217765e+01 1.127672e+03 6.649254e+02 2.935843e+02 1.454651e+03 6.787756e+02 1.792785e+02 1.791712e+02 8.065118e+02 4.268102e+01 1.722775e+03 1.132672e+03 9.730115e+02 3.614995e+02 2.923720e+02 2.955051e+02 1.860947e+02 1.362356e+03 1.800345e+03 2.103299e+03 1.484743e+03 6.676891e+02 2.061691e+00 1.509774e+00 5.663953e-01 4.254314e-01 1.200549e+00 3.882637e+00
<GCONST> 2.285280e+02
<STATE> 4
<NUMMIXES> 4
<MIXTURE> 1 4.566743e-01
<MEAN> 33
 1.719874e+02 1.373725e+02 1.104388e+02 1.373903e+02 1.733209e+02 1.762240e+02 1.357640e+02 1.358017e+02 8.843429e+01 1.598133e+02 1.718351e+02 1.944823e+00 1.738461e+02 1.633330e+02 1.617114e+02 1.603853e+02 1.669980e+02 1.725017e+01 1.080553e+02 1.505290e+02 1.681351e+02 1.586047e+02 1.097117e+02 1.499387e+02 8.496034e+01 8.443066e+01 1.516434e+02 5.444224e+00 2.954521e+00 2.901298e+00 2.695871e+00 2.546518e+00 4.785737e+00
<VARIANCE> 33
 5.728102e+01 3.390322e+01 6.479316e+01 3.889259e+01 3.513039e+01 1.151415e+01 2.822034e+01 2.062020e+01 3.834956e+01 1.343275e+02 4.780579e+01 5.251194e+00 2.541973e+01 5.635842e+01 3.550739e+01 2.331813e+02 8.623849e+01 1.873415e+02 1.452346e+03 3.809370e+02 2.630673e+01 2.063259e+02 8.534370e+02 7.776760e+02 1.480343e+03 1.573526e+03 4.874047e+02 4.574374e+00 1.536738e+00 3.105630e-01 2.835160e-01 8.481376e-01 2.714018e+00
<GCONST> 1.849065e+02
<MIXTURE> 2 1.179346e-01
<MEAN> 33
 1.718733e+02 1.358358e+02 1.155743e+02 1.502838e+02 2.875042e+01 1.709604e+02 1.370744e+02 3.542363e+01 1.633269e+02 1.584039e+02 1.735912e+02 1.313331e+01 1.315983e+02 7.216477e+01 1.601590e+02 1.672955e+02 4.201422e+01 1.260556e+02 7.856062e+01 1.443463e+02 1.630287e+02 1.442516e+02 7.042503e+01 1.307504e+02 6.369976e+01 8.251212e+01 1.120183e+02 2.481883e+00 2.184038e+00 2.664079e+00 2.711987e+00 4.352626e+00 6.397580e+00
<VARIANCE> 33
 3.902650e+01 5.239071e+01 1.261700e+02 6.078608e+02 9.134540e+02 3.328965e+01 2.822034e+01 3.466927e+02 1.030370e+02 5.282969e+01 2.389520e+01 2.802422e+02 1.064288e+03 6.914377e+02 1.080296e+02 6.155720e+01 3.717433e+02 3.180260e+02 9.779733e+02 6.153743e+02 8.820360e+01 4.360630e+02 4.622291e+02 1.747668e+03 1.640972e+03 2.631551e+03 1.982271e+02 1.926104e+00 3.573275e-01 3.347423e-01 6.296189e-01 2.386556e+00 2.098021e+00
<GCONST> 2.081497e+02
<MIXTURE> 3 2.864160e-01
<MEAN> 33
 1.707533e+02 1.387788e+02 1.093382e+02 1.624538e+02 2.099081e+01 1.758394e+02 1.353902e+02 1.987619e+01 1.552664e+02 1.578326e+02 1.701407e+02 1.851586e+00 1.405270e+02 5.827381e+01 1.653463e+02 1.662539e+02 2.594202e+01 1.416116e+02 9.051673e+01 1.553320e+02 1.683707e+02 1.425181e+02 6.960471e+01 9.481333e+01 9.909568e+01 7.568105e+01 1.149780e+02 4.500994e+00 2.669121e+00 2.626791e+00 2.792425e+00 4.283984e+00 5.859127e+00
<VARIANCE> 33
 3.902650e+01 3.585521e+01 8.419980e+01 1.919695e+02 2.089829e+02 1.065672e+01 2.822034e+01 3.141573e+01 4.063210e+01 4.051667e+01 8.180699e+01 2.414170e+00 7.288628e+02 2.761852e+02 5.046078e+01 9.878522e+01 4.514017e+01 1.068464e+02 4.708808e+02 1.823663e+02 6.183078e+01 4.210221e+02 3.939520e+02 3.150133e+03 2.195581e+03 2.411948e+03 1.986443e+02 1.454314e+00 2.341055e-01 2.539070e-01 7.855906e-01 9.141526e-01 1.633995e+00
<GCONST> 1.880246e+02
<MIXTURE> 4 1.389747e-01
<MEAN> 33
 1.267070e+02 1.448439e+02 1.119269e+02 1.423889e+02 1.073987e+02 1.748824e+02 1.028916e+02 8.459789e+01 1.049449e+02 1.228440e+02 1.615704e+02 5.971731e+00 1.546842e+02 1.123928e+02 1.655902e+02 1.159162e+02 9.089934e+01 5.926891e+01 8.285602e+01 1.429973e+02 1.690655e+02 1.458549e+02 8.682871e+01 1.038250e+02 9.885454e+01 6.637243e+01 1.079546e+02 4.575944e+00 3.050110e+00 2.583835e+00 2.838478e+00 3.528193e+00 5.725552e+00
<VARIANCE> 33
 2.898374e+03 1.823468e+02 1.360422e+02 1.159750e+03 3.594792e+03 1.792150e+01 1.878810e+03 2.353145e+03 1.427680e+03 2.021261e+03 2.599059e+02 8.433416e+01 7.958448e+02 1.788644e+03 4.462886e+01 2.938586e+03 2.858369e+03 1.672863e+03 1.606837e+03 3.608404e+02 5.609405e+01 1.196639e+03 1.605945e+03 2.598079e+03 2.769949e+03 2.056211e+03 1.930128e+03 3.154020e+00 9.016691e-01 4.876921e-01 8.762706e-01 1.884183e+00 5.350628e+00
<GCONST> 2.436302e+02
<TRANSP> 5
 0.000000e+00 1.000000e+00 0.000000e+00 0.000000e+00 0.000000e+00
 0.000000e+00 8.567104e-01 1.432895e-01 0.000000e+00 0.000000e+00
 0.000000e+00 0.000000e+00 9.544061e-01 4.559389e-02 0.000000e+00
 0.000000e+00 0.000000e+00 0.000000e+00 9.514536e-01 4.854641e-02
 0.000000e+00 0.000000e+00 0.000000e+00 0.000000e+00 0.000000e+00
<ENDHMM>
~h "BS"
<BEGINHMM>
<NUMSTATES> 5
<STATE> 2
<NUMMIXES> 4
<MIXTURE> 1 2.610435e-01
<MEAN> 33
 1.732460e+02 1.369846e+02 1.079360e+02 1.380819e+02 1.749803e+02 1.763502e+02 1.354290e+02 1.346976e+02 8.987343e+01 1.566884e+02 1.751278e+02 1.050384e+00 1.749600e+02 1.600856e+02 1.625068e+02 1.606827e+02 1.655464e+02 9.876137e+00 1.002749e+02 1.583983e+02 1.701237e+02 1.625127e+02 1.050154e+02 1.592558e+02 7.477524e+01 8.196881e+01 1.489256e+02 5.291329e+00 2.638966e+00 2.693820e+00 2.550349e+00 2.245941e+00 4.842991e+00
<VARIANCE> 33
 3.902650e+01 2.162470e+01 5.625063e+01 3.114611e+01 3.037716e+01 1.143834e+01 2.822034e+01 2.062020e+01 2.660835e+01 1.127147e+02 2.009043e+01 1.261191e+00 1.736816e+01 7.522635e+01 4.162667e+01 1.360296e+02 1.029393e+02 8.138048e+01 9.109045e+02 2.123879e+02 2.537853e+01 1.757075e+02 6.204953e+02 3.177893e+02 1.037843e+03 9.688912e+02 4.004562e+02 3.955734e+00 7.837163e-01 3.107305e-01 2.786683e-01 5.265499e-01 3.586301e+00
<GCONST> 1.750637e+02
<MIXTURE> 2 2.023320e-01
<MEAN> 33
 1.114661e+02 1.366620e+02 1.157619e+02 1.393145e+02 1.224301e+02 1.753696e+02 9.925900e+01 1.042712e+02 1.130510e+02 1.152499e+02 1.646840e+02 3.970705e+00 1.618837e+02 1.194450e+02 1.600197e+02 9.445189e+01 9.697052e+01 1.292263e+01 9.397726e+01 1.362390e+02 1.699889e+02 1.507548e+02 9.225346e+01 1.469432e+02 4.052239e+01 5.667964e+01 5.434093e+01 5.520462e+00 2.885273e+00 3.092450e+00 3.023296e+00 2.998597e+00 5.317884e+00
<VARIANCE> 33
 1.344915e+03 8.367065e+01 1.012670e+02 1.094377e+02 9.994850e+02 1.954470e+01 1.551473e+03 1.160127e+03 2.229431e+03 2.490861e+02 1.222012e+02 1.812876e+02 2.722888e+02 2.541174e+02 3.998616e+01 4.987515e+02 5.010569e+02 2.301290e+02 1.848798e+03 8.293654e+02 3.174052e+01 4.151305e+02 1.378200e+03 9.688357e+02 1.256966e+03 1.670474e+03 1.279675e+03 2.438553e+00 9.623899e-01 4.021037e-01 3.233591e-01 1.032419e+00 1.813398e+00
<GCONST> 2.207965e+02
<MIXTURE> 3 2.023320e-01
<MEAN> 33
 1.114661e+02 1.366620e+02 1.157619e+02 1.393145e+02 1.224301e+02 1.753696e+02 9.925900e+01 1.042712e+02 1.130510e+02 1.152499e+02 1.646840e+02 3.970705e+00 1.618837e+02 1.194450e+02 1.600197e+02 9.445189e+01 9.697052e+01 1.292263e+01 9.397726e+01 1.362390e+02 1.699889e+02 1.507548e+02 9.225346e+01 1.469432e+02 4.052239e+01 5.667964e+01 5.434093e+01 5.520462e+00 2.885273e+00 3.092450e+00 3.023296e+00 2.998597e+00 5.317884e+00
<VARIANCE> 33
 1.344915e+03 8.367065e+01 1.012670e+02 1.094377e+02 9.994850e+02 1.954470e+01 1.551473e+03 1.160127e+03 2.229431e+03 2.490861e+02 1.222012e+02 1.812876e+02 2.722888e+02 2.541174e+02 3.998616e+01 4.987515e+02 5.010569e+02 2.301290e+02 1.848798e+03 8.293654e+02 3.174052e+01 4.151305e+02 1.378200e+03 9.688357e+02 1.256966e+03 1.670474e+03 1.279675e+03 2.438553e+00 9.623899e-01 4.021037e-01 3.233591e-01 1.032419e+00 1.813398e+00
<GCONST> 2.207965e+02
<MIXTURE> 4 3.342918e-01
<MEAN> 33
 7.369418e+01 1.332939e+02 1.106796e+02 1.386504e+02 7.026739e+01 1.739186e+02 3.589909e+01 3.543205e+01 5.091936e+01 1.053109e+02 1.514887e+02 2.285184e+00 1.539763e+02 1.063389e+02 1.626579e+02 6.826981e+01 6.925284e+01 7.264680e+00 1.136386e+02 1.095686e+02 1.689568e+02 1.263509e+02 9.902026e+01 1.285568e+02 6.188076e+01 5.677993e+01 2.201390e+01 4.021786e+00 3.026646e+00 3.732289e+00 3.531784e+00 3.496927e+00 4.029883e+00
<VARIANCE> 33
 4.946129e+02 9.663368e+01 7.099413e+01 9.653996e+01 5.664764e+02 3.623870e+01 5.210656e+02 5.964194e+02 1.379186e+03 4.309134e+02 3.162705e+02 1.207609e+01 3.221722e+02 4.155173e+02 3.981158e+01 1.559172e+02 1.643035e+02 4.677953e+01 7.639703e+02 5.772507e+02 1.238975e+02 5.538799e+02 5.848495e+02 2.036267e+03 2.332996e+03 2.343574e+03 3.069537e+02 5.690588e-01 9.889837e-01 4.205093e-01 2.796803e-01 1.065868e+00 5.508725e-01
<GCONST> 2.099786e+02
<STATE> 3
<NUMMIXES> 4
<MIXTURE> 1 1.750652e-01
<MEAN> 33
 1.501495e+02 1.540149e+02 1.130989e+02 1.572490e+02 1.526454e+02 1.759265e+02 9.437791e+01 9.256714e+01 1.655645e+02 1.167900e+02 1.716346e+02 2.315981e+00 1.656049e+02 1.071124e+02 1.635368e+02 1.054170e+02 9.414050e+01 5.204996e+01 1.181576e+02 1.594369e+02 1.621906e+02 1.540569e+02 1.156292e+02 1.531707e+02 7.434438e+01 9.320764e+01 1.569094e+02 6.309877e+00 3.843054e+00 1.860642e+00 1.713219e+00 4.189466e+00 6.330728e+00
<VARIANCE> 33
 3.205024e+02 8.701651e+01 7.568495e+01 8.261191e+01 2.531883e+02 9.701406e+00 9.562666e+01 1.202180e+02 1.159588e+02 5.619035e+02 3.469868e+01 5.198274e+00 1.404921e+02 8.072458e+02 5.959857e+01 1.431663e+03 2.366044e+03 1.741937e+03 5.224998e+02 1.316391e+02 7.542008e+01 1.360135e+02 3.672573e+02 2.956056e+02 7.826962e+02 7.781962e+02 2.134677e+02 2.201912e+00 2.395840e+00 1.328476e-01 1.284531e-01 3.273355e+00 2.916864e+00
<GCONST> 2.017886e+02
<MIXTURE> 2 2.839605e-01
<MEAN> 33
 1.370717e+02 1.395733e+02 1.156742e+02 1.399801e+02 1.487860e+02 1.755758e+02 9.123746e+01 9.469000e+01 1.658795e+02 1.027720e+02 1.724230e+02 3.142704e+00 1.722071e+02 1.065841e+02 1.602234e+02 9.105218e+01 9.567602e+01 9.993935e+00 9.964635e+01 1.499842e+02 1.697069e+02 1.548129e+02 9.904492e+01 1.425887e+02 4.903728e+01 8.062216e+01 1.161148e+02 8.119784e+00 2.168278e+00 2.394894e+00 2.289624e+00 2.350636e+00 7.921813e+00
<VARIANCE> 33
 4.811491e+02 5.526752e+01 1.256643e+02 7.205805e+01 4.013162e+02 1.488506e+01 8.420435e+01 7.740072e+01 1.047211e+02 1.739152e+02 4.071408e+01 1.267515e+01 4.001689e+01 1.974879e+02 4.108476e+01 1.825197e+02 2.319590e+02 6.439595e+01 1.081271e+03 4.868186e+02 3.955275e+01 2.891169e+02 7.684716e+02 9.808107e+02 1.401741e+03 1.263762e+03 3.634936e+02 7.866024e-01 5.298897e-01 7.867296e-02 7.977174e-02 5.489951e-01 6.198450e-01
<GCONST> 1.903019e+02
<MIXTURE> 3 2.839605e-01
<MEAN> 33
 1.370717e+02 1.395733e+02 1.156742e+02 1.399801e+02 1.487860e+02 1.755758e+02 9.123746e+01 9.469000e+01 1.658795e+02 1.027720e+02 1.724230e+02 3.142704e+00 1.722071e+02 1.065841e+02 1.602234e+02 9.105218e+01 9.567602e+01 9.993935e+00 9.964635e+01 1.499842e+02 1.697069e+02 1.548129e+02 9.904492e+01 1.425887e+02 4.903728e+01 8.062216e+01 1.161148e+02 8.119784e+00 2.168278e+00 2.394894e+00 2.289624e+00 2.350636e+00 7.921813e+00
<VARIANCE> 33
 4.811491e+02 5.526752e+01 1.256643e+02 7.205805e+01 4.013162e+02 1.488506e+01 8.420435e+01 7.740072e+01 1.047211e+02 1.739152e+02 4.071408e+01 1.267515e+01 4.001689e+01 1.974879e+02 4.108476e+01 1.825197e+02 2.319590e+02 6.439595e+01 1.081271e+03 4.868186e+02 3.955275e+01 2.891169e+02 7.684716e+02 9.808107e+02 1.401741e+03 1.263762e+03 3.634936e+02 7.866024e-01 5.298897e-01 7.867296e-02 7.977174e-02 5.489951e-01 6.198450e-01
<GCONST> 1.903019e+02
<MIXTURE> 4 2.570135e-01
<MEAN> 33
 1.091449e+02 1.563475e+02 1.068994e+02 1.626324e+02 1.169455e+02 1.676214e+02 7.144922e+01 7.162480e+01 1.428371e+02 7.073117e+01 1.681028e+02 2.682287e+00 1.651940e+02 6.206069e+01 1.631772e+02 3.924690e+01 3.254842e+01 1.841270e+01 1.337789e+02 1.612739e+02 1.668865e+02 1.605400e+02 1.255156e+02 1.280933e+02 8.205524e+01 8.057845e+01 1.494143e+02 6.343258e+00 2.934575e+00 1.909415e+00 1.666416e+00 3.395984e+00 6.895179e+00
<VARIANCE> 33
 5.702086e+02 1.309693e+02 2.783460e+01 1.083468e+02 5.094996e+02 9.514707e+01 5.814334e+01 9.007474e+01 2.408355e+02 1.042319e+03 1.045354e+02 4.467360e+00 1.917727e+02 7.160281e+02 3.635680e+01 4.875352e+02 5.190074e+02 3.073226e+02 5.974720e+02 1.286829e+02 5.102057e+01 2.642830e+02 4.154538e+02 1.533689e+03 1.696064e+03 1.516812e+03 6.494617e+02 2.207053e+00 2.863007e+00 2.742935e-01 1.719381e-01 3.372999e+00 1.721789e+00
<GCONST> 2.073164e+02
<STATE> 4
<NUMMIXES> 4
<MIXTURE> 1 4.190186e-01
<MEAN> 33
 1.742581e+02 1.366106e+02 1.090634e+02 1.383095e+02 1.739333e+02 1.768101e+02 1.358558e+02 1.354217e+02 8.872243e+01 1.623496e+02 1.748836e+02 9.316300e-01 1.748947e+02 1.654808e+02 1.615588e+02 1.655101e+02 1.685133e+02 8.602716e+00 1.087989e+02 1.605273e+02 1.683537e+02 1.659359e+02 1.153489e+02 1.589584e+02 8.380648e+01 7.817141e+01 1.560420e+02 5.478593e+00 2.363943e+00 2.974407e+00 2.696580e+00 2.175854e+00 5.110168e+00
<VARIANCE> 33
 3.902650e+01 2.133113e+01 3.862523e+01 1.830711e+01 3.037716e+01 5.563889e+00 2.822034e+01 2.062020e+01 4.072613e+01 5.393697e+01 1.563263e+01 5.357184e-01 1.027353e+01 5.284631e+01 3.109839e+01 6.954726e+01 6.273794e+01 3.305902e+01 7.891202e+02 1.102920e+02 1.847619e+01 9.168336e+01 6.941058e+02 1.675699e+02 6.374521e+02 6.694855e+02 2.177325e+02 2.207287e+00 2.701387e-01 2.754177e-01 1.705753e-01 1.660379e-01 2.184850e+00
<GCONST> 1.610962e+02
<MIXTURE> 2 1.908084e-01
<MEAN> 33
 1.669227e+02 1.410229e+02 1.118301e+02 1.429854e+02 1.661454e+02 1.759787e+02 1.275653e+02 1.267000e+02 1.057347e+02 1.408339e+02 1.711273e+02 1.361117e+00 1.688675e+02 1.435957e+02 1.623710e+02 1.375995e+02 1.381458e+02 1.063338e+01 9.234027e+01 1.600925e+02 1.659219e+02 1.634887e+02 9.657684e+01 1.554492e+02 5.682733e+01 5.884671e+01 1.138662e+02 6.679734e+00 2.533177e+00 2.590165e+00 2.540034e+00 2.485935e+00 6.863585e+00
<VARIANCE> 33
 6.709115e+01 5.715987e+01 5.474214e+01 8.179242e+01 7.600638e+01 8.976544e+00 1.747675e+02 1.341630e+02 5.381359e+02 2.109715e+02 4.190730e+01 1.068073e+00 5.679716e+01 1.900459e+02 4.269356e+01 2.143871e+02 2.145836e+02 6.973476e+01 6.179830e+02 1.627394e+02 5.681420e+01 1.242094e+02 4.935055e+02 2.894340e+02 6.911169e+02 5.802133e+02 4.786784e+02 1.571190e+00 3.776661e-01 1.252372e-01 1.619394e-01 2.411147e-01 1.367115e+00
<GCONST> 1.831526e+02
<MIXTURE> 3 2.191709e-01
<MEAN> 33
 1.710421e+02 1.392557e+02 1.125141e+02 1.419597e+02 1.688331e+02 1.745276e+02 1.339775e+02 1.319986e+02 9.402391e+01 1.579593e+02 1.721516e+02 2.839978e+00 1.696540e+02 1.613781e+02 1.619853e+02 1.631124e+02 1.592855e+02 1.515778e+01 1.088945e+02 1.452071e+02 1.669323e+02 1.501352e+02 1.232067e+02 1.427199e+02 8.518296e+01 1.040163e+02 1.470658e+02 4.647052e+00 3.680803e+00 2.619289e+00 2.495356e+00 3.134292e+00 4.839138e+00
<VARIANCE> 33
 7.525115e+01 6.545413e+01 9.368592e+01 1.008785e+02 7.706622e+01 2.105754e+01 6.331745e+01 7.618743e+01 2.216044e+02 1.911603e+02 4.180318e+01 8.495625e+00 6.009420e+01 1.873449e+02 4.300139e+01 1.610276e+02 1.965039e+02 1.755893e+02 1.853075e+03 3.048816e+02 4.849817e+01 2.859053e+02 1.480454e+03 1.603408e+03 1.697019e+03 1.508631e+03 4.856738e+02 3.135575e+00 3.084345e+00 3.594976e-01 2.641889e-01 1.298019e+00 3.077006e+00
<GCONST> 1.990289e+02
<MIXTURE> 4 1.710016e-01
<MEAN> 33
 1.301043e+02 1.396055e+02 1.140959e+02 1.450384e+02 1.133925e+02 1.710608e+02 1.058015e+02 8.831253e+01 1.130216e+02 1.219668e+02 1.662893e+02 4.058868e+00 1.604396e+02 1.053672e+02 1.606862e+02 1.036210e+02 8.133797e+01 3.492704e+01 1.064130e+02 1.325499e+02 1.691170e+02 1.446931e+02 1.000230e+02 1.246366e+02 5.806108e+01 8.187450e+01 8.865679e+01 5.788411e+00 2.858203e+00 2.809261e+00 2.714523e+00 3.551301e+00 5.884718e+00
<VARIANCE> 33
 1.694141e+03 1.809824e+02 1.558969e+02 2.688692e+02 2.821649e+03 5.200077e+01 1.769360e+03 2.316475e+03 2.859381e+03 1.446405e+03 9.446690e+01 1.734059e+01 1.936004e+02 1.549218e+03 7.394096e+01 1.776083e+03 1.637163e+03 2.059392e+03 1.813211e+03 9.821187e+02 6.418416e+01 5.468086e+02 1.435884e+03 2.066866e+03 1.995409e+03 2.233416e+03 2.636010e+03 2.171790e+00 1.044540e+00 7.541047e-01 7.581829e-01 1.483325e+00 2.258941e+00
<GCONST> 2.375312e+02
<TRANSP> 5
 0.000000e+00 1.000000e+00 0.000000e+00 0.000000e+00 0.000000e+00
 0.000000e+00 9.281303e-01 7.186977e-02 0.000000e+00 0.000000e+00
 0.000000e+00 0.000000e+00 9.343359e-01 6.566411e-02 0.000000e+00
 0.000000e+00 0.000000e+00 0.000000e+00 9.322120e-01 6.778800e-02
 0.000000e+00 0.000000e+00 0.000000e+00 0.000000e+00 0.000000e+00
<ENDHMM>
~h "CF"
<BEGINHMM>
<NUMSTATES> 5
<STATE> 2
<NUMMIXES> 4
<MIXTURE> 1 4.064958e-01
<MEAN> 33
 1.725082e+02 1.358910e+02 1.096189e+02 1.367123e+02 1.746956e+02 1.764596e+02 1.351657e+02 1.347784e+02 9.005598e+01 1.555939e+02 1.754733e+02 1.408799e+00 1.744133e+02 1.611685e+02 1.610076e+02 1.611114e+02 1.652492e+02 1.365595e+01 9.183680e+01 1.536324e+02 1.695215e+02 1.644585e+02 1.077128e+02 1.584645e+02 7.015616e+01 8.479646e+01 1.502658e+02 5.426843e+00 2.568781e+00 2.794044e+00 2.685755e+00 2.200616e+00 5.143809e+00
<VARIANCE> 33
 3.902650e+01 2.337902e+01 4.777737e+01 2.820005e+01 3.037716e+01 1.015951e+01 2.822034e+01 2.062020e+01 3.284941e+01 9.451856e+01 2.281010e+01 3.468839e+00 1.340091e+01 6.525217e+01 3.742987e+01 1.662870e+02 1.008585e+02 1.717097e+02 8.682230e+02 3.508404e+02 2.868070e+01 1.407888e+02 5.775192e+02 2.262861e+02 9.563025e+02 1.126576e+03 3.631509e+02 4.697106e+00 7.363087e-01 3.496149e-01 2.431750e-01 4.763695e-01 3.412942e+00
<GCONST> 1.762090e+02
<MIXTURE> 2 1.352115e-01
<MEAN> 33
 6.263822e+01 1.503977e+02 1.109199e+02 1.356638e+02 1.747876e+02 1.762188e+02 4.434107e+01 1.349944e+02 1.369050e+02 1.020679e+02 1.478016e+02 1.193404e+00 1.756251e+02 1.638751e+02 1.594341e+02 6.624999e+01 1.653783e+02 1.073925e+02 7.729007e+01 1.411031e+02 1.688441e+02 1.608891e+02 1.129468e+02 1.605241e+02 2.583500e+01 8.034555e+01 9.807401e+01 7.607025e+00 3.731053e+00 3.422766e+00 2.697520e+00 2.137869e+00 3.414760e+00
<VARIANCE> 33
 2.080039e+03 2.034802e+02 4.600652e+01 1.561071e+01 3.037716e+01 8.502900e+00 2.232188e+03 2.062020e+01 5.741554e+02 4.016766e+02 6.882729e+02 1.458521e+00 7.969682e+00 7.239759e+01 3.038431e+01 7.662964e+02 1.029343e+02 1.169642e+03 6.482772e+02 5.110850e+02 1.910653e+01 1.485654e+02 8.996484e+02 1.887242e+02 2.754996e+02 1.007040e+03 4.631927e+02 1.986784e+00 9.732907e-01 2.842134e-01 1.592387e-01 1.509265e-01 7.160323e-01
<GCONST> 1.905603e+02
<MIXTURE> 3 1.352115e-01
<MEAN> 33
 6.263822e+01 1.503977e+02 1.109199e+02 1.356638e+02 1.747876e+02 1.762188e+02 4.434107e+01 1.349944e+02 1.369050e+02 1.020679e+02 1.478016e+02 1.193404e+00 1.756251e+02 1.638751e+02 1.594341e+02 6.624999e+01 1.653783e+02 1.073925e+02 7.729007e+01 1.411031e+02 1.688441e+02 1.608891e+02 1.129468e+02 1.605241e+02 2.583500e+01 8.034555e+01 9.807401e+01 7.607025e+00 3.731053e+00 3.422766e+00 2.697520e+00 2.137869e+00 3.414760e+00
<VARIANCE> 33
 2.080039e+03 2.034802e+02 4.600652e+01 1.561071e+01 3.037716e+01 8.502900e+00 2.232188e+03 2.062020e+01 5.741554e+02 4.016766e+02 6.882729e+02 1.458521e+00 7.969682e+00 7.239759e+01 3.038431e+01 7.662964e+02 1.029343e+02 1.169642e+03 6.482772e+02 5.110850e+02 1.910653e+01 1.485654e+02 8.996484e+02 1.887242e+02 2.754996e+02 1.007040e+03 4.631927e+02 1.986784e+00 9.732907e-01 2.842134e-01 1.592387e-01 1.509265e-01 7.160323e-01
<GCONST> 1.905603e+02
<MIXTURE> 4 3.230816e-01
<MEAN> 33
 9.394714e+01 1.389327e+02 1.182634e+02 1.418588e+02 9.343645e+01 1.739737e+02 7.707674e+01 7.200528e+01 1.051570e+02 1.037717e+02 1.578314e+02 7.342125e+00 1.423035e+02 1.139115e+02 1.595967e+02 8.939970e+01 8.468842e+01 7.380422e+01 7.869615e+01 1.263146e+02 1.684440e+02 1.346197e+02 8.200677e+01 1.078612e+02 7.500783e+01 8.196818e+01 9.028850e+01 4.102615e+00 3.329136e+00 3.110125e+00 3.025409e+00 3.909586e+00 5.177670e+00
<VARIANCE> 33
 3.901269e+03 5.513040e+02 2.020101e+02 2.841937e+02 3.539958e+03 1.759183e+01 2.859653e+03 2.698365e+03 2.509918e+03 1.926922e+03 4.659831e+02 2.195407e+02 9.048806e+02 1.227161e+03 2.940486e+01 2.793282e+03 2.340670e+03 2.763934e+03 1.896396e+03 1.455648e+03 1.054300e+02 4.730985e+02 1.521235e+03 2.080802e+03 2.450057e+03 2.087288e+03 2.228526e+03 2.447362e+00 1.939736e+00 1.173013e+00 5.680528e-01 1.724990e+00 3.401860e+00
<GCONST> 2.476275e+02
<STATE> 3
<NUMMIXES> 4
<MIXTURE> 1 3.789467e-01
<MEAN> 33
 2.704225e+01 1.516809e+02 1.108922e+02 1.353621e+02 1.739068e+02 1.755517e+02 7.619312e+00 1.365893e+02 1.435290e+02 8.954534e+01 1.073592e+02 1.924519e+00 1.761143e+02 1.623616e+02 1.595504e+02 2.959434e+01 1.655255e+02 1.364425e+02 7.788505e+01 1.195709e+02 1.735043e+02 1.637502e+02 9.911047e+01 1.254836e+02 5.719475e+01 8.486566e+01 8.898906e+01 5.108212e+00 5.521748e+00 3.244163e+00 3.034861e+00 2.296686e+00 4.161586e+00
<VARIANCE> 33
 2.394280e+02 3.940371e+02 7.086211e+01 9.838025e+00 3.037716e+01 1.382135e+01 2.822034e+01 2.062020e+01 3.466586e+01 3.929427e+02 3.847278e+02 1.836198e+00 7.586402e+00 1.452676e+01 4.542041e+01 3.071743e+01 5.903170e+01 1.001220e+02 3.113096e+02 1.512818e+02 1.779911e+01 1.220528e+02 2.450446e+02 9.846539e+02 9.547943e+02 3.340376e+03 1.869742e+02 7.187322e-01 1.123797e+00 3.557881e-01 1.444271e-01 1.128324e-01 6.654294e-01
<GCONST> 1.730376e+02
<MIXTURE> 2 2.428872e-01
<MEAN> 33
 2.888197e+01 1.502458e+02 1.156785e+02 1.352976e+02 1.700086e+02 1.752341e+02 1.545265e+01 1.361734e+02 1.510212e+02 8.990041e+01 1.138932e+02 7.363129e+00 1.703655e+02 1.628140e+02 1.589725e+02 3.443394e+01 1.663603e+02 1.430733e+02 8.053120e+01 1.277461e+02 1.682361e+02 1.526384e+02 1.100630e+02 1.085224e+02 7.164881e+01 1.131912e+02 1.095499e+02 6.016541e+00 4.482305e+00 3.267359e+00 2.612267e+00 2.517381e+00 3.560225e+00
<VARIANCE> 33
 4.400401e+02 5.825533e+02 2.382040e+02 7.316334e+01 3.172319e+01 1.425212e+01 1.141908e+02 2.062020e+01 1.453478e+02 1.060612e+03 7.321671e+02 1.604880e+02 5.970412e+01 8.316295e+01 4.657727e+01 1.532929e+02 1.040722e+02 4.086641e+02 7.047866e+02 4.592892e+02 1.967048e+02 1.608410e+02 1.164865e+03 1.491045e+03 1.685826e+03 3.493623e+03 5.069652e+02 2.211704e+00 2.103769e+00 1.091803e+00 3.956326e-01 3.991078e-01 1.898728e+00
<GCONST> 2.080649e+02
<MIXTURE> 3 3.229382e-02
<MEAN> 33
 2.198175e+01 1.657056e+02 1.277982e+02 1.303448e+02 1.414174e+02 1.777999e+02 2.096775e+01 1.112571e+02 1.322248e+02 7.796757e+01 1.278295e+02 6.537562e+00 1.672133e+02 1.129930e+02 1.564007e+02 3.073645e+01 1.083664e+02 7.767047e+01 6.552499e+01 1.422471e+02 1.733012e+02 1.501219e+02 4.752038e+01 1.069926e+02 5.545756e+01 1.142655e+02 7.741541e+01 3.715122e+00 5.150383e+00 2.632385e+00 3.233005e+00 4.139792e+00 7.024493e+00
<VARIANCE> 33
 1.960249e+02 1.419667e+02 5.332269e+01 2.215037e+01 3.139698e+02 4.219451e+00 1.065799e+02 4.062545e+02 5.166094e+02 4.367218e+02 6.007291e+02 2.193900e+01 9.463091e+01 1.414596e+02 1.307482e+01 7.538435e+01 3.314855e+02 4.879245e+02 1.665509e+02 2.635968e+02 2.073401e+01 4.739719e+01 1.090674e+02 4.393566e+02 1.144986e+03 6.958480e+02 2.600799e+02 5.277122e-01 7.030961e-01 1.524098e-01 3.115829e-02 2.068371e-01 9.887543e-01
<GCONST> 1.856030e+02
<MIXTURE> 4 3.458718e-01
<MEAN> 33
 1.706954e+02 1.383730e+02 1.148014e+02 1.529865e+02 3.044384e+01 1.753834e+02 1.335405e+02 1.939437e+01 1.491187e+02 1.555564e+02 1.704190e+02 4.585032e+00 1.240805e+02 8.344637e+01 1.609504e+02 1.671072e+02 3.531767e+01 1.348210e+02 8.437861e+01 1.501479e+02 1.700943e+02 1.307921e+02 7.640188e+01 1.106645e+02 8.640720e+01 7.251948e+01 1.044670e+02 3.852288e+00 2.782714e+00 2.601826e+00 3.121180e+00 4.804203e+00 5.902121e+00
<VARIANCE> 33
 3.902650e+01 5.335428e+01 1.228152e+02 3.431677e+02 7.089153e+02 1.645927e+01 3.430124e+01 3.228298e+02 1.263608e+02 7.299110e+01 7.124834e+01 6.342336e+01 6.866041e+02 4.535096e+02 6.089626e+01 9.834162e+01 2.774598e+02 3.512911e+02 5.777172e+02 2.204048e+02 6.364396e+01 4.041357e+02 4.590301e+02 2.215939e+03 2.935303e+03 2.150992e+03 3.448704e+02 1.449493e+00 3.778840e-01 2.973531e-01 6.805440e-01 1.752607e+00 2.009095e+00
<GCONST> 2.042989e+02
<STATE> 4
<NUMMIXES> 4
<MIXTURE> 1 4.060376e-01
<MEAN> 33
 1.733769e+02 1.380480e+02 1.090478e+02 1.370470e+02 1.750485e+02 1.762651e+02 1.350665e+02 1.349814e+02 8.995213e+01 1.610294e+02 1.738432e+02 1.085250e+00 1.761868e+02 1.628309e+02 1.624614e+02 1.655224e+02 1.682646e+02 1.392779e+01 1.069430e+02 1.552558e+02 1.693163e+02 1.628576e+02 1.050867e+02 1.557712e+02 8.606209e+01 7.801376e+01 1.598191e+02 5.289063e+00 2.691915e+00 2.818500e+00 2.780422e+00 2.279679e+00 5.271288e+00
<VARIANCE> 33
 3.902650e+01 2.697588e+01 4.388338e+01 1.809375e+01 3.037716e+01 8.759889e+00 2.822034e+01 2.062020e+01 2.319138e+01 7.169181e+01 2.393650e+01 6.910275e-01 7.274150e+00 2.822332e+01 3.589235e+01 8.227592e+01 5.678062e+01 1.117160e+02 8.953007e+02 2.074023e+02 2.246785e+01 1.036943e+02 4.605891e+02 2.636880e+02 9.309948e+02 8.744943e+02 2.059301e+02 3.087436e+00 7.578094e-01 3.218429e-01 3.916700e-01 2.514381e-01 2.219043e+00
<GCONST> 1.672542e+02
<MIXTURE> 2 1.806388e-01
<MEAN> 33
 1.703051e+02 1.410623e+02 1.130175e+02 1.366787e+02 1.709114e+02 1.747411e+02 1.333140e+02 1.359293e+02 9.075668e+01 1.555026e+02 1.668464e+02 2.894061e+00 1.705569e+02 1.619605e+02 1.624200e+02 1.604845e+02 1.638845e+02 2.189747e+01 1.007009e+02 1.411424e+02 1.695054e+02 1.483983e+02 1.148861e+02 1.312880e+02 7.104985e+01 1.098152e+02 1.510245e+02 5.027806e+00 3.958916e+00 2.661189e+00 2.630013e+00 3.223159e+00 4.478042e+00
<VARIANCE> 33
 7.396683e+01 7.084013e+01 1.126590e+02 6.197444e+01 4.245220e+01 1.367503e+01 3.863187e+01 2.062020e+01 6.121492e+01 1.762024e+02 8.563736e+01 1.072280e+01 6.767078e+01 1.175369e+02 2.544182e+01 2.603546e+02 1.333908e+02 2.455689e+02 1.700781e+03 3.557202e+02 3.898589e+01 2.939182e+02 1.471203e+03 1.787519e+03 1.793817e+03 2.003339e+03 4.489043e+02 4.340150e+00 3.267584e+00 3.875234e-01 2.812557e-01 1.936514e+00 3.103674e+00
<GCONST> 1.962669e+02
<MIXTURE> 3 1.806388e-01
<MEAN> 33
 1.703051e+02 1.410623e+02 1.130175e+02 1.366787e+02 1.709114e+02 1.747411e+02 1.333140e+02 1.359293e+02 9.075668e+01 1.555026e+02 1.668464e+02 2.894061e+00 1.705569e+02 1.619605e+02 1.624200e+02 1.604845e+02 1.638845e+02 2.189747e+01 1.007009e+02 1.411424e+02 1.695054e+02 1.483983e+02 1.148861e+02 1.312880e+02 7.104985e+01 1.098152e+02 1.510245e+02 5.027806e+00 3.958916e+00 2.661189e+00 2.630013e+00 3.223159e+00 4.478042e+00
<VARIANCE> 33
 7.396683e+01 7.084013e+01 1.126590e+02 6.197444e+01 4.245220e+01 1.367503e+01 3.863187e+01 2.062020e+01 6.121492e+01 1.762024e+02 8.563736e+01 1.072280e+01 6.767078e+01 1.175369e+02 2.544182e+01 2.603546e+02 1.333908e+02 2.455689e+02 1.700781e+03 3.557202e+02 3.898589e+01 2.939182e+02 1.471203e+03 1.787519e+03 1.793817e+03 2.003339e+03 4.489043e+02 4.340150e+00 3.267584e+00 3.875234e-01 2.812557e-01 1.936514e+00 3.103674e+00
<GCONST> 1.962669e+02
<MIXTURE> 4 2.326837e-01
<MEAN> 33
 1.281906e+02 1.480129e+02 1.163006e+02 1.366500e+02 1.595741e+02 1.749936e+02 1.083642e+02 1.303647e+02 1.168764e+02 1.398268e+02 1.573356e+02 3.068565e+00 1.717188e+02 1.511208e+02 1.605475e+02 1.146781e+02 1.477551e+02 6.569785e+01 9.305829e+01 1.418898e+02 1.714639e+02 1.549808e+02 9.438155e+01 1.363606e+02 4.764875e+01 8.756220e+01 1.093345e+02 6.997662e+00 3.288110e+00 2.910551e+00 2.692781e+00 2.723258e+00 4.841993e+00
<VARIANCE> 33
 1.683269e+03 2.350338e+02 1.063630e+02 8.379568e+01 5.896208e+02 1.367302e+01 1.277856e+03 3.458475e+02 1.178924e+03 5.938973e+02 3.159249e+02 1.505123e+01 8.358209e+01 3.811207e+02 3.748762e+01 1.281036e+03 8.582858e+02 8.887294e+02 1.344965e+03 5.242363e+02 2.650858e+01 2.693608e+02 8.641531e+02 1.045323e+03 1.257742e+03 2.379740e+03 1.003042e+03 5.346483e+00 1.227886e+00 3.312928e-01 2.240015e-01 1.197125e+00 4.821362e+00
<GCONST> 2.201563e+02
<TRANSP> 5
 0.000000e+00 1.000000e+00 0.000000e+00 0.000000e+00 0.000000e+00
 0.000000e+00 8.747019e-01 1.252981e-01 0.000000e+00 0.000000e+00
 0.000000e+00 0.000000e+00 9.601396e-01 3.986043e-02 0.000000e+00
 0.000000e+00 0.000000e+00 0.000000e+00 9.388508e-01 6.114927e-02
 0.000000e+00 0.000000e+00 0.000000e+00 0.000000e+00 0.000000e+00
<ENDHMM>
~h "CN"
<BEGINHMM>
<NUMSTATES> 5
<STATE> 2
<NUMMIXES> 4
<MIXTURE> 1 3.811991e-01
<MEAN> 33
 1.731155e+02 1.376597e+02 1.068781e+02 1.393045e+02 1.744382e+02 1.760802e+02 1.350464e+02 1.342877e+02 9.066590e+01 1.557725e+02 1.759754e+02 1.472585e+00 1.748993e+02 1.596213e+02 1.627527e+02 1.630633e+02 1.665181e+02 9.804236e+00 9.364294e+01 1.534147e+02 1.702477e+02 1.617779e+02 1.033617e+02 1.550583e+02 7.300668e+01 8.558025e+01 1.530122e+02 4.778566e+00 2.746331e+00 2.589935e+00 2.450264e+00 2.362803e+00 4.710281e+00
<VARIANCE> 33
 3.902650e+01 2.376989e+01 6.711395e+01 3.311179e+01 3.037716e+01 1.186043e+01 2.822034e+01 2.062020e+01 2.870617e+01 7.448495e+01 2.154680e+01 3.118127e+00 1.602889e+01 7.640377e+01 4.503133e+01 1.040743e+02 9.937753e+01 8.154233e+01 7.511229e+02 2.194153e+02 2.476635e+01 1.454236e+02 6.137007e+02 3.820964e+02 1.486514e+03 1.486786e+03 3.234288e+02 4.418837e+00 1.130957e+00 3.275564e-01 3.481093e-01 6.797340e-01 3.446845e+00
<GCONST> 1.771236e+02
<MIXTURE> 2 1.756679e-01
<MEAN> 33
 1.012548e+02 1.398165e+02 1.076532e+02 1.437848e+02 9.383776e+01 1.734641e+02 8.972280e+01 7.299449e+01 1.018114e+02 1.051234e+02 1.684513e+02 1.532391e+00 1.700101e+02 1.022646e+02 1.640523e+02 9.335600e+01 9.186308e+01 1.750755e+01 6.990359e+01 1.454138e+02 1.706233e+02 1.600352e+02 5.970143e+01 1.498344e+02 5.136194e+01 4.146305e+01 4.521199e+01 4.399906e+00 3.136186e+00 3.091655e+00 2.992048e+00 3.760655e+00 4.396953e+00
<VARIANCE> 33
 1.229934e+03 4.707995e+01 7.755853e+01 8.049403e+01 1.818236e+03 2.647452e+01 2.322206e+03 2.325416e+03 2.498285e+03 4.162245e+02 9.842623e+01 2.703256e+00 6.284704e+01 5.370636e+02 3.605635e+01 6.091812e+02 8.001121e+02 5.943952e+02 8.389557e+02 5.529697e+02 2.956413e+01 2.274367e+02 4.525090e+02 8.693473e+02 1.666438e+03 1.154609e+03 1.366105e+03 2.117911e+00 6.678087e-01 2.629853e-01 2.972796e-01 1.702772e+00 2.112932e+00
<GCONST> 2.150855e+02
<MIXTURE> 3 1.756679e-01
<MEAN> 33
 1.012548e+02 1.398165e+02 1.076532e+02 1.437848e+02 9.383776e+01 1.734641e+02 8.972280e+01 7.299449e+01 1.018114e+02 1.051234e+02 1.684513e+02 1.532391e+00 1.700101e+02 1.022646e+02 1.640523e+02 9.335600e+01 9.186308e+01 1.750755e+01 6.990359e+01 1.454138e+02 1.706233e+02 1.600352e+02 5.970143e+01 1.498344e+02 5.136194e+01 4.146305e+01 4.521199e+01 4.399906e+00 3.136186e+00 3.091655e+00 2.992048e+00 3.760655e+00 4.396953e+00
<VARIANCE> 33
 1.229934e+03 4.707995e+01 7.755853e+01 8.049403e+01 1.818236e+03 2.647452e+01 2.322206e+03 2.325416e+03 2.498285e+03 4.162245e+02 9.842623e+01 2.703256e+00 6.284704e+01 5.370636e+02 3.605635e+01 6.091812e+02 8.001121e+02 5.943952e+02 8.389557e+02 5.529697e+02 2.956413e+01 2.274367e+02 4.525090e+02 8.693473e+02 1.666438e+03 1.154609e+03 1.366105e+03 2.117911e+00 6.678087e-01 2.629853e-01 2.972796e-01 1.702772e+00 2.112932e+00
<GCONST> 2.150855e+02
<MIXTURE> 4 2.674651e-01
<MEAN> 33
 5.900289e+01 1.229797e+02 1.200931e+02 1.272532e+02 6.821304e+01 1.665687e+02 1.986425e+01 3.083319e+01 4.606379e+01 8.273942e+01 1.368981e+02 1.104275e+01 1.426211e+02 1.067476e+02 1.685711e+02 4.444289e+01 5.187081e+01 1.256147e+01 1.072087e+02 9.730570e+01 1.640947e+02 1.124186e+02 9.149168e+01 9.622144e+01 1.072785e+02 1.068760e+02 4.315164e+01 3.936298e+00 3.268458e+00 3.451824e+00 3.373906e+00 3.475162e+00 3.602042e+00
<VARIANCE> 33
 7.466714e+02 3.853237e+02 2.062619e+02 5.252297e+02 9.152722e+02 6.401897e+01 2.232868e+02 6.758318e+02 8.158480e+02 8.956758e+02 3.343819e+02 5.012882e+02 4.213972e+02 1.465314e+03 7.672756e+01 1.622833e+02 3.456547e+02 2.492518e+02 6.424756e+02 4.717498e+02 2.118993e+02 3.775919e+02 3.257867e+02 3.123224e+03 2.110733e+03 2.462798e+03 7.436274e+02 8.157337e-01 2.063995e+00 7.438227e-01 4.562376e-01 1.137807e+00 9.499784e-01
<GCONST> 2.267116e+02
<STATE> 3
<NUMMIXES> 4
<MIXTURE> 1 2.772273e-01
<MEAN> 33
 6.410378e+01 1.322354e+02 1.113846e+02 1.392775e+02 5.017935e+01 1.739672e+02 2.721438e+01 1.838895e+01 3.114587e+01 8.645370e+01 1.549086e+02 2.354794e+00 1.565800e+02 8.496229e+01 1.625998e+02 5.906026e+01 5.648177e+01 8.333278e+00 1.087135e+02 1.064550e+02 1.720920e+02 1.286792e+02 9.315580e+01 1.104323e+02 7.324410e+01 7.725695e+01 2.121392e+01 3.785718e+00 2.944098e+00 3.618907e+00 3.359365e+00 3.229267e+00 3.799168e+00
<VARIANCE> 33
 2.392931e+02 1.025694e+02 1.448230e+02 1.074561e+02 3.629926e+02 2.494219e+01 3.458787e+02 2.918047e+02 5.569799e+02 5.002631e+02 7.823818e+01 7.279741e+00 9.828974e+01 3.660031e+02 6.317115e+01 2.252210e+02 1.406522e+02 7.290145e+01 4.712981e+02 4.283923e+02 3.616346e+01 4.242071e+02 5.235761e+02 2.782241e+03 2.179417e+03 2.284694e+03 4.009903e+02 5.309744e-01 1.269435e+00 5.180752e-01 5.653794e-01 1.614793e+00 5.423205e-01
<GCONST> 2.049205e+02
<MIXTURE> 2 2.668448e-01
<MEAN> 33
 4.826167e+01 1.348551e+02 1.151951e+02 1.368099e+02 4.521315e+01 1.754814e+02 6.662145e+00 5.082757e+00 6.857481e+00 7.454902e+01 1.573327e+02 1.536394e+00 1.581922e+02 7.610727e+01 1.591754e+02 5.070382e+01 5.029339e+01 2.481428e+00 9.742949e+01 1.209309e+02 1.736825e+02 1.321441e+02 8.764590e+01 1.349804e+02 4.525325e+01 4.533606e+01 5.575991e+00 3.494228e+00 3.515635e+00 3.971631e+00 3.830326e+00 3.706581e+00 3.456801e+00
<VARIANCE> 33
 6.345634e+01 4.454952e+01 5.944661e+01 4.986598e+01 5.790762e+01 1.677966e+01 2.822034e+01 2.062020e+01 2.973388e+01 7.486837e+01 6.458097e+01 3.359630e+00 8.019262e+01 7.572783e+01 5.048194e+01 3.257495e+01 2.833831e+01 3.148238e+01 4.034836e+02 4.294156e+02 2.089600e+01 4.101073e+02 3.561584e+02 1.034070e+03 1.014540e+03 1.036802e+03 2.158001e+01 9.911871e-02 5.359375e-01 2.686044e-01 1.595126e-01 7.428859e-01 1.228204e-01
<GCONST> 1.682282e+02
<MIXTURE> 3 2.668448e-01
<MEAN> 33
 4.826167e+01 1.348551e+02 1.151951e+02 1.368099e+02 4.521315e+01 1.754814e+02 6.662145e+00 5.082757e+00 6.857481e+00 7.454902e+01 1.573327e+02 1.536394e+00 1.581922e+02 7.610727e+01 1.591754e+02 5.070382e+01 5.029339e+01 2.481428e+00 9.742949e+01 1.209309e+02 1.736825e+02 1.321441e+02 8.764590e+01 1.349804e+02 4.525325e+01 4.533606e+01 5.575991e+00 3.494228e+00 3.515635e+00 3.971631e+00 3.830326e+00 3.706581e+00 3.456801e+00
<VARIANCE> 33
 6.345634e+01 4.454952e+01 5.944661e+01 4.986598e+01 5.790762e+01 1.677966e+01 2.822034e+01 2.062020e+01 2.973388e+01 7.486837e+01 6.458097e+01 3.359630e+00 8.019262e+01 7.572783e+01 5.048194e+01 3.257495e+01 2.833831e+01 3.148238e+01 4.034836e+02 4.294156e+02 2.089600e+01 4.101073e+02 3.561584e+02 1.034070e+03 1.014540e+03 1.036802e+03 2.158001e+01 9.911871e-02 5.359375e-01 2.686044e-01 1.595126e-01 7.428859e-01 1.228204e-01
<GCONST> 1.682282e+02
<MIXTURE> 4 1.890815e-01
<MEAN> 33
 3.906722e+01 1.385063e+02 1.006073e+02 1.402374e+02 2.670653e+01 1.739272e+02 1.014738e+01 7.590292e+00 7.475871e+00 5.936285e+01 1.662278e+02 1.105785e+00 1.692673e+02 5.865209e+01 1.674915e+02 4.218710e+01 4.120519e+01 3.952774e+00 1.089878e+02 1.158282e+02 1.661834e+02 1.308058e+02 1.013789e+02 4.927161e+01 1.238972e+02 1.217189e+02 8.787954e+00 3.402701e+00 3.241393e+00 3.541466e+00 3.478281e+00 3.226514e+00 3.260767e+00
<VARIANCE> 33
 1.212530e+02 1.018182e+02 5.071389e+01 6.259970e+01 9.551701e+01 1.519582e+01 4.351608e+01 2.611662e+01 2.527947e+01 4.941375e+01 7.812880e+01 1.205251e+00 4.180599e+01 4.845584e+01 3.458799e+01 3.941174e+01 2.601832e+01 3.148238e+01 3.778069e+02 5.258167e+02 1.190926e+02 2.497413e+02 2.733587e+02 1.570755e+03 1.571899e+03 1.425224e+03 4.436758e+01 1.058807e-01 4.101904e-01 1.983733e-01 1.415814e-01 4.481913e-01 8.939908e-02
<GCONST> 1.696230e+02
<STATE> 4
<NUMMIXES> 4
<MIXTURE> 1 4.653798e-01
<MEAN> 33
 1.726801e+02 1.370287e+02 1.128795e+02 1.374908e+02 1.727070e+02 1.756684e+02 1.347068e+02 1.342360e+02 9.105722e+01 1.625943e+02 1.745532e+02 1.652395e+00 1.744047e+02 1.644294e+02 1.601894e+02 1.655613e+02 1.654484e+02 9.222937e+00 1.151332e+02 1.503692e+02 1.712670e+02 1.560815e+02 1.232855e+02 1.499388e+02 7.826828e+01 9.728385e+01 1.534580e+02 5.004617e+00 2.859549e+00 2.707556e+00 2.583037e+00 2.745608e+00 4.878717e+00
<VARIANCE> 33
 3.902650e+01 2.516757e+01 5.903808e+01 3.292237e+01 3.037716e+01 1.402912e+01 2.822034e+01 2.062020e+01 5.348109e+01 1.273494e+02 2.196027e+01 2.471652e+00 2.034575e+01 1.194030e+02 4.514672e+01 8.597510e+01 9.162136e+01 5.387321e+01 1.527938e+03 2.903877e+02 2.363044e+01 2.271330e+02 1.436288e+03 8.508128e+02 1.434538e+03 1.799160e+03 2.949426e+02 2.819299e+00 1.585680e+00 2.435336e-01 1.979090e-01 1.523237e+00 2.225191e+00
<GCONST> 1.806604e+02
<MIXTURE> 2 1.205527e-01
<MEAN> 33
 1.518879e+02 1.439885e+02 1.201393e+02 1.427921e+02 1.614002e+02 1.757651e+02 1.052042e+02 1.115457e+02 1.370993e+02 1.283034e+02 1.695785e+02 2.459200e+00 1.674496e+02 1.321576e+02 1.641709e+02 1.135859e+02 1.253016e+02 1.768137e+01 1.198299e+02 1.512780e+02 1.709054e+02 1.485015e+02 1.096651e+02 1.256528e+02 6.084280e+01 1.214749e+02 1.152912e+02 7.406319e+00 2.797124e+00 2.354224e+00 2.214899e+00 2.802845e+00 6.880642e+00
<VARIANCE> 33
 9.825751e+02 4.776785e+01 6.863335e+01 6.433675e+01 3.207980e+02 1.186493e+01 4.104099e+02 2.121328e+02 6.507466e+02 1.041096e+03 5.644607e+01 4.459498e+00 7.482225e+01 9.886262e+02 1.679944e+01 7.925477e+02 7.174277e+02 1.898735e+02 1.558078e+03 2.953961e+02 4.225907e+01 2.346319e+02 1.941640e+03 2.007219e+03 1.834201e+03 1.415187e+03 6.282217e+02 1.115744e+00 8.571203e-01 1.023810e-01 5.645918e-02 4.538226e-01 1.344625e+00
<GCONST> 2.038402e+02
<MIXTURE> 3 1.853630e-01
<MEAN> 33
 1.598535e+02 1.344841e+02 1.119750e+02 1.360511e+02 1.600646e+02 1.749005e+02 1.456142e+02 1.418596e+02 7.244872e+01 1.554513e+02 1.680096e+02 1.189400e+00 1.662597e+02 1.585894e+02 1.615294e+02 1.360059e+02 1.374204e+02 5.491349e+00 1.166554e+02 1.331325e+02 1.734176e+02 1.415182e+02 1.153599e+02 1.343170e+02 5.340389e+01 7.448510e+01 7.841720e+01 5.676572e+00 2.370895e+00 2.947330e+00 2.922841e+00 2.532841e+00 5.504613e+00
<VARIANCE> 33
 1.379276e+02 3.875092e+01 5.268333e+01 3.803295e+01 1.420291e+02 1.711818e+01 1.020061e+02 6.334003e+01 2.521993e+02 1.884777e+02 4.708155e+01 8.886250e-01 4.971463e+01 1.701243e+02 5.806010e+01 1.579967e+02 1.679835e+02 3.148238e+01 1.231377e+03 7.816675e+02 2.536202e+01 4.351909e+02 8.190247e+02 1.471433e+03 1.628166e+03 1.968390e+03 8.172603e+02 8.986386e-01 2.139072e-01 1.412262e-01 1.051150e-01 2.290992e-01 8.601586e-01
<GCONST> 1.859407e+02
<MIXTURE> 4 2.287039e-01
<MEAN> 33
 1.113745e+02 1.326016e+02 1.131675e+02 1.356123e+02 1.166124e+02 1.737226e+02 1.110676e+02 1.106753e+02 6.646883e+01 1.287594e+02 1.614813e+02 2.032335e+00 1.619973e+02 1.339821e+02 1.640181e+02 9.718297e+01 1.002608e+02 9.755326e+00 1.200315e+02 1.131972e+02 1.725721e+02 1.309647e+02 1.095737e+02 1.188460e+02 7.226994e+01 8.364903e+01 2.398379e+01 4.460361e+00 2.905293e+00 3.454120e+00 3.418894e+00 3.274234e+00 4.518363e+00
<VARIANCE> 33
 1.204541e+03 9.491813e+01 8.277302e+01 7.716664e+01 1.093017e+03 2.217263e+01 3.038180e+03 2.535320e+03 2.660957e+03 6.043494e+02 9.802240e+01 7.472079e+00 7.856935e+01 5.657072e+02 6.798373e+01 4.465129e+02 5.219128e+02 4.007354e+02 1.069518e+03 6.874088e+02 3.621180e+01 4.584010e+02 8.221599e+02 2.113865e+03 2.184474e+03 2.293707e+03 4.453802e+02 1.129913e+00 4.762017e-01 2.516627e-01 2.404564e-01 7.070568e-01 1.324854e+00
<GCONST> 2.168013e+02
<TRANSP> 5
 0.000000e+00 1.000000e+00 0.000000e+00 0.000000e+00 0.000000e+00
 0.000000e+00 9.181157e-01 8.188432e-02 0.000000e+00 0.000000e+00
 0.000000e+00 0.000000e+00 9.634777e-01 3.652229e-02 0.000000e+00
 0.000000e+00 0.000000e+00 0.000000e+00 9.217336e-01 7.826641e-02
 0.000000e+00 0.000000e+00 0.000000e+00 0.000000e+00 0.000000e+00
<ENDHMM>
~h "CP"
<BEGINHMM>
<NUMSTATES> 5
<STATE> 2
<NUMMIXES> 4
<MIXTURE> 1 3.242462e-01
<MEAN> 33
 1.735591e+02 1.368832e+02 1.097771e+02 1.373973e+02 1.741357e+02 1.755837e+02 1.343819e+02 1.337861e+02 9.183205e+01 1.566121e+02 1.749367e+02 1.731143e+00 1.744492e+02 1.596323e+02 1.629395e+02 1.627547e+02 1.633135e+02 8.606537e+00 9.662103e+01 1.509064e+02 1.699957e+02 1.595455e+02 1.067293e+02 1.543068e+02 7.731829e+01 8.459013e+01 1.491534e+02 5.305563e+00 2.807960e+00 2.700310e+00 2.597788e+00 2.562725e+00 5.256911e+00
<VARIANCE> 33
 3.902650e+01 3.263526e+01 5.155286e+01 2.748021e+01 3.037716e+01 1.515703e+01 2.822034e+01 2.062020e+01 5.322245e+01 1.192516e+02 2.108447e+01 3.436891e+00 1.880345e+01 9.343564e+01 3.828687e+01 1.046840e+02 9.899261e+01 5.255435e+01 1.205230e+03 2.936500e+02 2.231442e+01 1.953684e+02 8.986733e+02 4.861295e+02 1.325622e+03 1.431874e+03 3.213392e+02 3.475595e+00 1.353437e+00 2.376750e-01 1.726962e-01 1.042919e+00 3.107307e+00
<GCONST> 1.788215e+02
<MIXTURE> 2 2.109938e-01
<MEAN> 33
 1.683317e+02 1.470522e+02 1.043667e+02 1.460501e+02 1.671961e+02 1.720258e+02 1.169598e+02 1.169095e+02 1.258211e+02 1.375437e+02 1.665996e+02 2.145556e+00 1.680279e+02 1.376093e+02 1.665463e+02 1.349175e+02 1.323380e+02 1.655177e+01 1.010892e+02 1.441835e+02 1.700130e+02 1.465491e+02 9.934294e+01 1.018543e+02 7.584666e+01 8.811574e+01 1.225994e+02 6.764949e+00 2.680769e+00 2.298787e+00 2.331097e+00 2.750797e+00 6.738600e+00
<VARIANCE> 33
 8.495365e+01 1.123541e+02 7.880673e+01 1.061958e+02 9.449812e+01 3.517258e+01 1.894275e+02 1.859768e+02 6.235394e+02 4.842398e+02 1.057148e+02 8.486189e+00 8.191716e+01 4.805057e+02 5.968844e+01 6.270093e+02 5.274739e+02 1.939896e+02 2.238099e+03 3.415674e+02 5.092607e+01 3.392589e+02 1.807825e+03 2.969375e+03 2.831875e+03 2.454954e+03 8.286457e+02 2.534666e+00 8.360770e-01 1.246424e-01 1.512032e-01 8.978626e-01 2.662925e+00
<GCONST> 2.084139e+02
<MIXTURE> 3 2.109938e-01
<MEAN> 33
 1.683317e+02 1.470522e+02 1.043667e+02 1.460501e+02 1.671961e+02 1.720258e+02 1.169598e+02 1.169095e+02 1.258211e+02 1.375437e+02 1.665996e+02 2.145556e+00 1.680279e+02 1.376093e+02 1.665463e+02 1.349175e+02 1.323380e+02 1.655177e+01 1.010892e+02 1.441835e+02 1.700130e+02 1.465491e+02 9.934294e+01 1.018543e+02 7.584666e+01 8.811574e+01 1.225994e+02 6.764949e+00 2.680769e+00 2.298787e+00 2.331097e+00 2.750797e+00 6.738600e+00
<VARIANCE> 33
 8.495365e+01 1.123541e+02 7.880673e+01 1.061958e+02 9.449812e+01 3.517258e+01 1.894275e+02 1.859768e+02 6.235394e+02 4.842398e+02 1.057148e+02 8.486189e+00 8.191716e+01 4.805057e+02 5.968844e+01 6.270093e+02 5.274739e+02 1.939896e+02 2.238099e+03 3.415674e+02 5.092607e+01 3.392589e+02 1.807825e+03 2.969375e+03 2.831875e+03 2.454954e+03 8.286457e+02 2.534666e+00 8.360770e-01 1.246424e-01 1.512032e-01 8.978626e-01 2.662925e+00
<GCONST> 2.084139e+02
<MIXTURE> 4 2.537654e-01
<MEAN> 33
 1.177967e+02 1.409103e+02 1.102900e+02 1.446277e+02 1.154374e+02 1.724601e+02 9.471149e+01 8.925696e+01 1.241528e+02 1.027484e+02 1.678298e+02 2.677706e+00 1.655059e+02 1.007752e+02 1.648850e+02 9.477955e+01 8.685297e+01 2.760507e+01 7.626318e+01 1.356928e+02 1.700114e+02 1.478805e+02 8.495142e+01 1.267307e+02 5.873938e+01 7.091352e+01 9.060754e+01 5.783927e+00 3.170038e+00 2.771408e+00 2.689394e+00 3.416714e+00 5.817707e+00
<VARIANCE> 33
 2.005112e+03 2.005434e+02 7.270401e+01 2.174617e+02 2.463837e+03 3.964468e+01 1.557624e+03 1.165068e+03 2.049637e+03 8.809888e+02 1.048586e+02 7.074264e+00 1.413790e+02 1.025538e+03 6.715833e+01 1.297706e+03 1.189968e+03 1.754854e+03 1.992176e+03 9.463829e+02 4.286232e+01 5.427850e+02 1.595641e+03 2.521442e+03 2.568560e+03 1.839758e+03 1.778832e+03 3.016725e+00 1.777346e+00 7.602728e-01 5.483384e-01 1.485007e+00 3.467883e+00
<GCONST> 2.329584e+02
<STATE> 3
<NUMMIXES> 4
<MIXTURE> 1 4.822549e-01
<MEAN> 33
 1.547966e+02 1.390593e+02 1.162242e+02 1.388608e+02 1.558932e+02 1.756484e+02 1.272802e+02 1.236140e+02 1.091058e+02 1.280017e+02 1.744513e+02 2.648987e+00 1.749189e+02 1.259078e+02 1.628343e+02 1.300187e+02 1.292670e+02 8.183664e+00 5.477327e+01 1.566091e+02 1.643962e+02 1.560419e+02 5.596007e+01 1.578593e+02 3.941070e+01 6.336954e+01 1.016044e+02 6.280430e+00 3.201199e+00 2.863004e+00 2.735158e+00 3.331223e+00 6.422918e+00
<VARIANCE> 33
 1.595170e+02 2.278856e+01 1.069277e+02 3.488385e+01 1.664553e+02 1.667394e+01 1.052706e+02 8.108620e+01 2.902202e+02 1.333116e+02 1.755352e+01 6.246751e+00 2.081997e+01 1.481760e+02 3.422962e+01 2.227105e+02 2.640738e+02 6.372536e+01 4.365335e+02 1.666562e+02 1.796198e+01 1.546971e+02 3.500075e+02 3.009627e+02 6.039604e+02 5.434517e+02 4.615042e+02 8.706408e-01 5.184010e-01 7.450593e-02 8.443873e-02 7.920574e-01 6.857668e-01
<GCONST> 1.790688e+02
<MIXTURE> 2 1.214450e-01
<MEAN> 33
 1.125493e+02 1.531295e+02 1.232738e+02 1.442098e+02 1.287321e+02 1.751317e+02 1.024965e+02 1.007200e+02 1.517407e+02 1.144501e+02 1.713318e+02 5.362709e+00 1.682257e+02 1.153408e+02 1.550894e+02 9.836066e+01 9.762915e+01 6.824856e+00 5.955431e+01 1.689673e+02 1.660642e+02 1.668453e+02 6.601436e+01 1.564378e+02 2.939878e+01 5.940781e+01 8.255698e+01 5.918512e+00 4.000936e+00 2.862611e+00 2.971662e+00 3.651822e+00 5.686405e+00
<VARIANCE> 33
 3.000622e+02 1.446021e+02 6.231615e+01 7.917036e+01 3.303199e+02 1.755907e+01 2.140081e+02 1.292690e+02 3.154881e+02 1.379789e+02 4.226700e+01 2.622410e+01 6.614922e+01 1.294254e+02 3.688272e+01 1.193250e+02 1.293539e+02 3.148238e+01 1.695969e+02 8.003648e+01 1.696251e+01 1.105307e+02 3.203281e+02 3.072323e+02 6.195555e+02 8.944309e+02 2.727522e+02 3.713731e-01 4.116490e-01 1.234934e-01 9.498762e-02 4.521894e-01 4.747533e-01
<GCONST> 1.816943e+02
<MIXTURE> 3 1.214450e-01
<MEAN> 33
 1.125493e+02 1.531295e+02 1.232738e+02 1.442098e+02 1.287321e+02 1.751317e+02 1.024965e+02 1.007200e+02 1.517407e+02 1.144501e+02 1.713318e+02 5.362709e+00 1.682257e+02 1.153408e+02 1.550894e+02 9.836066e+01 9.762915e+01 6.824856e+00 5.955431e+01 1.689673e+02 1.660642e+02 1.668453e+02 6.601436e+01 1.564378e+02 2.939878e+01 5.940781e+01 8.255698e+01 5.918512e+00 4.000936e+00 2.862611e+00 2.971662e+00 3.651822e+00 5.686405e+00
<VARIANCE> 33
 3.000622e+02 1.446021e+02 6.231615e+01 7.917036e+01 3.303199e+02 1.755907e+01 2.140081e+02 1.292690e+02 3.154881e+02 1.379789e+02 4.226700e+01 2.622410e+01 6.614922e+01 1.294254e+02 3.688272e+01 1.193250e+02 1.293539e+02 3.148238e+01 1.695969e+02 8.003648e+01 1.696251e+01 1.105307e+02 3.203281e+02 3.072323e+02 6.195555e+02 8.944309e+02 2.727522e+02 3.713731e-01 4.116490e-01 1.234934e-01 9.498762e-02 4.521894e-01 4.747533e-01
<GCONST> 1.816943e+02
<MIXTURE> 4 2.748541e-01
<MEAN> 33
 1.460526e+02 1.392774e+02 1.126127e+02 1.400281e+02 1.556273e+02 1.760276e+02 8.845410e+01 9.172379e+01 1.563290e+02 9.960790e+01 1.729341e+02 1.264109e+00 1.747134e+02 9.937737e+01 1.619286e+02 8.654847e+01 8.989111e+01 9.818542e+00 5.309508e+01 1.477669e+02 1.659286e+02 1.462694e+02 5.143524e+01 1.593785e+02 5.819749e+01 3.640483e+01 9.442101e+01 6.041403e+00 3.140080e+00 2.727554e+00 2.646943e+00 3.108138e+00 6.393903e+00
<VARIANCE> 33
 6.411683e+02 3.912512e+01 1.946006e+01 1.609183e+01 3.813178e+02 8.240808e+00 2.619749e+02 1.996153e+02 2.247078e+02 1.908515e+02 2.967653e+01 1.020374e+00 1.665695e+01 1.282012e+02 3.462264e+01 3.063223e+02 2.369105e+02 7.257745e+01 4.071829e+02 1.644486e+02 1.868871e+01 1.246988e+02 1.795383e+02 1.790591e+02 4.084828e+02 3.358047e+02 2.770031e+02 1.041224e+00 3.591567e-01 6.950030e-02 6.153554e-02 2.159779e-01 7.369391e-01
<GCONST> 1.746296e+02
<STATE> 4
<NUMMIXES> 4
<MIXTURE> 1 3.962777e-01
<MEAN> 33
 1.750085e+02 1.377863e+02 1.066620e+02 1.391925e+02 1.755803e+02 1.757725e+02 1.346791e+02 1.340505e+02 9.127037e+01 1.628099e+02 1.765641e+02 1.153788e+00 1.756067e+02 1.659974e+02 1.623113e+02 1.687152e+02 1.709387e+02 7.437550e+00 1.087885e+02 1.599729e+02 1.679137e+02 1.625511e+02 1.205758e+02 1.599359e+02 7.939263e+01 9.122050e+01 1.628445e+02 4.992895e+00 2.438206e+00 2.859870e+00 2.596175e+00 2.093799e+00 4.508447e+00
<VARIANCE> 33
 3.902650e+01 1.189569e+01 4.640678e+01 2.160925e+01 3.037716e+01 1.096800e+01 2.822034e+01 2.062020e+01 1.886277e+01 4.245989e+01 7.471778e+00 6.314176e-01 6.206505e+00 4.227216e+01 2.052939e+01 3.725098e+01 4.371340e+01 3.165399e+01 6.207190e+02 1.051684e+02 1.747852e+01 8.051256e+01 6.659485e+02 2.333363e+02 6.394316e+02 6.917706e+02 1.272341e+02 2.555961e+00 3.311735e-01 2.457198e-01 2.114287e-01 2.292762e-01 2.495931e+00
<GCONST> 1.580079e+02
<MIXTURE> 2 1.467313e-01
<MEAN> 33
 1.722686e+02 1.338854e+02 1.131206e+02 1.367630e+02 1.715657e+02 1.747443e+02 1.377976e+02 1.353321e+02 8.687031e+01 1.603663e+02 1.701377e+02 2.359043e+00 1.707846e+02 1.614171e+02 1.618368e+02 1.587183e+02 1.621434e+02 1.261753e+01 1.101585e+02 1.532609e+02 1.640776e+02 1.617141e+02 1.117293e+02 1.618159e+02 6.604392e+01 8.811487e+01 1.432916e+02 5.868888e+00 2.436918e+00 3.257700e+00 2.716089e+00 2.432536e+00 5.507719e+00
<VARIANCE> 33
 3.954389e+01 3.083634e+01 8.211295e+01 2.612218e+01 3.877401e+01 1.777198e+01 2.822034e+01 2.062020e+01 5.593821e+01 1.138062e+02 2.913090e+01 5.504930e+00 3.241755e+01 1.112562e+02 3.775023e+01 1.442151e+02 1.474473e+02 1.140596e+02 1.443451e+03 4.916314e+02 2.302189e+01 1.692253e+02 1.043220e+03 2.206331e+02 6.473441e+02 7.077941e+02 5.108206e+02 2.097564e+00 7.148513e-01 4.527974e-01 2.165808e-01 3.720333e-01 2.129839e+00
<GCONST> 1.798959e+02
<MIXTURE> 3 1.467313e-01
<MEAN> 33
 1.722686e+02 1.338854e+02 1.131206e+02 1.367630e+02 1.715657e+02 1.747443e+02 1.377976e+02 1.353321e+02 8.687031e+01 1.603663e+02 1.701377e+02 2.359043e+00 1.707846e+02 1.614171e+02 1.618368e+02 1.587183e+02 1.621434e+02 1.261753e+01 1.101585e+02 1.532609e+02 1.640776e+02 1.617141e+02 1.117293e+02 1.618159e+02 6.604392e+01 8.811487e+01 1.432916e+02 5.868888e+00 2.436918e+00 3.257700e+00 2.716089e+00 2.432536e+00 5.507719e+00
<VARIANCE> 33
 3.954389e+01 3.083634e+01 8.211295e+01 2.612218e+01 3.877401e+01 1.777198e+01 2.822034e+01 2.062020e+01 5.593821e+01 1.138062e+02 2.913090e+01 5.504930e+00 3.241755e+01 1.112562e+02 3.775023e+01 1.442151e+02 1.474473e+02 1.140596e+02 1.443451e+03 4.916314e+02 2.302189e+01 1.692253e+02 1.043220e+03 2.206331e+02 6.473441e+02 7.077941e+02 5.108206e+02 2.097564e+00 7.148513e-01 4.527974e-01 2.165808e-01 3.720333e-01 2.129839e+00
<GCONST> 1.798959e+02
<MIXTURE> 4 3.102597e-01
<MEAN> 33
 1.595136e+02 1.491758e+02 9.804931e+01 1.507736e+02 1.559561e+02 1.727406e+02 1.328100e+02 1.307021e+02 9.631159e+01 1.348746e+02 1.760911e+02 1.092456e+00 1.726870e+02 1.299677e+02 1.693725e+02 1.434273e+02 1.414811e+02 9.419658e+00 6.522430e+01 1.592703e+02 1.681884e+02 1.590778e+02 6.669690e+01 1.407224e+02 5.357495e+01 6.119896e+01 1.126606e+02 5.185022e+00 2.857339e+00 2.181251e+00 2.140493e+00 2.974146e+00 5.975198e+00
<VARIANCE> 33
 1.721490e+02 4.653772e+01 2.671237e+01 5.480794e+01 2.498403e+02 1.650109e+01 6.313352e+01 8.629638e+01 1.634198e+02 1.222088e+02 7.680568e+00 1.481368e+00 1.852031e+01 2.545295e+02 1.287023e+01 1.886113e+02 2.478784e+02 1.520017e+02 2.555406e+02 1.345623e+02 2.302470e+01 1.206738e+02 4.269040e+02 5.460985e+02 7.754703e+02 1.113460e+03 5.486776e+02 4.363311e+00 8.541009e-01 1.043421e-01 1.550711e-01 1.942032e+00 2.936512e+00
<GCONST> 1.826214e+02
<TRANSP> 5
 0.000000e+00 1.000000e+00 0.000000e+00 0.000000e+00 0.000000e+00
 0.000000e+00 9.295246e-01 7.047542e-02 0.000000e+00 0.000000e+00
 0.000000e+00 0.000000e+00 9.389463e-01 6.105372e-02 0.000000e+00
 0.000000e+00 0.000000e+00 0.000000e+00 9.377955e-01 6.220454e-02
 0.000000e+00 0.000000e+00 0.000000e+00 0.000000e+00 0.000000e+00
<ENDHMM>
~h "CV"
<BEGINHMM>
<NUMSTATES> 5
<STATE> 2
<NUMMIXES> 4
<MIXTURE> 1 4.266213e-01
<MEAN> 33
 1.738762e+02 1.370750e+02 1.073772e+02 1.387292e+02 1.743554e+02 1.752562e+02 1.354172e+02 1.347419e+02 8.984088e+01 1.593214e+02 1.761937e+02 1.687695e+00 1.752514e+02 1.613940e+02 1.625869e+02 1.662074e+02 1.695296e+02 9.270455e+00 9.948202e+01 1.527601e+02 1.695386e+02 1.613133e+02 1.073340e+02 1.588073e+02 6.532487e+01 9.842599e+01 1.585010e+02 4.355312e+00 2.549601e+00 2.530371e+00 2.443015e+00 2.353745e+00 4.347253e+00
<VARIANCE> 33
 3.902650e+01 1.915561e+01 6.541168e+01 3.171471e+01 3.037716e+01 1.329356e+01 2.822034e+01 2.062020e+01 2.450991e+01 5.967208e+01 2.078891e+01 4.122307e+00 1.176492e+01 5.043708e+01 4.576180e+01 7.635622e+01 7.305321e+01 5.665701e+01 7.944520e+02 2.825468e+02 2.841289e+01 1.211505e+02 4.787717e+02 2.245817e+02 9.151116e+02 1.097137e+03 2.311383e+02 4.427251e+00 6.807354e-01 4.157962e-01 3.136337e-01 7.326624e-01 3.725922e+00
<GCONST> 1.732669e+02
<MIXTURE> 2 2.131456e-01
<MEAN> 33
 1.238732e+02 1.340597e+02 1.161466e+02 1.399882e+02 9.876806e+01 1.722412e+02 9.917184e+01 8.040787e+01 1.363004e+02 1.179139e+02 1.638848e+02 4.771651e+00 1.607398e+02 1.091257e+02 1.606727e+02 1.129412e+02 9.539283e+01 7.905649e+01 8.724614e+01 1.263672e+02 1.691437e+02 1.511061e+02 8.414464e+01 1.387264e+02 5.757251e+01 7.468350e+01 9.436361e+01 4.893081e+00 2.981754e+00 3.151563e+00 2.906149e+00 3.697887e+00 5.369138e+00
<VARIANCE> 33
 3.622513e+03 1.485924e+02 1.005521e+02 1.988607e+02 4.154743e+03 3.210099e+01 2.152227e+03 2.431726e+03 1.356884e+03 1.603956e+03 1.979076e+02 3.725512e+01 2.553967e+02 1.601571e+03 8.189018e+01 2.386871e+03 2.444107e+03 2.347928e+03 2.366878e+03 9.026801e+02 5.733253e+01 4.493586e+02 1.079921e+03 1.265952e+03 2.296934e+03 1.564368e+03 1.534884e+03 5.259576e+00 1.587035e+00 5.667341e-01 4.518658e-01 1.678737e+00 3.482165e+00
<GCONST> 2.390028e+02
<MIXTURE> 3 1.260038e-01
<MEAN> 33
 1.375983e+02 1.392859e+02 1.094858e+02 1.385917e+02 1.453966e+02 1.755362e+02 1.173372e+02 1.165658e+02 1.218169e+02 1.131478e+02 1.746500e+02 1.612784e+00 1.745947e+02 1.177376e+02 1.640124e+02 1.112955e+02 1.145640e+02 1.119938e+01 4.957401e+01 1.537912e+02 1.687059e+02 1.590610e+02 5.946529e+01 1.580466e+02 3.097407e+01 5.212067e+01 7.251318e+01 5.939101e+00 3.065039e+00 2.816637e+00 2.763290e+00 2.962957e+00 5.824949e+00
<VARIANCE> 33
 5.523953e+02 4.217621e+01 6.067998e+01 4.517523e+01 5.402769e+02 1.734585e+01 5.014559e+02 3.512180e+02 1.108224e+03 2.818606e+02 1.993390e+01 2.117949e+00 1.406787e+01 4.140288e+02 3.667442e+01 3.830381e+02 5.191774e+02 1.574075e+02 4.808564e+02 2.064191e+02 2.463728e+01 1.976731e+02 5.300274e+02 2.022609e+02 5.661833e+02 8.083923e+02 6.896124e+02 1.375547e+00 3.607746e-01 1.890576e-01 1.487447e-01 6.159504e-01 1.098673e+00
<GCONST> 1.922591e+02
<MIXTURE> 4 2.342290e-01
<MEAN> 33
 2.694964e+01 1.401832e+02 1.102070e+02 1.456748e+02 2.824473e+01 1.744923e+02 2.480736e+01 3.007662e+01 5.186066e+01 6.580968e+01 1.498608e+02 5.953172e+00 1.517017e+02 6.962427e+01 1.638305e+02 4.362455e+01 4.165769e+01 5.780400e+00 1.035738e+02 1.249381e+02 1.653446e+02 1.402943e+02 9.773822e+01 1.060697e+02 9.099500e+01 9.271284e+01 5.782592e+01 4.695557e+00 2.866521e+00 2.927563e+00 2.801670e+00 3.406887e+00 4.718534e+00
<VARIANCE> 33
 5.716181e+02 4.129133e+02 1.875855e+02 4.264990e+02 4.133629e+02 2.172230e+01 1.248443e+02 1.725075e+02 6.732208e+02 4.425011e+02 4.430771e+02 1.305638e+02 5.363477e+02 6.129437e+02 8.126228e+01 1.724468e+02 1.674418e+02 3.148238e+01 1.470111e+03 1.164773e+03 1.836758e+02 7.191210e+02 7.366289e+02 2.865244e+03 2.029438e+03 2.273491e+03 8.408010e+02 1.209749e+00 6.039634e-01 6.139871e-01 5.236813e-01 8.431554e-01 1.017099e+00
<GCONST> 2.189666e+02
<STATE> 3
<NUMMIXES> 4
<MIXTURE> 1 1.875487e-01
<MEAN> 33
 6.675792e+01 1.386567e+02 1.104889e+02 1.389028e+02 6.562019e+01 1.748734e+02 3.939048e+01 4.611901e+01 7.640173e+01 8.344250e+01 1.693469e+02 2.035474e+00 1.688296e+02 8.493880e+01 1.629261e+02 6.830762e+01 6.717561e+01 7.209220e+00 6.673604e+01 1.490964e+02 1.670635e+02 1.549103e+02 6.836252e+01 1.563775e+02 2.417004e+01 3.733115e+01 3.539033e+01 4.425462e+00 3.150260e+00 3.248704e+00 3.206348e+00 3.315089e+00 4.427413e+00
<VARIANCE> 33
 5.119704e+02 7.046254e+01 8.861142e+01 4.446698e+01 7.906882e+02 2.129159e+01 4.756469e+02 4.315268e+02 1.743119e+03 1.697517e+02 6.929945e+01 4.230786e+00 6.740267e+01 1.580912e+02 3.892385e+01 1.795738e+02 1.501553e+02 1.299229e+02 1.233435e+03 5.675023e+02 2.346369e+01 3.015762e+02 8.367349e+02 3.138411e+02 5.107745e+02 6.429346e+02 3.594221e+02 6.022342e-01 4.455085e-01 3.488368e-01 2.536741e-01 6.498083e-01 6.164017e-01
<GCONST> 1.964015e+02
<MIXTURE> 2 1.567997e-01
<MEAN> 33
 3.243025e+01 1.323186e+02 1.111517e+02 1.392083e+02 2.062626e+01 1.758095e+02 1.807212e+01 2.608879e+01 4.082341e+01 6.475333e+01 1.636794e+02 1.521293e+00 1.663389e+02 6.177828e+01 1.618416e+02 4.732303e+01 4.502548e+01 5.070930e+00 1.082448e+02 1.261583e+02 1.724677e+02 1.470107e+02 9.312981e+01 1.326662e+02 5.044390e+01 5.223447e+01 3.874540e+01 4.329728e+00 2.640562e+00 3.498710e+00 3.257044e+00 2.856479e+00 4.031136e+00
<VARIANCE> 33
 3.005601e+02 8.266687e+01 1.178580e+02 1.326967e+02 2.288064e+02 1.387821e+01 6.398838e+01 7.375455e+01 2.473274e+02 8.659499e+01 7.373885e+01 1.798524e+00 5.940160e+01 9.615263e+01 4.287682e+01 8.099306e+01 5.471561e+01 3.148238e+01 7.502053e+02 7.003668e+02 2.526190e+01 4.456649e+02 6.258539e+02 1.322885e+03 1.292383e+03 1.553701e+03 2.149414e+02 3.440895e-01 5.853550e-01 5.594434e-01 6.015849e-01 9.906335e-01 2.644273e-01
<GCONST> 1.880441e+02
<MIXTURE> 3 1.567997e-01
<MEAN> 33
 3.243025e+01 1.323186e+02 1.111517e+02 1.392083e+02 2.062626e+01 1.758095e+02 1.807212e+01 2.608879e+01 4.082341e+01 6.475333e+01 1.636794e+02 1.521293e+00 1.663389e+02 6.177828e+01 1.618416e+02 4.732303e+01 4.502548e+01 5.070930e+00 1.082448e+02 1.261583e+02 1.724677e+02 1.470107e+02 9.312981e+01 1.326662e+02 5.044390e+01 5.223447e+01 3.874540e+01 4.329728e+00 2.640562e+00 3.498710e+00 3.257044e+00 2.856479e+00 4.031136e+00
<VARIANCE> 33
 3.005601e+02 8.266687e+01 1.178580e+02 1.326967e+02 2.288064e+02 1.387821e+01 6.398838e+01 7.375455e+01 2.473274e+02 8.659499e+01 7.373885e+01 1.798524e+00 5.940160e+01 9.615263e+01 4.287682e+01 8.099306e+01 5.471561e+01 3.148238e+01 7.502053e+02 7.003668e+02 2.526190e+01 4.456649e+02 6.258539e+02 1.322885e+03 1.292383e+03 1.553701e+03 2.149414e+02 3.440895e-01 5.853550e-01 5.594434e-01 6.015849e-01 9.906335e-01 2.644273e-01
<GCONST> 1.880441e+02
<MIXTURE> 4 4.988515e-01
<MEAN> 33
 3.004286e+01 1.246796e+02 1.253225e+02 1.276014e+02 2.637968e+01 1.760878e+02 2.080832e+01 2.477971e+01 4.462178e+01 7.554960e+01 1.424018e+02 4.802330e+00 1.416498e+02 7.711012e+01 1.628687e+02 5.022775e+01 4.864356e+01 3.479192e+00 1.363529e+02 9.677357e+01 1.664958e+02 1.138095e+02 1.201116e+02 1.498472e+02 2.774198e+01 4.102048e+01 3.593474e+01 4.123917e+00 2.959248e+00 4.272251e+00 3.967297e+00 3.288903e+00 4.034093e+00
<VARIANCE> 33
 1.443550e+02 1.027401e+02 1.400007e+02 8.176106e+01 1.652724e+02 1.282293e+01 6.106211e+01 7.578425e+01 2.300353e+02 1.076915e+02 1.284491e+02 3.153761e+01 1.483802e+02 1.132595e+02 5.354626e+01 6.256719e+01 5.688507e+01 3.148238e+01 2.972691e+02 2.255788e+02 4.267060e+01 3.651342e+02 4.035899e+02 5.011806e+02 4.467854e+02 7.733537e+02 9.388208e+01 2.921419e-01 4.020456e-01 3.956645e-01 2.589345e-01 4.447818e-01 2.497331e-01
<GCONST> 1.831211e+02
<STATE> 4
<NUMMIXES> 4
<MIXTURE> 1 4.573779e-01
<MEAN> 33
 1.737574e+02 1.357295e+02 1.133341e+02 1.356301e+02 1.739700e+02 1.757687e+02 1.361511e+02 1.353069e+02 8.854207e+01 1.640384e+02 1.750262e+02 1.956740e+00 1.742462e+02 1.655987e+02 1.617598e+02 1.686651e+02 1.686077e+02 7.578417e+00 1.133159e+02 1.540201e+02 1.684830e+02 1.597768e+02 1.223547e+02 1.602815e+02 7.581101e+01 9.859457e+01 1.585097e+02 4.920533e+00 2.751307e+00 2.862254e+00 2.732999e+00 2.590758e+00 4.750789e+00
<VARIANCE> 33
 3.902650e+01 2.048356e+01 7.619421e+01 2.750798e+01 3.037716e+01 1.292183e+01 2.822034e+01 2.062020e+01 3.960318e+01 7.799171e+01 1.919090e+01 5.280307e+00 2.243988e+01 8.122437e+01 3.434561e+01 5.908108e+01 6.532098e+01 3.648778e+01 1.368272e+03 2.076486e+02 2.018532e+01 1.765778e+02 1.087094e+03 2.673804e+02 8.699640e+02 1.113625e+03 2.102369e+02 2.406399e+00 1.474115e+00 3.309868e-01 2.138538e-01 1.209701e+00 2.346028e+00
<GCONST> 1.749832e+02
<MIXTURE> 2 1.519458e-01
<MEAN> 33
 1.680872e+02 1.347375e+02 1.142705e+02 1.375924e+02 1.671998e+02 1.764759e+02 1.376648e+02 1.346869e+02 8.764829e+01 1.568687e+02 1.666470e+02 1.469881e+00 1.662638e+02 1.579238e+02 1.623700e+02 1.443172e+02 1.445974e+02 9.712790e+00 1.200711e+02 1.427754e+02 1.683691e+02 1.504520e+02 1.179519e+02 1.465770e+02 6.736221e+01 7.655937e+01 1.089567e+02 6.068649e+00 2.442568e+00 2.809919e+00 2.694474e+00 2.487920e+00 6.040271e+00
<VARIANCE> 33
 9.236044e+01 5.147096e+01 7.649783e+01 7.719191e+01 9.275610e+01 9.010491e+00 8.315720e+01 7.064463e+01 2.630123e+02 1.900470e+02 5.436647e+01 1.635663e+00 6.056642e+01 2.041571e+02 3.644114e+01 2.079011e+02 2.433453e+02 9.093208e+01 1.507033e+03 5.547653e+02 4.047691e+01 4.431131e+02 1.443295e+03 1.497370e+03 2.259056e+03 1.685056e+03 8.879975e+02 1.310965e+00 3.657628e-01 3.114616e-01 1.947423e-01 3.189796e-01 1.260293e+00
<GCONST> 1.923838e+02
<MIXTURE> 3 1.519458e-01
<MEAN> 33
 1.680872e+02 1.347375e+02 1.142705e+02 1.375924e+02 1.671998e+02 1.764759e+02 1.376648e+02 1.346869e+02 8.764829e+01 1.568687e+02 1.666470e+02 1.469881e+00 1.662638e+02 1.579238e+02 1.623700e+02 1.443172e+02 1.445974e+02 9.712790e+00 1.200711e+02 1.427754e+02 1.683691e+02 1.504520e+02 1.179519e+02 1.465770e+02 6.736221e+01 7.655937e+01 1.089567e+02 6.068649e+00 2.442568e+00 2.809919e+00 2.694474e+00 2.487920e+00 6.040271e+00
<VARIANCE> 33
 9.236044e+01 5.147096e+01 7.649783e+01 7.719191e+01 9.275610e+01 9.010491e+00 8.315720e+01 7.064463e+01 2.630123e+02 1.900470e+02 5.436647e+01 1.635663e+00 6.056642e+01 2.041571e+02 3.644114e+01 2.079011e+02 2.433453e+02 9.093208e+01 1.507033e+03 5.547653e+02 4.047691e+01 4.431131e+02 1.443295e+03 1.497370e+03 2.259056e+03 1.685056e+03 8.879975e+02 1.310965e+00 3.657628e-01 3.114616e-01 1.947423e-01 3.189796e-01 1.260293e+00
<GCONST> 1.923838e+02
<MIXTURE> 4 2.387291e-01
<MEAN> 33
 1.230247e+02 1.318355e+02 1.201471e+02 1.342024e+02 1.155527e+02 1.756605e+02 1.058533e+02 9.985535e+01 1.038165e+02 1.226292e+02 1.604481e+02 3.705382e+00 1.605394e+02 1.205027e+02 1.619669e+02 9.981864e+01 9.547610e+01 1.390681e+01 1.079403e+02 1.259548e+02 1.688427e+02 1.398534e+02 9.439107e+01 1.359803e+02 4.374900e+01 5.820840e+01 4.747633e+01 5.198937e+00 2.935605e+00 3.451742e+00 3.292901e+00 3.381700e+00 5.218646e+00
<VARIANCE> 33
 1.361728e+03 9.558334e+01 1.541862e+02 1.081986e+02 1.059169e+03 1.349058e+01 1.740780e+03 1.604387e+03 2.358703e+03 5.631900e+02 1.503461e+02 2.343508e+01 1.488193e+02 3.617676e+02 4.946808e+01 6.068364e+02 4.746417e+02 3.750223e+02 1.746692e+03 8.779369e+02 3.916041e+01 6.665183e+02 1.135508e+03 1.732391e+03 1.475426e+03 1.470378e+03 9.767780e+02 1.289120e+00 6.414455e-01 4.298190e-01 3.347621e-01 6.513155e-01 1.564190e+00
<GCONST> 2.203869e+02
<TRANSP> 5
 0.000000e+00 1.000000e+00 0.000000e+00 0.000000e+00 0.000000e+00
 0.000000e+00 9.219873e-01 7.801273e-02 0.000000e+00 0.000000e+00
 0.000000e+00 0.000000e+00 9.495967e-01 5.040334e-02 0.000000e+00
 0.000000e+00 0.000000e+00 0.000000e+00 9.312359e-01 6.876409e-02
 0.000000e+00 0.000000e+00 0.000000e+00 0.000000e+00 0.000000e+00
<ENDHMM>
~h "DC"
<BEGINHMM>
<NUMSTATES> 5
<STATE> 2
<NUMMIXES> 4
<MIXTURE> 1 5.377308e-01
<MEAN> 33
 1.736120e+02 1.365004e+02 1.080744e+02 1.381544e+02 1.749393e+02 1.759407e+02 1.351788e+02 1.343730e+02 9.044827e+01 1.574987e+02 1.751828e+02 1.563409e+00 1.747462e+02 1.610804e+02 1.619383e+02 1.626113e+02 1.676504e+02 1.092278e+01 9.814740e+01 1.531772e+02 1.692491e+02 1.623174e+02 1.064369e+02 1.569522e+02 7.328049e+01 8.769511e+01 1.540967e+02 4.699088e+00 2.600374e+00 2.665005e+00 2.473040e+00 2.347920e+00 4.583248e+00
<VARIANCE> 33
 3.902650e+01 2.368465e+01 6.135280e+01 2.856405e+01 3.037716e+01 1.112353e+01 2.822034e+01 2.062020e+01 2.522604e+01 8.127049e+01 2.462320e+01 4.020115e+00 1.997609e+01 4.590900e+01 5.210358e+01 1.172282e+02 6.974937e+01 1.045485e+02 8.972170e+02 2.903859e+02 2.920175e+01 1.498650e+02 4.431630e+02 2.930330e+02 1.138529e+03 1.261922e+03 2.885729e+02 5.289778e+00 8.693912e-01 3.852958e-01 3.716629e-01 7.865901e-01 3.337459e+00
<GCONST> 1.768096e+02
<MIXTURE> 2 1.264614e-01
<MEAN> 33
 1.315996e+02 1.382064e+02 1.110581e+02 1.385127e+02 1.368477e+02 1.772182e+02 1.179303e+02 1.124107e+02 1.218766e+02 1.139600e+02 1.736933e+02 1.253034e+00 1.734133e+02 1.138724e+02 1.621279e+02 1.064533e+02 1.068324e+02 5.477142e+00 6.245346e+01 1.597325e+02 1.697438e+02 1.628904e+02 6.557674e+01 1.548086e+02 3.515878e+01 3.925156e+01 5.805698e+01 5.908604e+00 2.983526e+00 2.977176e+00 2.893847e+00 3.028200e+00 5.783455e+00
<VARIANCE> 33
 4.832247e+02 2.244321e+01 6.675302e+01 3.154918e+01 5.043392e+02 5.974884e+00 5.340510e+02 4.581301e+02 1.097293e+03 1.427848e+02 2.599030e+01 1.397439e+00 2.496810e+01 1.804098e+02 3.954499e+01 2.918625e+02 3.402151e+02 3.148238e+01 4.921375e+02 1.907722e+02 2.708631e+01 1.445664e+02 4.075473e+02 3.972168e+02 7.249874e+02 7.126716e+02 6.448602e+02 8.416809e-01 3.545744e-01 1.808283e-01 1.512157e-01 6.200467e-01 7.862754e-01
<GCONST> 1.864269e+02
<MIXTURE> 3 1.264614e-01
<MEAN> 33
 1.315996e+02 1.382064e+02 1.110581e+02 1.385127e+02 1.368477e+02 1.772182e+02 1.179303e+02 1.124107e+02 1.218766e+02 1.139600e+02 1.736933e+02 1.253034e+00 1.734133e+02 1.138724e+02 1.621279e+02 1.064533e+02 1.068324e+02 5.477142e+00 6.245346e+01 1.597325e+02 1.697438e+02 1.628904e+02 6.557674e+01 1.548086e+02 3.515878e+01 3.925156e+01 5.805698e+01 5.908604e+00 2.983526e+00 2.977176e+00 2.893847e+00 3.028200e+00 5.783455e+00
<VARIANCE> 33
 4.832247e+02 2.244321e+01 6.675302e+01 3.154918e+01 5.043392e+02 5.974884e+00 5.340510e+02 4.581301e+02 1.097293e+03 1.427848e+02 2.599030e+01 1.397439e+00 2.496810e+01 1.804098e+02 3.954499e+01 2.918625e+02 3.402151e+02 3.148238e+01 4.921375e+02 1.907722e+02 2.708631e+01 1.445664e+02 4.075473e+02 3.972168e+02 7.249874e+02 7.126716e+02 6.448602e+02 8.416809e-01 3.545744e-01 1.808283e-01 1.512157e-01 6.200467e-01 7.862754e-01
<GCONST> 1.864269e+02
<MIXTURE> 4 2.093458e-01
<MEAN> 33
 1.151442e+02 1.290969e+02 1.125890e+02 1.409831e+02 1.056271e+02 1.712388e+02 9.354996e+01 8.371788e+01 9.886079e+01 1.207996e+02 1.585744e+02 3.506149e+00 1.603456e+02 1.140630e+02 1.590910e+02 1.038606e+02 9.221575e+01 4.111903e+01 1.096211e+02 1.128916e+02 1.712588e+02 1.451793e+02 9.814967e+01 1.248942e+02 6.347747e+01 7.401921e+01 6.410902e+01 5.262868e+00 2.573479e+00 3.215116e+00 2.900808e+00 3.195019e+00 5.438075e+00
<VARIANCE> 33
 1.881118e+03 3.071655e+02 1.470459e+02 2.227307e+02 2.761330e+03 4.614130e+01 2.420943e+03 2.142612e+03 2.766392e+03 7.498878e+02 3.251035e+02 1.573153e+01 1.852644e+02 7.477507e+02 8.412223e+01 1.333886e+03 1.077094e+03 2.708074e+03 2.002538e+03 1.464873e+03 3.213842e+01 6.076893e+02 1.275831e+03 1.674231e+03 2.506232e+03 2.428422e+03 2.068366e+03 2.686695e+00 1.484367e+00 7.786835e-01 4.832835e-01 1.458566e+00 2.566969e+00
<GCONST> 2.372966e+02
<STATE> 3
<NUMMIXES> 4
<MIXTURE> 1 2.899004e-01
<MEAN> 33
 9.465891e+01 1.382243e+02 1.104545e+02 1.420642e+02 9.146291e+01 1.739930e+02 8.256584e+01 7.995521e+01 8.005972e+01 1.160624e+02 1.643754e+02 1.887456e+00 1.649475e+02 1.122694e+02 1.626364e+02 8.817461e+01 8.689960e+01 3.619529e+00 9.381689e+01 1.346467e+02 1.720636e+02 1.475629e+02 8.400225e+01 1.149743e+02 6.622298e+01 6.657265e+01 1.748014e+01 4.323152e+00 3.392429e+00 3.481451e+00 3.280163e+00 3.867821e+00 4.447393e+00
<VARIANCE> 33
 1.738367e+02 6.106409e+01 1.675455e+02 1.294883e+02 3.928457e+02 2.229136e+01 1.514799e+03 1.568445e+03 3.063034e+03 1.461980e+02 5.900345e+01 3.298861e+00 7.104598e+01 1.707409e+02 2.236483e+01 5.100636e+01 4.410292e+01 3.148238e+01 7.907469e+02 5.444329e+02 2.591739e+01 4.295641e+02 7.663788e+02 2.234162e+03 2.400872e+03 2.173207e+03 2.064496e+02 5.086431e-01 8.904495e-01 3.399231e-01 3.755239e-01 1.395543e+00 5.284788e-01
<GCONST> 1.999118e+02
<MIXTURE> 2 2.287903e-01
<MEAN> 33
 7.333551e+01 1.295975e+02 1.130359e+02 1.361987e+02 6.568117e+01 1.754865e+02 3.142567e+01 2.528553e+01 3.749021e+01 9.570467e+01 1.565505e+02 2.626947e+00 1.610041e+02 9.502837e+01 1.615098e+02 6.680878e+01 6.647858e+01 2.850962e+00 1.186567e+02 1.027489e+02 1.704543e+02 1.402822e+02 8.632906e+01 1.479216e+02 4.621045e+01 4.076344e+01 1.924191e+01 4.418244e+00 3.075249e+00 3.991847e+00 3.795892e+00 3.691792e+00 3.980842e+00
<VARIANCE> 33
 1.992170e+02 3.568866e+01 5.441753e+01 3.040591e+01 2.097770e+02 2.147547e+01 3.807257e+02 3.119347e+02 8.400868e+02 1.294886e+02 9.908775e+01 7.936300e+00 5.630294e+01 1.105112e+02 2.928469e+01 4.541766e+01 4.553258e+01 3.148238e+01 6.562162e+02 6.896214e+02 2.733582e+01 4.014265e+02 5.845220e+02 4.219507e+02 6.543563e+02 6.063583e+02 2.477852e+02 4.335555e-01 7.267626e-01 1.680273e-01 1.017639e-01 6.355335e-01 2.326333e-01
<GCONST> 1.844996e+02
<MIXTURE> 3 2.508830e-01
<MEAN> 33
 7.787573e+01 1.405390e+02 1.086931e+02 1.400273e+02 7.517615e+01 1.753190e+02 3.061735e+01 3.291124e+01 4.629574e+01 1.092885e+02 1.596167e+02 8.211967e-01 1.616722e+02 1.066916e+02 1.591815e+02 7.509554e+01 7.463615e+01 2.140642e+00 1.036494e+02 1.278332e+02 1.720747e+02 1.331293e+02 1.022965e+02 1.102178e+02 6.339105e+01 6.514874e+01 1.583735e+01 4.364475e+00 3.646248e+00 3.664473e+00 3.506337e+00 3.602955e+00 4.365048e+00
<VARIANCE> 33
 8.934889e+01 4.029834e+01 4.276027e+01 5.210127e+01 2.628958e+02 9.837353e+00 3.820550e+02 3.825210e+02 1.121529e+03 6.027135e+01 3.532605e+01 5.357184e-01 4.916896e+01 6.702335e+01 2.689095e+01 3.071743e+01 2.613943e+01 3.148238e+01 3.645119e+02 2.807583e+02 2.207149e+01 2.925545e+02 3.118808e+02 2.147726e+03 2.749930e+03 2.562838e+03 1.629517e+02 4.606711e-01 5.251480e-01 1.189987e-01 8.858087e-02 3.187229e-01 3.541986e-01
<GCONST> 1.783219e+02
<MIXTURE> 4 2.304248e-01
<MEAN> 33
 7.086207e+01 1.202735e+02 1.148632e+02 1.335999e+02 5.830176e+01 1.702783e+02 2.149038e+01 1.656023e+01 2.268173e+01 1.136645e+02 1.380240e+02 3.510914e+00 1.414435e+02 1.138842e+02 1.543053e+02 6.522091e+01 6.542835e+01 2.404475e+00 1.426911e+02 9.004326e+01 1.721893e+02 1.068900e+02 1.276724e+02 1.046251e+02 8.599136e+01 8.534059e+01 1.079380e+01 3.988967e+00 2.550251e+00 3.953655e+00 3.849386e+00 3.119617e+00 3.913912e+00
<VARIANCE> 33
 7.174167e+02 2.601597e+02 1.383726e+02 8.284010e+01 5.137673e+02 6.297469e+01 3.412731e+02 1.772253e+02 4.065733e+02 4.051451e+02 1.884271e+02 4.213389e+01 1.923814e+02 3.855770e+02 9.882256e+01 1.094803e+02 1.030160e+02 3.148238e+01 2.655198e+02 2.430106e+02 6.662180e+01 1.608807e+02 2.794031e+02 1.993215e+03 2.304342e+03 2.403429e+03 1.193568e+02 4.076201e-01 4.124365e-01 3.866021e-01 3.182411e-01 7.589687e-01 4.652669e-01
<GCONST> 2.020822e+02
<STATE> 4
<NUMMIXES> 4
<MIXTURE> 1 4.657591e-01
<MEAN> 33
 1.722716e+02 1.382964e+02 1.106642e+02 1.386972e+02 1.734155e+02 1.761454e+02 1.346159e+02 1.343491e+02 9.103497e+01 1.641971e+02 1.742197e+02 1.290065e+00 1.748569e+02 1.666161e+02 1.612915e+02 1.660303e+02 1.659547e+02 1.023125e+01 1.214843e+02 1.542334e+02 1.693383e+02 1.569809e+02 1.316144e+02 1.510386e+02 8.539865e+01 9.561700e+01 1.545697e+02 4.828725e+00 2.846156e+00 2.782376e+00 2.534973e+00 2.533523e+00 4.663118e+00
<VARIANCE> 33
 3.902650e+01 2.266405e+01 8.082483e+01 2.905807e+01 3.320204e+01 1.188857e+01 2.822034e+01 2.062020e+01 4.026845e+01 1.034798e+02 1.894515e+01 2.383993e+00 1.615937e+01 9.124647e+01 4.708335e+01 8.026604e+01 8.750706e+01 8.738823e+01 1.526177e+03 2.356727e+02 3.307324e+01 1.726242e+02 1.289515e+03 8.460518e+02 1.216042e+03 1.321057e+03 2.573583e+02 2.760315e+00 1.514472e+00 3.375883e-01 1.972525e-01 9.056234e-01 2.393191e+00
<GCONST> 1.788419e+02
<MIXTURE> 2 1.347599e-01
<MEAN> 33
 1.678539e+02 1.380166e+02 1.096696e+02 1.397371e+02 1.681009e+02 1.748989e+02 1.374280e+02 1.325741e+02 8.999791e+01 1.634261e+02 1.666704e+02 1.348023e+00 1.667715e+02 1.638143e+02 1.619757e+02 1.410040e+02 1.409366e+02 9.450114e+00 1.343952e+02 1.331715e+02 1.705830e+02 1.451952e+02 1.335904e+02 1.298481e+02 7.392570e+01 9.817220e+01 1.023857e+02 6.137827e+00 2.308978e+00 2.704597e+00 2.648065e+00 2.389037e+00 6.036831e+00
<VARIANCE> 33
 9.858269e+01 5.903138e+01 5.715100e+01 5.168284e+01 8.650805e+01 1.926376e+01 1.030237e+02 8.095978e+01 2.722688e+02 1.527556e+02 5.493711e+01 1.706422e+00 5.910605e+01 1.539195e+02 4.136072e+01 1.798163e+02 2.478673e+02 7.032899e+01 1.341334e+03 6.813995e+02 3.669314e+01 3.897550e+02 1.115046e+03 2.265886e+03 2.496299e+03 2.167650e+03 6.843348e+02 8.613101e-01 2.288376e-01 2.240298e-01 1.270240e-01 1.896318e-01 7.542400e-01
<GCONST> 1.896698e+02
<MIXTURE> 3 1.347599e-01
<MEAN> 33
 1.678539e+02 1.380166e+02 1.096696e+02 1.397371e+02 1.681009e+02 1.748989e+02 1.374280e+02 1.325741e+02 8.999791e+01 1.634261e+02 1.666704e+02 1.348023e+00 1.667715e+02 1.638143e+02 1.619757e+02 1.410040e+02 1.409366e+02 9.450114e+00 1.343952e+02 1.331715e+02 1.705830e+02 1.451952e+02 1.335904e+02 1.298481e+02 7.392570e+01 9.817220e+01 1.023857e+02 6.137827e+00 2.308978e+00 2.704597e+00 2.648065e+00 2.389037e+00 6.036831e+00
<VARIANCE> 33
 9.858269e+01 5.903138e+01 5.715100e+01 5.168284e+01 8.650805e+01 1.926376e+01 1.030237e+02 8.095978e+01 2.722688e+02 1.527556e+02 5.493711e+01 1.706422e+00 5.910605e+01 1.539195e+02 4.136072e+01 1.798163e+02 2.478673e+02 7.032899e+01 1.341334e+03 6.813995e+02 3.669314e+01 3.897550e+02 1.115046e+03 2.265886e+03 2.496299e+03 2.167650e+03 6.843348e+02 8.613101e-01 2.288376e-01 2.240298e-01 1.270240e-01 1.896318e-01 7.542400e-01
<GCONST> 1.896698e+02
<MIXTURE> 4 2.647205e-01
<MEAN> 33
 1.359227e+02 1.330171e+02 1.127063e+02 1.385662e+02 1.289062e+02 1.720192e+02 1.276164e+02 1.220284e+02 8.368905e+01 1.361882e+02 1.629435e+02 2.967608e+00 1.612372e+02 1.335697e+02 1.610431e+02 1.098456e+02 1.067792e+02 1.050432e+01 1.136246e+02 1.200004e+02 1.707548e+02 1.376638e+02 9.954639e+01 1.273743e+02 6.154446e+01 7.110502e+01 4.609711e+01 4.713882e+00 2.803047e+00 3.305790e+00 3.219061e+00 3.248662e+00 5.059402e+00
<VARIANCE> 33
 5.770478e+02 1.310383e+02 1.269045e+02 1.264291e+02 7.596986e+02 4.741743e+01 1.209627e+03 1.238826e+03 2.264202e+03 3.367821e+02 1.037669e+02 3.165542e+01 1.377788e+02 4.213634e+02 6.960107e+01 4.098873e+02 4.069488e+02 2.435527e+02 1.484261e+03 1.189051e+03 4.302521e+01 6.802610e+02 1.505451e+03 1.843304e+03 2.154348e+03 2.068954e+03 1.207632e+03 1.558961e+00 5.922852e-01 4.305207e-01 3.879547e-01 8.710731e-01 1.253254e+00
<GCONST> 2.207805e+02
<TRANSP> 5
 0.000000e+00 1.000000e+00 0.000000e+00 0.000000e+00 0.000000e+00
 0.000000e+00 8.875531e-01 1.124469e-01 0.000000e+00 0.000000e+00
 0.000000e+00 0.000000e+00 9.593599e-01 4.064006e-02 0.000000e+00
 0.000000e+00 0.000000e+00 0.000000e+00 9.290603e-01 7.093973e-02
 0.000000e+00 0.000000e+00 0.000000e+00 0.000000e+00 0.000000e+00
<ENDHMM>
~h "FM"
<BEGINHMM>
<NUMSTATES> 5
<STATE> 2
<NUMMIXES> 4
<MIXTURE> 1 2.690616e-01
<MEAN> 33
 1.723276e+02 1.377411e+02 1.085744e+02 1.382460e+02 1.748050e+02 1.764976e+02 1.349372e+02 1.340651e+02 9.099769e+01 1.561948e+02 1.749927e+02 1.381806e+00 1.751643e+02 1.612269e+02 1.618395e+02 1.631009e+02 1.670567e+02 1.142534e+01 9.399146e+01 1.526649e+02 1.699096e+02 1.619999e+02 1.084506e+02 1.584405e+02 7.097929e+01 9.090442e+01 1.542194e+02 5.025940e+00 2.798904e+00 2.647673e+00 2.520625e+00 2.330741e+00 4.856627e+00
<VARIANCE> 33
 3.902650e+01 2.988937e+01 7.351757e+01 3.438028e+01 3.037716e+01 9.880636e+00 2.822034e+01 2.062020e+01 3.728772e+01 8.566553e+01 2.251152e+01 3.034233e+00 1.602340e+01 5.220438e+01 4.867341e+01 1.261783e+02 8.574124e+01 1.201859e+02 9.684800e+02 2.338298e+02 2.226108e+01 1.409056e+02 5.629523e+02 2.165939e+02 9.791555e+02 1.207885e+03 2.865826e+02 4.967653e+00 9.077742e-01 2.854456e-01 4.207748e-01 7.798747e-01 3.152447e+00
<GCONST> 1.766230e+02
<MIXTURE> 2 2.654714e-01
<MEAN> 33
 1.719999e+02 1.389372e+02 1.104527e+02 1.674751e+02 1.001331e+02 1.735013e+02 1.351383e+02 9.331079e+01 1.315378e+02 1.557436e+02 1.699846e+02 4.593146e+00 1.527247e+02 1.076371e+02 1.620757e+02 1.689365e+02 9.968294e+01 7.302624e+01 8.349860e+01 1.435134e+02 1.676921e+02 1.583666e+02 4.373081e+01 1.226147e+02 6.535067e+01 1.017533e+02 1.450084e+02 3.742339e+00 2.733698e+00 2.614350e+00 2.137087e+00 6.277952e+00 6.610334e+00
<VARIANCE> 33
 3.902650e+01 5.649964e+01 1.207761e+02 9.055099e+01 5.284257e+02 4.796293e+01 2.822034e+01 2.491028e+02 3.079883e+02 7.650345e+01 9.796756e+01 2.485629e+01 2.854093e+02 6.537592e+02 7.052795e+01 6.773463e+01 1.277641e+03 1.188008e+03 5.820555e+02 4.622028e+02 5.531490e+01 1.420680e+02 1.968516e+02 2.260781e+03 2.251593e+03 1.777320e+03 4.291913e+02 2.173523e+00 1.003870e+00 2.354319e-01 3.697140e-01 2.397439e+00 3.873440e+00
<GCONST> 2.056621e+02
<MIXTURE> 3 2.654714e-01
<MEAN> 33
 1.719999e+02 1.389372e+02 1.104527e+02 1.674751e+02 1.001331e+02 1.735013e+02 1.351383e+02 9.331079e+01 1.315378e+02 1.557436e+02 1.699846e+02 4.593146e+00 1.527247e+02 1.076371e+02 1.620757e+02 1.689365e+02 9.968294e+01 7.302624e+01 8.349860e+01 1.435134e+02 1.676921e+02 1.583666e+02 4.373081e+01 1.226147e+02 6.535067e+01 1.017533e+02 1.450084e+02 3.742339e+00 2.733698e+00 2.614350e+00 2.137087e+00 6.277952e+00 6.610334e+00
<VARIANCE> 33
 3.902650e+01 5.649964e+01 1.207761e+02 9.055099e+01 5.284257e+02 4.796293e+01 2.822034e+01 2.491028e+02 3.079883e+02 7.650345e+01 9.796756e+01 2.485629e+01 2.854093e+02 6.537592e+02 7.052795e+01 6.773463e+01 1.277641e+03 1.188008e+03 5.820555e+02 4.622028e+02 5.531490e+01 1.420680e+02 1.968516e+02 2.260781e+03 2.251593e+03 1.777320e+03 4.291913e+02 2.173523e+00 1.003870e+00 2.354319e-01 3.697140e-01 2.397439e+00 3.873440e+00
<GCONST> 2.056621e+02
<MIXTURE> 4 1.999956e-01
<MEAN> 33
 1.039636e+02 1.565510e+02 1.132994e+02 1.506659e+02 1.246368e+02 1.706924e+02 8.510334e+01 1.038448e+02 1.350728e+02 1.015547e+02 1.653677e+02 2.595143e+00 1.626496e+02 1.328806e+02 1.630944e+02 8.483585e+01 1.147115e+02 8.021514e+01 6.189435e+01 1.559174e+02 1.677222e+02 1.513492e+02 6.664465e+01 1.342446e+02 6.389840e+01 8.143029e+01 1.160952e+02 5.768004e+00 5.520669e+00 2.586415e+00 2.677828e+00 3.808461e+00 4.271203e+00
<VARIANCE> 33
 1.348147e+03 3.032877e+02 8.721961e+01 6.347833e+02 1.280396e+03 5.138823e+01 1.005467e+03 9.207524e+02 2.313918e+03 7.398629e+02 1.635132e+02 5.276888e+00 2.440539e+02 7.924568e+02 5.970753e+01 9.336573e+02 1.330921e+03 4.110850e+03 1.715828e+03 4.436454e+02 5.790462e+01 6.654659e+02 1.714102e+03 1.193787e+03 1.821140e+03 2.394452e+03 2.858947e+03 3.729845e+00 7.428854e+00 6.534365e-01 5.808346e-01 1.392382e+00 2.563117e+00
<GCONST> 2.345600e+02
<STATE> 3
<NUMMIXES> 4
<MIXTURE> 1 3.899993e-01
<MEAN> 33
 1.207428e+02 1.625498e+02 1.150623e+02 1.351887e+02 1.734178e+02 1.742225e+02 1.078032e+02 1.361550e+02 1.160419e+02 1.199255e+02 1.653939e+02 2.500952e+00 1.748674e+02 1.634406e+02 1.636607e+02 1.197832e+02 1.713594e+02 5.862720e+01 4.694444e+01 1.609688e+02 1.646208e+02 1.533099e+02 1.017691e+02 1.538529e+02 8.070602e+01 7.158869e+01 1.506726e+02 7.800011e+00 6.392521e+00 2.566817e+00 2.604151e+00 2.296941e+00 3.710144e+00
<VARIANCE> 33
 4.244557e+02 8.259572e+01 1.029479e+02 1.991994e+01 3.037716e+01 1.869051e+01 1.161294e+02 2.062020e+01 1.198591e+02 3.263672e+02 7.835458e+01 5.611671e+00 1.109472e+01 3.640548e+01 3.762029e+01 3.948341e+02 4.497306e+01 4.478433e+02 1.249015e+02 9.131090e+01 2.356575e+01 1.641166e+02 9.188581e+02 3.635258e+02 6.208138e+02 7.860930e+02 2.751143e+02 2.778251e+00 3.000047e+00 2.267322e-01 1.528529e-01 4.791088e-01 9.382071e-01
<GCONST> 1.820365e+02
<MIXTURE> 2 2.166464e-01
<MEAN> 33
 1.017357e+02 1.685875e+02 1.124103e+02 1.360763e+02 1.767244e+02 1.741111e+02 8.190362e+01 1.359833e+02 1.420857e+02 9.711452e+01 1.638726e+02 4.827426e+00 1.744591e+02 1.625119e+02 1.667275e+02 7.562953e+01 1.707976e+02 9.575217e+01 4.262875e+01 1.625625e+02 1.632711e+02 1.538437e+02 9.150825e+01 1.504332e+02 9.285676e+01 4.430631e+01 1.371613e+02 7.966543e+00 6.508321e+00 2.401281e+00 2.734206e+00 2.055175e+00 4.015093e+00
<VARIANCE> 33
 2.412239e+02 3.789583e+01 1.752265e+01 1.125252e+01 3.037716e+01 1.819538e+01 8.305520e+01 2.062020e+01 8.738274e+01 7.231093e+01 8.850159e+01 7.550419e+00 1.007617e+01 1.321881e+01 5.234438e+01 1.653638e+02 2.661874e+01 1.607688e+02 1.916558e+01 7.379224e+01 3.425373e+01 1.870532e+02 2.219590e+02 4.871966e+02 3.795004e+02 4.220085e+02 1.223689e+02 1.948902e+00 1.007422e+00 1.050788e-01 1.163324e-01 5.998528e-02 6.109458e-01
<GCONST> 1.637561e+02
<MIXTURE> 3 2.166464e-01
<MEAN> 33
 1.017357e+02 1.685875e+02 1.124103e+02 1.360763e+02 1.767244e+02 1.741111e+02 8.190362e+01 1.359833e+02 1.420857e+02 9.711452e+01 1.638726e+02 4.827426e+00 1.744591e+02 1.625119e+02 1.667275e+02 7.562953e+01 1.707976e+02 9.575217e+01 4.262875e+01 1.625625e+02 1.632711e+02 1.538437e+02 9.150825e+01 1.504332e+02 9.285676e+01 4.430631e+01 1.371613e+02 7.966543e+00 6.508321e+00 2.401281e+00 2.734206e+00 2.055175e+00 4.015093e+00
<VARIANCE> 33
 2.412239e+02 3.789583e+01 1.752265e+01 1.125252e+01 3.037716e+01 1.819538e+01 8.305520e+01 2.062020e+01 8.738274e+01 7.231093e+01 8.850159e+01 7.550419e+00 1.007617e+01 1.321881e+01 5.234438e+01 1.653638e+02 2.661874e+01 1.607688e+02 1.916558e+01 7.379224e+01 3.425373e+01 1.870532e+02 2.219590e+02 4.871966e+02 3.795004e+02 4.220085e+02 1.223689e+02 1.948902e+00 1.007422e+00 1.050788e-01 1.163324e-01 5.998528e-02 6.109458e-01
<GCONST> 1.637561e+02
<MIXTURE> 4 1.767063e-01
<MEAN> 33
 9.816953e+01 1.644069e+02 1.206795e+02 1.321335e+02 1.658813e+02 1.710269e+02 9.050919e+01 1.297699e+02 1.391088e+02 1.092581e+02 1.538092e+02 9.539252e+00 1.645920e+02 1.503675e+02 1.607602e+02 9.235671e+01 1.553980e+02 7.778785e+01 4.305390e+01 1.609695e+02 1.695246e+02 1.451101e+02 8.933113e+01 1.142198e+02 6.768272e+01 8.876828e+01 1.397621e+02 6.261599e+00 5.849209e+00 2.256762e+00 2.952451e+00 3.176858e+00 4.677032e+00
<VARIANCE> 33
 8.871941e+02 1.196058e+02 1.707731e+02 3.451003e+02 2.553760e+02 5.433080e+01 3.356015e+02 1.272816e+02 3.498602e+02 4.689862e+02 3.431544e+02 5.267500e+02 5.408507e+02 3.674171e+02 6.276037e+01 1.350868e+03 5.075229e+02 1.538690e+03 3.322121e+02 1.321862e+02 4.018697e+01 4.217058e+02 1.704615e+03 1.402156e+03 2.443469e+03 3.099416e+03 6.481246e+02 3.016114e+00 2.755409e+00 3.231713e-01 3.955925e-01 1.468536e+00 3.082852e+00
<GCONST> 2.236349e+02
<STATE> 4
<NUMMIXES> 4
<MIXTURE> 1 3.416123e-01
<MEAN> 33
 1.755810e+02 1.354861e+02 1.087664e+02 1.360725e+02 1.776781e+02 1.762974e+02 1.349790e+02 1.345734e+02 9.044761e+01 1.595741e+02 1.770796e+02 1.084790e+00 1.756061e+02 1.646380e+02 1.628038e+02 1.668721e+02 1.693207e+02 6.395985e+00 9.601107e+01 1.599011e+02 1.691284e+02 1.675097e+02 1.113460e+02 1.533095e+02 8.621900e+01 7.261674e+01 1.586462e+02 6.275134e+00 2.252895e+00 2.922163e+00 2.737388e+00 1.897720e+00 5.753949e+00
<VARIANCE> 33
 3.902650e+01 1.298728e+01 2.288279e+01 9.215806e+00 3.037716e+01 7.766807e+00 2.822034e+01 2.062020e+01 1.886277e+01 1.742391e+01 5.748050e+00 7.602773e-01 6.551474e+00 1.399198e+01 2.506813e+01 3.071743e+01 4.206981e+01 3.148238e+01 2.384153e+02 8.094574e+01 1.410403e+01 5.609815e+01 2.201210e+02 2.912731e+02 8.271024e+02 8.992032e+02 1.142126e+02 9.949059e-01 1.559807e-01 7.786397e-02 7.859343e-02 4.353606e-02 1.169876e+00
<GCONST> 1.456131e+02
<MIXTURE> 2 2.301531e-01
<MEAN> 33
 1.694701e+02 1.362026e+02 1.142304e+02 1.363885e+02 1.728990e+02 1.742892e+02 1.349521e+02 1.364035e+02 8.864435e+01 1.566583e+02 1.734296e+02 3.003112e+00 1.741185e+02 1.616337e+02 1.632783e+02 1.657597e+02 1.700389e+02 1.282267e+01 9.384409e+01 1.512172e+02 1.662685e+02 1.564236e+02 9.820970e+01 1.439955e+02 9.427111e+01 7.526214e+01 1.599789e+02 5.043246e+00 3.484736e+00 2.901379e+00 2.597153e+00 2.759886e+00 4.789135e+00
<VARIANCE> 33
 6.565736e+01 3.244790e+01 6.962832e+01 2.872274e+01 3.660874e+01 1.720722e+01 2.822034e+01 2.062020e+01 3.706483e+01 1.166905e+02 2.655541e+01 6.378174e+00 1.738478e+01 4.366582e+01 3.668776e+01 1.265743e+02 5.411863e+01 1.209678e+02 1.230351e+03 3.495159e+02 3.133848e+01 1.599169e+02 7.914584e+02 4.775677e+02 1.607893e+03 1.830550e+03 2.363476e+02 4.167828e+00 2.130397e+00 3.632293e-01 2.507113e-01 1.497903e+00 2.306048e+00
<GCONST> 1.818144e+02
<MIXTURE> 3 2.301531e-01
<MEAN> 33
 1.694701e+02 1.362026e+02 1.142304e+02 1.363885e+02 1.728990e+02 1.742892e+02 1.349521e+02 1.364035e+02 8.864435e+01 1.566583e+02 1.734296e+02 3.003112e+00 1.741185e+02 1.616337e+02 1.632783e+02 1.657597e+02 1.700389e+02 1.282267e+01 9.384409e+01 1.512172e+02 1.662685e+02 1.564236e+02 9.820970e+01 1.439955e+02 9.427111e+01 7.526214e+01 1.599789e+02 5.043246e+00 3.484736e+00 2.901379e+00 2.597153e+00 2.759886e+00 4.789135e+00
<VARIANCE> 33
 6.565736e+01 3.244790e+01 6.962832e+01 2.872274e+01 3.660874e+01 1.720722e+01 2.822034e+01 2.062020e+01 3.706483e+01 1.166905e+02 2.655541e+01 6.378174e+00 1.738478e+01 4.366582e+01 3.668776e+01 1.265743e+02 5.411863e+01 1.209678e+02 1.230351e+03 3.495159e+02 3.133848e+01 1.599169e+02 7.914584e+02 4.775677e+02 1.607893e+03 1.830550e+03 2.363476e+02 4.167828e+00 2.130397e+00 3.632293e-01 2.507113e-01 1.497903e+00 2.306048e+00
<GCONST> 1.818144e+02
<MIXTURE> 4 1.980812e-01
<MEAN> 33
 1.234499e+02 1.605957e+02 1.089387e+02 1.424097e+02 1.655772e+02 1.745467e+02 1.161703e+02 1.321819e+02 1.091995e+02 1.284203e+02 1.580369e+02 4.512257e+00 1.711125e+02 1.518630e+02 1.638477e+02 1.497069e+02 1.607549e+02 2.962783e+01 4.705640e+01 1.548132e+02 1.671324e+02 1.473243e+02 8.783633e+01 1.271077e+02 1.160105e+02 4.955046e+01 1.497091e+02 3.492414e+00 5.037563e+00 2.069672e+00 2.189392e+00 2.681745e+00 3.638444e+00
<VARIANCE> 33
 7.361148e+02 2.666646e+02 1.539060e+02 1.435350e+02 4.297995e+02 1.495200e+01 2.606184e+02 2.560010e+02 6.040707e+02 4.480842e+02 1.069503e+02 4.828136e+01 1.081892e+02 3.034594e+02 3.777470e+01 6.678627e+02 7.113535e+02 6.450729e+02 1.397112e+03 2.138537e+02 3.684964e+01 2.141466e+02 1.078828e+03 9.261946e+02 1.677050e+03 1.109789e+03 1.522392e+03 3.836093e+00 2.493657e+00 5.039202e-01 4.609254e-01 1.261567e+00 4.816897e+00
<GCONST> 2.171093e+02
<TRANSP> 5
 0.000000e+00 1.000000e+00 0.000000e+00 0.000000e+00 0.000000e+00
 0.000000e+00 9.335507e-01 6.644934e-02 0.000000e+00 0.000000e+00
 0.000000e+00 0.000000e+00 9.471227e-01 5.287739e-02 0.000000e+00
 0.000000e+00 0.000000e+00 0.000000e+00 9.192768e-01 8.072313e-02
 0.000000e+00 0.000000e+00 0.000000e+00 0.000000e+00 0.000000e+00
<ENDHMM>
~h "FN"
<BEGINHMM>
<NUMSTATES> 5
<STATE> 2
<NUMMIXES> 4
<MIXTURE> 1 3.189637e-01
<MEAN> 33
 1.729300e+02 1.369326e+02 1.091135e+02 1.376501e+02 1.745983e+02 1.754299e+02 1.350729e+02 1.342611e+02 9.066596e+01 1.570498e+02 1.753458e+02 1.725227e+00 1.749005e+02 1.629439e+02 1.619306e+02 1.634141e+02 1.663742e+02 1.299392e+01 9.771201e+01 1.527162e+02 1.694443e+02 1.625148e+02 1.155667e+02 1.580729e+02 6.964597e+01 9.382287e+01 1.544569e+02 4.904314e+00 2.671765e+00 2.771504e+00 2.526062e+00 2.376738e+00 4.944043e+00
<VARIANCE> 33
 3.902650e+01 2.451290e+01 7.424804e+01 3.022486e+01 3.037716e+01 1.345118e+01 2.822034e+01 2.062020e+01 3.506037e+01 1.192869e+02 2.132392e+01 5.374771e+00 1.925105e+01 6.989539e+01 5.043239e+01 1.627726e+02 8.944788e+01 1.473735e+02 1.058280e+03 2.696194e+02 2.563945e+01 1.330688e+02 7.723146e+02 2.964868e+02 9.505496e+02 1.258370e+03 3.640005e+02 5.523827e+00 1.274918e+00 3.392107e-01 3.845472e-01 6.765106e-01 2.789189e+00
<GCONST> 1.798725e+02
<MIXTURE> 2 2.514723e-01
<MEAN> 33
 1.711167e+02 1.403301e+02 1.097806e+02 1.486066e+02 3.052358e+01 1.747758e+02 1.344365e+02 2.376196e+01 1.539457e+02 1.569130e+02 1.705088e+02 2.863428e+00 1.415871e+02 7.549459e+01 1.665863e+02 1.685385e+02 4.105645e+01 1.294701e+02 8.894534e+01 1.510136e+02 1.697928e+02 1.297211e+02 1.005061e+02 1.045459e+02 6.951752e+01 7.648215e+01 1.048772e+02 3.612757e+00 2.502610e+00 2.517405e+00 3.109841e+00 3.658021e+00 7.026703e+00
<VARIANCE> 33
 3.902650e+01 3.760843e+01 1.152358e+02 2.530573e+02 8.869114e+02 1.515930e+01 2.822034e+01 3.189855e+02 1.239191e+02 5.045988e+01 7.169215e+01 9.881902e+00 6.680625e+02 5.709142e+02 4.054604e+01 8.954446e+01 1.933169e+02 2.402439e+02 5.107993e+02 2.453162e+02 5.071264e+01 6.015920e+02 1.029271e+03 2.568354e+03 2.719358e+03 1.880261e+03 3.818341e+02 1.049978e+00 3.044607e-01 1.888842e-01 6.695024e-01 1.242185e+00 1.151867e+00
<GCONST> 1.993264e+02
<MIXTURE> 3 2.514723e-01
<MEAN> 33
 1.711167e+02 1.403301e+02 1.097806e+02 1.486066e+02 3.052358e+01 1.747758e+02 1.344365e+02 2.376196e+01 1.539457e+02 1.569130e+02 1.705088e+02 2.863428e+00 1.415871e+02 7.549459e+01 1.665863e+02 1.685385e+02 4.105645e+01 1.294701e+02 8.894534e+01 1.510136e+02 1.697928e+02 1.297211e+02 1.005061e+02 1.045459e+02 6.951752e+01 7.648215e+01 1.048772e+02 3.612757e+00 2.502610e+00 2.517405e+00 3.109841e+00 3.658021e+00 7.026703e+00
<VARIANCE> 33
 3.902650e+01 3.760843e+01 1.152358e+02 2.530573e+02 8.869114e+02 1.515930e+01 2.822034e+01 3.189855e+02 1.239191e+02 5.045988e+01 7.169215e+01 9.881902e+00 6.680625e+02 5.709142e+02 4.054604e+01 8.954446e+01 1.933169e+02 2.402439e+02 5.107993e+02 2.453162e+02 5.071264e+01 6.015920e+02 1.029271e+03 2.568354e+03 2.719358e+03 1.880261e+03 3.818341e+02 1.049978e+00 3.044607e-01 1.888842e-01 6.695024e-01 1.242185e+00 1.151867e+00
<GCONST> 1.993264e+02
<MIXTURE> 4 1.780918e-01
<MEAN> 33
 1.292794e+02 1.349161e+02 1.111270e+02 1.442234e+02 1.005339e+02 1.731216e+02 1.032061e+02 8.611480e+01 1.223829e+02 1.296586e+02 1.648774e+02 4.909718e+00 1.616084e+02 1.115634e+02 1.620398e+02 1.204000e+02 9.634830e+01 7.468932e+01 8.138673e+01 1.207966e+02 1.676410e+02 1.510702e+02 7.881384e+01 1.331798e+02 6.531640e+01 7.313365e+01 8.839650e+01 4.620642e+00 2.686659e+00 3.026363e+00 2.935692e+00 3.602555e+00 5.640831e+00
<VARIANCE> 33
 2.499008e+03 1.286139e+02 8.637424e+01 1.726467e+02 3.761363e+03 4.214815e+01 2.395133e+03 2.528736e+03 1.565459e+03 1.305065e+03 1.607343e+02 7.646233e+01 3.868339e+02 1.396436e+03 4.830254e+01 2.304826e+03 2.291975e+03 1.871808e+03 1.744728e+03 1.397185e+03 6.262744e+01 3.162713e+02 1.245450e+03 1.929317e+03 2.480320e+03 1.930348e+03 1.375706e+03 4.641537e+00 1.375659e+00 4.667987e-01 3.241082e-01 1.430011e+00 4.570020e+00
<GCONST> 2.383125e+02
<STATE> 3
<NUMMIXES> 4
<MIXTURE> 1 2.619059e-01
<MEAN> 33
 8.798133e+01 1.399719e+02 1.122331e+02 1.348880e+02 1.747021e+02 1.765018e+02 6.640104e+01 1.359362e+02 1.461496e+02 1.143090e+02 1.521617e+02 2.066934e+00 1.748229e+02 1.625836e+02 1.670955e+02 7.951736e+01 1.644046e+02 8.859599e+01 1.175873e+02 1.275335e+02 1.706022e+02 1.629207e+02 1.083441e+02 1.301793e+02 5.107625e+01 8.481917e+01 1.018905e+02 8.419858e+00 2.793708e+00 3.226696e+00 2.522742e+00 2.105477e+00 3.451731e+00
<VARIANCE> 33
 2.202914e+03 1.811362e+02 6.320494e+01 1.625140e+01 3.037716e+01 8.724890e+00 1.301754e+03 2.062020e+01 7.134911e+02 4.227024e+02 3.594359e+02 3.266490e+00 1.309207e+01 2.623612e+01 6.267145e+01 3.182471e+02 7.201041e+01 3.980554e+02 2.226956e+03 7.166132e+02 2.922062e+01 1.678178e+02 5.609395e+02 1.738899e+03 1.144765e+03 2.665250e+03 4.589642e+02 1.156467e+00 1.187651e+00 2.534139e-01 8.014482e-02 1.452252e-01 5.887310e-01
<GCONST> 1.935400e+02
<MIXTURE> 2 4.419410e-01
<MEAN> 33
 2.297706e+01 1.315282e+02 1.111324e+02 1.357096e+02 1.749759e+02 1.753148e+02 1.010478e+01 1.348490e+02 1.442483e+02 6.684540e+01 1.442057e+02 1.459521e+00 1.743676e+02 1.627458e+02 1.667826e+02 3.866361e+01 1.621552e+02 1.240979e+02 1.226858e+02 1.041088e+02 1.698437e+02 1.659978e+02 1.094676e+02 1.225879e+02 6.248212e+01 8.060540e+01 8.433105e+01 6.457534e+00 2.986466e+00 3.318209e+00 2.870576e+00 2.193445e+00 3.647695e+00
<VARIANCE> 33
 1.390124e+02 1.379195e+02 4.620851e+01 1.847665e+01 3.037716e+01 1.580651e+01 4.207409e+01 2.062020e+01 5.984261e+01 2.177519e+02 3.489439e+02 1.326018e+00 1.436041e+01 2.028817e+01 4.497889e+01 7.064196e+01 8.117897e+01 1.177325e+02 6.644845e+02 3.705561e+02 3.312059e+01 9.097499e+01 3.734456e+02 2.373365e+03 2.141542e+03 2.515302e+03 1.684916e+02 1.214511e+00 9.930820e-01 4.722939e-01 2.954843e-01 1.262352e-01 9.255028e-01
<GCONST> 1.795332e+02
<MIXTURE> 3 1.623321e-01
<MEAN> 33
 1.852516e+01 1.401738e+02 1.271942e+02 1.286560e+02 1.684149e+02 1.765856e+02 1.346110e+01 1.374725e+02 1.506729e+02 6.937240e+01 1.368145e+02 7.280672e+00 1.692824e+02 1.632037e+02 1.664980e+02 3.776926e+01 1.704480e+02 1.424061e+02 9.923022e+01 1.159506e+02 1.706784e+02 1.517123e+02 1.037849e+02 1.252351e+02 5.611886e+01 1.125373e+02 1.085879e+02 6.606511e+00 4.277899e+00 3.998248e+00 2.696836e+00 2.851791e+00 3.700925e+00
<VARIANCE> 33
 1.655406e+02 4.082779e+02 6.293427e+01 3.808260e+01 3.037716e+01 1.034129e+01 6.161942e+01 2.062020e+01 8.145720e+01 1.528481e+02 1.562192e+02 7.006528e+01 1.675056e+02 7.610838e+01 2.809145e+01 6.873888e+01 5.562991e+01 1.409973e+02 4.300790e+02 4.729239e+02 3.296777e+01 1.343661e+02 1.201079e+03 1.004254e+03 1.108854e+03 3.240489e+03 2.852306e+02 2.093543e+00 5.163921e-01 4.340115e-01 6.946143e-02 1.962097e-01 3.356009e-01
<GCONST> 1.863924e+02
<MIXTURE> 4 1.338208e-01
<MEAN> 33
