~o
<STREAMINFO> 1 33
<VECSIZE> 33<NULLD><USER><DIAGC>
~h "BN"
<BEGINHMM>
<NUMSTATES> 5
<STATE> 2
<NUMMIXES> 4
<MIXTURE> 1 3.111856e-01
<MEAN> 33
 1.743869e+02 1.388215e+02 1.046046e+02 1.397219e+02 1.761971e+02 1.769594e+02 1.353584e+02 1.340978e+02 9.054383e+01 1.603570e+02 1.764923e+02 9.560048e-01 1.756486e+02 1.624428e+02 1.646067e+02 1.669029e+02 1.705707e+02 8.078010e+00 1.049860e+02 1.614148e+02 1.695220e+02 1.635809e+02 1.098331e+02 1.617525e+02 6.934077e+01 9.279773e+01 1.605702e+02 4.351533e+00 2.301307e+00 2.569335e+00 2.389787e+00 2.266722e+00 4.681597e+00
<VARIANCE> 33
 3.902650e+01 1.762592e+01 4.605888e+01 2.762406e+01 3.037716e+01 3.787727e+00 2.822034e+01 2.062020e+01 1.886277e+01 3.442063e+01 9.203233e+00 5.357184e-01 8.026814e+00 3.219133e+01 4.178383e+01 6.481382e+01 5.260897e+01 3.148238e+01 3.990148e+02 9.164724e+01 2.566545e+01 1.025069e+02 3.603455e+02 1.870895e+02 6.139213e+02 8.146824e+02 1.978773e+02 4.603519e+00 3.771263e-01 2.476994e-01 3.693591e-01 3.088870e-01 2.849017e+00
<GCONST> 1.603293e+02
<MIXTURE> 2 1.308613e-01
<MEAN> 33
 1.479946e+02 1.371536e+02 1.106193e+02 1.362266e+02 1.750465e+02 1.766895e+02 1.241597e+02 1.347231e+02 1.007187e+02 1.213947e+02 1.751169e+02 1.001756e+00 1.756136e+02 1.609480e+02 1.613570e+02 1.193250e+02 1.664459e+02 4.853729e+01 5.503494e+01 1.578326e+02 1.689341e+02 1.638021e+02 1.006368e+02 1.589930e+02 4.544938e+01 7.503871e+01 1.175669e+02 8.721660e+00 3.076192e+00 3.030109e+00 2.595165e+00 2.117297e+00 4.228234e+00
<VARIANCE> 33
 3.658405e+02 2.119188e+01 4.059782e+01 1.336959e+01 3.037716e+01 7.861083e+00 2.365988e+02 2.062020e+01 2.874828e+02 2.143224e+02 1.636579e+01 6.506709e-01 6.578793e+00 3.779470e+01 4.101036e+01 3.534517e+02 6.516304e+01 4.514312e+02 2.648005e+02 1.522629e+02 2.419349e+01 8.958408e+01 5.119469e+02 2.328934e+02 5.618479e+02 7.562231e+02 2.830862e+02 1.492947e+00 5.310188e-01 1.029365e-01 7.313004e-02 9.166775e-02 9.650497e-01
<GCONST> 1.696852e+02
<MIXTURE> 3 2.133672e-01
<MEAN> 33
 1.721612e+02 1.357908e+02 1.128879e+02 1.380344e+02 1.700479e+02 1.757682e+02 1.344458e+02 1.336258e+02 9.192842e+01 1.566490e+02 1.693867e+02 1.748694e+00 1.727714e+02 1.582951e+02 1.607027e+02 1.601982e+02 1.593315e+02 2.206528e+01 1.004810e+02 1.408505e+02 1.707169e+02 1.517757e+02 1.078977e+02 1.435599e+02 9.551636e+01 8.118928e+01 1.488422e+02 5.182670e+00 3.543420e+00 2.898335e+00 2.721511e+00 2.963854e+00 5.172945e+00
<VARIANCE> 33
 3.902650e+01 3.243762e+01 6.701580e+01 4.403640e+01 5.941611e+01 1.210208e+01 3.573063e+01 3.829113e+01 8.599393e+01 1.641177e+02 6.161244e+01 1.841558e+00 3.386494e+01 2.650458e+02 3.101873e+01 2.435375e+02 2.349438e+02 3.120950e+02 1.892084e+03 3.829355e+02 3.662282e+01 2.410786e+02 1.818920e+03 8.183224e+02 2.293790e+03 2.204276e+03 6.179387e+02 3.830310e+00 2.758730e+00 5.434445e-01 2.371398e-01 1.195531e+00 4.411625e+00
<GCONST> 1.937302e+02
<MIXTURE> 4 3.445849e-01
<MEAN> 33
 7.451704e+01 1.465002e+02 1.126228e+02 1.482459e+02 1.168158e+02 1.742248e+02 5.842575e+01 9.979727e+01 1.121366e+02 9.987784e+01 1.465573e+02 2.972763e+00 1.673564e+02 1.351335e+02 1.647773e+02 7.176086e+01 1.116587e+02 8.732195e+01 9.155580e+01 1.307104e+02 1.711391e+02 1.532050e+02 5.765508e+01 1.185390e+02 5.782962e+01 9.900767e+01 9.773560e+01 5.181658e+00 3.763600e+00 3.387202e+00 2.706702e+00 3.758328e+00 4.017290e+00
<VARIANCE> 33
 3.980922e+03 2.658598e+02 7.021305e+01 3.743328e+02 1.749307e+03 1.998184e+01 2.907550e+03 1.660794e+03 2.047335e+03 1.694537e+03 7.317099e+02 1.614360e+01 1.454311e+02 1.369650e+03 3.414604e+01 3.031318e+03 1.982851e+03 3.018461e+03 1.793828e+03 6.325964e+02 5.227349e+01 4.701014e+02 1.826661e+03 2.075651e+03 1.768906e+03 3.138962e+03 2.460823e+03 3.743365e+00 2.186780e+00 6.103798e-01 5.907111e-01 9.920846e-01 2.535415e+00
<GCONST> 2.388837e+02
<STATE> 3
<NUMMIXES> 4
<MIXTURE> 1 2.044336e-01
<MEAN> 33
 5.940120e+01 1.530682e+02 1.132613e+02 1.351853e+02 1.713035e+02 1.766132e+02 5.107755e+01 1.367343e+02 1.493920e+02 9.181738e+01 1.549983e+02 3.025999e+00 1.746620e+02 1.627281e+02 1.619532e+02 6.422133e+01 1.674793e+02 1.161042e+02 8.188050e+01 1.448201e+02 1.683380e+02 1.537300e+02 1.087486e+02 1.439513e+02 3.113571e+01 1.098174e+02 1.191393e+02 7.909656e+00 3.574497e+00 3.524017e+00 2.540043e+00 2.461568e+00 3.380412e+00
<VARIANCE> 33
 2.526530e+03 2.820002e+02 8.324467e+01 1.598938e+01 3.851711e+01 9.211082e+00 1.491037e+03 2.062020e+01 6.031524e+02 8.625702e+02 2.189868e+02 8.815848e+00 1.237274e+01 2.993864e+01 2.916342e+01 8.787166e+02 5.583801e+01 1.333200e+03 8.425587e+02 5.358783e+02 2.980401e+01 1.717857e+02 9.948386e+02 6.093239e+02 4.188929e+02 2.370054e+03 5.040955e+02 1.548480e+00 1.149116e+00 4.767858e-01 1.298873e-01 3.246449e-01 6.047687e-01
<GCONST> 1.966104e+02
<MIXTURE> 2 3.325699e-01
<MEAN> 33
 1.815384e+01 1.646429e+02 1.057344e+02 1.363377e+02 1.748364e+02 1.761759e+02 1.610457e+01 1.356241e+02 1.517279e+02 6.403864e+01 1.367144e+02 2.041687e+00 1.749261e+02 1.635933e+02 1.624690e+02 2.800827e+01 1.659496e+02 1.396244e+02 7.764102e+01 1.372551e+02 1.698147e+02 1.630538e+02 1.091468e+02 1.153999e+02 5.320723e+01 1.077864e+02 1.074096e+02 5.628791e+00 4.092931e+00 2.984043e+00 2.898375e+00 2.200328e+00 4.421154e+00
<VARIANCE> 33
 8.202560e+01 1.918072e+02 6.263887e+01 1.633611e+01 3.037716e+01 9.964392e+00 2.822034e+01 2.062020e+01 3.297297e+01 2.557005e+02 4.860703e+02 3.700102e+00 1.929857e+01 2.229267e+01 3.232567e+01 3.071743e+01 7.663774e+01 1.536859e+02 2.450716e+02 2.602372e+02 5.410057e+01 1.122375e+02 3.955298e+02 1.746471e+03 1.602580e+03 2.505941e+03 2.321152e+02 6.828455e-01 1.028682e+00 5.644326e-01 2.195169e-01 1.061966e-01 1.104253e+00
<GCONST> 1.774851e+02
<MIXTURE> 3 3.325699e-01
<MEAN> 33
 1.815384e+01 1.646429e+02 1.057344e+02 1.363377e+02 1.748364e+02 1.761759e+02 1.610457e+01 1.356241e+02 1.517279e+02 6.403864e+01 1.367144e+02 2.041687e+00 1.749261e+02 1.635933e+02 1.624690e+02 2.800827e+01 1.659496e+02 1.396244e+02 7.764102e+01 1.372551e+02 1.698147e+02 1.630538e+02 1.091468e+02 1.153999e+02 5.320723e+01 1.077864e+02 1.074096e+02 5.628791e+00 4.092931e+00 2.984043e+00 2.898375e+00 2.200328e+00 4.421154e+00
<VARIANCE> 33
 8.202560e+01 1.918072e+02 6.263887e+01 1.633611e+01 3.037716e+01 9.964392e+00 2.822034e+01 2.062020e+01 3.297297e+01 2.557005e+02 4.860703e+02 3.700102e+00 1.929857e+01 2.229267e+01 3.232567e+01 3.071743e+01 7.663774e+01 1.536859e+02 2.450716e+02 2.602372e+02 5.410057e+01 1.122375e+02 3.955298e+02 1.746471e+03 1.602580e+03 2.505941e+03 2.321152e+02 6.828455e-01 1.028682e+00 5.644326e-01 2.195169e-01 1.061966e-01 1.104253e+00
<GCONST> 1.774851e+02
<MIXTURE> 4 1.304261e-01
<MEAN> 33
 3.759915e+01 1.579922e+02 1.173496e+02 1.363565e+02 1.487216e+02 1.753085e+02 3.197874e+01 1.262009e+02 1.516800e+02 6.036497e+01 1.468041e+02 1.406188e+01 1.578087e+02 1.439193e+02 1.611496e+02 3.988897e+01 1.408459e+02 1.219379e+02 6.321029e+01 1.530875e+02 1.580672e+02 1.525688e+02 8.089451e+01 6.565578e+01 9.702273e+01 1.186373e+02 1.045766e+02 4.760938e+00 4.150884e+00 2.148599e+00 2.883622e+00 3.249281e+00 5.005874e+00
<VARIANCE> 33
 2.031329e+03 2.668890e+02 1.503979e+02 1.601429e+02 1.146273e+03 1.224328e+01 1.151871e+03 6.886993e+02 2.897910e+02 1.474613e+03 6.810197e+02 1.818126e+02 1.816654e+02 8.243591e+02 4.291340e+01 1.755886e+03 1.157649e+03 9.632484e+02 3.673083e+02 2.936665e+02 2.990974e+02 1.874408e+02 1.349735e+03 1.823789e+03 2.119993e+03 1.489285e+03 6.736075e+02 2.083965e+00 1.486389e+00 5.538306e-01 4.256157e-01 1.207978e+00 3.900607e+00
<GCONST> 2.287914e+02
<STATE> 4
<NUMMIXES> 4
<MIXTURE> 1 4.567944e-01
<MEAN> 33
 1.719863e+02 1.373742e+02 1.104409e+02 1.373822e+02 1.733318e+02 1.762262e+02 1.357634e+02 1.358028e+02 8.843378e+01 1.598163e+02 1.718350e+02 1.943110e+00 1.738502e+02 1.633463e+02 1.617105e+02 1.603848e+02 1.670179e+02 1.724860e+01 1.080606e+02 1.505318e+02 1.681346e+02 1.586038e+02 1.097239e+02 1.499524e+02 8.495100e+01 8.445187e+01 1.516643e+02 5.445369e+00 2.955056e+00 2.901617e+00 2.695880e+00 2.545940e+00 4.783704e+00
<VARIANCE> 33
 5.730816e+01 3.391134e+01 6.474344e+01 3.871232e+01 3.492585e+01 1.150160e+01 2.822034e+01 2.062020e+01 3.829361e+01 1.342932e+02 4.781034e+01 5.233322e+00 2.537134e+01 5.599417e+01 3.550409e+01 2.331608e+02 8.574915e+01 1.874296e+02 1.452381e+03 3.807982e+02 2.628815e+01 2.062796e+02 8.529527e+02 7.761815e+02 1.479135e+03 1.573297e+03 4.864300e+02 4.574191e+00 1.536891e+00 3.105724e-01 2.835449e-01 8.471765e-01 2.708839e+00
<GCONST> 1.848665e+02
<MIXTURE> 2 2.033224e-01
<MEAN> 33
 1.697942e+02 1.364372e+02 1.165040e+02 1.492740e+02 2.462866e+01 1.723190e+02 1.365702e+02 2.640645e+01 1.593337e+02 1.576255e+02 1.745416e+02 8.579241e+00 1.269904e+02 7.011573e+01 1.637913e+02 1.660415e+02 3.427731e+01 1.334626e+02 7.761214e+01 1.507046e+02 1.664198e+02 1.370622e+02 7.187729e+01 1.318481e+02 6.638380e+01 7.057020e+01 1.111209e+02 3.186687e+00 2.506992e+00 2.642141e+00 3.069237e+00 4.159545e+00 6.212444e+00
<VARIANCE> 33
 3.902650e+01 3.610587e+01 1.100249e+02 4.457650e+02 6.122254e+02 2.682523e+01 2.822034e+01 2.290189e+02 9.859091e+01 5.540836e+01 1.927051e+01 1.892822e+02 9.684232e+02 4.620456e+02 1.069104e+02 9.881426e+01 2.605654e+02 2.467076e+02 8.247906e+02 4.640729e+02 7.687227e+01 4.548539e+02 5.644026e+02 2.025481e+03 1.763861e+03 2.142375e+03 1.993141e+02 2.058942e+00 4.149010e-01 2.633206e-01 8.268126e-01 1.682953e+00 2.095515e+00
<GCONST> 2.046213e+02
<MIXTURE> 3 1.974657e-01
<MEAN> 33
 1.723226e+02 1.394151e+02 1.056939e+02 1.688571e+02 1.993133e+01 1.766167e+02 1.351788e+02 2.089392e+01 1.560728e+02 1.582312e+02 1.676223e+02 1.536227e+00 1.485690e+02 5.317108e+01 1.639212e+02 1.668640e+02 2.554298e+01 1.418944e+02 9.677190e+01 1.537879e+02 1.672486e+02 1.487801e+02 6.782217e+01 7.752449e+01 1.120369e+02 8.506749e+01 1.169615e+02 4.680261e+00 2.559569e+00 2.637110e+00 2.456969e+00 4.452225e+00 5.749850e+00
<VARIANCE> 33
 3.902650e+01 4.375212e+01 3.746117e+01 5.597029e+01 7.300625e+01 7.609995e+00 2.822034e+01 2.517098e+01 3.456953e+01 3.585598e+01 9.287090e+01 1.672446e+00 4.889684e+02 2.180693e+02 3.848111e+01 8.293567e+01 2.601832e+01 1.057969e+02 2.784224e+02 1.900276e+02 7.406687e+01 3.321084e+02 2.382020e+02 2.530141e+03 1.773321e+03 2.765229e+03 1.983750e+02 1.726295e+00 2.176281e-01 2.995123e-01 4.710172e-01 9.599866e-01 1.380724e+00
<GCONST> 1.806961e+02
<MIXTURE> 4 1.424168e-01
<MEAN> 33
 1.279053e+02 1.447217e+02 1.118356e+02 1.428012e+02 1.077470e+02 1.747993e+02 1.036872e+02 8.504789e+01 1.058357e+02 1.239631e+02 1.618365e+02 6.063076e+00 1.549714e+02 1.127962e+02 1.655190e+02 1.174968e+02 9.120686e+01 5.974049e+01 8.299861e+01 1.429281e+02 1.689393e+02 1.462579e+02 8.650501e+01 1.042585e+02 9.834155e+01 6.678439e+01 1.085316e+02 4.527427e+00 3.021889e+00 2.579137e+00 2.840269e+00 3.547495e+00 5.808006e+00
<VARIANCE> 33
 2.886896e+03 1.806931e+02 1.383359e+02 1.132235e+03 3.482306e+03 1.871543e+01 1.858566e+03 2.265493e+03 1.437759e+03 2.015301e+03 2.582380e+02 8.660966e+01 7.624813e+02 1.737654e+03 4.429427e+01 2.956916e+03 2.766055e+03 1.632101e+03 1.582921e+03 3.641794e+02 5.623091e+01 1.168885e+03 1.604765e+03 2.601035e+03 2.774527e+03 2.027110e+03 1.874266e+03 3.143858e+00 9.128165e-01 4.731432e-01 8.655596e-01 1.886914e+00 5.358615e+00
<GCONST> 2.433674e+02
<TRANSP> 5
 0.000000e+00 1.000000e+00 0.000000e+00 0.000000e+00 0.000000e+00
 0.000000e+00 8.571059e-01 1.428942e-01 0.000000e+00 0.000000e+00
 0.000000e+00 0.000000e+00 9.544068e-01 4.559319e-02 0.000000e+00
 0.000000e+00 0.000000e+00 0.000000e+00 9.514072e-01 4.859279e-02
 0.000000e+00 0.000000e+00 0.000000e+00 0.000000e+00 0.000000e+00
<ENDHMM>
~h "BS"
<BEGINHMM>
<NUMSTATES> 5
<STATE> 2
<NUMMIXES> 4
<MIXTURE> 1 2.562079e-01
<MEAN> 33
 1.732318e+02 1.369814e+02 1.079407e+02 1.380763e+02 1.749747e+02 1.763528e+02 1.354336e+02 1.347022e+02 8.986417e+01 1.566673e+02 1.751310e+02 1.049771e+00 1.749688e+02 1.600634e+02 1.625017e+02 1.606679e+02 1.655496e+02 9.864201e+00 1.002333e+02 1.584087e+02 1.701231e+02 1.625256e+02 1.049569e+02 1.592697e+02 7.474149e+01 8.192637e+01 1.489036e+02 5.292792e+00 2.639300e+00 2.694298e+00 2.550566e+00 2.246058e+00 4.842506e+00
<VARIANCE> 33
 3.902650e+01 2.159487e+01 5.629773e+01 3.112738e+01 3.037716e+01 1.142771e+01 2.822034e+01 2.062020e+01 2.645118e+01 1.129887e+02 2.005040e+01 1.258390e+00 1.725413e+01 7.548038e+01 4.159409e+01 1.363945e+02 1.026876e+02 8.047324e+01 9.106899e+02 2.123326e+02 2.536103e+01 1.751784e+02 6.198427e+02 3.171939e+02 1.037622e+03 9.679921e+02 4.019384e+02 3.954166e+00 7.839208e-01 3.106569e-01 2.786425e-01 5.265031e-01 3.583740e+00
<GCONST> 1.750330e+02
<MIXTURE> 2 2.082264e-01
<MEAN> 33
 1.109959e+02 1.370185e+02 1.156824e+02 1.400945e+02 1.218499e+02 1.751447e+02 9.809293e+01 1.027304e+02 1.146000e+02 1.152971e+02 1.640886e+02 3.898870e+00 1.613241e+02 1.191141e+02 1.597494e+02 9.364364e+01 9.573949e+01 1.269690e+01 9.653499e+01 1.357727e+02 1.701376e+02 1.502697e+02 9.455304e+01 1.453180e+02 4.246998e+01 5.799776e+01 5.553706e+01 5.600788e+00 2.834662e+00 3.060928e+00 2.987583e+00 2.967902e+00 5.389453e+00
<VARIANCE> 33
 1.373669e+03 9.057269e+01 9.826154e+01 1.204721e+02 1.061671e+03 2.262615e+01 1.517549e+03 1.163443e+03 2.165918e+03 2.597950e+02 1.300996e+02 1.732643e+02 2.756104e+02 2.662091e+02 4.281520e+01 4.984335e+02 5.130369e+02 2.215536e+02 1.917031e+03 8.191402e+02 3.188535e+01 4.145818e+02 1.427477e+03 1.109829e+03 1.389883e+03 1.728228e+03 1.238330e+03 2.458156e+00 9.900793e-01 4.002078e-01 3.292091e-01 1.019058e+00 1.840311e+00
<GCONST> 2.216439e+02
<MIXTURE> 3 2.082264e-01
<MEAN> 33
 1.109959e+02 1.370185e+02 1.156824e+02 1.400945e+02 1.218499e+02 1.751447e+02 9.809293e+01 1.027304e+02 1.146000e+02 1.152971e+02 1.640886e+02 3.898870e+00 1.613241e+02 1.191141e+02 1.597494e+02 9.364364e+01 9.573949e+01 1.269690e+01 9.653499e+01 1.357727e+02 1.701376e+02 1.502697e+02 9.455304e+01 1.453180e+02 4.246998e+01 5.799776e+01 5.553706e+01 5.600788e+00 2.834662e+00 3.060928e+00 2.987583e+00 2.967902e+00 5.389453e+00
<VARIANCE> 33
 1.373669e+03 9.057269e+01 9.826154e+01 1.204721e+02 1.061671e+03 2.262615e+01 1.517549e+03 1.163443e+03 2.165918e+03 2.597950e+02 1.300996e+02 1.732643e+02 2.756104e+02 2.662091e+02 4.281520e+01 4.984335e+02 5.130369e+02 2.215536e+02 1.917031e+03 8.191402e+02 3.188535e+01 4.145818e+02 1.427477e+03 1.109829e+03 1.389883e+03 1.728228e+03 1.238330e+03 2.458156e+00 9.900793e-01 4.002078e-01 3.292091e-01 1.019058e+00 1.840311e+00
<GCONST> 2.216439e+02
<MIXTURE> 4 3.273386e-01
<MEAN> 33
 7.387257e+01 1.332683e+02 1.106755e+02 1.385894e+02 7.048706e+01 1.739784e+02 3.583567e+01 3.547416e+01 5.049593e+01 1.052479e+02 1.516134e+02 2.270825e+00 1.541020e+02 1.063307e+02 1.627040e+02 6.830750e+01 6.934011e+01 7.273945e+00 1.131618e+02 1.097583e+02 1.689403e+02 1.265238e+02 9.856365e+01 1.289603e+02 6.144586e+01 5.616830e+01 2.169288e+01 4.007467e+00 3.036975e+00 3.738987e+00 3.539256e+00 3.505757e+00 4.018667e+00
<VARIANCE> 33
 4.871906e+02 9.452276e+01 7.104251e+01 9.608459e+01 5.552410e+02 3.568144e+01 5.231077e+02 6.037999e+02 1.355318e+03 4.267934e+02 3.161208e+02 1.203587e+01 3.213155e+02 4.135111e+02 3.922657e+01 1.564535e+02 1.652588e+02 4.698004e+01 7.609890e+02 5.828362e+02 1.237869e+02 5.595815e+02 5.765351e+02 2.018204e+03 2.316773e+03 2.321918e+03 2.979001e+02 5.449523e-01 9.831218e-01 4.149786e-01 2.743114e-01 1.056944e+00 5.233086e-01
<GCONST> 2.096824e+02
<STATE> 3
<NUMMIXES> 4
<MIXTURE> 1 2.483022e-01
<MEAN> 33
 1.466383e+02 1.584059e+02 1.101593e+02 1.607370e+02 1.504919e+02 1.750430e+02 8.935741e+01 8.974578e+01 1.623671e+02 1.112516e+02 1.678361e+02 2.198554e+00 1.590452e+02 1.021332e+02 1.643260e+02 8.864004e+01 8.015800e+01 4.746187e+01 1.250662e+02 1.590493e+02 1.651754e+02 1.503785e+02 1.188271e+02 1.356621e+02 8.043767e+01 9.506548e+01 1.544890e+02 6.398630e+00 3.767016e+00 1.784478e+00 1.622883e+00 4.249754e+00 6.292304e+00
<VARIANCE> 33
 4.170632e+02 1.113911e+02 7.577529e+01 8.569125e+01 2.995327e+02 1.701641e+01 1.741703e+02 1.240410e+02 1.266849e+02 1.257923e+03 9.366095e+01 4.629711e+00 2.237057e+02 1.191878e+03 5.144573e+01 2.024988e+03 2.529644e+03 1.575219e+03 6.492954e+02 1.461611e+02 8.235375e+01 1.865245e+02 4.711307e+02 1.747535e+03 1.278640e+03 1.302261e+03 4.313910e+02 2.299194e+00 2.923974e+00 1.564798e-01 1.291417e-01 3.896840e+00 2.513456e+00
<GCONST> 2.113877e+02
<MIXTURE> 2 2.849588e-01
<MEAN> 33
 1.365945e+02 1.396214e+02 1.157657e+02 1.399429e+02 1.483156e+02 1.756144e+02 9.093049e+01 9.442770e+01 1.663170e+02 1.023166e+02 1.724925e+02 3.130256e+00 1.723300e+02 1.060520e+02 1.602237e+02 9.049687e+01 9.518758e+01 1.019091e+01 9.966680e+01 1.501503e+02 1.695152e+02 1.547299e+02 9.885988e+01 1.429926e+02 4.949660e+01 8.070927e+01 1.170850e+02 8.116702e+00 2.187852e+00 2.392127e+00 2.283488e+00 2.374525e+00 7.925989e+00
<VARIANCE> 33
 4.738531e+02 5.548990e+01 1.237019e+02 6.961366e+01 3.990217e+02 1.460331e+01 7.966993e+01 7.432896e+01 9.645999e+01 1.653652e+02 3.907760e+01 1.252216e+01 3.678704e+01 1.933814e+02 4.010055e+01 1.801125e+02 2.397883e+02 6.819639e+01 1.069240e+03 4.806603e+02 4.057208e+01 2.895185e+02 7.552200e+02 9.473345e+02 1.400865e+03 1.244222e+03 3.657927e+02 7.881009e-01 5.550202e-01 7.752895e-02 7.884412e-02 5.887976e-01 6.476291e-01
<GCONST> 1.899584e+02
<MIXTURE> 3 2.849588e-01
<MEAN> 33
 1.365945e+02 1.396214e+02 1.157657e+02 1.399429e+02 1.483156e+02 1.756144e+02 9.093049e+01 9.442770e+01 1.663170e+02 1.023166e+02 1.724925e+02 3.130256e+00 1.723300e+02 1.060520e+02 1.602237e+02 9.049687e+01 9.518758e+01 1.019091e+01 9.966680e+01 1.501503e+02 1.695152e+02 1.547299e+02 9.885988e+01 1.429926e+02 4.949660e+01 8.070927e+01 1.170850e+02 8.116702e+00 2.187852e+00 2.392127e+00 2.283488e+00 2.374525e+00 7.925989e+00
<VARIANCE> 33
 4.738531e+02 5.548990e+01 1.237019e+02 6.961366e+01 3.990217e+02 1.460331e+01 7.966993e+01 7.432896e+01 9.645999e+01 1.653652e+02 3.907760e+01 1.252216e+01 3.678704e+01 1.933814e+02 4.010055e+01 1.801125e+02 2.397883e+02 6.819639e+01 1.069240e+03 4.806603e+02 4.057208e+01 2.895185e+02 7.552200e+02 9.473345e+02 1.400865e+03 1.244222e+03 3.657927e+02 7.881009e-01 5.550202e-01 7.752895e-02 7.884412e-02 5.887976e-01 6.476291e-01
<GCONST> 1.899584e+02
<MIXTURE> 4 1.817796e-01
<MEAN> 33
 1.011922e+02 1.529889e+02 1.066619e+02 1.623036e+02 1.091713e+02 1.647445e+02 7.082439e+01 6.836494e+01 1.388550e+02 6.370597e+01 1.711730e+02 2.976133e+00 1.717666e+02 5.441429e+01 1.627574e+02 3.667040e+01 2.825786e+01 1.417656e+01 1.355730e+02 1.628943e+02 1.658477e+02 1.675000e+02 1.295788e+02 1.322070e+02 7.720215e+01 7.861415e+01 1.510228e+02 6.164357e+00 2.589248e+00 1.969177e+00 1.713838e+00 2.932818e+00 7.059025e+00
<VARIANCE> 33
 2.805432e+02 9.944363e+01 2.447556e+01 1.183202e+02 3.284714e+02 9.785670e+01 5.596038e+01 6.875253e+01 2.338554e+02 6.579644e+02 6.147174e+01 4.641132e+00 4.655235e+01 4.726042e+02 3.944050e+01 4.047365e+02 3.916501e+02 8.562092e+01 5.378278e+02 1.048947e+02 4.782631e+01 1.294601e+02 3.432287e+02 1.101415e+03 1.543562e+03 1.291171e+03 4.490788e+02 2.031452e+00 2.123552e+00 2.597089e-01 1.703156e-01 2.130435e+00 1.547109e+00
<GCONST> 1.978478e+02
<STATE> 4
<NUMMIXES> 4
<MIXTURE> 1 4.224909e-01
<MEAN> 33
 1.741721e+02 1.365016e+02 1.091386e+02 1.381992e+02 1.739541e+02 1.768578e+02 1.358803e+02 1.353943e+02 8.872533e+01 1.618605e+02 1.749098e+02 9.266077e-01 1.748547e+02 1.650002e+02 1.614505e+02 1.649754e+02 1.680502e+02 8.587203e+00 1.075323e+02 1.606828e+02 1.684183e+02 1.661770e+02 1.140418e+02 1.590413e+02 8.284911e+01 7.722078e+01 1.550107e+02 5.566532e+00 2.342263e+00 2.979656e+00 2.705570e+00 2.169369e+00 5.194590e+00
<VARIANCE> 33
 3.902650e+01 2.076322e+01 3.788258e+01 1.817947e+01 3.037716e+01 5.241008e+00 2.822034e+01 2.062020e+01 4.002810e+01 5.591900e+01 1.520459e+01 5.357184e-01 1.037573e+01 5.470081e+01 3.097750e+01 7.738764e+01 6.859834e+01 3.271908e+01 7.657377e+02 1.089943e+02 1.792643e+01 8.853175e+01 6.706899e+02 1.631281e+02 6.343456e+02 6.799296e+02 2.504707e+02 2.107110e+00 2.355924e-01 2.622195e-01 1.642110e-01 1.521724e-01 2.106379e+00
<GCONST> 1.607885e+02
<MIXTURE> 2 2.069371e-01
<MEAN> 33
 1.672025e+02 1.415186e+02 1.129734e+02 1.434294e+02 1.664717e+02 1.758268e+02 1.239166e+02 1.224995e+02 1.135839e+02 1.369359e+02 1.713363e+02 1.837417e+00 1.689972e+02 1.385786e+02 1.620840e+02 1.345793e+02 1.342038e+02 1.190246e+01 9.199073e+01 1.585682e+02 1.652827e+02 1.619040e+02 9.620287e+01 1.547645e+02 5.580147e+01 6.318458e+01 1.148473e+02 6.812218e+00 2.626775e+00 2.537277e+00 2.479835e+00 2.635349e+00 7.023289e+00
<VARIANCE> 33
 7.269005e+01 6.095929e+01 6.529753e+01 8.618396e+01 7.657269e+01 1.134539e+01 1.904266e+02 1.591934e+02 6.056137e+02 2.186521e+02 4.466840e+01 3.508267e+00 5.962751e+01 2.114709e+02 4.417188e+01 2.456242e+02 2.406855e+02 1.012600e+02 6.765140e+02 1.844911e+02 6.053402e+01 1.440973e+02 5.581151e+02 3.131885e+02 7.994705e+02 7.487604e+02 5.303342e+02 1.616502e+00 4.924951e-01 1.307044e-01 1.698763e-01 4.323879e-01 1.395838e+00
<GCONST> 1.883667e+02
<MIXTURE> 3 2.339159e-01
<MEAN> 33
 1.706537e+02 1.394778e+02 1.119844e+02 1.419017e+02 1.686572e+02 1.746059e+02 1.347034e+02 1.331078e+02 9.218882e+01 1.595855e+02 1.718784e+02 2.540775e+00 1.698273e+02 1.634084e+02 1.622109e+02 1.635051e+02 1.603015e+02 1.416904e+01 1.112878e+02 1.463411e+02 1.670796e+02 1.507331e+02 1.248830e+02 1.432905e+02 8.608170e+01 1.024684e+02 1.471366e+02 4.579039e+00 3.619151e+00 2.628748e+00 2.503198e+00 3.040379e+00 4.727536e+00
<VARIANCE> 33
 7.511194e+01 6.320372e+01 9.104819e+01 9.271600e+01 7.529801e+01 2.001081e+01 5.796671e+01 6.361553e+01 1.919389e+02 1.687058e+02 4.353391e+01 6.983008e+00 6.100734e+01 1.389668e+02 4.317743e+01 1.460581e+02 1.777018e+02 1.568174e+02 1.787456e+03 3.109687e+02 4.820398e+01 2.880169e+02 1.416305e+03 1.550065e+03 1.555484e+03 1.483015e+03 4.860481e+02 3.052802e+00 2.999875e+00 3.604728e-01 2.576635e-01 1.238434e+00 2.948862e+00
<GCONST> 1.971585e+02
<MIXTURE> 4 1.366551e-01
<MEAN> 33
 1.230865e+02 1.361671e+02 1.152051e+02 1.414687e+02 1.007614e+02 1.710318e+02 1.069273e+02 8.605559e+01 1.021277e+02 1.169840e+02 1.678495e+02 4.488167e+00 1.624773e+02 9.722014e+01 1.605723e+02 1.025491e+02 7.468701e+01 3.666832e+01 9.731187e+01 1.291089e+02 1.687628e+02 1.451103e+02 9.108643e+01 1.328898e+02 5.479307e+01 7.404718e+01 8.123933e+01 5.438812e+00 2.996861e+00 2.996416e+00 2.907981e+00 3.754406e+00 5.659977e+00
<VARIANCE> 33
 1.722721e+03 1.208497e+02 1.591445e+02 2.277445e+02 2.571435e+03 5.347333e+01 2.178856e+03 2.873542e+03 3.013711e+03 1.484566e+03 6.587555e+01 2.091961e+01 1.508606e+02 1.449226e+03 6.656927e+01 2.045680e+03 1.635925e+03 2.318586e+03 1.550909e+03 1.058852e+03 6.277364e+01 6.131351e+02 1.081298e+03 1.466232e+03 1.959021e+03 2.014667e+03 2.822699e+03 1.910810e+00 1.035130e+00 7.452329e-01 7.294337e-01 1.432742e+00 2.274218e+00
<GCONST> 2.362169e+02
<TRANSP> 5
 0.000000e+00 1.000000e+00 0.000000e+00 0.000000e+00 0.000000e+00
 0.000000e+00 9.294661e-01 7.053387e-02 0.000000e+00 0.000000e+00
 0.000000e+00 0.000000e+00 9.338282e-01 6.617177e-02 0.000000e+00
 0.000000e+00 0.000000e+00 0.000000e+00 9.315313e-01 6.846878e-02
 0.000000e+00 0.000000e+00 0.000000e+00 0.000000e+00 0.000000e+00
<ENDHMM>
~h "CF"
<BEGINHMM>
<NUMSTATES> 5
<STATE> 2
<NUMMIXES> 4
<MIXTURE> 1 3.847768e-01
<MEAN> 33
 1.723700e+02 1.359197e+02 1.096182e+02 1.367042e+02 1.746973e+02 1.764577e+02 1.351275e+02 1.347864e+02 9.008605e+01 1.553348e+02 1.754479e+02 1.402698e+00 1.744264e+02 1.611904e+02 1.610234e+02 1.608441e+02 1.652005e+02 1.392380e+01 9.153448e+01 1.535884e+02 1.695306e+02 1.643887e+02 1.078320e+02 1.584835e+02 6.998907e+01 8.475915e+01 1.500864e+02 5.452242e+00 2.582206e+00 2.795553e+00 2.685110e+00 2.199155e+00 5.133372e+00
<VARIANCE> 33
 3.902650e+01 2.356295e+01 4.746706e+01 2.806512e+01 3.037716e+01 1.011921e+01 2.822034e+01 2.062020e+01 3.341821e+01 1.023356e+02 2.291848e+01 3.444771e+00 1.337084e+01 6.636977e+01 3.731800e+01 1.740273e+02 1.014151e+02 1.806422e+02 8.770402e+02 3.497143e+02 2.850661e+01 1.418921e+02 5.877883e+02 2.257102e+02 9.532573e+02 1.126150e+03 3.738665e+02 4.742440e+00 7.778220e-01 3.480913e-01 2.419263e-01 4.733345e-01 3.410168e+00
<GCONST> 1.765063e+02
<MIXTURE> 2 1.526604e-01
<MEAN> 33
 5.249838e+01 1.543057e+02 1.107654e+02 1.359325e+02 1.754465e+02 1.758750e+02 3.707447e+01 1.349648e+02 1.391949e+02 1.035928e+02 1.371054e+02 1.398233e+00 1.759694e+02 1.659246e+02 1.577457e+02 5.895114e+01 1.672203e+02 1.187733e+02 7.627188e+01 1.384423e+02 1.687780e+02 1.577851e+02 1.177902e+02 1.579067e+02 3.062103e+01 8.158224e+01 1.024158e+02 7.607937e+00 3.918528e+00 3.611044e+00 2.620432e+00 2.079979e+00 3.235854e+00
<VARIANCE> 33
 1.951630e+03 2.201756e+02 4.464708e+01 1.427368e+01 3.037716e+01 1.000743e+01 1.913165e+03 2.062020e+01 4.633837e+02 3.982078e+02 9.726524e+02 1.606094e+00 7.815652e+00 5.703407e+01 4.319913e+01 7.695999e+02 8.121889e+01 1.296041e+03 5.251121e+02 4.451409e+02 1.652822e+01 1.638611e+02 8.443515e+02 2.273002e+02 3.685891e+02 1.044645e+03 3.539579e+02 1.621893e+00 9.693194e-01 4.038989e-01 1.366231e-01 1.289067e-01 6.920805e-01
<GCONST> 1.902327e+02
<MIXTURE> 3 1.526604e-01
<MEAN> 33
 5.249838e+01 1.543057e+02 1.107654e+02 1.359325e+02 1.754465e+02 1.758750e+02 3.707447e+01 1.349648e+02 1.391949e+02 1.035928e+02 1.371054e+02 1.398233e+00 1.759694e+02 1.659246e+02 1.577457e+02 5.895114e+01 1.672203e+02 1.187733e+02 7.627188e+01 1.384423e+02 1.687780e+02 1.577851e+02 1.177902e+02 1.579067e+02 3.062103e+01 8.158224e+01 1.024158e+02 7.607937e+00 3.918528e+00 3.611044e+00 2.620432e+00 2.079979e+00 3.235854e+00
<VARIANCE> 33
 1.951630e+03 2.201756e+02 4.464708e+01 1.427368e+01 3.037716e+01 1.000743e+01 1.913165e+03 2.062020e+01 4.633837e+02 3.982078e+02 9.726524e+02 1.606094e+00 7.815652e+00 5.703407e+01 4.319913e+01 7.695999e+02 8.121889e+01 1.296041e+03 5.251121e+02 4.451409e+02 1.652822e+01 1.638611e+02 8.443515e+02 2.273002e+02 3.685891e+02 1.044645e+03 3.539579e+02 1.621893e+00 9.693194e-01 4.038989e-01 1.366231e-01 1.289067e-01 6.920805e-01
<GCONST> 1.902327e+02
<MIXTURE> 4 3.099036e-01
<MEAN> 33
 9.344058e+01 1.391431e+02 1.180178e+02 1.417674e+02 9.476111e+01 1.739758e+02 7.625540e+01 7.357774e+01 1.061870e+02 1.037576e+02 1.572793e+02 7.218089e+00 1.429725e+02 1.145550e+02 1.596171e+02 8.881653e+01 8.555869e+01 7.410948e+01 7.851856e+01 1.263637e+02 1.685359e+02 1.347917e+02 8.257525e+01 1.082215e+02 7.517976e+01 8.193452e+01 8.947012e+01 4.098738e+00 3.359995e+00 3.106540e+00 3.033656e+00 3.883310e+00 5.185772e+00
<VARIANCE> 33
 3.864750e+03 5.428992e+02 2.019592e+02 2.795149e+02 3.542865e+03 1.742309e+01 2.883703e+03 2.765750e+03 2.518864e+03 1.893271e+03 4.928426e+02 2.152247e+02 9.071167e+02 1.222428e+03 2.884904e+01 2.780014e+03 2.324804e+03 2.722432e+03 1.872847e+03 1.429511e+03 1.037152e+02 4.857795e+02 1.524391e+03 2.079738e+03 2.452911e+03 2.095928e+03 2.264197e+03 2.401194e+00 1.975545e+00 1.146658e+00 5.634271e-01 1.722080e+00 3.314943e+00
<GCONST> 2.475281e+02
<STATE> 3
<NUMMIXES> 4
<MIXTURE> 1 3.700119e-01
<MEAN> 33
 2.731828e+01 1.513382e+02 1.109104e+02 1.353448e+02 1.737862e+02 1.756086e+02 7.591204e+00 1.366153e+02 1.434828e+02 8.893507e+01 1.077273e+02 1.914638e+00 1.760700e+02 1.621433e+02 1.597612e+02 2.950523e+01 1.651973e+02 1.360008e+02 7.799928e+01 1.194141e+02 1.736398e+02 1.641885e+02 9.839270e+01 1.247216e+02 5.754208e+01 8.501009e+01 8.843112e+01 5.045485e+00 5.540648e+00 3.214939e+00 3.050405e+00 2.307035e+00 4.195395e+00
<VARIANCE> 33
 2.401784e+02 3.945356e+02 7.144985e+01 9.964143e+00 3.037716e+01 1.383690e+01 2.822034e+01 2.062020e+01 3.556060e+01 3.877618e+02 3.918814e+02 1.850384e+00 7.691241e+00 1.317438e+01 4.330747e+01 3.071743e+01 5.701654e+01 9.309044e+01 3.085028e+02 1.522345e+02 1.737382e+01 1.179225e+02 2.267573e+02 9.837573e+02 9.672681e+02 3.400045e+03 1.822018e+02 6.012082e-01 1.136068e+00 3.318335e-01 1.416443e-01 1.103516e-01 6.394780e-01
<GCONST> 1.724093e+02
<MIXTURE> 2 2.488216e-01
<MEAN> 33
 3.057471e+01 1.494802e+02 1.158472e+02 1.351437e+02 1.696610e+02 1.751453e+02 1.664149e+01 1.362843e+02 1.518537e+02 9.065994e+01 1.155148e+02 7.327137e+00 1.703779e+02 1.619511e+02 1.592947e+02 3.592723e+01 1.660549e+02 1.400938e+02 8.269184e+01 1.276269e+02 1.684541e+02 1.533158e+02 1.075561e+02 1.086098e+02 7.074434e+01 1.134135e+02 1.081011e+02 6.020895e+00 4.421948e+00 3.207700e+00 2.629040e+00 2.534482e+00 3.608345e+00
<VARIANCE> 33
 4.866083e+02 5.764014e+02 2.383334e+02 7.304485e+01 3.439957e+01 1.457549e+01 1.526314e+02 2.062020e+01 1.609020e+02 1.114542e+03 7.460136e+02 1.585373e+02 5.925153e+01 8.790433e+01 4.444644e+01 1.973416e+02 1.109181e+02 4.756716e+02 8.092117e+02 4.717074e+02 1.958281e+02 1.627392e+02 1.149225e+03 1.491947e+03 1.722868e+03 3.511926e+03 5.338629e+02 2.229728e+00 2.229924e+00 1.025020e+00 3.949693e-01 3.915041e-01 1.841892e+00
<GCONST> 2.093641e+02
<MIXTURE> 3 3.258762e-02
<MEAN> 33
 2.196673e+01 1.657288e+02 1.278082e+02 1.303390e+02 1.414075e+02 1.778033e+02 2.098558e+01 1.112505e+02 1.322361e+02 7.794850e+01 1.278579e+02 6.536800e+00 1.672194e+02 1.129848e+02 1.564037e+02 3.074570e+01 1.083538e+02 7.764867e+01 6.552238e+01 1.422563e+02 1.733059e+02 1.501206e+02 4.750837e+01 1.070309e+02 5.540237e+01 1.142457e+02 7.742829e+01 3.714995e+00 5.149276e+00 2.632747e+00 3.233065e+00 4.140023e+00 7.024794e+00
<VARIANCE> 33
 1.952910e+02 1.406972e+02 5.317648e+01 2.205853e+01 3.137542e+02 4.191163e+00 1.066666e+02 4.063533e+02 5.166741e+02 4.359038e+02 6.003661e+02 2.193362e+01 9.463503e+01 1.415348e+02 1.307629e+01 7.570427e+01 3.314284e+02 4.884765e+02 1.665791e+02 2.636848e+02 2.067764e+01 4.738919e+01 1.088754e+02 4.376329e+02 1.140672e+03 6.955379e+02 2.598061e+02 5.277279e-01 7.020260e-01 1.523854e-01 3.113422e-02 2.069603e-01 9.888054e-01
<GCONST> 1.855651e+02
<MIXTURE> 4 3.485782e-01
<MEAN> 33
 1.707144e+02 1.383596e+02 1.148022e+02 1.529761e+02 3.031125e+01 1.753817e+02 1.335528e+02 1.927472e+01 1.491315e+02 1.555621e+02 1.704263e+02 4.589058e+00 1.240373e+02 8.334542e+01 1.609486e+02 1.671289e+02 3.522615e+01 1.348765e+02 8.438893e+01 1.501480e+02 1.700911e+02 1.307622e+02 7.636048e+01 1.106088e+02 8.642983e+01 7.254369e+01 1.044314e+02 3.853921e+00 2.783012e+00 2.602257e+00 3.121882e+00 4.806379e+00 5.899494e+00
<VARIANCE> 33
 3.902650e+01 5.314848e+01 1.228270e+02 3.435312e+02 6.986217e+02 1.647071e+01 3.395665e+01 3.145561e+02 1.262770e+02 7.300861e+01 7.113661e+01 6.351708e+01 6.863589e+02 4.469181e+02 6.094995e+01 9.726691e+01 2.727254e+02 3.485223e+02 5.777672e+02 2.207165e+02 6.373716e+01 4.039816e+02 4.575622e+02 2.215670e+03 2.936211e+03 2.151742e+03 3.435177e+02 1.449085e+00 3.772247e-01 2.975030e-01 6.809753e-01 1.750989e+00 2.002564e+00
<GCONST> 2.041863e+02
<STATE> 4
<NUMMIXES> 4
<MIXTURE> 1 4.038096e-01
<MEAN> 33
 1.732844e+02 1.379945e+02 1.091453e+02 1.369783e+02 1.750692e+02 1.762832e+02 1.351040e+02 1.349687e+02 8.992725e+01 1.609867e+02 1.738796e+02 1.078187e+00 1.761972e+02 1.627655e+02 1.623730e+02 1.653985e+02 1.682005e+02 1.381126e+01 1.065870e+02 1.555415e+02 1.693121e+02 1.631543e+02 1.047862e+02 1.560152e+02 8.575826e+01 7.752335e+01 1.595544e+02 5.350802e+00 2.671831e+00 2.829029e+00 2.784033e+00 2.263920e+00 5.309621e+00
<VARIANCE> 33
 3.902650e+01 2.745877e+01 4.421358e+01 1.733742e+01 3.037716e+01 8.725020e+00 2.822034e+01 2.062020e+01 2.335592e+01 7.209025e+01 2.376709e+01 6.790828e-01 7.197479e+00 2.747239e+01 3.620380e+01 8.286729e+01 5.669244e+01 1.095172e+02 8.803340e+02 2.053259e+02 2.209689e+01 9.977529e+01 4.405984e+02 2.573340e+02 9.014754e+02 8.420760e+02 2.105877e+02 3.035243e+00 7.088468e-01 3.180633e-01 3.839389e-01 2.271025e-01 2.154090e+00
<GCONST> 1.667320e+02
<MIXTURE> 2 1.813154e-01
<MEAN> 33
 1.710773e+02 1.408883e+02 1.127395e+02 1.367373e+02 1.711243e+02 1.747673e+02 1.333208e+02 1.359608e+02 9.071835e+01 1.559577e+02 1.669400e+02 2.836441e+00 1.706181e+02 1.622781e+02 1.625776e+02 1.615320e+02 1.643202e+02 2.130464e+01 1.018295e+02 1.407379e+02 1.695145e+02 1.480869e+02 1.155840e+02 1.312776e+02 7.236899e+01 1.103781e+02 1.524570e+02 4.877387e+00 3.975738e+00 2.646746e+00 2.635369e+00 3.242602e+00 4.434917e+00
<VARIANCE> 33
 5.705009e+01 6.661426e+01 1.117644e+02 6.175850e+01 3.877205e+01 1.345745e+01 3.662882e+01 2.062020e+01 5.802435e+01 1.697955e+02 8.440138e+01 1.007658e+01 6.725281e+01 1.134846e+02 2.493260e+01 2.399225e+02 1.264062e+02 2.359334e+02 1.711630e+03 3.387924e+02 3.923419e+01 2.900587e+02 1.475691e+03 1.779186e+03 1.840219e+03 1.975209e+03 4.187976e+02 4.088567e+00 3.281576e+00 3.896325e-01 2.956717e-01 1.918973e+00 3.031036e+00
<GCONST> 1.952283e+02
<MIXTURE> 3 1.813154e-01
<MEAN> 33
 1.710773e+02 1.408883e+02 1.127395e+02 1.367373e+02 1.711243e+02 1.747673e+02 1.333208e+02 1.359608e+02 9.071835e+01 1.559577e+02 1.669400e+02 2.836441e+00 1.706181e+02 1.622781e+02 1.625776e+02 1.615320e+02 1.643202e+02 2.130464e+01 1.018295e+02 1.407379e+02 1.695145e+02 1.480869e+02 1.155840e+02 1.312776e+02 7.236899e+01 1.103781e+02 1.524570e+02 4.877387e+00 3.975738e+00 2.646746e+00 2.635369e+00 3.242602e+00 4.434917e+00
<VARIANCE> 33
 5.705009e+01 6.661426e+01 1.117644e+02 6.175850e+01 3.877205e+01 1.345745e+01 3.662882e+01 2.062020e+01 5.802435e+01 1.697955e+02 8.440138e+01 1.007658e+01 6.725281e+01 1.134846e+02 2.493260e+01 2.399225e+02 1.264062e+02 2.359334e+02 1.711630e+03 3.387924e+02 3.923419e+01 2.900587e+02 1.475691e+03 1.779186e+03 1.840219e+03 1.975209e+03 4.187976e+02 4.088567e+00 3.281576e+00 3.896325e-01 2.956717e-01 1.918973e+00 3.031036e+00
<GCONST> 1.952283e+02
<MIXTURE> 4 2.335579e-01
<MEAN> 33
 1.359214e+02 1.472321e+02 1.163596e+02 1.369226e+02 1.594505e+02 1.751197e+02 1.153794e+02 1.298665e+02 1.112245e+02 1.417541e+02 1.601480e+02 3.084472e+00 1.714209e+02 1.511573e+02 1.607687e+02 1.205171e+02 1.474348e+02 6.093652e+01 9.096645e+01 1.437397e+02 1.712234e+02 1.553361e+02 9.470299e+01 1.371382e+02 4.784140e+01 8.611913e+01 1.116956e+02 6.973899e+00 3.284366e+00 2.901160e+00 2.687514e+00 2.746094e+00 4.961237e+00
<VARIANCE> 33
 1.210204e+03 2.238381e+02 1.050482e+02 8.756441e+01 6.063504e+02 1.318114e+01 8.930739e+02 3.421439e+02 9.863849e+02 5.111627e+02 2.442550e+02 1.612784e+01 8.649091e+01 3.849113e+02 3.660265e+01 1.104532e+03 8.727930e+02 8.420435e+02 1.315083e+03 5.297017e+02 2.761380e+01 2.582191e+02 8.477101e+02 1.073241e+03 1.269015e+03 2.357363e+03 9.811201e+02 5.563628e+00 1.212090e+00 3.393254e-01 2.203543e-01 1.265941e+00 4.977967e+00
<GCONST> 2.188429e+02
<TRANSP> 5
 0.000000e+00 1.000000e+00 0.000000e+00 0.000000e+00 0.000000e+00
 0.000000e+00 8.824188e-01 1.175812e-01 0.000000e+00 0.000000e+00
 0.000000e+00 0.000000e+00 9.597632e-01 4.023679e-02 0.000000e+00
 0.000000e+00 0.000000e+00 0.000000e+00 9.377502e-01 6.224981e-02
 0.000000e+00 0.000000e+00 0.000000e+00 0.000000e+00 0.000000e+00
<ENDHMM>
~h "CN"
<BEGINHMM>
<NUMSTATES> 5
<STATE> 2
<NUMMIXES> 4
<MIXTURE> 1 3.752632e-01
<MEAN> 33
 1.731134e+02 1.376600e+02 1.068784e+02 1.393047e+02 1.744359e+02 1.760803e+02 1.350466e+02 1.342875e+02 9.066591e+01 1.557689e+02 1.759749e+02 1.472563e+00 1.748991e+02 1.596167e+02 1.627525e+02 1.630597e+02 1.665137e+02 9.804235e+00 9.363702e+01 1.534148e+02 1.702475e+02 1.617769e+02 1.033531e+02 1.550559e+02 7.300425e+01 8.557365e+01 1.530040e+02 4.778803e+00 2.746402e+00 2.589943e+00 2.450284e+00 2.362897e+00 4.710577e+00
<VARIANCE> 33
 3.902650e+01 2.377389e+01 6.711681e+01 3.311584e+01 3.037716e+01 1.185959e+01 2.822034e+01 2.062020e+01 2.872070e+01 7.455009e+01 2.155940e+01 3.117832e+00 1.603073e+01 7.652149e+01 4.502764e+01 1.041566e+02 9.949384e+01 8.154285e+01 7.512334e+02 2.194038e+02 2.476520e+01 1.454451e+02 6.140031e+02 3.822619e+02 1.486601e+03 1.486960e+03 3.238527e+02 4.419094e+00 1.131082e+00 3.275276e-01 3.480678e-01 6.797860e-01 3.447006e+00
<GCONST> 1.771320e+02
<MIXTURE> 2 1.734087e-01
<MEAN> 33
 1.011328e+02 1.398040e+02 1.076871e+02 1.437802e+02 9.369622e+01 1.734571e+02 8.953960e+01 7.299209e+01 1.017963e+02 1.050890e+02 1.684275e+02 1.533758e+00 1.699957e+02 1.022443e+02 1.640437e+02 9.330254e+01 9.180619e+01 1.746381e+01 7.003139e+01 1.453409e+02 1.706385e+02 1.600467e+02 5.979948e+01 1.498549e+02 5.138220e+01 4.162024e+01 4.517483e+01 4.399658e+00 3.139221e+00 3.093603e+00 2.995590e+00 3.765890e+00 4.398014e+00
<VARIANCE> 33
 1.229267e+03 4.686246e+01 7.819746e+01 8.048979e+01 1.818829e+03 2.657342e+01 2.324660e+03 2.311768e+03 2.485731e+03 4.151908e+02 9.833286e+01 2.696338e+00 6.277914e+01 5.344027e+02 3.600000e+01 6.072671e+02 7.972822e+02 5.930842e+02 8.403371e+02 5.515157e+02 2.965307e+01 2.262799e+02 4.526955e+02 8.672629e+02 1.663502e+03 1.158483e+03 1.360222e+03 2.110480e+00 6.689116e-01 2.642746e-01 2.990764e-01 1.701533e+00 2.109527e+00
<GCONST> 2.150591e+02
<MIXTURE> 3 1.734087e-01
<MEAN> 33
 1.011328e+02 1.398040e+02 1.076871e+02 1.437802e+02 9.369622e+01 1.734571e+02 8.953960e+01 7.299209e+01 1.017963e+02 1.050890e+02 1.684275e+02 1.533758e+00 1.699957e+02 1.022443e+02 1.640437e+02 9.330254e+01 9.180619e+01 1.746381e+01 7.003139e+01 1.453409e+02 1.706385e+02 1.600467e+02 5.979948e+01 1.498549e+02 5.138220e+01 4.162024e+01 4.517483e+01 4.399658e+00 3.139221e+00 3.093603e+00 2.995590e+00 3.765890e+00 4.398014e+00
<VARIANCE> 33
 1.229267e+03 4.686246e+01 7.819746e+01 8.048979e+01 1.818829e+03 2.657342e+01 2.324660e+03 2.311768e+03 2.485731e+03 4.151908e+02 9.833286e+01 2.696338e+00 6.277914e+01 5.344027e+02 3.600000e+01 6.072671e+02 7.972822e+02 5.930842e+02 8.403371e+02 5.515157e+02 2.965307e+01 2.262799e+02 4.526955e+02 8.672629e+02 1.663502e+03 1.158483e+03 1.360222e+03 2.110480e+00 6.689116e-01 2.642746e-01 2.990764e-01 1.701533e+00 2.109527e+00
<GCONST> 2.150591e+02
<MIXTURE> 4 2.779192e-01
<MEAN> 33
 5.950801e+01 1.228248e+02 1.202004e+02 1.274797e+02 6.828892e+01 1.666819e+02 2.070304e+01 3.166406e+01 4.795593e+01 8.235572e+01 1.372973e+02 1.051270e+01 1.424565e+02 1.058326e+02 1.678467e+02 4.484210e+01 5.180373e+01 1.215363e+01 1.071669e+02 9.697585e+01 1.646581e+02 1.121167e+02 9.102748e+01 9.693340e+01 1.034850e+02 1.059583e+02 4.454133e+01 3.972182e+00 3.248012e+00 3.485283e+00 3.402508e+00 3.467170e+00 3.621990e+00
<VARIANCE> 33
 7.166003e+02 3.662158e+02 1.959383e+02 4.986525e+02 8.682314e+02 6.278923e+01 2.321920e+02 6.639675e+02 8.573451e+02 8.516732e+02 3.194407e+02 4.801070e+02 4.027194e+02 1.409365e+03 8.252135e+01 1.573338e+02 3.313192e+02 2.407875e+02 6.133459e+02 4.499558e+02 2.068709e+02 3.721226e+02 3.181690e+02 3.051538e+03 2.268112e+03 2.418373e+03 7.596091e+02 8.063356e-01 1.967880e+00 7.273951e-01 4.451048e-01 1.097056e+00 9.238963e-01
<GCONST> 2.259818e+02
<STATE> 3
<NUMMIXES> 4
<MIXTURE> 1 2.829948e-01
<MEAN> 33
 6.350278e+01 1.321815e+02 1.107378e+02 1.395185e+02 4.842774e+01 1.742181e+02 2.661979e+01 1.737777e+01 2.889098e+01 8.560610e+01 1.551181e+02 2.331254e+00 1.571939e+02 8.371367e+01 1.629271e+02 5.835292e+01 5.585134e+01 8.269688e+00 1.095392e+02 1.057888e+02 1.721923e+02 1.286703e+02 9.447346e+01 1.098666e+02 7.368175e+01 7.640452e+01 1.964671e+01 3.742499e+00 2.933405e+00 3.622236e+00 3.345690e+00 3.187852e+00 3.774694e+00
<VARIANCE> 33
 2.403818e+02 1.016755e+02 1.447245e+02 1.055322e+02 3.828506e+02 2.345293e+01 3.397487e+02 2.596274e+02 4.825742e+02 5.178085e+02 7.473971e+01 7.153926e+00 9.009469e+01 3.823533e+02 6.136146e+01 2.353091e+02 1.454247e+02 7.233972e+01 4.774442e+02 4.371338e+02 3.653886e+01 4.074015e+02 5.502465e+02 2.753737e+03 2.169549e+03 2.275297e+03 3.337229e+02 5.086420e-01 1.265131e+00 5.129569e-01 5.577787e-01 1.631782e+00 5.271004e-01
<GCONST> 2.043418e+02
<MIXTURE> 2 2.731420e-01
<MEAN> 33
 4.822764e+01 1.347228e+02 1.149342e+02 1.367827e+02 4.486901e+01 1.754969e+02 6.726919e+00 5.163356e+00 6.793436e+00 7.429926e+01 1.573364e+02 1.515591e+00 1.582611e+02 7.578447e+01 1.593285e+02 5.053490e+01 5.012119e+01 2.462341e+00 9.804295e+01 1.203450e+02 1.737234e+02 1.318171e+02 8.824877e+01 1.355223e+02 4.481448e+01 4.489531e+01 5.550145e+00 3.492289e+00 3.496410e+00 3.972467e+00 3.827893e+00 3.682698e+00 3.454873e+00
<VARIANCE> 33
 6.293938e+01 4.455242e+01 6.201335e+01 4.901342e+01 6.541050e+01 1.656784e+01 2.822034e+01 2.062020e+01 2.899988e+01 7.676001e+01 6.398070e+01 3.308186e+00 7.934444e+01 7.974936e+01 5.110005e+01 3.395052e+01 3.005765e+01 3.148238e+01 4.234638e+02 4.471191e+02 2.085799e+01 4.142608e+02 3.752859e+02 1.008479e+03 9.848872e+02 1.002806e+03 2.116157e+01 9.867606e-02 5.461518e-01 2.636485e-01 1.585400e-01 7.601997e-01 1.212630e-01
<GCONST> 1.685246e+02
<MIXTURE> 3 2.731420e-01
<MEAN> 33
 4.822764e+01 1.347228e+02 1.149342e+02 1.367827e+02 4.486901e+01 1.754969e+02 6.726919e+00 5.163356e+00 6.793436e+00 7.429926e+01 1.573364e+02 1.515591e+00 1.582611e+02 7.578447e+01 1.593285e+02 5.053490e+01 5.012119e+01 2.462341e+00 9.804295e+01 1.203450e+02 1.737234e+02 1.318171e+02 8.824877e+01 1.355223e+02 4.481448e+01 4.489531e+01 5.550145e+00 3.492289e+00 3.496410e+00 3.972467e+00 3.827893e+00 3.682698e+00 3.454873e+00
<VARIANCE> 33
 6.293938e+01 4.455242e+01 6.201335e+01 4.901342e+01 6.541050e+01 1.656784e+01 2.822034e+01 2.062020e+01 2.899988e+01 7.676001e+01 6.398070e+01 3.308186e+00 7.934444e+01 7.974936e+01 5.110005e+01 3.395052e+01 3.005765e+01 3.148238e+01 4.234638e+02 4.471191e+02 2.085799e+01 4.142608e+02 3.752859e+02 1.008479e+03 9.848872e+02 1.002806e+03 2.116157e+01 9.867606e-02 5.461518e-01 2.636485e-01 1.585400e-01 7.601997e-01 1.212630e-01
<GCONST> 1.685246e+02
<MIXTURE> 4 1.707211e-01
<MEAN> 33
 3.780841e+01 1.400816e+02 1.006025e+02 1.404760e+02 2.732173e+01 1.736047e+02 9.542765e+00 6.983381e+00 7.463370e+00 5.927032e+01 1.674483e+02 1.163231e+00 1.700652e+02 5.875311e+01 1.675262e+02 4.247246e+01 4.138963e+01 4.068423e+00 1.062980e+02 1.196767e+02 1.649939e+02 1.327282e+02 9.878186e+01 4.007433e+01 1.333862e+02 1.307628e+02 8.798524e+00 3.410071e+00 3.325874e+00 3.488787e+00 3.475269e+00 3.338212e+00 3.246583e+00
<VARIANCE> 33
 1.115151e+02 8.844923e+01 5.509287e+01 6.681294e+01 9.152926e+01 1.544715e+01 3.926415e+01 2.263834e+01 2.415915e+01 5.022120e+01 7.084695e+01 1.296198e+00 3.904588e+01 5.363614e+01 3.762001e+01 4.098785e+01 2.601832e+01 3.148238e+01 3.414788e+02 4.389641e+02 1.178845e+02 2.268667e+02 2.187557e+02 8.040333e+02 8.286741e+02 7.493209e+02 4.378244e+01 1.059945e-01 3.752051e-01 1.904880e-01 1.404977e-01 3.651017e-01 9.048957e-02
<GCONST> 1.664706e+02
<STATE> 4
<NUMMIXES> 4
<MIXTURE> 1 4.646763e-01
<MEAN> 33
 1.726791e+02 1.370273e+02 1.128798e+02 1.374897e+02 1.727065e+02 1.756681e+02 1.347093e+02 1.342379e+02 9.105280e+01 1.625952e+02 1.745513e+02 1.652140e+00 1.744025e+02 1.644308e+02 1.601891e+02 1.655551e+02 1.654426e+02 9.221923e+00 1.151367e+02 1.503641e+02 1.712684e+02 1.560764e+02 1.232907e+02 1.499365e+02 7.826122e+01 9.727754e+01 1.534424e+02 5.005191e+00 2.859226e+00 2.707602e+00 2.583116e+00 2.745366e+00 4.879250e+00
<VARIANCE> 33
 3.902650e+01 2.517747e+01 5.903209e+01 3.292838e+01 3.037716e+01 1.403005e+01 2.822034e+01 2.062020e+01 5.351841e+01 1.273588e+02 2.197094e+01 2.470747e+00 2.036341e+01 1.194114e+02 4.515335e+01 8.602547e+01 9.168318e+01 5.386375e+01 1.528086e+03 2.906705e+02 2.363139e+01 2.272935e+02 1.436370e+03 8.507677e+02 1.434798e+03 1.799439e+03 2.953374e+02 2.819118e+00 1.585248e+00 2.434985e-01 1.978578e-01 1.522665e+00 2.224937e+00
<GCONST> 1.806663e+02
<MIXTURE> 2 1.202600e-01
<MEAN> 33
 1.519112e+02 1.439890e+02 1.201393e+02 1.427946e+02 1.614181e+02 1.757648e+02 1.052110e+02 1.115527e+02 1.371042e+02 1.283098e+02 1.695817e+02 2.459732e+00 1.674467e+02 1.321669e+02 1.641707e+02 1.135947e+02 1.253139e+02 1.768613e+01 1.198248e+02 1.512815e+02 1.709039e+02 1.484947e+02 1.096662e+02 1.256601e+02 6.084352e+01 1.214795e+02 1.153030e+02 7.406531e+00 2.797330e+00 2.354187e+00 2.214792e+00 2.802964e+00 6.880759e+00
<VARIANCE> 33
 9.805168e+02 4.777518e+01 6.864040e+01 6.432771e+01 3.194839e+02 1.186374e+01 4.100267e+02 2.117973e+02 6.507300e+02 1.041252e+03 5.639092e+01 4.461321e+00 7.482244e+01 9.884222e+02 1.678854e+01 7.922856e+02 7.169845e+02 1.898830e+02 1.558066e+03 2.953713e+02 4.225864e+01 2.345495e+02 1.942186e+03 2.007594e+03 1.834883e+03 1.414776e+03 6.280504e+02 1.115851e+00 8.570235e-01 1.024046e-01 5.643064e-02 4.537653e-01 1.343464e+00
<GCONST> 2.038279e+02
<MIXTURE> 3 1.852976e-01
<MEAN> 33
 1.597974e+02 1.344809e+02 1.119663e+02 1.360477e+02 1.600078e+02 1.748973e+02 1.456498e+02 1.418881e+02 7.237923e+01 1.554214e+02 1.680019e+02 1.190055e+00 1.662539e+02 1.585589e+02 1.615405e+02 1.359380e+02 1.373534e+02 5.483494e+00 1.166718e+02 1.330697e+02 1.734141e+02 1.414752e+02 1.153301e+02 1.342859e+02 5.343795e+01 7.450410e+01 7.822559e+01 5.672641e+00 2.371792e+00 2.948232e+00 2.924215e+00 2.534042e+00 5.500849e+00
<VARIANCE> 33
 1.383701e+02 3.875880e+01 5.270078e+01 3.807847e+01 1.424262e+02 1.712211e+01 1.026628e+02 6.396007e+01 2.548684e+02 1.883214e+02 4.711231e+01 8.905796e-01 4.976627e+01 1.700800e+02 5.810347e+01 1.581384e+02 1.681180e+02 3.148238e+01 1.229023e+03 7.821567e+02 2.538030e+01 4.354575e+02 8.168274e+02 1.473502e+03 1.630695e+03 1.970357e+03 8.196060e+02 9.010795e-01 2.140566e-01 1.415151e-01 1.058088e-01 2.294962e-01 8.641085e-01
<GCONST> 1.860031e+02
<MIXTURE> 4 2.297652e-01
<MEAN> 33
 1.109108e+02 1.326149e+02 1.132074e+02 1.356082e+02 1.161395e+02 1.737135e+02 1.102588e+02 1.099698e+02 6.648954e+01 1.285131e+02 1.614334e+02 2.030769e+00 1.619565e+02 1.337333e+02 1.639686e+02 9.691253e+01 9.997484e+01 9.717500e+00 1.199567e+02 1.132662e+02 1.725878e+02 1.309247e+02 1.096172e+02 1.187159e+02 7.224126e+01 8.356203e+01 2.399865e+01 4.463196e+00 2.907688e+00 3.455926e+00 3.419462e+00 3.274879e+00 4.519735e+00
<VARIANCE> 33
 1.215443e+03 9.463734e+01 8.259585e+01 7.699945e+01 1.106577e+03 2.224186e+01 3.070499e+03 2.558812e+03 2.649630e+03 6.052119e+02 9.798958e+01 7.477723e+00 7.862608e+01 5.675223e+02 6.838721e+01 4.476345e+02 5.236724e+02 3.983265e+02 1.068549e+03 6.855987e+02 3.608835e+01 4.571245e+02 8.200929e+02 2.117793e+03 2.176527e+03 2.296153e+03 4.460033e+02 1.131070e+00 4.771782e-01 2.529135e-01 2.403204e-01 7.088143e-01 1.325096e+00
<GCONST> 2.168441e+02
<TRANSP> 5
 0.000000e+00 1.000000e+00 0.000000e+00 0.000000e+00 0.000000e+00
 0.000000e+00 9.194065e-01 8.059357e-02 0.000000e+00 0.000000e+00
 0.000000e+00 0.000000e+00 9.631796e-01 3.682033e-02 0.000000e+00
 0.000000e+00 0.000000e+00 0.000000e+00 9.218928e-01 7.810726e-02
 0.000000e+00 0.000000e+00 0.000000e+00 0.000000e+00 0.000000e+00
<ENDHMM>
~h "CP"
<BEGINHMM>
<NUMSTATES> 5
<STATE> 2
<NUMMIXES> 4
<MIXTURE> 1 3.272644e-01
<MEAN> 33
 1.734700e+02 1.369816e+02 1.097385e+02 1.373949e+02 1.740326e+02 1.754969e+02 1.343063e+02 1.337397e+02 9.195406e+01 1.564823e+02 1.749362e+02 1.727819e+00 1.744991e+02 1.594621e+02 1.629845e+02 1.624123e+02 1.630399e+02 8.562477e+00 9.653185e+01 1.512711e+02 1.699349e+02 1.596268e+02 1.064792e+02 1.544261e+02 7.640147e+01 8.488427e+01 1.486255e+02 5.347761e+00 2.792342e+00 2.702231e+00 2.598240e+00 2.554180e+00 5.297639e+00
<VARIANCE> 33
 3.902650e+01 3.298893e+01 5.094310e+01 2.735064e+01 3.037716e+01 1.638894e+01 2.822034e+01 2.062020e+01 5.474657e+01 1.213242e+02 2.077640e+01 3.342900e+00 1.791745e+01 9.612831e+01 3.815789e+01 1.084858e+02 1.008171e+02 5.209619e+01 1.213282e+03 2.955963e+02 2.248405e+01 1.929150e+02 9.142625e+02 4.797734e+02 1.322056e+03 1.413724e+03 3.295362e+02 3.428284e+00 1.322366e+00 2.356448e-01 1.693605e-01 1.018782e+00 3.088793e+00
<GCONST> 1.788463e+02
<MIXTURE> 2 2.086223e-01
<MEAN> 33
 1.683497e+02 1.470489e+02 1.044146e+02 1.460432e+02 1.672343e+02 1.720446e+02 1.169512e+02 1.169502e+02 1.257921e+02 1.376540e+02 1.665973e+02 2.159156e+00 1.679666e+02 1.377106e+02 1.664702e+02 1.350166e+02 1.324280e+02 1.658029e+01 1.012840e+02 1.441720e+02 1.700058e+02 1.464386e+02 9.942428e+01 1.019281e+02 7.628886e+01 8.802052e+01 1.227874e+02 6.749455e+00 2.690699e+00 2.298667e+00 2.331090e+00 2.756402e+00 6.732132e+00
<VARIANCE> 33
 8.495901e+01 1.123076e+02 7.958107e+01 1.059378e+02 9.398999e+01 3.499678e+01 1.880868e+02 1.852109e+02 6.195684e+02 4.849008e+02 1.056727e+02 8.552598e+00 8.202190e+01 4.811528e+02 5.990103e+01 6.263579e+02 5.259953e+02 1.944723e+02 2.242409e+03 3.398685e+02 5.097963e+01 3.398817e+02 1.815510e+03 2.971663e+03 2.837159e+03 2.457803e+03 8.284118e+02 2.559555e+00 8.579196e-01 1.256568e-01 1.520247e-01 9.158888e-01 2.676264e+00
<GCONST> 2.084879e+02
<MIXTURE> 3 2.086223e-01
<MEAN> 33
 1.683497e+02 1.470489e+02 1.044146e+02 1.460432e+02 1.672343e+02 1.720446e+02 1.169512e+02 1.169502e+02 1.257921e+02 1.376540e+02 1.665973e+02 2.159156e+00 1.679666e+02 1.377106e+02 1.664702e+02 1.350166e+02 1.324280e+02 1.658029e+01 1.012840e+02 1.441720e+02 1.700058e+02 1.464386e+02 9.942428e+01 1.019281e+02 7.628886e+01 8.802052e+01 1.227874e+02 6.749455e+00 2.690699e+00 2.298667e+00 2.331090e+00 2.756402e+00 6.732132e+00
<VARIANCE> 33
 8.495901e+01 1.123076e+02 7.958107e+01 1.059378e+02 9.398999e+01 3.499678e+01 1.880868e+02 1.852109e+02 6.195684e+02 4.849008e+02 1.056727e+02 8.552598e+00 8.202190e+01 4.811528e+02 5.990103e+01 6.263579e+02 5.259953e+02 1.944723e+02 2.242409e+03 3.398685e+02 5.097963e+01 3.398817e+02 1.815510e+03 2.971663e+03 2.837159e+03 2.457803e+03 8.284118e+02 2.559555e+00 8.579196e-01 1.256568e-01 1.520247e-01 9.158888e-01 2.676264e+00
<GCONST> 2.084879e+02
<MIXTURE> 4 2.554907e-01
<MEAN> 33
 1.177038e+02 1.407389e+02 1.104343e+02 1.445079e+02 1.158147e+02 1.725282e+02 9.424576e+01 8.901234e+01 1.245463e+02 1.024477e+02 1.678364e+02 2.702211e+00 1.656622e+02 1.004572e+02 1.647923e+02 9.422948e+01 8.650395e+01 2.725344e+01 7.596831e+01 1.358115e+02 1.699168e+02 1.479016e+02 8.432632e+01 1.270607e+02 5.887796e+01 7.015481e+01 9.057957e+01 5.783711e+00 3.166491e+00 2.775768e+00 2.687718e+00 3.405489e+00 5.824854e+00
<VARIANCE> 33
 2.017513e+03 1.986630e+02 7.239007e+01 2.143951e+02 2.434406e+03 3.927111e+01 1.541553e+03 1.147534e+03 2.021235e+03 8.708539e+02 1.049225e+02 7.031625e+00 1.399443e+02 1.011447e+03 6.682834e+01 1.285760e+03 1.171469e+03 1.727651e+03 1.976824e+03 9.358665e+02 4.265167e+01 5.344547e+02 1.585060e+03 2.487823e+03 2.530778e+03 1.857004e+03 1.746376e+03 2.978484e+00 1.740157e+00 7.486231e-01 5.407232e-01 1.454700e+00 3.413139e+00
<GCONST> 2.326060e+02
<STATE> 3
<NUMMIXES> 4
<MIXTURE> 1 4.760303e-01
<MEAN> 33
 1.548534e+02 1.390295e+02 1.163347e+02 1.388651e+02 1.558811e+02 1.756501e+02 1.275498e+02 1.237864e+02 1.086638e+02 1.282399e+02 1.744038e+02 2.670322e+00 1.748805e+02 1.261097e+02 1.628164e+02 1.303527e+02 1.295730e+02 8.240171e+00 5.491546e+01 1.566625e+02 1.643721e+02 1.560931e+02 5.609941e+01 1.579473e+02 3.940329e+01 6.367043e+01 1.018311e+02 6.289650e+00 3.202984e+00 2.863214e+00 2.734374e+00 3.339093e+00 6.424369e+00
<VARIANCE> 33
 1.602450e+02 2.277082e+01 1.074653e+02 3.519064e+01 1.672437e+02 1.693205e+01 1.030865e+02 7.940770e+01 2.830301e+02 1.328889e+02 1.777259e+01 6.286473e+00 2.107348e+01 1.487594e+02 3.439326e+01 2.187967e+02 2.616364e+02 6.437755e+01 4.466114e+02 1.677061e+02 1.792021e+01 1.551820e+02 3.573828e+02 3.003900e+02 6.030284e+02 5.406609e+02 4.607910e+02 8.721511e-01 5.226566e-01 7.545001e-02 8.537091e-02 7.986862e-01 6.895836e-01
<GCONST> 1.791470e+02
<MIXTURE> 2 1.216922e-01
<MEAN> 33
 1.124370e+02 1.531708e+02 1.233408e+02 1.442173e+02 1.286131e+02 1.751325e+02 1.024879e+02 1.006728e+02 1.516852e+02 1.144679e+02 1.713356e+02 5.377511e+00 1.682146e+02 1.153199e+02 1.550486e+02 9.836751e+01 9.760904e+01 6.847756e+00 5.956064e+01 1.689913e+02 1.660703e+02 1.668287e+02 6.599537e+01 1.564688e+02 2.939483e+01 5.947145e+01 8.263080e+01 5.919281e+00 4.004930e+00 2.863163e+00 2.972806e+00 3.656615e+00 5.683811e+00
<VARIANCE> 33
 2.978348e+02 1.443204e+02 6.175528e+01 7.933905e+01 3.312683e+02 1.757099e+01 2.161448e+02 1.310087e+02 3.174302e+02 1.390173e+02 4.232607e+01 2.621306e+01 6.626134e+01 1.303408e+02 3.666653e+01 1.213228e+02 1.308931e+02 3.148238e+01 1.700635e+02 7.946772e+01 1.690690e+01 1.110702e+02 3.216059e+02 3.063387e+02 6.193696e+02 8.950668e+02 2.734917e+02 3.683646e-01 4.086466e-01 1.238083e-01 9.538072e-02 4.509244e-01 4.780235e-01
<GCONST> 1.817475e+02
<MIXTURE> 3 1.216922e-01
<MEAN> 33
 1.124370e+02 1.531708e+02 1.233408e+02 1.442173e+02 1.286131e+02 1.751325e+02 1.024879e+02 1.006728e+02 1.516852e+02 1.144679e+02 1.713356e+02 5.377511e+00 1.682146e+02 1.153199e+02 1.550486e+02 9.836751e+01 9.760904e+01 6.847756e+00 5.956064e+01 1.689913e+02 1.660703e+02 1.668287e+02 6.599537e+01 1.564688e+02 2.939483e+01 5.947145e+01 8.263080e+01 5.919281e+00 4.004930e+00 2.863163e+00 2.972806e+00 3.656615e+00 5.683811e+00
<VARIANCE> 33
 2.978348e+02 1.443204e+02 6.175528e+01 7.933905e+01 3.312683e+02 1.757099e+01 2.161448e+02 1.310087e+02 3.174302e+02 1.390173e+02 4.232607e+01 2.621306e+01 6.626134e+01 1.303408e+02 3.666653e+01 1.213228e+02 1.308931e+02 3.148238e+01 1.700635e+02 7.946772e+01 1.690690e+01 1.110702e+02 3.216059e+02 3.063387e+02 6.193696e+02 8.950668e+02 2.734917e+02 3.683646e-01 4.086466e-01 1.238083e-01 9.538072e-02 4.509244e-01 4.780235e-01
<GCONST> 1.817475e+02
<MIXTURE> 4 2.805837e-01
<MEAN> 33
 1.467118e+02 1.394297e+02 1.124259e+02 1.400390e+02 1.559330e+02 1.760203e+02 8.943500e+01 9.256418e+01 1.560061e+02 1.001983e+02 1.730901e+02 1.213613e+00 1.748128e+02 1.000241e+02 1.621083e+02 8.746712e+01 9.073354e+01 9.675879e+00 5.282150e+01 1.480599e+02 1.658977e+02 1.465062e+02 5.140367e+01 1.594299e+02 5.732422e+01 3.682843e+01 9.405278e+01 6.045823e+00 3.135383e+00 2.725616e+00 2.650158e+00 3.103225e+00 6.396846e+00
<VARIANCE> 33
 5.763284e+02 3.788629e+01 1.944987e+01 1.608889e+01 3.600320e+02 8.239418e+00 2.653820e+02 2.021885e+02 2.270773e+02 1.888165e+02 2.761139e+01 8.635066e-01 1.614101e+01 1.268998e+02 3.466342e+01 3.062239e+02 2.334506e+02 7.166601e+01 3.913016e+02 1.620952e+02 1.875868e+01 1.261263e+02 1.818650e+02 1.740291e+02 4.163966e+02 3.260975e+02 2.767929e+02 1.032259e+00 3.499862e-01 6.683538e-02 5.953553e-02 2.086563e-01 7.208979e-01
<GCONST> 1.739220e+02
<STATE> 4
<NUMMIXES> 4
<MIXTURE> 1 3.969326e-01
<MEAN> 33
 1.750699e+02 1.379745e+02 1.062592e+02 1.393288e+02 1.756481e+02 1.756481e+02 1.346022e+02 1.340229e+02 9.137486e+01 1.626255e+02 1.765954e+02 1.157732e+00 1.755442e+02 1.658553e+02 1.624812e+02 1.684742e+02 1.707436e+02 7.394809e+00 1.085691e+02 1.600753e+02 1.679682e+02 1.626427e+02 1.201090e+02 1.595338e+02 7.876825e+01 9.095057e+01 1.624625e+02 5.015919e+00 2.415524e+00 2.840712e+00 2.591549e+00 2.076573e+00 4.546720e+00
<VARIANCE> 33
 3.902650e+01 1.312694e+01 4.348709e+01 2.200137e+01 3.037716e+01 1.164915e+01 2.822034e+01 2.062020e+01 1.886277e+01 4.185817e+01 7.287205e+00 6.418998e-01 6.586421e+00 4.317455e+01 1.962827e+01 3.768434e+01 4.576014e+01 3.177376e+01 5.990606e+02 1.075006e+02 1.738077e+01 8.041689e+01 6.540350e+02 2.382231e+02 6.427111e+02 7.008221e+02 1.320177e+02 2.575101e+00 3.133997e-01 2.361333e-01 2.086362e-01 2.145879e-01 2.525248e+00
<GCONST> 1.580755e+02
<MIXTURE> 2 1.441706e-01
<MEAN> 33
 1.723052e+02 1.333697e+02 1.137904e+02 1.365121e+02 1.715520e+02 1.749849e+02 1.380806e+02 1.354744e+02 8.644494e+01 1.607928e+02 1.700467e+02 2.365011e+00 1.708399e+02 1.617922e+02 1.615216e+02 1.593724e+02 1.627875e+02 1.275726e+01 1.107327e+02 1.527396e+02 1.639883e+02 1.617079e+02 1.126407e+02 1.624482e+02 6.725703e+01 8.842995e+01 1.443522e+02 5.805902e+00 2.469815e+00 3.299362e+00 2.725688e+00 2.455327e+00 5.412355e+00
<VARIANCE> 33
 3.902650e+01 2.393332e+01 7.830128e+01 2.457308e+01 3.871278e+01 1.614885e+01 2.822034e+01 2.062020e+01 5.126285e+01 1.123027e+02 2.919094e+01 5.574947e+00 3.298547e+01 1.078516e+02 3.883957e+01 1.490188e+02 1.475652e+02 1.133440e+02 1.452264e+03 4.885377e+02 2.268904e+01 1.673606e+02 1.046771e+03 2.140435e+02 6.580382e+02 7.068327e+02 5.270148e+02 2.187429e+00 7.507716e-01 4.402745e-01 2.226044e-01 3.711035e-01 2.218118e+00
<GCONST> 1.795013e+02
<MIXTURE> 3 1.441706e-01
<MEAN> 33
 1.723052e+02 1.333697e+02 1.137904e+02 1.365121e+02 1.715520e+02 1.749849e+02 1.380806e+02 1.354744e+02 8.644494e+01 1.607928e+02 1.700467e+02 2.365011e+00 1.708399e+02 1.617922e+02 1.615216e+02 1.593724e+02 1.627875e+02 1.275726e+01 1.107327e+02 1.527396e+02 1.639883e+02 1.617079e+02 1.126407e+02 1.624482e+02 6.725703e+01 8.842995e+01 1.443522e+02 5.805902e+00 2.469815e+00 3.299362e+00 2.725688e+00 2.455327e+00 5.412355e+00
<VARIANCE> 33
 3.902650e+01 2.393332e+01 7.830128e+01 2.457308e+01 3.871278e+01 1.614885e+01 2.822034e+01 2.062020e+01 5.126285e+01 1.123027e+02 2.919094e+01 5.574947e+00 3.298547e+01 1.078516e+02 3.883957e+01 1.490188e+02 1.475652e+02 1.133440e+02 1.452264e+03 4.885377e+02 2.268904e+01 1.673606e+02 1.046771e+03 2.140435e+02 6.580382e+02 7.068327e+02 5.270148e+02 2.187429e+00 7.507716e-01 4.402745e-01 2.226044e-01 3.711035e-01 2.218118e+00
<GCONST> 1.795013e+02
<MIXTURE> 4 3.147262e-01
<MEAN> 33
 1.595455e+02 1.491546e+02 9.808430e+01 1.507004e+02 1.560751e+02 1.727383e+02 1.328203e+02 1.307347e+02 9.627003e+01 1.350013e+02 1.760742e+02 1.094520e+00 1.726748e+02 1.301793e+02 1.693415e+02 1.434986e+02 1.415743e+02 9.399420e+00 6.533758e+01 1.593394e+02 1.681616e+02 1.590853e+02 6.698333e+01 1.408034e+02 5.361520e+01 6.127232e+01 1.127938e+02 5.194827e+00 2.852836e+00 2.184907e+00 2.145087e+00 2.968012e+00 5.978507e+00
<VARIANCE> 33
 1.714159e+02 4.666866e+01 2.722034e+01 5.524471e+01 2.499980e+02 1.645356e+01 6.285441e+01 8.587951e+01 1.627386e+02 1.241249e+02 7.687685e+00 1.491231e+00 1.854346e+01 2.592184e+02 1.293194e+01 1.886676e+02 2.476737e+02 1.519405e+02 2.577744e+02 1.355191e+02 2.303601e+01 1.202647e+02 4.387480e+02 5.436774e+02 7.717283e+02 1.105697e+03 5.482579e+02 4.347075e+00 8.511286e-01 1.056124e-01 1.566686e-01 1.936041e+00 2.918137e+00
<GCONST> 1.827065e+02
<TRANSP> 5
 0.000000e+00 1.000000e+00 0.000000e+00 0.000000e+00 0.000000e+00
 0.000000e+00 9.304020e-01 6.959801e-02 0.000000e+00 0.000000e+00
 0.000000e+00 0.000000e+00 9.386482e-01 6.135189e-02 0.000000e+00
 0.000000e+00 0.000000e+00 0.000000e+00 9.374088e-01 6.259114e-02
 0.000000e+00 0.000000e+00 0.000000e+00 0.000000e+00 0.000000e+00
<ENDHMM>
~h "CV"
<BEGINHMM>
<NUMSTATES> 5
<STATE> 2
<NUMMIXES> 4
<MIXTURE> 1 4.213633e-01
<MEAN> 33
 1.738769e+02 1.370672e+02 1.073913e+02 1.387252e+02 1.743464e+02 1.752483e+02 1.354158e+02 1.347384e+02 8.984577e+01 1.593280e+02 1.761838e+02 1.697921e+00 1.752394e+02 1.613815e+02 1.625771e+02 1.662208e+02 1.695217e+02 9.291964e+00 9.947825e+01 1.527011e+02 1.695273e+02 1.613153e+02 1.073239e+02 1.588068e+02 6.530930e+01 9.847248e+01 1.585195e+02 4.351535e+00 2.550356e+00 2.530494e+00 2.442686e+00 2.356213e+00 4.346704e+00
<VARIANCE> 33
 3.902650e+01 1.922542e+01 6.550852e+01 3.170967e+01 3.037716e+01 1.333247e+01 2.822034e+01 2.062020e+01 2.452766e+01 5.951548e+01 2.104119e+01 4.222957e+00 1.188745e+01 5.086788e+01 4.581350e+01 7.626219e+01 7.311473e+01 5.708393e+01 7.959179e+02 2.846014e+02 2.851415e+01 1.213534e+02 4.793151e+02 2.243976e+02 9.155551e+02 1.095580e+03 2.302843e+02 4.427481e+00 6.828723e-01 4.161984e-01 3.134277e-01 7.377265e-01 3.723958e+00
<GCONST> 1.733561e+02
<MIXTURE> 2 2.135380e-01
<MEAN> 33
 1.228924e+02 1.343793e+02 1.158531e+02 1.403859e+02 9.831760e+01 1.723446e+02 9.835115e+01 7.991199e+01 1.363138e+02 1.170776e+02 1.638188e+02 4.706404e+00 1.607961e+02 1.086176e+02 1.607675e+02 1.119492e+02 9.484363e+01 7.828691e+01 8.702830e+01 1.267171e+02 1.692794e+02 1.511896e+02 8.427202e+01 1.370547e+02 5.893267e+01 7.510988e+01 9.414215e+01 4.922696e+00 2.998434e+00 3.137996e+00 2.893338e+00 3.694986e+00 5.388623e+00
<VARIANCE> 33
 3.658298e+03 1.509412e+02 1.028113e+02 2.030564e+02 4.111727e+03 3.217037e+01 2.145321e+03 2.391201e+03 1.346255e+03 1.606300e+03 1.947690e+02 3.666936e+01 2.538029e+02 1.585521e+03 8.051037e+01 2.380684e+03 2.423313e+03 2.363676e+03 2.344884e+03 8.955361e+02 5.696926e+01 4.491462e+02 1.075100e+03 1.382613e+03 2.361670e+03 1.616268e+03 1.534445e+03 5.207417e+00 1.598541e+00 5.667412e-01 4.595118e-01 1.647041e+00 3.458885e+00
<GCONST> 2.390751e+02
<MIXTURE> 3 1.247251e-01
<MEAN> 33
 1.378166e+02 1.392377e+02 1.095219e+02 1.385500e+02 1.457362e+02 1.755366e+02 1.174612e+02 1.167728e+02 1.216320e+02 1.132755e+02 1.746396e+02 1.609338e+00 1.745910e+02 1.180237e+02 1.639771e+02 1.114559e+02 1.149084e+02 1.146758e+01 4.965554e+01 1.537437e+02 1.687066e+02 1.590418e+02 5.962424e+01 1.580480e+02 3.108111e+01 5.218221e+01 7.284792e+01 5.948046e+00 3.064436e+00 2.817747e+00 2.763425e+00 2.958879e+00 5.823422e+00
<VARIANCE> 33
 5.460832e+02 4.214750e+01 6.042001e+01 4.500492e+01 5.340864e+02 1.732304e+01 5.002098e+02 3.486348e+02 1.105516e+03 2.813799e+02 2.006893e+01 2.117924e+00 1.406743e+01 4.190589e+02 3.689015e+01 3.859296e+02 5.255623e+02 1.710205e+02 4.822202e+02 2.068591e+02 2.458789e+01 1.979527e+02 5.342651e+02 2.010297e+02 5.671670e+02 8.058756e+02 6.918928e+02 1.399886e+00 3.611173e-01 1.895989e-01 1.473669e-01 6.165102e-01 1.107799e+00
<GCONST> 1.923687e+02
<MIXTURE> 4 2.403730e-01
<MEAN> 33
 2.728093e+01 1.387179e+02 1.117059e+02 1.444547e+02 2.802584e+01 1.743596e+02 2.402682e+01 2.939490e+01 5.014782e+01 6.636859e+01 1.485320e+02 6.249496e+00 1.501090e+02 7.052110e+01 1.640644e+02 4.338242e+01 4.143837e+01 5.699408e+00 1.059553e+02 1.225762e+02 1.654190e+02 1.385337e+02 9.848645e+01 1.073911e+02 8.946494e+01 9.187215e+01 5.630981e+01 4.647170e+00 2.853224e+00 2.977521e+00 2.851008e+00 3.429596e+00 4.652524e+00
<VARIANCE> 33
 5.549149e+02 4.435849e+02 2.247025e+02 4.364509e+02 4.117571e+02 2.183205e+01 1.233951e+02 1.724184e+02 6.554835e+02 4.361725e+02 4.801217e+02 1.296176e+02 5.882990e+02 6.184235e+02 8.168638e+01 1.649440e+02 1.609157e+02 3.148238e+01 1.485221e+03 1.205815e+03 1.789897e+02 7.376789e+02 7.301662e+02 2.778583e+03 2.060064e+03 2.237254e+03 8.519991e+02 1.171339e+00 5.940907e-01 6.665293e-01 5.538822e-01 8.581191e-01 1.024513e+00
<GCONST> 2.193868e+02
<STATE> 3
<NUMMIXES> 4
<MIXTURE> 1 1.877613e-01
<MEAN> 33
 6.706104e+01 1.387730e+02 1.103716e+02 1.389983e+02 6.586743e+01 1.748581e+02 3.979940e+01 4.647138e+01 7.691937e+01 8.356289e+01 1.694840e+02 2.032034e+00 1.689432e+02 8.507486e+01 1.629784e+02 6.861900e+01 6.740781e+01 7.294719e+00 6.628728e+01 1.494082e+02 1.670775e+02 1.550664e+02 6.822990e+01 1.564046e+02 2.426523e+01 3.743054e+01 3.557681e+01 4.427737e+00 3.156208e+00 3.239177e+00 3.199416e+00 3.312778e+00 4.432499e+00
<VARIANCE> 33
 5.373836e+02 6.965140e+01 8.732061e+01 4.470058e+01 8.087033e+02 2.133926e+01 4.957497e+02 4.438969e+02 1.754982e+03 1.745319e+02 6.800191e+01 4.195326e+00 6.671452e+01 1.659771e+02 3.844358e+01 1.921083e+02 1.592646e+02 1.328638e+02 1.221675e+03 5.577810e+02 2.383879e+01 2.992540e+02 8.430395e+02 3.067280e+02 5.097945e+02 6.475147e+02 3.704678e+02 5.990492e-01 4.608403e-01 3.443101e-01 2.514809e-01 6.543940e-01 6.038989e-01
<GCONST> 1.967000e+02
<MIXTURE> 2 1.597247e-01
<MEAN> 33
 3.264565e+01 1.322375e+02 1.112054e+02 1.390897e+02 2.091794e+01 1.757967e+02 1.799414e+01 2.596741e+01 4.055734e+01 6.483733e+01 1.636465e+02 1.516168e+00 1.662797e+02 6.191664e+01 1.618273e+02 4.734024e+01 4.507421e+01 5.062312e+00 1.083590e+02 1.259508e+02 1.724995e+02 1.467047e+02 9.327757e+01 1.328833e+02 5.038242e+01 5.209391e+01 3.846546e+01 4.323356e+00 2.639904e+00 3.505006e+00 3.263872e+00 2.859235e+00 4.022431e+00
<VARIANCE> 33
 3.036774e+02 8.254512e+01 1.174032e+02 1.327728e+02 2.361870e+02 1.395410e+01 6.380996e+01 7.545576e+01 2.511239e+02 8.716835e+01 7.374534e+01 1.793995e+00 5.973575e+01 9.845744e+01 4.325947e+01 8.076569e+01 5.498761e+01 3.148238e+01 7.529944e+02 7.077120e+02 2.522401e+01 4.587495e+02 6.359952e+02 1.311411e+03 1.287595e+03 1.539184e+03 2.188675e+02 3.468664e-01 5.797988e-01 5.589493e-01 5.989661e-01 9.944111e-01 2.684078e-01
<GCONST> 1.882326e+02
<MIXTURE> 3 1.597247e-01
<MEAN> 33
 3.264565e+01 1.322375e+02 1.112054e+02 1.390897e+02 2.091794e+01 1.757967e+02 1.799414e+01 2.596741e+01 4.055734e+01 6.483733e+01 1.636465e+02 1.516168e+00 1.662797e+02 6.191664e+01 1.618273e+02 4.734024e+01 4.507421e+01 5.062312e+00 1.083590e+02 1.259508e+02 1.724995e+02 1.467047e+02 9.327757e+01 1.328833e+02 5.038242e+01 5.209391e+01 3.846546e+01 4.323356e+00 2.639904e+00 3.505006e+00 3.263872e+00 2.859235e+00 4.022431e+00
<VARIANCE> 33
 3.036774e+02 8.254512e+01 1.174032e+02 1.327728e+02 2.361870e+02 1.395410e+01 6.380996e+01 7.545576e+01 2.511239e+02 8.716835e+01 7.374534e+01 1.793995e+00 5.973575e+01 9.845744e+01 4.325947e+01 8.076569e+01 5.498761e+01 3.148238e+01 7.529944e+02 7.077120e+02 2.522401e+01 4.587495e+02 6.359952e+02 1.311411e+03 1.287595e+03 1.539184e+03 2.188675e+02 3.468664e-01 5.797988e-01 5.589493e-01 5.989661e-01 9.944111e-01 2.684078e-01
<GCONST> 1.882326e+02
<MIXTURE> 4 4.927875e-01
<MEAN> 33
 2.982147e+01 1.249183e+02 1.251236e+02 1.277026e+02 2.619003e+01 1.761593e+02 2.096013e+01 2.488908e+01 4.506353e+01 7.548981e+01 1.426017e+02 4.714013e+00 1.418911e+02 7.688004e+01 1.627863e+02 5.034749e+01 4.875353e+01 3.438888e+00 1.362160e+02 9.707961e+01 1.664062e+02 1.139713e+02 1.201935e+02 1.502130e+02 2.707152e+01 4.045550e+01 3.619369e+01 4.128561e+00 2.966255e+00 4.277797e+00 3.970208e+00 3.281109e+00 4.045190e+00
<VARIANCE> 33
 1.393832e+02 9.934655e+01 1.373970e+02 8.163739e+01 1.535264e+02 1.244603e+01 5.892382e+01 7.218309e+01 2.203033e+02 1.066611e+02 1.154380e+02 3.044101e+01 1.322599e+02 1.065352e+02 5.288540e+01 6.111008e+01 5.469956e+01 3.148238e+01 2.952587e+02 2.242124e+02 4.197399e+01 3.687261e+02 4.025635e+02 4.947870e+02 4.005804e+02 7.518116e+02 8.860262e+01 2.905352e-01 4.023573e-01 3.902960e-01 2.593755e-01 4.300321e-01 2.426152e-01
<GCONST> 1.820883e+02
<STATE> 4
<NUMMIXES> 4
<MIXTURE> 1 4.619069e-01
<MEAN> 33
 1.737638e+02 1.357027e+02 1.133318e+02 1.356162e+02 1.739785e+02 1.757751e+02 1.361667e+02 1.353246e+02 8.850874e+01 1.640282e+02 1.749815e+02 1.947836e+00 1.742148e+02 1.655884e+02 1.617677e+02 1.685552e+02 1.685115e+02 7.597766e+00 1.134066e+02 1.539822e+02 1.684806e+02 1.597781e+02 1.223619e+02 1.602767e+02 7.577932e+01 9.841197e+01 1.582845e+02 4.930199e+00 2.745791e+00 2.863170e+00 2.732851e+00 2.586102e+00 4.762293e+00
<VARIANCE> 33
 3.902650e+01 2.056404e+01 7.587695e+01 2.743961e+01 3.037716e+01 1.287793e+01 2.822034e+01 2.062020e+01 3.961063e+01 7.811287e+01 1.951781e+01 5.240150e+00 2.253859e+01 8.147290e+01 3.429176e+01 6.025162e+01 6.642363e+01 3.670939e+01 1.368037e+03 2.102118e+02 2.030268e+01 1.775322e+02 1.087462e+03 2.679604e+02 8.716470e+02 1.119610e+03 2.149072e+02 2.410378e+00 1.466192e+00 3.313928e-01 2.132543e-01 1.201745e+00 2.351459e+00
<GCONST> 1.750818e+02
<MIXTURE> 2 1.521792e-01
<MEAN> 33
 1.676803e+02 1.347734e+02 1.143253e+02 1.376283e+02 1.667636e+02 1.764613e+02 1.377329e+02 1.346414e+02 8.762576e+01 1.565178e+02 1.666195e+02 1.492390e+00 1.662027e+02 1.575367e+02 1.623766e+02 1.438426e+02 1.440690e+02 9.684812e+00 1.195393e+02 1.427832e+02 1.683654e+02 1.504104e+02 1.173816e+02 1.463846e+02 6.664957e+01 7.638628e+01 1.079197e+02 6.065833e+00 2.447755e+00 2.811251e+00 2.697635e+00 2.500691e+00 6.041298e+00
<VARIANCE> 33
 9.992707e+01 5.165396e+01 7.805045e+01 7.723817e+01 1.012567e+02 9.210779e+00 8.468837e+01 7.185051e+01 2.668990e+02 1.956983e+02 5.438376e+01 1.705520e+00 6.068317e+01 2.101657e+02 3.666673e+01 2.130475e+02 2.495281e+02 9.072186e+01 1.518381e+03 5.561276e+02 4.038902e+01 4.454957e+02 1.448985e+03 1.506454e+03 2.269949e+03 1.684225e+03 9.088207e+02 1.307093e+00 3.560784e-01 3.088658e-01 1.962004e-01 3.272479e-01 1.253424e+00
<GCONST> 1.928421e+02
<MIXTURE> 3 1.521792e-01
<MEAN> 33
 1.676803e+02 1.347734e+02 1.143253e+02 1.376283e+02 1.667636e+02 1.764613e+02 1.377329e+02 1.346414e+02 8.762576e+01 1.565178e+02 1.666195e+02 1.492390e+00 1.662027e+02 1.575367e+02 1.623766e+02 1.438426e+02 1.440690e+02 9.684812e+00 1.195393e+02 1.427832e+02 1.683654e+02 1.504104e+02 1.173816e+02 1.463846e+02 6.664957e+01 7.638628e+01 1.079197e+02 6.065833e+00 2.447755e+00 2.811251e+00 2.697635e+00 2.500691e+00 6.041298e+00
<VARIANCE> 33
 9.992707e+01 5.165396e+01 7.805045e+01 7.723817e+01 1.012567e+02 9.210779e+00 8.468837e+01 7.185051e+01 2.668990e+02 1.956983e+02 5.438376e+01 1.705520e+00 6.068317e+01 2.101657e+02 3.666673e+01 2.130475e+02 2.495281e+02 9.072186e+01 1.518381e+03 5.561276e+02 4.038902e+01 4.454957e+02 1.448985e+03 1.506454e+03 2.269949e+03 1.684225e+03 9.088207e+02 1.307093e+00 3.560784e-01 3.088658e-01 1.962004e-01 3.272479e-01 1.253424e+00
<GCONST> 1.928421e+02
<MIXTURE> 4 2.337349e-01
<MEAN> 33
 1.219387e+02 1.315081e+02 1.204692e+02 1.338614e+02 1.144416e+02 1.756522e+02 1.047518e+02 9.883911e+01 1.034209e+02 1.223388e+02 1.601671e+02 3.765172e+00 1.602681e+02 1.200514e+02 1.618997e+02 9.910417e+01 9.454671e+01 1.358673e+01 1.088441e+02 1.250646e+02 1.687777e+02 1.392463e+02 9.476517e+01 1.364646e+02 4.324044e+01 5.757639e+01 4.637915e+01 5.174596e+00 2.926946e+00 3.477822e+00 3.316422e+00 3.389979e+00 5.190028e+00
<VARIANCE> 33
 1.385244e+03 9.408784e+01 1.528204e+02 1.048761e+02 1.061992e+03 1.338481e+01 1.778178e+03 1.633552e+03 2.393360e+03 5.643051e+02 1.532297e+02 2.409827e+01 1.507697e+02 3.551732e+02 5.020168e+01 6.039282e+02 4.522160e+02 3.614833e+02 1.743554e+03 8.749583e+02 3.899085e+01 6.626655e+02 1.136552e+03 1.696776e+03 1.441524e+03 1.425846e+03 9.297537e+02 1.258693e+00 6.121120e-01 4.258966e-01 3.256050e-01 6.440571e-01 1.556030e+00
<GCONST> 2.201024e+02
<TRANSP> 5
 0.000000e+00 1.000000e+00 0.000000e+00 0.000000e+00 0.000000e+00
 0.000000e+00 9.230370e-01 7.696301e-02 0.000000e+00 0.000000e+00
 0.000000e+00 0.000000e+00 9.491776e-01 5.082238e-02 0.000000e+00
 0.000000e+00 0.000000e+00 0.000000e+00 9.311826e-01 6.881738e-02
 0.000000e+00 0.000000e+00 0.000000e+00 0.000000e+00 0.000000e+00
<ENDHMM>
~h "DC"
<BEGINHMM>
<NUMSTATES> 5
<STATE> 2
<NUMMIXES> 4
<MIXTURE> 1 5.391678e-01
<MEAN> 33
 1.736064e+02 1.365032e+02 1.080708e+02 1.381545e+02 1.749376e+02 1.759409e+02 1.351786e+02 1.343704e+02 9.045095e+01 1.574851e+02 1.751882e+02 1.562867e+00 1.747529e+02 1.610631e+02 1.619398e+02 1.626013e+02 1.676399e+02 1.091002e+01 9.811890e+01 1.531756e+02 1.692533e+02 1.623254e+02 1.063994e+02 1.569578e+02 7.325750e+01 8.768412e+01 1.540667e+02 4.699509e+00 2.600056e+00 2.664455e+00 2.473114e+00 2.347924e+00 4.584409e+00
<VARIANCE> 33
 3.902650e+01 2.363576e+01 6.126272e+01 2.853663e+01 3.037716e+01 1.112055e+01 2.822034e+01 2.062020e+01 2.520619e+01 8.153264e+01 2.453697e+01 4.018082e+00 1.989641e+01 4.612999e+01 5.210389e+01 1.174328e+02 7.001781e+01 1.040574e+02 8.980002e+02 2.904037e+02 2.915763e+01 1.496358e+02 4.430110e+02 2.927987e+02 1.138107e+03 1.262109e+03 2.896629e+02 5.287506e+00 8.678694e-01 3.833370e-01 3.714949e-01 7.861376e-01 3.337313e+00
<GCONST> 1.767969e+02
<MIXTURE> 2 1.280270e-01
<MEAN> 33
 1.312526e+02 1.382087e+02 1.111233e+02 1.384995e+02 1.364705e+02 1.772179e+02 1.176882e+02 1.121386e+02 1.221262e+02 1.138339e+02 1.736372e+02 1.262979e+00 1.733269e+02 1.137416e+02 1.621294e+02 1.062219e+02 1.065683e+02 5.449185e+00 6.249025e+01 1.597401e+02 1.697169e+02 1.628079e+02 6.564713e+01 1.548060e+02 3.500399e+01 3.917747e+01 5.770345e+01 5.900714e+00 2.990218e+00 2.980932e+00 2.898263e+00 3.034586e+00 5.775928e+00
<VARIANCE> 33
 4.860525e+02 2.243741e+01 6.740737e+01 3.177580e+01 5.103504e+02 5.967140e+00 5.384593e+02 4.649598e+02 1.106276e+03 1.423369e+02 2.642321e+01 1.430349e+00 2.600899e+01 1.798359e+02 3.941080e+01 2.898244e+02 3.389814e+02 3.148238e+01 4.932528e+02 1.909796e+02 2.716008e+01 1.461366e+02 4.119808e+02 3.956880e+02 7.193806e+02 7.096109e+02 6.407096e+02 8.419459e-01 3.599893e-01 1.821242e-01 1.533774e-01 6.228953e-01 7.831589e-01
<GCONST> 1.865941e+02
<MIXTURE> 3 1.280270e-01
<MEAN> 33
 1.312526e+02 1.382087e+02 1.111233e+02 1.384995e+02 1.364705e+02 1.772179e+02 1.176882e+02 1.121386e+02 1.221262e+02 1.138339e+02 1.736372e+02 1.262979e+00 1.733269e+02 1.137416e+02 1.621294e+02 1.062219e+02 1.065683e+02 5.449185e+00 6.249025e+01 1.597401e+02 1.697169e+02 1.628079e+02 6.564713e+01 1.548060e+02 3.500399e+01 3.917747e+01 5.770345e+01 5.900714e+00 2.990218e+00 2.980932e+00 2.898263e+00 3.034586e+00 5.775928e+00
<VARIANCE> 33
 4.860525e+02 2.243741e+01 6.740737e+01 3.177580e+01 5.103504e+02 5.967140e+00 5.384593e+02 4.649598e+02 1.106276e+03 1.423369e+02 2.642321e+01 1.430349e+00 2.600899e+01 1.798359e+02 3.941080e+01 2.898244e+02 3.389814e+02 3.148238e+01 4.932528e+02 1.909796e+02 2.716008e+01 1.461366e+02 4.119808e+02 3.956880e+02 7.193806e+02 7.096109e+02 6.407096e+02 8.419459e-01 3.599893e-01 1.821242e-01 1.533774e-01 6.228953e-01 7.831589e-01
<GCONST> 1.865941e+02
<MIXTURE> 4 2.047778e-01
<MEAN> 33
 1.153115e+02 1.293362e+02 1.125626e+02 1.410976e+02 1.050525e+02 1.711791e+02 9.339120e+01 8.332491e+01 1.004231e+02 1.205491e+02 1.586420e+02 3.544997e+00 1.600382e+02 1.142179e+02 1.589331e+02 1.041491e+02 9.228701e+01 4.207449e+01 1.089407e+02 1.136583e+02 1.711470e+02 1.446393e+02 9.862042e+01 1.257241e+02 6.258267e+01 7.313577e+01 6.540932e+01 5.274746e+00 2.574953e+00 3.208902e+00 2.886144e+00 3.189901e+00 5.463085e+00
<VARIANCE> 33
 1.915369e+03 3.108930e+02 1.484007e+02 2.257632e+02 2.775911e+03 4.692890e+01 2.466198e+03 2.167397e+03 2.688314e+03 7.603865e+02 3.316150e+02 1.585379e+01 1.830784e+02 7.677056e+02 8.442507e+01 1.365452e+03 1.105149e+03 2.738794e+03 2.008059e+03 1.462565e+03 3.171548e+01 6.038362e+02 1.291282e+03 1.635528e+03 2.445724e+03 2.357924e+03 2.068930e+03 2.747390e+00 1.511336e+00 7.958387e-01 4.851946e-01 1.486964e+00 2.601408e+00
<GCONST> 2.375082e+02
<STATE> 3
<NUMMIXES> 4
<MIXTURE> 1 2.945374e-01
<MEAN> 33
 9.458211e+01 1.380058e+02 1.103358e+02 1.421641e+02 9.138495e+01 1.739066e+02 8.192937e+01 7.963072e+01 7.866969e+01 1.161712e+02 1.641895e+02 1.923555e+00 1.650475e+02 1.122007e+02 1.626702e+02 8.799792e+01 8.677502e+01 3.659959e+00 9.481794e+01 1.335097e+02 1.720188e+02 1.478710e+02 8.383318e+01 1.138311e+02 6.795831e+01 6.797141e+01 1.743750e+01 4.327498e+00 3.368479e+00 3.482192e+00 3.277770e+00 3.872902e+00 4.438234e+00
<VARIANCE> 33
 1.792002e+02 6.435733e+01 1.680826e+02 1.302392e+02 4.172078e+02 2.300668e+01 1.539388e+03 1.572025e+03 3.068239e+03 1.500505e+02 6.053366e+01 3.470334e+00 7.187598e+01 1.724771e+02 2.267052e+01 5.486523e+01 4.640322e+01 3.148238e+01 8.170491e+02 5.846122e+02 2.649751e+01 4.290224e+02 7.687686e+02 2.302347e+03 2.448980e+03 2.229709e+03 2.072082e+02 5.074621e-01 8.880133e-01 3.380560e-01 3.739527e-01 1.398614e+00 5.268373e-01
<GCONST> 2.005684e+02
<MIXTURE> 2 2.222905e-01
<MEAN> 33
 7.219345e+01 1.294694e+02 1.127794e+02 1.360907e+02 6.421925e+01 1.754808e+02 3.034153e+01 2.419801e+01 3.637109e+01 9.504792e+01 1.561199e+02 2.609698e+00 1.604610e+02 9.450419e+01 1.614187e+02 6.609843e+01 6.567001e+01 2.721816e+00 1.201474e+02 1.014963e+02 1.705821e+02 1.385132e+02 8.823963e+01 1.475004e+02 4.668516e+01 4.135061e+01 1.903148e+01 4.418085e+00 3.036741e+00 3.989407e+00 3.802089e+00 3.648076e+00 3.963818e+00
<VARIANCE> 33
 2.045120e+02 3.612936e+01 5.003541e+01 2.932495e+01 2.082921e+02 2.084775e+01 3.710376e+02 2.925270e+02 8.092311e+02 1.255507e+02 9.929295e+01 7.953212e+00 5.783805e+01 1.098742e+02 3.173965e+01 4.367913e+01 4.250751e+01 3.148238e+01 6.218576e+02 6.511946e+02 2.823610e+01 4.098759e+02 6.073545e+02 4.170644e+02 6.507412e+02 6.180838e+02 2.479139e+02 4.241116e-01 6.887863e-01 1.702195e-01 1.045724e-01 6.305696e-01 2.285742e-01
<GCONST> 1.841429e+02
<MIXTURE> 3 2.557339e-01
<MEAN> 33
 7.824059e+01 1.403158e+02 1.092820e+02 1.396815e+02 7.576149e+01 1.754022e+02 3.137947e+01 3.303736e+01 4.680504e+01 1.089531e+02 1.598389e+02 8.333327e-01 1.619149e+02 1.062992e+02 1.593083e+02 7.522229e+01 7.475640e+01 2.178823e+00 1.024506e+02 1.285570e+02 1.721188e+02 1.340630e+02 1.008997e+02 1.137593e+02 5.980774e+01 6.170712e+01 1.586197e+01 4.352443e+00 3.683359e+00 3.689292e+00 3.526863e+00 3.626010e+00 4.367030e+00
<VARIANCE> 33
 8.886852e+01 4.119734e+01 4.625700e+01 4.983707e+01 2.471410e+02 9.626948e+00 3.926492e+02 3.812112e+02 1.138076e+03 5.757344e+01 3.518011e+01 5.357184e-01 4.734152e+01 6.389283e+01 2.611720e+01 3.071743e+01 2.601832e+01 3.148238e+01 3.575994e+02 2.803011e+02 2.099776e+01 3.033506e+02 3.262964e+02 2.038504e+03 2.590630e+03 2.427891e+03 1.607188e+02 4.608298e-01 5.176744e-01 1.239906e-01 8.463221e-02 3.073846e-01 3.458713e-01
<GCONST> 1.779110e+02
<MIXTURE> 4 2.274366e-01
<MEAN> 33
 7.131863e+01 1.202662e+02 1.147590e+02 1.337228e+02 5.872434e+01 1.702514e+02 2.169856e+01 1.686748e+01 2.333450e+01 1.143411e+02 1.379082e+02 3.526548e+00 1.413128e+02 1.146430e+02 1.541789e+02 6.549639e+01 6.575278e+01 2.444342e+00 1.428754e+02 9.009100e+01 1.720757e+02 1.069063e+02 1.278252e+02 1.030203e+02 8.760088e+01 8.692770e+01 1.096817e+01 3.995171e+00 2.543495e+00 3.943326e+00 3.840799e+00 3.118523e+00 3.919249e+00
<VARIANCE> 33
 7.203862e+02 2.642267e+02 1.413222e+02 8.479526e+01 5.222745e+02 6.337536e+01 3.453382e+02 1.853813e+02 4.364840e+02 3.962249e+02 1.891586e+02 4.254148e+01 1.922622e+02 3.719551e+02 9.729856e+01 1.098529e+02 1.035437e+02 3.148238e+01 2.636626e+02 2.430666e+02 6.736507e+01 1.619897e+02 2.815124e+02 2.032182e+03 2.317642e+03 2.419969e+03 1.244197e+02 4.190609e-01 4.138109e-01 3.910448e-01 3.212399e-01 7.651027e-01 4.725736e-01
<GCONST> 2.024121e+02
<STATE> 4
<NUMMIXES> 4
<MIXTURE> 1 4.672993e-01
<MEAN> 33
 1.722590e+02 1.382952e+02 1.106710e+02 1.387010e+02 1.734000e+02 1.761462e+02 1.346192e+02 1.343476e+02 9.103320e+01 1.641771e+02 1.742092e+02 1.289885e+00 1.748488e+02 1.665947e+02 1.612852e+02 1.660014e+02 1.659336e+02 1.023245e+01 1.214348e+02 1.542215e+02 1.693408e+02 1.569886e+02 1.315369e+02 1.510398e+02 8.537947e+01 9.556432e+01 1.545156e+02 4.832097e+00 2.845778e+00 2.782457e+00 2.535229e+00 2.533733e+00 4.666448e+00
<VARIANCE> 33
 3.902650e+01 2.274809e+01 8.078617e+01 2.913910e+01 3.344789e+01 1.188517e+01 2.822034e+01 2.062020e+01 4.041811e+01 1.036550e+02 1.900541e+01 2.382813e+00 1.623435e+01 9.146017e+01 4.712711e+01 8.067568e+01 8.775842e+01 8.739571e+01 1.527317e+03 2.359307e+02 3.308472e+01 1.728083e+02 1.292135e+03 8.451534e+02 1.217243e+03 1.322389e+03 2.587762e+02 2.761773e+00 1.512614e+00 3.372970e-01 1.970564e-01 9.043468e-01 2.394548e+00
<GCONST> 1.788873e+02
<MIXTURE> 2 1.340691e-01
<MEAN> 33
 1.678812e+02 1.380170e+02 1.096407e+02 1.397341e+02 1.681319e+02 1.748903e+02 1.374336e+02 1.325680e+02 8.999840e+01 1.634764e+02 1.666495e+02 1.347928e+00 1.667447e+02 1.638579e+02 1.619900e+02 1.409559e+02 1.408701e+02 9.440600e+00 1.345971e+02 1.330665e+02 1.705820e+02 1.451026e+02 1.337991e+02 1.297322e+02 7.397509e+01 9.830955e+01 1.022672e+02 6.137643e+00 2.306809e+00 2.703526e+00 2.647918e+00 2.387124e+00 6.037179e+00
<VARIANCE> 33
 9.812446e+01 5.911282e+01 5.692921e+01 5.165628e+01 8.578941e+01 1.932019e+01 1.033115e+02 8.122865e+01 2.731924e+02 1.524406e+02 5.502451e+01 1.702981e+00 5.914139e+01 1.537497e+02 4.129434e+01 1.792912e+02 2.471786e+02 7.017357e+01 1.334549e+03 6.817527e+02 3.671612e+01 3.893529e+02 1.107185e+03 2.273964e+03 2.500885e+03 2.169162e+03 6.814774e+02 8.557743e-01 2.265911e-01 2.238338e-01 1.271238e-01 1.877079e-01 7.517025e-01
<GCONST> 1.896136e+02
<MIXTURE> 3 1.340691e-01
<MEAN> 33
 1.678812e+02 1.380170e+02 1.096407e+02 1.397341e+02 1.681319e+02 1.748903e+02 1.374336e+02 1.325680e+02 8.999840e+01 1.634764e+02 1.666495e+02 1.347928e+00 1.667447e+02 1.638579e+02 1.619900e+02 1.409559e+02 1.408701e+02 9.440600e+00 1.345971e+02 1.330665e+02 1.705820e+02 1.451026e+02 1.337991e+02 1.297322e+02 7.397509e+01 9.830955e+01 1.022672e+02 6.137643e+00 2.306809e+00 2.703526e+00 2.647918e+00 2.387124e+00 6.037179e+00
<VARIANCE> 33
 9.812446e+01 5.911282e+01 5.692921e+01 5.165628e+01 8.578941e+01 1.932019e+01 1.033115e+02 8.122865e+01 2.731924e+02 1.524406e+02 5.502451e+01 1.702981e+00 5.914139e+01 1.537497e+02 4.129434e+01 1.792912e+02 2.471786e+02 7.017357e+01 1.334549e+03 6.817527e+02 3.671612e+01 3.893529e+02 1.107185e+03 2.273964e+03 2.500885e+03 2.169162e+03 6.814774e+02 8.557743e-01 2.265911e-01 2.238338e-01 1.271238e-01 1.877079e-01 7.517025e-01
<GCONST> 1.896136e+02
<MIXTURE> 4 2.645607e-01
<MEAN> 33
 1.359680e+02 1.330271e+02 1.127355e+02 1.385630e+02 1.289776e+02 1.720211e+02 1.276790e+02 1.221187e+02 8.364445e+01 1.361785e+02 1.629765e+02 2.974988e+00 1.612420e+02 1.335983e+02 1.610411e+02 1.099042e+02 1.068489e+02 1.051424e+01 1.135338e+02 1.200969e+02 1.707561e+02 1.377140e+02 9.951485e+01 1.274817e+02 6.137805e+01 7.102045e+01 4.619668e+01 4.716402e+00 2.803707e+00 3.305634e+00 3.218238e+00 3.248490e+00 5.062656e+00
<VARIANCE> 33
 5.776992e+02 1.308538e+02 1.269687e+02 1.264100e+02 7.585532e+02 4.731755e+01 1.207024e+03 1.234151e+03 2.261237e+03 3.382283e+02 1.035603e+02 3.177194e+01 1.375973e+02 4.213538e+02 6.951385e+01 4.098619e+02 4.073998e+02 2.439217e+02 1.483639e+03 1.189238e+03 4.301855e+01 6.807536e+02 1.503157e+03 1.836532e+03 2.147078e+03 2.062850e+03 1.208395e+03 1.566421e+00 5.908701e-01 4.305532e-01 3.879615e-01 8.701792e-01 1.254076e+00
<GCONST> 2.207671e+02
<TRANSP> 5
 0.000000e+00 1.000000e+00 0.000000e+00 0.000000e+00 0.000000e+00
 0.000000e+00 8.872834e-01 1.127166e-01 0.000000e+00 0.000000e+00
 0.000000e+00 0.000000e+00 9.594103e-01 4.058972e-02 0.000000e+00
 0.000000e+00 0.000000e+00 0.000000e+00 9.290138e-01 7.098614e-02
 0.000000e+00 0.000000e+00 0.000000e+00 0.000000e+00 0.000000e+00
<ENDHMM>
~h "FM"
<BEGINHMM>
<NUMSTATES> 5
<STATE> 2
<NUMMIXES> 4
<MIXTURE> 1 2.690886e-01
<MEAN> 33
 1.723265e+02 1.377407e+02 1.085732e+02 1.382473e+02 1.748042e+02 1.764959e+02 1.349391e+02 1.340643e+02 9.099663e+01 1.561946e+02 1.749958e+02 1.383333e+00 1.751643e+02 1.612258e+02 1.618401e+02 1.631068e+02 1.670594e+02 1.141880e+01 9.397818e+01 1.526625e+02 1.699084e+02 1.620015e+02 1.084545e+02 1.584394e+02 7.095692e+01 9.092536e+01 1.542237e+02 5.024979e+00 2.798656e+00 2.647549e+00 2.520222e+00 2.331033e+00 4.856524e+00
<VARIANCE> 33
 3.902650e+01 2.987396e+01 7.353107e+01 3.438346e+01 3.037716e+01 9.888389e+00 2.822034e+01 2.062020e+01 3.726289e+01 8.564961e+01 2.246326e+01 3.041277e+00 1.602163e+01 5.222478e+01 4.868233e+01 1.260406e+02 8.573389e+01 1.198611e+02 9.676502e+02 2.338161e+02 2.226007e+01 1.408668e+02 5.630198e+02 2.165448e+02 9.791343e+02 1.208586e+03 2.865372e+02 4.970973e+00 9.086925e-01 2.854241e-01 4.204073e-01 7.802044e-01 3.151717e+00
<GCONST> 1.766194e+02
<MIXTURE> 2 2.654389e-01
<MEAN> 33
 1.720001e+02 1.389371e+02 1.104526e+02 1.674755e+02 1.001325e+02 1.735016e+02 1.351386e+02 9.331100e+01 1.315373e+02 1.557441e+02 1.699846e+02 4.593100e+00 1.527254e+02 1.076373e+02 1.620764e+02 1.689371e+02 9.968401e+01 7.302596e+01 8.349870e+01 1.435130e+02 1.676919e+02 1.583668e+02 4.372959e+01 1.226155e+02 6.534760e+01 1.017560e+02 1.450089e+02 3.742325e+00 2.733647e+00 2.614331e+00 2.137110e+00 6.278040e+00 6.610363e+00
<VARIANCE> 33
 3.902650e+01 5.649946e+01 1.207762e+02 9.054403e+01 5.284133e+02 4.795938e+01 2.822034e+01 2.491009e+02 3.079814e+02 7.649947e+01 9.796874e+01 2.485612e+01 2.853997e+02 6.537572e+02 7.051869e+01 6.770973e+01 1.277650e+03 1.187989e+03 5.820529e+02 4.622113e+02 5.531512e+01 1.420578e+02 1.967284e+02 2.260783e+03 2.251404e+03 1.777226e+03 4.291777e+02 2.173201e+00 1.003787e+00 2.354307e-01 3.697216e-01 2.397434e+00 3.873594e+00
<GCONST> 2.056603e+02
<MIXTURE> 3 2.654389e-01
<MEAN> 33
 1.720001e+02 1.389371e+02 1.104526e+02 1.674755e+02 1.001325e+02 1.735016e+02 1.351386e+02 9.331100e+01 1.315373e+02 1.557441e+02 1.699846e+02 4.593100e+00 1.527254e+02 1.076373e+02 1.620764e+02 1.689371e+02 9.968401e+01 7.302596e+01 8.349870e+01 1.435130e+02 1.676919e+02 1.583668e+02 4.372959e+01 1.226155e+02 6.534760e+01 1.017560e+02 1.450089e+02 3.742325e+00 2.733647e+00 2.614331e+00 2.137110e+00 6.278040e+00 6.610363e+00
<VARIANCE> 33
 3.902650e+01 5.649946e+01 1.207762e+02 9.054403e+01 5.284133e+02 4.795938e+01 2.822034e+01 2.491009e+02 3.079814e+02 7.649947e+01 9.796874e+01 2.485612e+01 2.853997e+02 6.537572e+02 7.051869e+01 6.770973e+01 1.277650e+03 1.187989e+03 5.820529e+02 4.622113e+02 5.531512e+01 1.420578e+02 1.967284e+02 2.260783e+03 2.251404e+03 1.777226e+03 4.291777e+02 2.173201e+00 1.003787e+00 2.354307e-01 3.697216e-01 2.397434e+00 3.873594e+00
<GCONST> 2.056603e+02
<MIXTURE> 4 2.000334e-01
<MEAN> 33
 1.039809e+02 1.565482e+02 1.132978e+02 1.506640e+02 1.246457e+02 1.706933e+02 8.511349e+01 1.038491e+02 1.350683e+02 1.015693e+02 1.653666e+02 2.594852e+00 1.626491e+02 1.328825e+02 1.630938e+02 8.484981e+01 1.147160e+02 8.021081e+01 6.191446e+01 1.559136e+02 1.677238e+02 1.513501e+02 6.665363e+01 1.342452e+02 6.391645e+01 8.142263e+01 1.161025e+02 5.767791e+00 5.520071e+00 2.586471e+00 2.677947e+00 3.808289e+00 4.271417e+00
<VARIANCE> 33
 1.348882e+03 3.032423e+02 8.721188e+01 6.346759e+02 1.280571e+03 5.139229e+01 1.005562e+03 9.207347e+02 2.313467e+03 7.405159e+02 1.634948e+02 5.276359e+00 2.441113e+02 7.925408e+02 5.970926e+01 9.341832e+02 1.331204e+03 4.110042e+03 1.717458e+03 4.436704e+02 5.789973e+01 6.653824e+02 1.714304e+03 1.193872e+03 1.822423e+03 2.394223e+03 2.858600e+03 3.729854e+00 7.428467e+00 6.533425e-01 5.813468e-01 1.392410e+00 2.563026e+00
<GCONST> 2.345641e+02
<STATE> 3
<NUMMIXES> 4
<MIXTURE> 1 3.906402e-01
<MEAN> 33
 1.207209e+02 1.625611e+02 1.150585e+02 1.351869e+02 1.734224e+02 1.742232e+02 1.077730e+02 1.361546e+02 1.160724e+02 1.198909e+02 1.653815e+02 2.500597e+00 1.748674e+02 1.634433e+02 1.636641e+02 1.197311e+02 1.713551e+02 5.867613e+01 4.693555e+01 1.609622e+02 1.646255e+02 1.533079e+02 1.017939e+02 1.538479e+02 8.070817e+01 7.157812e+01 1.506666e+02 7.799520e+00 6.393651e+00 2.566305e+00 2.604340e+00 2.296575e+00 3.710430e+00
<VARIANCE> 33
 4.243985e+02 8.254490e+01 1.028340e+02 1.990628e+01 3.037716e+01 1.867982e+01 1.164157e+02 2.062020e+01 1.201463e+02 3.267304e+02 7.843722e+01 5.608624e+00 1.109379e+01 3.643993e+01 3.766122e+01 3.956932e+02 4.500451e+01 4.490031e+02 1.247128e+02 9.126978e+01 2.358144e+01 1.642623e+02 9.197849e+02 3.636966e+02 6.209265e+02 7.860989e+02 2.750794e+02 2.780072e+00 2.999849e+00 2.265673e-01 1.528350e-01 4.785070e-01 9.387675e-01
<GCONST> 1.820475e+02
<MIXTURE> 2 2.163222e-01
<MEAN> 33
 1.017216e+02 1.685882e+02 1.124095e+02 1.360783e+02 1.767249e+02 1.741103e+02 8.189040e+01 1.359839e+02 1.420982e+02 9.711104e+01 1.638806e+02 4.830509e+00 1.744584e+02 1.625098e+02 1.667306e+02 7.561366e+01 1.708013e+02 9.576279e+01 4.262933e+01 1.625702e+02 1.632657e+02 1.538442e+02 9.147855e+01 1.504386e+02 9.286018e+01 4.428626e+01 1.371448e+02 7.967460e+00 6.507760e+00 2.401448e+00 2.734157e+00 2.055132e+00 4.015008e+00
<VARIANCE> 33
 2.410715e+02 3.788988e+01 1.751791e+01 1.125427e+01 3.037716e+01 1.820057e+01 8.299940e+01 2.062020e+01 8.733443e+01 7.229278e+01 8.846291e+01 7.544011e+00 1.007721e+01 1.317438e+01 5.232242e+01 1.648528e+02 2.656599e+01 1.600895e+02 1.913562e+01 7.378368e+01 3.424579e+01 1.869784e+02 2.199980e+02 4.871089e+02 3.791118e+02 4.213528e+02 1.220954e+02 1.945295e+00 1.005849e+00 1.050424e-01 1.162485e-01 5.992807e-02 6.097603e-01
<GCONST> 1.637161e+02
<MIXTURE> 3 2.163222e-01
<MEAN> 33
 1.017216e+02 1.685882e+02 1.124095e+02 1.360783e+02 1.767249e+02 1.741103e+02 8.189040e+01 1.359839e+02 1.420982e+02 9.711104e+01 1.638806e+02 4.830509e+00 1.744584e+02 1.625098e+02 1.667306e+02 7.561366e+01 1.708013e+02 9.576279e+01 4.262933e+01 1.625702e+02 1.632657e+02 1.538442e+02 9.147855e+01 1.504386e+02 9.286018e+01 4.428626e+01 1.371448e+02 7.967460e+00 6.507760e+00 2.401448e+00 2.734157e+00 2.055132e+00 4.015008e+00
<VARIANCE> 33
 2.410715e+02 3.788988e+01 1.751791e+01 1.125427e+01 3.037716e+01 1.820057e+01 8.299940e+01 2.062020e+01 8.733443e+01 7.229278e+01 8.846291e+01 7.544011e+00 1.007721e+01 1.317438e+01 5.232242e+01 1.648528e+02 2.656599e+01 1.600895e+02 1.913562e+01 7.378368e+01 3.424579e+01 1.869784e+02 2.199980e+02 4.871089e+02 3.791118e+02 4.213528e+02 1.220954e+02 1.945295e+00 1.005849e+00 1.050424e-01 1.162485e-01 5.992807e-02 6.097603e-01
<GCONST> 1.637161e+02
<MIXTURE> 4 1.767137e-01
<MEAN> 33
 9.816754e+01 1.644091e+02 1.206787e+02 1.321351e+02 1.658844e+02 1.710266e+02 9.050166e+01 1.297686e+02 1.391176e+02 1.092474e+02 1.538094e+02 9.540717e+00 1.645922e+02 1.503655e+02 1.607570e+02 9.233095e+01 1.553984e+02 7.780534e+01 4.304831e+01 1.609720e+02 1.695227e+02 1.451170e+02 8.931488e+01 1.142065e+02 6.771456e+01 8.873708e+01 1.397642e+02 6.261217e+00 5.849082e+00 2.256656e+00 2.952704e+00 3.176750e+00 4.677621e+00
<VARIANCE> 33
 8.867231e+02 1.195827e+02 1.707395e+02 3.450647e+02 2.554035e+02 5.433791e+01 3.355249e+02 1.272571e+02 3.497427e+02 4.684879e+02 3.431939e+02 5.267509e+02 5.408589e+02 3.673120e+02 6.275369e+01 1.351769e+03 5.074286e+02 1.539241e+03 3.321245e+02 1.321050e+02 4.019467e+01 4.217486e+02 1.703193e+03 1.401477e+03 2.444342e+03 3.100672e+03 6.478292e+02 3.015780e+00 2.751508e+00 3.232196e-01 3.956048e-01 1.468477e+00 3.082405e+00
<GCONST> 2.236297e+02
<STATE> 4
<NUMMIXES> 4
<MIXTURE> 1 3.406542e-01
<MEAN> 33
 1.755807e+02 1.354919e+02 1.087609e+02 1.360706e+02 1.776840e+02 1.763002e+02 1.349747e+02 1.345719e+02 9.045332e+01 1.595728e+02 1.770904e+02 1.082996e+00 1.756075e+02 1.646372e+02 1.628010e+02 1.668783e+02 1.693129e+02 6.383783e+00 9.599085e+01 1.598884e+02 1.691353e+02 1.675231e+02 1.113603e+02 1.533386e+02 8.618964e+01 7.264270e+01 1.586436e+02 6.274612e+00 2.252029e+00 2.921012e+00 2.737625e+00 1.897324e+00 5.755064e+00
<VARIANCE> 33
 3.902650e+01 1.295895e+01 2.284763e+01 9.213526e+00 3.037716e+01 7.746700e+00 2.822034e+01 2.062020e+01 1.886277e+01 1.739170e+01 5.684791e+00 7.575060e-01 6.540487e+00 1.397913e+01 2.504956e+01 3.071743e+01 4.210733e+01 3.148238e+01 2.377310e+02 8.078015e+01 1.407721e+01 5.600732e+01 2.192649e+02 2.905427e+02 8.265861e+02 8.982710e+02 1.142517e+02 9.934692e-01 1.550019e-01 7.694724e-02 7.858349e-02 4.339111e-02 1.169969e+00
<GCONST> 1.455484e+02
<MIXTURE> 2 2.305970e-01
<MEAN> 33
 1.694812e+02 1.361967e+02 1.142260e+02 1.363880e+02 1.729043e+02 1.742922e+02 1.349550e+02 1.364020e+02 8.864299e+01 1.566638e+02 1.734279e+02 2.999719e+00 1.741208e+02 1.616413e+02 1.632789e+02 1.657540e+02 1.700431e+02 1.282174e+01 9.386256e+01 1.512497e+02 1.662688e+02 1.564347e+02 9.821980e+01 1.439936e+02 9.428867e+01 7.522250e+01 1.599758e+02 5.047376e+00 3.483292e+00 2.902507e+00 2.597438e+00 2.758189e+00 4.790241e+00
<VARIANCE> 33
 6.570824e+01 3.244630e+01 6.955357e+01 2.866917e+01 3.655347e+01 1.720250e+01 2.822034e+01 2.062020e+01 3.701448e+01 1.165581e+02 2.653318e+01 6.367442e+00 1.737227e+01 4.361770e+01 3.667583e+01 1.264770e+02 5.404419e+01 1.208705e+02 1.229012e+03 3.494242e+02 3.131464e+01 1.597830e+02 7.908240e+02 4.774983e+02 1.605376e+03 1.828467e+03 2.360871e+02 4.165027e+00 2.128135e+00 3.633108e-01 2.502146e-01 1.495902e+00 2.304216e+00
<GCONST> 1.817870e+02
<MIXTURE> 3 2.305970e-01
<MEAN> 33
 1.694812e+02 1.361967e+02 1.142260e+02 1.363880e+02 1.729043e+02 1.742922e+02 1.349550e+02 1.364020e+02 8.864299e+01 1.566638e+02 1.734279e+02 2.999719e+00 1.741208e+02 1.616413e+02 1.632789e+02 1.657540e+02 1.700431e+02 1.282174e+01 9.386256e+01 1.512497e+02 1.662688e+02 1.564347e+02 9.821980e+01 1.439936e+02 9.428867e+01 7.522250e+01 1.599758e+02 5.047376e+00 3.483292e+00 2.902507e+00 2.597438e+00 2.758189e+00 4.790241e+00
<VARIANCE> 33
 6.570824e+01 3.244630e+01 6.955357e+01 2.866917e+01 3.655347e+01 1.720250e+01 2.822034e+01 2.062020e+01 3.701448e+01 1.165581e+02 2.653318e+01 6.367442e+00 1.737227e+01 4.361770e+01 3.667583e+01 1.264770e+02 5.404419e+01 1.208705e+02 1.229012e+03 3.494242e+02 3.131464e+01 1.597830e+02 7.908240e+02 4.774983e+02 1.605376e+03 1.828467e+03 2.360871e+02 4.165027e+00 2.128135e+00 3.633108e-01 2.502146e-01 1.495902e+00 2.304216e+00
<GCONST> 1.817870e+02
<MIXTURE> 4 1.981516e-01
<MEAN> 33
 1.234631e+02 1.605897e+02 1.089415e+02 1.424080e+02 1.655782e+02 1.745460e+02 1.161737e+02 1.321824e+02 1.091964e+02 1.284258e+02 1.580411e+02 4.513126e+00 1.711127e+02 1.518647e+02 1.638465e+02 1.497107e+02 1.607545e+02 2.962604e+01 4.706794e+01 1.548111e+02 1.671317e+02 1.473244e+02 8.783758e+01 1.271087e+02 1.160076e+02 4.955346e+01 1.497098e+02 3.492865e+00 5.037323e+00 2.069854e+00 2.189481e+00 2.681761e+00 3.638904e+00
<VARIANCE> 33
 7.364325e+02 2.667016e+02 1.539100e+02 1.435582e+02 4.296951e+02 1.495777e+01 2.605808e+02 2.559256e+02 6.039167e+02 4.481078e+02 1.069841e+02 4.828159e+01 1.081627e+02 3.034048e+02 3.778648e+01 6.678005e+02 7.112292e+02 6.450276e+02 1.397418e+03 2.138640e+02 3.685926e+01 2.141991e+02 1.078953e+03 9.262097e+02 1.677124e+03 1.109960e+03 1.522037e+03 3.837397e+00 2.494083e+00 5.039181e-01 4.609270e-01 1.261376e+00 4.816635e+00
<GCONST> 2.171107e+02
<TRANSP> 5
 0.000000e+00 1.000000e+00 0.000000e+00 0.000000e+00 0.000000e+00
 0.000000e+00 9.335565e-01 6.644346e-02 0.000000e+00 0.000000e+00
 0.000000e+00 0.000000e+00 9.471191e-01 5.288086e-02 0.000000e+00
 0.000000e+00 0.000000e+00 0.000000e+00 9.192762e-01 8.072379e-02
 0.000000e+00 0.000000e+00 0.000000e+00 0.000000e+00 0.000000e+00
<ENDHMM>
~h "FN"
<BEGINHMM>
<NUMSTATES> 5
<STATE> 2
<NUMMIXES> 4
<MIXTURE> 1 3.189890e-01
<MEAN> 33
 1.729267e+02 1.369326e+02 1.091158e+02 1.376491e+02 1.745976e+02 1.754304e+02 1.350721e+02 1.342618e+02 9.066614e+01 1.570449e+02 1.753451e+02 1.725104e+00 1.749003e+02 1.629438e+02 1.619303e+02 1.634106e+02 1.663735e+02 1.299859e+01 9.770447e+01 1.527148e+02 1.694441e+02 1.625119e+02 1.155697e+02 1.580747e+02 6.964569e+01 9.382211e+01 1.544567e+02 4.904852e+00 2.672296e+00 2.771575e+00 2.526074e+00 2.376806e+00 4.943862e+00
<VARIANCE> 33
 3.902650e+01 2.451132e+01 7.427407e+01 3.022656e+01 3.037716e+01 1.345018e+01 2.822034e+01 2.062020e+01 3.506023e+01 1.194567e+02 2.132732e+01 5.374403e+00 1.925125e+01 6.988504e+01 5.042811e+01 1.628390e+02 8.944662e+01 1.475486e+02 1.058673e+03 2.696081e+02 2.563792e+01 1.331328e+02 7.724005e+02 2.964474e+02 9.504727e+02 1.258239e+03 3.640486e+02 5.525658e+00 1.277130e+00 3.392079e-01 3.845128e-01 6.764486e-01 2.789237e+00
<GCONST> 1.798782e+02
<MIXTURE> 2 2.514960e-01
<MEAN> 33
 1.711173e+02 1.403306e+02 1.097800e+02 1.486077e+02 3.053775e+01 1.747760e+02 1.344361e+02 2.377060e+01 1.539450e+02 1.569136e+02 1.705081e+02 2.863242e+00 1.415908e+02 7.549924e+01 1.665864e+02 1.685394e+02 4.106151e+01 1.294669e+02 8.894896e+01 1.510139e+02 1.697930e+02 1.297251e+02 1.005089e+02 1.045406e+02 6.952032e+01 7.648525e+01 1.048831e+02 3.612801e+00 2.502571e+00 2.517370e+00 3.109766e+00 3.658038e+00 7.026994e+00
<VARIANCE> 33
 3.902650e+01 3.758988e+01 1.152216e+02 2.530400e+02 8.880203e+02 1.515758e+01 2.822034e+01 3.194160e+02 1.239151e+02 5.045451e+01 7.169066e+01 9.878692e+00 6.680985e+02 5.710094e+02 4.054127e+01 8.953439e+01 1.934713e+02 2.402946e+02 5.108270e+02 2.452034e+02 5.069279e+01 6.016754e+02 1.029389e+03 2.568542e+03 2.719239e+03 1.880291e+03 3.820512e+02 1.049820e+00 3.044496e-01 1.888551e-01 6.695357e-01 1.242224e+00 1.152327e+00
<GCONST> 1.993289e+02
<MIXTURE> 3 2.514960e-01
<MEAN> 33
 1.711173e+02 1.403306e+02 1.097800e+02 1.486077e+02 3.053775e+01 1.747760e+02 1.344361e+02 2.377060e+01 1.539450e+02 1.569136e+02 1.705081e+02 2.863242e+00 1.415908e+02 7.549924e+01 1.665864e+02 1.685394e+02 4.106151e+01 1.294669e+02 8.894896e+01 1.510139e+02 1.697930e+02 1.297251e+02 1.005089e+02 1.045406e+02 6.952032e+01 7.648525e+01 1.048831e+02 3.612801e+00 2.502571e+00 2.517370e+00 3.109766e+00 3.658038e+00 7.026994e+00
<VARIANCE> 33
 3.902650e+01 3.758988e+01 1.152216e+02 2.530400e+02 8.880203e+02 1.515758e+01 2.822034e+01 3.194160e+02 1.239151e+02 5.045451e+01 7.169066e+01 9.878692e+00 6.680985e+02 5.710094e+02 4.054127e+01 8.953439e+01 1.934713e+02 2.402946e+02 5.108270e+02 2.452034e+02 5.069279e+01 6.016754e+02 1.029389e+03 2.568542e+03 2.719239e+03 1.880291e+03 3.820512e+02 1.049820e+00 3.044496e-01 1.888551e-01 6.695357e-01 1.242224e+00 1.152327e+00
<GCONST> 1.993289e+02
<MIXTURE> 4 1.780186e-01
<MEAN> 33
 1.293165e+02 1.349147e+02 1.111235e+02 1.442329e+02 1.004880e+02 1.731219e+02 1.032275e+02 8.607877e+01 1.223813e+02 1.296852e+02 1.648700e+02 4.910701e+00 1.616037e+02 1.115346e+02 1.620402e+02 1.204324e+02 9.630429e+01 7.469437e+01 8.139025e+01 1.207785e+02 1.676378e+02 1.510655e+02 7.880366e+01 1.331520e+02 6.534187e+01 7.312289e+01 8.840115e+01 4.619836e+00 2.686053e+00 3.026206e+00 2.935656e+00 3.603219e+00 5.642455e+00
<VARIANCE> 33
 2.497892e+03 1.286916e+02 8.634518e+01 1.726604e+02 3.761124e+03 4.216940e+01 2.394231e+03 2.528737e+03 1.564900e+03 1.304492e+03 1.608156e+02 7.653291e+01 3.870784e+02 1.396000e+03 4.832307e+01 2.304697e+03 2.290566e+03 1.872262e+03 1.744920e+03 1.396939e+03 6.268774e+01 3.163188e+02 1.245286e+03 1.930736e+03 2.480917e+03 1.929964e+03 1.375974e+03 4.642903e+00 1.374882e+00 4.670376e-01 3.242696e-01 1.429799e+00 4.568729e+00
<GCONST> 2.383156e+02
<STATE> 3
<NUMMIXES> 4
<MIXTURE> 1 2.601800e-01
<MEAN> 33
 8.819676e+01 1.398023e+02 1.121080e+02 1.349308e+02 1.748004e+02 1.764852e+02 6.636516e+01 1.359103e+02 1.460772e+02 1.142878e+02 1.522090e+02 2.023772e+00 1.748234e+02 1.625821e+02 1.671341e+02 7.953112e+01 1.643743e+02 8.836698e+01 1.177029e+02 1.273695e+02 1.705968e+02 1.630746e+02 1.083291e+02 1.302114e+02 5.118052e+01 8.414496e+01 1.015592e+02 8.410753e+00 2.782430e+00 3.221034e+00 2.523144e+00 2.098866e+00 3.451523e+00
<VARIANCE> 33
 2.183895e+03 1.763208e+02 6.242856e+01 1.630831e+01 3.037716e+01 8.786652e+00 1.303453e+03 2.062020e+01 7.091863e+02 4.239672e+02 3.600721e+02 3.044996e+00 1.299112e+01 2.623010e+01 6.294006e+01 3.152796e+02 7.223717e+01 3.859543e+02 2.241552e+03 7.198385e+02 2.933374e+01 1.664451e+02 5.567111e+02 1.754145e+03 1.147883e+03 2.629319e+03 4.503380e+02 1.155427e+00 1.182627e+00 2.520338e-01 8.141921e-02 1.425745e-01 5.962792e-01
<GCONST> 1.933691e+02
<MIXTURE> 2 4.474818e-01
<MEAN> 33
 2.292487e+01 1.315067e+02 1.112720e+02 1.356987e+02 1.749179e+02 1.753324e+02 1.009060e+01 1.348718e+02 1.442614e+02 6.681443e+01 1.439786e+02 1.479594e+00 1.743678e+02 1.627492e+02 1.667539e+02 3.856284e+01 1.622553e+02 1.242935e+02 1.224453e+02 1.040909e+02 1.698256e+02 1.659593e+02 1.091760e+02 1.226617e+02 6.246359e+01 8.029309e+01 8.444618e+01 6.443926e+00 3.003922e+00 3.326986e+00 2.871930e+00 2.198799e+00 3.651217e+00
<VARIANCE> 33
 1.382638e+02 1.403050e+02 4.736380e+01 1.837383e+01 3.037716e+01 1.567139e+01 4.165802e+01 2.062020e+01 5.926020e+01 2.156716e+02 3.487788e+02 1.400689e+00 1.441717e+01 2.028297e+01 4.491582e+01 6.996042e+01 8.113026e+01 1.182331e+02 6.611085e+02 3.661093e+02 3.297194e+01 9.104012e+01 3.813343e+02 2.354913e+03 2.129384e+03 2.510741e+03 1.688806e+02 1.215024e+00 1.006244e+00 4.742203e-01 2.931010e-01 1.270078e-01 9.164734e-01
<GCONST> 1.795695e+02
<MIXTURE> 3 1.581037e-01
<MEAN> 33
 1.851680e+01 1.407994e+02 1.274159e+02 1.284043e+02 1.682853e+02 1.766270e+02 1.392510e+01 1.375405e+02 1.511216e+02 6.989633e+01 1.371966e+02 7.479566e+00 1.690968e+02 1.632643e+02 1.665169e+02 3.823127e+01 1.704917e+02 1.425490e+02 9.917434e+01 1.166766e+02 1.707685e+02 1.512037e+02 1.045941e+02 1.252221e+02 5.574488e+01 1.154030e+02 1.095324e+02 6.681312e+00 4.270847e+00 4.001195e+00 2.683910e+00 2.860050e+00 3.690972e+00
<VARIANCE> 33
 1.708263e+02 4.124615e+02 6.204396e+01 3.727025e+01 3.037716e+01 1.031326e+01 7.262526e+01 2.062020e+01 8.777525e+01 1.679104e+02 1.561154e+02 7.291981e+01 1.739321e+02 7.604824e+01 2.756702e+01 7.485719e+01 5.578614e+01 1.429735e+02 4.385353e+02 4.829616e+02 3.308967e+01 1.297872e+02 1.210453e+03 9.820250e+02 1.099746e+03 3.176023e+03 2.845492e+02 2.152905e+00 5.154265e-01 4.359320e-01 6.411292e-02 1.933913e-01 3.293034e-01
<GCONST> 1.867689e+02
<MIXTURE> 4 1.342341e-01
<MEAN> 33
