~o
<STREAMINFO> 1 33
<VECSIZE> 33<NULLD><USER><DIAGC>
~h "BN"
<BEGINHMM>
<NUMSTATES> 5
<STATE> 2
<NUMMIXES> 4
<MIXTURE> 1 3.165419e-01
<MEAN> 33
 1.743951e+02 1.387742e+02 1.046527e+02 1.396725e+02 1.761855e+02 1.769445e+02 1.353667e+02 1.341058e+02 9.052750e+01 1.603128e+02 1.764783e+02 9.525172e-01 1.756654e+02 1.624107e+02 1.646155e+02 1.668306e+02 1.705033e+02 8.155392e+00 1.049225e+02 1.612777e+02 1.695409e+02 1.635348e+02 1.097115e+02 1.616647e+02 6.926569e+01 9.277261e+01 1.604600e+02 4.371054e+00 2.307104e+00 2.572985e+00 2.392978e+00 2.268115e+00 4.696261e+00
<VARIANCE> 33
 3.902650e+01 1.774475e+01 4.572757e+01 2.761699e+01 3.037716e+01 3.824787e+00 2.822034e+01 2.062020e+01 1.886277e+01 3.542435e+01 9.277987e+00 5.357184e-01 8.056536e+00 3.318900e+01 4.120421e+01 6.559621e+01 5.332119e+01 3.148238e+01 4.091116e+02 9.392123e+01 2.567548e+01 1.031633e+02 3.688280e+02 1.907488e+02 6.271628e+02 8.238036e+02 2.002398e+02 4.630733e+00 3.895543e-01 2.483119e-01 3.677905e-01 3.086922e-01 2.861358e+00
<GCONST> 1.606043e+02
<MIXTURE> 2 1.329091e-01
<MEAN> 33
 1.481656e+02 1.370523e+02 1.106250e+02 1.361602e+02 1.750146e+02 1.767301e+02 1.240381e+02 1.347980e+02 1.007696e+02 1.213725e+02 1.751208e+02 9.871522e-01 1.755978e+02 1.607914e+02 1.614041e+02 1.192786e+02 1.662264e+02 4.837978e+01 5.507105e+01 1.575460e+02 1.689706e+02 1.636670e+02 1.003843e+02 1.590500e+02 4.536466e+01 7.486951e+01 1.172927e+02 8.698918e+00 3.075742e+00 3.030348e+00 2.598783e+00 2.117821e+00 4.248501e+00
<VARIANCE> 33
 3.667832e+02 2.210097e+01 3.940275e+01 1.339120e+01 3.037716e+01 7.593045e+00 2.446784e+02 2.062020e+01 2.965978e+02 2.186081e+02 1.635978e+01 6.181009e-01 6.700133e+00 3.905960e+01 4.063654e+01 3.594412e+02 6.971249e+01 4.689328e+02 2.682069e+02 1.855835e+02 2.410837e+01 9.221798e+01 5.046981e+02 2.315005e+02 5.701495e+02 7.520980e+02 2.938692e+02 1.513893e+00 5.545695e-01 1.022455e-01 7.269502e-02 9.153502e-02 9.945037e-01
<GCONST> 1.701997e+02
<MIXTURE> 3 1.978038e-01
<MEAN> 33
 1.714088e+02 1.378112e+02 1.113431e+02 1.388527e+02 1.705127e+02 1.755314e+02 1.331548e+02 1.342286e+02 9.261659e+01 1.567647e+02 1.685873e+02 1.890010e+00 1.730073e+02 1.602775e+02 1.615455e+02 1.592228e+02 1.606545e+02 2.255275e+01 1.051589e+02 1.393052e+02 1.711411e+02 1.520060e+02 1.108495e+02 1.408537e+02 9.955366e+01 8.106299e+01 1.497005e+02 5.091647e+00 3.642208e+00 2.821072e+00 2.659682e+00 2.891534e+00 4.876707e+00
<VARIANCE> 33
 5.679256e+01 8.919517e+01 6.938633e+01 4.173556e+01 5.093613e+01 1.248177e+01 5.498533e+01 3.239536e+01 8.601159e+01 1.724587e+02 7.500698e+01 3.055069e+00 3.258638e+01 2.107557e+02 3.094777e+01 2.653461e+02 1.877861e+02 3.031863e+02 2.068585e+03 3.678062e+02 3.385739e+01 2.603700e+02 1.769660e+03 9.034274e+02 2.275137e+03 2.273196e+03 5.736353e+02 3.974961e+00 2.884214e+00 6.224943e-01 2.760083e-01 1.347143e+00 4.368958e+00
<GCONST> 1.961001e+02
<MIXTURE> 4 3.527448e-01
<MEAN> 33
 7.553646e+01 1.470733e+02 1.123073e+02 1.481897e+02 1.177993e+02 1.742038e+02 5.941357e+01 1.006306e+02 1.120151e+02 1.012058e+02 1.465203e+02 3.006877e+00 1.675040e+02 1.357074e+02 1.648904e+02 7.250757e+01 1.127184e+02 8.674378e+01 9.232209e+01 1.310826e+02 1.711800e+02 1.536938e+02 5.844108e+01 1.193269e+02 5.834850e+01 9.796293e+01 9.819775e+01 5.205803e+00 3.726774e+00 3.359751e+00 2.686034e+00 3.708869e+00 3.967237e+00
<VARIANCE> 33
 3.971752e+03 2.771138e+02 7.457483e+01 3.681624e+02 1.770137e+03 1.963984e+01 2.908089e+03 1.665335e+03 2.011624e+03 1.748922e+03 7.200795e+02 1.602538e+01 1.446002e+02 1.359650e+03 3.427895e+01 3.007858e+03 2.005897e+03 2.984265e+03 1.780155e+03 6.219547e+02 5.268255e+01 4.723892e+02 1.822602e+03 2.082063e+03 1.755992e+03 3.148996e+03 2.433197e+03 3.724197e+00 2.182560e+00 6.443378e-01 6.033466e-01 1.114934e+00 2.605470e+00
<GCONST> 2.391236e+02
<STATE> 3
<NUMMIXES> 4
<MIXTURE> 1 2.046661e-01
<MEAN> 33
 6.040925e+01 1.528931e+02 1.133216e+02 1.351718e+02 1.713228e+02 1.766034e+02 5.195196e+01 1.367321e+02 1.488556e+02 9.231178e+01 1.551396e+02 3.032670e+00 1.746194e+02 1.627394e+02 1.619268e+02 6.498692e+01 1.675165e+02 1.153795e+02 8.179959e+01 1.449709e+02 1.682600e+02 1.536879e+02 1.088104e+02 1.440618e+02 3.135837e+01 1.097837e+02 1.194347e+02 7.917037e+00 3.574986e+00 3.526316e+00 2.539173e+00 2.461117e+00 3.385241e+00
<VARIANCE> 33
 2.592902e+03 2.810667e+02 8.392792e+01 1.638319e+01 3.848865e+01 9.268351e+00 1.542899e+03 2.062020e+01 6.354601e+02 8.777027e+02 2.191004e+02 8.811296e+00 1.271866e+01 3.009851e+01 2.958617e+01 9.284257e+02 5.616961e+01 1.381294e+03 8.397236e+02 5.345940e+02 3.028160e+01 1.713966e+02 9.961926e+02 6.127435e+02 4.301104e+02 2.363211e+03 5.081591e+02 1.553400e+00 1.152291e+00 4.702019e-01 1.308803e-01 3.236839e-01 6.184419e-01
<GCONST> 1.969838e+02
<MIXTURE> 2 3.300748e-01
<MEAN> 33
 1.812083e+01 1.646293e+02 1.056989e+02 1.363392e+02 1.748791e+02 1.761837e+02 1.608514e+01 1.356160e+02 1.517003e+02 6.414723e+01 1.366503e+02 1.993927e+00 1.750332e+02 1.635704e+02 1.624730e+02 2.805783e+01 1.659628e+02 1.395803e+02 7.775729e+01 1.371013e+02 1.699206e+02 1.630961e+02 1.090712e+02 1.160890e+02 5.256636e+01 1.076557e+02 1.073431e+02 5.635211e+00 4.089346e+00 2.991410e+00 2.899758e+00 2.199312e+00 4.423148e+00
<VARIANCE> 33
 8.174279e+01 1.929146e+02 6.175616e+01 1.591806e+01 3.037716e+01 9.959050e+00 2.822034e+01 2.062020e+01 3.294533e+01 2.524706e+02 4.845834e+02 3.399109e+00 1.772953e+01 2.220655e+01 3.234583e+01 3.071743e+01 7.599685e+01 1.531104e+02 2.456927e+02 2.581316e+02 5.215591e+01 1.118241e+02 3.939138e+02 1.711809e+03 1.565174e+03 2.512506e+03 2.317128e+02 6.841962e-01 1.014722e+00 5.545179e-01 2.175905e-01 1.064591e-01 1.094054e+00
<GCONST> 1.771073e+02
<MIXTURE> 3 3.300748e-01
<MEAN> 33
 1.812083e+01 1.646293e+02 1.056989e+02 1.363392e+02 1.748791e+02 1.761837e+02 1.608514e+01 1.356160e+02 1.517003e+02 6.414723e+01 1.366503e+02 1.993927e+00 1.750332e+02 1.635704e+02 1.624730e+02 2.805783e+01 1.659628e+02 1.395803e+02 7.775729e+01 1.371013e+02 1.699206e+02 1.630961e+02 1.090712e+02 1.160890e+02 5.256636e+01 1.076557e+02 1.073431e+02 5.635211e+00 4.089346e+00 2.991410e+00 2.899758e+00 2.199312e+00 4.423148e+00
<VARIANCE> 33
 8.174279e+01 1.929146e+02 6.175616e+01 1.591806e+01 3.037716e+01 9.959050e+00 2.822034e+01 2.062020e+01 3.294533e+01 2.524706e+02 4.845834e+02 3.399109e+00 1.772953e+01 2.220655e+01 3.234583e+01 3.071743e+01 7.599685e+01 1.531104e+02 2.456927e+02 2.581316e+02 5.215591e+01 1.118241e+02 3.939138e+02 1.711809e+03 1.565174e+03 2.512506e+03 2.317128e+02 6.841962e-01 1.014722e+00 5.545179e-01 2.175905e-01 1.064591e-01 1.094054e+00
<GCONST> 1.771073e+02
<MIXTURE> 4 1.351852e-01
<MEAN> 33
 3.601802e+01 1.584761e+02 1.169689e+02 1.363439e+02 1.502067e+02 1.753044e+02 3.069668e+01 1.271531e+02 1.517018e+02 5.944353e+01 1.465969e+02 1.384191e+01 1.579304e+02 1.454219e+02 1.612244e+02 3.843623e+01 1.425301e+02 1.231743e+02 6.335147e+01 1.531427e+02 1.579918e+02 1.526926e+02 8.276505e+01 6.403582e+01 9.840626e+01 1.192255e+02 1.052285e+02 4.782905e+00 4.167672e+00 2.145088e+00 2.873388e+00 3.202692e+00 4.943267e+00
<VARIANCE> 33
 1.857512e+03 2.574759e+02 1.522347e+02 1.562422e+02 1.099773e+03 1.212817e+01 1.046573e+03 6.422395e+02 2.886686e+02 1.392179e+03 6.755443e+02 1.768684e+02 1.764641e+02 7.844120e+02 4.233604e+01 1.611510e+03 1.104849e+03 9.450806e+02 3.548092e+02 2.908921e+02 2.928989e+02 1.858199e+02 1.369132e+03 1.731519e+03 2.093661e+03 1.465985e+03 6.588584e+02 2.045645e+00 1.527668e+00 5.744148e-01 4.276948e-01 1.196295e+00 3.825874e+00
<GCONST> 2.279555e+02
<STATE> 4
<NUMMIXES> 4
<MIXTURE> 1 4.605847e-01
<MEAN> 33
 1.719929e+02 1.373029e+02 1.105446e+02 1.373574e+02 1.732671e+02 1.762250e+02 1.357892e+02 1.358043e+02 8.840647e+01 1.597949e+02 1.718223e+02 1.952703e+00 1.738119e+02 1.632132e+02 1.616561e+02 1.604328e+02 1.669153e+02 1.717396e+01 1.078541e+02 1.505827e+02 1.681145e+02 1.585889e+02 1.095237e+02 1.499735e+02 8.488057e+01 8.436919e+01 1.515806e+02 5.444427e+00 2.950387e+00 2.903867e+00 2.698669e+00 2.550738e+00 4.803104e+00
<VARIANCE> 33
 5.659800e+01 3.409820e+01 6.627356e+01 3.962494e+01 3.553424e+01 1.149957e+01 2.822034e+01 2.062020e+01 3.850763e+01 1.334071e+02 4.790407e+01 5.245526e+00 2.576035e+01 5.946525e+01 3.575194e+01 2.321907e+02 8.805128e+01 1.859174e+02 1.449515e+03 3.813006e+02 2.650397e+01 2.059939e+02 8.601896e+02 7.800922e+02 1.475873e+03 1.567619e+03 4.913348e+02 4.539214e+00 1.525323e+00 3.107727e-01 2.832197e-01 8.468962e-01 2.741780e+00
<GCONST> 1.850429e+02
<MIXTURE> 2 1.107289e-01
<MEAN> 33
 1.719857e+02 1.355207e+02 1.158980e+02 1.511460e+02 2.334801e+01 1.707654e+02 1.373233e+02 3.360294e+01 1.644505e+02 1.585865e+02 1.736017e+02 1.359324e+01 1.315688e+02 6.998936e+01 1.596408e+02 1.673268e+02 4.048843e+01 1.276250e+02 7.870928e+01 1.439303e+02 1.625469e+02 1.444225e+02 7.180175e+01 1.327165e+02 6.411536e+01 8.321694e+01 1.119284e+02 2.399885e+00 2.157818e+00 2.676925e+00 2.693835e+00 4.336292e+00 6.359046e+00
<VARIANCE> 33
 3.902650e+01 5.079989e+01 1.235170e+02 6.087341e+02 5.267782e+02 3.285657e+01 2.822034e+01 2.605337e+02 8.127157e+01 5.334898e+01 2.402735e+01 2.892445e+02 1.006581e+03 6.497145e+02 1.079543e+02 5.613963e+01 3.012671e+02 2.625927e+02 1.016866e+03 6.239378e+02 8.755468e+01 4.252661e+02 4.082880e+02 1.567281e+03 1.593332e+03 2.688784e+03 1.967765e+02 1.904502e+00 3.559233e-01 3.523867e-01 6.546357e-01 2.464033e+00 1.918759e+00
<GCONST> 2.062367e+02
<MIXTURE> 3 2.865307e-01
<MEAN> 33
 1.707217e+02 1.387961e+02 1.093430e+02 1.622806e+02 2.133177e+01 1.758351e+02 1.353586e+02 1.980351e+01 1.551621e+02 1.577890e+02 1.701356e+02 1.863715e+00 1.401111e+02 5.849184e+01 1.654252e+02 1.661863e+02 2.583567e+01 1.416420e+02 9.045963e+01 1.554128e+02 1.683725e+02 1.424402e+02 6.937592e+01 9.429919e+01 9.916827e+01 7.552681e+01 1.149525e+02 4.500326e+00 2.672054e+00 2.623451e+00 2.791677e+00 4.286794e+00 5.854559e+00
<VARIANCE> 33
 3.902650e+01 3.562918e+01 8.425572e+01 1.981548e+02 2.248839e+02 1.071331e+01 2.822034e+01 3.144230e+01 4.034888e+01 4.029670e+01 8.169972e+01 2.447829e+00 7.550295e+02 2.848926e+02 5.041523e+01 9.932898e+01 4.595712e+01 1.051062e+02 4.672758e+02 1.834351e+02 6.175119e+01 4.229343e+02 3.988536e+02 3.165000e+03 2.193974e+03 2.415123e+03 1.967522e+02 1.440553e+00 2.313607e-01 2.521101e-01 7.816964e-01 9.125574e-01 1.636702e+00
<GCONST> 1.881787e+02
<MIXTURE> 4 1.421549e-01
<MEAN> 33
 1.285843e+02 1.434883e+02 1.126529e+02 1.422237e+02 1.047598e+02 1.749480e+02 1.042429e+02 8.162997e+01 1.076088e+02 1.234848e+02 1.625975e+02 5.949624e+00 1.538284e+02 1.094253e+02 1.652277e+02 1.185190e+02 8.692966e+01 6.202317e+01 8.018783e+01 1.431569e+02 1.690731e+02 1.449500e+02 8.410008e+01 1.040520e+02 9.605201e+01 6.727225e+01 1.072060e+02 4.486967e+00 3.032302e+00 2.613451e+00 2.894258e+00 3.670316e+00 5.963973e+00
<VARIANCE> 33
 2.933982e+03 1.526119e+02 1.305061e+02 1.155339e+03 3.402708e+03 1.889992e+01 1.891710e+03 2.204082e+03 1.505050e+03 1.997599e+03 2.522056e+02 8.670502e+01 8.106871e+02 1.664527e+03 4.654280e+01 3.020648e+03 2.582802e+03 1.707696e+03 1.439281e+03 3.634749e+02 5.469188e+01 1.166245e+03 1.645438e+03 2.578210e+03 2.894655e+03 2.065108e+03 1.867188e+03 2.954241e+00 8.877302e-01 4.507250e-01 8.171380e-01 1.716518e+00 5.016323e+00
<GCONST> 2.428232e+02
<TRANSP> 5
 0.000000e+00 1.000000e+00 0.000000e+00 0.000000e+00 0.000000e+00
 0.000000e+00 8.564268e-01 1.435731e-01 0.000000e+00 0.000000e+00
 0.000000e+00 0.000000e+00 9.544227e-01 4.557732e-02 0.000000e+00
 0.000000e+00 0.000000e+00 0.000000e+00 9.514672e-01 4.853275e-02
 0.000000e+00 0.000000e+00 0.000000e+00 0.000000e+00 0.000000e+00
<ENDHMM>
~h "BS"
<BEGINHMM>
<NUMSTATES> 5
<STATE> 2
<NUMMIXES> 4
<MIXTURE> 1 2.667882e-01
<MEAN> 33
 1.732250e+02 1.369148e+02 1.080249e+02 1.380767e+02 1.749082e+02 1.763176e+02 1.354379e+02 1.346779e+02 8.988420e+01 1.566910e+02 1.751364e+02 1.102784e+00 1.749126e+02 1.599445e+02 1.623990e+02 1.607471e+02 1.654241e+02 9.982120e+00 1.000351e+02 1.581557e+02 1.700714e+02 1.625072e+02 1.048330e+02 1.593054e+02 7.471010e+01 8.202530e+01 1.489138e+02 5.265678e+00 2.633434e+00 2.693605e+00 2.549176e+00 2.264023e+00 4.850236e+00
<VARIANCE> 33
 3.902650e+01 2.231778e+01 5.712472e+01 3.097188e+01 3.037716e+01 1.154232e+01 2.822034e+01 2.062020e+01 2.661100e+01 1.125364e+02 1.999514e+01 1.697500e+00 1.767090e+01 7.852351e+01 4.355049e+01 1.367924e+02 1.050706e+02 8.386893e+01 9.133114e+02 2.211734e+02 2.561755e+01 1.757719e+02 6.260674e+02 3.175619e+02 1.032440e+03 9.655634e+02 3.998981e+02 4.045413e+00 7.853447e-01 3.087261e-01 2.772440e-01 5.759928e-01 3.572657e+00
<GCONST> 1.757164e+02
<MIXTURE> 2 1.979420e-01
<MEAN> 33
 1.096750e+02 1.365525e+02 1.157806e+02 1.389698e+02 1.215857e+02 1.753858e+02 9.958861e+01 1.047959e+02 1.115077e+02 1.152083e+02 1.646980e+02 4.044321e+00 1.620882e+02 1.193934e+02 1.601721e+02 9.443344e+01 9.711205e+01 1.296710e+01 9.293870e+01 1.361369e+02 1.699206e+02 1.509171e+02 9.085835e+01 1.466942e+02 4.043890e+01 5.654461e+01 5.291300e+01 5.475305e+00 2.923595e+00 3.117139e+00 3.047122e+00 3.024613e+00 5.257952e+00
<VARIANCE> 33
 1.295091e+03 8.434911e+01 1.033760e+02 1.086161e+02 9.893392e+02 1.959506e+01 1.594061e+03 1.180819e+03 2.269917e+03 2.429158e+02 1.237262e+02 1.876152e+02 2.770697e+02 2.573873e+02 3.903659e+01 4.816889e+02 4.911184e+02 2.347213e+02 1.856175e+03 8.403661e+02 3.183251e+01 4.257233e+02 1.362250e+03 9.856049e+02 1.264614e+03 1.689891e+03 1.267201e+03 2.343528e+00 9.641961e-01 4.055570e-01 3.222926e-01 1.024915e+00 1.787268e+00
<GCONST> 2.208319e+02
<MIXTURE> 3 1.979420e-01
<MEAN> 33
 1.096750e+02 1.365525e+02 1.157806e+02 1.389698e+02 1.215857e+02 1.753858e+02 9.958861e+01 1.047959e+02 1.115077e+02 1.152083e+02 1.646980e+02 4.044321e+00 1.620882e+02 1.193934e+02 1.601721e+02 9.443344e+01 9.711205e+01 1.296710e+01 9.293870e+01 1.361369e+02 1.699206e+02 1.509171e+02 9.085835e+01 1.466942e+02 4.043890e+01 5.654461e+01 5.291300e+01 5.475305e+00 2.923595e+00 3.117139e+00 3.047122e+00 3.024613e+00 5.257952e+00
<VARIANCE> 33
 1.295091e+03 8.434911e+01 1.033760e+02 1.086161e+02 9.893392e+02 1.959506e+01 1.594061e+03 1.180819e+03 2.269917e+03 2.429158e+02 1.237262e+02 1.876152e+02 2.770697e+02 2.573873e+02 3.903659e+01 4.816889e+02 4.911184e+02 2.347213e+02 1.856175e+03 8.403661e+02 3.183251e+01 4.257233e+02 1.362250e+03 9.856049e+02 1.264614e+03 1.689891e+03 1.267201e+03 2.343528e+00 9.641961e-01 4.055570e-01 3.222926e-01 1.024915e+00 1.787268e+00
<GCONST> 2.208319e+02
<MIXTURE> 4 3.373273e-01
<MEAN> 33
 7.355659e+01 1.332894e+02 1.106599e+02 1.386707e+02 7.010500e+01 1.738979e+02 3.574258e+01 3.519410e+01 5.081995e+01 1.052557e+02 1.514090e+02 2.287575e+00 1.539081e+02 1.062848e+02 1.626626e+02 6.817841e+01 6.915003e+01 7.258249e+00 1.137987e+02 1.094350e+02 1.689466e+02 1.262386e+02 9.915347e+01 1.284805e+02 6.199109e+01 5.688019e+01 2.207435e+01 4.022882e+00 3.023435e+00 3.731829e+00 3.531117e+00 3.495460e+00 4.030580e+00
<VARIANCE> 33
 4.949833e+02 9.725382e+01 7.076926e+01 9.672532e+01 5.653868e+02 3.634964e+01 5.137699e+02 5.854435e+02 1.368089e+03 4.320125e+02 3.169828e+02 1.208348e+01 3.229808e+02 4.162852e+02 3.992060e+01 1.550820e+02 1.632798e+02 4.673763e+01 7.621675e+02 5.744555e+02 1.243950e+02 5.508413e+02 5.837979e+02 2.040055e+03 2.336711e+03 2.348902e+03 3.087748e+02 5.724056e-01 9.899957e-01 4.222216e-01 2.806856e-01 1.068524e+00 5.550085e-01
<GCONST> 2.099704e+02
<STATE> 3
<NUMMIXES> 4
<MIXTURE> 1 2.297828e-01
<MEAN> 33
 1.517090e+02 1.490548e+02 1.190831e+02 1.473201e+02 1.549308e+02 1.764850e+02 9.436222e+01 9.554135e+01 1.659388e+02 1.088608e+02 1.738870e+02 3.421729e+00 1.711346e+02 1.040571e+02 1.624787e+02 1.036555e+02 1.006868e+02 3.498974e+01 1.032580e+02 1.587827e+02 1.610730e+02 1.507384e+02 9.718179e+01 1.565862e+02 6.004515e+01 9.012698e+01 1.464216e+02 7.203031e+00 3.676658e+00 2.116589e+00 1.934454e+00 3.915949e+00 7.135082e+00
<VARIANCE> 33
 2.734214e+02 8.384906e+01 9.018797e+01 1.194143e+02 2.734409e+02 6.382889e+00 6.762593e+01 9.650014e+01 1.179350e+02 3.674093e+02 2.208748e+01 7.699340e+00 5.813815e+01 4.591721e+02 3.617308e+01 8.826331e+02 1.426478e+03 1.491588e+03 5.043727e+02 1.133509e+02 4.739300e+01 1.472078e+02 6.323051e+02 1.587784e+02 6.206691e+02 4.245004e+02 3.412178e+02 2.492907e+00 1.566151e+00 1.617283e-01 1.415450e-01 2.110147e+00 2.428563e+00
<GCONST> 1.960239e+02
<MIXTURE> 2 2.544049e-01
<MEAN> 33
 1.338045e+02 1.392524e+02 1.133805e+02 1.414178e+02 1.461670e+02 1.753570e+02 9.005587e+01 9.336359e+01 1.649493e+02 1.036338e+02 1.714201e+02 2.704341e+00 1.713563e+02 1.081103e+02 1.601214e+02 8.967702e+01 9.362560e+01 9.893699e+00 1.036096e+02 1.486911e+02 1.711051e+02 1.569464e+02 1.048102e+02 1.399219e+02 5.008857e+01 7.864943e+01 1.120699e+02 8.038534e+00 1.947605e+00 2.387975e+00 2.298044e+00 2.146076e+00 7.847867e+00
<VARIANCE> 33
 5.294000e+02 5.969757e+01 1.143706e+02 8.853134e+01 4.434974e+02 1.639573e+01 1.027114e+02 9.507510e+01 1.186354e+02 1.954900e+02 4.836814e+01 1.245110e+01 5.029145e+01 2.040171e+02 4.701240e+01 1.877855e+02 2.239915e+02 6.308165e+01 1.223561e+03 5.409965e+02 3.137668e+01 2.928617e+02 7.325223e+02 1.131542e+03 1.590443e+03 1.463726e+03 3.854290e+02 8.255872e-01 2.944263e-01 8.530711e-02 9.147286e-02 3.303308e-01 7.394781e-01
<GCONST> 1.917364e+02
<MIXTURE> 3 2.544049e-01
<MEAN> 33
 1.338045e+02 1.392524e+02 1.133805e+02 1.414178e+02 1.461670e+02 1.753570e+02 9.005587e+01 9.336359e+01 1.649493e+02 1.036338e+02 1.714201e+02 2.704341e+00 1.713563e+02 1.081103e+02 1.601214e+02 8.967702e+01 9.362560e+01 9.893699e+00 1.036096e+02 1.486911e+02 1.711051e+02 1.569464e+02 1.048102e+02 1.399219e+02 5.008857e+01 7.864943e+01 1.120699e+02 8.038534e+00 1.947605e+00 2.387975e+00 2.298044e+00 2.146076e+00 7.847867e+00
<VARIANCE> 33
 5.294000e+02 5.969757e+01 1.143706e+02 8.853134e+01 4.434974e+02 1.639573e+01 1.027114e+02 9.507510e+01 1.186354e+02 1.954900e+02 4.836814e+01 1.245110e+01 5.029145e+01 2.040171e+02 4.701240e+01 1.877855e+02 2.239915e+02 6.308165e+01 1.223561e+03 5.409965e+02 3.137668e+01 2.928617e+02 7.325223e+02 1.131542e+03 1.590443e+03 1.463726e+03 3.854290e+02 8.255872e-01 2.944263e-01 8.530711e-02 9.147286e-02 3.303308e-01 7.394781e-01
<GCONST> 1.917364e+02
<MIXTURE> 4 2.614062e-01
<MEAN> 33
 1.118326e+02 1.571943e+02 1.074365e+02 1.632263e+02 1.185628e+02 1.677599e+02 7.240784e+01 7.208399e+01 1.442421e+02 7.279733e+01 1.682126e+02 2.715036e+00 1.645169e+02 6.203471e+01 1.629532e+02 3.903825e+01 3.067945e+01 2.080367e+01 1.340576e+02 1.613853e+02 1.666185e+02 1.597812e+02 1.259280e+02 1.291874e+02 8.191115e+01 8.317619e+01 1.531087e+02 6.232579e+00 3.062590e+00 1.864174e+00 1.626251e+00 3.587529e+00 6.796199e+00
<VARIANCE> 33
 5.982551e+02 1.275758e+02 3.331769e+01 1.042042e+02 5.112378e+02 9.470038e+01 7.395561e+01 9.293533e+01 2.686282e+02 1.239887e+03 9.699138e+01 4.545619e+00 1.869681e+02 7.711400e+02 4.223496e+01 5.164143e+02 4.617692e+02 3.923391e+02 6.142739e+02 1.261849e+02 5.142398e+01 2.636927e+02 4.080579e+02 1.427663e+03 1.559744e+03 1.478022e+03 5.152656e+02 2.081478e+00 2.983290e+00 2.743285e-01 1.612261e-01 3.665755e+00 1.779262e+00
<GCONST> 2.079758e+02
<STATE> 4
<NUMMIXES> 4
<MIXTURE> 1 4.196863e-01
<MEAN> 33
 1.742365e+02 1.366385e+02 1.091038e+02 1.383558e+02 1.738632e+02 1.767502e+02 1.358711e+02 1.354334e+02 8.869548e+01 1.625481e+02 1.748529e+02 9.406056e-01 1.749217e+02 1.656768e+02 1.615931e+02 1.656564e+02 1.685786e+02 8.651932e+00 1.095100e+02 1.603006e+02 1.682914e+02 1.656954e+02 1.161132e+02 1.588940e+02 8.419152e+01 7.872846e+01 1.562167e+02 5.437708e+00 2.383149e+00 2.976305e+00 2.690909e+00 2.185786e+00 5.067638e+00
<VARIANCE> 33
 3.902650e+01 2.157624e+01 3.906545e+01 1.847795e+01 3.037716e+01 5.910903e+00 2.822034e+01 2.062020e+01 4.118165e+01 5.435205e+01 1.583226e+01 5.357184e-01 1.031026e+01 5.280669e+01 3.110706e+01 6.801862e+01 6.127625e+01 3.394965e+01 8.141365e+02 1.135058e+02 1.879362e+01 9.460075e+01 7.174886e+02 1.693451e+02 6.388398e+02 6.691970e+02 2.104593e+02 2.259358e+00 3.030150e-01 2.875598e-01 1.712561e-01 1.770835e-01 2.223203e+00
<GCONST> 1.615909e+02
<MIXTURE> 2 1.875180e-01
<MEAN> 33
 1.669246e+02 1.408047e+02 1.117751e+02 1.427358e+02 1.661521e+02 1.759712e+02 1.283207e+02 1.274354e+02 1.042439e+02 1.416355e+02 1.710616e+02 1.344433e+00 1.687851e+02 1.444779e+02 1.622856e+02 1.381540e+02 1.387440e+02 1.050573e+01 9.228218e+01 1.601053e+02 1.661320e+02 1.635621e+02 9.674133e+01 1.555147e+02 5.683511e+01 5.845544e+01 1.135331e+02 6.670738e+00 2.515266e+00 2.606498e+00 2.557596e+00 2.464964e+00 6.838741e+00
<VARIANCE> 33
 6.555785e+01 5.749894e+01 5.459166e+01 8.248872e+01 7.585163e+01 8.967680e+00 1.671340e+02 1.290715e+02 5.146161e+02 2.053265e+02 4.191012e+01 1.020820e+00 5.680965e+01 1.834950e+02 4.306977e+01 2.101811e+02 2.137224e+02 6.775345e+01 6.286835e+02 1.655411e+02 5.554908e+01 1.252483e+02 4.887777e+02 2.884442e+02 7.042964e+02 5.860148e+02 4.693085e+02 1.537008e+00 3.558321e-01 1.239010e-01 1.610049e-01 2.201998e-01 1.329415e+00
<GCONST> 1.826583e+02
<MIXTURE> 3 2.116802e-01
<MEAN> 33
 1.710920e+02 1.394931e+02 1.125833e+02 1.422563e+02 1.688248e+02 1.745248e+02 1.334786e+02 1.312935e+02 9.522790e+01 1.571772e+02 1.721208e+02 2.943113e+00 1.693613e+02 1.603310e+02 1.619666e+02 1.625923e+02 1.584929e+02 1.556464e+01 1.078008e+02 1.449699e+02 1.669418e+02 1.499576e+02 1.220887e+02 1.420001e+02 8.445284e+01 1.043717e+02 1.466705e+02 4.697306e+00 3.702810e+00 2.591016e+00 2.485285e+00 3.171895e+00 4.919209e+00
<VARIANCE> 33
 7.648942e+01 6.911882e+01 9.545689e+01 1.071871e+02 7.918193e+01 2.146111e+01 7.045497e+01 8.656584e+01 2.515246e+02 1.976530e+02 4.262784e+01 8.924448e+00 6.121043e+01 2.059061e+02 4.357541e+01 1.718638e+02 2.130085e+02 1.859642e+02 1.847323e+03 3.062826e+02 5.007962e+01 2.905225e+02 1.487523e+03 1.671116e+03 1.753659e+03 1.543037e+03 5.029832e+02 3.164293e+00 3.167403e+00 3.341677e-01 2.747912e-01 1.331679e+00 3.109206e+00
<GCONST> 2.002420e+02
<MIXTURE> 4 1.811143e-01
<MEAN> 33
 1.313844e+02 1.408720e+02 1.131781e+02 1.471956e+02 1.166148e+02 1.712527e+02 1.050904e+02 8.816649e+01 1.171281e+02 1.216771e+02 1.662375e+02 3.826637e+00 1.587369e+02 1.062720e+02 1.614058e+02 1.048555e+02 8.326436e+01 3.858097e+01 1.083168e+02 1.345646e+02 1.694895e+02 1.442355e+02 1.025935e+02 1.255947e+02 6.354436e+01 8.101748e+01 9.365624e+01 5.750035e+00 2.909098e+00 2.724837e+00 2.645492e+00 3.500990e+00 5.809388e+00
<VARIANCE> 33
 1.616669e+03 1.899030e+02 1.547574e+02 2.979293e+02 2.792931e+03 5.013651e+01 1.643671e+03 2.146207e+03 2.842029e+03 1.361673e+03 9.633000e+01 1.630072e+01 2.250371e+02 1.508247e+03 7.474565e+01 1.710862e+03 1.716132e+03 2.216805e+03 1.691433e+03 9.701263e+02 6.190662e+01 5.084074e+02 1.410258e+03 1.906091e+03 2.253716e+03 2.276400e+03 2.769074e+03 2.123039e+00 1.063555e+00 7.855427e-01 7.766120e-01 1.514049e+00 2.329335e+00
<GCONST> 2.375518e+02
<TRANSP> 5
 0.000000e+00 1.000000e+00 0.000000e+00 0.000000e+00 0.000000e+00
 0.000000e+00 9.270864e-01 7.291362e-02 0.000000e+00 0.000000e+00
 0.000000e+00 0.000000e+00 9.343565e-01 6.564350e-02 0.000000e+00
 0.000000e+00 0.000000e+00 0.000000e+00 9.330939e-01 6.690613e-02
 0.000000e+00 0.000000e+00 0.000000e+00 0.000000e+00 0.000000e+00
<ENDHMM>
~h "CF"
<BEGINHMM>
<NUMSTATES> 5
<STATE> 2
<NUMMIXES> 4
<MIXTURE> 1 4.113689e-01
<MEAN> 33
 1.725291e+02 1.358874e+02 1.096216e+02 1.367133e+02 1.746923e+02 1.764612e+02 1.351650e+02 1.347780e+02 9.005695e+01 1.556387e+02 1.754903e+02 1.409759e+00 1.744140e+02 1.611498e+02 1.609976e+02 1.611774e+02 1.652583e+02 1.357113e+01 9.185735e+01 1.536436e+02 1.695269e+02 1.644795e+02 1.076377e+02 1.584533e+02 7.021915e+01 8.477045e+01 1.503008e+02 5.420072e+00 2.565959e+00 2.792843e+00 2.686293e+00 2.201131e+00 5.147628e+00
<VARIANCE> 33
 3.902650e+01 2.336087e+01 4.783808e+01 2.823501e+01 3.037716e+01 1.016419e+01 2.822034e+01 2.062020e+01 3.268634e+01 9.347721e+01 2.260506e+01 3.475333e+00 1.338797e+01 6.498760e+01 3.743938e+01 1.644941e+02 1.008429e+02 1.682148e+02 8.676976e+02 3.508374e+02 2.865746e+01 1.403456e+02 5.738843e+02 2.264966e+02 9.558796e+02 1.127248e+03 3.611125e+02 4.684995e+00 7.249553e-01 3.494136e-01 2.433152e-01 4.770749e-01 3.411092e+00
<GCONST> 1.761190e+02
<MIXTURE> 2 1.312647e-01
<MEAN> 33
 6.548339e+01 1.492421e+02 1.109460e+02 1.357425e+02 1.746065e+02 1.762086e+02 4.660327e+01 1.351733e+02 1.367628e+02 1.022821e+02 1.499369e+02 1.235610e+00 1.754249e+02 1.635373e+02 1.597852e+02 6.821172e+01 1.650370e+02 1.048097e+02 7.800202e+01 1.416124e+02 1.687317e+02 1.615125e+02 1.122765e+02 1.605650e+02 2.598116e+01 8.031680e+01 9.782727e+01 7.636438e+00 3.650901e+00 3.377811e+00 2.694126e+00 2.147723e+00 3.429853e+00
<VARIANCE> 33
 2.078061e+03 1.913924e+02 4.771593e+01 1.694596e+01 3.037716e+01 8.839098e+00 2.287435e+03 2.062020e+01 6.102863e+02 4.266801e+02 6.277079e+02 1.558477e+00 8.415746e+00 7.651991e+01 3.123849e+01 7.539914e+02 1.088473e+02 1.119513e+03 7.005814e+02 5.441096e+02 2.310238e+01 1.460264e+02 9.206638e+02 1.876758e+02 2.770449e+02 1.043693e+03 4.883259e+02 2.084536e+00 1.017609e+00 2.707357e-01 1.697945e-01 1.609268e-01 7.732782e-01
<GCONST> 1.915827e+02
<MIXTURE> 3 1.312647e-01
<MEAN> 33
 6.548339e+01 1.492421e+02 1.109460e+02 1.357425e+02 1.746065e+02 1.762086e+02 4.660327e+01 1.351733e+02 1.367628e+02 1.022821e+02 1.499369e+02 1.235610e+00 1.754249e+02 1.635373e+02 1.597852e+02 6.821172e+01 1.650370e+02 1.048097e+02 7.800202e+01 1.416124e+02 1.687317e+02 1.615125e+02 1.122765e+02 1.605650e+02 2.598116e+01 8.031680e+01 9.782727e+01 7.636438e+00 3.650901e+00 3.377811e+00 2.694126e+00 2.147723e+00 3.429853e+00
<VARIANCE> 33
 2.078061e+03 1.913924e+02 4.771593e+01 1.694596e+01 3.037716e+01 8.839098e+00 2.287435e+03 2.062020e+01 6.102863e+02 4.266801e+02 6.277079e+02 1.558477e+00 8.415746e+00 7.651991e+01 3.123849e+01 7.539914e+02 1.088473e+02 1.119513e+03 7.005814e+02 5.441096e+02 2.310238e+01 1.460264e+02 9.206638e+02 1.876758e+02 2.770449e+02 1.043693e+03 4.883259e+02 2.084536e+00 1.017609e+00 2.707357e-01 1.697945e-01 1.609268e-01 7.732782e-01
<GCONST> 1.915827e+02
<MIXTURE> 4 3.261018e-01
<MEAN> 33
 9.392636e+01 1.389132e+02 1.182891e+02 1.418654e+02 9.318789e+01 1.739719e+02 7.711593e+01 7.179078e+01 1.049920e+02 1.036849e+02 1.578916e+02 7.365242e+00 1.421636e+02 1.138581e+02 1.595761e+02 8.938756e+01 8.450510e+01 7.372587e+01 7.864429e+01 1.262750e+02 1.684427e+02 1.345240e+02 8.204497e+01 1.076911e+02 7.512910e+01 8.215001e+01 9.029804e+01 4.100292e+00 3.330040e+00 3.110683e+00 3.026723e+00 3.913840e+00 5.173691e+00
<VARIANCE> 33
 3.901468e+03 5.533822e+02 2.024375e+02 2.851735e+02 3.541080e+03 1.763724e+01 2.857219e+03 2.699463e+03 2.514518e+03 1.929703e+03 4.602472e+02 2.204067e+02 9.051378e+02 1.230802e+03 2.929183e+01 2.789178e+03 2.341137e+03 2.772056e+03 1.899361e+03 1.460777e+03 1.058452e+02 4.721457e+02 1.524750e+03 2.081364e+03 2.452924e+03 2.085482e+03 2.234365e+03 2.448160e+00 1.945082e+00 1.176794e+00 5.678633e-01 1.726475e+00 3.399750e+00
<GCONST> 2.476540e+02
<STATE> 3
<NUMMIXES> 4
<MIXTURE> 1 4.219190e-01
<MEAN> 33
 2.650815e+01 1.521037e+02 1.104567e+02 1.357305e+02 1.738800e+02 1.755488e+02 7.960126e+00 1.364512e+02 1.437767e+02 9.019727e+01 1.077633e+02 1.894644e+00 1.760632e+02 1.623850e+02 1.597261e+02 3.031569e+01 1.660457e+02 1.365848e+02 7.927036e+01 1.191333e+02 1.733712e+02 1.630390e+02 9.966852e+01 1.260339e+02 5.627125e+01 8.579417e+01 9.009982e+01 5.241846e+00 5.370625e+00 3.234288e+00 2.968139e+00 2.272091e+00 4.027549e+00
<VARIANCE> 33
 2.358056e+02 3.873466e+02 7.633056e+01 1.358263e+01 3.037716e+01 1.351961e+01 2.822034e+01 2.062020e+01 3.667741e+01 4.149978e+02 3.722356e+02 1.934284e+00 7.840354e+00 1.641094e+01 4.652742e+01 3.714615e+01 6.026261e+01 1.165211e+02 3.492980e+02 1.605424e+02 1.841065e+01 1.266767e+02 2.702881e+02 9.672715e+02 9.411025e+02 3.299746e+03 1.980472e+02 9.075423e-01 1.344576e+00 3.757206e-01 2.033359e-01 1.375896e-01 9.220296e-01
<GCONST> 1.757417e+02
<MIXTURE> 2 1.952323e-01
<MEAN> 33
 2.903056e+01 1.491217e+02 1.178035e+02 1.343591e+02 1.692487e+02 1.751834e+02 1.493613e+01 1.362779e+02 1.506872e+02 8.573267e+01 1.129714e+02 8.750950e+00 1.691811e+02 1.630912e+02 1.581815e+02 3.160709e+01 1.654146e+02 1.469666e+02 7.570062e+01 1.305301e+02 1.671862e+02 1.514462e+02 1.122889e+02 1.034721e+02 7.707584e+01 1.177729e+02 1.120295e+02 5.803872e+00 4.687687e+00 3.329416e+00 2.676302e+00 2.624929e+00 3.742304e+00
<VARIANCE> 33
 4.647418e+02 6.476750e+02 2.439992e+02 7.743736e+01 3.037716e+01 1.491208e+01 1.054505e+02 2.245720e+01 1.464736e+02 1.007175e+03 8.351246e+02 1.909077e+02 6.455379e+01 9.595501e+01 4.189491e+01 9.780442e+01 1.120849e+02 3.384269e+02 6.087332e+02 4.610050e+02 2.337558e+02 1.608140e+02 1.322788e+03 1.538889e+03 1.766298e+03 3.499513e+03 5.531179e+02 2.233885e+00 2.109852e+00 1.244500e+00 3.977650e-01 3.604660e-01 1.826023e+00
<GCONST> 2.084586e+02
<MIXTURE> 3 3.256046e-02
<MEAN> 33
 2.196379e+01 1.657296e+02 1.278085e+02 1.303377e+02 1.414030e+02 1.778037e+02 2.098338e+01 1.112483e+02 1.322317e+02 7.794616e+01 1.278561e+02 6.537588e+00 1.672167e+02 1.129844e+02 1.564033e+02 3.074236e+01 1.083492e+02 7.764741e+01 6.552034e+01 1.422574e+02 1.733053e+02 1.501223e+02 4.750737e+01 1.070293e+02 5.540219e+01 1.142428e+02 7.742541e+01 3.714678e+00 5.149428e+00 2.632614e+00 3.233144e+00 4.140025e+00 7.024864e+00
<VARIANCE> 33
 1.950879e+02 1.406201e+02 5.317553e+01 2.204960e+01 3.138290e+02 4.189308e+00 1.065595e+02 4.064101e+02 5.168190e+02 4.358583e+02 6.002587e+02 2.194928e+01 9.467390e+01 1.414902e+02 1.307432e+01 7.559035e+01 3.312421e+02 4.880927e+02 1.665822e+02 2.636510e+02 2.070123e+01 4.741437e+01 1.088532e+02 4.374557e+02 1.140375e+03 6.954327e+02 2.598796e+02 5.275109e-01 7.021040e-01 1.523494e-01 3.112821e-02 2.069458e-01 9.888602e-01
<GCONST> 1.855600e+02
<MIXTURE> 4 3.502887e-01
<MEAN> 33
 1.707065e+02 1.383737e+02 1.148055e+02 1.529949e+02 3.077560e+01 1.753761e+02 1.335454e+02 1.968393e+01 1.490559e+02 1.555549e+02 1.704218e+02 4.584784e+00 1.242240e+02 8.361366e+01 1.609461e+02 1.671197e+02 3.553408e+01 1.346192e+02 8.436773e+01 1.501224e+02 1.701023e+02 1.309028e+02 7.643148e+01 1.107866e+02 8.627766e+01 7.250950e+01 1.045263e+02 3.849200e+00 2.781033e+00 2.601336e+00 3.119621e+00 4.802430e+00 5.909843e+00
<VARIANCE> 33
 3.902650e+01 5.333892e+01 1.226830e+02 3.422440e+02 7.363459e+02 1.647277e+01 3.423611e+01 3.426322e+02 1.271236e+02 7.298204e+01 7.118327e+01 6.330024e+01 6.897105e+02 4.600374e+02 6.089759e+01 9.816206e+01 2.881685e+02 3.605082e+02 5.774196e+02 2.205524e+02 6.351890e+01 4.064545e+02 4.591246e+02 2.215495e+03 2.932758e+03 2.148587e+03 3.456581e+02 1.450275e+00 3.780248e-01 2.969098e-01 6.794831e-01 1.754339e+00 2.022583e+00
<GCONST> 2.044847e+02
<STATE> 4
<NUMMIXES> 4
<MIXTURE> 1 3.981494e-01
<MEAN> 33
 1.733928e+02 1.380489e+02 1.090393e+02 1.370475e+02 1.750570e+02 1.762648e+02 1.350621e+02 1.349804e+02 8.995746e+01 1.610412e+02 1.738411e+02 1.086275e+00 1.761866e+02 1.628494e+02 1.624688e+02 1.655469e+02 1.682828e+02 1.392681e+01 1.069867e+02 1.552251e+02 1.693187e+02 1.628390e+02 1.051436e+02 1.557515e+02 8.608648e+01 7.808201e+01 1.598715e+02 5.283421e+00 2.693540e+00 2.818004e+00 2.780141e+00 2.280307e+00 5.267001e+00
<VARIANCE> 33
 3.902650e+01 2.689214e+01 4.383606e+01 1.813361e+01 3.037716e+01 8.757985e+00 2.822034e+01 2.062020e+01 2.312088e+01 7.154538e+01 2.393948e+01 6.925746e-01 7.280525e+00 2.812761e+01 3.585244e+01 8.206341e+01 5.655611e+01 1.116825e+02 8.966558e+02 2.076163e+02 2.249590e+01 1.038587e+02 4.617806e+02 2.643279e+02 9.337515e+02 8.778033e+02 2.048268e+02 3.088138e+00 7.623608e-01 3.223865e-01 3.917724e-01 2.520152e-01 2.221555e+00
<GCONST> 1.672621e+02
<MIXTURE> 2 1.804088e-01
<MEAN> 33
 1.701139e+02 1.410926e+02 1.131030e+02 1.367059e+02 1.707583e+02 1.747369e+02 1.333302e+02 1.358541e+02 9.081572e+01 1.553739e+02 1.668967e+02 2.924417e+00 1.705393e+02 1.617222e+02 1.623796e+02 1.602731e+02 1.635221e+02 2.215592e+01 1.002554e+02 1.413621e+02 1.694927e+02 1.485556e+02 1.144993e+02 1.314532e+02 7.064400e+01 1.093631e+02 1.505507e+02 5.053283e+00 3.941191e+00 2.662157e+00 2.630965e+00 3.220944e+00 4.514246e+00
<VARIANCE> 33
 7.848392e+01 7.149314e+01 1.129062e+02 6.234394e+01 4.515107e+01 1.370131e+01 3.913599e+01 2.062020e+01 6.284307e+01 1.775783e+02 8.533715e+01 1.119120e+01 6.833304e+01 1.226356e+02 2.566248e+01 2.641908e+02 1.432900e+02 2.508654e+02 1.694468e+03 3.586741e+02 3.884675e+01 2.951732e+02 1.471148e+03 1.774391e+03 1.780138e+03 2.017640e+03 4.600289e+02 4.393309e+00 3.244385e+00 3.845783e-01 2.809638e-01 1.949786e+00 3.199215e+00
<GCONST> 1.967170e+02
<MIXTURE> 3 1.804088e-01
<MEAN> 33
 1.701139e+02 1.410926e+02 1.131030e+02 1.367059e+02 1.707583e+02 1.747369e+02 1.333302e+02 1.358541e+02 9.081572e+01 1.553739e+02 1.668967e+02 2.924417e+00 1.705393e+02 1.617222e+02 1.623796e+02 1.602731e+02 1.635221e+02 2.215592e+01 1.002554e+02 1.413621e+02 1.694927e+02 1.485556e+02 1.144993e+02 1.314532e+02 7.064400e+01 1.093631e+02 1.505507e+02 5.053283e+00 3.941191e+00 2.662157e+00 2.630965e+00 3.220944e+00 4.514246e+00
<VARIANCE> 33
 7.848392e+01 7.149314e+01 1.129062e+02 6.234394e+01 4.515107e+01 1.370131e+01 3.913599e+01 2.062020e+01 6.284307e+01 1.775783e+02 8.533715e+01 1.119120e+01 6.833304e+01 1.226356e+02 2.566248e+01 2.641908e+02 1.432900e+02 2.508654e+02 1.694468e+03 3.586741e+02 3.884675e+01 2.951732e+02 1.471148e+03 1.774391e+03 1.780138e+03 2.017640e+03 4.600289e+02 4.393309e+00 3.244385e+00 3.845783e-01 2.809638e-01 1.949786e+00 3.199215e+00
<GCONST> 1.967170e+02
<MIXTURE> 4 2.410307e-01
<MEAN> 33
 1.193198e+02 1.488978e+02 1.158283e+02 1.364684e+02 1.609763e+02 1.750576e+02 1.005410e+02 1.311285e+02 1.216567e+02 1.386743e+02 1.544757e+02 2.949885e+00 1.721387e+02 1.522268e+02 1.606173e+02 1.087090e+02 1.499921e+02 7.012495e+01 9.485622e+01 1.402179e+02 1.716304e+02 1.551594e+02 9.469945e+01 1.355879e+02 4.782948e+01 8.800178e+01 1.076986e+02 7.121496e+00 3.320009e+00 2.935265e+00 2.682894e+00 2.654536e+00 4.641672e+00
<VARIANCE> 33
 2.147852e+03 2.465671e+02 1.105427e+02 7.647195e+01 5.485681e+02 1.342832e+01 1.668333e+03 3.171851e+02 1.289787e+03 6.222332e+02 3.710862e+02 1.358269e+01 7.586550e+01 3.588414e+02 3.843202e+01 1.337509e+03 8.118910e+02 9.473237e+02 1.320396e+03 5.270035e+02 2.603014e+01 2.608525e+02 8.270770e+02 1.046953e+03 1.251462e+03 2.444684e+03 9.518140e+02 4.842225e+00 1.225279e+00 3.283920e-01 2.206363e-01 1.054938e+00 4.544466e+00
<GCONST> 2.201518e+02
<TRANSP> 5
 0.000000e+00 1.000000e+00 0.000000e+00 0.000000e+00 0.000000e+00
 0.000000e+00 8.729141e-01 1.270858e-01 0.000000e+00 0.000000e+00
 0.000000e+00 0.000000e+00 9.597918e-01 4.020824e-02 0.000000e+00
 0.000000e+00 0.000000e+00 0.000000e+00 9.400578e-01 5.994222e-02
 0.000000e+00 0.000000e+00 0.000000e+00 0.000000e+00 0.000000e+00
<ENDHMM>
~h "CN"
<BEGINHMM>
<NUMSTATES> 5
<STATE> 2
<NUMMIXES> 4
<MIXTURE> 1 3.811879e-01
<MEAN> 33
 1.731160e+02 1.376597e+02 1.068780e+02 1.393046e+02 1.744387e+02 1.760801e+02 1.350463e+02 1.342878e+02 9.066589e+01 1.557733e+02 1.759754e+02 1.472594e+00 1.748993e+02 1.596225e+02 1.627527e+02 1.630643e+02 1.665192e+02 9.804276e+00 9.364442e+01 1.534146e+02 1.702477e+02 1.617781e+02 1.033637e+02 1.550586e+02 7.300754e+01 8.558170e+01 1.530143e+02 4.778502e+00 2.746322e+00 2.589931e+00 2.450257e+00 2.362779e+00 4.710201e+00
<VARIANCE> 33
 3.902650e+01 2.376932e+01 6.711291e+01 3.311127e+01 3.037716e+01 1.186062e+01 2.822034e+01 2.062020e+01 2.870290e+01 7.446828e+01 2.154563e+01 3.118205e+00 1.602893e+01 7.637289e+01 4.503210e+01 1.040542e+02 9.934801e+01 8.154252e+01 7.510934e+02 2.194197e+02 2.476662e+01 1.454187e+02 6.136260e+02 3.820786e+02 1.486503e+03 1.486748e+03 3.233244e+02 4.418771e+00 1.130962e+00 3.275632e-01 3.481185e-01 6.797153e-01 3.446789e+00
<GCONST> 1.771218e+02
<MIXTURE> 2 1.756645e-01
<MEAN> 33
 1.012572e+02 1.398187e+02 1.076511e+02 1.437835e+02 9.384676e+01 1.734661e+02 8.972392e+01 7.298874e+01 1.018025e+02 1.051212e+02 1.684535e+02 1.532293e+00 1.700102e+02 1.022649e+02 1.640520e+02 9.335577e+01 9.186507e+01 1.750585e+01 6.988612e+01 1.454283e+02 1.706200e+02 1.600375e+02 5.969226e+01 1.498417e+02 5.135113e+01 4.144603e+01 4.521346e+01 4.399967e+00 3.135997e+00 3.091422e+00 2.991829e+00 3.759907e+00 4.396946e+00
<VARIANCE> 33
 1.230270e+03 4.707901e+01 7.751122e+01 8.047462e+01 1.818106e+03 2.646762e+01 2.322806e+03 2.326599e+03 2.499647e+03 4.164016e+02 9.842818e+01 2.702313e+00 6.284136e+01 5.371818e+02 3.605474e+01 6.094984e+02 8.003201e+02 5.944576e+02 8.387198e+02 5.530410e+02 2.956910e+01 2.274607e+02 4.524354e+02 8.693890e+02 1.666650e+03 1.154435e+03 1.366542e+03 2.118130e+00 6.675054e-01 2.627897e-01 2.970840e-01 1.702312e+00 2.112956e+00
<GCONST> 2.150852e+02
<MIXTURE> 3 1.756645e-01
<MEAN> 33
 1.012572e+02 1.398187e+02 1.076511e+02 1.437835e+02 9.384676e+01 1.734661e+02 8.972392e+01 7.298874e+01 1.018025e+02 1.051212e+02 1.684535e+02 1.532293e+00 1.700102e+02 1.022649e+02 1.640520e+02 9.335577e+01 9.186507e+01 1.750585e+01 6.988612e+01 1.454283e+02 1.706200e+02 1.600375e+02 5.969226e+01 1.498417e+02 5.135113e+01 4.144603e+01 4.521346e+01 4.399967e+00 3.135997e+00 3.091422e+00 2.991829e+00 3.759907e+00 4.396946e+00
<VARIANCE> 33
 1.230270e+03 4.707901e+01 7.751122e+01 8.047462e+01 1.818106e+03 2.646762e+01 2.322806e+03 2.326599e+03 2.499647e+03 4.164016e+02 9.842818e+01 2.702313e+00 6.284136e+01 5.371818e+02 3.605474e+01 6.094984e+02 8.003201e+02 5.944576e+02 8.387198e+02 5.530410e+02 2.956910e+01 2.274607e+02 4.524354e+02 8.693890e+02 1.666650e+03 1.154435e+03 1.366542e+03 2.118130e+00 6.675054e-01 2.627897e-01 2.970840e-01 1.702312e+00 2.112956e+00
<GCONST> 2.150852e+02
<MIXTURE> 4 2.674833e-01
<MEAN> 33
 5.900262e+01 1.229808e+02 1.200910e+02 1.272538e+02 6.820966e+01 1.665690e+02 1.986393e+01 3.082983e+01 4.606034e+01 8.273926e+01 1.368995e+02 1.104207e+01 1.426217e+02 1.067417e+02 1.685722e+02 4.444226e+01 5.186736e+01 1.256043e+01 1.072098e+02 9.730706e+01 1.640943e+02 1.124163e+02 9.149387e+01 9.622088e+01 1.072809e+02 1.068767e+02 4.315123e+01 3.936317e+00 3.268558e+00 3.451883e+00 3.373982e+00 3.475225e+00 3.602069e+00
<VARIANCE> 33
 7.466759e+02 3.853214e+02 2.062573e+02 5.252259e+02 9.153452e+02 6.401701e+01 2.232829e+02 6.757704e+02 8.158372e+02 8.956857e+02 3.344066e+02 5.012682e+02 4.213813e+02 1.465522e+03 7.671948e+01 1.622878e+02 3.456214e+02 2.492440e+02 6.422845e+02 4.717903e+02 2.118895e+02 3.774768e+02 3.257165e+02 3.123372e+03 2.110812e+03 2.462667e+03 7.436078e+02 8.157753e-01 2.063576e+00 7.436333e-01 4.562874e-01 1.137227e+00 9.499152e-01
<GCONST> 2.267098e+02
<STATE> 3
<NUMMIXES> 4
<MIXTURE> 1 2.764764e-01
<MEAN> 33
 6.414476e+01 1.322625e+02 1.114132e+02 1.392719e+02 5.027428e+01 1.739612e+02 2.722769e+01 1.841735e+01 3.118265e+01 8.654112e+01 1.549201e+02 2.359679e+00 1.565738e+02 8.504803e+01 1.625887e+02 5.913545e+01 5.654780e+01 8.341402e+00 1.086441e+02 1.065532e+02 1.720791e+02 1.287358e+02 9.307395e+01 1.105134e+02 7.322451e+01 7.723245e+01 2.120813e+01 3.787704e+00 2.944809e+00 3.617499e+00 3.359077e+00 3.231450e+00 3.799851e+00
<VARIANCE> 33
 2.392117e+02 1.025708e+02 1.447092e+02 1.076405e+02 3.623908e+02 2.497724e+01 3.466189e+02 2.924984e+02 5.580400e+02 4.995067e+02 7.849487e+01 7.283101e+00 9.849551e+01 3.652773e+02 6.327962e+01 2.246660e+02 1.403813e+02 7.299171e+01 4.727120e+02 4.291474e+02 3.613698e+01 4.252328e+02 5.232502e+02 2.782807e+03 2.179078e+03 2.284054e+03 4.019677e+02 5.304968e-01 1.271384e+00 5.189535e-01 5.668696e-01 1.616229e+00 5.432699e-01
<GCONST> 2.049437e+02
<MIXTURE> 2 2.649067e-01
<MEAN> 33
 4.828303e+01 1.348836e+02 1.152885e+02 1.368073e+02 4.531495e+01 1.754711e+02 6.635005e+00 5.057006e+00 6.860016e+00 7.463387e+01 1.573250e+02 1.543371e+00 1.581722e+02 7.620361e+01 1.591261e+02 5.076084e+01 5.034594e+01 2.480886e+00 9.724543e+01 1.211039e+02 1.736798e+02 1.322445e+02 8.747195e+01 1.348043e+02 4.537758e+01 4.547083e+01 5.566618e+00 3.494336e+00 3.522719e+00 3.972665e+00 3.831486e+00 3.714829e+00 3.457491e+00
<VARIANCE> 33
 6.342120e+01 4.458433e+01 5.864452e+01 5.005896e+01 5.597784e+01 1.686210e+01 2.822034e+01 2.062020e+01 2.985186e+01 7.422226e+01 6.480522e+01 3.380480e+00 8.057874e+01 7.478330e+01 5.030585e+01 3.212473e+01 2.790827e+01 3.148238e+01 3.982761e+02 4.249803e+02 2.091172e+01 4.095656e+02 3.519138e+02 1.037897e+03 1.019213e+03 1.042244e+03 2.159200e+01 9.932532e-02 5.319483e-01 2.696486e-01 1.592523e-01 7.384743e-01 1.233546e-01
<GCONST> 1.681277e+02
<MIXTURE> 3 2.649067e-01
<MEAN> 33
 4.828303e+01 1.348836e+02 1.152885e+02 1.368073e+02 4.531495e+01 1.754711e+02 6.635005e+00 5.057006e+00 6.860016e+00 7.463387e+01 1.573250e+02 1.543371e+00 1.581722e+02 7.620361e+01 1.591261e+02 5.076084e+01 5.034594e+01 2.480886e+00 9.724543e+01 1.211039e+02 1.736798e+02 1.322445e+02 8.747195e+01 1.348043e+02 4.537758e+01 4.547083e+01 5.566618e+00 3.494336e+00 3.522719e+00 3.972665e+00 3.831486e+00 3.714829e+00 3.457491e+00
<VARIANCE> 33
 6.342120e+01 4.458433e+01 5.864452e+01 5.005896e+01 5.597784e+01 1.686210e+01 2.822034e+01 2.062020e+01 2.985186e+01 7.422226e+01 6.480522e+01 3.380480e+00 8.057874e+01 7.478330e+01 5.030585e+01 3.212473e+01 2.790827e+01 3.148238e+01 3.982761e+02 4.249803e+02 2.091172e+01 4.095656e+02 3.519138e+02 1.037897e+03 1.019213e+03 1.042244e+03 2.159200e+01 9.932532e-02 5.319483e-01 2.696486e-01 1.592523e-01 7.384743e-01 1.233546e-01
<GCONST> 1.681277e+02
<MIXTURE> 4 1.937089e-01
<MEAN> 33
 3.924799e+01 1.382900e+02 1.006474e+02 1.401803e+02 2.676735e+01 1.739937e+02 1.020495e+01 7.624074e+00 7.504438e+00 5.942941e+01 1.660099e+02 1.093526e+00 1.690595e+02 5.873269e+01 1.674553e+02 4.217122e+01 4.121943e+01 3.932360e+00 1.093707e+02 1.152711e+02 1.663861e+02 1.304671e+02 1.016698e+02 5.159706e+01 1.218144e+02 1.196825e+02 8.802385e+00 3.402812e+00 3.225515e+00 3.549781e+00 3.482319e+00 3.211154e+00 3.264049e+00
<VARIANCE> 33
 1.215449e+02 1.019821e+02 5.005046e+01 6.192130e+01 9.507938e+01 1.513021e+01 4.389614e+01 2.607508e+01 2.553687e+01 4.909115e+01 7.889172e+01 1.188683e+00 4.305779e+01 4.801466e+01 3.443549e+01 3.881520e+01 2.601832e+01 3.148238e+01 3.808474e+02 5.320720e+02 1.183716e+02 2.530716e+02 2.765017e+02 1.777522e+03 1.729994e+03 1.578934e+03 4.439787e+01 1.053320e-01 4.158783e-01 1.983391e-01 1.421883e-01 4.523461e-01 8.933983e-02
<GCONST> 1.699835e+02
<STATE> 4
<NUMMIXES> 4
<MIXTURE> 1 4.643310e-01
<MEAN> 33
 1.726811e+02 1.370220e+02 1.128787e+02 1.374801e+02 1.727102e+02 1.756688e+02 1.347146e+02 1.342467e+02 9.103874e+01 1.625954e+02 1.745740e+02 1.651165e+00 1.744259e+02 1.644239e+02 1.601798e+02 1.655910e+02 1.654849e+02 9.217233e+00 1.150726e+02 1.504174e+02 1.712689e+02 1.561182e+02 1.232016e+02 1.499385e+02 7.825130e+01 9.723668e+01 1.535137e+02 5.002742e+00 2.858905e+00 2.708317e+00 2.583483e+00 2.745510e+00 4.876556e+00
<VARIANCE> 33
 3.902650e+01 2.502598e+01 5.910571e+01 3.282148e+01 3.037716e+01 1.403673e+01 2.822034e+01 2.062020e+01 5.327222e+01 1.269350e+02 2.175573e+01 2.473602e+00 2.012490e+01 1.193934e+02 4.512746e+01 8.563702e+01 9.077034e+01 5.386417e+01 1.526559e+03 2.889952e+02 2.360196e+01 2.266017e+02 1.435703e+03 8.512822e+02 1.433971e+03 1.797552e+03 2.935212e+02 2.819732e+00 1.583144e+00 2.431685e-01 1.979731e-01 1.525069e+00 2.225538e+00
<GCONST> 1.805963e+02
<MIXTURE> 2 1.214464e-01
<MEAN> 33
 1.523405e+02 1.439951e+02 1.200376e+02 1.428436e+02 1.616075e+02 1.757566e+02 1.055749e+02 1.118121e+02 1.366448e+02 1.286984e+02 1.695808e+02 2.458494e+00 1.673917e+02 1.326011e+02 1.642027e+02 1.140619e+02 1.256301e+02 1.765489e+01 1.199750e+02 1.512294e+02 1.708859e+02 1.483549e+02 1.101453e+02 1.261062e+02 6.110855e+01 1.214331e+02 1.154935e+02 7.395554e+00 2.802804e+00 2.351024e+00 2.214334e+00 2.805114e+00 6.872609e+00
<VARIANCE> 33
 9.589135e+02 4.740289e+01 6.894955e+01 6.372601e+01 3.114799e+02 1.185424e+01 4.110211e+02 2.110444e+02 6.579579e+02 1.046016e+03 5.590547e+01 4.434632e+00 7.492148e+01 9.899042e+02 1.676599e+01 7.951260e+02 7.111188e+02 1.889243e+02 1.566214e+03 2.945615e+02 4.221621e+01 2.345604e+02 1.959128e+03 1.993905e+03 1.839617e+03 1.426018e+03 6.191508e+02 1.134958e+00 8.704234e-01 1.014109e-01 5.544525e-02 4.543320e-01 1.344248e+00
<GCONST> 2.037648e+02
<MIXTURE> 3 1.857588e-01
<MEAN> 33
 1.598005e+02 1.344453e+02 1.119702e+02 1.360067e+02 1.600219e+02 1.748992e+02 1.456918e+02 1.419424e+02 7.227966e+01 1.554445e+02 1.680085e+02 1.189508e+00 1.662682e+02 1.585938e+02 1.615271e+02 1.359834e+02 1.374114e+02 5.472734e+00 1.166846e+02 1.329767e+02 1.734182e+02 1.414357e+02 1.153750e+02 1.342767e+02 5.337794e+01 7.445415e+01 7.824639e+01 5.668922e+00 2.370544e+00 2.950940e+00 2.926403e+00 2.532973e+00 5.497765e+00
<VARIANCE> 33
 1.379174e+02 3.882866e+01 5.273597e+01 3.800939e+01 1.422282e+02 1.714476e+01 1.023492e+02 6.366717e+01 2.541071e+02 1.881742e+02 4.705752e+01 8.879571e-01 4.954297e+01 1.698339e+02 5.823174e+01 1.590424e+02 1.690727e+02 3.148238e+01 1.226900e+03 7.852054e+02 2.532343e+01 4.360184e+02 8.137266e+02 1.472834e+03 1.628597e+03 1.965508e+03 8.282158e+02 9.052830e-01 2.147965e-01 1.410153e-01 1.057027e-01 2.294953e-01 8.635108e-01
<GCONST> 1.859990e+02
<MIXTURE> 4 2.284629e-01
<MEAN> 33
 1.112189e+02 1.326171e+02 1.132005e+02 1.356245e+02 1.165444e+02 1.737263e+02 1.108951e+02 1.105286e+02 6.674132e+01 1.286665e+02 1.614583e+02 2.032933e+00 1.620117e+02 1.338620e+02 1.640107e+02 9.708308e+01 1.001703e+02 9.771924e+00 1.200380e+02 1.132455e+02 1.725757e+02 1.310749e+02 1.095339e+02 1.187167e+02 7.229983e+01 8.375270e+01 2.408214e+01 4.465696e+00 2.904676e+00 3.452613e+00 3.416649e+00 3.273381e+00 4.523726e+00
<VARIANCE> 33
 1.207739e+03 9.507050e+01 8.297705e+01 7.715977e+01 1.095315e+03 2.216633e+01 3.034300e+03 2.530424e+03 2.676429e+03 6.044750e+02 9.800068e+01 7.477790e+00 7.867442e+01 5.671259e+02 6.787466e+01 4.457994e+02 5.214535e+02 4.011125e+02 1.071106e+03 6.873972e+02 3.623693e+01 4.606487e+02 8.222398e+02 2.117171e+03 2.183163e+03 2.294929e+03 4.502773e+02 1.141019e+00 4.774813e-01 2.531422e-01 2.422474e-01 7.092163e-01 1.338714e+00
<GCONST> 2.168726e+02
<TRANSP> 5
 0.000000e+00 1.000000e+00 0.000000e+00 0.000000e+00 0.000000e+00
 0.000000e+00 9.181142e-01 8.188574e-02 0.000000e+00 0.000000e+00
 0.000000e+00 0.000000e+00 9.634790e-01 3.652098e-02 0.000000e+00
 0.000000e+00 0.000000e+00 0.000000e+00 9.217287e-01 7.827130e-02
 0.000000e+00 0.000000e+00 0.000000e+00 0.000000e+00 0.000000e+00
<ENDHMM>
~h "CP"
<BEGINHMM>
<NUMSTATES> 5
<STATE> 2
<NUMMIXES> 4
<MIXTURE> 1 3.230775e-01
<MEAN> 33
 1.737071e+02 1.367273e+02 1.098909e+02 1.373638e+02 1.741990e+02 1.755460e+02 1.344021e+02 1.337670e+02 9.183088e+01 1.567877e+02 1.749147e+02 1.733041e+00 1.744725e+02 1.597444e+02 1.629009e+02 1.630843e+02 1.635832e+02 8.713026e+00 9.698682e+01 1.505257e+02 1.700695e+02 1.592067e+02 1.069286e+02 1.541247e+02 7.812879e+01 8.458253e+01 1.497225e+02 5.266050e+00 2.823335e+00 2.703301e+00 2.595260e+00 2.576681e+00 5.228776e+00
<VARIANCE> 33
 3.902650e+01 3.135504e+01 5.119752e+01 2.784665e+01 3.037716e+01 1.535594e+01 2.822034e+01 2.062020e+01 5.400191e+01 1.191858e+02 2.143226e+01 3.487988e+00 1.924305e+01 9.385770e+01 3.882298e+01 1.008322e+02 9.699949e+01 5.288529e+01 1.217032e+03 2.890935e+02 2.251306e+01 1.948694e+02 9.097581e+02 4.959956e+02 1.327008e+03 1.453216e+03 3.100343e+02 3.499049e+00 1.366806e+00 2.402031e-01 1.764109e-01 1.055381e+00 3.138899e+00
<GCONST> 1.789191e+02
<MIXTURE> 2 2.133168e-01
<MEAN> 33
 1.682426e+02 1.470683e+02 1.043680e+02 1.460839e+02 1.671008e+02 1.720018e+02 1.169415e+02 1.168805e+02 1.258602e+02 1.374520e+02 1.665862e+02 2.144628e+00 1.680235e+02 1.375603e+02 1.665769e+02 1.348099e+02 1.322402e+02 1.656525e+01 1.010377e+02 1.441289e+02 1.700117e+02 1.466188e+02 9.939574e+01 1.017063e+02 7.580254e+01 8.811642e+01 1.224545e+02 6.768036e+00 2.677986e+00 2.298077e+00 2.330452e+00 2.748672e+00 6.740033e+00
<VARIANCE> 33
 8.615401e+01 1.127364e+02 7.903671e+01 1.064178e+02 9.591452e+01 3.518942e+01 1.917107e+02 1.876373e+02 6.296727e+02 4.876556e+02 1.057355e+02 8.506123e+00 8.164506e+01 4.824559e+02 5.986668e+01 6.288402e+02 5.298609e+02 1.937746e+02 2.248895e+03 3.432281e+02 5.102948e+01 3.395011e+02 1.808755e+03 2.965667e+03 2.831179e+03 2.461659e+03 8.314915e+02 2.531999e+00 8.288142e-01 1.246906e-01 1.514936e-01 8.908855e-01 2.669549e+00
<GCONST> 2.085067e+02
<MIXTURE> 3 2.133168e-01
<MEAN> 33
 1.682426e+02 1.470683e+02 1.043680e+02 1.460839e+02 1.671008e+02 1.720018e+02 1.169415e+02 1.168805e+02 1.258602e+02 1.374520e+02 1.665862e+02 2.144628e+00 1.680235e+02 1.375603e+02 1.665769e+02 1.348099e+02 1.322402e+02 1.656525e+01 1.010377e+02 1.441289e+02 1.700117e+02 1.466188e+02 9.939574e+01 1.017063e+02 7.580254e+01 8.811642e+01 1.224545e+02 6.768036e+00 2.677986e+00 2.298077e+00 2.330452e+00 2.748672e+00 6.740033e+00
<VARIANCE> 33
 8.615401e+01 1.127364e+02 7.903671e+01 1.064178e+02 9.591452e+01 3.518942e+01 1.917107e+02 1.876373e+02 6.296727e+02 4.876556e+02 1.057355e+02 8.506123e+00 8.164506e+01 4.824559e+02 5.986668e+01 6.288402e+02 5.298609e+02 1.937746e+02 2.248895e+03 3.432281e+02 5.102948e+01 3.395011e+02 1.808755e+03 2.965667e+03 2.831179e+03 2.461659e+03 8.314915e+02 2.531999e+00 8.288142e-01 1.246906e-01 1.514936e-01 8.908855e-01 2.669549e+00
<GCONST> 2.085067e+02
<MIXTURE> 4 2.502885e-01
<MEAN> 33
 1.182535e+02 1.409922e+02 1.102414e+02 1.447088e+02 1.153931e+02 1.723747e+02 9.519254e+01 8.955830e+01 1.239480e+02 1.031862e+02 1.676796e+02 2.682676e+00 1.653500e+02 1.011480e+02 1.649451e+02 9.530724e+01 8.723485e+01 2.811254e+01 7.686182e+01 1.354876e+02 1.700902e+02 1.478459e+02 8.550075e+01 1.259554e+02 5.938950e+01 7.105784e+01 9.057288e+01 5.770501e+00 3.177617e+00 2.773146e+00 2.692289e+00 3.421759e+00 5.801783e+00
<VARIANCE> 33
 1.933682e+03 2.044465e+02 7.390608e+01 2.209172e+02 2.472195e+03 3.998481e+01 1.567150e+03 1.179060e+03 2.077429e+03 8.842168e+02 1.056600e+02 7.196675e+00 1.436627e+02 1.036089e+03 6.784017e+01 1.305507e+03 1.199366e+03 1.789187e+03 2.006684e+03 9.606608e+02 4.325763e+01 5.495412e+02 1.608497e+03 2.537281e+03 2.600751e+03 1.868245e+03 1.820047e+03 3.064991e+00 1.818503e+00 7.765417e-01 5.588595e-01 1.518887e+00 3.517925e+00
<GCONST> 2.333396e+02
<STATE> 3
<NUMMIXES> 4
<MIXTURE> 1 4.806382e-01
<MEAN> 33
 1.549904e+02 1.390460e+02 1.161228e+02 1.388173e+02 1.560968e+02 1.756559e+02 1.271959e+02 1.235987e+02 1.092054e+02 1.279675e+02 1.744725e+02 2.633214e+00 1.749398e+02 1.259060e+02 1.628821e+02 1.299774e+02 1.292642e+02 8.166683e+00 5.483871e+01 1.565482e+02 1.644081e+02 1.559811e+02 5.601983e+01 1.577936e+02 3.946269e+01 6.333239e+01 1.016563e+02 6.284716e+00 3.195952e+00 2.861411e+00 2.734112e+00 3.322112e+00 6.427170e+00
<VARIANCE> 33
 1.574308e+02 2.261266e+01 1.066990e+02 3.439855e+01 1.642799e+02 1.648447e+01 1.058313e+02 8.172430e+01 2.934504e+02 1.330499e+02 1.749501e+01 6.182167e+00 2.070678e+01 1.483317e+02 3.387530e+01 2.230912e+02 2.637874e+02 6.364294e+01 4.372288e+02 1.660710e+02 1.795997e+01 1.547638e+02 3.515382e+02 2.998605e+02 6.035814e+02 5.452904e+02 4.588047e+02 8.726900e-01 5.196047e-01 7.424080e-02 8.419006e-02 7.896909e-01 6.857904e-01
<GCONST> 1.789914e+02
<MIXTURE> 2 1.223627e-01
<MEAN> 33
 1.128749e+02 1.529668e+02 1.232433e+02 1.442128e+02 1.288844e+02 1.751478e+02 1.027877e+02 1.009132e+02 1.514085e+02 1.145777e+02 1.713471e+02 5.335238e+00 1.683001e+02 1.153917e+02 1.551336e+02 9.859125e+01 9.782861e+01 6.817997e+00 5.949536e+01 1.689408e+02 1.660480e+02 1.668466e+02 6.589249e+01 1.565682e+02 2.942199e+01 5.936307e+01 8.255825e+01 5.918384e+00 3.992017e+00 2.864453e+00 2.968964e+00 3.653018e+00 5.692593e+00
<VARIANCE> 33
 3.041116e+02 1.449856e+02 6.242494e+01 7.876474e+01 3.270042e+02 1.768063e+01 2.171465e+02 1.284652e+02 3.229698e+02 1.384292e+02 4.189783e+01 2.605969e+01 6.589468e+01 1.287610e+02 3.699346e+01 1.211490e+02 1.297868e+02 3.148238e+01 1.720105e+02 8.040487e+01 1.695564e+01 1.106733e+02 3.193128e+02 3.069019e+02 6.160508e+02 8.866130e+02 2.722928e+02 3.726572e-01 4.146140e-01 1.233810e-01 9.470580e-02 4.548419e-01 4.745381e-01
<GCONST> 1.817477e+02
<MIXTURE> 3 1.223627e-01
<MEAN> 33
 1.128749e+02 1.529668e+02 1.232433e+02 1.442128e+02 1.288844e+02 1.751478e+02 1.027877e+02 1.009132e+02 1.514085e+02 1.145777e+02 1.713471e+02 5.335238e+00 1.683001e+02 1.153917e+02 1.551336e+02 9.859125e+01 9.782861e+01 6.817997e+00 5.949536e+01 1.689408e+02 1.660480e+02 1.668466e+02 6.589249e+01 1.565682e+02 2.942199e+01 5.936307e+01 8.255825e+01 5.918384e+00 3.992017e+00 2.864453e+00 2.968964e+00 3.653018e+00 5.692593e+00
<VARIANCE> 33
 3.041116e+02 1.449856e+02 6.242494e+01 7.876474e+01 3.270042e+02 1.768063e+01 2.171465e+02 1.284652e+02 3.229698e+02 1.384292e+02 4.189783e+01 2.605969e+01 6.589468e+01 1.287610e+02 3.699346e+01 1.211490e+02 1.297868e+02 3.148238e+01 1.720105e+02 8.040487e+01 1.695564e+01 1.106733e+02 3.193128e+02 3.069019e+02 6.160508e+02 8.866130e+02 2.722928e+02 3.726572e-01 4.146140e-01 1.233810e-01 9.470580e-02 4.548419e-01 4.745381e-01
<GCONST> 1.817477e+02
<MIXTURE> 4 2.746351e-01
<MEAN> 33
 1.450200e+02 1.392296e+02 1.126381e+02 1.400275e+02 1.548498e+02 1.760427e+02 8.785455e+01 9.117021e+01 1.560598e+02 9.912746e+01 1.729421e+02 1.285192e+00 1.746371e+02 9.890785e+01 1.618641e+02 8.600629e+01 8.927661e+01 9.819602e+00 5.300431e+01 1.476197e+02 1.659537e+02 1.461666e+02 5.151167e+01 1.595297e+02 5.796004e+01 3.672250e+01 9.449841e+01 6.041997e+00 3.141061e+00 2.726954e+00 2.646751e+00 3.115516e+00 6.391861e+00
<VARIANCE> 33
 7.668529e+02 3.887235e+01 1.910317e+01 1.645911e+01 4.524314e+02 8.180093e+00 2.698235e+02 2.065006e+02 2.428255e+02 1.983182e+02 2.987268e+01 1.047033e+00 1.703308e+01 1.349083e+02 3.423285e+01 3.125946e+02 2.485849e+02 7.212213e+01 4.062945e+02 1.645432e+02 1.855073e+01 1.262484e+02 1.820659e+02 1.790548e+02 4.154529e+02 3.447715e+02 2.749245e+02 1.035004e+00 3.593799e-01 6.944826e-02 6.244821e-02 2.207561e-01 7.359421e-01
<GCONST> 1.753877e+02
<STATE> 4
<NUMMIXES> 4
<MIXTURE> 1 3.972417e-01
<MEAN> 33
 1.749697e+02 1.377263e+02 1.068024e+02 1.391643e+02 1.755387e+02 1.757941e+02 1.347497e+02 1.340884e+02 9.116193e+01 1.629918e+02 1.764738e+02 1.159620e+00 1.755836e+02 1.661466e+02 1.622766e+02 1.688547e+02 1.710989e+02 7.495883e+00 1.091784e+02 1.600294e+02 1.678273e+02 1.625375e+02 1.209981e+02 1.601523e+02 7.956480e+01 9.152003e+01 1.631204e+02 4.985264e+00 2.444177e+00 2.874548e+00 2.598313e+00 2.102379e+00 4.486104e+00
<VARIANCE> 33
 3.902650e+01 1.178343e+01 4.784979e+01 2.138629e+01 3.037716e+01 1.083841e+01 2.822034e+01 2.062020e+01 1.886277e+01 4.232365e+01 7.986483e+00 6.356373e-01 6.279276e+00 4.085017e+01 2.087766e+01 3.680408e+01 4.226694e+01 3.210183e+01 6.308764e+02 1.050077e+02 1.759942e+01 8.053505e+01 6.617184e+02 2.286700e+02 6.328906e+02 6.771020e+02 1.238831e+02 2.536854e+00 3.437242e-01 2.561876e-01 2.122103e-01 2.399891e-01 2.457898e+00
<GCONST> 1.580818e+02
<MIXTURE> 2 1.474441e-01
<MEAN> 33
 1.721825e+02 1.341621e+02 1.127964e+02 1.368553e+02 1.715591e+02 1.747307e+02 1.376474e+02 1.352725e+02 8.708006e+01 1.598926e+02 1.702906e+02 2.348273e+00 1.707988e+02 1.610343e+02 1.619498e+02 1.582582e+02 1.616325e+02 1.243920e+01 1.090906e+02 1.534542e+02 1.641802e+02 1.619183e+02 1.107804e+02 1.615120e+02 6.519080e+01 8.764381e+01 1.423917e+02 5.911587e+00 2.422034e+00 3.228300e+00 2.714105e+00 2.416012e+00 5.570421e+00
<VARIANCE> 33
 3.934071e+01 3.426143e+01 8.365982e+01 2.657275e+01 3.840602e+01 1.794703e+01 2.822034e+01 2.062020e+01 5.690209e+01 1.139343e+02 2.983200e+01 5.472335e+00 3.222712e+01 1.116002e+02 3.720307e+01 1.408407e+02 1.455410e+02 1.148450e+02 1.431195e+03 4.927524e+02 2.328799e+01 1.699745e+02 1.032056e+03 2.255493e+02 6.476348e+02 7.125937e+02 4.992433e+02 2.053244e+00 6.926915e-01 4.566137e-01 2.117284e-01 3.645374e-01 2.076954e+00
<GCONST> 1.799136e+02
<MIXTURE> 3 1.474441e-01
<MEAN> 33
 1.721825e+02 1.341621e+02 1.127964e+02 1.368553e+02 1.715591e+02 1.747307e+02 1.376474e+02 1.352725e+02 8.708006e+01 1.598926e+02 1.702906e+02 2.348273e+00 1.707988e+02 1.610343e+02 1.619498e+02 1.582582e+02 1.616325e+02 1.243920e+01 1.090906e+02 1.534542e+02 1.641802e+02 1.619183e+02 1.107804e+02 1.615120e+02 6.519080e+01 8.764381e+01 1.423917e+02 5.911587e+00 2.422034e+00 3.228300e+00 2.714105e+00 2.416012e+00 5.570421e+00
<VARIANCE> 33
 3.934071e+01 3.426143e+01 8.365982e+01 2.657275e+01 3.840602e+01 1.794703e+01 2.822034e+01 2.062020e+01 5.690209e+01 1.139343e+02 2.983200e+01 5.472335e+00 3.222712e+01 1.116002e+02 3.720307e+01 1.408407e+02 1.455410e+02 1.148450e+02 1.431195e+03 4.927524e+02 2.328799e+01 1.699745e+02 1.032056e+03 2.255493e+02 6.476348e+02 7.125937e+02 4.992433e+02 2.053244e+00 6.926915e-01 4.566137e-01 2.117284e-01 3.645374e-01 2.076954e+00
<GCONST> 1.799136e+02
<MIXTURE> 4 3.078699e-01
<MEAN> 33
 1.594829e+02 1.491954e+02 9.803570e+01 1.508077e+02 1.559052e+02 1.727478e+02 1.328066e+02 1.306875e+02 9.632882e+01 1.348360e+02 1.760966e+02 1.091914e+00 1.726851e+02 1.298912e+02 1.693817e+02 1.434000e+02 1.414538e+02 9.422556e+00 6.518890e+01 1.592688e+02 1.681998e+02 1.590714e+02 6.660114e+01 1.407157e+02 5.358031e+01 6.116542e+01 1.126208e+02 5.181045e+00 2.858741e+00 2.179313e+00 2.138416e+00 2.975997e+00 5.971845e+00
<VARIANCE> 33
 1.722971e+02 4.644357e+01 2.660381e+01 5.459384e+01 2.499092e+02 1.642311e+01 6.323633e+01 8.649518e+01 1.637119e+02 1.216252e+02 7.679656e+00 1.478680e+00 1.851674e+01 2.534236e+02 1.284063e+01 1.884236e+02 2.480300e+02 1.520150e+02 2.545747e+02 1.344218e+02 2.298948e+01 1.209712e+02 4.237782e+02 5.479736e+02 7.757504e+02 1.116806e+03 5.483525e+02 4.369818e+00 8.561525e-01 1.035293e-01 1.543147e-01 1.947587e+00 2.943164e+00
<GCONST> 1.825909e+02
<TRANSP> 5
 0.000000e+00 1.000000e+00 0.000000e+00 0.000000e+00 0.000000e+00
 0.000000e+00 9.286985e-01 7.130151e-02 0.000000e+00 0.000000e+00
 0.000000e+00 0.000000e+00 9.393234e-01 6.067662e-02 0.000000e+00
 0.000000e+00 0.000000e+00 0.000000e+00 9.380367e-01 6.196327e-02
 0.000000e+00 0.000000e+00 0.000000e+00 0.000000e+00 0.000000e+00
<ENDHMM>
~h "CV"
<BEGINHMM>
<NUMSTATES> 5
<STATE> 2
<NUMMIXES> 4
<MIXTURE> 1 4.502472e-01
<MEAN> 33
 1.738768e+02 1.370948e+02 1.073344e+02 1.387586e+02 1.743628e+02 1.752445e+02 1.354164e+02 1.347152e+02 8.986845e+01 1.593050e+02 1.763328e+02 1.701753e+00 1.752703e+02 1.613118e+02 1.625826e+02 1.662610e+02 1.694996e+02 9.210651e+00 9.925507e+01 1.528799e+02 1.695432e+02 1.614080e+02 1.072982e+02 1.588501e+02 6.503901e+01 9.859078e+01 1.585302e+02 4.347427e+00 2.540176e+00 2.522468e+00 2.441207e+00 2.356912e+00 4.352036e+00
<VARIANCE> 33
 3.902650e+01 1.857201e+01 6.517716e+01 3.149792e+01 3.037716e+01 1.339297e+01 2.822034e+01 2.062020e+01 2.439507e+01 5.852326e+01 1.798560e+01 4.318807e+00 1.156135e+01 5.076186e+01 4.580122e+01 7.589798e+01 7.349416e+01 5.485982e+01 7.930175e+02 2.788562e+02 2.840762e+01 1.172789e+02 4.749810e+02 2.221970e+02 9.037783e+02 1.098768e+03 2.313059e+02 4.451173e+00 6.361017e-01 4.054673e-01 3.142350e-01 7.413542e-01 3.723720e+00
<GCONST> 1.729172e+02
<MIXTURE> 2 1.788840e-01
<MEAN> 33
 1.215914e+02 1.339479e+02 1.162401e+02 1.372356e+02 1.208045e+02 1.720348e+02 9.847323e+01 9.495105e+01 1.357372e+02 1.200597e+02 1.637200e+02 3.344577e+00 1.642917e+02 1.229580e+02 1.615370e+02 1.123530e+02 1.116316e+02 8.044600e+01 9.783675e+01 1.254838e+02 1.703854e+02 1.512113e+02 8.529182e+01 1.464965e+02 4.944499e+01 7.721028e+01 9.975613e+01 5.018147e+00 2.975336e+00 3.157249e+00 2.983348e+00 3.432573e+00 5.238375e+00
<VARIANCE> 33
 4.037487e+03 1.659474e+02 7.641269e+01 1.098025e+02 3.492541e+03 3.135860e+01 2.363917e+03 2.326449e+03 1.442534e+03 1.785337e+03 2.183758e+02 1.419051e+01 1.501046e+02 1.316813e+03 7.529878e+01 2.585830e+03 2.221076e+03 2.519919e+03 2.333091e+03 1.018681e+03 3.731759e+01 4.358921e+02 1.240942e+03 7.502825e+02 1.604449e+03 1.801739e+03 1.676682e+03 4.597779e+00 1.938426e+00 5.664641e-01 3.642996e-01 1.572386e+00 3.946463e+00
<GCONST> 2.357940e+02
<MIXTURE> 3 1.300053e-01
<MEAN> 33
 1.375494e+02 1.394396e+02 1.093817e+02 1.387279e+02 1.446694e+02 1.755314e+02 1.173562e+02 1.162035e+02 1.220667e+02 1.129486e+02 1.747219e+02 1.621564e+00 1.745818e+02 1.168465e+02 1.640605e+02 1.113173e+02 1.136247e+02 1.023071e+01 4.895369e+01 1.539738e+02 1.686390e+02 1.590095e+02 5.858088e+01 1.581124e+02 3.072275e+01 5.161250e+01 7.194957e+01 5.907654e+00 3.064844e+00 2.805154e+00 2.762056e+00 2.977852e+00 5.848939e+00
<VARIANCE> 33
 5.538660e+02 4.124775e+01 6.131716e+01 4.548618e+01 5.312241e+02 1.749102e+01 4.949847e+02 3.511263e+02 1.110598e+03 2.817047e+02 1.954279e+01 2.177034e+00 1.419501e+01 3.892218e+02 3.594631e+01 3.806607e+02 4.870958e+02 1.118015e+02 4.497447e+02 2.050459e+02 2.474070e+01 1.985935e+02 5.036470e+02 2.019643e+02 5.667204e+02 7.939384e+02 6.861291e+02 1.314469e+00 3.542636e-01 1.809683e-01 1.514529e-01 6.158547e-01 1.064373e+00
<GCONST> 1.914987e+02
<MIXTURE> 4 2.408625e-01
<MEAN> 33
 5.009514e+01 1.405652e+02 1.110738e+02 1.481254e+02 2.986488e+01 1.746804e+02 4.255335e+01 3.178446e+01 7.079755e+01 7.447730e+01 1.539163e+02 6.298359e+00 1.535344e+02 6.745420e+01 1.621552e+02 5.891355e+01 4.244235e+01 2.003054e+01 8.932841e+01 1.310770e+02 1.645912e+02 1.456075e+02 9.359851e+01 1.016852e+02 9.330550e+01 8.516455e+01 6.396105e+01 4.782201e+00 2.954073e+00 2.911261e+00 2.700338e+00 3.604758e+00 4.983501e+00
<VARIANCE> 33
 2.749866e+03 3.559547e+02 1.947741e+02 4.167065e+02 3.799458e+02 2.480561e+01 1.413783e+03 1.894662e+02 1.978175e+03 9.398780e+02 4.256875e+02 1.128024e+02 4.969441e+02 5.895065e+02 8.950542e+01 1.367495e+03 1.973490e+02 1.085012e+03 1.678130e+03 8.662296e+02 1.873255e+02 6.626353e+02 6.860161e+02 2.844426e+03 2.428035e+03 2.212699e+03 9.528838e+02 2.561793e+00 5.743514e-01 5.990369e-01 5.714762e-01 1.162231e+00 1.298581e+00
<GCONST> 2.316745e+02
<STATE> 3
<NUMMIXES> 4
<MIXTURE> 1 1.812668e-01
<MEAN> 33
 6.720814e+01 1.384383e+02 1.107957e+02 1.388113e+02 6.610716e+01 1.748149e+02 3.972527e+01 4.632824e+01 7.655964e+01 8.388818e+01 1.690426e+02 2.087400e+00 1.686251e+02 8.536556e+01 1.629022e+02 6.851385e+01 6.731390e+01 7.192231e+00 6.759986e+01 1.483308e+02 1.670655e+02 1.548051e+02 6.849554e+01 1.563165e+02 2.447709e+01 3.758941e+01 3.519970e+01 4.423796e+00 3.149766e+00 3.262525e+00 3.217711e+00 3.338782e+00 4.428521e+00
<VARIANCE> 33
 5.087262e+02 7.180886e+01 9.402272e+01 4.576250e+01 7.588604e+02 2.165601e+01 4.804189e+02 4.206354e+02 1.760761e+03 1.700516e+02 7.384433e+01 4.675032e+00 7.129980e+01 1.555714e+02 3.922470e+01 1.762885e+02 1.397053e+02 1.320325e+02 1.266286e+03 5.854141e+02 2.359559e+01 2.990563e+02 8.274592e+02 3.190607e+02 5.178842e+02 6.468315e+02 3.560638e+02 5.938725e-01 4.362740e-01 3.569603e-01 2.606131e-01 6.822470e-01 6.504520e-01
<GCONST> 1.967989e+02
<MIXTURE> 2 1.626571e-01
<MEAN> 33
 3.134361e+01 1.331848e+02 1.108969e+02 1.398409e+02 2.040255e+01 1.757869e+02 1.851536e+01 2.664176e+01 4.208241e+01 6.478085e+01 1.631918e+02 1.587472e+00 1.658385e+02 6.204969e+01 1.619856e+02 4.717887e+01 4.493747e+01 5.068947e+00 1.074032e+02 1.266874e+02 1.722271e+02 1.473241e+02 9.220062e+01 1.320138e+02 5.066793e+01 5.476087e+01 4.021248e+01 4.352337e+00 2.678322e+00 3.468702e+00 3.230967e+00 2.913152e+00 4.078516e+00
<VARIANCE> 33
 3.103498e+02 9.412990e+01 1.203983e+02 1.398851e+02 2.244453e+02 1.351324e+01 6.544278e+01 7.632887e+01 2.573358e+02 1.004005e+02 8.351351e+01 1.913590e+00 6.953252e+01 1.029327e+02 4.390954e+01 8.232354e+01 5.754821e+01 3.148238e+01 7.771098e+02 6.885889e+02 2.809135e+01 4.207552e+02 6.170472e+02 1.379757e+03 1.317846e+03 1.692282e+03 2.391827e+02 3.525097e-01 5.798744e-01 5.577287e-01 5.808915e-01 9.821885e-01 3.092130e-01
<GCONST> 1.894125e+02
<MIXTURE> 3 1.626571e-01
<MEAN> 33
 3.134361e+01 1.331848e+02 1.108969e+02 1.398409e+02 2.040255e+01 1.757869e+02 1.851536e+01 2.664176e+01 4.208241e+01 6.478085e+01 1.631918e+02 1.587472e+00 1.658385e+02 6.204969e+01 1.619856e+02 4.717887e+01 4.493747e+01 5.068947e+00 1.074032e+02 1.266874e+02 1.722271e+02 1.473241e+02 9.220062e+01 1.320138e+02 5.066793e+01 5.476087e+01 4.021248e+01 4.352337e+00 2.678322e+00 3.468702e+00 3.230967e+00 2.913152e+00 4.078516e+00
<VARIANCE> 33
 3.103498e+02 9.412990e+01 1.203983e+02 1.398851e+02 2.244453e+02 1.351324e+01 6.544278e+01 7.632887e+01 2.573358e+02 1.004005e+02 8.351351e+01 1.913590e+00 6.953252e+01 1.029327e+02 4.390954e+01 8.232354e+01 5.754821e+01 3.148238e+01 7.771098e+02 6.885889e+02 2.809135e+01 4.207552e+02 6.170472e+02 1.379757e+03 1.317846e+03 1.692282e+03 2.391827e+02 3.525097e-01 5.798744e-01 5.577287e-01 5.808915e-01 9.821885e-01 3.092130e-01
<GCONST> 1.894125e+02
<MIXTURE> 4 4.934174e-01
<MEAN> 33
 3.041819e+01 1.244339e+02 1.251146e+02 1.274050e+02 2.659148e+01 1.759239e+02 2.068893e+01 2.455977e+01 4.422310e+01 7.570078e+01 1.420453e+02 5.058821e+00 1.409811e+02 7.751895e+01 1.629979e+02 5.005681e+01 4.845101e+01 3.490268e+00 1.365861e+02 9.595432e+01 1.665141e+02 1.130941e+02 1.205433e+02 1.495789e+02 2.994007e+01 4.272964e+01 3.586703e+01 4.117291e+00 2.934067e+00 4.251492e+00 3.952430e+00 3.278231e+00 4.030413e+00
<VARIANCE> 33
 1.697638e+02 1.072858e+02 1.412542e+02 8.599839e+01 1.820826e+02 1.368940e+01 6.175876e+01 7.642572e+01 2.336076e+02 1.139686e+02 1.344929e+02 4.254769e+01 1.628103e+02 1.239032e+02 5.526025e+01 6.483345e+01 5.918315e+01 3.148238e+01 3.070248e+02 2.472458e+02 4.498110e+01 3.448520e+02 3.989904e+02 5.147471e+02 6.080761e+02 8.655867e+02 9.985627e+01 3.105740e-01 4.333855e-01 4.240617e-01 2.686481e-01 4.545018e-01 2.520636e-01
<GCONST> 1.851655e+02
<STATE> 4
<NUMMIXES> 4
<MIXTURE> 1 4.529150e-01
<MEAN> 33
 1.737536e+02 1.357589e+02 1.133371e+02 1.356474e+02 1.739649e+02 1.757618e+02 1.361337e+02 1.352844e+02 8.858189e+01 1.640659e+02 1.750741e+02 1.966360e+00 1.742811e+02 1.656312e+02 1.617514e+02 1.688135e+02 1.687424e+02 7.554909e+00 1.132472e+02 1.540397e+02 1.684838e+02 1.597621e+02 1.224084e+02 1.602919e+02 7.587285e+01 9.884651e+01 1.588139e+02 4.907284e+00 2.758583e+00 2.861627e+00 2.733108e+00 2.596643e+00 4.733830e+00
<VARIANCE> 33
 3.902650e+01 2.041927e+01 7.656086e+01 2.761419e+01 3.037716e+01 1.297703e+01 2.822034e+01 2.062020e+01 3.965318e+01 7.773920e+01 1.889255e+01 5.326890e+00 2.236390e+01 8.080196e+01 3.443859e+01 5.751004e+01 6.378899e+01 3.619078e+01 1.368083e+03 2.049692e+02 2.006924e+01 1.753848e+02 1.086127e+03 2.667393e+02 8.680591e+02 1.105037e+03 2.039034e+02 2.400251e+00 1.485557e+00 3.312194e-01 2.147908e-01 1.219951e+00 2.334005e+00
<GCONST> 1.748633e+02
<MIXTURE> 2 1.526515e-01
<MEAN> 33
 1.684806e+02 1.347254e+02 1.141970e+02 1.375548e+02 1.676370e+02 1.764821e+02 1.376018e+02 1.347483e+02 8.764985e+01 1.572108e+02 1.667456e+02 1.456457e+00 1.663997e+02 1.582891e+02 1.623730e+02 1.448548e+02 1.452094e+02 9.723000e+00 1.203806e+02 1.429583e+02 1.683599e+02 1.506860e+02 1.182952e+02 1.468131e+02 6.800953e+01 7.684317e+01 1.101246e+02 6.074566e+00 2.433320e+00 2.807069e+00 2.689293e+00 2.473759e+00 6.042329e+00
<VARIANCE> 33
 8.602338e+01 5.108985e+01 7.541605e+01 7.665952e+01 8.521346e+01 8.871343e+00 8.113734e+01 6.908908e+01 2.573301e+02 1.849374e+02 5.433654e+01 1.602951e+00 6.016871e+01 1.988154e+02 3.607440e+01 2.016628e+02 2.358661e+02 9.052666e+01 1.503241e+03 5.520948e+02 4.032894e+01 4.402858e+02 1.438693e+03 1.483760e+03 2.240005e+03 1.684960e+03 8.569670e+02 1.322214e+00 3.654596e-01 3.126214e-01 1.923558e-01 3.139477e-01 1.271675e+00
<GCONST> 1.918760e+02
<MIXTURE> 3 1.526515e-01
<MEAN> 33
 1.684806e+02 1.347254e+02 1.141970e+02 1.375548e+02 1.676370e+02 1.764821e+02 1.376018e+02 1.347483e+02 8.764985e+01 1.572108e+02 1.667456e+02 1.456457e+00 1.663997e+02 1.582891e+02 1.623730e+02 1.448548e+02 1.452094e+02 9.723000e+00 1.203806e+02 1.429583e+02 1.683599e+02 1.506860e+02 1.182952e+02 1.468131e+02 6.800953e+01 7.684317e+01 1.101246e+02 6.074566e+00 2.433320e+00 2.807069e+00 2.689293e+00 2.473759e+00 6.042329e+00
<VARIANCE> 33
 8.602338e+01 5.108985e+01 7.541605e+01 7.665952e+01 8.521346e+01 8.871343e+00 8.113734e+01 6.908908e+01 2.573301e+02 1.849374e+02 5.433654e+01 1.602951e+00 6.016871e+01 1.988154e+02 3.607440e+01 2.016628e+02 2.358661e+02 9.052666e+01 1.503241e+03 5.520948e+02 4.032894e+01 4.402858e+02 1.438693e+03 1.483760e+03 2.240005e+03 1.684960e+03 8.569670e+02 1.322214e+00 3.654596e-01 3.126214e-01 1.923558e-01 3.139477e-01 1.271675e+00
<GCONST> 1.918760e+02
<MIXTURE> 4 2.417821e-01
<MEAN> 33
 1.243082e+02 1.319869e+02 1.199305e+02 1.343852e+02 1.167835e+02 1.755966e+02 1.074324e+02 1.013203e+02 1.038543e+02 1.232609e+02 1.608154e+02 3.725558e+00 1.606916e+02 1.211872e+02 1.620039e+02 1.009004e+02 9.639096e+01 1.399103e+01 1.073669e+02 1.263561e+02 1.687848e+02 1.402031e+02 9.436950e+01 1.364524e+02 4.387231e+01 5.890101e+01 4.835662e+01 5.207562e+00 2.920446e+00 3.429000e+00 3.273532e+00 3.376747e+00 5.265857e+00
<VARIANCE> 33
 1.347405e+03 9.550195e+01 1.537674e+02 1.086832e+02 1.059000e+03 1.385780e+01 1.696213e+03 1.566815e+03 2.313953e+03 5.662582e+02 1.457876e+02 2.403146e+01 1.452849e+02 3.621768e+02 4.960273e+01 6.167515e+02 4.758681e+02 3.742791e+02 1.777214e+03 8.843775e+02 3.959574e+01 6.654971e+02 1.139258e+03 1.718737e+03 1.484687e+03 1.487965e+03 9.960793e+02 1.349619e+00 6.433093e-01 4.262287e-01 3.345586e-01 6.585963e-01 1.598182e+00
<GCONST> 2.204711e+02
<TRANSP> 5
 0.000000e+00 1.000000e+00 0.000000e+00 0.000000e+00 0.000000e+00
 0.000000e+00 9.172603e-01 8.273973e-02 0.000000e+00 0.000000e+00
 0.000000e+00 0.000000e+00 9.514690e-01 4.853094e-02 0.000000e+00
 0.000000e+00 0.000000e+00 0.000000e+00 9.310789e-01 6.892109e-02
 0.000000e+00 0.000000e+00 0.000000e+00 0.000000e+00 0.000000e+00
<ENDHMM>
~h "DC"
<BEGINHMM>
<NUMSTATES> 5
<STATE> 2
<NUMMIXES> 4
<MIXTURE> 1 5.413247e-01
<MEAN> 33
 1.736963e+02 1.365099e+02 1.080512e+02 1.381721e+02 1.749553e+02 1.759317e+02 1.351801e+02 1.343791e+02 9.044083e+01 1.576631e+02 1.751769e+02 1.567685e+00 1.747415e+02 1.611571e+02 1.619580e+02 1.628178e+02 1.677851e+02 1.085708e+01 9.838389e+01 1.531519e+02 1.692275e+02 1.622917e+02 1.065587e+02 1.569489e+02 7.338481e+01 8.793333e+01 1.544237e+02 4.681286e+00 2.599459e+00 2.663020e+00 2.471257e+00 2.349580e+00 4.577041e+00
<VARIANCE> 33
 3.902650e+01 2.368878e+01 6.150897e+01 2.860064e+01 3.037716e+01 1.116768e+01 2.822034e+01 2.062020e+01 2.489958e+01 7.737276e+01 2.457421e+01 4.040428e+00 1.993956e+01 4.454346e+01 5.221571e+01 1.114726e+02 6.743704e+01 1.027569e+02 8.906039e+02 2.912041e+02 2.921643e+01 1.493074e+02 4.396693e+02 2.942082e+02 1.143415e+03 1.259025e+03 2.742924e+02 5.279789e+00 8.727950e-01 3.843308e-01 3.733407e-01 7.903806e-01 3.347187e+00
<GCONST> 1.765785e+02
<MIXTURE> 2 1.277560e-01
<MEAN> 33
 1.333488e+02 1.381446e+02 1.109181e+02 1.385016e+02 1.389401e+02 1.771942e+02 1.192682e+02 1.138313e+02 1.203204e+02 1.147793e+02 1.739285e+02 1.220419e+00 1.736548e+02 1.151892e+02 1.620313e+02 1.076935e+02 1.086916e+02 6.208400e+00 6.228994e+01 1.596577e+02 1.698703e+02 1.630704e+02 6.593526e+01 1.545535e+02 3.632658e+01 3.956128e+01 6.019251e+01 5.960783e+00 2.957944e+00 2.962288e+00 2.880236e+00 2.991066e+00 5.804615e+00
<VARIANCE> 33
 4.682219e+02 2.281576e+01 6.396661e+01 3.151011e+01 5.009030e+02 6.158338e+00 5.057902e+02 4.381671e+02 1.081186e+03 1.470767e+02 2.423611e+01 1.309803e+00 2.301759e+01 2.113403e+02 4.073019e+01 2.977754e+02 3.792658e+02 5.017949e+01 4.889004e+02 1.938568e+02 2.703516e+01 1.443960e+02 4.097245e+02 4.022705e+02 7.650167e+02 7.253311e+02 6.829860e+02 8.830935e-01 3.369493e-01 1.752324e-01 1.441723e-01 6.147102e-01 8.416554e-01
<GCONST> 1.870044e+02
<MIXTURE> 3 1.277560e-01
<MEAN> 33
 1.333488e+02 1.381446e+02 1.109181e+02 1.385016e+02 1.389401e+02 1.771942e+02 1.192682e+02 1.138313e+02 1.203204e+02 1.147793e+02 1.739285e+02 1.220419e+00 1.736548e+02 1.151892e+02 1.620313e+02 1.076935e+02 1.086916e+02 6.208400e+00 6.228994e+01 1.596577e+02 1.698703e+02 1.630704e+02 6.593526e+01 1.545535e+02 3.632658e+01 3.956128e+01 6.019251e+01 5.960783e+00 2.957944e+00 2.962288e+00 2.880236e+00 2.991066e+00 5.804615e+00
<VARIANCE> 33
 4.682219e+02 2.281576e+01 6.396661e+01 3.151011e+01 5.009030e+02 6.158338e+00 5.057902e+02 4.381671e+02 1.081186e+03 1.470767e+02 2.423611e+01 1.309803e+00 2.301759e+01 2.113403e+02 4.073019e+01 2.977754e+02 3.792658e+02 5.017949e+01 4.889004e+02 1.938568e+02 2.703516e+01 1.443960e+02 4.097245e+02 4.022705e+02 7.650167e+02 7.253311e+02 6.829860e+02 8.830935e-01 3.369493e-01 1.752324e-01 1.441723e-01 6.147102e-01 8.416554e-01
<GCONST> 1.870044e+02
<MIXTURE> 4 2.031636e-01
<MEAN> 33
 1.166788e+02 1.281697e+02 1.132631e+02 1.405113e+02 1.065069e+02 1.714676e+02 9.533785e+01 8.519987e+01 1.008835e+02 1.214159e+02 1.585599e+02 3.604165e+00 1.600646e+02 1.147688e+02 1.591733e+02 1.052643e+02 9.271009e+01 4.223945e+01 1.108623e+02 1.118635e+02 1.711429e+02 1.453325e+02 9.904753e+01 1.263327e+02 6.146443e+01 7.207183e+01 6.423258e+01 5.245173e+00 2.528797e+00 3.210038e+00 2.890704e+00 3.182950e+00 5.476180e+00
<VARIANCE> 33
 1.815629e+03 3.041401e+02 1.448029e+02 2.219368e+02 2.690490e+03 4.550726e+01 2.324250e+03 2.070476e+03 2.801414e+03 7.723038e+02 3.331889e+02 1.606915e+01 1.888022e+02 7.190681e+02 8.604238e+01 1.302111e+03 1.017053e+03 2.791095e+03 2.077836e+03 1.503976e+03 3.365137e+01 6.225965e+02 1.315380e+03 1.699377e+03 2.502485e+03 2.294457e+03 2.124506e+03 2.723804e+00 1.492764e+00 8.095758e-01 4.983617e-01 1.497971e+00 2.526448e+00
<GCONST> 2.374037e+02
<STATE> 3
<NUMMIXES> 4
<MIXTURE> 1 2.849656e-01
<MEAN> 33
 9.507455e+01 1.387504e+02 1.098803e+02 1.422730e+02 9.208001e+01 1.740547e+02 8.314469e+01 8.025896e+01 8.102415e+01 1.166072e+02 1.642540e+02 1.669799e+00 1.647171e+02 1.126693e+02 1.627590e+02 8.841763e+01 8.711227e+01 3.568084e+00 9.351260e+01 1.353531e+02 1.721661e+02 1.464863e+02 8.511077e+01 1.148337e+02 6.545756e+01 6.601540e+01 1.768422e+01 4.334670e+00 3.388743e+00 3.458259e+00 3.261716e+00 3.835426e+00 4.470112e+00
<VARIANCE> 33
 1.706394e+02 5.818301e+01 1.581861e+02 1.221249e+02 3.772975e+02 2.181713e+01 1.505706e+03 1.584908e+03 3.032481e+03 1.418169e+02 5.912611e+01 2.169463e+00 7.088416e+01 1.702699e+02 2.156805e+01 4.737643e+01 4.180497e+01 3.148238e+01 7.664903e+02 5.141635e+02 2.499658e+01 4.434776e+02 7.831814e+02 2.282000e+03 2.480807e+03 2.255379e+03 2.087281e+02 5.249914e-01 9.043962e-01 3.296040e-01 3.669036e-01 1.417159e+00 5.409498e-01
<GCONST> 1.991082e+02
<MIXTURE> 2 2.316466e-01
<MEAN> 33
 7.413269e+01 1.299355e+02 1.138098e+02 1.364782e+02 6.722956e+01 1.751368e+02 3.326643e+01 2.736667e+01 3.960231e+01 9.599860e+01 1.578398e+02 2.817125e+00 1.621608e+02 9.566356e+01 1.614067e+02 6.794308e+01 6.771396e+01 2.986501e+00 1.150231e+02 1.062275e+02 1.703685e+02 1.436818e+02 8.257074e+01 1.450638e+02 4.896968e+01 4.370784e+01 1.955266e+01 4.404711e+00 3.179785e+00 4.008909e+00 3.779089e+00 3.807412e+00 4.017011e+00
<VARIANCE> 33
 2.054172e+02 3.904565e+01 7.065048e+01 4.649234e+01 2.416754e+02 2.346365e+01 4.026977e+02 3.401752e+02 9.051567e+02 1.323633e+02 1.017717e+02 8.190869e+00 5.481724e+01 1.174155e+02 2.943393e+01 5.566989e+01 5.621991e+01 3.148238e+01 7.507805e+02 7.992093e+02 2.746132e+01 3.734131e+02 5.315954e+02 5.502141e+02 7.355640e+02 7.561023e+02 2.574005e+02 4.604180e-01 7.899408e-01 1.725142e-01 1.127009e-01 6.287422e-01 2.502154e-01
<GCONST> 1.873815e+02
<MIXTURE> 3 2.477119e-01
<MEAN> 33
 7.716656e+01 1.403059e+02 1.083132e+02 1.400236e+02 7.406446e+01 1.754132e+02 2.924502e+01 3.228550e+01 4.524109e+01 1.091249e+02 1.591312e+02 7.846211e-01 1.613123e+02 1.063613e+02 1.590395e+02 7.436938e+01 7.387006e+01 2.122499e+00 1.058015e+02 1.259014e+02 1.720974e+02 1.319770e+02 1.037579e+02 1.103782e+02 6.379873e+01 6.550642e+01 1.604117e+01 4.383692e+00 3.577332e+00 3.647408e+00 3.511762e+00 3.554310e+00 4.339529e+00
<VARIANCE> 33
 8.942360e+01 4.050163e+01 3.411741e+01 5.023265e+01 2.681843e+02 1.019342e+01 3.568696e+02 3.779941e+02 1.100347e+03 5.588046e+01 3.534234e+01 5.357184e-01 5.158566e+01 6.935040e+01 2.747586e+01 3.071743e+01 2.753282e+01 3.148238e+01 3.730746e+02 2.895096e+02 2.243682e+01 2.764830e+02 2.793499e+02 2.188221e+03 2.777943e+03 2.573467e+03 1.722001e+02 4.581300e-01 5.187665e-01 1.057970e-01 9.120484e-02 2.918398e-01 3.612900e-01
<GCONST> 1.779195e+02
<MIXTURE> 4 2.356740e-01
<MEAN> 33
 7.065961e+01 1.204586e+02 1.147174e+02 1.335676e+02 5.788060e+01 1.704477e+02 2.149460e+01 1.606626e+01 2.200077e+01 1.129408e+02 1.380796e+02 3.489302e+00 1.416418e+02 1.128224e+02 1.546033e+02 6.494879e+01 6.510159e+01 2.368697e+00 1.423178e+02 8.975123e+01 1.721409e+02 1.068955e+02 1.274660e+02 1.069757e+02 8.385136e+01 8.319719e+01 1.054375e+01 3.990767e+00 2.556462e+00 3.956313e+00 3.854496e+00 3.106489e+00 3.901040e+00
<VARIANCE> 33
 6.958123e+02 2.573340e+02 1.355255e+02 8.003729e+01 4.874525e+02 6.263703e+01 3.360827e+02 1.620703e+02 3.641768e+02 4.057825e+02 1.809745e+02 4.121175e+01 1.884073e+02 3.983715e+02 9.897356e+01 1.080972e+02 1.017477e+02 3.148238e+01 2.737874e+02 2.425043e+02 6.575179e+01 1.521653e+02 2.711183e+02 1.992845e+03 2.306365e+03 2.429168e+03 1.048694e+02 3.818237e-01 4.243629e-01 3.767183e-01 3.081566e-01 7.374721e-01 4.370922e-01
<GCONST> 2.012653e+02
<STATE> 4
<NUMMIXES> 4
<MIXTURE> 1 4.432305e-01
<MEAN> 33
 1.723922e+02 1.381649e+02 1.107567e+02 1.385452e+02 1.735837e+02 1.761276e+02 1.346093e+02 1.343767e+02 9.101407e+01 1.640240e+02 1.743195e+02 1.344591e+00 1.748812e+02 1.666511e+02 1.614566e+02 1.662074e+02 1.660553e+02 1.028546e+01 1.207548e+02 1.541124e+02 1.692379e+02 1.568951e+02 1.319906e+02 1.537081e+02 8.520267e+01 9.610587e+01 1.549680e+02 4.788209e+00 2.870798e+00 2.788801e+00 2.535151e+00 2.535644e+00 4.621747e+00
<VARIANCE> 33
 3.902650e+01 2.236817e+01 8.212888e+01 2.805972e+01 3.037716e+01 1.213930e+01 2.822034e+01 2.062020e+01 3.830550e+01 1.021007e+02 1.807508e+01 2.885134e+00 1.651494e+01 9.018793e+01 4.596206e+01 7.694811e+01 8.586408e+01 8.926771e+01 1.525727e+03 2.378993e+02 3.316998e+01 1.718275e+02 1.271819e+03 5.427936e+02 1.197651e+03 1.317123e+03 2.477954e+02 2.804305e+00 1.552609e+00 3.453895e-01 2.036527e-01 9.227567e-01 2.380485e+00
<GCONST> 1.783707e+02
<MIXTURE> 2 1.451699e-01
<MEAN> 33
 1.680515e+02 1.382220e+02 1.097481e+02 1.399650e+02 1.681064e+02 1.749765e+02 1.371202e+02 1.326586e+02 9.022117e+01 1.637619e+02 1.671655e+02 1.315366e+00 1.673531e+02 1.640051e+02 1.616105e+02 1.429266e+02 1.429046e+02 9.646910e+00 1.339104e+02 1.352114e+02 1.706151e+02 1.464896e+02 1.325506e+02 1.275428e+02 7.492180e+01 9.746937e+01 1.064467e+02 6.086592e+00 2.313495e+00 2.696224e+00 2.635237e+00 2.403598e+00 6.001136e+00
<VARIANCE> 33
 9.552683e+01 5.742722e+01 5.924395e+01 5.166029e+01 9.542903e+01 1.869827e+01 9.583481e+01 7.547587e+01 2.539395e+02 1.514687e+02 5.473032e+01 1.614606e+00 5.900106e+01 1.515496e+02 4.462905e+01 2.064593e+02 2.726931e+02 7.425834e+01 1.376246e+03 6.802365e+02 3.565250e+01 3.866866e+02 1.189180e+03 2.462817e+03 2.451108e+03 2.118154e+03 7.897131e+02 9.901221e-01 2.558040e-01 2.192950e-01 1.227221e-01 2.285412e-01 8.864855e-01
<GCONST> 1.905617e+02
<MIXTURE> 3 1.451699e-01
<MEAN> 33
 1.680515e+02 1.382220e+02 1.097481e+02 1.399650e+02 1.681064e+02 1.749765e+02 1.371202e+02 1.326586e+02 9.022117e+01 1.637619e+02 1.671655e+02 1.315366e+00 1.673531e+02 1.640051e+02 1.616105e+02 1.429266e+02 1.429046e+02 9.646910e+00 1.339104e+02 1.352114e+02 1.706151e+02 1.464896e+02 1.325506e+02 1.275428e+02 7.492180e+01 9.746937e+01 1.064467e+02 6.086592e+00 2.313495e+00 2.696224e+00 2.635237e+00 2.403598e+00 6.001136e+00
<VARIANCE> 33
 9.552683e+01 5.742722e+01 5.924395e+01 5.166029e+01 9.542903e+01 1.869827e+01 9.583481e+01 7.547587e+01 2.539395e+02 1.514687e+02 5.473032e+01 1.614606e+00 5.900106e+01 1.515496e+02 4.462905e+01 2.064593e+02 2.726931e+02 7.425834e+01 1.376246e+03 6.802365e+02 3.565250e+01 3.866866e+02 1.189180e+03 2.462817e+03 2.451108e+03 2.118154e+03 7.897131e+02 9.901221e-01 2.558040e-01 2.192950e-01 1.227221e-01 2.285412e-01 8.864855e-01
<GCONST> 1.905617e+02
<MIXTURE> 4 2.664291e-01
<MEAN> 33
 1.351915e+02 1.328703e+02 1.128225e+02 1.383463e+02 1.284703e+02 1.720950e+02 1.273340e+02 1.215600e+02 8.450093e+01 1.356679e+02 1.628105e+02 3.009938e+00 1.611409e+02 1.331164e+02 1.610345e+02 1.090188e+02 1.060238e+02 1.017904e+01 1.143663e+02 1.194633e+02 1.707750e+02 1.376363e+02 9.935423e+01 1.273756e+02 6.129242e+01 7.056911e+01 4.452250e+01 4.727766e+00 2.815207e+00 3.327836e+00 3.238106e+00 3.260404e+00 5.044706e+00
<VARIANCE> 33
 5.839742e+02 1.301207e+02 1.280217e+02 1.256142e+02 7.625311e+02 4.710662e+01 1.218264e+03 1.245419e+03 2.338786e+03 3.412060e+02 1.024336e+02 3.150502e+01 1.360780e+02 4.159933e+02 6.827489e+01 3.776731e+02 3.770744e+02 2.356335e+02 1.452784e+03 1.167115e+03 4.287599e+01 6.758064e+02 1.480900e+03 1.828468e+03 2.132816e+03 2.024502e+03 1.065678e+03 1.481454e+00 5.884696e-01 4.323365e-01 3.851709e-01 8.739842e-01 1.203640e+00
<GCONST> 2.202604e+02
<TRANSP> 5
 0.000000e+00 1.000000e+00 0.000000e+00 0.000000e+00 0.000000e+00
 0.000000e+00 8.859416e-01 1.140584e-01 0.000000e+00 0.000000e+00
 0.000000e+00 0.000000e+00 9.594802e-01 4.051983e-02 0.000000e+00
 0.000000e+00 0.000000e+00 0.000000e+00 9.293243e-01 7.067573e-02
 0.000000e+00 0.000000e+00 0.000000e+00 0.000000e+00 0.000000e+00
<ENDHMM>
~h "FM"
<BEGINHMM>
<NUMSTATES> 5
<STATE> 2
<NUMMIXES> 4
<MIXTURE> 1 2.656161e-01
<MEAN> 33
 1.723072e+02 1.377242e+02 1.087188e+02 1.382047e+02 1.747664e+02 1.766221e+02 1.349545e+02 1.340732e+02 9.097239e+01 1.562010e+02 1.749256e+02 1.344955e+00 1.751528e+02 1.610992e+02 1.616624e+02 1.629811e+02 1.669225e+02 1.136370e+01 9.428440e+01 1.528873e+02 1.700258e+02 1.620347e+02 1.080068e+02 1.584900e+02 7.129620e+01 9.033118e+01 1.538108e+02 5.016757e+00 2.795831e+00 2.641296e+00 2.528768e+00 2.338791e+00 4.870959e+00
<VARIANCE> 33
 3.902650e+01 3.041984e+01 7.352667e+01 3.484678e+01 3.037716e+01 8.995836e+00 2.822034e+01 2.062020e+01 3.781982e+01 8.711482e+01 2.286339e+01 2.995155e+00 1.625837e+01 5.169722e+01 4.757171e+01 1.282197e+02 8.638491e+01 1.224718e+02 9.838483e+02 2.347065e+02 2.187052e+01 1.429222e+02 5.566509e+02 2.196213e+02 9.927296e+02 1.211961e+03 2.828965e+02 5.028500e+00 9.168513e-01 2.861707e-01 4.266311e-01 7.866988e-01 3.187186e+00
<GCONST> 1.766991e+02
<MIXTURE> 2 2.667608e-01
<MEAN> 33
 1.719997e+02 1.389366e+02 1.104542e+02 1.674751e+02 1.001301e+02 1.735015e+02 1.351383e+02 9.330900e+01 1.315396e+02 1.557430e+02 1.699842e+02 4.593623e+00 1.527241e+02 1.076356e+02 1.620737e+02 1.689366e+02 9.967918e+01 7.302966e+01 8.349665e+01 1.435130e+02 1.676923e+02 1.583671e+02 4.372921e+01 1.226135e+02 6.535135e+01 1.017527e+02 1.450070e+02 3.742201e+00 2.733704e+00 2.614406e+00 2.137059e+00 6.277933e+00 6.610254e+00
<VARIANCE> 33
 3.902650e+01 5.650541e+01 1.207850e+02 9.056956e+01 5.283565e+02 4.795965e+01 2.822034e+01 2.490723e+02 3.079551e+02 7.650587e+01 9.797179e+01 2.486018e+01 2.854136e+02 6.537780e+02 7.054984e+01 6.774271e+01 1.277455e+03 1.187838e+03 5.820895e+02 4.622021e+02 5.531433e+01 1.420783e+02 1.967616e+02 2.260846e+03 2.251593e+03 1.777242e+03 4.291890e+02 2.174153e+00 1.003826e+00 2.354273e-01 3.696987e-01 2.397437e+00 3.873002e+00
<GCONST> 2.056622e+02
<MIXTURE> 3 2.667608e-01
<MEAN> 33
 1.719997e+02 1.389366e+02 1.104542e+02 1.674751e+02 1.001301e+02 1.735015e+02 1.351383e+02 9.330900e+01 1.315396e+02 1.557430e+02 1.699842e+02 4.593623e+00 1.527241e+02 1.076356e+02 1.620737e+02 1.689366e+02 9.967918e+01 7.302966e+01 8.349665e+01 1.435130e+02 1.676923e+02 1.583671e+02 4.372921e+01 1.226135e+02 6.535135e+01 1.017527e+02 1.450070e+02 3.742201e+00 2.733704e+00 2.614406e+00 2.137059e+00 6.277933e+00 6.610254e+00
<VARIANCE> 33
 3.902650e+01 5.650541e+01 1.207850e+02 9.056956e+01 5.283565e+02 4.795965e+01 2.822034e+01 2.490723e+02 3.079551e+02 7.650587e+01 9.797179e+01 2.486018e+01 2.854136e+02 6.537780e+02 7.054984e+01 6.774271e+01 1.277455e+03 1.187838e+03 5.820895e+02 4.622021e+02 5.531433e+01 1.420783e+02 1.967616e+02 2.260846e+03 2.251593e+03 1.777242e+03 4.291890e+02 2.174153e+00 1.003826e+00 2.354273e-01 3.696987e-01 2.397437e+00 3.873002e+00
<GCONST> 2.056622e+02
<MIXTURE> 4 2.008619e-01
<MEAN> 33
 1.039254e+02 1.565568e+02 1.133025e+02 1.506751e+02 1.246049e+02 1.706881e+02 8.508142e+01 1.038252e+02 1.350925e+02 1.015192e+02 1.653729e+02 2.596169e+00 1.626414e+02 1.328630e+02 1.630932e+02 8.480966e+01 1.146815e+02 8.022945e+01 6.183674e+01 1.559315e+02 1.677193e+02 1.513439e+02 6.661937e+01 1.342296e+02 6.386321e+01 8.144009e+01 1.160759e+02 5.768449e+00 5.522283e+00 2.586294e+00 2.677138e+00 3.809279e+00 4.270853e+00
<VARIANCE> 33
 1.346500e+03 3.033922e+02 8.724683e+01 6.350176e+02 1.279499e+03 5.139278e+01 1.005304e+03 9.207033e+02 2.314737e+03 7.380625e+02 1.635269e+02 5.277999e+00 2.441322e+02 7.923848e+02 5.974666e+01 9.331449e+02 1.330343e+03 4.112858e+03 1.710077e+03 4.434630e+02 5.792312e+01 6.656418e+02 1.713876e+03 1.194029e+03 1.818790e+03 2.395332e+03 2.859656e+03 3.730855e+00 7.428506e+00 6.536242e-01 5.793267e-01 1.392130e+00 2.563179e+00
<GCONST> 2.345516e+02
<STATE> 3
<NUMMIXES> 4
<MIXTURE> 1 3.846364e-01
<MEAN> 33
 1.209658e+02 1.624441e+02 1.151022e+02 1.352045e+02 1.733738e+02 1.741985e+02 1.080871e+02 1.361514e+02 1.157615e+02 1.202665e+02 1.655029e+02 2.506699e+00 1.748697e+02 1.633635e+02 1.635981e+02 1.202888e+02 1.714019e+02 5.808063e+01 4.701479e+01 1.610148e+02 1.645738e+02 1.533979e+02 1.012861e+02 1.539073e+02 8.063705e+01 7.169025e+01 1.506849e+02 7.795510e+00 6.375824e+00 2.569793e+00 2.603462e+00 2.301512e+00 3.713337e+00
<VARIANCE> 33
 4.255122e+02 8.303663e+01 1.040219e+02 2.012119e+01 3.037716e+01 1.883907e+01 1.130131e+02 2.062020e+01 1.172906e+02 3.221157e+02 7.779685e+01 5.662979e+00 1.109856e+01 3.563348e+01 3.726340e+01 3.852802e+02 4.471085e+01 4.328530e+02 1.266530e+02 9.215327e+01 2.346708e+01 1.614605e+02 8.963068e+02 3.631089e+02 6.225223e+02 7.902402e+02 2.752642e+02 2.780510e+00 2.992081e+00 2.281521e-01 1.540087e-01 4.838336e-01 9.390997e-01
<GCONST> 1.819254e+02
<MIXTURE> 2 2.194919e-01
<MEAN> 33
 1.018217e+02 1.685826e+02 1.124072e+02 1.360621e+02 1.767159e+02 1.741273e+02 8.200234e+01 1.359884e+02 1.419823e+02 9.711856e+01 1.638037e+02 4.797817e+00 1.744614e+02 1.625814e+02 1.667393e+02 7.576080e+01 1.707612e+02 9.573535e+01 4.263500e+01 1.625014e+02 1.633331e+02 1.537720e+02 9.203312e+01 1.503641e+02 9.283563e+01 4.450350e+01 1.373364e+02 7.967118e+00 6.518720e+00 2.400873e+00 2.733388e+00 2.054660e+00 4.011137e+00
<VARIANCE> 33
 2.416830e+02 3.785210e+01 1.748768e+01 1.123216e+01 3.037716e+01 1.815447e+01 8.318145e+01 2.062020e+01 8.758629e+01 7.222931e+01 8.869509e+01 7.594187e+00 1.008457e+01 1.436313e+01 5.234716e+01 1.673201e+02 2.712517e+01 1.649499e+02 1.924606e+01 7.372834e+01 3.441877e+01 1.891988e+02 2.589019e+02 4.880317e+02 3.813590e+02 4.262481e+02 1.259052e+02 1.963049e+00 1.033017e+00 1.053384e-01 1.161396e-01 6.033522e-02 6.215944e-01
<GCONST> 1.641764e+02
<MIXTURE> 3 2.194919e-01
<MEAN> 33
 1.018217e+02 1.685826e+02 1.124072e+02 1.360621e+02 1.767159e+02 1.741273e+02 8.200234e+01 1.359884e+02 1.419823e+02 9.711856e+01 1.638037e+02 4.797817e+00 1.744614e+02 1.625814e+02 1.667393e+02 7.576080e+01 1.707612e+02 9.573535e+01 4.263500e+01 1.625014e+02 1.633331e+02 1.537720e+02 9.203312e+01 1.503641e+02 9.283563e+01 4.450350e+01 1.373364e+02 7.967118e+00 6.518720e+00 2.400873e+00 2.733388e+00 2.054660e+00 4.011137e+00
<VARIANCE> 33
 2.416830e+02 3.785210e+01 1.748768e+01 1.123216e+01 3.037716e+01 1.815447e+01 8.318145e+01 2.062020e+01 8.758629e+01 7.222931e+01 8.869509e+01 7.594187e+00 1.008457e+01 1.436313e+01 5.234716e+01 1.673201e+02 2.712517e+01 1.649499e+02 1.924606e+01 7.372834e+01 3.441877e+01 1.891988e+02 2.589019e+02 4.880317e+02 3.813590e+02 4.262481e+02 1.259052e+02 1.963049e+00 1.033017e+00 1.053384e-01 1.161396e-01 6.033522e-02 6.215944e-01
<GCONST> 1.641764e+02
<MIXTURE> 4 1.763786e-01
<MEAN> 33
 9.817628e+01 1.644017e+02 1.207004e+02 1.321171e+02 1.658519e+02 1.710239e+02 9.054958e+01 1.297683e+02 1.390692e+02 1.093184e+02 1.537892e+02 9.539607e+00 1.645803e+02 1.503520e+02 1.607601e+02 9.247311e+01 1.553899e+02 7.769650e+01 4.306996e+01 1.609468e+02 1.695248e+02 1.450884e+02 8.931355e+01 1.142955e+02 6.746624e+01 8.899642e+01 1.397457e+02 6.259662e+00 5.850008e+00 2.256800e+00 2.951792e+00 3.179056e+00 4.675137e+00
<VARIANCE> 33
 8.898425e+02 1.198816e+02 1.710018e+02 3.457385e+02 2.555733e+02 5.435225e+01 3.358672e+02 1.275443e+02 3.502271e+02 4.719349e+02 3.429782e+02 5.273914e+02 5.414665e+02 3.679512e+02 6.265989e+01 1.347745e+03 5.083211e+02 1.535042e+03 3.329662e+02 1.326171e+02 4.010681e+01 4.217269e+02 1.707600e+03 1.405376e+03 2.438960e+03 3.092569e+03 6.494804e+02 3.008796e+00 2.778327e+00 3.227975e-01 3.957075e-01 1.468974e+00 3.085806e+00
<GCONST> 2.236652e+02
<STATE> 4
<NUMMIXES> 4
<MIXTURE> 1 3.457617e-01
<MEAN> 33
 1.755755e+02 1.354840e+02 1.087373e+02 1.361007e+02 1.776624e+02 1.762647e+02 1.349908e+02 1.345633e+02 9.044592e+01 1.595628e+02 1.770424e+02 1.102259e+00 1.756066e+02 1.646646e+02 1.628659e+02 1.668627e+02 1.693765e+02 6.516533e+00 9.600061e+01 1.598508e+02 1.690636e+02 1.673773e+02 1.114220e+02 1.532639e+02 8.616739e+01 7.280239e+01 1.587788e+02 6.274982e+00 2.261577e+00 2.928466e+00 2.732486e+00 1.898654e+00 5.736544e+00
<VARIANCE> 33
 3.902650e+01 1.305704e+01 2.330548e+01 9.265758e+00 3.037716e+01 7.879742e+00 2.822034e+01 2.062020e+01 1.886277e+01 1.747268e+01 5.949428e+00 7.840835e-01 6.565805e+00 1.405627e+01 2.540512e+01 3.071743e+01 4.178266e+01 3.148238e+01 2.403287e+02 8.261109e+01 1.435328e+01 5.715652e+01 2.245703e+02 2.923618e+02 8.280462e+02 9.087630e+02 1.156117e+02 9.972879e-01 1.633468e-01 8.175542e-02 8.076683e-02 4.394744e-02 1.188667e+00
<GCONST> 1.460001e+02
<MIXTURE> 2 2.287504e-01
<MEAN> 33
 1.694676e+02 1.362368e+02 1.141424e+02 1.364206e+02 1.729102e+02 1.742366e+02 1.349356e+02 1.363929e+02 8.867153e+01 1.566441e+02 1.734765e+02 3.016644e+00 1.741173e+02 1.616642e+02 1.633441e+02 1.658174e+02 1.700521e+02 1.283440e+01 9.369148e+01 1.509946e+02 1.662499e+02 1.564180e+02 9.846806e+01 1.440566e+02 9.393781e+01 7.574492e+01 1.601147e+02 5.030213e+00 3.485737e+00 2.897560e+00 2.592902e+00 2.759321e+00 4.780540e+00
<VARIANCE> 33
 6.471182e+01 3.221674e+01 7.080836e+01 2.883562e+01 3.673259e+01 1.738846e+01 2.822034e+01 2.062020e+01 3.712931e+01 1.161189e+02 2.661857e+01 6.369091e+00 1.733876e+01 4.415137e+01 3.710880e+01 1.258392e+02 5.421815e+01 1.203743e+02 1.228881e+03 3.486875e+02 3.125106e+01 1.597022e+02 8.014056e+02 4.755327e+02 1.616220e+03 1.840193e+03 2.377841e+02 4.144245e+00 2.124735e+00 3.609004e-01 2.522644e-01 1.503269e+00 2.306310e+00
<GCONST> 1.818481e+02
<MIXTURE> 3 2.287504e-01
<MEAN> 33
 1.694676e+02 1.362368e+02 1.141424e+02 1.364206e+02 1.729102e+02 1.742366e+02 1.349356e+02 1.363929e+02 8.867153e+01 1.566441e+02 1.734765e+02 3.016644e+00 1.741173e+02 1.616642e+02 1.633441e+02 1.658174e+02 1.700521e+02 1.283440e+01 9.369148e+01 1.509946e+02 1.662499e+02 1.564180e+02 9.846806e+01 1.440566e+02 9.393781e+01 7.574492e+01 1.601147e+02 5.030213e+00 3.485737e+00 2.897560e+00 2.592902e+00 2.759321e+00 4.780540e+00
<VARIANCE> 33
 6.471182e+01 3.221674e+01 7.080836e+01 2.883562e+01 3.673259e+01 1.738846e+01 2.822034e+01 2.062020e+01 3.712931e+01 1.161189e+02 2.661857e+01 6.369091e+00 1.733876e+01 4.415137e+01 3.710880e+01 1.258392e+02 5.421815e+01 1.203743e+02 1.228881e+03 3.486875e+02 3.125106e+01 1.597022e+02 8.014056e+02 4.755327e+02 1.616220e+03 1.840193e+03 2.377841e+02 4.144245e+00 2.124735e+00 3.609004e-01 2.522644e-01 1.503269e+00 2.306310e+00
<GCONST> 1.818481e+02
<MIXTURE> 4 1.967376e-01
<MEAN> 33
 1.234066e+02 1.606123e+02 1.089295e+02 1.424165e+02 1.655680e+02 1.745515e+02 1.161627e+02 1.321787e+02 1.092060e+02 1.284019e+02 1.580222e+02 4.510376e+00 1.711109e+02 1.518514e+02 1.638529e+02 1.496962e+02 1.607527e+02 2.963584e+01 4.701223e+01 1.548170e+02 1.671348e+02 1.473174e+02 8.782222e+01 1.271023e+02 1.160228e+02 4.954158e+01 1.497041e+02 3.489412e+00 5.037738e+00 2.069061e+00 2.188747e+00 2.682056e+00 3.636703e+00
<VARIANCE> 33
 7.352684e+02 2.667027e+02 1.539553e+02 1.435135e+02 4.303537e+02 1.491226e+01 2.608844e+02 2.563934e+02 6.049124e+02 4.480318e+02 1.068663e+02 4.830211e+01 1.083345e+02 3.037520e+02 3.771422e+01 6.682333e+02 7.120953e+02 6.453864e+02 1.396066e+03 2.139137e+02 3.681898e+01 2.139074e+02 1.078698e+03 9.260511e+02 1.677345e+03 1.109310e+03 1.524207e+03 3.829967e+00 2.492455e+00 5.040964e-01 4.607239e-01 1.262591e+00 4.818706e+00
<GCONST> 2.171107e+02
<TRANSP> 5
 0.000000e+00 1.000000e+00 0.000000e+00 0.000000e+00 0.000000e+00
 0.000000e+00 9.332226e-01 6.677740e-02 0.000000e+00 0.000000e+00
 0.000000e+00 0.000000e+00 9.471533e-01 5.284678e-02 0.000000e+00
 0.000000e+00 0.000000e+00 0.000000e+00 9.196851e-01 8.031486e-02
 0.000000e+00 0.000000e+00 0.000000e+00 0.000000e+00 0.000000e+00
<ENDHMM>
~h "FN"
<BEGINHMM>
<NUMSTATES> 5
<STATE> 2
<NUMMIXES> 4
<MIXTURE> 1 3.204968e-01
<MEAN> 33
 1.729311e+02 1.369294e+02 1.091956e+02 1.376422e+02 1.745291e+02 1.754483e+02 1.351107e+02 1.342883e+02 9.060102e+01 1.571196e+02 1.753578e+02 1.738972e+00 1.748804e+02 1.629905e+02 1.619247e+02 1.635402e+02 1.663081e+02 1.304599e+01 9.752977e+01 1.527113e+02 1.694261e+02 1.623609e+02 1.157421e+02 1.580126e+02 6.954610e+01 9.425961e+01 1.545011e+02 4.894172e+00 2.682578e+00 2.775381e+00 2.526175e+00 2.385475e+00 4.947466e+00
<VARIANCE> 33
 3.902650e+01 2.440798e+01 7.575311e+01 3.025512e+01 3.037716e+01 1.338205e+01 2.822034e+01 2.062020e+01 3.516381e+01 1.174344e+02 2.125595e+01 5.385782e+00 1.968187e+01 7.045452e+01 5.010405e+01 1.605846e+02 9.084752e+01 1.471236e+02 1.057219e+03 2.680093e+02 2.554364e+01 1.352627e+02 7.814175e+02 2.963501e+02 9.446409e+02 1.269640e+03 3.619466e+02 5.505807e+00 1.294897e+00 3.407445e-01 3.827129e-01 6.972898e-01 2.796569e+00
<GCONST> 1.799529e+02
<MIXTURE> 2 2.505381e-01
<MEAN> 33
 1.711088e+02 1.403405e+02 1.097723e+02 1.486100e+02 3.044020e+01 1.747792e+02 1.344368e+02 2.371838e+01 1.539454e+02 1.569042e+02 1.704942e+02 2.862297e+00 1.415883e+02 7.546377e+01 1.665867e+02 1.685296e+02 4.102779e+01 1.294951e+02 8.893865e+01 1.510077e+02 1.697817e+02 1.297186e+02 1.004984e+02 1.045126e+02 6.953024e+01 7.649963e+01 1.048587e+02 3.613168e+00 2.503324e+00 2.517198e+00 3.109838e+00 3.657822e+00 7.024773e+00
<VARIANCE> 33
 3.902650e+01 3.792305e+01 1.154385e+02 2.531695e+02 8.802698e+02 1.513676e+01 2.822034e+01 3.169781e+02 1.238807e+02 5.057142e+01 7.223754e+01 9.866126e+00 6.678679e+02 5.699746e+02 4.050045e+01 8.971014e+01 1.924191e+02 2.400542e+02 5.105059e+02 2.460563e+02 5.115673e+01 6.016406e+02 1.027849e+03 2.568672e+03 2.720065e+03 1.882490e+03 3.815523e+02 1.049647e+00 3.046116e-01 1.892797e-01 6.693437e-01 1.242263e+00 1.147018e+00
<GCONST> 1.993314e+02
<MIXTURE> 3 2.505381e-01
<MEAN> 33
 1.711088e+02 1.403405e+02 1.097723e+02 1.486100e+02 3.044020e+01 1.747792e+02 1.344368e+02 2.371838e+01 1.539454e+02 1.569042e+02 1.704942e+02 2.862297e+00 1.415883e+02 7.546377e+01 1.665867e+02 1.685296e+02 4.102779e+01 1.294951e+02 8.893865e+01 1.510077e+02 1.697817e+02 1.297186e+02 1.004984e+02 1.045126e+02 6.953024e+01 7.649963e+01 1.048587e+02 3.613168e+00 2.503324e+00 2.517198e+00 3.109838e+00 3.657822e+00 7.024773e+00
<VARIANCE> 33
 3.902650e+01 3.792305e+01 1.154385e+02 2.531695e+02 8.802698e+02 1.513676e+01 2.822034e+01 3.169781e+02 1.238807e+02 5.057142e+01 7.223754e+01 9.866126e+00 6.678679e+02 5.699746e+02 4.050045e+01 8.971014e+01 1.924191e+02 2.400542e+02 5.105059e+02 2.460563e+02 5.115673e+01 6.016406e+02 1.027849e+03 2.568672e+03 2.720065e+03 1.882490e+03 3.815523e+02 1.049647e+00 3.046116e-01 1.892797e-01 6.693437e-01 1.242263e+00 1.147018e+00
<GCONST> 1.993314e+02
<MIXTURE> 4 1.784261e-01
<MEAN> 33
 1.295314e+02 1.348963e+02 1.112177e+02 1.441832e+02 1.008448e+02 1.731253e+02 1.034252e+02 8.642649e+01 1.222247e+02 1.298581e+02 1.650080e+02 4.924795e+00 1.615772e+02 1.118176e+02 1.620208e+02 1.206943e+02 9.654295e+01 7.450362e+01 8.126628e+01 1.209888e+02 1.677085e+02 1.510135e+02 7.892815e+01 1.334295e+02 6.508691e+01 7.304919e+01 8.853100e+01 4.612643e+00 2.684450e+00 3.024772e+00 2.938709e+00 3.603673e+00 5.664272e+00
<VARIANCE> 33
 2.488793e+03 1.265449e+02 8.640404e+01 1.723754e+02 3.737726e+03 4.208175e+01 2.386871e+03 2.525313e+03 1.568738e+03 1.301113e+03 1.592656e+02 7.711476e+01 3.884735e+02 1.393300e+03 4.834625e+01 2.303918e+03 2.281258e+03 1.858070e+03 1.739367e+03 1.394635e+03 6.115277e+01 3.238776e+02 1.251535e+03 1.908559e+03 2.469215e+03 1.916649e+03 1.379444e+03 4.627754e+00 1.370635e+00 4.630134e-01 3.238638e-01 1.434443e+00 4.646579e+00
<GCONST> 2.382515e+02
<STATE> 3
<NUMMIXES> 4
<MIXTURE> 1 2.634521e-01
<MEAN> 33
 8.804550e+01 1.399553e+02 1.122714e+02 1.348908e+02 1.746809e+02 1.765097e+02 6.648308e+01 1.359417e+02 1.459726e+02 1.143754e+02 1.521308e+02 2.072337e+00 1.748262e+02 1.625929e+02 1.670739e+02 7.959634e+01 1.644268e+02 8.857465e+01 1.175188e+02 1.275615e+02 1.705926e+02 1.628928e+02 1.083222e+02 1.302117e+02 5.110826e+01 8.474815e+01 1.019552e+02 8.419775e+00 2.797533e+00 3.229029e+00 2.522583e+00 2.106718e+00 3.450912e+00
<VARIANCE> 33
 2.212008e+03 1.830613e+02 6.332233e+01 1.618311e+01 3.037716e+01 8.682000e+00 1.316724e+03 2.062020e+01 7.194929e+02 4.231635e+02 3.604210e+02 3.291393e+00 1.302119e+01 2.635467e+01 6.259949e+01 3.238992e+02 7.185271e+01 4.064244e+02 2.219337e+03 7.167652e+02 2.916274e+01 1.675778e+02 5.647795e+02 1.728973e+03 1.142862e+03 2.668469e+03 4.604372e+02 1.160391e+00 1.184852e+00 2.536775e-01 7.958806e-02 1.451416e-01 5.880243e-01
<GCONST> 1.936033e+02
<MIXTURE> 2 4.173785e-01
<MEAN> 33
 2.301820e+01 1.315604e+02 1.106751e+02 1.357806e+02 1.751017e+02 1.752740e+02 1.008044e+01 1.347598e+02 1.441275e+02 6.672104e+01 1.450606e+02 1.414734e+00 1.743670e+02 1.626567e+02 1.669155e+02 3.885215e+01 1.618199e+02 1.233986e+02 1.234805e+02 1.042015e+02 1.699018e+02 1.663906e+02 1.100202e+02 1.217491e+02 6.318259e+01 8.184192e+01 8.373220e+01 6.492589e+00 2.935355e+00 3.281447e+00 2.871725e+00 2.178687e+00 3.641099e+00
<VARIANCE> 33
 1.360337e+02 1.296432e+02 4.296672e+01 1.868381e+01 3.037716e+01 1.626727e+01 4.291011e+01 2.062020e+01 6.033562e+01 2.215585e+02 3.451788e+02 1.199031e+00 1.414598e+01 1.859605e+01 4.491261e+01 7.039019e+01 8.155673e+01 1.093344e+02 6.688997e+02 3.808519e+02 3.395943e+01 8.645067e+01 3.210034e+02 2.448064e+03 2.200787e+03 2.551654e+03 1.617909e+02 1.180288e+00 9.493154e-01 4.631955e-01 2.995908e-01 1.249037e-01 9.391764e-01
<GCONST> 1.789875e+02
<MIXTURE> 3 1.830832e-01
<MEAN> 33
 1.903155e+01 1.390432e+02 1.259170e+02 1.296670e+02 1.689776e+02 1.764269e+02 1.313667e+01 1.373714e+02 1.502132e+02 6.935518e+01 1.357079e+02 5.994885e+00 1.708517e+02 1.632262e+02 1.662310e+02 3.744897e+01 1.699939e+02 1.415357e+02 1.001853e+02 1.143419e+02 1.705937e+02 1.528705e+02 1.029556e+02 1.275316e+02 5.469027e+01 1.046969e+02 1.067005e+02 6.509805e+00 4.226651e+00 3.998066e+00 2.723855e+00 2.807284e+00 3.703139e+00
<VARIANCE> 33
 1.705578e+02 4.033894e+02 6.525806e+01 3.553914e+01 3.037716e+01 1.035394e+01 5.733632e+01 2.062020e+01 7.830652e+01 1.455744e+02 1.665432e+02 4.104546e+01 1.057988e+02 7.604157e+01 3.047805e+01 6.695473e+01 5.543686e+01 1.442339e+02 4.317779e+02 4.615884e+02 2.959760e+01 1.398427e+02 1.218167e+03 9.998799e+02 1.083938e+03 3.316329e+03 2.984914e+02 2.077186e+00 5.907103e-01 4.063387e-01 9.222206e-02 2.069757e-01 3.862701e-01
<GCONST> 1.858673e+02
<MIXTURE> 4 1.360857e-01
<MEAN> 33
