~o
<STREAMINFO> 1 33
<VECSIZE> 33<NULLD><USER><DIAGC>
~h "BN"
<BEGINHMM>
<NUMSTATES> 5
<STATE> 2
<NUMMIXES> 4
<MIXTURE> 1 3.103408e-01
<MEAN> 33
 1.743895e+02 1.388408e+02 1.045764e+02 1.397416e+02 1.762091e+02 1.769629e+02 1.353493e+02 1.340928e+02 9.055793e+01 1.603745e+02 1.765091e+02 9.534990e-01 1.756513e+02 1.624453e+02 1.646141e+02 1.669372e+02 1.705825e+02 8.043281e+00 1.050176e+02 1.614482e+02 1.695295e+02 1.635788e+02 1.098563e+02 1.617686e+02 6.940022e+01 9.276615e+01 1.606130e+02 4.344318e+00 2.299690e+00 2.567114e+00 2.388041e+00 2.266329e+00 4.677043e+00
<VARIANCE> 33
 3.902650e+01 1.755775e+01 4.588232e+01 2.763741e+01 3.037716e+01 3.775845e+00 2.822034e+01 2.062020e+01 1.886277e+01 3.413971e+01 9.103967e+00 5.357184e-01 8.003945e+00 3.200960e+01 4.174757e+01 6.452831e+01 5.261155e+01 3.148238e+01 3.960109e+02 9.089965e+01 2.559564e+01 1.025641e+02 3.580793e+02 1.856456e+02 6.106755e+02 8.135554e+02 1.975606e+02 4.598226e+00 3.755744e-01 2.464019e-01 3.693037e-01 3.093756e-01 2.852169e+00
<GCONST> 1.602379e+02
<MIXTURE> 2 1.308863e-01
<MEAN> 33
 1.479521e+02 1.371641e+02 1.106088e+02 1.362296e+02 1.750494e+02 1.766984e+02 1.241240e+02 1.347240e+02 1.007526e+02 1.213665e+02 1.751191e+02 9.983634e-01 1.756115e+02 1.609204e+02 1.613646e+02 1.192701e+02 1.664175e+02 4.855848e+01 5.505103e+01 1.578827e+02 1.689271e+02 1.638165e+02 1.005494e+02 1.590058e+02 4.541365e+01 7.498016e+01 1.174970e+02 8.719586e+00 3.075359e+00 3.029606e+00 2.595081e+00 2.117089e+00 4.229793e+00
<VARIANCE> 33
 3.662575e+02 2.117539e+01 4.043563e+01 1.333829e+01 3.037716e+01 7.795434e+00 2.368710e+02 2.062020e+01 2.880007e+02 2.144172e+02 1.638614e+01 6.404881e-01 6.584748e+00 3.771980e+01 4.100285e+01 3.527729e+02 6.527888e+01 4.523730e+02 2.632308e+02 1.512797e+02 2.415782e+01 8.942876e+01 5.084018e+02 2.317917e+02 5.616206e+02 7.542946e+02 2.822036e+02 1.490800e+00 5.311248e-01 1.029540e-01 7.304908e-02 9.170238e-02 9.667550e-01
<GCONST> 1.696268e+02
<MIXTURE> 3 2.123953e-01
<MEAN> 33
 1.722326e+02 1.357452e+02 1.128902e+02 1.379532e+02 1.702699e+02 1.757590e+02 1.344682e+02 1.338275e+02 9.170435e+01 1.567908e+02 1.694180e+02 1.742902e+00 1.728362e+02 1.588454e+02 1.607288e+02 1.602271e+02 1.599784e+02 2.171014e+01 1.007237e+02 1.408463e+02 1.707026e+02 1.519070e+02 1.084232e+02 1.435975e+02 9.531129e+01 8.174503e+01 1.493226e+02 5.198923e+00 3.542617e+00 2.904870e+00 2.721870e+00 2.949983e+00 5.136413e+00
<VARIANCE> 33
 3.902650e+01 3.199243e+01 6.687966e+01 4.346750e+01 5.569635e+01 1.213886e+01 3.507594e+01 3.410556e+01 8.064235e+01 1.593248e+02 6.167088e+01 1.834715e+00 3.333838e+01 2.437894e+02 3.096643e+01 2.422223e+02 2.152032e+02 3.032775e+02 1.883692e+03 3.833231e+02 3.646005e+01 2.417868e+02 1.797041e+03 8.142447e+02 2.293712e+03 2.188760e+03 5.993790e+02 3.858379e+00 2.741263e+00 5.453212e-01 2.388377e-01 1.192715e+00 4.276253e+00
<GCONST> 1.931044e+02
<MIXTURE> 4 3.463770e-01
<MEAN> 33
 7.475090e+01 1.464792e+02 1.126286e+02 1.482354e+02 1.169124e+02 1.742310e+02 5.861048e+01 9.986772e+01 1.121292e+02 9.997779e+01 1.466101e+02 2.971528e+00 1.673403e+02 1.351838e+02 1.647740e+02 7.198278e+01 1.116989e+02 8.719899e+01 9.154107e+01 1.307195e+02 1.711299e+02 1.531669e+02 5.779836e+01 1.186663e+02 5.786219e+01 9.904166e+01 9.779160e+01 5.178411e+00 3.766582e+00 3.384910e+00 2.706873e+00 3.757584e+00 4.020269e+00
<VARIANCE> 33
 3.993225e+03 2.655070e+02 7.005597e+01 3.739498e+02 1.749798e+03 1.995550e+01 2.913838e+03 1.659097e+03 2.043948e+03 1.696275e+03 7.309344e+02 1.613184e+01 1.452278e+02 1.367369e+03 3.406589e+01 3.043448e+03 1.978462e+03 3.018013e+03 1.795080e+03 6.314295e+02 5.222158e+01 4.698116e+02 1.838282e+03 2.076792e+03 1.766581e+03 3.137816e+03 2.459446e+03 3.743555e+00 2.200956e+00 6.114918e-01 5.899923e-01 9.938250e-01 2.538811e+00
<GCONST> 2.388882e+02
<STATE> 3
<NUMMIXES> 4
<MIXTURE> 1 2.044465e-01
<MEAN> 33
 5.945050e+01 1.530743e+02 1.132707e+02 1.351823e+02 1.712950e+02 1.766117e+02 5.112885e+01 1.367368e+02 1.493663e+02 9.183321e+01 1.549949e+02 3.030820e+00 1.746602e+02 1.627293e+02 1.619541e+02 6.424810e+01 1.674774e+02 1.160910e+02 8.185665e+01 1.448197e+02 1.683382e+02 1.537219e+02 1.087630e+02 1.439342e+02 3.113843e+01 1.098720e+02 1.191732e+02 7.910109e+00 3.575543e+00 3.524458e+00 2.539915e+00 2.462205e+00 3.380492e+00
<VARIANCE> 33
 2.530422e+03 2.823381e+02 8.325443e+01 1.599631e+01 3.850322e+01 9.219467e+00 1.493799e+03 2.062020e+01 6.049326e+02 8.633717e+02 2.191438e+02 8.824774e+00 1.236769e+01 2.996416e+01 2.913814e+01 8.812542e+02 5.592647e+01 1.336837e+03 8.428350e+02 5.354924e+02 2.980825e+01 1.717489e+02 9.952939e+02 6.097605e+02 4.189628e+02 2.370830e+03 5.042771e+02 1.549906e+00 1.149320e+00 4.768676e-01 1.298843e-01 3.248967e-01 6.049235e-01
<GCONST> 1.966323e+02
<MIXTURE> 2 3.313997e-01
<MEAN> 33
 1.813883e+01 1.646386e+02 1.057109e+02 1.363424e+02 1.748569e+02 1.761794e+02 1.609625e+01 1.356208e+02 1.517163e+02 6.407452e+01 1.366921e+02 2.021523e+00 1.749731e+02 1.635828e+02 1.624725e+02 2.802431e+01 1.659508e+02 1.395952e+02 7.768943e+01 1.371958e+02 1.698565e+02 1.630820e+02 1.091083e+02 1.156719e+02 5.297503e+01 1.077119e+02 1.073684e+02 5.630809e+00 4.091149e+00 2.986124e+00 2.899080e+00 2.199512e+00 4.422495e+00
<VARIANCE> 33
 8.186428e+01 1.921608e+02 6.220768e+01 1.616875e+01 3.037716e+01 9.963943e+00 2.822034e+01 2.062020e+01 3.295877e+01 2.545030e+02 4.856718e+02 3.575735e+00 1.857803e+01 2.225603e+01 3.233927e+01 3.071743e+01 7.637917e+01 1.531884e+02 2.451454e+02 2.594533e+02 5.336717e+01 1.119137e+02 3.945386e+02 1.732309e+03 1.590064e+03 2.508322e+03 2.315176e+02 6.823688e-01 1.023144e+00 5.607104e-01 2.188292e-01 1.059880e-01 1.101121e+00
<GCONST> 1.773216e+02
<MIXTURE> 3 3.313997e-01
<MEAN> 33
 1.813883e+01 1.646386e+02 1.057109e+02 1.363424e+02 1.748569e+02 1.761794e+02 1.609625e+01 1.356208e+02 1.517163e+02 6.407452e+01 1.366921e+02 2.021523e+00 1.749731e+02 1.635828e+02 1.624725e+02 2.802431e+01 1.659508e+02 1.395952e+02 7.768943e+01 1.371958e+02 1.698565e+02 1.630820e+02 1.091083e+02 1.156719e+02 5.297503e+01 1.077119e+02 1.073684e+02 5.630809e+00 4.091149e+00 2.986124e+00 2.899080e+00 2.199512e+00 4.422495e+00
<VARIANCE> 33
 8.186428e+01 1.921608e+02 6.220768e+01 1.616875e+01 3.037716e+01 9.963943e+00 2.822034e+01 2.062020e+01 3.295877e+01 2.545030e+02 4.856718e+02 3.575735e+00 1.857803e+01 2.225603e+01 3.233927e+01 3.071743e+01 7.637917e+01 1.531884e+02 2.451454e+02 2.594533e+02 5.336717e+01 1.119137e+02 3.945386e+02 1.732309e+03 1.590064e+03 2.508322e+03 2.315176e+02 6.823688e-01 1.023144e+00 5.607104e-01 2.188292e-01 1.059880e-01 1.101121e+00
<GCONST> 1.773216e+02
<MIXTURE> 4 1.327536e-01
<MEAN> 33
 3.727683e+01 1.581236e+02 1.172396e+02 1.363181e+02 1.493446e+02 1.753078e+02 3.168719e+01 1.265779e+02 1.515653e+02 6.024294e+01 1.467399e+02 1.394248e+01 1.578776e+02 1.444806e+02 1.611528e+02 3.958015e+01 1.415102e+02 1.222591e+02 6.326754e+01 1.531030e+02 1.580628e+02 1.526033e+02 8.162891e+01 6.519160e+01 9.743282e+01 1.187777e+02 1.048979e+02 4.769683e+00 4.156886e+00 2.151870e+00 2.879793e+00 3.231257e+00 4.987044e+00
<VARIANCE> 33
 1.995635e+03 2.644145e+02 1.508131e+02 1.580128e+02 1.123920e+03 1.218554e+01 1.131055e+03 6.673784e+02 2.935345e+02 1.457189e+03 6.790666e+02 1.795837e+02 1.794653e+02 8.084078e+02 4.270812e+01 1.727022e+03 1.135253e+03 9.734683e+02 3.622586e+02 2.925440e+02 2.959471e+02 1.862077e+02 1.361155e+03 1.803642e+03 2.105320e+03 1.485077e+03 6.686800e+02 2.064498e+00 1.506747e+00 5.649379e-01 4.254233e-01 1.201407e+00 3.884557e+00
<GCONST> 2.285627e+02
<STATE> 4
<NUMMIXES> 4
<MIXTURE> 1 4.567424e-01
<MEAN> 33
 1.719871e+02 1.373726e+02 1.104389e+02 1.373903e+02 1.733206e+02 1.762239e+02 1.357640e+02 1.358017e+02 8.843432e+01 1.598131e+02 1.718352e+02 1.944906e+00 1.738461e+02 1.633325e+02 1.617114e+02 1.603850e+02 1.669977e+02 1.725109e+01 1.080543e+02 1.505293e+02 1.681350e+02 1.586050e+02 1.097109e+02 1.499394e+02 8.495874e+01 8.443166e+01 1.516430e+02 5.444221e+00 2.954505e+00 2.901296e+00 2.695859e+00 2.546541e+00 4.785790e+00
<VARIANCE> 33
 5.729045e+01 3.390551e+01 6.479504e+01 3.889367e+01 3.514060e+01 1.151489e+01 2.822034e+01 2.062020e+01 3.835051e+01 1.343252e+02 4.780201e+01 5.252130e+00 2.541882e+01 5.636757e+01 3.550830e+01 2.331902e+02 8.624876e+01 1.873657e+02 1.452318e+03 3.809383e+02 2.630744e+01 2.063248e+02 8.534219e+02 7.775944e+02 1.480384e+03 1.573510e+03 4.873995e+02 4.574595e+00 1.536713e+00 3.105603e-01 2.835094e-01 8.482133e-01 2.714216e+00
<GCONST> 1.849077e+02
<MIXTURE> 2 1.191178e-01
<MEAN> 33
 1.718205e+02 1.358613e+02 1.155448e+02 1.500926e+02 2.932037e+01 1.709726e+02 1.370394e+02 3.536819e+01 1.631418e+02 1.583271e+02 1.736018e+02 1.304203e+01 1.312288e+02 7.239248e+01 1.602780e+02 1.671740e+02 4.189190e+01 1.260521e+02 7.851343e+01 1.445306e+02 1.631143e+02 1.440830e+02 7.014821e+01 1.300964e+02 6.377348e+01 8.222961e+01 1.119738e+02 2.496954e+00 2.190258e+00 2.661427e+00 2.713684e+00 4.354331e+00 6.386598e+00
<VARIANCE> 33
 3.902650e+01 5.214684e+01 1.260348e+02 6.094442e+02 9.434095e+02 3.319421e+01 2.822034e+01 3.529525e+02 1.056224e+02 5.326385e+01 2.381667e+01 2.784322e+02 1.080389e+03 6.925859e+02 1.086889e+02 6.393229e+01 3.790828e+02 3.214714e+02 9.708154e+02 6.158991e+02 8.825369e+01 4.394097e+02 4.714914e+02 1.806974e+03 1.650378e+03 2.634753e+03 1.991526e+02 1.934199e+00 3.586714e-01 3.324253e-01 6.251435e-01 2.372344e+00 2.119876e+00
<GCONST> 2.083728e+02
<MIXTURE> 3 2.856812e-01
<MEAN> 33
 1.707708e+02 1.387828e+02 1.093285e+02 1.625481e+02 2.084616e+01 1.758522e+02 1.353947e+02 1.989982e+01 1.552946e+02 1.578607e+02 1.701259e+02 1.846478e+00 1.407146e+02 5.817640e+01 1.653201e+02 1.663053e+02 2.598285e+01 1.416265e+02 9.057603e+01 1.552905e+02 1.683605e+02 1.425757e+02 6.969473e+01 9.496558e+01 9.913590e+01 7.578634e+01 1.150143e+02 4.501484e+00 2.668430e+00 2.627586e+00 2.792215e+00 4.283499e+00 5.862846e+00
<VARIANCE> 33
 3.902650e+01 3.594740e+01 8.414362e+01 1.889102e+02 2.013005e+02 1.058468e+01 2.822034e+01 3.136255e+01 4.057674e+01 4.039431e+01 8.193010e+01 2.398729e+00 7.188314e+02 2.730041e+02 5.038122e+01 9.805051e+01 4.476699e+01 1.068602e+02 4.713355e+02 1.820051e+02 6.193808e+01 4.204579e+02 3.914231e+02 3.145306e+03 2.194508e+03 2.410102e+03 1.983673e+02 1.458323e+00 2.347795e-01 2.544596e-01 7.875211e-01 9.147464e-01 1.632341e+00
<GCONST> 1.879112e+02
<MIXTURE> 4 1.384584e-01
<MEAN> 33
 1.265447e+02 1.448633e+02 1.119250e+02 1.424036e+02 1.073766e+02 1.748839e+02 1.027803e+02 8.464445e+01 1.048040e+02 1.227287e+02 1.615271e+02 5.980712e+00 1.547160e+02 1.124490e+02 1.655921e+02 1.157294e+02 9.096973e+01 5.913372e+01 8.286259e+01 1.429764e+02 1.690564e+02 1.458643e+02 8.695924e+01 1.037554e+02 9.902486e+01 6.632764e+01 1.079260e+02 4.579215e+00 3.051605e+00 2.583985e+00 2.838271e+00 3.524557e+00 5.720631e+00
<VARIANCE> 33
 2.902002e+03 1.827454e+02 1.361098e+02 1.161392e+03 3.605564e+03 1.789264e+01 1.882284e+03 2.357999e+03 1.427061e+03 2.024508e+03 2.603289e+02 8.456448e+01 7.931588e+02 1.793000e+03 4.452409e+01 2.939418e+03 2.864568e+03 1.668452e+03 1.608801e+03 3.605237e+02 5.614183e+01 1.198203e+03 1.604206e+03 2.596913e+03 2.763845e+03 2.057159e+03 1.935197e+03 3.158237e+00 9.029778e-01 4.890496e-01 8.785989e-01 1.883198e+00 5.346592e+00
<GCONST> 2.436517e+02
<TRANSP> 5
 0.000000e+00 1.000000e+00 0.000000e+00 0.000000e+00 0.000000e+00
 0.000000e+00 8.567601e-01 1.432399e-01 0.000000e+00 0.000000e+00
 0.000000e+00 0.000000e+00 9.544059e-01 4.559413e-02 0.000000e+00
 0.000000e+00 0.000000e+00 0.000000e+00 9.514481e-01 4.855185e-02
 0.000000e+00 0.000000e+00 0.000000e+00 0.000000e+00 0.000000e+00
<ENDHMM>
~h "BS"
<BEGINHMM>
<NUMSTATES> 5
<STATE> 2
<NUMMIXES> 4
<MIXTURE> 1 2.609592e-01
<MEAN> 33
 1.732464e+02 1.369851e+02 1.079353e+02 1.380819e+02 1.749810e+02 1.763506e+02 1.354290e+02 1.346980e+02 8.987299e+01 1.566886e+02 1.751278e+02 1.049916e+00 1.749609e+02 1.600862e+02 1.625074e+02 1.606825e+02 1.655487e+02 9.874240e+00 1.002775e+02 1.584002e+02 1.701244e+02 1.625136e+02 1.050156e+02 1.592563e+02 7.477620e+01 8.196667e+01 1.489266e+02 5.291568e+00 2.639008e+00 2.693832e+00 2.550347e+00 2.245822e+00 4.842881e+00
<VARIANCE> 33
 3.902650e+01 2.162020e+01 5.624512e+01 3.114764e+01 3.037716e+01 1.143647e+01 2.822034e+01 2.062020e+01 2.660239e+01 1.127096e+02 2.009137e+01 1.257634e+00 1.735960e+01 7.519919e+01 4.161008e+01 1.360128e+02 1.028670e+02 8.128058e+01 9.108644e+02 2.123132e+02 2.537517e+01 1.756733e+02 6.203492e+02 3.177799e+02 1.037898e+03 9.688247e+02 4.004186e+02 3.954948e+00 7.837372e-01 3.107507e-01 2.786892e-01 5.263440e-01 3.586303e+00
<GCONST> 1.750553e+02
<MIXTURE> 2 2.023311e-01
<MEAN> 33
 1.115121e+02 1.366558e+02 1.157705e+02 1.393098e+02 1.224739e+02 1.753714e+02 9.926423e+01 1.042779e+02 1.131086e+02 1.152508e+02 1.646804e+02 3.969748e+00 1.618765e+02 1.194612e+02 1.600126e+02 9.445127e+01 9.696556e+01 1.292010e+01 9.400618e+01 1.362293e+02 1.699935e+02 1.507426e+02 9.229957e+01 1.469845e+02 4.047350e+01 5.665861e+01 5.436071e+01 5.521412e+00 2.884012e+00 3.092112e+00 3.022940e+00 2.997768e+00 5.319826e+00
<VARIANCE> 33
 1.345144e+03 8.352608e+01 1.010994e+02 1.091345e+02 9.988689e+02 1.954339e+01 1.550178e+03 1.159311e+03 2.229288e+03 2.491906e+02 1.222347e+02 1.812437e+02 2.723414e+02 2.538056e+02 4.001265e+01 4.986530e+02 5.004496e+02 2.301122e+02 1.849859e+03 8.293179e+02 3.172093e+01 4.149339e+02 1.379753e+03 9.660635e+02 1.254472e+03 1.667109e+03 1.278443e+03 2.438092e+00 9.631252e-01 4.015262e-01 3.231677e-01 1.032046e+00 1.815082e+00
<GCONST> 2.207787e+02
<MIXTURE> 3 2.023311e-01
<MEAN> 33
 1.115121e+02 1.366558e+02 1.157705e+02 1.393098e+02 1.224739e+02 1.753714e+02 9.926423e+01 1.042779e+02 1.131086e+02 1.152508e+02 1.646804e+02 3.969748e+00 1.618765e+02 1.194612e+02 1.600126e+02 9.445127e+01 9.696556e+01 1.292010e+01 9.400618e+01 1.362293e+02 1.699935e+02 1.507426e+02 9.229957e+01 1.469845e+02 4.047350e+01 5.665861e+01 5.436071e+01 5.521412e+00 2.884012e+00 3.092112e+00 3.022940e+00 2.997768e+00 5.319826e+00
<VARIANCE> 33
 1.345144e+03 8.352608e+01 1.010994e+02 1.091345e+02 9.988689e+02 1.954339e+01 1.550178e+03 1.159311e+03 2.229288e+03 2.491906e+02 1.222347e+02 1.812437e+02 2.723414e+02 2.538056e+02 4.001265e+01 4.986530e+02 5.004496e+02 2.301122e+02 1.849859e+03 8.293179e+02 3.172093e+01 4.149339e+02 1.379753e+03 9.660635e+02 1.254472e+03 1.667109e+03 1.278443e+03 2.438092e+00 9.631252e-01 4.015262e-01 3.231677e-01 1.032046e+00 1.815082e+00
<GCONST> 2.207787e+02
<MIXTURE> 4 3.343785e-01
<MEAN> 33
 7.370562e+01 1.332938e+02 1.106810e+02 1.386490e+02 7.028006e+01 1.739203e+02 3.591365e+01 3.545349e+01 5.092968e+01 1.053151e+02 1.514960e+02 2.285009e+00 1.539821e+02 1.063438e+02 1.626574e+02 6.827779e+01 6.926179e+01 7.265402e+00 1.136269e+02 1.095794e+02 1.689578e+02 1.263603e+02 9.901061e+01 1.285593e+02 6.187589e+01 5.677395e+01 2.200953e+01 4.021736e+00 3.026835e+00 3.732291e+00 3.531792e+00 3.496989e+00 4.029896e+00
<VARIANCE> 33
 4.946070e+02 9.655445e+01 7.101255e+01 9.651868e+01 5.665541e+02 3.622913e+01 5.217465e+02 5.974376e+02 1.380242e+03 4.307904e+02 3.162138e+02 1.207597e+01 3.221161e+02 4.154403e+02 3.980666e+01 1.559898e+02 1.643954e+02 4.678288e+01 7.641544e+02 5.774639e+02 1.238526e+02 5.541199e+02 5.850116e+02 2.036117e+03 2.332848e+03 2.343105e+03 3.068130e+02 5.689041e-01 9.889060e-01 4.203862e-01 2.796209e-01 1.065666e+00 5.506482e-01
<GCONST> 2.099803e+02
<STATE> 3
<NUMMIXES> 4
<MIXTURE> 1 1.749555e-01
<MEAN> 33
 1.499887e+02 1.542661e+02 1.127404e+02 1.577580e+02 1.532632e+02 1.758593e+02 9.432705e+01 9.276930e+01 1.655010e+02 1.168106e+02 1.716879e+02 2.300453e+00 1.653376e+02 1.074102e+02 1.636795e+02 1.053721e+02 9.462395e+01 5.267806e+01 1.186170e+02 1.598519e+02 1.624696e+02 1.542324e+02 1.159295e+02 1.521580e+02 7.462309e+01 9.295573e+01 1.565498e+02 6.296026e+00 3.821862e+00 1.847922e+00 1.701766e+00 4.173648e+00 6.293777e+00
<VARIANCE> 33
 3.346830e+02 8.582058e+01 7.896559e+01 8.133655e+01 2.487607e+02 9.884603e+00 9.854390e+01 1.225864e+02 1.176340e+02 5.673220e+02 3.577396e+01 5.203391e+00 1.438788e+02 8.181931e+02 5.955521e+01 1.442568e+03 2.394288e+03 1.720505e+03 5.102310e+02 1.309525e+02 7.906989e+01 1.345494e+02 3.575421e+02 3.450942e+02 8.083907e+02 8.644330e+02 2.354248e+02 2.204156e+00 2.451657e+00 1.265606e-01 1.277925e-01 3.392433e+00 2.901358e+00
<GCONST> 2.023662e+02
<MIXTURE> 2 2.838078e-01
<MEAN> 33
 1.370768e+02 1.395613e+02 1.157027e+02 1.399657e+02 1.487577e+02 1.755872e+02 9.122786e+01 9.467792e+01 1.659517e+02 1.027203e+02 1.724408e+02 3.137647e+00 1.722247e+02 1.065154e+02 1.602138e+02 9.099024e+01 9.561062e+01 1.003337e+01 9.955677e+01 1.499883e+02 1.696698e+02 1.547602e+02 9.896185e+01 1.427018e+02 4.914396e+01 8.057603e+01 1.162938e+02 8.118871e+00 2.174350e+00 2.395371e+00 2.288640e+00 2.357656e+00 7.921235e+00
<VARIANCE> 33
 4.787514e+02 5.503120e+01 1.253077e+02 7.146934e+01 4.007595e+02 1.482493e+01 8.327419e+01 7.679898e+01 1.035581e+02 1.724700e+02 4.042103e+01 1.263179e+01 3.965786e+01 1.978325e+02 4.091241e+01 1.822057e+02 2.342226e+02 6.531468e+01 1.075834e+03 4.853282e+02 3.973198e+01 2.890800e+02 7.656848e+02 9.729911e+02 1.398632e+03 1.258691e+03 3.652164e+02 7.862613e-01 5.363359e-01 7.842590e-02 7.956553e-02 5.606924e-01 6.218169e-01
<GCONST> 1.902511e+02
<MIXTURE> 3 2.838078e-01
<MEAN> 33
 1.370768e+02 1.395613e+02 1.157027e+02 1.399657e+02 1.487577e+02 1.755872e+02 9.122786e+01 9.467792e+01 1.659517e+02 1.027203e+02 1.724408e+02 3.137647e+00 1.722247e+02 1.065154e+02 1.602138e+02 9.099024e+01 9.561062e+01 1.003337e+01 9.955677e+01 1.499883e+02 1.696698e+02 1.547602e+02 9.896185e+01 1.427018e+02 4.914396e+01 8.057603e+01 1.162938e+02 8.118871e+00 2.174350e+00 2.395371e+00 2.288640e+00 2.357656e+00 7.921235e+00
<VARIANCE> 33
 4.787514e+02 5.503120e+01 1.253077e+02 7.146934e+01 4.007595e+02 1.482493e+01 8.327419e+01 7.679898e+01 1.035581e+02 1.724700e+02 4.042103e+01 1.263179e+01 3.965786e+01 1.978325e+02 4.091241e+01 1.822057e+02 2.342226e+02 6.531468e+01 1.075834e+03 4.853282e+02 3.973198e+01 2.890800e+02 7.656848e+02 9.729911e+02 1.398632e+03 1.258691e+03 3.652164e+02 7.862613e-01 5.363359e-01 7.842590e-02 7.956553e-02 5.606924e-01 6.218169e-01
<GCONST> 1.902511e+02
<MIXTURE> 4 2.574285e-01
<MEAN> 33
 1.089981e+02 1.562076e+02 1.069051e+02 1.625231e+02 1.168511e+02 1.676559e+02 7.144936e+01 7.165247e+01 1.428648e+02 7.080179e+01 1.680878e+02 2.676740e+00 1.653046e+02 6.224989e+01 1.631659e+02 3.941693e+01 3.281173e+01 1.823450e+01 1.336717e+02 1.611543e+02 1.668926e+02 1.605709e+02 1.254686e+02 1.280662e+02 8.215803e+01 8.040883e+01 1.491752e+02 6.353835e+00 2.928007e+00 1.913643e+00 1.670353e+00 3.379346e+00 6.904651e+00
<VARIANCE> 33
 5.650887e+02 1.308893e+02 2.784548e+01 1.090813e+02 5.066215e+02 9.527020e+01 5.806314e+01 9.037296e+01 2.411422e+02 1.041824e+03 1.047964e+02 4.472889e+00 1.890792e+02 7.181454e+02 3.622239e+01 4.898010e+02 5.245105e+02 2.998225e+02 6.046542e+02 1.313732e+02 5.102489e+01 2.634951e+02 4.171446e+02 1.543007e+03 1.695263e+03 1.516175e+03 6.563502e+02 2.201778e+00 2.856408e+00 2.732657e-01 1.722466e-01 3.321103e+00 1.708549e+00
<GCONST> 2.073111e+02
<STATE> 4
<NUMMIXES> 4
<MIXTURE> 1 4.196667e-01
<MEAN> 33
 1.742571e+02 1.366070e+02 1.090641e+02 1.383051e+02 1.739361e+02 1.768125e+02 1.358563e+02 1.354212e+02 8.872246e+01 1.623336e+02 1.748847e+02 9.314249e-01 1.748927e+02 1.654647e+02 1.615551e+02 1.654926e+02 1.684985e+02 8.602046e+00 1.087542e+02 1.605358e+02 1.683569e+02 1.659465e+02 1.153013e+02 1.589595e+02 8.377304e+01 7.813525e+01 1.560098e+02 5.481569e+00 2.362903e+00 2.974529e+00 2.696906e+00 2.175374e+00 5.113230e+00
<VARIANCE> 33
 3.902650e+01 2.131083e+01 3.859474e+01 1.830549e+01 3.037716e+01 5.550242e+00 2.822034e+01 2.062020e+01 4.068704e+01 5.398844e+01 1.561780e+01 5.357184e-01 1.027516e+01 5.289310e+01 3.109567e+01 6.979482e+01 6.294950e+01 3.304217e+01 7.881125e+02 1.102745e+02 1.845722e+01 9.155773e+01 6.929001e+02 1.674479e+02 6.376051e+02 6.700912e+02 2.187886e+02 2.204123e+00 2.684788e-01 2.749220e-01 1.704468e-01 1.654001e-01 2.182465e+00
<GCONST> 1.610829e+02
<MIXTURE> 2 1.914182e-01
<MEAN> 33
 1.669178e+02 1.410400e+02 1.118668e+02 1.429897e+02 1.661311e+02 1.759799e+02 1.274432e+02 1.265681e+02 1.059887e+02 1.407181e+02 1.711291e+02 1.369329e+00 1.688797e+02 1.434393e+02 1.623613e+02 1.375161e+02 1.380295e+02 1.063946e+01 9.232056e+01 1.600644e+02 1.658833e+02 1.634484e+02 9.652690e+01 1.554815e+02 5.683497e+01 5.892778e+01 1.139337e+02 6.682112e+00 2.537161e+00 2.588801e+00 2.538542e+00 2.491434e+00 6.870694e+00
<VARIANCE> 33
 6.739726e+01 5.716090e+01 5.465808e+01 8.112299e+01 7.600913e+01 8.998008e+00 1.756934e+02 1.354256e+02 5.422757e+02 2.109524e+02 4.189522e+01 1.091948e+00 5.690551e+01 1.916071e+02 4.269223e+01 2.146213e+02 2.155726e+02 6.973335e+01 6.169242e+02 1.624886e+02 5.687379e+01 1.248409e+02 4.957287e+02 2.884143e+02 6.918495e+02 5.794413e+02 4.806019e+02 1.574638e+00 3.804837e-01 1.250557e-01 1.607828e-01 2.468638e-01 1.368387e+00
<GCONST> 1.832426e+02
<MIXTURE> 3 2.201475e-01
<MEAN> 33
 1.710335e+02 1.392774e+02 1.124898e+02 1.419749e+02 1.688331e+02 1.745240e+02 1.339860e+02 1.320090e+02 9.400495e+01 1.580046e+02 1.721413e+02 2.827916e+00 1.696623e+02 1.614237e+02 1.619987e+02 1.631102e+02 1.593211e+02 1.512405e+01 1.089951e+02 1.452474e+02 1.669358e+02 1.501520e+02 1.232755e+02 1.426904e+02 8.518359e+01 1.040068e+02 1.470836e+02 4.647509e+00 3.678272e+00 2.619474e+00 2.494770e+00 3.131979e+00 4.836908e+00
<VARIANCE> 33
 7.524923e+01 6.577444e+01 9.360148e+01 1.008596e+02 7.688347e+01 2.108361e+01 6.325173e+01 7.627833e+01 2.216864e+02 1.907847e+02 4.186299e+01 8.424790e+00 6.000695e+01 1.872141e+02 4.304393e+01 1.606471e+02 1.957583e+02 1.750092e+02 1.851986e+03 3.047539e+02 4.850264e+01 2.856285e+02 1.480146e+03 1.608262e+03 1.692112e+03 1.507404e+03 4.847759e+02 3.136519e+00 3.079278e+00 3.597986e-01 2.641321e-01 1.298126e+00 3.076186e+00
<GCONST> 1.990070e+02
<MIXTURE> 4 1.687671e-01
<MEAN> 33
 1.303172e+02 1.394854e+02 1.143796e+02 1.446554e+02 1.124768e+02 1.710038e+02 1.061380e+02 8.807167e+01 1.121554e+02 1.222999e+02 1.661537e+02 4.132015e+00 1.603762e+02 1.050551e+02 1.605818e+02 1.038837e+02 8.059068e+01 3.472002e+01 1.062501e+02 1.319612e+02 1.689832e+02 1.445019e+02 9.986331e+01 1.250610e+02 5.723980e+01 8.263950e+01 8.815965e+01 5.770469e+00 2.872142e+00 2.822860e+00 2.733832e+00 3.576910e+00 5.886504e+00
<VARIANCE> 33
 1.705437e+03 1.824917e+02 1.540500e+02 2.650654e+02 2.806018e+03 5.232912e+01 1.787274e+03 2.347934e+03 2.854805e+03 1.451085e+03 9.278941e+01 1.755783e+01 1.951399e+02 1.563481e+03 7.429944e+01 1.790742e+03 1.619785e+03 2.084408e+03 1.837974e+03 9.728479e+02 6.374702e+01 5.511840e+02 1.448769e+03 2.077026e+03 1.980938e+03 2.183425e+03 2.656568e+03 2.173375e+00 1.039524e+00 7.541993e-01 7.469380e-01 1.457136e+00 2.279321e+00
<GCONST> 2.375412e+02
<TRANSP> 5
 0.000000e+00 1.000000e+00 0.000000e+00 0.000000e+00 0.000000e+00
 0.000000e+00 9.281462e-01 7.185384e-02 0.000000e+00 0.000000e+00
 0.000000e+00 0.000000e+00 9.344295e-01 6.557052e-02 0.000000e+00
 0.000000e+00 0.000000e+00 0.000000e+00 9.320978e-01 6.790221e-02
 0.000000e+00 0.000000e+00 0.000000e+00 0.000000e+00 0.000000e+00
<ENDHMM>
~h "CF"
<BEGINHMM>
<NUMSTATES> 5
<STATE> 2
<NUMMIXES> 4
<MIXTURE> 1 4.060739e-01
<MEAN> 33
 1.725067e+02 1.358916e+02 1.096188e+02 1.367121e+02 1.746958e+02 1.764595e+02 1.351650e+02 1.347783e+02 9.005668e+01 1.555896e+02 1.754722e+02 1.408705e+00 1.744134e+02 1.611702e+02 1.610082e+02 1.611069e+02 1.652484e+02 1.366269e+01 9.183305e+01 1.536308e+02 1.695214e+02 1.644559e+02 1.077195e+02 1.584653e+02 7.015255e+01 8.479919e+01 1.502649e+02 5.427379e+00 2.569173e+00 2.794109e+00 2.685722e+00 2.200573e+00 5.143490e+00
<VARIANCE> 33
 3.902650e+01 2.338024e+01 4.777139e+01 2.819729e+01 3.037716e+01 1.015912e+01 2.822034e+01 2.062020e+01 3.286245e+01 9.463220e+01 2.282139e+01 3.468301e+00 1.340078e+01 6.527230e+01 3.742783e+01 1.663967e+02 1.008611e+02 1.719751e+02 8.683485e+02 3.508418e+02 2.867867e+01 1.408475e+02 5.778295e+02 2.262671e+02 9.562708e+02 1.126557e+03 3.632634e+02 4.698168e+00 7.379645e-01 3.496106e-01 2.431537e-01 4.763089e-01 3.413142e+00
<GCONST> 1.762167e+02
<MIXTURE> 2 1.355634e-01
<MEAN> 33
 6.239651e+01 1.504870e+02 1.109130e+02 1.356698e+02 1.748027e+02 1.762162e+02 4.415759e+01 1.349867e+02 1.369328e+02 1.020554e+02 1.475809e+02 1.192294e+00 1.756357e+02 1.639211e+02 1.594060e+02 6.607440e+01 1.654029e+02 1.076575e+02 7.724380e+01 1.410439e+02 1.688367e+02 1.608247e+02 1.130781e+02 1.605186e+02 2.587348e+01 8.034625e+01 9.815155e+01 7.606002e+00 3.735580e+00 3.426869e+00 2.696004e+00 2.136398e+00 3.410480e+00
<VARIANCE> 33
 2.079510e+03 2.041961e+02 4.589768e+01 1.555638e+01 3.037716e+01 8.498280e+00 2.226917e+03 2.062020e+01 5.713271e+02 4.002900e+02 6.956592e+02 1.454137e+00 7.968544e+00 7.214256e+01 3.048222e+01 7.675823e+02 1.024113e+02 1.176526e+03 6.447469e+02 5.094954e+02 1.903754e+01 1.490208e+02 9.008424e+02 1.885362e+02 2.755628e+02 1.003248e+03 4.608811e+02 1.977698e+00 9.724286e-01 2.868629e-01 1.590494e-01 1.502402e-01 7.164168e-01
<GCONST> 1.905373e+02
<MIXTURE> 3 1.355634e-01
<MEAN> 33
 6.239651e+01 1.504870e+02 1.109130e+02 1.356698e+02 1.748027e+02 1.762162e+02 4.415759e+01 1.349867e+02 1.369328e+02 1.020554e+02 1.475809e+02 1.192294e+00 1.756357e+02 1.639211e+02 1.594060e+02 6.607440e+01 1.654029e+02 1.076575e+02 7.724380e+01 1.410439e+02 1.688367e+02 1.608247e+02 1.130781e+02 1.605186e+02 2.587348e+01 8.034625e+01 9.815155e+01 7.606002e+00 3.735580e+00 3.426869e+00 2.696004e+00 2.136398e+00 3.410480e+00
<VARIANCE> 33
 2.079510e+03 2.041961e+02 4.589768e+01 1.555638e+01 3.037716e+01 8.498280e+00 2.226917e+03 2.062020e+01 5.713271e+02 4.002900e+02 6.956592e+02 1.454137e+00 7.968544e+00 7.214256e+01 3.048222e+01 7.675823e+02 1.024113e+02 1.176526e+03 6.447469e+02 5.094954e+02 1.903754e+01 1.490208e+02 9.008424e+02 1.885362e+02 2.755628e+02 1.003248e+03 4.608811e+02 1.977698e+00 9.724286e-01 2.868629e-01 1.590494e-01 1.502402e-01 7.164168e-01
<GCONST> 1.905373e+02
<MIXTURE> 4 3.227991e-01
<MEAN> 33
 9.394822e+01 1.389326e+02 1.182605e+02 1.418583e+02 9.345431e+01 1.739741e+02 7.707324e+01 7.202233e+01 1.051683e+02 1.037744e+02 1.578312e+02 7.339956e+00 1.423145e+02 1.139160e+02 1.595977e+02 8.940070e+01 8.470134e+01 7.380540e+01 7.869794e+01 1.263168e+02 1.684442e+02 1.346291e+02 8.200268e+01 1.078777e+02 7.499414e+01 8.195305e+01 9.028242e+01 4.102812e+00 3.329002e+00 3.110084e+00 3.025381e+00 3.909276e+00 5.177852e+00
<VARIANCE> 33
 3.901084e+03 5.511269e+02 2.019757e+02 2.841117e+02 3.539852e+03 1.758878e+01 2.859871e+03 2.698452e+03 2.509615e+03 1.926649e+03 4.660682e+02 2.194753e+02 9.049062e+02 1.226879e+03 2.940911e+01 2.793237e+03 2.340556e+03 2.763184e+03 1.896296e+03 1.455323e+03 1.054029e+02 4.732555e+02 1.520861e+03 2.080890e+03 2.450106e+03 2.087325e+03 2.228191e+03 2.447212e+00 1.939104e+00 1.172707e+00 5.680032e-01 1.724805e+00 3.401739e+00
<GCONST> 2.476245e+02
<STATE> 3
<NUMMIXES> 4
<MIXTURE> 1 3.781219e-01
<MEAN> 33
 2.705515e+01 1.516688e+02 1.108921e+02 1.353624e+02 1.739018e+02 1.755526e+02 7.616584e+00 1.365925e+02 1.435282e+02 8.951089e+01 1.073633e+02 1.924773e+00 1.761133e+02 1.623525e+02 1.595585e+02 2.958133e+01 1.655127e+02 1.364288e+02 7.787499e+01 1.195646e+02 1.735099e+02 1.637706e+02 9.907342e+01 1.254452e+02 5.722644e+01 8.485664e+01 8.896241e+01 5.104328e+00 5.523745e+00 3.243065e+00 3.035706e+00 2.296994e+00 4.163558e+00
<VARIANCE> 33
 2.394695e+02 3.940098e+02 7.085450e+01 9.837911e+00 3.037716e+01 1.382390e+01 2.822034e+01 2.062020e+01 3.467357e+01 3.923117e+02 3.850274e+02 1.836621e+00 7.590308e+00 1.445944e+01 4.529862e+01 3.071743e+01 5.898402e+01 9.960849e+01 3.106914e+02 1.512204e+02 1.778175e+01 1.217859e+02 2.439648e+02 9.846804e+02 9.551011e+02 3.343063e+03 1.866077e+02 7.110832e-01 1.122783e+00 3.550648e-01 1.441727e-01 1.127778e-01 6.638067e-01
<GCONST> 1.729955e+02
<MIXTURE> 2 2.438152e-01
<MEAN> 33
 2.894471e+01 1.502567e+02 1.156723e+02 1.352943e+02 1.700208e+02 1.752314e+02 1.549483e+01 1.361740e+02 1.510546e+02 9.004984e+01 1.139315e+02 7.343533e+00 1.703848e+02 1.628069e+02 1.589689e+02 3.452662e+01 1.663747e+02 1.429465e+02 8.061148e+01 1.277386e+02 1.682540e+02 1.526686e+02 1.100019e+02 1.086216e+02 7.154251e+01 1.131293e+02 1.094909e+02 6.022092e+00 4.480023e+00 3.267042e+00 2.612831e+00 2.516699e+00 3.560152e+00
<VARIANCE> 33
 4.413491e+02 5.818787e+02 2.377425e+02 7.295192e+01 3.179486e+01 1.425673e+01 1.153338e+02 2.062020e+01 1.457905e+02 1.064936e+03 7.312177e+02 1.599685e+02 5.960645e+01 8.294579e+01 4.676777e+01 1.557464e+02 1.039594e+02 4.118770e+02 7.068505e+02 4.589309e+02 1.960899e+02 1.609872e+02 1.161060e+03 1.490385e+03 1.685099e+03 3.492317e+03 5.067300e+02 2.215805e+00 2.101179e+00 1.088326e+00 3.945218e-01 3.982757e-01 1.893167e+00
<GCONST> 2.080840e+02
<MIXTURE> 3 3.229014e-02
<MEAN> 33
 2.198318e+01 1.657040e+02 1.277976e+02 1.303454e+02 1.414182e+02 1.777996e+02 2.096698e+01 1.112575e+02 1.322244e+02 7.796906e+01 1.278281e+02 6.537589e+00 1.672131e+02 1.129934e+02 1.564006e+02 3.073634e+01 1.083673e+02 7.767152e+01 6.552530e+01 1.422466e+02 1.733009e+02 1.501219e+02 4.752119e+01 1.069905e+02 5.546093e+01 1.142668e+02 7.741471e+01 3.715158e+00 5.150439e+00 2.632374e+00 3.232995e+00 4.139781e+00 7.024463e+00
<VARIANCE> 33
 1.960925e+02 1.420539e+02 5.333165e+01 2.215676e+01 3.139778e+02 4.221369e+00 1.065886e+02 4.062443e+02 5.165945e+02 4.367737e+02 6.007617e+02 2.193827e+01 9.462836e+01 1.414585e+02 1.307490e+01 7.538016e+01 3.315008e+02 4.879324e+02 1.665474e+02 2.635932e+02 2.073634e+01 4.739582e+01 1.090800e+02 4.394801e+02 1.145276e+03 6.958679e+02 2.600915e+02 5.277300e-01 7.031624e-01 1.524143e-01 3.116042e-02 2.068315e-01 9.887419e-01
<GCONST> 1.856060e+02
<MIXTURE> 4 3.457732e-01
<MEAN> 33
 1.706950e+02 1.383730e+02 1.148018e+02 1.529857e+02 3.043434e+01 1.753834e+02 1.335403e+02 1.938468e+01 1.491207e+02 1.555565e+02 1.704188e+02 4.585371e+00 1.240758e+02 8.344044e+01 1.609505e+02 1.671071e+02 3.531038e+01 1.348283e+02 8.437829e+01 1.501479e+02 1.700941e+02 1.307886e+02 7.640086e+01 1.106593e+02 8.641106e+01 7.252197e+01 1.044663e+02 3.852402e+00 2.782791e+00 2.601849e+00 3.121249e+00 4.804358e+00 5.901809e+00
<VARIANCE> 33
 3.902650e+01 5.335423e+01 1.228188e+02 3.431963e+02 7.083227e+02 1.645981e+01 3.430429e+01 3.221825e+02 1.263450e+02 7.299438e+01 7.125113e+01 6.342970e+01 6.865116e+02 4.532753e+02 6.089895e+01 9.834996e+01 2.771048e+02 3.509337e+02 5.777408e+02 2.204068e+02 6.365019e+01 4.040770e+02 4.590236e+02 2.215925e+03 2.935446e+03 2.151056e+03 3.448918e+02 1.449485e+00 3.778532e-01 2.973608e-01 6.805601e-01 1.752482e+00 2.008460e+00
<GCONST> 2.042932e+02
<STATE> 4
<NUMMIXES> 4
<MIXTURE> 1 4.058138e-01
<MEAN> 33
 1.733757e+02 1.380435e+02 1.090521e+02 1.370451e+02 1.750486e+02 1.762663e+02 1.350681e+02 1.349805e+02 8.995136e+01 1.610277e+02 1.738469e+02 1.084776e+00 1.761869e+02 1.628267e+02 1.624568e+02 1.655204e+02 1.682597e+02 1.391968e+01 1.069242e+02 1.552725e+02 1.693161e+02 1.628742e+02 1.050713e+02 1.557842e+02 8.605571e+01 7.798254e+01 1.598089e+02 5.291443e+00 2.690825e+00 2.818950e+00 2.780609e+00 2.278951e+00 5.273598e+00
<VARIANCE> 33
 3.902650e+01 2.697247e+01 4.389265e+01 1.805800e+01 3.037716e+01 8.756671e+00 2.822034e+01 2.062020e+01 2.318951e+01 7.167265e+01 2.391178e+01 6.902437e-01 7.270869e+00 2.820611e+01 3.590681e+01 8.224083e+01 5.680110e+01 1.115824e+02 8.942114e+02 2.071619e+02 2.245165e+01 1.034657e+02 4.597261e+02 2.633389e+02 9.295552e+02 8.728167e+02 2.060966e+02 3.084050e+00 7.552620e-01 3.216479e-01 3.911934e-01 2.501608e-01 2.216363e+00
<GCONST> 1.672237e+02
<MIXTURE> 2 1.807404e-01
<MEAN> 33
 1.703286e+02 1.410598e+02 1.130001e+02 1.366771e+02 1.709326e+02 1.747432e+02 1.333141e+02 1.359345e+02 9.075144e+01 1.555246e+02 1.668469e+02 2.888141e+00 1.705659e+02 1.619868e+02 1.624293e+02 1.605135e+02 1.639242e+02 2.187331e+01 1.007703e+02 1.411293e+02 1.695067e+02 1.483831e+02 1.149231e+02 1.312968e+02 7.111571e+01 1.098330e+02 1.510858e+02 5.023604e+00 3.959752e+00 2.660904e+00 2.630145e+00 3.222798e+00 4.473910e+00
<VARIANCE> 33
 7.347192e+01 7.069853e+01 1.125743e+02 6.192789e+01 4.211388e+01 1.366009e+01 3.856047e+01 2.062020e+01 6.104757e+01 1.759779e+02 8.559863e+01 1.066168e+01 6.762927e+01 1.169932e+02 2.541073e+01 2.597799e+02 1.326467e+02 2.450921e+02 1.701410e+03 3.551956e+02 3.898770e+01 2.936484e+02 1.470520e+03 1.786981e+03 1.795508e+03 2.001808e+03 4.476661e+02 4.333978e+00 3.267447e+00 3.877368e-01 2.819923e-01 1.934415e+00 3.093180e+00
<GCONST> 1.962113e+02
<MIXTURE> 3 1.807404e-01
<MEAN> 33
 1.703286e+02 1.410598e+02 1.130001e+02 1.366771e+02 1.709326e+02 1.747432e+02 1.333141e+02 1.359345e+02 9.075144e+01 1.555246e+02 1.668469e+02 2.888141e+00 1.705659e+02 1.619868e+02 1.624293e+02 1.605135e+02 1.639242e+02 2.187331e+01 1.007703e+02 1.411293e+02 1.695067e+02 1.483831e+02 1.149231e+02 1.312968e+02 7.111571e+01 1.098330e+02 1.510858e+02 5.023604e+00 3.959752e+00 2.660904e+00 2.630145e+00 3.222798e+00 4.473910e+00
<VARIANCE> 33
 7.347192e+01 7.069853e+01 1.125743e+02 6.192789e+01 4.211388e+01 1.366009e+01 3.856047e+01 2.062020e+01 6.104757e+01 1.759779e+02 8.559863e+01 1.066168e+01 6.762927e+01 1.169932e+02 2.541073e+01 2.597799e+02 1.326467e+02 2.450921e+02 1.701410e+03 3.551956e+02 3.898770e+01 2.936484e+02 1.470520e+03 1.786981e+03 1.795508e+03 2.001808e+03 4.476661e+02 4.333978e+00 3.267447e+00 3.877368e-01 2.819923e-01 1.934415e+00 3.093180e+00
<GCONST> 1.962113e+02
<MIXTURE> 4 2.327029e-01
<MEAN> 33
 1.285631e+02 1.479596e+02 1.163049e+02 1.366679e+02 1.595225e+02 1.749935e+02 1.087126e+02 1.303404e+02 1.166219e+02 1.398623e+02 1.574723e+02 3.076710e+00 1.716980e+02 1.510782e+02 1.605541e+02 1.149628e+02 1.476717e+02 6.547569e+01 9.298245e+01 1.419572e+02 1.714553e+02 1.549750e+02 9.437975e+01 1.363733e+02 4.767694e+01 8.753478e+01 1.094354e+02 6.990935e+00 3.285950e+00 2.908910e+00 2.692462e+00 2.726149e+00 4.851748e+00
<VARIANCE> 33
 1.667620e+03 2.340779e+02 1.063691e+02 8.413336e+01 5.907744e+02 1.369000e+01 1.260725e+03 3.464928e+02 1.171370e+03 5.932449e+02 3.134305e+02 1.514308e+01 8.384463e+01 3.816374e+02 3.740274e+01 1.279026e+03 8.589572e+02 8.878400e+02 1.346121e+03 5.245491e+02 2.654914e+01 2.695918e+02 8.661326e+02 1.046630e+03 1.258548e+03 2.378636e+03 1.005357e+03 5.370567e+00 1.230246e+00 3.315721e-01 2.245164e-01 1.204085e+00 4.836677e+00
<GCONST> 2.201579e+02
<TRANSP> 5
 0.000000e+00 1.000000e+00 0.000000e+00 0.000000e+00 0.000000e+00
 0.000000e+00 8.748541e-01 1.251458e-01 0.000000e+00 0.000000e+00
 0.000000e+00 0.000000e+00 9.601455e-01 3.985447e-02 0.000000e+00
 0.000000e+00 0.000000e+00 0.000000e+00 9.388005e-01 6.119960e-02
 0.000000e+00 0.000000e+00 0.000000e+00 0.000000e+00 0.000000e+00
<ENDHMM>
~h "CN"
<BEGINHMM>
<NUMSTATES> 5
<STATE> 2
<NUMMIXES> 4
<MIXTURE> 1 3.811998e-01
<MEAN> 33
 1.731155e+02 1.376597e+02 1.068781e+02 1.393045e+02 1.744382e+02 1.760802e+02 1.350464e+02 1.342877e+02 9.066591e+01 1.557725e+02 1.759754e+02 1.472586e+00 1.748993e+02 1.596213e+02 1.627527e+02 1.630633e+02 1.665181e+02 9.804238e+00 9.364293e+01 1.534147e+02 1.702477e+02 1.617779e+02 1.033617e+02 1.550583e+02 7.300668e+01 8.558026e+01 1.530122e+02 4.778566e+00 2.746331e+00 2.589935e+00 2.450264e+00 2.362803e+00 4.710281e+00
<VARIANCE> 33
 3.902650e+01 2.376978e+01 6.711368e+01 3.311160e+01 3.037716e+01 1.186038e+01 2.822034e+01 2.062020e+01 2.870607e+01 7.448466e+01 2.154665e+01 3.118121e+00 1.602883e+01 7.640355e+01 4.503115e+01 1.040740e+02 9.937725e+01 8.154212e+01 7.511198e+02 2.194146e+02 2.476626e+01 1.454229e+02 6.136979e+02 3.820942e+02 1.486507e+03 1.486779e+03 3.234279e+02 4.418817e+00 1.130951e+00 3.275548e-01 3.481079e-01 6.797324e-01 3.446827e+00
<GCONST> 1.771235e+02
<MIXTURE> 2 1.756669e-01
<MEAN> 33
 1.012554e+02 1.398162e+02 1.076534e+02 1.437849e+02 9.383772e+01 1.734638e+02 8.972409e+01 7.299643e+01 1.018137e+02 1.051242e+02 1.684510e+02 1.532408e+00 1.700101e+02 1.022651e+02 1.640523e+02 9.335675e+01 9.186362e+01 1.750799e+01 6.990547e+01 1.454122e+02 1.706236e+02 1.600349e+02 5.970247e+01 1.498334e+02 5.136351e+01 4.146524e+01 4.521288e+01 4.399919e+00 3.136205e+00 3.091674e+00 2.992062e+00 3.760735e+00 4.396973e+00
<VARIANCE> 33
 1.229913e+03 4.708068e+01 7.756437e+01 8.049697e+01 1.818280e+03 2.647521e+01 2.322092e+03 2.325271e+03 2.498043e+03 4.162078e+02 9.842784e+01 2.703397e+00 6.284813e+01 5.370555e+02 3.605696e+01 6.091589e+02 8.001038e+02 5.943978e+02 8.389825e+02 5.529576e+02 2.956357e+01 2.274344e+02 4.525180e+02 8.693513e+02 1.666428e+03 1.154641e+03 1.366080e+03 2.117947e+00 6.678525e-01 2.630078e-01 2.973010e-01 1.702839e+00 2.112985e+00
<GCONST> 2.150858e+02
<MIXTURE> 3 1.756669e-01
<MEAN> 33
 1.012554e+02 1.398162e+02 1.076534e+02 1.437849e+02 9.383772e+01 1.734638e+02 8.972409e+01 7.299643e+01 1.018137e+02 1.051242e+02 1.684510e+02 1.532408e+00 1.700101e+02 1.022651e+02 1.640523e+02 9.335675e+01 9.186362e+01 1.750799e+01 6.990547e+01 1.454122e+02 1.706236e+02 1.600349e+02 5.970247e+01 1.498334e+02 5.136351e+01 4.146524e+01 4.521288e+01 4.399919e+00 3.136205e+00 3.091674e+00 2.992062e+00 3.760735e+00 4.396973e+00
<VARIANCE> 33
 1.229913e+03 4.708068e+01 7.756437e+01 8.049697e+01 1.818280e+03 2.647521e+01 2.322092e+03 2.325271e+03 2.498043e+03 4.162078e+02 9.842784e+01 2.703397e+00 6.284813e+01 5.370555e+02 3.605696e+01 6.091589e+02 8.001038e+02 5.943978e+02 8.389825e+02 5.529576e+02 2.956357e+01 2.274344e+02 4.525180e+02 8.693513e+02 1.666428e+03 1.154641e+03 1.366080e+03 2.117947e+00 6.678525e-01 2.630078e-01 2.973010e-01 1.702839e+00 2.112985e+00
<GCONST> 2.150858e+02
<MIXTURE> 4 2.674663e-01
<MEAN> 33
 5.900299e+01 1.229797e+02 1.200933e+02 1.272531e+02 6.821324e+01 1.665688e+02 1.986426e+01 3.083344e+01 4.606399e+01 8.273946e+01 1.368983e+02 1.104285e+01 1.426213e+02 1.067478e+02 1.685709e+02 4.444311e+01 5.187115e+01 1.256151e+01 1.072085e+02 9.730577e+01 1.640947e+02 1.124191e+02 9.149120e+01 9.622145e+01 1.072781e+02 1.068754e+02 4.315151e+01 3.936288e+00 3.268462e+00 3.451832e+00 3.373910e+00 3.475179e+00 3.602043e+00
<VARIANCE> 33
 7.466678e+02 3.853220e+02 2.062624e+02 5.252280e+02 9.152644e+02 6.401924e+01 2.232873e+02 6.758436e+02 8.158560e+02 8.956744e+02 3.343853e+02 5.012883e+02 4.214016e+02 1.465289e+03 7.672836e+01 1.622848e+02 3.456572e+02 2.492526e+02 6.425045e+02 4.717515e+02 2.118989e+02 3.776155e+02 3.258064e+02 3.123197e+03 2.110748e+03 2.462834e+03 7.436289e+02 8.157262e-01 2.064008e+00 7.438330e-01 4.562249e-01 1.137838e+00 9.499819e-01
<GCONST> 2.267119e+02
<STATE> 3
<NUMMIXES> 4
<MIXTURE> 1 2.773238e-01
<MEAN> 33
 6.410063e+01 1.322317e+02 1.113810e+02 1.392781e+02 5.016628e+01 1.739680e+02 2.721350e+01 1.838538e+01 3.114030e+01 8.644324e+01 1.549072e+02 2.354087e+00 1.565810e+02 8.495071e+01 1.626010e+02 5.905123e+01 5.647310e+01 8.331776e+00 1.087218e+02 1.064422e+02 1.720945e+02 1.286717e+02 9.316756e+01 1.104257e+02 7.324239e+01 7.725558e+01 2.121376e+01 3.785443e+00 2.944030e+00 3.619076e+00 3.359401e+00 3.228881e+00 3.799067e+00
<VARIANCE> 33
 2.392449e+02 1.025709e+02 1.448299e+02 1.074275e+02 3.631257e+02 2.493794e+01 3.457575e+02 2.916965e+02 5.567957e+02 5.003536e+02 7.820070e+01 7.278955e+00 9.825498e+01 3.661434e+02 6.315639e+01 2.252869e+02 1.407016e+02 7.288494e+01 4.710440e+02 4.282998e+02 3.616404e+01 4.240677e+02 5.236562e+02 2.781766e+03 2.179334e+03 2.284473e+03 4.008477e+02 5.309384e-01 1.269072e+00 5.179403e-01 5.651456e-01 1.614694e+00 5.421453e-01
<GCONST> 2.049160e+02
<MIXTURE> 2 2.671055e-01
<MEAN> 33
 4.825927e+01 1.348501e+02 1.151825e+02 1.368092e+02 4.519822e+01 1.754827e+02 6.665913e+00 5.086441e+00 6.856629e+00 7.453747e+01 1.573330e+02 1.535490e+00 1.581947e+02 7.609346e+01 1.591827e+02 5.069581e+01 5.028571e+01 2.481282e+00 9.745777e+01 1.209039e+02 1.736832e+02 1.321280e+02 8.767311e+01 1.350064e+02 4.523739e+01 4.531866e+01 5.576842e+00 3.494192e+00 3.514664e+00 3.971548e+00 3.830213e+00 3.705418e+00 3.456718e+00
<VARIANCE> 33
 6.345089e+01 4.455111e+01 5.955541e+01 4.983350e+01 5.819958e+01 1.676776e+01 2.822034e+01 2.062020e+01 2.971603e+01 7.496047e+01 6.454876e+01 3.356945e+00 8.013979e+01 7.588216e+01 5.051040e+01 3.264019e+01 2.840644e+01 3.148238e+01 4.043620e+02 4.301815e+02 2.089328e+01 4.102505e+02 3.569227e+02 1.033580e+03 1.013733e+03 1.035902e+03 2.157466e+01 9.909429e-02 5.365062e-01 2.684365e-01 1.595207e-01 7.436047e-01 1.227570e-01
<GCONST> 1.682440e+02
<MIXTURE> 3 2.671055e-01
<MEAN> 33
 4.825927e+01 1.348501e+02 1.151825e+02 1.368092e+02 4.519822e+01 1.754827e+02 6.665913e+00 5.086441e+00 6.856629e+00 7.453747e+01 1.573330e+02 1.535490e+00 1.581947e+02 7.609346e+01 1.591827e+02 5.069581e+01 5.028571e+01 2.481282e+00 9.745777e+01 1.209039e+02 1.736832e+02 1.321280e+02 8.767311e+01 1.350064e+02 4.523739e+01 4.531866e+01 5.576842e+00 3.494192e+00 3.514664e+00 3.971548e+00 3.830213e+00 3.705418e+00 3.456718e+00
<VARIANCE> 33
 6.345089e+01 4.455111e+01 5.955541e+01 4.983350e+01 5.819958e+01 1.676776e+01 2.822034e+01 2.062020e+01 2.971603e+01 7.496047e+01 6.454876e+01 3.356945e+00 8.013979e+01 7.588216e+01 5.051040e+01 3.264019e+01 2.840644e+01 3.148238e+01 4.043620e+02 4.301815e+02 2.089328e+01 4.102505e+02 3.569227e+02 1.033580e+03 1.013733e+03 1.035902e+03 2.157466e+01 9.909429e-02 5.365062e-01 2.684365e-01 1.595207e-01 7.436047e-01 1.227570e-01
<GCONST> 1.682440e+02
<MIXTURE> 4 1.884650e-01
<MEAN> 33
 3.903958e+01 1.385394e+02 1.006020e+02 1.402484e+02 2.670444e+01 1.739182e+02 1.013793e+01 7.584565e+00 7.473869e+00 5.935405e+01 1.662597e+02 1.107493e+00 1.692957e+02 5.864542e+01 1.674948e+02 4.218994e+01 4.120588e+01 3.956995e+00 1.089260e+02 1.159157e+02 1.661538e+02 1.308600e+02 1.013257e+02 4.894083e+01 1.241865e+02 1.220023e+02 8.787724e+00 3.402740e+00 3.243625e+00 3.540206e+00 3.477623e+00 3.228978e+00 3.260302e+00
<VARIANCE> 33
 1.211894e+02 1.017408e+02 5.081670e+01 6.269971e+01 9.565244e+01 1.520790e+01 4.345458e+01 2.613051e+01 2.525434e+01 4.946074e+01 7.799416e+01 1.207719e+00 4.164868e+01 4.856696e+01 3.462534e+01 3.949819e+01 2.601832e+01 3.148238e+01 3.771397e+02 5.244921e+02 1.191664e+02 2.490935e+02 2.726173e+02 1.540188e+03 1.549950e+03 1.404058e+03 4.437587e+01 1.059800e-01 4.094869e-01 1.983354e-01 1.415353e-01 4.472718e-01 8.940271e-02
<GCONST> 1.695678e+02
<STATE> 4
<NUMMIXES> 4
<MIXTURE> 1 4.653704e-01
<MEAN> 33
 1.726802e+02 1.370288e+02 1.128795e+02 1.374909e+02 1.727070e+02 1.756684e+02 1.347066e+02 1.342358e+02 9.105753e+01 1.625943e+02 1.745532e+02 1.652416e+00 1.744047e+02 1.644294e+02 1.601895e+02 1.655614e+02 1.654484e+02 9.223015e+00 1.151333e+02 1.503692e+02 1.712669e+02 1.560815e+02 1.232857e+02 1.499389e+02 7.826869e+01 9.728445e+01 1.534584e+02 5.004603e+00 2.859567e+00 2.707549e+00 2.583031e+00 2.745620e+00 4.878707e+00
<VARIANCE> 33
 3.902650e+01 2.516786e+01 5.903780e+01 3.292266e+01 3.037716e+01 1.402904e+01 2.822034e+01 2.062020e+01 5.348059e+01 1.273505e+02 2.196073e+01 2.471683e+00 2.034611e+01 1.194025e+02 4.514653e+01 8.597460e+01 9.162392e+01 5.387348e+01 1.527931e+03 2.903812e+02 2.363056e+01 2.271280e+02 1.436286e+03 8.508099e+02 1.434525e+03 1.799154e+03 2.949331e+02 2.819299e+00 1.585703e+00 2.435371e-01 1.979102e-01 1.523250e+00 2.225198e+00
<GCONST> 1.806604e+02
<MIXTURE> 2 1.205464e-01
<MEAN> 33
 1.518839e+02 1.439885e+02 1.201401e+02 1.427917e+02 1.613978e+02 1.757652e+02 1.052012e+02 1.115434e+02 1.371024e+02 1.283000e+02 1.695784e+02 2.459203e+00 1.674502e+02 1.321539e+02 1.641707e+02 1.135821e+02 1.252989e+02 1.768144e+01 1.198287e+02 1.512783e+02 1.709056e+02 1.485029e+02 1.096613e+02 1.256492e+02 6.084064e+01 1.214747e+02 1.152897e+02 7.406399e+00 2.797092e+00 2.354248e+00 2.214904e+00 2.802827e+00 6.880702e+00
<VARIANCE> 33
 9.827965e+02 4.776985e+01 6.863074e+01 6.434151e+01 3.209396e+02 1.186496e+01 4.104189e+02 2.121571e+02 6.506929e+02 1.041052e+03 5.645305e+01 4.459638e+00 7.482117e+01 9.886262e+02 1.679961e+01 7.925487e+02 7.175043e+02 1.898806e+02 1.558027e+03 2.954015e+02 4.225974e+01 2.346339e+02 1.941482e+03 2.007283e+03 1.834149e+03 1.415135e+03 6.282932e+02 1.115601e+00 8.570887e-01 1.023872e-01 5.646666e-02 4.538296e-01 1.344663e+00
<GCONST> 2.038414e+02
<MIXTURE> 3 1.853583e-01
<MEAN> 33
 1.598557e+02 1.344844e+02 1.119752e+02 1.360514e+02 1.600668e+02 1.749007e+02 1.456127e+02 1.418582e+02 7.245180e+01 1.554525e+02 1.680099e+02 1.189385e+00 1.662599e+02 1.585905e+02 1.615293e+02 1.360084e+02 1.374226e+02 5.491769e+00 1.166558e+02 1.331348e+02 1.734176e+02 1.415197e+02 1.153616e+02 1.343184e+02 5.340442e+01 7.448647e+01 7.842445e+01 5.676716e+00 2.370870e+00 2.947275e+00 2.922776e+00 2.532807e+00 5.504754e+00
<VARIANCE> 33
 1.379142e+02 3.875084e+01 5.268227e+01 3.803262e+01 1.420169e+02 1.711753e+01 1.019897e+02 6.332417e+01 2.521332e+02 1.884842e+02 4.708056e+01 8.885754e-01 4.971468e+01 1.701283e+02 5.805719e+01 1.579894e+02 1.679754e+02 3.148238e+01 1.231498e+03 7.816414e+02 2.536176e+01 4.351798e+02 8.191619e+02 1.471378e+03 1.628151e+03 1.968413e+03 8.171788e+02 8.985761e-01 2.139034e-01 1.412267e-01 1.050988e-01 2.290904e-01 8.600753e-01
<GCONST> 1.859393e+02
<MIXTURE> 4 2.287236e-01
<MEAN> 33
 1.113763e+02 1.326016e+02 1.131672e+02 1.356122e+02 1.166132e+02 1.737225e+02 1.110685e+02 1.106759e+02 6.646552e+01 1.287605e+02 1.614817e+02 2.032289e+00 1.619972e+02 1.339833e+02 1.640178e+02 9.718425e+01 1.002619e+02 9.754685e+00 1.200305e+02 1.131977e+02 1.725721e+02 1.309637e+02 1.095739e+02 1.188473e+02 7.226928e+01 8.364736e+01 2.398323e+01 4.460325e+00 2.905294e+00 3.454120e+00 3.418906e+00 3.274220e+00 4.518310e+00
<VARIANCE> 33
 1.204532e+03 9.491196e+01 8.276994e+01 7.716380e+01 1.093023e+03 2.217279e+01 3.038282e+03 2.535429e+03 2.660695e+03 6.043443e+02 9.801897e+01 7.471686e+00 7.856766e+01 5.656851e+02 6.798709e+01 4.465235e+02 5.219170e+02 4.007036e+02 1.069488e+03 6.873998e+02 3.621046e+01 4.583672e+02 8.221318e+02 2.113865e+03 2.184476e+03 2.293741e+03 4.453199e+02 1.129766e+00 4.761862e-01 2.516527e-01 2.404377e-01 7.070422e-01 1.324666e+00
<GCONST> 2.168003e+02
<TRANSP> 5
 0.000000e+00 1.000000e+00 0.000000e+00 0.000000e+00 0.000000e+00
 0.000000e+00 9.181155e-01 8.188449e-02 0.000000e+00 0.000000e+00
 0.000000e+00 0.000000e+00 9.634776e-01 3.652242e-02 0.000000e+00
 0.000000e+00 0.000000e+00 0.000000e+00 9.217343e-01 7.826572e-02
 0.000000e+00 0.000000e+00 0.000000e+00 0.000000e+00 0.000000e+00
<ENDHMM>
~h "CP"
<BEGINHMM>
<NUMSTATES> 5
<STATE> 2
<NUMMIXES> 4
<MIXTURE> 1 3.244484e-01
<MEAN> 33
 1.735078e+02 1.369456e+02 1.097180e+02 1.374229e+02 1.741092e+02 1.755876e+02 1.343725e+02 1.337930e+02 9.183455e+01 1.565325e+02 1.749487e+02 1.726103e+00 1.744500e+02 1.595725e+02 1.629611e+02 1.626229e+02 1.632058e+02 8.570592e+00 9.647914e+01 1.510578e+02 1.699796e+02 1.596622e+02 1.066173e+02 1.543401e+02 7.707161e+01 8.450860e+01 1.489256e+02 5.319658e+00 2.801707e+00 2.698848e+00 2.598275e+00 2.557351e+00 5.268143e+00
<VARIANCE> 33
 3.902650e+01 3.307045e+01 5.169566e+01 2.745669e+01 3.037716e+01 1.507025e+01 2.822034e+01 2.062020e+01 5.307859e+01 1.194973e+02 2.095514e+01 3.396889e+00 1.859809e+01 9.340775e+01 3.807508e+01 1.060493e+02 9.996202e+01 5.239330e+01 1.200252e+03 2.944836e+02 2.219748e+01 1.952812e+02 8.944274e+02 4.842596e+02 1.324354e+03 1.427651e+03 3.255183e+02 3.471412e+00 1.345581e+00 2.364487e-01 1.716037e-01 1.035517e+00 3.097446e+00
<GCONST> 1.787798e+02
<MIXTURE> 2 2.100266e-01
<MEAN> 33
 1.683190e+02 1.470175e+02 1.044125e+02 1.460278e+02 1.672018e+02 1.720258e+02 1.169432e+02 1.169131e+02 1.258345e+02 1.375157e+02 1.666215e+02 2.154723e+00 1.680282e+02 1.375978e+02 1.665177e+02 1.349026e+02 1.323475e+02 1.654233e+01 1.010114e+02 1.441931e+02 1.700012e+02 1.465647e+02 9.927551e+01 1.019423e+02 7.593062e+01 8.798589e+01 1.226308e+02 6.758289e+00 2.684398e+00 2.300379e+00 2.331614e+00 2.751461e+00 6.737311e+00
<VARIANCE> 33
 8.525896e+01 1.125546e+02 7.931337e+01 1.061853e+02 9.440439e+01 3.512085e+01 1.891440e+02 1.860827e+02 6.228970e+02 4.840037e+02 1.057184e+02 8.513819e+00 8.179166e+01 4.801451e+02 5.983467e+01 6.270801e+02 5.277000e+02 1.937234e+02 2.237346e+03 3.413944e+02 5.092169e+01 3.392446e+02 1.806065e+03 2.968575e+03 2.829165e+03 2.458604e+03 8.284449e+02 2.540916e+00 8.406254e-01 1.258041e-01 1.513447e-01 8.991445e-01 2.661192e+00
<GCONST> 2.084402e+02
<MIXTURE> 3 2.100266e-01
<MEAN> 33
 1.683190e+02 1.470175e+02 1.044125e+02 1.460278e+02 1.672018e+02 1.720258e+02 1.169432e+02 1.169131e+02 1.258345e+02 1.375157e+02 1.666215e+02 2.154723e+00 1.680282e+02 1.375978e+02 1.665177e+02 1.349026e+02 1.323475e+02 1.654233e+01 1.010114e+02 1.441931e+02 1.700012e+02 1.465647e+02 9.927551e+01 1.019423e+02 7.593062e+01 8.798589e+01 1.226308e+02 6.758289e+00 2.684398e+00 2.300379e+00 2.331614e+00 2.751461e+00 6.737311e+00
<VARIANCE> 33
 8.525896e+01 1.125546e+02 7.931337e+01 1.061853e+02 9.440439e+01 3.512085e+01 1.891440e+02 1.860827e+02 6.228970e+02 4.840037e+02 1.057184e+02 8.513819e+00 8.179166e+01 4.801451e+02 5.983467e+01 6.270801e+02 5.277000e+02 1.937234e+02 2.237346e+03 3.413944e+02 5.092169e+01 3.392446e+02 1.806065e+03 2.968575e+03 2.829165e+03 2.458604e+03 8.284449e+02 2.540916e+00 8.406254e-01 1.258041e-01 1.513447e-01 8.991445e-01 2.661192e+00
<GCONST> 2.084402e+02
<MIXTURE> 4 2.554977e-01
<MEAN> 33
 1.176107e+02 1.407662e+02 1.104107e+02 1.445320e+02 1.156753e+02 1.725150e+02 9.430952e+01 8.904377e+01 1.243695e+02 1.025215e+02 1.678212e+02 2.702861e+00 1.656008e+02 1.005196e+02 1.647948e+02 9.434202e+01 8.657876e+01 2.737136e+01 7.609398e+01 1.357740e+02 1.699337e+02 1.478459e+02 8.445224e+01 1.269844e+02 5.897552e+01 7.027975e+01 9.064791e+01 5.778886e+00 3.170902e+00 2.775574e+00 2.688310e+00 3.411130e+00 5.818282e+00
<VARIANCE> 33
 2.017487e+03 1.992858e+02 7.268709e+01 2.151375e+02 2.441336e+03 3.934130e+01 1.547818e+03 1.153272e+03 2.025914e+03 8.750383e+02 1.051347e+02 7.051177e+00 1.405398e+02 1.017399e+03 6.681303e+01 1.293484e+03 1.180800e+03 1.735461e+03 1.979887e+03 9.380328e+02 4.277601e+01 5.368835e+02 1.589786e+03 2.495817e+03 2.542632e+03 1.854156e+03 1.758647e+03 2.986078e+00 1.759242e+00 7.521329e-01 5.428010e-01 1.471850e+00 3.428574e+00
<GCONST> 2.327364e+02
<STATE> 3
<NUMMIXES> 4
<MIXTURE> 1 4.826725e-01
<MEAN> 33
 1.547717e+02 1.390694e+02 1.162326e+02 1.388674e+02 1.558495e+02 1.756523e+02 1.273210e+02 1.236193e+02 1.090596e+02 1.280125e+02 1.744424e+02 2.648051e+00 1.749196e+02 1.258874e+02 1.628399e+02 1.300360e+02 1.292572e+02 8.181973e+00 5.475298e+01 1.566131e+02 1.643918e+02 1.560282e+02 5.592290e+01 1.579151e+02 3.926363e+01 6.347883e+01 1.015693e+02 6.282499e+00 3.201304e+00 2.862985e+00 2.735248e+00 3.334594e+00 6.421921e+00
<VARIANCE> 33
 1.596085e+02 2.281617e+01 1.071928e+02 3.498307e+01 1.664547e+02 1.671414e+01 1.050474e+02 8.083146e+01 2.896492e+02 1.331042e+02 1.757641e+01 6.243133e+00 2.086372e+01 1.476161e+02 3.426755e+01 2.223976e+02 2.636111e+02 6.381584e+01 4.363255e+02 1.667853e+02 1.796922e+01 1.546411e+02 3.499261e+02 2.991761e+02 5.964494e+02 5.398232e+02 4.610065e+02 8.702809e-01 5.178931e-01 7.456796e-02 8.452906e-02 7.916401e-01 6.866894e-01
<GCONST> 1.790431e+02
<MIXTURE> 2 1.218246e-01
<MEAN> 33
 1.125080e+02 1.531534e+02 1.232813e+02 1.442142e+02 1.286989e+02 1.751324e+02 1.024821e+02 1.006971e+02 1.517479e+02 1.144549e+02 1.713266e+02 5.364265e+00 1.682181e+02 1.153373e+02 1.550833e+02 9.835233e+01 9.761115e+01 6.825020e+00 5.957485e+01 1.689883e+02 1.660666e+02 1.668479e+02 6.602719e+01 1.564597e+02 2.935336e+01 5.944168e+01 8.256374e+01 5.919343e+00 4.001680e+00 2.862576e+00 2.971954e+00 3.652821e+00 5.685448e+00
<VARIANCE> 33
 2.994731e+02 1.443685e+02 6.231598e+01 7.921381e+01 3.306792e+02 1.756017e+01 2.142373e+02 1.296571e+02 3.154875e+02 1.380539e+02 4.227682e+01 2.624704e+01 6.618546e+01 1.296638e+02 3.689403e+01 1.195494e+02 1.296413e+02 3.148238e+01 1.692010e+02 7.958990e+01 1.696766e+01 1.106127e+02 3.204985e+02 3.063724e+02 6.170944e+02 8.941376e+02 2.730408e+02 3.701779e-01 4.115004e-01 1.236134e-01 9.511317e-02 4.513426e-01 4.753459e-01
<GCONST> 1.816907e+02
<MIXTURE> 3 1.218246e-01
<MEAN> 33
 1.125080e+02 1.531534e+02 1.232813e+02 1.442142e+02 1.286989e+02 1.751324e+02 1.024821e+02 1.006971e+02 1.517479e+02 1.144549e+02 1.713266e+02 5.364265e+00 1.682181e+02 1.153373e+02 1.550833e+02 9.835233e+01 9.761115e+01 6.825020e+00 5.957485e+01 1.689883e+02 1.660666e+02 1.668479e+02 6.602719e+01 1.564597e+02 2.935336e+01 5.944168e+01 8.256374e+01 5.919343e+00 4.001680e+00 2.862576e+00 2.971954e+00 3.652821e+00 5.685448e+00
<VARIANCE> 33
 2.994731e+02 1.443685e+02 6.231598e+01 7.921381e+01 3.306792e+02 1.756017e+01 2.142373e+02 1.296571e+02 3.154875e+02 1.380539e+02 4.227682e+01 2.624704e+01 6.618546e+01 1.296638e+02 3.689403e+01 1.195494e+02 1.296413e+02 3.148238e+01 1.692010e+02 7.958990e+01 1.696766e+01 1.106127e+02 3.204985e+02 3.063724e+02 6.170944e+02 8.941376e+02 2.730408e+02 3.701779e-01 4.115004e-01 1.236134e-01 9.511317e-02 4.513426e-01 4.753459e-01
<GCONST> 1.816907e+02
<MIXTURE> 4 2.736780e-01
<MEAN> 33
 1.465208e+02 1.393746e+02 1.125334e+02 1.400504e+02 1.558834e+02 1.760229e+02 8.876682e+01 9.198408e+01 1.564800e+02 9.977818e+01 1.730094e+02 1.229135e+00 1.747509e+02 9.960114e+01 1.619804e+02 8.685482e+01 9.019341e+01 9.798722e+00 5.292903e+01 1.478569e+02 1.659355e+02 1.463085e+02 5.143733e+01 1.595021e+02 5.796682e+01 3.651035e+01 9.436826e+01 6.048117e+00 3.138769e+00 2.723881e+00 2.647886e+00 3.108011e+00 6.399819e+00
<VARIANCE> 33
 5.957341e+02 3.853667e+01 1.926927e+01 1.611982e+01 3.719014e+02 8.286458e+00 2.588430e+02 1.974816e+02 2.221158e+02 1.884388e+02 2.818361e+01 8.982006e-01 1.629508e+01 1.248967e+02 3.484055e+01 3.029825e+02 2.315070e+02 7.247327e+01 3.976157e+02 1.621628e+02 1.876595e+01 1.249548e+02 1.812506e+02 1.745231e+02 4.055255e+02 3.272821e+02 2.755374e+02 1.040469e+00 3.563657e-01 6.775201e-02 6.029830e-02 2.123128e-01 7.316067e-01
<GCONST> 1.740451e+02
<STATE> 4
<NUMMIXES> 4
<MIXTURE> 1 3.968573e-01
<MEAN> 33
 1.750091e+02 1.377965e+02 1.066433e+02 1.391997e+02 1.755808e+02 1.757683e+02 1.346742e+02 1.340489e+02 9.127684e+01 1.627968e+02 1.765666e+02 1.153753e+00 1.756026e+02 1.659880e+02 1.623178e+02 1.687023e+02 1.709253e+02 7.432827e+00 1.087590e+02 1.599773e+02 1.679170e+02 1.625561e+02 1.205434e+02 1.599116e+02 7.935542e+01 9.120222e+01 1.628218e+02 4.994471e+00 2.437120e+00 2.858756e+00 2.595992e+00 2.092663e+00 4.511339e+00
<VARIANCE> 33
 3.902650e+01 1.195353e+01 4.627978e+01 2.166673e+01 3.037716e+01 1.100038e+01 2.822034e+01 2.062020e+01 1.886277e+01 4.243837e+01 7.455125e+00 6.318162e-01 6.229231e+00 4.236965e+01 2.048401e+01 3.727525e+01 4.384236e+01 3.163475e+01 6.196307e+02 1.052448e+02 1.747277e+01 8.050417e+01 6.658805e+02 2.337113e+02 6.393939e+02 6.918151e+02 1.275166e+02 2.555031e+00 3.301232e-01 2.450129e-01 2.111449e-01 2.283316e-01 2.498919e+00
<GCONST> 1.580118e+02
<MIXTURE> 2 1.464051e-01
<MEAN> 33
 1.722923e+02 1.338196e+02 1.131930e+02 1.367349e+02 1.715688e+02 1.747480e+02 1.378195e+02 1.353360e+02 8.684449e+01 1.604240e+02 1.701137e+02 2.362945e+00 1.707836e+02 1.614561e+02 1.618111e+02 1.587720e+02 1.622014e+02 1.265470e+01 1.103097e+02 1.531741e+02 1.640641e+02 1.616685e+02 1.118344e+02 1.618549e+02 6.618536e+01 8.816354e+01 1.433926e+02 5.862556e+00 2.439967e+00 3.262334e+00 2.716690e+00 2.435718e+00 5.499891e+00
<VARIANCE> 33
 3.946497e+01 3.002408e+01 8.161134e+01 2.599531e+01 3.882533e+01 1.775181e+01 2.822034e+01 2.062020e+01 5.596888e+01 1.138500e+02 2.909607e+01 5.521006e+00 3.252534e+01 1.113450e+02 3.784711e+01 1.446550e+02 1.476633e+02 1.140761e+02 1.446931e+03 4.915918e+02 2.304797e+01 1.692737e+02 1.046440e+03 2.203785e+02 6.484537e+02 7.095571e+02 5.122045e+02 2.106037e+00 7.183464e-01 4.517367e-01 2.176037e-01 3.725420e-01 2.140116e+00
<GCONST> 1.799004e+02
<MIXTURE> 3 1.464051e-01
<MEAN> 33
 1.722923e+02 1.338196e+02 1.131930e+02 1.367349e+02 1.715688e+02 1.747480e+02 1.378195e+02 1.353360e+02 8.684449e+01 1.604240e+02 1.701137e+02 2.362945e+00 1.707836e+02 1.614561e+02 1.618111e+02 1.587720e+02 1.622014e+02 1.265470e+01 1.103097e+02 1.531741e+02 1.640641e+02 1.616685e+02 1.118344e+02 1.618549e+02 6.618536e+01 8.816354e+01 1.433926e+02 5.862556e+00 2.439967e+00 3.262334e+00 2.716690e+00 2.435718e+00 5.499891e+00
<VARIANCE> 33
 3.946497e+01 3.002408e+01 8.161134e+01 2.599531e+01 3.882533e+01 1.775181e+01 2.822034e+01 2.062020e+01 5.596888e+01 1.138500e+02 2.909607e+01 5.521006e+00 3.252534e+01 1.113450e+02 3.784711e+01 1.446550e+02 1.476633e+02 1.140761e+02 1.446931e+03 4.915918e+02 2.304797e+01 1.692737e+02 1.046440e+03 2.203785e+02 6.484537e+02 7.095571e+02 5.122045e+02 2.106037e+00 7.183464e-01 4.517367e-01 2.176037e-01 3.725420e-01 2.140116e+00
<GCONST> 1.799004e+02
<MIXTURE> 4 3.103306e-01
<MEAN> 33
 1.595037e+02 1.491777e+02 9.804774e+01 1.507857e+02 1.559385e+02 1.727345e+02 1.328089e+02 1.306958e+02 9.631871e+01 1.348598e+02 1.760884e+02 1.091625e+00 1.726856e+02 1.299398e+02 1.693764e+02 1.434246e+02 1.414730e+02 9.432789e+00 6.520811e+01 1.592552e+02 1.681879e+02 1.590440e+02 6.666922e+01 1.406828e+02 5.361429e+01 6.115709e+01 1.126556e+02 5.182408e+00 2.858600e+00 2.181185e+00 2.139887e+00 2.975627e+00 5.974487e+00
<VARIANCE> 33
 1.723403e+02 4.663217e+01 2.679062e+01 5.479383e+01 2.500072e+02 1.650495e+01 6.323508e+01 8.640175e+01 1.636427e+02 1.222237e+02 7.691538e+00 1.484375e+00 1.855710e+01 2.544180e+02 1.288036e+01 1.889176e+02 2.481822e+02 1.522027e+02 2.556524e+02 1.345786e+02 2.306470e+01 1.202150e+02 4.273503e+02 5.455369e+02 7.758132e+02 1.113912e+03 5.493976e+02 4.363959e+00 8.541684e-01 1.045628e-01 1.550167e-01 1.943278e+00 2.940155e+00
<GCONST> 1.826469e+02
<TRANSP> 5
 0.000000e+00 1.000000e+00 0.000000e+00 0.000000e+00 0.000000e+00
 0.000000e+00 9.300197e-01 6.998032e-02 0.000000e+00 0.000000e+00
 0.000000e+00 0.000000e+00 9.386712e-01 6.132879e-02 0.000000e+00
 0.000000e+00 0.000000e+00 0.000000e+00 9.376910e-01 6.230894e-02
 0.000000e+00 0.000000e+00 0.000000e+00 0.000000e+00 0.000000e+00
<ENDHMM>
~h "CV"
<BEGINHMM>
<NUMSTATES> 5
<STATE> 2
<NUMMIXES> 4
<MIXTURE> 1 4.253545e-01
<MEAN> 33
 1.738757e+02 1.370719e+02 1.073831e+02 1.387271e+02 1.743519e+02 1.752535e+02 1.354168e+02 1.347411e+02 8.984212e+01 1.593215e+02 1.761894e+02 1.691197e+00 1.752470e+02 1.613895e+02 1.625834e+02 1.662094e+02 1.695254e+02 9.279105e+00 9.947868e+01 1.527387e+02 1.695347e+02 1.613134e+02 1.073292e+02 1.588065e+02 6.532154e+01 9.843732e+01 1.585031e+02 4.354325e+00 2.549997e+00 2.530503e+00 2.442940e+00 2.354591e+00 4.347169e+00
<VARIANCE> 33
 3.902650e+01 1.918342e+01 6.544635e+01 3.171496e+01 3.037716e+01 1.330599e+01 2.822034e+01 2.062020e+01 2.452638e+01 5.966611e+01 2.089854e+01 4.156861e+00 1.180991e+01 5.059354e+01 4.577824e+01 7.637763e+01 7.309785e+01 5.684087e+01 7.950695e+02 2.832872e+02 2.844807e+01 1.212526e+02 4.790025e+02 2.245310e+02 9.152571e+02 1.096755e+03 2.310175e+02 4.427710e+00 6.818377e-01 4.159722e-01 3.135367e-01 7.343847e-01 3.725212e+00
<GCONST> 1.733045e+02
<MIXTURE> 2 2.128708e-01
<MEAN> 33
 1.235329e+02 1.341001e+02 1.161042e+02 1.400557e+02 9.847803e+01 1.722542e+02 9.891860e+01 8.018903e+01 1.362357e+02 1.177007e+02 1.638717e+02 4.764914e+00 1.607525e+02 1.089181e+02 1.606802e+02 1.126860e+02 9.512560e+01 7.888053e+01 8.718707e+01 1.264226e+02 1.691609e+02 1.511375e+02 8.412881e+01 1.384474e+02 5.774873e+01 7.474703e+01 9.414869e+01 4.896533e+00 2.982641e+00 3.151051e+00 2.905088e+00 3.699302e+00 5.371604e+00
<VARIANCE> 33
 3.634780e+03 1.487970e+02 1.010637e+02 2.000458e+02 4.143741e+03 3.210116e+01 2.155596e+03 2.424597e+03 1.357230e+03 1.605417e+03 1.974234e+02 3.718350e+01 2.551941e+02 1.598917e+03 8.176595e+01 2.386093e+03 2.436473e+03 2.354639e+03 2.364575e+03 9.020480e+02 5.724712e+01 4.493478e+02 1.077892e+03 1.285244e+03 2.305554e+03 1.569845e+03 1.532300e+03 5.241477e+00 1.584221e+00 5.667071e-01 4.527250e-01 1.674839e+00 3.475266e+00
<GCONST> 2.390147e+02
<MIXTURE> 3 1.257260e-01
<MEAN> 33
 1.376228e+02 1.392750e+02 1.094949e+02 1.385827e+02 1.454556e+02 1.755375e+02 1.173452e+02 1.165986e+02 1.217955e+02 1.131658e+02 1.746462e+02 1.611955e+00 1.745949e+02 1.177952e+02 1.640036e+02 1.113153e+02 1.146329e+02 1.126687e+01 4.959377e+01 1.537815e+02 1.687070e+02 1.590615e+02 5.950148e+01 1.580425e+02 3.100327e+01 5.212942e+01 7.257481e+01 5.940946e+00 3.065033e+00 2.817076e+00 2.763347e+00 2.962143e+00 5.823915e+00
<VARIANCE> 33
 5.518456e+02 4.220411e+01 6.064574e+01 4.514242e+01 5.398914e+02 1.733654e+01 5.017576e+02 3.509245e+02 1.107834e+03 2.818330e+02 1.996379e+01 2.118588e+00 1.406339e+01 4.153799e+02 3.672653e+01 3.838015e+02 5.210384e+02 1.608702e+02 4.812830e+02 2.065650e+02 2.462591e+01 1.977485e+02 5.308980e+02 2.020378e+02 5.662241e+02 8.079318e+02 6.904670e+02 1.381523e+00 3.608960e-01 1.894261e-01 1.484940e-01 6.162650e-01 1.101168e+00
<GCONST> 1.922995e+02
<MIXTURE> 4 2.360476e-01
<MEAN> 33
 2.683949e+01 1.396387e+02 1.106952e+02 1.453826e+02 2.783435e+01 1.743889e+02 2.451172e+01 2.988998e+01 5.141382e+01 6.592376e+01 1.491254e+02 6.009599e+00 1.507899e+02 6.973507e+01 1.639965e+02 4.345977e+01 4.144061e+01 5.764932e+00 1.044839e+02 1.240572e+02 1.652294e+02 1.396606e+02 9.817595e+01 1.066591e+02 8.993014e+01 9.228722e+01 5.758121e+01 4.687582e+00 2.857450e+00 2.935467e+00 2.810080e+00 3.401800e+00 4.699178e+00
<VARIANCE> 33
 5.615490e+02 4.300947e+02 2.024553e+02 4.258347e+02 4.107778e+02 2.209233e+01 1.249270e+02 1.697125e+02 6.641460e+02 4.385312e+02 4.797420e+02 1.292621e+02 5.834195e+02 6.062753e+02 8.217521e+01 1.696566e+02 1.660758e+02 3.148238e+01 1.490809e+03 1.195573e+03 1.826207e+02 7.302751e+02 7.388179e+02 2.850575e+03 2.077245e+03 2.260775e+03 8.338542e+02 1.196299e+00 6.014571e-01 6.102626e-01 5.204716e-01 8.318794e-01 1.019268e+00
<GCONST> 2.191840e+02
<STATE> 3
<NUMMIXES> 4
<MIXTURE> 1 1.879349e-01
<MEAN> 33
 6.676534e+01 1.386654e+02 1.104816e+02 1.389104e+02 6.560981e+01 1.748735e+02 3.942219e+01 4.614251e+01 7.645176e+01 8.344659e+01 1.693552e+02 2.035377e+00 1.688372e+02 8.494052e+01 1.629324e+02 6.832430e+01 6.718333e+01 7.214587e+00 6.671763e+01 1.491119e+02 1.670684e+02 1.549184e+02 6.836723e+01 1.563560e+02 2.419911e+01 3.735640e+01 3.541274e+01 4.426656e+00 3.150418e+00 3.247858e+00 3.205618e+00 3.314937e+00 4.428457e+00
<VARIANCE> 33
 5.135431e+02 7.041421e+01 8.851659e+01 4.451820e+01 7.925038e+02 2.129093e+01 4.766140e+02 4.318051e+02 1.743106e+03 1.697349e+02 6.920532e+01 4.227531e+00 6.736166e+01 1.581517e+02 3.886017e+01 1.798422e+02 1.503296e+02 1.299955e+02 1.232720e+03 5.666763e+02 2.351633e+01 3.015169e+02 8.369599e+02 3.145530e+02 5.126898e+02 6.436772e+02 3.596366e+02 6.031843e-01 4.461872e-01 3.484662e-01 2.536652e-01 6.501511e-01 6.169253e-01
<GCONST> 1.964194e+02
<MIXTURE> 2 1.569625e-01
<MEAN> 33
 3.245458e+01 1.323054e+02 1.111508e+02 1.392042e+02 2.064410e+01 1.758092e+02 1.806163e+01 2.607543e+01 4.078922e+01 6.474167e+01 1.637027e+02 1.519032e+00 1.663575e+02 6.176663e+01 1.618346e+02 4.732243e+01 4.502651e+01 5.072775e+00 1.082178e+02 1.261768e+02 1.724743e+02 1.470216e+02 9.311011e+01 1.326674e+02 5.045032e+01 5.219815e+01 3.871557e+01 4.329502e+00 2.639873e+00 3.498840e+00 3.257264e+00 2.855732e+00 4.030175e+00
<VARIANCE> 33
 3.007392e+02 8.250037e+01 1.178549e+02 1.326865e+02 2.292950e+02 1.388558e+01 6.392250e+01 7.383045e+01 2.474065e+02 8.643011e+01 7.344856e+01 1.793407e+00 5.912789e+01 9.601286e+01 4.289989e+01 8.099932e+01 5.472837e+01 3.148238e+01 7.511295e+02 7.013789e+02 2.523138e+01 4.460043e+02 6.264971e+02 1.322836e+03 1.292984e+03 1.553030e+03 2.152212e+02 3.441353e-01 5.851204e-01 5.598683e-01 6.019105e-01 9.910221e-01 2.640797e-01
<GCONST> 1.880363e+02
<MIXTURE> 3 1.569625e-01
<MEAN> 33
 3.245458e+01 1.323054e+02 1.111508e+02 1.392042e+02 2.064410e+01 1.758092e+02 1.806163e+01 2.607543e+01 4.078922e+01 6.474167e+01 1.637027e+02 1.519032e+00 1.663575e+02 6.176663e+01 1.618346e+02 4.732243e+01 4.502651e+01 5.072775e+00 1.082178e+02 1.261768e+02 1.724743e+02 1.470216e+02 9.311011e+01 1.326674e+02 5.045032e+01 5.219815e+01 3.871557e+01 4.329502e+00 2.639873e+00 3.498840e+00 3.257264e+00 2.855732e+00 4.030175e+00
<VARIANCE> 33
 3.007392e+02 8.250037e+01 1.178549e+02 1.326865e+02 2.292950e+02 1.388558e+01 6.392250e+01 7.383045e+01 2.474065e+02 8.643011e+01 7.344856e+01 1.793407e+00 5.912789e+01 9.601286e+01 4.289989e+01 8.099932e+01 5.472837e+01 3.148238e+01 7.511295e+02 7.013789e+02 2.523138e+01 4.460043e+02 6.264971e+02 1.322836e+03 1.292984e+03 1.553030e+03 2.152212e+02 3.441353e-01 5.851204e-01 5.598683e-01 6.019105e-01 9.910221e-01 2.640797e-01
<GCONST> 1.880363e+02
<MIXTURE> 4 4.981371e-01
<MEAN> 33
 3.005759e+01 1.247910e+02 1.252316e+02 1.276153e+02 2.646067e+01 1.761252e+02 2.085917e+01 2.479945e+01 4.469186e+01 7.554458e+01 1.425829e+02 4.780781e+00 1.418784e+02 7.709663e+01 1.628187e+02 5.028107e+01 4.872136e+01 3.462637e+00 1.362417e+02 9.691695e+01 1.665299e+02 1.138861e+02 1.200687e+02 1.498683e+02 2.779002e+01 4.095411e+01 3.592498e+01 4.122784e+00 2.962422e+00 4.275161e+00 3.969577e+00 3.289801e+00 4.036611e+00
<VARIANCE> 33
 1.448386e+02 1.006308e+02 1.387623e+02 8.223071e+01 1.641257e+02 1.255608e+01 6.066262e+01 7.602515e+01 2.298799e+02 1.080837e+02 1.185020e+02 3.154385e+01 1.369185e+02 1.136620e+02 5.304452e+01 6.190344e+01 5.552980e+01 3.148238e+01 2.958947e+02 2.229574e+02 4.237619e+01 3.663865e+02 4.052905e+02 5.025851e+02 4.475258e+02 7.751241e+02 9.410432e+01 2.903687e-01 4.014837e-01 3.947434e-01 2.585289e-01 4.464048e-01 2.495124e-01
<GCONST> 1.828555e+02
<STATE> 4
<NUMMIXES> 4
<MIXTURE> 1 4.578000e-01
<MEAN> 33
 1.737581e+02 1.357269e+02 1.133340e+02 1.356284e+02 1.739710e+02 1.757693e+02 1.361526e+02 1.353086e+02 8.853876e+01 1.640372e+02 1.750224e+02 1.955996e+00 1.742435e+02 1.655974e+02 1.617604e+02 1.686546e+02 1.685984e+02 7.580133e+00 1.133229e+02 1.540178e+02 1.684828e+02 1.597777e+02 1.223542e+02 1.602818e+02 7.580615e+01 9.857767e+01 1.584881e+02 4.921493e+00 2.750747e+00 2.862340e+00 2.733003e+00 2.590288e+00 4.751934e+00
<VARIANCE> 33
 3.902650e+01 2.048939e+01 7.616523e+01 2.749661e+01 3.037716e+01 1.291764e+01 2.822034e+01 2.062020e+01 3.959518e+01 7.800316e+01 1.921625e+01 5.276767e+00 2.244672e+01 8.124728e+01 3.433890e+01 5.919173e+01 6.542605e+01 3.650733e+01 1.368237e+03 2.078630e+02 2.019388e+01 1.766632e+02 1.087083e+03 2.673922e+02 8.700147e+02 1.114136e+03 2.106806e+02 2.406835e+00 1.473277e+00 3.309986e-01 2.137913e-01 1.208915e+00 2.346702e+00
<GCONST> 1.749909e+02
<MIXTURE> 2 1.519434e-01
<MEAN> 33
 1.680567e+02 1.347408e+02 1.142753e+02 1.375973e+02 1.671643e+02 1.764750e+02 1.376690e+02 1.346821e+02 8.764894e+01 1.568426e+02 1.666425e+02 1.471410e+00 1.662561e+02 1.578951e+02 1.623707e+02 1.442812e+02 1.445545e+02 9.712579e+00 1.200364e+02 1.427700e+02 1.683698e+02 1.504419e+02 1.179144e+02 1.465564e+02 6.731436e+01 7.654403e+01 1.088770e+02 6.068102e+00 2.443321e+00 2.809990e+00 2.694744e+00 2.489101e+00 6.040220e+00
<VARIANCE> 33
 9.285491e+01 5.149287e+01 7.661600e+01 7.722748e+01 9.344254e+01 9.027130e+00 8.329790e+01 7.074361e+01 2.633725e+02 1.904526e+02 5.436636e+01 1.640106e+00 6.058677e+01 2.045846e+02 3.646358e+01 2.083235e+02 2.438432e+02 9.097791e+01 1.507683e+03 5.548093e+02 4.048166e+01 4.432505e+02 1.443918e+03 1.498301e+03 2.260471e+03 1.685096e+03 8.900064e+02 1.310511e+00 3.658977e-01 3.112996e-01 1.948532e-01 3.196896e-01 1.259761e+00
<GCONST> 1.924244e+02
<MIXTURE> 3 1.519434e-01
<MEAN> 33
 1.680567e+02 1.347408e+02 1.142753e+02 1.375973e+02 1.671643e+02 1.764750e+02 1.376690e+02 1.346821e+02 8.764894e+01 1.568426e+02 1.666425e+02 1.471410e+00 1.662561e+02 1.578951e+02 1.623707e+02 1.442812e+02 1.445545e+02 9.712579e+00 1.200364e+02 1.427700e+02 1.683698e+02 1.504419e+02 1.179144e+02 1.465564e+02 6.731436e+01 7.654403e+01 1.088770e+02 6.068102e+00 2.443321e+00 2.809990e+00 2.694744e+00 2.489101e+00 6.040220e+00
<VARIANCE> 33
 9.285491e+01 5.149287e+01 7.661600e+01 7.722748e+01 9.344254e+01 9.027130e+00 8.329790e+01 7.074361e+01 2.633725e+02 1.904526e+02 5.436636e+01 1.640106e+00 6.058677e+01 2.045846e+02 3.646358e+01 2.083235e+02 2.438432e+02 9.097791e+01 1.507683e+03 5.548093e+02 4.048166e+01 4.432505e+02 1.443918e+03 1.498301e+03 2.260471e+03 1.685096e+03 8.900064e+02 1.310511e+00 3.658977e-01 3.112996e-01 1.948532e-01 3.196896e-01 1.259761e+00
<GCONST> 1.924244e+02
<MIXTURE> 4 2.383115e-01
<MEAN> 33
 1.229707e+02 1.318157e+02 1.201671e+02 1.341811e+02 1.155079e+02 1.756610e+02 1.057922e+02 9.980533e+01 1.038042e+02 1.226165e+02 1.604322e+02 3.709192e+00 1.605196e+02 1.204851e+02 1.619631e+02 9.977880e+01 9.543813e+01 1.390122e+01 1.080054e+02 1.259023e+02 1.688374e+02 1.398107e+02 9.442651e+01 1.360327e+02 4.372329e+01 5.813304e+01 4.742437e+01 5.198284e+00 2.935115e+00 3.453246e+00 3.294300e+00 3.381822e+00 5.216517e+00
<VARIANCE> 33
 1.361888e+03 9.553894e+01 1.541151e+02 1.080323e+02 1.059333e+03 1.348549e+01 1.742536e+03 1.605861e+03 2.361588e+03 5.628248e+02 1.505267e+02 2.347691e+01 1.488982e+02 3.611877e+02 4.952143e+01 6.063784e+02 4.741707e+02 3.753234e+02 1.746106e+03 8.780013e+02 3.915216e+01 6.661128e+02 1.135531e+03 1.727980e+03 1.474641e+03 1.465224e+03 9.766567e+02 1.289495e+00 6.401591e-01 4.298379e-01 3.344866e-01 6.510160e-01 1.563619e+00
<GCONST> 2.203777e+02
<TRANSP> 5
 0.000000e+00 1.000000e+00 0.000000e+00 0.000000e+00 0.000000e+00
 0.000000e+00 9.222615e-01 7.773852e-02 0.000000e+00 0.000000e+00
 0.000000e+00 0.000000e+00 9.494849e-01 5.051504e-02 0.000000e+00
 0.000000e+00 0.000000e+00 0.000000e+00 9.312295e-01 6.877044e-02
 0.000000e+00 0.000000e+00 0.000000e+00 0.000000e+00 0.000000e+00
<ENDHMM>
~h "DC"
<BEGINHMM>
<NUMSTATES> 5
<STATE> 2
<NUMMIXES> 4
<MIXTURE> 1 5.377516e-01
<MEAN> 33
 1.736108e+02 1.365004e+02 1.080745e+02 1.381542e+02 1.749387e+02 1.759407e+02 1.351787e+02 1.343725e+02 9.044884e+01 1.574953e+02 1.751830e+02 1.563318e+00 1.747467e+02 1.610773e+02 1.619384e+02 1.626083e+02 1.676470e+02 1.092215e+01 9.814147e+01 1.531766e+02 1.692497e+02 1.623175e+02 1.064316e+02 1.569523e+02 7.327744e+01 8.769168e+01 1.540901e+02 4.699358e+00 2.600398e+00 2.664994e+00 2.473077e+00 2.347944e+00 4.583513e+00
<VARIANCE> 33
 3.902650e+01 2.368218e+01 6.134354e+01 2.856085e+01 3.037716e+01 1.112240e+01 2.822034e+01 2.062020e+01 2.522858e+01 8.134204e+01 2.462006e+01 4.019665e+00 1.997326e+01 4.597168e+01 5.210147e+01 1.172911e+02 6.982239e+01 1.045304e+02 8.974203e+02 2.903868e+02 2.919869e+01 1.498678e+02 4.432955e+02 2.930108e+02 1.138470e+03 1.261962e+03 2.888309e+02 5.289554e+00 8.693171e-01 3.851849e-01 3.716219e-01 7.865493e-01 3.337461e+00
<GCONST> 1.768132e+02
<MIXTURE> 2 1.265819e-01
<MEAN> 33
 1.315497e+02 1.382073e+02 1.110657e+02 1.385120e+02 1.367962e+02 1.772180e+02 1.178933e+02 1.123709e+02 1.219152e+02 1.139396e+02 1.736849e+02 1.254221e+00 1.734007e+02 1.138514e+02 1.621279e+02 1.064162e+02 1.067918e+02 5.471653e+00 6.246020e+01 1.597342e+02 1.697395e+02 1.628803e+02 6.558865e+01 1.548115e+02 3.513312e+01 3.923674e+01 5.800415e+01 5.907633e+00 2.984367e+00 2.977672e+00 2.894398e+00 3.029052e+00 5.782393e+00
<VARIANCE> 33
 4.834360e+02 2.244578e+01 6.683118e+01 3.158264e+01 5.049745e+02 5.974320e+00 5.348409e+02 4.590888e+02 1.098236e+03 1.426705e+02 2.605749e+01 1.401657e+00 2.511629e+01 1.802412e+02 3.953679e+01 2.914273e+02 3.398994e+02 3.148238e+01 4.923028e+02 1.907642e+02 2.710046e+01 1.447355e+02 4.081201e+02 3.969544e+02 7.237859e+02 7.121926e+02 6.438751e+02 8.416089e-01 3.552888e-01 1.810042e-01 1.514941e-01 6.204385e-01 7.855307e-01
<GCONST> 1.864457e+02
<MIXTURE> 3 1.265819e-01
<MEAN> 33
 1.315497e+02 1.382073e+02 1.110657e+02 1.385120e+02 1.367962e+02 1.772180e+02 1.178933e+02 1.123709e+02 1.219152e+02 1.139396e+02 1.736849e+02 1.254221e+00 1.734007e+02 1.138514e+02 1.621279e+02 1.064162e+02 1.067918e+02 5.471653e+00 6.246020e+01 1.597342e+02 1.697395e+02 1.628803e+02 6.558865e+01 1.548115e+02 3.513312e+01 3.923674e+01 5.800415e+01 5.907633e+00 2.984367e+00 2.977672e+00 2.894398e+00 3.029052e+00 5.782393e+00
<VARIANCE> 33
 4.834360e+02 2.244578e+01 6.683118e+01 3.158264e+01 5.049745e+02 5.974320e+00 5.348409e+02 4.590888e+02 1.098236e+03 1.426705e+02 2.605749e+01 1.401657e+00 2.511629e+01 1.802412e+02 3.953679e+01 2.914273e+02 3.398994e+02 3.148238e+01 4.923028e+02 1.907642e+02 2.710046e+01 1.447355e+02 4.081201e+02 3.969544e+02 7.237859e+02 7.121926e+02 6.438751e+02 8.416089e-01 3.552888e-01 1.810042e-01 1.514941e-01 6.204385e-01 7.855307e-01
<GCONST> 1.864457e+02
<MIXTURE> 4 2.090844e-01
<MEAN> 33
 1.151700e+02 1.291009e+02 1.125832e+02 1.409873e+02 1.056483e+02 1.712373e+02 9.355889e+01 8.370941e+01 9.887611e+01 1.208085e+02 1.585781e+02 3.504883e+00 1.603449e+02 1.140723e+02 1.590873e+02 1.038832e+02 9.222752e+01 4.116368e+01 1.096166e+02 1.128977e+02 1.712602e+02 1.451692e+02 9.816224e+01 1.248863e+02 6.347192e+01 7.400779e+01 6.415878e+01 5.262912e+00 2.573091e+00 3.214918e+00 2.899971e+00 3.194174e+00 5.439046e+00
<VARIANCE> 33
 1.881711e+03 3.073778e+02 1.470350e+02 2.227718e+02 2.762631e+03 4.617208e+01 2.422466e+03 2.142774e+03 2.766004e+03 7.503240e+02 3.252567e+02 1.572469e+01 1.853438e+02 7.484475e+02 8.414068e+01 1.335160e+03 1.078300e+03 2.709495e+03 2.001307e+03 1.464845e+03 3.212572e+01 6.078673e+02 1.276057e+03 1.674169e+03 2.506681e+03 2.429034e+03 2.069187e+03 2.689412e+00 1.484039e+00 7.792068e-01 4.831238e-01 1.458940e+00 2.569403e+00
<GCONST> 2.373068e+02
<STATE> 3
<NUMMIXES> 4
<MIXTURE> 1 2.899576e-01
<MEAN> 33
 9.464178e+01 1.382005e+02 1.104706e+02 1.420583e+02 9.144678e+01 1.739830e+02 8.254064e+01 7.995522e+01 7.995682e+01 1.160404e+02 1.643725e+02 1.896586e+00 1.649609e+02 1.122498e+02 1.626411e+02 8.815983e+01 8.689137e+01 3.626299e+00 9.385869e+01 1.345764e+02 1.720592e+02 1.476235e+02 8.392922e+01 1.149875e+02 6.628217e+01 6.660281e+01 1.747471e+01 4.322869e+00 3.391059e+00 3.482093e+00 3.280510e+00 3.869403e+00 4.446565e+00
<VARIANCE> 33
 1.740754e+02 6.122871e+01 1.679353e+02 1.297455e+02 3.928939e+02 2.239691e+01 1.516584e+03 1.568063e+03 3.064293e+03 1.463304e+02 5.905183e+01 3.340127e+00 7.100123e+01 1.707468e+02 2.237270e+01 5.134104e+01 4.422976e+01 3.148238e+01 7.926533e+02 5.474952e+02 2.595613e+01 4.289277e+02 7.660844e+02 2.234230e+03 2.397904e+03 2.170648e+03 2.065789e+02 5.083005e-01 8.898320e-01 3.404779e-01 3.758491e-01 1.395711e+00 5.279216e-01
<GCONST> 1.999558e+02
<MIXTURE> 2 2.279902e-01
<MEAN> 33
 7.321539e+01 1.295861e+02 1.129871e+02 1.361973e+02 6.551207e+01 1.754935e+02 3.128578e+01 2.515915e+01 3.737790e+01 9.563874e+01 1.564938e+02 2.620535e+00 1.609389e+02 9.496800e+01 1.615002e+02 6.672276e+01 6.637975e+01 2.835315e+00 1.188367e+02 1.025896e+02 1.704656e+02 1.400666e+02 8.656501e+01 1.479184e+02 4.622276e+01 4.078528e+01 1.923079e+01 4.419258e+00 3.070081e+00 3.990863e+00 3.796365e+00 3.685811e+00 3.977978e+00
<VARIANCE> 33
 1.992396e+02 3.572017e+01 5.366865e+01 3.017312e+01 2.089078e+02 2.136121e+01 3.788996e+02 3.099187e+02 8.371154e+02 1.289760e+02 9.911266e+01 7.927660e+00 5.646110e+01 1.102713e+02 2.949601e+01 4.493333e+01 4.492826e+01 3.148238e+01 6.525184e+02 6.848803e+02 2.743040e+01 4.022665e+02 5.871041e+02 4.203795e+02 6.534034e+02 6.063659e+02 2.478828e+02 4.321734e-01 7.229010e-01 1.681554e-01 1.019519e-01 6.348292e-01 2.317165e-01
<GCONST> 1.844153e+02
<MIXTURE> 3 2.517038e-01
<MEAN> 33
 7.793298e+01 1.405217e+02 1.087478e+02 1.400066e+02 7.524380e+01 1.753248e+02 3.072003e+01 3.293758e+01 4.634911e+01 1.092747e+02 1.596463e+02 8.236982e-01 1.617071e+02 1.066607e+02 1.591968e+02 7.512817e+01 7.466664e+01 2.144986e+00 1.035158e+02 1.279239e+02 1.720743e+02 1.332542e+02 1.021278e+02 1.104846e+02 6.310963e+01 6.487357e+01 1.582930e+01 4.362762e+00 3.650678e+00 3.667213e+00 3.507751e+00 3.606899e+00 4.365778e+00
<VARIANCE> 33
 8.930356e+01 4.041912e+01 4.334881e+01 5.205315e+01 2.615645e+02 9.813628e+00 3.836373e+02 3.827780e+02 1.122925e+03 6.019611e+01 3.525500e+01 5.357184e-01 4.899408e+01 6.676993e+01 2.679446e+01 3.071743e+01 2.603529e+01 3.148238e+01 3.635338e+02 2.803192e+02 2.197357e+01 2.941128e+02 3.145093e+02 2.142406e+03 2.739808e+03 2.554603e+03 1.624261e+02 4.607022e-01 5.246701e-01 1.198955e-01 8.844813e-02 3.197658e-01 3.534726e-01
<GCONST> 1.783163e+02
<MIXTURE> 4 2.303475e-01
<MEAN> 33
 7.090704e+01 1.202820e+02 1.148485e+02 1.336155e+02 5.835262e+01 1.702749e+02 2.152144e+01 1.660239e+01 2.276965e+01 1.137279e+02 1.380249e+02 3.510797e+00 1.414413e+02 1.139601e+02 1.542971e+02 6.524939e+01 6.546384e+01 2.409845e+00 1.426988e+02 9.006110e+01 1.721801e+02 1.069013e+02 1.276753e+02 1.044330e+02 8.618346e+01 8.552615e+01 1.082260e+01 3.989962e+00 2.549682e+00 3.952318e+00 3.848368e+00 3.119648e+00 3.914988e+00
<VARIANCE> 33
 7.180692e+02 2.605422e+02 1.386601e+02 8.306657e+01 5.150836e+02 6.299089e+01 3.419162e+02 1.784437e+02 4.108222e+02 4.046740e+02 1.886657e+02 4.214734e+01 1.924386e+02 3.845141e+02 9.870185e+01 1.096073e+02 1.031817e+02 3.148238e+01 2.654289e+02 2.433101e+02 6.666348e+01 1.612168e+02 2.799406e+02 1.997048e+03 2.305441e+03 2.404814e+03 1.202859e+02 4.096265e-01 4.124086e-01 3.871360e-01 3.187447e-01 7.594306e-01 4.665933e-01
<GCONST> 2.021383e+02
<STATE> 4
<NUMMIXES> 4
<MIXTURE> 1 4.661502e-01
<MEAN> 33
 1.722669e+02 1.382965e+02 1.106665e+02 1.386989e+02 1.734097e+02 1.761455e+02 1.346167e+02 1.343484e+02 9.103490e+01 1.641908e+02 1.742160e+02 1.289999e+00 1.748540e+02 1.666094e+02 1.612891e+02 1.660215e+02 1.659481e+02 1.023187e+01 1.214679e+02 1.542291e+02 1.693394e+02 1.569825e+02 1.315891e+02 1.510378e+02 8.539342e+01 9.560107e+01 1.545531e+02 4.829772e+00 2.846083e+00 2.782378e+00 2.535048e+00 2.533635e+00 4.664171e+00
<VARIANCE> 33
 3.902650e+01 2.269578e+01 8.081353e+01 2.908963e+01 3.330169e+01 1.188850e+01 2.822034e+01 2.062020e+01 4.032439e+01 1.035402e+02 1.896647e+01 2.383595e+00 1.618682e+01 9.131668e+01 4.710462e+01 8.039346e+01 8.759050e+01 8.739677e+01 1.526624e+03 2.357674e+02 3.307722e+01 1.726924e+02 1.290462e+03 8.458315e+02 1.216504e+03 1.321472e+03 2.578039e+02 2.760618e+00 1.513932e+00 3.374885e-01 1.971855e-01 9.052449e-01 2.393587e+00
<GCONST> 1.788586e+02
<MIXTURE> 2 1.345184e-01
<MEAN> 33
 1.678604e+02 1.380161e+02 1.096612e+02 1.397356e+02 1.681089e+02 1.748964e+02 1.374307e+02 1.325725e+02 8.999676e+01 1.634391e+02 1.666638e+02 1.348026e+00 1.667631e+02 1.638251e+02 1.619805e+02 1.409859e+02 1.409132e+02 9.447050e+00 1.344530e+02 1.331394e+02 1.705826e+02 1.451677e+02 1.336492e+02 1.298150e+02 7.393361e+01 9.820884e+01 1.023424e+02 6.137830e+00 2.308327e+00 2.704338e+00 2.648081e+00 2.388480e+00 6.036973e+00
<VARIANCE> 33
 9.847558e+01 5.905261e+01 5.708498e+01 5.167545e+01 8.632156e+01 1.927913e+01 1.031306e+02 8.105190e+01 2.725815e+02 1.526930e+02 5.496430e+01 1.705570e+00 5.911624e+01 1.538992e+02 4.133049e+01 1.796292e+02 2.476212e+02 7.027608e+01 1.339315e+03 6.815452e+02 3.669871e+01 3.896684e+02 1.112716e+03 2.268168e+03 2.497631e+03 2.168123e+03 6.833779e+02 8.595983e-01 2.281077e-01 2.239814e-01 1.270658e-01 1.890429e-01 7.533595e-01
<GCONST> 1.896534e+02
<MIXTURE> 3 1.345184e-01
<MEAN> 33
 1.678604e+02 1.380161e+02 1.096612e+02 1.397356e+02 1.681089e+02 1.748964e+02 1.374307e+02 1.325725e+02 8.999676e+01 1.634391e+02 1.666638e+02 1.348026e+00 1.667631e+02 1.638251e+02 1.619805e+02 1.409859e+02 1.409132e+02 9.447050e+00 1.344530e+02 1.331394e+02 1.705826e+02 1.451677e+02 1.336492e+02 1.298150e+02 7.393361e+01 9.820884e+01 1.023424e+02 6.137830e+00 2.308327e+00 2.704338e+00 2.648081e+00 2.388480e+00 6.036973e+00
<VARIANCE> 33
 9.847558e+01 5.905261e+01 5.708498e+01 5.167545e+01 8.632156e+01 1.927913e+01 1.031306e+02 8.105190e+01 2.725815e+02 1.526930e+02 5.496430e+01 1.705570e+00 5.911624e+01 1.538992e+02 4.133049e+01 1.796292e+02 2.476212e+02 7.027608e+01 1.339315e+03 6.815452e+02 3.669871e+01 3.896684e+02 1.112716e+03 2.268168e+03 2.497631e+03 2.168123e+03 6.833779e+02 8.595983e-01 2.281077e-01 2.239814e-01 1.270658e-01 1.890429e-01 7.533595e-01
<GCONST> 1.896534e+02
<MIXTURE> 4 2.648110e-01
<MEAN> 33
 1.359180e+02 1.330200e+02 1.127077e+02 1.385661e+02 1.289082e+02 1.720203e+02 1.276056e+02 1.220215e+02 8.369798e+01 1.361877e+02 1.629448e+02 2.967544e+00 1.612371e+02 1.335732e+02 1.610438e+02 1.098414e+02 1.067785e+02 1.050245e+01 1.136202e+02 1.200112e+02 1.707557e+02 1.376667e+02 9.954980e+01 1.273734e+02 6.153310e+01 7.110575e+01 4.609574e+01 4.714408e+00 2.802933e+00 3.305778e+00 3.218955e+00 3.248436e+00 5.059785e+00
<VARIANCE> 33
 5.770593e+02 1.309838e+02 1.268966e+02 1.263756e+02 7.592899e+02 4.739679e+01 1.209560e+03 1.238623e+03 2.264539e+03 3.368203e+02 1.037505e+02 3.165493e+01 1.377512e+02 4.212388e+02 6.956819e+01 4.096676e+02 4.068211e+02 2.434982e+02 1.483495e+03 1.188883e+03 4.301731e+01 6.803109e+02 1.504821e+03 1.843161e+03 2.153994e+03 2.068760e+03 1.206683e+03 1.559946e+00 5.915505e-01 4.303159e-01 3.878390e-01 8.706809e-01 1.253094e+00
<GCONST> 2.207722e+02
<TRANSP> 5
 0.000000e+00 1.000000e+00 0.000000e+00 0.000000e+00 0.000000e+00
 0.000000e+00 8.875651e-01 1.124349e-01 0.000000e+00 0.000000e+00
 0.000000e+00 0.000000e+00 9.593571e-01 4.064281e-02 0.000000e+00
 0.000000e+00 0.000000e+00 0.000000e+00 9.290639e-01 7.093611e-02
 0.000000e+00 0.000000e+00 0.000000e+00 0.000000e+00 0.000000e+00
<ENDHMM>
~h "FM"
<BEGINHMM>
<NUMSTATES> 5
<STATE> 2
<NUMMIXES> 4
<MIXTURE> 1 2.690713e-01
<MEAN> 33
 1.723273e+02 1.377408e+02 1.085740e+02 1.382466e+02 1.748046e+02 1.764969e+02 1.349380e+02 1.340648e+02 9.099720e+01 1.561949e+02 1.749940e+02 1.382411e+00 1.751643e+02 1.612265e+02 1.618397e+02 1.631034e+02 1.670578e+02 1.142262e+01 9.398621e+01 1.526640e+02 1.699091e+02 1.620006e+02 1.084522e+02 1.584400e+02 7.097041e+01 9.091279e+01 1.542212e+02 5.025554e+00 2.798798e+00 2.647630e+00 2.520465e+00 2.330861e+00 4.856594e+00
<VARIANCE> 33
 3.902650e+01 2.988216e+01 7.352337e+01 3.438145e+01 3.037716e+01 9.883535e+00 2.822034e+01 2.062020e+01 3.727720e+01 8.565634e+01 2.249175e+01 3.037016e+00 1.602271e+01 5.221275e+01 4.867742e+01 1.261199e+02 8.573798e+01 1.200514e+02 9.681418e+02 2.338238e+02 2.226068e+01 1.408895e+02 5.629858e+02 2.165753e+02 9.791357e+02 1.208158e+03 2.865630e+02 4.968914e+00 9.080989e-01 2.854412e-01 4.206241e-01 7.800097e-01 3.152151e+00
<GCONST> 1.766213e+02
<MIXTURE> 2 2.654599e-01
<MEAN> 33
 1.720000e+02 1.389372e+02 1.104526e+02 1.674753e+02 1.001328e+02 1.735014e+02 1.351384e+02 9.331077e+01 1.315377e+02 1.557437e+02 1.699845e+02 4.593125e+00 1.527249e+02 1.076371e+02 1.620759e+02 1.689367e+02 9.968311e+01 7.302628e+01 8.349869e+01 1.435132e+02 1.676920e+02 1.583666e+02 4.373039e+01 1.226149e+02 6.534982e+01 1.017540e+02 1.450085e+02 3.742342e+00 2.733684e+00 2.614345e+00 2.137094e+00 6.277977e+00 6.610346e+00
<VARIANCE> 33
 3.902650e+01 5.649968e+01 1.207763e+02 9.054858e+01 5.284191e+02 4.796204e+01 2.822034e+01 2.490997e+02 3.079834e+02 7.650230e+01 9.796795e+01 2.485627e+01 2.854058e+02 6.537574e+02 7.052474e+01 6.772772e+01 1.277637e+03 1.187995e+03 5.820550e+02 4.622061e+02 5.531503e+01 1.420650e+02 1.968144e+02 2.260785e+03 2.251545e+03 1.777296e+03 4.291877e+02 2.173417e+00 1.003846e+00 2.354323e-01 3.697162e-01 2.397442e+00 3.873491e+00
<GCONST> 2.056616e+02
<MIXTURE> 3 2.654599e-01
<MEAN> 33
 1.720000e+02 1.389372e+02 1.104526e+02 1.674753e+02 1.001328e+02 1.735014e+02 1.351384e+02 9.331077e+01 1.315377e+02 1.557437e+02 1.699845e+02 4.593125e+00 1.527249e+02 1.076371e+02 1.620759e+02 1.689367e+02 9.968311e+01 7.302628e+01 8.349869e+01 1.435132e+02 1.676920e+02 1.583666e+02 4.373039e+01 1.226149e+02 6.534982e+01 1.017540e+02 1.450085e+02 3.742342e+00 2.733684e+00 2.614345e+00 2.137094e+00 6.277977e+00 6.610346e+00
<VARIANCE> 33
 3.902650e+01 5.649968e+01 1.207763e+02 9.054858e+01 5.284191e+02 4.796204e+01 2.822034e+01 2.490997e+02 3.079834e+02 7.650230e+01 9.796795e+01 2.485627e+01 2.854058e+02 6.537574e+02 7.052474e+01 6.772772e+01 1.277637e+03 1.187995e+03 5.820550e+02 4.622061e+02 5.531503e+01 1.420650e+02 1.968144e+02 2.260785e+03 2.251545e+03 1.777296e+03 4.291877e+02 2.173417e+00 1.003846e+00 2.354323e-01 3.697162e-01 2.397442e+00 3.873491e+00
<GCONST> 2.056616e+02
<MIXTURE> 4 2.000092e-01
<MEAN> 33
 1.039698e+02 1.565500e+02 1.132988e+02 1.506650e+02 1.246404e+02 1.706928e+02 8.510691e+01 1.038467e+02 1.350708e+02 1.015601e+02 1.653672e+02 2.595027e+00 1.626497e+02 1.328818e+02 1.630943e+02 8.484070e+01 1.147137e+02 8.021352e+01 6.190228e+01 1.559157e+02 1.677228e+02 1.513497e+02 6.664813e+01 1.342453e+02 6.390500e+01 8.142762e+01 1.160980e+02 5.767922e+00 5.520439e+00 2.586434e+00 2.677887e+00 3.808384e+00 4.271274e+00
<VARIANCE> 33
 1.348426e+03 3.032730e+02 8.721700e+01 6.347482e+02 1.280486e+03 5.138953e+01 1.005505e+03 9.207544e+02 2.313777e+03 7.401205e+02 1.635081e+02 5.276728e+00 2.440703e+02 7.924872e+02 5.970726e+01 9.338355e+02 1.331033e+03 4.110567e+03 1.716517e+03 4.436621e+02 5.790297e+01 6.654399e+02 1.714177e+03 1.193808e+03 1.821609e+03 2.394367e+03 2.858845e+03 3.729836e+00 7.428790e+00 6.534069e-01 5.810410e-01 1.392404e+00 2.563088e+00
<GCONST> 2.345617e+02
<STATE> 3
<NUMMIXES> 4
<MIXTURE> 1 3.902226e-01
<MEAN> 33
 1.207344e+02 1.625541e+02 1.150608e+02 1.351881e+02 1.734194e+02 1.742228e+02 1.077920e+02 1.361549e+02 1.160531e+02 1.199126e+02 1.653894e+02 2.500740e+00 1.748674e+02 1.634420e+02 1.636624e+02 1.197638e+02 1.713578e+02 5.864618e+01 4.694127e+01 1.609664e+02 1.646227e+02 1.533088e+02 1.017806e+02 1.538509e+02 8.070609e+01 7.158588e+01 1.506706e+02 7.799905e+00 6.392986e+00 2.566636e+00 2.604201e+00 2.296805e+00 3.710193e+00
<VARIANCE> 33
 4.244433e+02 8.257541e+01 1.029085e+02 1.991540e+01 3.037716e+01 1.868656e+01 1.162383e+02 2.062020e+01 1.199660e+02 3.265081e+02 7.838532e+01 5.610254e+00 1.109448e+01 3.642273e+01 3.763499e+01 3.951638e+02 4.498692e+01 4.483239e+02 1.248311e+02 9.129559e+01 2.357231e+01 1.641762e+02 9.193217e+02 3.635956e+02 6.208407e+02 7.860740e+02 2.751069e+02 2.778893e+00 3.000097e+00 2.266686e-01 1.528341e-01 4.789019e-01 9.383830e-01
<GCONST> 1.820410e+02
<MIXTURE> 2 2.165377e-01
<MEAN> 33
 1.017311e+02 1.685878e+02 1.124103e+02 1.360769e+02 1.767247e+02 1.741107e+02 8.189922e+01 1.359835e+02 1.420899e+02 9.711367e+01 1.638753e+02 4.828600e+00 1.744588e+02 1.625108e+02 1.667280e+02 7.562365e+01 1.707988e+02 9.575546e+01 4.262870e+01 1.625651e+02 1.632691e+02 1.538445e+02 9.149564e+01 1.504353e+02 9.285884e+01 4.429849e+01 1.371556e+02 7.966733e+00 6.508073e+00 2.401325e+00 2.734221e+00 2.055167e+00 4.015132e+00
<VARIANCE> 33
 2.411715e+02 3.789512e+01 1.752233e+01 1.125307e+01 3.037716e+01 1.819739e+01 8.304031e+01 2.062020e+01 8.736965e+01 7.230730e+01 8.849072e+01 7.548285e+00 1.007640e+01 1.319032e+01 5.234145e+01 1.652397e+02 2.659941e+01 1.605740e+02 1.915812e+01 7.378867e+01 3.424870e+01 1.870222e+02 2.210969e+02 4.871415e+02 3.793857e+02 4.217675e+02 1.222693e+02 1.947886e+00 1.006790e+00 1.050679e-01 1.163239e-01 5.996686e-02 6.105540e-01
<GCONST> 1.637416e+02
<MIXTURE> 3 2.165377e-01
<MEAN> 33
 1.017311e+02 1.685878e+02 1.124103e+02 1.360769e+02 1.767247e+02 1.741107e+02 8.189922e+01 1.359835e+02 1.420899e+02 9.711367e+01 1.638753e+02 4.828600e+00 1.744588e+02 1.625108e+02 1.667280e+02 7.562365e+01 1.707988e+02 9.575546e+01 4.262870e+01 1.625651e+02 1.632691e+02 1.538445e+02 9.149564e+01 1.504353e+02 9.285884e+01 4.429849e+01 1.371556e+02 7.966733e+00 6.508073e+00 2.401325e+00 2.734221e+00 2.055167e+00 4.015132e+00
<VARIANCE> 33
 2.411715e+02 3.789512e+01 1.752233e+01 1.125307e+01 3.037716e+01 1.819739e+01 8.304031e+01 2.062020e+01 8.736965e+01 7.230730e+01 8.849072e+01 7.548285e+00 1.007640e+01 1.319032e+01 5.234145e+01 1.652397e+02 2.659941e+01 1.605740e+02 1.915812e+01 7.378867e+01 3.424870e+01 1.870222e+02 2.210969e+02 4.871415e+02 3.793857e+02 4.217675e+02 1.222693e+02 1.947886e+00 1.006790e+00 1.050679e-01 1.163239e-01 5.996686e-02 6.105540e-01
<GCONST> 1.637416e+02
<MIXTURE> 4 1.767018e-01
<MEAN> 33
 9.816872e+01 1.644070e+02 1.206792e+02 1.321341e+02 1.658818e+02 1.710266e+02 9.050709e+01 1.297692e+02 1.391115e+02 1.092550e+02 1.538096e+02 9.539834e+00 1.645918e+02 1.503662e+02 1.607595e+02 9.235067e+01 1.553976e+02 7.779122e+01 4.305243e+01 1.609707e+02 1.695242e+02 1.451115e+02 8.932541e+01 1.142135e+02 6.769128e+01 8.875967e+01 1.397617e+02 6.261578e+00 5.849141e+00 2.256741e+00 2.952508e+00 3.176860e+00 4.677208e+00
<VARIANCE> 33
 8.870641e+02 1.195941e+02 1.707684e+02 3.451028e+02 2.553899e+02 5.433440e+01 3.355815e+02 1.272774e+02 3.498326e+02 4.688185e+02 3.431802e+02 5.267678e+02 5.408707e+02 3.673924e+02 6.275679e+01 1.351059e+03 5.075108e+02 1.538801e+03 3.321874e+02 1.321605e+02 4.019048e+01 4.217126e+02 1.704201e+03 1.401943e+03 2.443722e+03 3.099837e+03 6.480390e+02 3.015968e+00 2.754060e+00 3.231979e-01 3.955898e-01 1.468548e+00 3.082821e+00
<GCONST> 2.236335e+02
<STATE> 4
<NUMMIXES> 4
<MIXTURE> 1 3.414109e-01
<MEAN> 33
 1.755810e+02 1.354872e+02 1.087651e+02 1.360722e+02 1.776793e+02 1.762980e+02 1.349782e+02 1.345730e+02 9.044878e+01 1.595743e+02 1.770816e+02 1.084421e+00 1.756064e+02 1.646378e+02 1.628032e+02 1.668730e+02 1.693192e+02 6.393553e+00 9.600858e+01 1.598995e+02 1.691298e+02 1.675125e+02 1.113489e+02 1.533152e+02 8.621281e+01 7.262206e+01 1.586454e+02 6.275070e+00 2.252648e+00 2.921951e+00 2.737437e+00 1.897639e+00 5.754160e+00
<VARIANCE> 33
 3.902650e+01 1.298248e+01 2.287527e+01 9.215603e+00 3.037716e+01 7.762570e+00 2.822034e+01 2.062020e+01 1.886277e+01 1.741537e+01 5.737066e+00 7.597140e-01 6.549548e+00 1.398890e+01 2.506426e+01 3.071743e+01 4.207657e+01 3.148238e+01 2.382767e+02 8.090917e+01 1.409904e+01 5.607778e+01 2.199476e+02 2.911197e+02 8.269940e+02 8.990354e+02 1.142178e+02 9.945714e-01 1.556996e-01 7.769022e-02 7.859049e-02 4.350469e-02 1.169869e+00
<GCONST> 1.455998e+02
<MIXTURE> 2 2.302501e-01
<MEAN> 33
 1.694714e+02 1.362019e+02 1.142302e+02 1.363881e+02 1.729000e+02 1.742899e+02 1.349521e+02 1.364034e+02 8.864448e+01 1.566582e+02 1.734291e+02 3.002405e+00 1.741190e+02 1.616351e+02 1.632782e+02 1.657579e+02 1.700395e+02 1.282329e+01 9.384557e+01 1.512242e+02 1.662684e+02 1.564252e+02 9.820971e+01 1.439950e+02 9.427809e+01 7.525011e+01 1.599779e+02 5.044291e+00 3.484618e+00 2.901621e+00 2.597236e+00 2.759499e+00 4.789359e+00
<VARIANCE> 33
 6.569458e+01 3.245251e+01 6.960910e+01 2.871090e+01 3.659734e+01 1.720654e+01 2.822034e+01 2.062020e+01 3.706073e+01 1.166823e+02 2.655293e+01 6.376299e+00 1.738212e+01 4.365595e+01 3.668732e+01 1.265727e+02 5.410398e+01 1.209646e+02 1.230099e+03 3.494810e+02 3.133473e+01 1.598887e+02 7.913082e+02 4.775723e+02 1.607165e+03 1.829917e+03 2.362990e+02 4.167073e+00 2.129827e+00 3.632214e-01 2.505893e-01 1.497467e+00 2.305719e+00
<GCONST> 1.818097e+02
<MIXTURE> 3 2.302501e-01
<MEAN> 33
 1.694714e+02 1.362019e+02 1.142302e+02 1.363881e+02 1.729000e+02 1.742899e+02 1.349521e+02 1.364034e+02 8.864448e+01 1.566582e+02 1.734291e+02 3.002405e+00 1.741190e+02 1.616351e+02 1.632782e+02 1.657579e+02 1.700395e+02 1.282329e+01 9.384557e+01 1.512242e+02 1.662684e+02 1.564252e+02 9.820971e+01 1.439950e+02 9.427809e+01 7.525011e+01 1.599779e+02 5.044291e+00 3.484618e+00 2.901621e+00 2.597236e+00 2.759499e+00 4.789359e+00
<VARIANCE> 33
 6.569458e+01 3.245251e+01 6.960910e+01 2.871090e+01 3.659734e+01 1.720654e+01 2.822034e+01 2.062020e+01 3.706073e+01 1.166823e+02 2.655293e+01 6.376299e+00 1.738212e+01 4.365595e+01 3.668732e+01 1.265727e+02 5.410398e+01 1.209646e+02 1.230099e+03 3.494810e+02 3.133473e+01 1.598887e+02 7.913082e+02 4.775723e+02 1.607165e+03 1.829917e+03 2.362990e+02 4.167073e+00 2.129827e+00 3.632214e-01 2.505893e-01 1.497467e+00 2.305719e+00
<GCONST> 1.818097e+02
<MIXTURE> 4 1.980884e-01
<MEAN> 33
 1.234513e+02 1.605951e+02 1.089389e+02 1.424096e+02 1.655772e+02 1.745466e+02 1.161707e+02 1.321819e+02 1.091992e+02 1.284209e+02 1.580372e+02 4.512406e+00 1.711125e+02 1.518632e+02 1.638477e+02 1.497073e+02 1.607546e+02 2.962806e+01 4.705761e+01 1.548128e+02 1.671324e+02 1.473241e+02 8.783681e+01 1.271076e+02 1.160095e+02 4.955141e+01 1.497090e+02 3.492468e+00 5.037543e+00 2.069689e+00 2.189402e+00 2.681753e+00 3.638501e+00
<VARIANCE> 33
 7.361594e+02 2.666699e+02 1.539077e+02 1.435449e+02 4.297893e+02 1.495255e+01 2.606159e+02 2.559933e+02 6.040550e+02 4.480905e+02 1.069523e+02 4.828298e+01 1.081870e+02 3.034549e+02 3.777416e+01 6.678610e+02 7.113529e+02 6.450789e+02 1.397132e+03 2.138593e+02 3.685188e+01 2.141612e+02 1.078859e+03 9.262070e+02 1.677113e+03 1.109835e+03 1.522360e+03 3.836242e+00 2.493776e+00 5.039176e-01 4.609272e-01 1.261549e+00 4.816926e+00
<GCONST> 2.171099e+02
<TRANSP> 5
 0.000000e+00 1.000000e+00 0.000000e+00 0.000000e+00 0.000000e+00
 0.000000e+00 9.335528e-01 6.644719e-02 0.000000e+00 0.000000e+00
 0.000000e+00 0.000000e+00 9.471211e-01 5.287883e-02 0.000000e+00
 0.000000e+00 0.000000e+00 0.000000e+00 9.192770e-01 8.072299e-02
 0.000000e+00 0.000000e+00 0.000000e+00 0.000000e+00 0.000000e+00
<ENDHMM>
~h "FN"
<BEGINHMM>
<NUMSTATES> 5
<STATE> 2
<NUMMIXES> 4
<MIXTURE> 1 3.189686e-01
<MEAN> 33
 1.729297e+02 1.369326e+02 1.091137e+02 1.376500e+02 1.745983e+02 1.754300e+02 1.350728e+02 1.342612e+02 9.066602e+01 1.570492e+02 1.753457e+02 1.725211e+00 1.749005e+02 1.629439e+02 1.619306e+02 1.634135e+02 1.663741e+02 1.299446e+01 9.771124e+01 1.527162e+02 1.694443e+02 1.625146e+02 1.155668e+02 1.580730e+02 6.964588e+01 9.382255e+01 1.544566e+02 4.904375e+00 2.671807e+00 2.771511e+00 2.526065e+00 2.376740e+00 4.944023e+00
<VARIANCE> 33
 3.902650e+01 2.451299e+01 7.424985e+01 3.022500e+01 3.037716e+01 1.345105e+01 2.822034e+01 2.062020e+01 3.506094e+01 1.193046e+02 2.132438e+01 5.374726e+00 1.925118e+01 6.989412e+01 5.043204e+01 1.627879e+02 8.944765e+01 1.473923e+02 1.058313e+03 2.696193e+02 2.563942e+01 1.330742e+02 7.723166e+02 2.964823e+02 9.505433e+02 1.258362e+03 3.640124e+02 5.523998e+00 1.275073e+00 3.392113e-01 3.845437e-01 6.765031e-01 2.789190e+00
<GCONST> 1.798731e+02
<MIXTURE> 2 2.514741e-01
<MEAN> 33
 1.711167e+02 1.403301e+02 1.097806e+02 1.486068e+02 3.052497e+01 1.747758e+02 1.344365e+02 2.376277e+01 1.539456e+02 1.569131e+02 1.705088e+02 2.863393e+00 1.415875e+02 7.549498e+01 1.665863e+02 1.685386e+02 4.105689e+01 1.294698e+02 8.894574e+01 1.510138e+02 1.697929e+02 1.297215e+02 1.005064e+02 1.045453e+02 6.951791e+01 7.648241e+01 1.048779e+02 3.612763e+00 2.502607e+00 2.517402e+00 3.109833e+00 3.658024e+00 7.026732e+00
<VARIANCE> 33
 3.902650e+01 3.760505e+01 1.152341e+02 2.530563e+02 8.870239e+02 1.515908e+01 2.822034e+01 3.190291e+02 1.239190e+02 5.045874e+01 7.169011e+01 9.881472e+00 6.680693e+02 5.709208e+02 4.054558e+01 8.954285e+01 1.933305e+02 2.402439e+02 5.108003e+02 2.452951e+02 5.070891e+01 6.016028e+02 1.029286e+03 2.568380e+03 2.719350e+03 1.880267e+03 3.818576e+02 1.049961e+00 3.044586e-01 1.888805e-01 6.695107e-01 1.242193e+00 1.151912e+00
<GCONST> 1.993265e+02
<MIXTURE> 3 2.514741e-01
<MEAN> 33
 1.711167e+02 1.403301e+02 1.097806e+02 1.486068e+02 3.052497e+01 1.747758e+02 1.344365e+02 2.376277e+01 1.539456e+02 1.569131e+02 1.705088e+02 2.863393e+00 1.415875e+02 7.549498e+01 1.665863e+02 1.685386e+02 4.105689e+01 1.294698e+02 8.894574e+01 1.510138e+02 1.697929e+02 1.297215e+02 1.005064e+02 1.045453e+02 6.951791e+01 7.648241e+01 1.048779e+02 3.612763e+00 2.502607e+00 2.517402e+00 3.109833e+00 3.658024e+00 7.026732e+00
<VARIANCE> 33
 3.902650e+01 3.760505e+01 1.152341e+02 2.530563e+02 8.870239e+02 1.515908e+01 2.822034e+01 3.190291e+02 1.239190e+02 5.045874e+01 7.169011e+01 9.881472e+00 6.680693e+02 5.709208e+02 4.054558e+01 8.954285e+01 1.933305e+02 2.402439e+02 5.108003e+02 2.452951e+02 5.070891e+01 6.016028e+02 1.029286e+03 2.568380e+03 2.719350e+03 1.880267e+03 3.818576e+02 1.049961e+00 3.044586e-01 1.888805e-01 6.695107e-01 1.242193e+00 1.151912e+00
<GCONST> 1.993265e+02
<MIXTURE> 4 1.780834e-01
<MEAN> 33
 1.292859e+02 1.349159e+02 1.111259e+02 1.442252e+02 1.005274e+02 1.731217e+02 1.032109e+02 8.610963e+01 1.223818e+02 1.296633e+02 1.648762e+02 4.909610e+00 1.616079e+02 1.115591e+02 1.620399e+02 1.204055e+02 9.634173e+01 7.468985e+01 8.138871e+01 1.207935e+02 1.676406e+02 1.510698e+02 7.881184e+01 1.331755e+02 6.532030e+01 7.313213e+01 8.839661e+01 4.620493e+00 2.686532e+00 3.026327e+00 2.935679e+00 3.602628e+00 5.641054e+00
<VARIANCE> 33
 2.498731e+03 1.286245e+02 8.636687e+01 1.726410e+02 3.761314e+03 4.215078e+01 2.394963e+03 2.528720e+03 1.565347e+03 1.304911e+03 1.607456e+02 7.646819e+01 3.868663e+02 1.396335e+03 4.830585e+01 2.304732e+03 2.291720e+03 1.871851e+03 1.744743e+03 1.397121e+03 6.263953e+01 3.162737e+02 1.245373e+03 1.929500e+03 2.480329e+03 1.930306e+03 1.375722e+03 4.641549e+00 1.375466e+00 4.668377e-01 3.241286e-01 1.430010e+00 4.570008e+00
<GCONST> 2.383124e+02
<STATE> 3
<NUMMIXES> 4
<MIXTURE> 1 2.618188e-01
<MEAN> 33
 8.797681e+01 1.399643e+02 1.122255e+02 1.348903e+02 1.747073e+02 1.765006e+02 6.638303e+01 1.359346e+02 1.461560e+02 1.142990e+02 1.521646e+02 2.064596e+00 1.748227e+02 1.625837e+02 1.670975e+02 7.950990e+01 1.644032e+02 8.859370e+01 1.175946e+02 1.275232e+02 1.706021e+02 1.629273e+02 1.083469e+02 1.301801e+02 5.107788e+01 8.479321e+01 1.018729e+02 8.419353e+00 2.793027e+00 3.226393e+00 2.522758e+00 2.105129e+00 3.451629e+00
<VARIANCE> 33
 2.201714e+03 1.808235e+02 6.317437e+01 1.626087e+01 3.037716e+01 8.729805e+00 1.301413e+03 2.062020e+01 7.128422e+02 4.228028e+02 3.594553e+02 3.254928e+00 1.309074e+01 2.623621e+01 6.268295e+01 3.179519e+02 7.202469e+01 3.973241e+02 2.227909e+03 7.169007e+02 2.922833e+01 1.677743e+02 5.606371e+02 1.740027e+03 1.144935e+03 2.663555e+03 4.585511e+02 1.156449e+00 1.187539e+00 2.533933e-01 8.024936e-02 1.451358e-01 5.892273e-01
<GCONST> 1.935324e+02
<MIXTURE> 2 4.427496e-01
<MEAN> 33
 2.297126e+01 1.315256e+02 1.111524e+02 1.357082e+02 1.749680e+02 1.753171e+02 1.010380e+01 1.348519e+02 1.442509e+02 6.684380e+01 1.441726e+02 1.462115e+00 1.743677e+02 1.627457e+02 1.667784e+02 3.865161e+01 1.621697e+02 1.241237e+02 1.226526e+02 1.041060e+02 1.698409e+02 1.659918e+02 1.094240e+02 1.226030e+02 6.247518e+01 8.055427e+01 8.434817e+01 6.455731e+00 2.988800e+00 3.319529e+00 2.870735e+00 2.194181e+00 3.648139e+00
<VARIANCE> 33
 1.389225e+02 1.382113e+02 4.638100e+01 1.846135e+01 3.037716e+01 1.578782e+01 4.202325e+01 2.062020e+01 5.976882e+01 2.175058e+02 3.489461e+02 1.334795e+00 1.436608e+01 2.028303e+01 4.496467e+01 7.057437e+01 8.117352e+01 1.178092e+02 6.640345e+02 3.699379e+02 3.309575e+01 9.098870e+01 3.745633e+02 2.370490e+03 2.139459e+03 2.514705e+03 1.685375e+02 1.214697e+00 9.946541e-01 4.726131e-01 2.951532e-01 1.263285e-01 9.243162e-01
<GCONST> 1.795375e+02
<MIXTURE> 3 1.616115e-01
<MEAN> 33
 1.851575e+01 1.402337e+02 1.272305e+02 1.286171e+02 1.683998e+02 1.765887e+02 1.349307e+01 1.374802e+02 1.507093e+02 6.940363e+01 1.368649e+02 7.316593e+00 1.692418e+02 1.632085e+02 1.665062e+02 3.780463e+01 1.704533e+02 1.424339e+02 9.921011e+01 1.160255e+02 1.706901e+02 1.516474e+02 1.038820e+02 1.252095e+02 5.610541e+01 1.128906e+02 1.086850e+02 6.613352e+00 4.278069e+00 3.998363e+00 2.695356e+00 2.853202e+00 3.700211e+00
<VARIANCE> 33
 1.659701e+02 4.087161e+02 6.287227e+01 3.805397e+01 3.037716e+01 1.035692e+01 6.224499e+01 2.062020e+01 8.187888e+01 1.537276e+02 1.561893e+02 7.084310e+01 1.690240e+02 7.632671e+01 2.804099e+01 6.910123e+01 5.574961e+01 1.413141e+02 4.311252e+02 4.740562e+02 3.301496e+01 1.339039e+02 1.203180e+03 1.003264e+03 1.108993e+03 3.231646e+03 2.849260e+02 2.097152e+00 5.160956e-01 4.348863e-01 6.879129e-02 1.962211e-01 3.350244e-01
<GCONST> 1.864392e+02
<MIXTURE> 4 1.338203e-01
<MEAN> 33
