~o
<STREAMINFO> 1 78
<VECSIZE> 78<NULLD><USER><DIAGC>
~v "varFloor1"
<VARIANCE> 78
 3.958715e+01 2.047635e+00 4.171630e-01 5.279655e-01 2.325981e+01 1.918159e-01 2.916227e+01 1.722001e+01 1.665437e+01 1.421936e+01 6.740655e+00 2.423940e-01 2.674250e+00 1.042537e+01 5.260540e-01 3.110758e+01 2.097424e+01 3.135710e+01 1.223621e+01 7.270345e+00 4.221255e-01 3.503166e+00 7.373215e+00 1.014293e+01 1.181728e+01 1.524914e+01 2.068363e+01 4.313101e-02 1.682159e-02 3.931338e-03 2.451189e-03 5.971643e-03 2.875372e-02 2.831476e-10 3.424993e-06 5.387980e-06 1.204479e-04 2.444533e-04 1.367520e-05 3.363042e-04 5.529838e-04 1.128099e-06 1.429964e-06 3.421918e-06 3.529189e-06 2.017932e-05 9.507981e-04 1.068847e-05 4.130288e-05 1.707665e-03 7.073513e-07 1.155336e-06 6.600992e-06 6.797245e-05 1.641871e-03 1.672758e-05 1.324625e-04 2.958979e-03 5.627783e-06 5.659942e-06 1.608841e-05 3.881130e-04 1.382103e-05 6.048801e-05 1.110996e-03 6.223464e-06 9.776292e-06 5.388325e-05 3.305541e-05 2.784552e-04 7.097932e-04 1.615263e-04 1.306292e-04 6.736217e-04 7.342582e-04 2.654595e-03 5.214766e-04 3.437547e-04
