~h "BN"
    <BEGINHMM>
    <NUMSTATES> 5
    <STATE> 2
    <MEAN> 19
    5.183051e-01 -2.165859e-02 2.392358e-01 2.047650e-01 -2.618858e-02 -7.067265e-02 -3.223100e-02 7.705216e-01 4.462157e-03 1.328509e-01 1.050218e-02 5.951751e-02 3.174255e-01 3.165790e-01 1.799578e-02 -2.434159e-02 -1.951819e-01 -1.371802e-02 3.766006e-02
    <VARIANCE> 19
    9.233303e-05 3.356807e-05 1.159534e-04 6.670928e-05 4.355910e-05 6.918047e-05 3.721597e-05 3.013526e-04 4.846117e-06 7.671648e-06 2.611132e-05 5.310680e-06 1.886965e-05 1.294105e-05 3.614020e-06 2.005150e-06 0.000000e+00 1.461179e-06 2.326679e-06
    <STATE> 3
    <MEAN> 19
    5.183051e-01 -2.165859e-02 2.392358e-01 2.047650e-01 -2.618858e-02 -7.067265e-02 -3.223100e-02 7.705216e-01 4.462157e-03 1.328509e-01 1.050218e-02 5.951751e-02 3.174255e-01 3.165790e-01 1.799578e-02 -2.434159e-02 -1.951819e-01 -1.371802e-02 3.766006e-02
    <VARIANCE> 19
    9.233303e-05 3.356807e-05 1.159534e-04 6.670928e-05 4.355910e-05 6.918047e-05 3.721597e-05 3.013526e-04 4.846117e-06 7.671648e-06 2.611132e-05 5.310680e-06 1.886965e-05 1.294105e-05 3.614020e-06 2.005150e-06 0.000000e+00 1.461179e-06 2.326679e-06
    <STATE> 4
    <MEAN> 19
    5.183051e-01 -2.165859e-02 2.392358e-01 2.047650e-01 -2.618858e-02 -7.067265e-02 -3.223100e-02 7.705216e-01 4.462157e-03 1.328509e-01 1.050218e-02 5.951751e-02 3.174255e-01 3.165790e-01 1.799578e-02 -2.434159e-02 -1.951819e-01 -1.371802e-02 3.766006e-02
    <VARIANCE> 19
    9.233303e-05 3.356807e-05 1.159534e-04 6.670928e-05 4.355910e-05 6.918047e-05 3.721597e-05 3.013526e-04 4.846117e-06 7.671648e-06 2.611132e-05 5.310680e-06 1.886965e-05 1.294105e-05 3.614020e-06 2.005150e-06 0.000000e+00 1.461179e-06 2.326679e-06
    <TRANSP> 5
    0.000000e+00 1.000000e+00 0.000000e+00 0.000000e+00 0.000000e+00
    0.000000e+00 6.000000e-01 4.000000e-01 0.000000e+00 0.000000e+00
    0.000000e+00 0.000000e+00 6.000000e-01 4.000000e-01 0.000000e+00
    0.000000e+00 0.000000e+00 0.000000e+00 7.000000e-01 3.000000e-01
    0.000000e+00 0.000000e+00 0.000000e+00 0.000000e+00 0.000000e+00
    <ENDHMM>
~h "BS"
    <BEGINHMM>
    <NUMSTATES> 5
    <STATE> 2
    <MEAN> 19
    5.183051e-01 -2.165859e-02 2.392358e-01 2.047650e-01 -2.618858e-02 -7.067265e-02 -3.223100e-02 7.705216e-01 4.462157e-03 1.328509e-01 1.050218e-02 5.951751e-02 3.174255e-01 3.165790e-01 1.799578e-02 -2.434159e-02 -1.951819e-01 -1.371802e-02 3.766006e-02
    <VARIANCE> 19
    9.233303e-05 3.356807e-05 1.159534e-04 6.670928e-05 4.355910e-05 6.918047e-05 3.721597e-05 3.013526e-04 4.846117e-06 7.671648e-06 2.611132e-05 5.310680e-06 1.886965e-05 1.294105e-05 3.614020e-06 2.005150e-06 0.000000e+00 1.461179e-06 2.326679e-06
    <STATE> 3
    <MEAN> 19
    5.183051e-01 -2.165859e-02 2.392358e-01 2.047650e-01 -2.618858e-02 -7.067265e-02 -3.223100e-02 7.705216e-01 4.462157e-03 1.328509e-01 1.050218e-02 5.951751e-02 3.174255e-01 3.165790e-01 1.799578e-02 -2.434159e-02 -1.951819e-01 -1.371802e-02 3.766006e-02
    <VARIANCE> 19
    9.233303e-05 3.356807e-05 1.159534e-04 6.670928e-05 4.355910e-05 6.918047e-05 3.721597e-05 3.013526e-04 4.846117e-06 7.671648e-06 2.611132e-05 5.310680e-06 1.886965e-05 1.294105e-05 3.614020e-06 2.005150e-06 0.000000e+00 1.461179e-06 2.326679e-06
    <STATE> 4
    <MEAN> 19
    5.183051e-01 -2.165859e-02 2.392358e-01 2.047650e-01 -2.618858e-02 -7.067265e-02 -3.223100e-02 7.705216e-01 4.462157e-03 1.328509e-01 1.050218e-02 5.951751e-02 3.174255e-01 3.165790e-01 1.799578e-02 -2.434159e-02 -1.951819e-01 -1.371802e-02 3.766006e-02
    <VARIANCE> 19
    9.233303e-05 3.356807e-05 1.159534e-04 6.670928e-05 4.355910e-05 6.918047e-05 3.721597e-05 3.013526e-04 4.846117e-06 7.671648e-06 2.611132e-05 5.310680e-06 1.886965e-05 1.294105e-05 3.614020e-06 2.005150e-06 0.000000e+00 1.461179e-06 2.326679e-06
    <TRANSP> 5
    0.000000e+00 1.000000e+00 0.000000e+00 0.000000e+00 0.000000e+00
    0.000000e+00 6.000000e-01 4.000000e-01 0.000000e+00 0.000000e+00
    0.000000e+00 0.000000e+00 6.000000e-01 4.000000e-01 0.000000e+00
    0.000000e+00 0.000000e+00 0.000000e+00 7.000000e-01 3.000000e-01
    0.000000e+00 0.000000e+00 0.000000e+00 0.000000e+00 0.000000e+00
    <ENDHMM>
~h "CF"
    <BEGINHMM>
    <NUMSTATES> 5
    <STATE> 2
    <MEAN> 19
    5.183051e-01 -2.165859e-02 2.392358e-01 2.047650e-01 -2.618858e-02 -7.067265e-02 -3.223100e-02 7.705216e-01 4.462157e-03 1.328509e-01 1.050218e-02 5.951751e-02 3.174255e-01 3.165790e-01 1.799578e-02 -2.434159e-02 -1.951819e-01 -1.371802e-02 3.766006e-02
    <VARIANCE> 19
    9.233303e-05 3.356807e-05 1.159534e-04 6.670928e-05 4.355910e-05 6.918047e-05 3.721597e-05 3.013526e-04 4.846117e-06 7.671648e-06 2.611132e-05 5.310680e-06 1.886965e-05 1.294105e-05 3.614020e-06 2.005150e-06 0.000000e+00 1.461179e-06 2.326679e-06
    <STATE> 3
    <MEAN> 19
    5.183051e-01 -2.165859e-02 2.392358e-01 2.047650e-01 -2.618858e-02 -7.067265e-02 -3.223100e-02 7.705216e-01 4.462157e-03 1.328509e-01 1.050218e-02 5.951751e-02 3.174255e-01 3.165790e-01 1.799578e-02 -2.434159e-02 -1.951819e-01 -1.371802e-02 3.766006e-02
    <VARIANCE> 19
    9.233303e-05 3.356807e-05 1.159534e-04 6.670928e-05 4.355910e-05 6.918047e-05 3.721597e-05 3.013526e-04 4.846117e-06 7.671648e-06 2.611132e-05 5.310680e-06 1.886965e-05 1.294105e-05 3.614020e-06 2.005150e-06 0.000000e+00 1.461179e-06 2.326679e-06
    <STATE> 4
    <MEAN> 19
    5.183051e-01 -2.165859e-02 2.392358e-01 2.047650e-01 -2.618858e-02 -7.067265e-02 -3.223100e-02 7.705216e-01 4.462157e-03 1.328509e-01 1.050218e-02 5.951751e-02 3.174255e-01 3.165790e-01 1.799578e-02 -2.434159e-02 -1.951819e-01 -1.371802e-02 3.766006e-02
    <VARIANCE> 19
    9.233303e-05 3.356807e-05 1.159534e-04 6.670928e-05 4.355910e-05 6.918047e-05 3.721597e-05 3.013526e-04 4.846117e-06 7.671648e-06 2.611132e-05 5.310680e-06 1.886965e-05 1.294105e-05 3.614020e-06 2.005150e-06 0.000000e+00 1.461179e-06 2.326679e-06
    <TRANSP> 5
    0.000000e+00 1.000000e+00 0.000000e+00 0.000000e+00 0.000000e+00
    0.000000e+00 6.000000e-01 4.000000e-01 0.000000e+00 0.000000e+00
    0.000000e+00 0.000000e+00 6.000000e-01 4.000000e-01 0.000000e+00
    0.000000e+00 0.000000e+00 0.000000e+00 7.000000e-01 3.000000e-01
    0.000000e+00 0.000000e+00 0.000000e+00 0.000000e+00 0.000000e+00
    <ENDHMM>
~h "CN"
    <BEGINHMM>
    <NUMSTATES> 5
    <STATE> 2
    <MEAN> 19
    5.183051e-01 -2.165859e-02 2.392358e-01 2.047650e-01 -2.618858e-02 -7.067265e-02 -3.223100e-02 7.705216e-01 4.462157e-03 1.328509e-01 1.050218e-02 5.951751e-02 3.174255e-01 3.165790e-01 1.799578e-02 -2.434159e-02 -1.951819e-01 -1.371802e-02 3.766006e-02
    <VARIANCE> 19
    9.233303e-05 3.356807e-05 1.159534e-04 6.670928e-05 4.355910e-05 6.918047e-05 3.721597e-05 3.013526e-04 4.846117e-06 7.671648e-06 2.611132e-05 5.310680e-06 1.886965e-05 1.294105e-05 3.614020e-06 2.005150e-06 0.000000e+00 1.461179e-06 2.326679e-06
    <STATE> 3
    <MEAN> 19
    5.183051e-01 -2.165859e-02 2.392358e-01 2.047650e-01 -2.618858e-02 -7.067265e-02 -3.223100e-02 7.705216e-01 4.462157e-03 1.328509e-01 1.050218e-02 5.951751e-02 3.174255e-01 3.165790e-01 1.799578e-02 -2.434159e-02 -1.951819e-01 -1.371802e-02 3.766006e-02
    <VARIANCE> 19
    9.233303e-05 3.356807e-05 1.159534e-04 6.670928e-05 4.355910e-05 6.918047e-05 3.721597e-05 3.013526e-04 4.846117e-06 7.671648e-06 2.611132e-05 5.310680e-06 1.886965e-05 1.294105e-05 3.614020e-06 2.005150e-06 0.000000e+00 1.461179e-06 2.326679e-06
    <STATE> 4
    <MEAN> 19
    5.183051e-01 -2.165859e-02 2.392358e-01 2.047650e-01 -2.618858e-02 -7.067265e-02 -3.223100e-02 7.705216e-01 4.462157e-03 1.328509e-01 1.050218e-02 5.951751e-02 3.174255e-01 3.165790e-01 1.799578e-02 -2.434159e-02 -1.951819e-01 -1.371802e-02 3.766006e-02
    <VARIANCE> 19
    9.233303e-05 3.356807e-05 1.159534e-04 6.670928e-05 4.355910e-05 6.918047e-05 3.721597e-05 3.013526e-04 4.846117e-06 7.671648e-06 2.611132e-05 5.310680e-06 1.886965e-05 1.294105e-05 3.614020e-06 2.005150e-06 0.000000e+00 1.461179e-06 2.326679e-06
    <TRANSP> 5
    0.000000e+00 1.000000e+00 0.000000e+00 0.000000e+00 0.000000e+00
    0.000000e+00 6.000000e-01 4.000000e-01 0.000000e+00 0.000000e+00
    0.000000e+00 0.000000e+00 6.000000e-01 4.000000e-01 0.000000e+00
    0.000000e+00 0.000000e+00 0.000000e+00 7.000000e-01 3.000000e-01
    0.000000e+00 0.000000e+00 0.000000e+00 0.000000e+00 0.000000e+00
    <ENDHMM>
~h "CP"
    <BEGINHMM>
    <NUMSTATES> 5
    <STATE> 2
    <MEAN> 19
    5.183051e-01 -2.165859e-02 2.392358e-01 2.047650e-01 -2.618858e-02 -7.067265e-02 -3.223100e-02 7.705216e-01 4.462157e-03 1.328509e-01 1.050218e-02 5.951751e-02 3.174255e-01 3.165790e-01 1.799578e-02 -2.434159e-02 -1.951819e-01 -1.371802e-02 3.766006e-02
    <VARIANCE> 19
    9.233303e-05 3.356807e-05 1.159534e-04 6.670928e-05 4.355910e-05 6.918047e-05 3.721597e-05 3.013526e-04 4.846117e-06 7.671648e-06 2.611132e-05 5.310680e-06 1.886965e-05 1.294105e-05 3.614020e-06 2.005150e-06 0.000000e+00 1.461179e-06 2.326679e-06
    <STATE> 3
    <MEAN> 19
    5.183051e-01 -2.165859e-02 2.392358e-01 2.047650e-01 -2.618858e-02 -7.067265e-02 -3.223100e-02 7.705216e-01 4.462157e-03 1.328509e-01 1.050218e-02 5.951751e-02 3.174255e-01 3.165790e-01 1.799578e-02 -2.434159e-02 -1.951819e-01 -1.371802e-02 3.766006e-02
    <VARIANCE> 19
    9.233303e-05 3.356807e-05 1.159534e-04 6.670928e-05 4.355910e-05 6.918047e-05 3.721597e-05 3.013526e-04 4.846117e-06 7.671648e-06 2.611132e-05 5.310680e-06 1.886965e-05 1.294105e-05 3.614020e-06 2.005150e-06 0.000000e+00 1.461179e-06 2.326679e-06
    <STATE> 4
    <MEAN> 19
    5.183051e-01 -2.165859e-02 2.392358e-01 2.047650e-01 -2.618858e-02 -7.067265e-02 -3.223100e-02 7.705216e-01 4.462157e-03 1.328509e-01 1.050218e-02 5.951751e-02 3.174255e-01 3.165790e-01 1.799578e-02 -2.434159e-02 -1.951819e-01 -1.371802e-02 3.766006e-02
    <VARIANCE> 19
    9.233303e-05 3.356807e-05 1.159534e-04 6.670928e-05 4.355910e-05 6.918047e-05 3.721597e-05 3.013526e-04 4.846117e-06 7.671648e-06 2.611132e-05 5.310680e-06 1.886965e-05 1.294105e-05 3.614020e-06 2.005150e-06 0.000000e+00 1.461179e-06 2.326679e-06
    <TRANSP> 5
    0.000000e+00 1.000000e+00 0.000000e+00 0.000000e+00 0.000000e+00
    0.000000e+00 6.000000e-01 4.000000e-01 0.000000e+00 0.000000e+00
    0.000000e+00 0.000000e+00 6.000000e-01 4.000000e-01 0.000000e+00
    0.000000e+00 0.000000e+00 0.000000e+00 7.000000e-01 3.000000e-01
    0.000000e+00 0.000000e+00 0.000000e+00 0.000000e+00 0.000000e+00
    <ENDHMM>
~h "CV"
    <BEGINHMM>
    <NUMSTATES> 5
    <STATE> 2
    <MEAN> 19
    5.183051e-01 -2.165859e-02 2.392358e-01 2.047650e-01 -2.618858e-02 -7.067265e-02 -3.223100e-02 7.705216e-01 4.462157e-03 1.328509e-01 1.050218e-02 5.951751e-02 3.174255e-01 3.165790e-01 1.799578e-02 -2.434159e-02 -1.951819e-01 -1.371802e-02 3.766006e-02
    <VARIANCE> 19
    9.233303e-05 3.356807e-05 1.159534e-04 6.670928e-05 4.355910e-05 6.918047e-05 3.721597e-05 3.013526e-04 4.846117e-06 7.671648e-06 2.611132e-05 5.310680e-06 1.886965e-05 1.294105e-05 3.614020e-06 2.005150e-06 0.000000e+00 1.461179e-06 2.326679e-06
    <STATE> 3
    <MEAN> 19
    5.183051e-01 -2.165859e-02 2.392358e-01 2.047650e-01 -2.618858e-02 -7.067265e-02 -3.223100e-02 7.705216e-01 4.462157e-03 1.328509e-01 1.050218e-02 5.951751e-02 3.174255e-01 3.165790e-01 1.799578e-02 -2.434159e-02 -1.951819e-01 -1.371802e-02 3.766006e-02
    <VARIANCE> 19
    9.233303e-05 3.356807e-05 1.159534e-04 6.670928e-05 4.355910e-05 6.918047e-05 3.721597e-05 3.013526e-04 4.846117e-06 7.671648e-06 2.611132e-05 5.310680e-06 1.886965e-05 1.294105e-05 3.614020e-06 2.005150e-06 0.000000e+00 1.461179e-06 2.326679e-06
    <STATE> 4
    <MEAN> 19
    5.183051e-01 -2.165859e-02 2.392358e-01 2.047650e-01 -2.618858e-02 -7.067265e-02 -3.223100e-02 7.705216e-01 4.462157e-03 1.328509e-01 1.050218e-02 5.951751e-02 3.174255e-01 3.165790e-01 1.799578e-02 -2.434159e-02 -1.951819e-01 -1.371802e-02 3.766006e-02
    <VARIANCE> 19
    9.233303e-05 3.356807e-05 1.159534e-04 6.670928e-05 4.355910e-05 6.918047e-05 3.721597e-05 3.013526e-04 4.846117e-06 7.671648e-06 2.611132e-05 5.310680e-06 1.886965e-05 1.294105e-05 3.614020e-06 2.005150e-06 0.000000e+00 1.461179e-06 2.326679e-06
    <TRANSP> 5
    0.000000e+00 1.000000e+00 0.000000e+00 0.000000e+00 0.000000e+00
    0.000000e+00 6.000000e-01 4.000000e-01 0.000000e+00 0.000000e+00
    0.000000e+00 0.000000e+00 6.000000e-01 4.000000e-01 0.000000e+00
    0.000000e+00 0.000000e+00 0.000000e+00 7.000000e-01 3.000000e-01
    0.000000e+00 0.000000e+00 0.000000e+00 0.000000e+00 0.000000e+00
    <ENDHMM>
~h "DC"
    <BEGINHMM>
    <NUMSTATES> 5
    <STATE> 2
    <MEAN> 19
    5.183051e-01 -2.165859e-02 2.392358e-01 2.047650e-01 -2.618858e-02 -7.067265e-02 -3.223100e-02 7.705216e-01 4.462157e-03 1.328509e-01 1.050218e-02 5.951751e-02 3.174255e-01 3.165790e-01 1.799578e-02 -2.434159e-02 -1.951819e-01 -1.371802e-02 3.766006e-02
    <VARIANCE> 19
    9.233303e-05 3.356807e-05 1.159534e-04 6.670928e-05 4.355910e-05 6.918047e-05 3.721597e-05 3.013526e-04 4.846117e-06 7.671648e-06 2.611132e-05 5.310680e-06 1.886965e-05 1.294105e-05 3.614020e-06 2.005150e-06 0.000000e+00 1.461179e-06 2.326679e-06
    <STATE> 3
    <MEAN> 19
    5.183051e-01 -2.165859e-02 2.392358e-01 2.047650e-01 -2.618858e-02 -7.067265e-02 -3.223100e-02 7.705216e-01 4.462157e-03 1.328509e-01 1.050218e-02 5.951751e-02 3.174255e-01 3.165790e-01 1.799578e-02 -2.434159e-02 -1.951819e-01 -1.371802e-02 3.766006e-02
    <VARIANCE> 19
    9.233303e-05 3.356807e-05 1.159534e-04 6.670928e-05 4.355910e-05 6.918047e-05 3.721597e-05 3.013526e-04 4.846117e-06 7.671648e-06 2.611132e-05 5.310680e-06 1.886965e-05 1.294105e-05 3.614020e-06 2.005150e-06 0.000000e+00 1.461179e-06 2.326679e-06
    <STATE> 4
    <MEAN> 19
    5.183051e-01 -2.165859e-02 2.392358e-01 2.047650e-01 -2.618858e-02 -7.067265e-02 -3.223100e-02 7.705216e-01 4.462157e-03 1.328509e-01 1.050218e-02 5.951751e-02 3.174255e-01 3.165790e-01 1.799578e-02 -2.434159e-02 -1.951819e-01 -1.371802e-02 3.766006e-02
    <VARIANCE> 19
    9.233303e-05 3.356807e-05 1.159534e-04 6.670928e-05 4.355910e-05 6.918047e-05 3.721597e-05 3.013526e-04 4.846117e-06 7.671648e-06 2.611132e-05 5.310680e-06 1.886965e-05 1.294105e-05 3.614020e-06 2.005150e-06 0.000000e+00 1.461179e-06 2.326679e-06
    <TRANSP> 5
    0.000000e+00 1.000000e+00 0.000000e+00 0.000000e+00 0.000000e+00
    0.000000e+00 6.000000e-01 4.000000e-01 0.000000e+00 0.000000e+00
    0.000000e+00 0.000000e+00 6.000000e-01 4.000000e-01 0.000000e+00
    0.000000e+00 0.000000e+00 0.000000e+00 7.000000e-01 3.000000e-01
    0.000000e+00 0.000000e+00 0.000000e+00 0.000000e+00 0.000000e+00
    <ENDHMM>
~h "FM"
    <BEGINHMM>
    <NUMSTATES> 5
    <STATE> 2
    <MEAN> 19
    5.183051e-01 -2.165859e-02 2.392358e-01 2.047650e-01 -2.618858e-02 -7.067265e-02 -3.223100e-02 7.705216e-01 4.462157e-03 1.328509e-01 1.050218e-02 5.951751e-02 3.174255e-01 3.165790e-01 1.799578e-02 -2.434159e-02 -1.951819e-01 -1.371802e-02 3.766006e-02
    <VARIANCE> 19
    9.233303e-05 3.356807e-05 1.159534e-04 6.670928e-05 4.355910e-05 6.918047e-05 3.721597e-05 3.013526e-04 4.846117e-06 7.671648e-06 2.611132e-05 5.310680e-06 1.886965e-05 1.294105e-05 3.614020e-06 2.005150e-06 0.000000e+00 1.461179e-06 2.326679e-06
    <STATE> 3
    <MEAN> 19
    5.183051e-01 -2.165859e-02 2.392358e-01 2.047650e-01 -2.618858e-02 -7.067265e-02 -3.223100e-02 7.705216e-01 4.462157e-03 1.328509e-01 1.050218e-02 5.951751e-02 3.174255e-01 3.165790e-01 1.799578e-02 -2.434159e-02 -1.951819e-01 -1.371802e-02 3.766006e-02
    <VARIANCE> 19
    9.233303e-05 3.356807e-05 1.159534e-04 6.670928e-05 4.355910e-05 6.918047e-05 3.721597e-05 3.013526e-04 4.846117e-06 7.671648e-06 2.611132e-05 5.310680e-06 1.886965e-05 1.294105e-05 3.614020e-06 2.005150e-06 0.000000e+00 1.461179e-06 2.326679e-06
    <STATE> 4
    <MEAN> 19
    5.183051e-01 -2.165859e-02 2.392358e-01 2.047650e-01 -2.618858e-02 -7.067265e-02 -3.223100e-02 7.705216e-01 4.462157e-03 1.328509e-01 1.050218e-02 5.951751e-02 3.174255e-01 3.165790e-01 1.799578e-02 -2.434159e-02 -1.951819e-01 -1.371802e-02 3.766006e-02
    <VARIANCE> 19
    9.233303e-05 3.356807e-05 1.159534e-04 6.670928e-05 4.355910e-05 6.918047e-05 3.721597e-05 3.013526e-04 4.846117e-06 7.671648e-06 2.611132e-05 5.310680e-06 1.886965e-05 1.294105e-05 3.614020e-06 2.005150e-06 0.000000e+00 1.461179e-06 2.326679e-06
    <TRANSP> 5
    0.000000e+00 1.000000e+00 0.000000e+00 0.000000e+00 0.000000e+00
    0.000000e+00 6.000000e-01 4.000000e-01 0.000000e+00 0.000000e+00
    0.000000e+00 0.000000e+00 6.000000e-01 4.000000e-01 0.000000e+00
    0.000000e+00 0.000000e+00 0.000000e+00 7.000000e-01 3.000000e-01
    0.000000e+00 0.000000e+00 0.000000e+00 0.000000e+00 0.000000e+00
    <ENDHMM>
~h "FN"
    <BEGINHMM>
    <NUMSTATES> 5
    <STATE> 2
    <MEAN> 19
    5.183051e-01 -2.165859e-02 2.392358e-01 2.047650e-01 -2.618858e-02 -7.067265e-02 -3.223100e-02 7.705216e-01 4.462157e-03 1.328509e-01 1.050218e-02 5.951751e-02 3.174255e-01 3.165790e-01 1.799578e-02 -2.434159e-02 -1.951819e-01 -1.371802e-02 3.766006e-02
    <VARIANCE> 19
    9.233303e-05 3.356807e-05 1.159534e-04 6.670928e-05 4.355910e-05 6.918047e-05 3.721597e-05 3.013526e-04 4.846117e-06 7.671648e-06 2.611132e-05 5.310680e-06 1.886965e-05 1.294105e-05 3.614020e-06 2.005150e-06 0.000000e+00 1.461179e-06 2.326679e-06
    <STATE> 3
    <MEAN> 19
    5.183051e-01 -2.165859e-02 2.392358e-01 2.047650e-01 -2.618858e-02 -7.067265e-02 -3.223100e-02 7.705216e-01 4.462157e-03 1.328509e-01 1.050218e-02 5.951751e-02 3.174255e-01 3.165790e-01 1.799578e-02 -2.434159e-02 -1.951819e-01 -1.371802e-02 3.766006e-02
    <VARIANCE> 19
    9.233303e-05 3.356807e-05 1.159534e-04 6.670928e-05 4.355910e-05 6.918047e-05 3.721597e-05 3.013526e-04 4.846117e-06 7.671648e-06 2.611132e-05 5.310680e-06 1.886965e-05 1.294105e-05 3.614020e-06 2.005150e-06 0.000000e+00 1.461179e-06 2.326679e-06
    <STATE> 4
    <MEAN> 19
    5.183051e-01 -2.165859e-02 2.392358e-01 2.047650e-01 -2.618858e-02 -7.067265e-02 -3.223100e-02 7.705216e-01 4.462157e-03 1.328509e-01 1.050218e-02 5.951751e-02 3.174255e-01 3.165790e-01 1.799578e-02 -2.434159e-02 -1.951819e-01 -1.371802e-02 3.766006e-02
    <VARIANCE> 19
    9.233303e-05 3.356807e-05 1.159534e-04 6.670928e-05 4.355910e-05 6.918047e-05 3.721597e-05 3.013526e-04 4.846117e-06 7.671648e-06 2.611132e-05 5.310680e-06 1.886965e-05 1.294105e-05 3.614020e-06 2.005150e-06 0.000000e+00 1.461179e-06 2.326679e-06
    <TRANSP> 5
    0.000000e+00 1.000000e+00 0.000000e+00 0.000000e+00 0.000000e+00
    0.000000e+00 6.000000e-01 4.000000e-01 0.000000e+00 0.000000e+00
    0.000000e+00 0.000000e+00 6.000000e-01 4.000000e-01 0.000000e+00
    0.000000e+00 0.000000e+00 0.000000e+00 7.000000e-01 3.000000e-01
    0.000000e+00 0.000000e+00 0.000000e+00 0.000000e+00 0.000000e+00
    <ENDHMM>
~h "FU"
    <BEGINHMM>
    <NUMSTATES> 5
    <STATE> 2
    <MEAN> 19
    5.183051e-01 -2.165859e-02 2.392358e-01 2.047650e-01 -2.618858e-02 -7.067265e-02 -3.223100e-02 7.705216e-01 4.462157e-03 1.328509e-01 1.050218e-02 5.951751e-02 3.174255e-01 3.165790e-01 1.799578e-02 -2.434159e-02 -1.951819e-01 -1.371802e-02 3.766006e-02
    <VARIANCE> 19
    9.233303e-05 3.356807e-05 1.159534e-04 6.670928e-05 4.355910e-05 6.918047e-05 3.721597e-05 3.013526e-04 4.846117e-06 7.671648e-06 2.611132e-05 5.310680e-06 1.886965e-05 1.294105e-05 3.614020e-06 2.005150e-06 0.000000e+00 1.461179e-06 2.326679e-06
    <STATE> 3
    <MEAN> 19
    5.183051e-01 -2.165859e-02 2.392358e-01 2.047650e-01 -2.618858e-02 -7.067265e-02 -3.223100e-02 7.705216e-01 4.462157e-03 1.328509e-01 1.050218e-02 5.951751e-02 3.174255e-01 3.165790e-01 1.799578e-02 -2.434159e-02 -1.951819e-01 -1.371802e-02 3.766006e-02
    <VARIANCE> 19
    9.233303e-05 3.356807e-05 1.159534e-04 6.670928e-05 4.355910e-05 6.918047e-05 3.721597e-05 3.013526e-04 4.846117e-06 7.671648e-06 2.611132e-05 5.310680e-06 1.886965e-05 1.294105e-05 3.614020e-06 2.005150e-06 0.000000e+00 1.461179e-06 2.326679e-06
    <STATE> 4
    <MEAN> 19
    5.183051e-01 -2.165859e-02 2.392358e-01 2.047650e-01 -2.618858e-02 -7.067265e-02 -3.223100e-02 7.705216e-01 4.462157e-03 1.328509e-01 1.050218e-02 5.951751e-02 3.174255e-01 3.165790e-01 1.799578e-02 -2.434159e-02 -1.951819e-01 -1.371802e-02 3.766006e-02
    <VARIANCE> 19
    9.233303e-05 3.356807e-05 1.159534e-04 6.670928e-05 4.355910e-05 6.918047e-05 3.721597e-05 3.013526e-04 4.846117e-06 7.671648e-06 2.611132e-05 5.310680e-06 1.886965e-05 1.294105e-05 3.614020e-06 2.005150e-06 0.000000e+00 1.461179e-06 2.326679e-06
    <TRANSP> 5
    0.000000e+00 1.000000e+00 0.000000e+00 0.000000e+00 0.000000e+00
    0.000000e+00 6.000000e-01 4.000000e-01 0.000000e+00 0.000000e+00
    0.000000e+00 0.000000e+00 6.000000e-01 4.000000e-01 0.000000e+00
    0.000000e+00 0.000000e+00 0.000000e+00 7.000000e-01 3.000000e-01
    0.000000e+00 0.000000e+00 0.000000e+00 0.000000e+00 0.000000e+00
    <ENDHMM>
~h "MC"
    <BEGINHMM>
    <NUMSTATES> 5
    <STATE> 2
    <MEAN> 19
    5.183051e-01 -2.165859e-02 2.392358e-01 2.047650e-01 -2.618858e-02 -7.067265e-02 -3.223100e-02 7.705216e-01 4.462157e-03 1.328509e-01 1.050218e-02 5.951751e-02 3.174255e-01 3.165790e-01 1.799578e-02 -2.434159e-02 -1.951819e-01 -1.371802e-02 3.766006e-02
    <VARIANCE> 19
    9.233303e-05 3.356807e-05 1.159534e-04 6.670928e-05 4.355910e-05 6.918047e-05 3.721597e-05 3.013526e-04 4.846117e-06 7.671648e-06 2.611132e-05 5.310680e-06 1.886965e-05 1.294105e-05 3.614020e-06 2.005150e-06 0.000000e+00 1.461179e-06 2.326679e-06
    <STATE> 3
    <MEAN> 19
    5.183051e-01 -2.165859e-02 2.392358e-01 2.047650e-01 -2.618858e-02 -7.067265e-02 -3.223100e-02 7.705216e-01 4.462157e-03 1.328509e-01 1.050218e-02 5.951751e-02 3.174255e-01 3.165790e-01 1.799578e-02 -2.434159e-02 -1.951819e-01 -1.371802e-02 3.766006e-02
    <VARIANCE> 19
    9.233303e-05 3.356807e-05 1.159534e-04 6.670928e-05 4.355910e-05 6.918047e-05 3.721597e-05 3.013526e-04 4.846117e-06 7.671648e-06 2.611132e-05 5.310680e-06 1.886965e-05 1.294105e-05 3.614020e-06 2.005150e-06 0.000000e+00 1.461179e-06 2.326679e-06
    <STATE> 4
    <MEAN> 19
    5.183051e-01 -2.165859e-02 2.392358e-01 2.047650e-01 -2.618858e-02 -7.067265e-02 -3.223100e-02 7.705216e-01 4.462157e-03 1.328509e-01 1.050218e-02 5.951751e-02 3.174255e-01 3.165790e-01 1.799578e-02 -2.434159e-02 -1.951819e-01 -1.371802e-02 3.766006e-02
    <VARIANCE> 19
    9.233303e-05 3.356807e-05 1.159534e-04 6.670928e-05 4.355910e-05 6.918047e-05 3.721597e-05 3.013526e-04 4.846117e-06 7.671648e-06 2.611132e-05 5.310680e-06 1.886965e-05 1.294105e-05 3.614020e-06 2.005150e-06 0.000000e+00 1.461179e-06 2.326679e-06
    <TRANSP> 5
    0.000000e+00 1.000000e+00 0.000000e+00 0.000000e+00 0.000000e+00
    0.000000e+00 6.000000e-01 4.000000e-01 0.000000e+00 0.000000e+00
    0.000000e+00 0.000000e+00 6.000000e-01 4.000000e-01 0.000000e+00
    0.000000e+00 0.000000e+00 0.000000e+00 7.000000e-01 3.000000e-01
    0.000000e+00 0.000000e+00 0.000000e+00 0.000000e+00 0.000000e+00
    <ENDHMM>
~h "NU"
    <BEGINHMM>
    <NUMSTATES> 5
    <STATE> 2
    <MEAN> 19
    5.183051e-01 -2.165859e-02 2.392358e-01 2.047650e-01 -2.618858e-02 -7.067265e-02 -3.223100e-02 7.705216e-01 4.462157e-03 1.328509e-01 1.050218e-02 5.951751e-02 3.174255e-01 3.165790e-01 1.799578e-02 -2.434159e-02 -1.951819e-01 -1.371802e-02 3.766006e-02
    <VARIANCE> 19
    9.233303e-05 3.356807e-05 1.159534e-04 6.670928e-05 4.355910e-05 6.918047e-05 3.721597e-05 3.013526e-04 4.846117e-06 7.671648e-06 2.611132e-05 5.310680e-06 1.886965e-05 1.294105e-05 3.614020e-06 2.005150e-06 0.000000e+00 1.461179e-06 2.326679e-06
    <STATE> 3
    <MEAN> 19
    5.183051e-01 -2.165859e-02 2.392358e-01 2.047650e-01 -2.618858e-02 -7.067265e-02 -3.223100e-02 7.705216e-01 4.462157e-03 1.328509e-01 1.050218e-02 5.951751e-02 3.174255e-01 3.165790e-01 1.799578e-02 -2.434159e-02 -1.951819e-01 -1.371802e-02 3.766006e-02
    <VARIANCE> 19
    9.233303e-05 3.356807e-05 1.159534e-04 6.670928e-05 4.355910e-05 6.918047e-05 3.721597e-05 3.013526e-04 4.846117e-06 7.671648e-06 2.611132e-05 5.310680e-06 1.886965e-05 1.294105e-05 3.614020e-06 2.005150e-06 0.000000e+00 1.461179e-06 2.326679e-06
    <STATE> 4
    <MEAN> 19
    5.183051e-01 -2.165859e-02 2.392358e-01 2.047650e-01 -2.618858e-02 -7.067265e-02 -3.223100e-02 7.705216e-01 4.462157e-03 1.328509e-01 1.050218e-02 5.951751e-02 3.174255e-01 3.165790e-01 1.799578e-02 -2.434159e-02 -1.951819e-01 -1.371802e-02 3.766006e-02
    <VARIANCE> 19
    9.233303e-05 3.356807e-05 1.159534e-04 6.670928e-05 4.355910e-05 6.918047e-05 3.721597e-05 3.013526e-04 4.846117e-06 7.671648e-06 2.611132e-05 5.310680e-06 1.886965e-05 1.294105e-05 3.614020e-06 2.005150e-06 0.000000e+00 1.461179e-06 2.326679e-06
    <TRANSP> 5
    0.000000e+00 1.000000e+00 0.000000e+00 0.000000e+00 0.000000e+00
    0.000000e+00 6.000000e-01 4.000000e-01 0.000000e+00 0.000000e+00
    0.000000e+00 0.000000e+00 6.000000e-01 4.000000e-01 0.000000e+00
    0.000000e+00 0.000000e+00 0.000000e+00 7.000000e-01 3.000000e-01
    0.000000e+00 0.000000e+00 0.000000e+00 0.000000e+00 0.000000e+00
    <ENDHMM>
~h "OK"
    <BEGINHMM>
    <NUMSTATES> 5
    <STATE> 2
    <MEAN> 19
    5.183051e-01 -2.165859e-02 2.392358e-01 2.047650e-01 -2.618858e-02 -7.067265e-02 -3.223100e-02 7.705216e-01 4.462157e-03 1.328509e-01 1.050218e-02 5.951751e-02 3.174255e-01 3.165790e-01 1.799578e-02 -2.434159e-02 -1.951819e-01 -1.371802e-02 3.766006e-02
    <VARIANCE> 19
    9.233303e-05 3.356807e-05 1.159534e-04 6.670928e-05 4.355910e-05 6.918047e-05 3.721597e-05 3.013526e-04 4.846117e-06 7.671648e-06 2.611132e-05 5.310680e-06 1.886965e-05 1.294105e-05 3.614020e-06 2.005150e-06 0.000000e+00 1.461179e-06 2.326679e-06
    <STATE> 3
    <MEAN> 19
    5.183051e-01 -2.165859e-02 2.392358e-01 2.047650e-01 -2.618858e-02 -7.067265e-02 -3.223100e-02 7.705216e-01 4.462157e-03 1.328509e-01 1.050218e-02 5.951751e-02 3.174255e-01 3.165790e-01 1.799578e-02 -2.434159e-02 -1.951819e-01 -1.371802e-02 3.766006e-02
    <VARIANCE> 19
    9.233303e-05 3.356807e-05 1.159534e-04 6.670928e-05 4.355910e-05 6.918047e-05 3.721597e-05 3.013526e-04 4.846117e-06 7.671648e-06 2.611132e-05 5.310680e-06 1.886965e-05 1.294105e-05 3.614020e-06 2.005150e-06 0.000000e+00 1.461179e-06 2.326679e-06
    <STATE> 4
    <MEAN> 19
    5.183051e-01 -2.165859e-02 2.392358e-01 2.047650e-01 -2.618858e-02 -7.067265e-02 -3.223100e-02 7.705216e-01 4.462157e-03 1.328509e-01 1.050218e-02 5.951751e-02 3.174255e-01 3.165790e-01 1.799578e-02 -2.434159e-02 -1.951819e-01 -1.371802e-02 3.766006e-02
    <VARIANCE> 19
    9.233303e-05 3.356807e-05 1.159534e-04 6.670928e-05 4.355910e-05 6.918047e-05 3.721597e-05 3.013526e-04 4.846117e-06 7.671648e-06 2.611132e-05 5.310680e-06 1.886965e-05 1.294105e-05 3.614020e-06 2.005150e-06 0.000000e+00 1.461179e-06 2.326679e-06
    <TRANSP> 5
    0.000000e+00 1.000000e+00 0.000000e+00 0.000000e+00 0.000000e+00
    0.000000e+00 6.000000e-01 4.000000e-01 0.000000e+00 0.000000e+00
    0.000000e+00 0.000000e+00 6.000000e-01 4.000000e-01 0.000000e+00
    0.000000e+00 0.000000e+00 0.000000e+00 7.000000e-01 3.000000e-01
    0.000000e+00 0.000000e+00 0.000000e+00 0.000000e+00 0.000000e+00
    <ENDHMM>
~h "PF"
    <BEGINHMM>
    <NUMSTATES> 5
    <STATE> 2
    <MEAN> 19
    5.183051e-01 -2.165859e-02 2.392358e-01 2.047650e-01 -2.618858e-02 -7.067265e-02 -3.223100e-02 7.705216e-01 4.462157e-03 1.328509e-01 1.050218e-02 5.951751e-02 3.174255e-01 3.165790e-01 1.799578e-02 -2.434159e-02 -1.951819e-01 -1.371802e-02 3.766006e-02
    <VARIANCE> 19
    9.233303e-05 3.356807e-05 1.159534e-04 6.670928e-05 4.355910e-05 6.918047e-05 3.721597e-05 3.013526e-04 4.846117e-06 7.671648e-06 2.611132e-05 5.310680e-06 1.886965e-05 1.294105e-05 3.614020e-06 2.005150e-06 0.000000e+00 1.461179e-06 2.326679e-06
    <STATE> 3
    <MEAN> 19
    5.183051e-01 -2.165859e-02 2.392358e-01 2.047650e-01 -2.618858e-02 -7.067265e-02 -3.223100e-02 7.705216e-01 4.462157e-03 1.328509e-01 1.050218e-02 5.951751e-02 3.174255e-01 3.165790e-01 1.799578e-02 -2.434159e-02 -1.951819e-01 -1.371802e-02 3.766006e-02
    <VARIANCE> 19
    9.233303e-05 3.356807e-05 1.159534e-04 6.670928e-05 4.355910e-05 6.918047e-05 3.721597e-05 3.013526e-04 4.846117e-06 7.671648e-06 2.611132e-05 5.310680e-06 1.886965e-05 1.294105e-05 3.614020e-06 2.005150e-06 0.000000e+00 1.461179e-06 2.326679e-06
    <STATE> 4
    <MEAN> 19
    5.183051e-01 -2.165859e-02 2.392358e-01 2.047650e-01 -2.618858e-02 -7.067265e-02 -3.223100e-02 7.705216e-01 4.462157e-03 1.328509e-01 1.050218e-02 5.951751e-02 3.174255e-01 3.165790e-01 1.799578e-02 -2.434159e-02 -1.951819e-01 -1.371802e-02 3.766006e-02
    <VARIANCE> 19
    9.233303e-05 3.356807e-05 1.159534e-04 6.670928e-05 4.355910e-05 6.918047e-05 3.721597e-05 3.013526e-04 4.846117e-06 7.671648e-06 2.611132e-05 5.310680e-06 1.886965e-05 1.294105e-05 3.614020e-06 2.005150e-06 0.000000e+00 1.461179e-06 2.326679e-06
    <TRANSP> 5
    0.000000e+00 1.000000e+00 0.000000e+00 0.000000e+00 0.000000e+00
    0.000000e+00 6.000000e-01 4.000000e-01 0.000000e+00 0.000000e+00
    0.000000e+00 0.000000e+00 6.000000e-01 4.000000e-01 0.000000e+00
    0.000000e+00 0.000000e+00 0.000000e+00 7.000000e-01 3.000000e-01
    0.000000e+00 0.000000e+00 0.000000e+00 0.000000e+00 0.000000e+00
    <ENDHMM>
~h "PR"
    <BEGINHMM>
    <NUMSTATES> 5
    <STATE> 2
    <MEAN> 19
    5.183051e-01 -2.165859e-02 2.392358e-01 2.047650e-01 -2.618858e-02 -7.067265e-02 -3.223100e-02 7.705216e-01 4.462157e-03 1.328509e-01 1.050218e-02 5.951751e-02 3.174255e-01 3.165790e-01 1.799578e-02 -2.434159e-02 -1.951819e-01 -1.371802e-02 3.766006e-02
    <VARIANCE> 19
    9.233303e-05 3.356807e-05 1.159534e-04 6.670928e-05 4.355910e-05 6.918047e-05 3.721597e-05 3.013526e-04 4.846117e-06 7.671648e-06 2.611132e-05 5.310680e-06 1.886965e-05 1.294105e-05 3.614020e-06 2.005150e-06 0.000000e+00 1.461179e-06 2.326679e-06
    <STATE> 3
    <MEAN> 19
    5.183051e-01 -2.165859e-02 2.392358e-01 2.047650e-01 -2.618858e-02 -7.067265e-02 -3.223100e-02 7.705216e-01 4.462157e-03 1.328509e-01 1.050218e-02 5.951751e-02 3.174255e-01 3.165790e-01 1.799578e-02 -2.434159e-02 -1.951819e-01 -1.371802e-02 3.766006e-02
    <VARIANCE> 19
    9.233303e-05 3.356807e-05 1.159534e-04 6.670928e-05 4.355910e-05 6.918047e-05 3.721597e-05 3.013526e-04 4.846117e-06 7.671648e-06 2.611132e-05 5.310680e-06 1.886965e-05 1.294105e-05 3.614020e-06 2.005150e-06 0.000000e+00 1.461179e-06 2.326679e-06
    <STATE> 4
    <MEAN> 19
    5.183051e-01 -2.165859e-02 2.392358e-01 2.047650e-01 -2.618858e-02 -7.067265e-02 -3.223100e-02 7.705216e-01 4.462157e-03 1.328509e-01 1.050218e-02 5.951751e-02 3.174255e-01 3.165790e-01 1.799578e-02 -2.434159e-02 -1.951819e-01 -1.371802e-02 3.766006e-02
    <VARIANCE> 19
    9.233303e-05 3.356807e-05 1.159534e-04 6.670928e-05 4.355910e-05 6.918047e-05 3.721597e-05 3.013526e-04 4.846117e-06 7.671648e-06 2.611132e-05 5.310680e-06 1.886965e-05 1.294105e-05 3.614020e-06 2.005150e-06 0.000000e+00 1.461179e-06 2.326679e-06
    <TRANSP> 5
    0.000000e+00 1.000000e+00 0.000000e+00 0.000000e+00 0.000000e+00
    0.000000e+00 6.000000e-01 4.000000e-01 0.000000e+00 0.000000e+00
    0.000000e+00 0.000000e+00 6.000000e-01 4.000000e-01 0.000000e+00
    0.000000e+00 0.000000e+00 0.000000e+00 7.000000e-01 3.000000e-01
    0.000000e+00 0.000000e+00 0.000000e+00 0.000000e+00 0.000000e+00
    <ENDHMM>
~h "SP"
    <BEGINHMM>
    <NUMSTATES> 5
    <STATE> 2
    <MEAN> 19
    5.183051e-01 -2.165859e-02 2.392358e-01 2.047650e-01 -2.618858e-02 -7.067265e-02 -3.223100e-02 7.705216e-01 4.462157e-03 1.328509e-01 1.050218e-02 5.951751e-02 3.174255e-01 3.165790e-01 1.799578e-02 -2.434159e-02 -1.951819e-01 -1.371802e-02 3.766006e-02
    <VARIANCE> 19
    9.233303e-05 3.356807e-05 1.159534e-04 6.670928e-05 4.355910e-05 6.918047e-05 3.721597e-05 3.013526e-04 4.846117e-06 7.671648e-06 2.611132e-05 5.310680e-06 1.886965e-05 1.294105e-05 3.614020e-06 2.005150e-06 0.000000e+00 1.461179e-06 2.326679e-06
    <STATE> 3
    <MEAN> 19
    5.183051e-01 -2.165859e-02 2.392358e-01 2.047650e-01 -2.618858e-02 -7.067265e-02 -3.223100e-02 7.705216e-01 4.462157e-03 1.328509e-01 1.050218e-02 5.951751e-02 3.174255e-01 3.165790e-01 1.799578e-02 -2.434159e-02 -1.951819e-01 -1.371802e-02 3.766006e-02
    <VARIANCE> 19
    9.233303e-05 3.356807e-05 1.159534e-04 6.670928e-05 4.355910e-05 6.918047e-05 3.721597e-05 3.013526e-04 4.846117e-06 7.671648e-06 2.611132e-05 5.310680e-06 1.886965e-05 1.294105e-05 3.614020e-06 2.005150e-06 0.000000e+00 1.461179e-06 2.326679e-06
    <STATE> 4
    <MEAN> 19
    5.183051e-01 -2.165859e-02 2.392358e-01 2.047650e-01 -2.618858e-02 -7.067265e-02 -3.223100e-02 7.705216e-01 4.462157e-03 1.328509e-01 1.050218e-02 5.951751e-02 3.174255e-01 3.165790e-01 1.799578e-02 -2.434159e-02 -1.951819e-01 -1.371802e-02 3.766006e-02
    <VARIANCE> 19
    9.233303e-05 3.356807e-05 1.159534e-04 6.670928e-05 4.355910e-05 6.918047e-05 3.721597e-05 3.013526e-04 4.846117e-06 7.671648e-06 2.611132e-05 5.310680e-06 1.886965e-05 1.294105e-05 3.614020e-06 2.005150e-06 0.000000e+00 1.461179e-06 2.326679e-06
    <TRANSP> 5
    0.000000e+00 1.000000e+00 0.000000e+00 0.000000e+00 0.000000e+00
    0.000000e+00 6.000000e-01 4.000000e-01 0.000000e+00 0.000000e+00
    0.000000e+00 0.000000e+00 6.000000e-01 4.000000e-01 0.000000e+00
    0.000000e+00 0.000000e+00 0.000000e+00 7.000000e-01 3.000000e-01
    0.000000e+00 0.000000e+00 0.000000e+00 0.000000e+00 0.000000e+00
    <ENDHMM>
~h "ST"
    <BEGINHMM>
    <NUMSTATES> 5
    <STATE> 2
    <MEAN> 19
    5.183051e-01 -2.165859e-02 2.392358e-01 2.047650e-01 -2.618858e-02 -7.067265e-02 -3.223100e-02 7.705216e-01 4.462157e-03 1.328509e-01 1.050218e-02 5.951751e-02 3.174255e-01 3.165790e-01 1.799578e-02 -2.434159e-02 -1.951819e-01 -1.371802e-02 3.766006e-02
    <VARIANCE> 19
    9.233303e-05 3.356807e-05 1.159534e-04 6.670928e-05 4.355910e-05 6.918047e-05 3.721597e-05 3.013526e-04 4.846117e-06 7.671648e-06 2.611132e-05 5.310680e-06 1.886965e-05 1.294105e-05 3.614020e-06 2.005150e-06 0.000000e+00 1.461179e-06 2.326679e-06
    <STATE> 3
    <MEAN> 19
    5.183051e-01 -2.165859e-02 2.392358e-01 2.047650e-01 -2.618858e-02 -7.067265e-02 -3.223100e-02 7.705216e-01 4.462157e-03 1.328509e-01 1.050218e-02 5.951751e-02 3.174255e-01 3.165790e-01 1.799578e-02 -2.434159e-02 -1.951819e-01 -1.371802e-02 3.766006e-02
    <VARIANCE> 19
    9.233303e-05 3.356807e-05 1.159534e-04 6.670928e-05 4.355910e-05 6.918047e-05 3.721597e-05 3.013526e-04 4.846117e-06 7.671648e-06 2.611132e-05 5.310680e-06 1.886965e-05 1.294105e-05 3.614020e-06 2.005150e-06 0.000000e+00 1.461179e-06 2.326679e-06
    <STATE> 4
    <MEAN> 19
    5.183051e-01 -2.165859e-02 2.392358e-01 2.047650e-01 -2.618858e-02 -7.067265e-02 -3.223100e-02 7.705216e-01 4.462157e-03 1.328509e-01 1.050218e-02 5.951751e-02 3.174255e-01 3.165790e-01 1.799578e-02 -2.434159e-02 -1.951819e-01 -1.371802e-02 3.766006e-02
    <VARIANCE> 19
    9.233303e-05 3.356807e-05 1.159534e-04 6.670928e-05 4.355910e-05 6.918047e-05 3.721597e-05 3.013526e-04 4.846117e-06 7.671648e-06 2.611132e-05 5.310680e-06 1.886965e-05 1.294105e-05 3.614020e-06 2.005150e-06 0.000000e+00 1.461179e-06 2.326679e-06
    <TRANSP> 5
    0.000000e+00 1.000000e+00 0.000000e+00 0.000000e+00 0.000000e+00
    0.000000e+00 6.000000e-01 4.000000e-01 0.000000e+00 0.000000e+00
    0.000000e+00 0.000000e+00 6.000000e-01 4.000000e-01 0.000000e+00
    0.000000e+00 0.000000e+00 0.000000e+00 7.000000e-01 3.000000e-01
    0.000000e+00 0.000000e+00 0.000000e+00 0.000000e+00 0.000000e+00
    <ENDHMM>
~h "TT"
    <BEGINHMM>
    <NUMSTATES> 5
    <STATE> 2
    <MEAN> 19
    5.183051e-01 -2.165859e-02 2.392358e-01 2.047650e-01 -2.618858e-02 -7.067265e-02 -3.223100e-02 7.705216e-01 4.462157e-03 1.328509e-01 1.050218e-02 5.951751e-02 3.174255e-01 3.165790e-01 1.799578e-02 -2.434159e-02 -1.951819e-01 -1.371802e-02 3.766006e-02
    <VARIANCE> 19
    9.233303e-05 3.356807e-05 1.159534e-04 6.670928e-05 4.355910e-05 6.918047e-05 3.721597e-05 3.013526e-04 4.846117e-06 7.671648e-06 2.611132e-05 5.310680e-06 1.886965e-05 1.294105e-05 3.614020e-06 2.005150e-06 0.000000e+00 1.461179e-06 2.326679e-06
    <STATE> 3
    <MEAN> 19
    5.183051e-01 -2.165859e-02 2.392358e-01 2.047650e-01 -2.618858e-02 -7.067265e-02 -3.223100e-02 7.705216e-01 4.462157e-03 1.328509e-01 1.050218e-02 5.951751e-02 3.174255e-01 3.165790e-01 1.799578e-02 -2.434159e-02 -1.951819e-01 -1.371802e-02 3.766006e-02
    <VARIANCE> 19
    9.233303e-05 3.356807e-05 1.159534e-04 6.670928e-05 4.355910e-05 6.918047e-05 3.721597e-05 3.013526e-04 4.846117e-06 7.671648e-06 2.611132e-05 5.310680e-06 1.886965e-05 1.294105e-05 3.614020e-06 2.005150e-06 0.000000e+00 1.461179e-06 2.326679e-06
    <STATE> 4
    <MEAN> 19
    5.183051e-01 -2.165859e-02 2.392358e-01 2.047650e-01 -2.618858e-02 -7.067265e-02 -3.223100e-02 7.705216e-01 4.462157e-03 1.328509e-01 1.050218e-02 5.951751e-02 3.174255e-01 3.165790e-01 1.799578e-02 -2.434159e-02 -1.951819e-01 -1.371802e-02 3.766006e-02
    <VARIANCE> 19
    9.233303e-05 3.356807e-05 1.159534e-04 6.670928e-05 4.355910e-05 6.918047e-05 3.721597e-05 3.013526e-04 4.846117e-06 7.671648e-06 2.611132e-05 5.310680e-06 1.886965e-05 1.294105e-05 3.614020e-06 2.005150e-06 0.000000e+00 1.461179e-06 2.326679e-06
    <TRANSP> 5
    0.000000e+00 1.000000e+00 0.000000e+00 0.000000e+00 0.000000e+00
    0.000000e+00 6.000000e-01 4.000000e-01 0.000000e+00 0.000000e+00
    0.000000e+00 0.000000e+00 6.000000e-01 4.000000e-01 0.000000e+00
    0.000000e+00 0.000000e+00 0.000000e+00 7.000000e-01 3.000000e-01
    0.000000e+00 0.000000e+00 0.000000e+00 0.000000e+00 0.000000e+00
    <ENDHMM>
~h "VA"
    <BEGINHMM>
    <NUMSTATES> 5
    <STATE> 2
    <MEAN> 19
    5.183051e-01 -2.165859e-02 2.392358e-01 2.047650e-01 -2.618858e-02 -7.067265e-02 -3.223100e-02 7.705216e-01 4.462157e-03 1.328509e-01 1.050218e-02 5.951751e-02 3.174255e-01 3.165790e-01 1.799578e-02 -2.434159e-02 -1.951819e-01 -1.371802e-02 3.766006e-02
    <VARIANCE> 19
    9.233303e-05 3.356807e-05 1.159534e-04 6.670928e-05 4.355910e-05 6.918047e-05 3.721597e-05 3.013526e-04 4.846117e-06 7.671648e-06 2.611132e-05 5.310680e-06 1.886965e-05 1.294105e-05 3.614020e-06 2.005150e-06 0.000000e+00 1.461179e-06 2.326679e-06
    <STATE> 3
    <MEAN> 19
    5.183051e-01 -2.165859e-02 2.392358e-01 2.047650e-01 -2.618858e-02 -7.067265e-02 -3.223100e-02 7.705216e-01 4.462157e-03 1.328509e-01 1.050218e-02 5.951751e-02 3.174255e-01 3.165790e-01 1.799578e-02 -2.434159e-02 -1.951819e-01 -1.371802e-02 3.766006e-02
    <VARIANCE> 19
    9.233303e-05 3.356807e-05 1.159534e-04 6.670928e-05 4.355910e-05 6.918047e-05 3.721597e-05 3.013526e-04 4.846117e-06 7.671648e-06 2.611132e-05 5.310680e-06 1.886965e-05 1.294105e-05 3.614020e-06 2.005150e-06 0.000000e+00 1.461179e-06 2.326679e-06
    <STATE> 4
    <MEAN> 19
    5.183051e-01 -2.165859e-02 2.392358e-01 2.047650e-01 -2.618858e-02 -7.067265e-02 -3.223100e-02 7.705216e-01 4.462157e-03 1.328509e-01 1.050218e-02 5.951751e-02 3.174255e-01 3.165790e-01 1.799578e-02 -2.434159e-02 -1.951819e-01 -1.371802e-02 3.766006e-02
    <VARIANCE> 19
    9.233303e-05 3.356807e-05 1.159534e-04 6.670928e-05 4.355910e-05 6.918047e-05 3.721597e-05 3.013526e-04 4.846117e-06 7.671648e-06 2.611132e-05 5.310680e-06 1.886965e-05 1.294105e-05 3.614020e-06 2.005150e-06 0.000000e+00 1.461179e-06 2.326679e-06
    <TRANSP> 5
    0.000000e+00 1.000000e+00 0.000000e+00 0.000000e+00 0.000000e+00
    0.000000e+00 6.000000e-01 4.000000e-01 0.000000e+00 0.000000e+00
    0.000000e+00 0.000000e+00 6.000000e-01 4.000000e-01 0.000000e+00
    0.000000e+00 0.000000e+00 0.000000e+00 7.000000e-01 3.000000e-01
    0.000000e+00 0.000000e+00 0.000000e+00 0.000000e+00 0.000000e+00
    <ENDHMM>
~h "VQ"
    <BEGINHMM>
    <NUMSTATES> 5
    <STATE> 2
    <MEAN> 19
    5.183051e-01 -2.165859e-02 2.392358e-01 2.047650e-01 -2.618858e-02 -7.067265e-02 -3.223100e-02 7.705216e-01 4.462157e-03 1.328509e-01 1.050218e-02 5.951751e-02 3.174255e-01 3.165790e-01 1.799578e-02 -2.434159e-02 -1.951819e-01 -1.371802e-02 3.766006e-02
    <VARIANCE> 19
    9.233303e-05 3.356807e-05 1.159534e-04 6.670928e-05 4.355910e-05 6.918047e-05 3.721597e-05 3.013526e-04 4.846117e-06 7.671648e-06 2.611132e-05 5.310680e-06 1.886965e-05 1.294105e-05 3.614020e-06 2.005150e-06 0.000000e+00 1.461179e-06 2.326679e-06
    <STATE> 3
    <MEAN> 19
    5.183051e-01 -2.165859e-02 2.392358e-01 2.047650e-01 -2.618858e-02 -7.067265e-02 -3.223100e-02 7.705216e-01 4.462157e-03 1.328509e-01 1.050218e-02 5.951751e-02 3.174255e-01 3.165790e-01 1.799578e-02 -2.434159e-02 -1.951819e-01 -1.371802e-02 3.766006e-02
    <VARIANCE> 19
    9.233303e-05 3.356807e-05 1.159534e-04 6.670928e-05 4.355910e-05 6.918047e-05 3.721597e-05 3.013526e-04 4.846117e-06 7.671648e-06 2.611132e-05 5.310680e-06 1.886965e-05 1.294105e-05 3.614020e-06 2.005150e-06 0.000000e+00 1.461179e-06 2.326679e-06
    <STATE> 4
    <MEAN> 19
    5.183051e-01 -2.165859e-02 2.392358e-01 2.047650e-01 -2.618858e-02 -7.067265e-02 -3.223100e-02 7.705216e-01 4.462157e-03 1.328509e-01 1.050218e-02 5.951751e-02 3.174255e-01 3.165790e-01 1.799578e-02 -2.434159e-02 -1.951819e-01 -1.371802e-02 3.766006e-02
    <VARIANCE> 19
    9.233303e-05 3.356807e-05 1.159534e-04 6.670928e-05 4.355910e-05 6.918047e-05 3.721597e-05 3.013526e-04 4.846117e-06 7.671648e-06 2.611132e-05 5.310680e-06 1.886965e-05 1.294105e-05 3.614020e-06 2.005150e-06 0.000000e+00 1.461179e-06 2.326679e-06
    <TRANSP> 5
    0.000000e+00 1.000000e+00 0.000000e+00 0.000000e+00 0.000000e+00
    0.000000e+00 6.000000e-01 4.000000e-01 0.000000e+00 0.000000e+00
    0.000000e+00 0.000000e+00 6.000000e-01 4.000000e-01 0.000000e+00
    0.000000e+00 0.000000e+00 0.000000e+00 7.000000e-01 3.000000e-01
    0.000000e+00 0.000000e+00 0.000000e+00 0.000000e+00 0.000000e+00
    <ENDHMM>
