~o
<STREAMINFO> 1 33
<VECSIZE> 33<NULLD><USER><DIAGC>
~h "BN"
<BEGINHMM>
<NUMSTATES> 5
<STATE> 2
<NUMMIXES> 4
<MIXTURE> 1 3.144205e-01
<MEAN> 33
 1.743761e+02 1.387805e+02 1.046719e+02 1.396867e+02 1.761688e+02 1.769554e+02 1.353703e+02 1.341026e+02 9.052708e+01 1.603207e+02 1.764766e+02 9.598724e-01 1.756524e+02 1.623898e+02 1.645793e+02 1.668425e+02 1.705205e+02 8.099259e+00 1.048669e+02 1.613876e+02 1.695137e+02 1.635433e+02 1.096590e+02 1.617791e+02 6.926043e+01 9.276375e+01 1.604681e+02 4.367871e+00 2.303721e+00 2.573590e+00 2.391844e+00 2.268803e+00 4.693244e+00
<VARIANCE> 33
 3.902650e+01 1.770719e+01 4.642316e+01 2.759670e+01 3.037716e+01 3.803451e+00 2.822034e+01 2.062020e+01 1.886277e+01 3.478429e+01 9.262104e+00 5.357184e-01 8.052388e+00 3.305965e+01 4.178497e+01 6.527444e+01 5.304645e+01 3.148238e+01 4.050054e+02 9.181882e+01 2.568721e+01 1.027120e+02 3.669658e+02 1.878510e+02 6.176985e+02 8.156185e+02 1.994306e+02 4.615352e+00 3.810614e-01 2.488649e-01 3.673846e-01 3.088102e-01 2.856159e+00
<GCONST> 1.604785e+02
<MIXTURE> 2 1.316021e-01
<MEAN> 33
 1.480752e+02 1.371327e+02 1.106083e+02 1.362039e+02 1.750372e+02 1.767191e+02 1.241451e+02 1.347636e+02 1.006943e+02 1.214632e+02 1.751281e+02 9.909770e-01 1.756023e+02 1.608099e+02 1.613930e+02 1.193825e+02 1.662745e+02 4.830248e+01 5.513926e+01 1.579002e+02 1.689357e+02 1.637765e+02 1.003159e+02 1.589931e+02 4.543324e+01 7.484425e+01 1.173878e+02 8.702967e+00 3.073475e+00 3.029713e+00 2.596655e+00 2.116967e+00 4.246877e+00
<VARIANCE> 33
 3.663600e+02 2.118189e+01 3.979803e+01 1.333710e+01 3.037716e+01 7.680038e+00 2.396047e+02 2.062020e+01 2.914600e+02 2.166337e+02 1.634722e+01 6.198719e-01 6.621606e+00 3.822589e+01 4.084649e+01 3.571117e+02 6.737199e+01 4.615898e+02 2.639090e+02 1.527422e+02 2.409757e+01 9.050817e+01 5.039750e+02 2.313916e+02 5.690330e+02 7.523351e+02 2.879508e+02 1.507379e+00 5.340472e-01 1.028723e-01 7.286444e-02 9.146082e-02 9.897469e-01
<GCONST> 1.697502e+02
<MIXTURE> 3 2.025302e-01
<MEAN> 33
 1.722589e+02 1.359902e+02 1.127025e+02 1.381235e+02 1.703677e+02 1.756716e+02 1.341751e+02 1.339765e+02 9.184842e+01 1.568362e+02 1.690437e+02 1.729059e+00 1.726866e+02 1.596097e+02 1.609291e+02 1.602257e+02 1.602635e+02 2.189030e+01 1.018752e+02 1.398958e+02 1.708255e+02 1.517040e+02 1.099736e+02 1.426256e+02 9.694728e+01 8.186504e+01 1.497308e+02 5.161424e+00 3.598148e+00 2.891440e+00 2.719661e+00 2.945992e+00 5.073096e+00
<VARIANCE> 33
 3.902650e+01 3.772025e+01 6.754362e+01 4.464500e+01 5.377882e+01 1.222498e+01 3.837046e+01 3.138216e+01 8.261519e+01 1.675967e+02 6.425687e+01 1.858312e+00 3.423633e+01 2.270012e+02 2.950435e+01 2.503377e+02 1.998613e+02 3.051166e+02 1.931714e+03 3.778875e+02 3.678528e+01 2.458154e+02 1.818011e+03 8.114266e+02 2.289776e+03 2.259457e+03 5.889750e+02 3.942198e+00 2.870177e+00 5.649276e-01 2.476207e-01 1.226486e+00 4.257482e+00
<GCONST> 1.935042e+02
<MIXTURE> 4 3.514468e-01
<MEAN> 33
 7.556480e+01 1.470060e+02 1.123520e+02 1.481900e+02 1.177220e+02 1.742252e+02 5.940442e+01 1.005646e+02 1.120353e+02 1.010065e+02 1.466041e+02 2.995003e+00 1.674990e+02 1.356645e+02 1.648672e+02 7.262112e+01 1.126377e+02 8.665612e+01 9.226719e+01 1.310055e+02 1.712396e+02 1.536491e+02 5.836350e+01 1.193450e+02 5.825016e+01 9.812165e+01 9.826347e+01 5.194471e+00 3.739658e+00 3.358068e+00 2.688558e+00 3.715019e+00 3.975957e+00
<VARIANCE> 33
 3.980129e+03 2.779389e+02 7.364542e+01 3.689657e+02 1.767107e+03 1.963036e+01 2.909617e+03 1.663477e+03 2.013019e+03 1.733175e+03 7.202291e+02 1.600083e+01 1.447803e+02 1.358852e+03 3.410844e+01 3.023452e+03 2.001849e+03 2.996817e+03 1.793383e+03 6.266301e+02 5.202681e+01 4.725262e+02 1.822544e+03 2.079524e+03 1.752386e+03 3.141587e+03 2.438362e+03 3.732753e+00 2.170880e+00 6.469004e-01 5.996721e-01 1.097742e+00 2.579055e+00
<GCONST> 2.390770e+02
<STATE> 3
<NUMMIXES> 4
<MIXTURE> 1 2.042921e-01
<MEAN> 33
 6.006439e+01 1.530061e+02 1.132759e+02 1.351875e+02 1.713016e+02 1.766036e+02 5.160989e+01 1.367346e+02 1.491038e+02 9.216061e+01 1.550743e+02 3.030126e+00 1.746483e+02 1.627308e+02 1.619418e+02 6.463274e+01 1.674892e+02 1.157217e+02 8.187553e+01 1.448906e+02 1.683242e+02 1.536924e+02 1.087691e+02 1.440312e+02 3.124765e+01 1.098092e+02 1.192870e+02 7.916436e+00 3.574690e+00 3.523668e+00 2.538289e+00 2.461307e+00 3.380226e+00
<VARIANCE> 33
 2.566721e+03 2.819732e+02 8.380270e+01 1.618793e+01 3.844276e+01 9.277125e+00 1.518034e+03 2.062020e+01 6.198036e+02 8.758192e+02 2.193327e+02 8.818455e+00 1.242730e+01 3.001855e+01 2.932939e+01 8.988530e+02 5.604354e+01 1.352585e+03 8.466477e+02 5.344297e+02 2.974021e+01 1.719809e+02 9.965983e+02 6.118072e+02 4.247415e+02 2.366654e+03 5.041158e+02 1.549482e+00 1.156887e+00 4.767947e-01 1.300498e-01 3.244162e-01 6.105758e-01
<GCONST> 1.968031e+02
<MIXTURE> 2 3.301998e-01
<MEAN> 33
 1.812319e+01 1.646306e+02 1.056995e+02 1.363398e+02 1.748767e+02 1.761832e+02 1.608631e+01 1.356167e+02 1.517022e+02 6.413670e+01 1.366558e+02 1.997349e+00 1.750260e+02 1.635717e+02 1.624731e+02 2.805264e+01 1.659604e+02 1.395805e+02 7.774878e+01 1.371133e+02 1.699125e+02 1.630961e+02 1.090746e+02 1.160346e+02 5.262184e+01 1.076604e+02 1.073439e+02 5.634516e+00 4.089566e+00 2.990627e+00 2.899720e+00 2.199305e+00 4.423230e+00
<VARIANCE> 33
 8.175030e+01 1.928208e+02 6.180360e+01 1.594891e+01 3.037716e+01 9.959867e+00 2.822034e+01 2.062020e+01 3.294862e+01 2.527417e+02 4.847550e+02 3.421214e+00 1.782661e+01 2.221474e+01 3.234640e+01 3.071743e+01 7.604911e+01 1.530904e+02 2.456201e+02 2.583287e+02 5.231472e+01 1.118114e+02 3.939550e+02 1.714320e+03 1.568623e+03 2.512072e+03 2.316558e+02 6.836966e-01 1.015698e+00 5.553330e-01 2.177406e-01 1.063582e-01 1.094931e+00
<GCONST> 1.771331e+02
<MIXTURE> 3 3.301998e-01
<MEAN> 33
 1.812319e+01 1.646306e+02 1.056995e+02 1.363398e+02 1.748767e+02 1.761832e+02 1.608631e+01 1.356167e+02 1.517022e+02 6.413670e+01 1.366558e+02 1.997349e+00 1.750260e+02 1.635717e+02 1.624731e+02 2.805264e+01 1.659604e+02 1.395805e+02 7.774878e+01 1.371133e+02 1.699125e+02 1.630961e+02 1.090746e+02 1.160346e+02 5.262184e+01 1.076604e+02 1.073439e+02 5.634516e+00 4.089566e+00 2.990627e+00 2.899720e+00 2.199305e+00 4.423230e+00
<VARIANCE> 33
 8.175030e+01 1.928208e+02 6.180360e+01 1.594891e+01 3.037716e+01 9.959867e+00 2.822034e+01 2.062020e+01 3.294862e+01 2.527417e+02 4.847550e+02 3.421214e+00 1.782661e+01 2.221474e+01 3.234640e+01 3.071743e+01 7.604911e+01 1.530904e+02 2.456201e+02 2.583287e+02 5.231472e+01 1.118114e+02 3.939550e+02 1.714320e+03 1.568623e+03 2.512072e+03 2.316558e+02 6.836966e-01 1.015698e+00 5.553330e-01 2.177406e-01 1.063582e-01 1.094931e+00
<GCONST> 1.771331e+02
<MIXTURE> 4 1.353077e-01
<MEAN> 33
 3.659587e+01 1.583381e+02 1.170362e+02 1.363336e+02 1.499993e+02 1.753098e+02 3.114100e+01 1.269784e+02 1.516259e+02 5.984294e+01 1.466779e+02 1.382121e+01 1.579677e+02 1.451555e+02 1.611961e+02 3.896859e+01 1.422502e+02 1.229045e+02 6.338654e+01 1.531541e+02 1.580177e+02 1.527062e+02 8.252290e+01 6.446127e+01 9.817318e+01 1.189545e+02 1.052129e+02 4.780100e+00 4.161394e+00 2.149388e+00 2.875083e+00 3.208391e+00 4.960125e+00
<VARIANCE> 33
 1.927082e+03 2.603614e+02 1.518772e+02 1.560637e+02 1.104610e+03 1.211303e+01 1.087502e+03 6.475880e+02 2.901000e+02 1.424108e+03 6.755552e+02 1.769933e+02 1.769645e+02 7.925123e+02 4.238961e+01 1.670151e+03 1.113585e+03 9.553074e+02 3.560597e+02 2.914326e+02 2.925352e+02 1.856186e+02 1.367873e+03 1.762130e+03 2.092317e+03 1.479492e+03 6.583732e+02 2.042465e+00 1.529273e+00 5.750392e-01 4.264073e-01 1.195519e+00 3.862001e+00
<GCONST> 2.281805e+02
<STATE> 4
<NUMMIXES> 4
<MIXTURE> 1 4.583531e-01
<MEAN> 33
 1.719853e+02 1.373562e+02 1.104506e+02 1.374012e+02 1.732945e+02 1.762253e+02 1.357753e+02 1.357987e+02 8.842606e+01 1.598014e+02 1.718386e+02 1.947983e+00 1.738401e+02 1.632672e+02 1.616964e+02 1.603899e+02 1.669458e+02 1.722122e+01 1.080112e+02 1.505274e+02 1.681380e+02 1.585732e+02 1.096261e+02 1.499470e+02 8.497284e+01 8.435966e+01 1.515823e+02 5.441981e+00 2.952878e+00 2.901270e+00 2.695977e+00 2.549102e+00 4.791868e+00
<VARIANCE> 33
 5.701654e+01 3.379661e+01 6.498449e+01 3.925731e+01 3.543284e+01 1.152407e+01 2.822034e+01 2.062020e+01 3.857288e+01 1.342174e+02 4.779551e+01 5.255085e+00 2.546419e+01 5.794532e+01 3.563213e+01 2.331061e+02 8.744220e+01 1.864429e+02 1.452442e+03 3.812306e+02 2.630573e+01 2.065120e+02 8.560964e+02 7.813436e+02 1.480947e+03 1.572114e+03 4.922803e+02 4.560780e+00 1.533129e+00 3.103207e-01 2.831932e-01 8.495407e-01 2.724480e+00
<GCONST> 1.849849e+02
<MIXTURE> 2 1.123735e-01
<MEAN> 33
 1.719894e+02 1.356167e+02 1.157821e+02 1.509802e+02 2.453507e+01 1.708331e+02 1.372753e+02 3.405205e+01 1.642899e+02 1.585710e+02 1.735867e+02 1.348062e+01 1.317685e+02 7.041681e+01 1.597490e+02 1.673862e+02 4.090481e+01 1.272630e+02 7.873138e+01 1.440015e+02 1.626527e+02 1.444327e+02 7.154970e+01 1.324375e+02 6.400382e+01 8.318520e+01 1.119883e+02 2.417116e+00 2.162632e+00 2.675452e+00 2.697403e+00 4.340108e+00 6.374390e+00
<VARIANCE> 33
 3.902650e+01 5.138640e+01 1.247981e+02 6.087109e+02 6.214654e+02 3.289086e+01 2.822034e+01 2.767890e+02 8.440520e+01 5.295098e+01 2.406627e+01 2.872072e+02 1.016089e+03 6.562256e+02 1.079012e+02 5.634558e+01 3.142059e+02 2.733009e+02 1.006597e+03 6.176524e+02 8.784702e+01 4.258536e+02 4.182515e+02 1.589359e+03 1.605804e+03 2.667648e+03 1.967567e+02 1.908302e+00 3.550125e-01 3.481017e-01 6.492357e-01 2.450145e+00 1.964329e+00
<GCONST> 2.066339e+02
<MIXTURE> 3 2.868940e-01
<MEAN> 33
 1.707230e+02 1.387911e+02 1.093461e+02 1.622847e+02 2.131034e+01 1.758315e+02 1.353634e+02 1.980640e+01 1.551698e+02 1.577915e+02 1.701411e+02 1.863035e+00 1.401298e+02 5.847279e+01 1.654160e+02 1.661859e+02 2.583739e+01 1.416402e+02 9.045258e+01 1.554100e+02 1.683749e+02 1.424334e+02 6.938860e+01 9.434562e+01 9.914564e+01 7.552798e+01 1.149508e+02 4.500212e+00 2.671800e+00 2.623884e+00 2.791928e+00 4.286502e+00 5.853940e+00
<VARIANCE> 33
 3.902650e+01 3.564484e+01 8.425796e+01 1.980807e+02 2.241189e+02 1.072003e+01 2.822034e+01 3.139094e+01 4.038728e+01 4.034402e+01 8.167576e+01 2.446101e+00 7.529522e+02 2.840583e+02 5.044677e+01 9.935850e+01 4.576849e+01 1.051983e+02 4.679220e+02 1.833359e+02 6.174115e+01 4.227615e+02 3.985224e+02 3.163500e+03 2.193930e+03 2.415455e+03 1.969499e+02 1.442032e+00 2.317566e-01 2.522704e-01 7.821928e-01 9.125144e-01 1.635592e+00
<GCONST> 1.881708e+02
<MIXTURE> 4 1.423788e-01
<MEAN> 33
 1.281512e+02 1.441113e+02 1.122635e+02 1.423375e+02 1.059450e+02 1.748797e+02 1.038937e+02 8.285278e+01 1.068471e+02 1.234728e+02 1.623157e+02 6.004821e+00 1.541806e+02 1.107229e+02 1.654127e+02 1.179295e+02 8.863933e+01 6.105947e+01 8.148271e+01 1.431778e+02 1.689937e+02 1.453871e+02 8.518455e+01 1.037265e+02 9.711291e+01 6.711279e+01 1.077349e+02 4.515200e+00 3.037935e+00 2.598596e+00 2.868190e+00 3.608934e+00 5.855599e+00
<VARIANCE> 33
 2.904532e+03 1.647338e+02 1.339455e+02 1.148584e+03 3.471283e+03 1.885060e+01 1.875616e+03 2.259823e+03 1.473966e+03 1.995776e+03 2.562657e+02 8.592186e+01 8.054247e+02 1.718653e+03 4.593499e+01 2.979930e+03 2.703181e+03 1.695762e+03 1.536888e+03 3.679350e+02 5.541602e+01 1.173751e+03 1.628426e+03 2.575405e+03 2.856527e+03 2.053704e+03 1.888731e+03 3.026375e+00 8.828459e-01 4.690114e-01 8.429514e-01 1.812627e+00 5.205791e+00
<GCONST> 2.432255e+02
<TRANSP> 5
 0.000000e+00 1.000000e+00 0.000000e+00 0.000000e+00 0.000000e+00
 0.000000e+00 8.568482e-01 1.431518e-01 0.000000e+00 0.000000e+00
 0.000000e+00 0.000000e+00 9.544218e-01 4.557822e-02 0.000000e+00
 0.000000e+00 0.000000e+00 0.000000e+00 9.514199e-01 4.858003e-02
 0.000000e+00 0.000000e+00 0.000000e+00 0.000000e+00 0.000000e+00
<ENDHMM>
~h "BS"
<BEGINHMM>
<NUMSTATES> 5
<STATE> 2
<NUMMIXES> 4
<MIXTURE> 1 2.646896e-01
<MEAN> 33
 1.732328e+02 1.369491e+02 1.079825e+02 1.380796e+02 1.749421e+02 1.763324e+02 1.354332e+02 1.346853e+02 8.988152e+01 1.566863e+02 1.751318e+02 1.077509e+00 1.749335e+02 1.600156e+02 1.624534e+02 1.607121e+02 1.654745e+02 9.938321e+00 1.001436e+02 1.582750e+02 1.700948e+02 1.624986e+02 1.049272e+02 1.592747e+02 7.473862e+01 8.201080e+01 1.489113e+02 5.277976e+00 2.636225e+00 2.693652e+00 2.549749e+00 2.255073e+00 4.847157e+00
<VARIANCE> 33
 3.902650e+01 2.197268e+01 5.669402e+01 3.105629e+01 3.037716e+01 1.149905e+01 2.822034e+01 2.062020e+01 2.665667e+01 1.127106e+02 2.003817e+01 1.481620e+00 1.756033e+01 7.701926e+01 4.263255e+01 1.365275e+02 1.044659e+02 8.331367e+01 9.122708e+02 2.168624e+02 2.550989e+01 1.760370e+02 6.245134e+02 3.178990e+02 1.035061e+03 9.679874e+02 4.005822e+02 4.002861e+00 7.842151e-01 3.096554e-01 2.779129e-01 5.505037e-01 3.580179e+00
<GCONST> 1.754323e+02
<MIXTURE> 2 1.995795e-01
<MEAN> 33
 1.102376e+02 1.365949e+02 1.157772e+02 1.391006e+02 1.216858e+02 1.753704e+02 9.942780e+01 1.045694e+02 1.119581e+02 1.152383e+02 1.646785e+02 4.020054e+00 1.620306e+02 1.193500e+02 1.601197e+02 9.443904e+01 9.704862e+01 1.293820e+01 9.331887e+01 1.361439e+02 1.699425e+02 1.508915e+02 9.125159e+01 1.467200e+02 4.061044e+01 5.640020e+01 5.340321e+01 5.486444e+00 2.910111e+00 3.109637e+00 3.038735e+00 3.019772e+00 5.275810e+00
<VARIANCE> 33
 1.314537e+03 8.425884e+01 1.024507e+02 1.090691e+02 9.968698e+02 1.948334e+01 1.581434e+03 1.175859e+03 2.254692e+03 2.454082e+02 1.231333e+02 1.853605e+02 2.753587e+02 2.565139e+02 3.933187e+01 4.909011e+02 4.956102e+02 2.332621e+02 1.853419e+03 8.339257e+02 3.175616e+01 4.226008e+02 1.362661e+03 9.819918e+02 1.262454e+03 1.683781e+03 1.276091e+03 2.386295e+00 9.640343e-01 4.036286e-01 3.232799e-01 1.028146e+00 1.788986e+00
<GCONST> 2.208366e+02
<MIXTURE> 3 1.995795e-01
<MEAN> 33
 1.102376e+02 1.365949e+02 1.157772e+02 1.391006e+02 1.216858e+02 1.753704e+02 9.942780e+01 1.045694e+02 1.119581e+02 1.152383e+02 1.646785e+02 4.020054e+00 1.620306e+02 1.193500e+02 1.601197e+02 9.443904e+01 9.704862e+01 1.293820e+01 9.331887e+01 1.361439e+02 1.699425e+02 1.508915e+02 9.125159e+01 1.467200e+02 4.061044e+01 5.640020e+01 5.340321e+01 5.486444e+00 2.910111e+00 3.109637e+00 3.038735e+00 3.019772e+00 5.275810e+00
<VARIANCE> 33
 1.314537e+03 8.425884e+01 1.024507e+02 1.090691e+02 9.968698e+02 1.948334e+01 1.581434e+03 1.175859e+03 2.254692e+03 2.454082e+02 1.231333e+02 1.853605e+02 2.753587e+02 2.565139e+02 3.933187e+01 4.909011e+02 4.956102e+02 2.332621e+02 1.853419e+03 8.339257e+02 3.175616e+01 4.226008e+02 1.362661e+03 9.819918e+02 1.262454e+03 1.683781e+03 1.276091e+03 2.386295e+00 9.640343e-01 4.036286e-01 3.232799e-01 1.028146e+00 1.788986e+00
<GCONST> 2.208366e+02
<MIXTURE> 4 3.361506e-01
<MEAN> 33
 7.358973e+01 1.332904e+02 1.106644e+02 1.386658e+02 7.014497e+01 1.739024e+02 3.577930e+01 3.524989e+01 5.084814e+01 1.052709e+02 1.514253e+02 2.286827e+00 1.539221e+02 1.062996e+02 1.626608e+02 6.819953e+01 6.917378e+01 7.259704e+00 1.137657e+02 1.094624e+02 1.689493e+02 1.262597e+02 9.912708e+01 1.285009e+02 6.196234e+01 5.685851e+01 2.206229e+01 4.022667e+00 3.024094e+00 3.731933e+00 3.531275e+00 3.495736e+00 4.030406e+00
<VARIANCE> 33
 4.949494e+02 9.714728e+01 7.081310e+01 9.669475e+01 5.657383e+02 3.632872e+01 5.154250e+02 5.879771e+02 1.371144e+03 4.318251e+02 3.167941e+02 1.207798e+01 3.227635e+02 4.161928e+02 3.990243e+01 1.552733e+02 1.635165e+02 4.674485e+01 7.624594e+02 5.749701e+02 1.242839e+02 5.514706e+02 5.839385e+02 2.039094e+03 2.335717e+03 2.347846e+03 3.084050e+02 5.716781e-01 9.897791e-01 4.218345e-01 2.804631e-01 1.067978e+00 5.541056e-01
<GCONST> 2.099733e+02
<STATE> 3
<NUMMIXES> 4
<MIXTURE> 1 2.074838e-01
<MEAN> 33
 1.511639e+02 1.499125e+02 1.176783e+02 1.492029e+02 1.533915e+02 1.764010e+02 9.437685e+01 9.507283e+01 1.655257e+02 1.105837e+02 1.734948e+02 3.212161e+00 1.706519e+02 1.053383e+02 1.625732e+02 1.042641e+02 1.000994e+02 3.894274e+01 1.058557e+02 1.583603e+02 1.606716e+02 1.518296e+02 1.019484e+02 1.570036e+02 6.398209e+01 9.056746e+01 1.499447e+02 6.993780e+00 3.766024e+00 2.065759e+00 1.878069e+00 4.018863e+00 6.974043e+00
<VARIANCE> 33
 3.013739e+02 8.723631e+01 8.955048e+01 1.148077e+02 2.794640e+02 6.346922e+00 7.567278e+01 1.088284e+02 1.254892e+02 4.154600e+02 2.449023e+01 7.973789e+00 6.371169e+01 5.270609e+02 4.143731e+01 1.012965e+03 1.647250e+03 1.538457e+03 5.439030e+02 1.161286e+02 5.076574e+01 1.526679e+02 5.694213e+02 1.693504e+02 5.795842e+02 4.663601e+02 2.844359e+02 2.481750e+00 1.771207e+00 1.655734e-01 1.390985e-01 2.338380e+00 2.575956e+00
<GCONST> 1.976586e+02
<MIXTURE> 2 2.651434e-01
<MEAN> 33
 1.349431e+02 1.394034e+02 1.142512e+02 1.409198e+02 1.474773e+02 1.754570e+02 9.041921e+01 9.377667e+01 1.653427e+02 1.033008e+02 1.717543e+02 2.841388e+00 1.716023e+02 1.074356e+02 1.601607e+02 9.014866e+01 9.417133e+01 9.599195e+00 1.023715e+02 1.493322e+02 1.707447e+02 1.562597e+02 1.025321e+02 1.406367e+02 4.910066e+01 7.951270e+01 1.128577e+02 8.078484e+00 2.007942e+00 2.389873e+00 2.299009e+00 2.200161e+00 7.878145e+00
<VARIANCE> 33
 5.160536e+02 5.892043e+01 1.201771e+02 8.389017e+01 4.262281e+02 1.602851e+01 9.641735e+01 8.800743e+01 1.132888e+02 1.872443e+02 4.621923e+01 1.234160e+01 4.642728e+01 2.014024e+02 4.499218e+01 1.806353e+02 2.103600e+02 5.844318e+01 1.174886e+03 5.285806e+02 3.271766e+01 2.895336e+02 7.708007e+02 1.080753e+03 1.527402e+03 1.389722e+03 3.626002e+02 8.078101e-01 3.445991e-01 8.209145e-02 8.579015e-02 3.703323e-01 6.956308e-01
<GCONST> 1.909368e+02
<MIXTURE> 3 2.651434e-01
<MEAN> 33
 1.349431e+02 1.394034e+02 1.142512e+02 1.409198e+02 1.474773e+02 1.754570e+02 9.041921e+01 9.377667e+01 1.653427e+02 1.033008e+02 1.717543e+02 2.841388e+00 1.716023e+02 1.074356e+02 1.601607e+02 9.014866e+01 9.417133e+01 9.599195e+00 1.023715e+02 1.493322e+02 1.707447e+02 1.562597e+02 1.025321e+02 1.406367e+02 4.910066e+01 7.951270e+01 1.128577e+02 8.078484e+00 2.007942e+00 2.389873e+00 2.299009e+00 2.200161e+00 7.878145e+00
<VARIANCE> 33
 5.160536e+02 5.892043e+01 1.201771e+02 8.389017e+01 4.262281e+02 1.602851e+01 9.641735e+01 8.800743e+01 1.132888e+02 1.872443e+02 4.621923e+01 1.234160e+01 4.642728e+01 2.014024e+02 4.499218e+01 1.806353e+02 2.103600e+02 5.844318e+01 1.174886e+03 5.285806e+02 3.271766e+01 2.895336e+02 7.708007e+02 1.080753e+03 1.527402e+03 1.389722e+03 3.626002e+02 8.078101e-01 3.445991e-01 8.209145e-02 8.579015e-02 3.703323e-01 6.956308e-01
<GCONST> 1.909368e+02
<MIXTURE> 4 2.622294e-01
<MEAN> 33
 1.113930e+02 1.570714e+02 1.072951e+02 1.631696e+02 1.182940e+02 1.677247e+02 7.228176e+01 7.202945e+01 1.440611e+02 7.250694e+01 1.682523e+02 2.701500e+00 1.646346e+02 6.195422e+01 1.630323e+02 3.908875e+01 3.090529e+01 2.054941e+01 1.341753e+02 1.614883e+02 1.667017e+02 1.599274e+02 1.258802e+02 1.289107e+02 8.175475e+01 8.291679e+01 1.526069e+02 6.252445e+00 3.031844e+00 1.871348e+00 1.631345e+00 3.558733e+00 6.812593e+00
<VARIANCE> 33
 5.930166e+02 1.283148e+02 3.182809e+01 1.048862e+02 5.100279e+02 9.447076e+01 7.239935e+01 9.265948e+01 2.645305e+02 1.208609e+03 9.679630e+01 4.489921e+00 1.863813e+02 7.531844e+02 4.117198e+01 5.130255e+02 4.709852e+02 3.841347e+02 6.067103e+02 1.245722e+02 5.105374e+01 2.635594e+02 4.097500e+02 1.444307e+03 1.582384e+03 1.483259e+03 5.331360e+02 2.111762e+00 2.956142e+00 2.752771e-01 1.624858e-01 3.649156e+00 1.781484e+00
<GCONST> 2.078371e+02
<STATE> 4
<NUMMIXES> 4
<MIXTURE> 1 4.177951e-01
<MEAN> 33
 1.742364e+02 1.366339e+02 1.090931e+02 1.383395e+02 1.738819e+02 1.767773e+02 1.358613e+02 1.354306e+02 8.870815e+01 1.624649e+02 1.748681e+02 9.364017e-01 1.749092e+02 1.655993e+02 1.615795e+02 1.655999e+02 1.685566e+02 8.617081e+00 1.092147e+02 1.603775e+02 1.683176e+02 1.657860e+02 1.158076e+02 1.589149e+02 8.406652e+01 7.850529e+01 1.561450e+02 5.451785e+00 2.377525e+00 2.973722e+00 2.693180e+00 2.182895e+00 5.083111e+00
<VARIANCE> 33
 3.902650e+01 2.151968e+01 3.888988e+01 1.842797e+01 3.037716e+01 5.743088e+00 2.822034e+01 2.062020e+01 4.107540e+01 5.423874e+01 1.574247e+01 5.357184e-01 1.030341e+01 5.289483e+01 3.111015e+01 6.850779e+01 6.181340e+01 3.339854e+01 8.059194e+02 1.124202e+02 1.868427e+01 9.347591e+01 7.096827e+02 1.689203e+02 6.396883e+02 6.692220e+02 2.131725e+02 2.242834e+00 2.921840e-01 2.806224e-01 1.708829e-01 1.738847e-01 2.210625e+00
<GCONST> 1.614115e+02
<MIXTURE> 2 1.868490e-01
<MEAN> 33
 1.668907e+02 1.408670e+02 1.117509e+02 1.428293e+02 1.661243e+02 1.759643e+02 1.281572e+02 1.272766e+02 1.045662e+02 1.414469e+02 1.710626e+02 1.345393e+00 1.687871e+02 1.442775e+02 1.623200e+02 1.379700e+02 1.385667e+02 1.054893e+01 9.231944e+01 1.600976e+02 1.661124e+02 1.635571e+02 9.671017e+01 1.554728e+02 5.683820e+01 5.842834e+01 1.134879e+02 6.673173e+00 2.516934e+00 2.602222e+00 2.552680e+00 2.468674e+00 6.844654e+00
<VARIANCE> 33
 6.604156e+01 5.741458e+01 5.485638e+01 8.259184e+01 7.595491e+01 8.998813e+00 1.689523e+02 1.297559e+02 5.186766e+02 2.076140e+02 4.193074e+01 1.028452e+00 5.678468e+01 1.848183e+02 4.306602e+01 2.120106e+02 2.138713e+02 6.815925e+01 6.271081e+02 1.649956e+02 5.581578e+01 1.250157e+02 4.904428e+02 2.899463e+02 7.029377e+02 5.838421e+02 4.699311e+02 1.544809e+00 3.590848e-01 1.237038e-01 1.616558e-01 2.236048e-01 1.343993e+00
<GCONST> 1.827843e+02
<MIXTURE> 3 2.129837e-01
<MEAN> 33
 1.710938e+02 1.393690e+02 1.125814e+02 1.421149e+02 1.688493e+02 1.745124e+02 1.336713e+02 1.315562e+02 9.477245e+01 1.574570e+02 1.721214e+02 2.919492e+00 1.694655e+02 1.607018e+02 1.619606e+02 1.627786e+02 1.587532e+02 1.545872e+01 1.082033e+02 1.450134e+02 1.669240e+02 1.499915e+02 1.225121e+02 1.422573e+02 8.462546e+01 1.043424e+02 1.467930e+02 4.681219e+00 3.692714e+00 2.605503e+00 2.489549e+00 3.157748e+00 4.891409e+00
<VARIANCE> 33
 7.587448e+01 6.766708e+01 9.495442e+01 1.048703e+02 7.849496e+01 2.136261e+01 6.777318e+01 8.213814e+01 2.393718e+02 1.960622e+02 4.233118e+01 8.830418e+00 6.085261e+01 1.998324e+02 4.334935e+01 1.686196e+02 2.076596e+02 1.826197e+02 1.853880e+03 3.058908e+02 4.938942e+01 2.886154e+02 1.487131e+03 1.646879e+03 1.737271e+03 1.527304e+03 4.972144e+02 3.159088e+00 3.142020e+00 3.512974e-01 2.707273e-01 1.320711e+00 3.102312e+00
<GCONST> 1.998527e+02
<MIXTURE> 4 1.823715e-01
<MEAN> 33
 1.316062e+02 1.409167e+02 1.131518e+02 1.472086e+02 1.169630e+02 1.712591e+02 1.051863e+02 8.833746e+01 1.171811e+02 1.218330e+02 1.662396e+02 3.824232e+00 1.587472e+02 1.064883e+02 1.614184e+02 1.050421e+02 8.354267e+01 3.847938e+01 1.083177e+02 1.346365e+02 1.695130e+02 1.442714e+02 1.026453e+02 1.254615e+02 6.359455e+01 8.111891e+01 9.384415e+01 5.750980e+00 2.906552e+00 2.722007e+00 2.642790e+00 3.496779e+00 5.813457e+00
<VARIANCE> 33
 1.616026e+03 1.902289e+02 1.544394e+02 2.976910e+02 2.790093e+03 5.008636e+01 1.636663e+03 2.137317e+03 2.828066e+03 1.359299e+03 9.683928e+01 1.626687e+01 2.255995e+02 1.507676e+03 7.472462e+01 1.711874e+03 1.721116e+03 2.205743e+03 1.695631e+03 9.658244e+02 6.186782e+01 5.073761e+02 1.410999e+03 1.915285e+03 2.265361e+03 2.283203e+03 2.761620e+03 2.118882e+00 1.060255e+00 7.827735e-01 7.754398e-01 1.508899e+00 2.327210e+00
<GCONST> 2.375284e+02
<TRANSP> 5
 0.000000e+00 1.000000e+00 0.000000e+00 0.000000e+00 0.000000e+00
 0.000000e+00 9.274310e-01 7.256899e-02 0.000000e+00 0.000000e+00
 0.000000e+00 0.000000e+00 9.340686e-01 6.593142e-02 0.000000e+00
 0.000000e+00 0.000000e+00 0.000000e+00 9.331000e-01 6.689993e-02
 0.000000e+00 0.000000e+00 0.000000e+00 0.000000e+00 0.000000e+00
<ENDHMM>
~h "CF"
<BEGINHMM>
<NUMSTATES> 5
<STATE> 2
<NUMMIXES> 4
<MIXTURE> 1 4.099349e-01
<MEAN> 33
 1.725234e+02 1.358861e+02 1.096212e+02 1.367128e+02 1.746925e+02 1.764611e+02 1.351680e+02 1.347787e+02 9.005326e+01 1.556302e+02 1.754869e+02 1.409548e+00 1.744127e+02 1.611507e+02 1.609997e+02 1.611603e+02 1.652571e+02 1.358421e+01 9.185606e+01 1.536475e+02 1.695244e+02 1.644819e+02 1.076415e+02 1.584550e+02 7.020002e+01 8.476913e+01 1.502821e+02 5.421322e+00 2.565822e+00 2.793212e+00 2.686204e+00 2.201088e+00 5.147164e+00
<VARIANCE> 33
 3.902650e+01 2.336345e+01 4.782678e+01 2.822863e+01 3.037716e+01 1.016181e+01 2.822034e+01 2.062020e+01 3.271790e+01 9.363611e+01 2.264140e+01 3.474195e+00 1.339479e+01 6.502169e+01 3.744305e+01 1.650257e+02 1.008538e+02 1.687114e+02 8.674479e+02 3.507811e+02 2.868368e+01 1.403047e+02 5.740745e+02 2.264740e+02 9.563329e+02 1.126953e+03 3.619455e+02 4.686209e+00 7.236366e-01 3.495523e-01 2.432912e-01 4.769247e-01 3.410414e+00
<GCONST> 1.761309e+02
<MIXTURE> 2 1.324504e-01
<MEAN> 33
 6.466216e+01 1.495931e+02 1.109157e+02 1.357184e+02 1.746476e+02 1.762002e+02 4.596712e+01 1.350734e+02 1.367553e+02 1.022042e+02 1.494739e+02 1.207997e+00 1.755263e+02 1.635973e+02 1.596737e+02 6.769265e+01 1.651730e+02 1.054510e+02 7.784591e+01 1.414974e+02 1.688758e+02 1.613204e+02 1.123516e+02 1.605790e+02 2.583142e+01 8.045849e+01 9.783350e+01 7.623785e+00 3.678465e+00 3.390817e+00 2.699525e+00 2.146358e+00 3.431677e+00
<VARIANCE> 33
 2.084607e+03 1.960295e+02 4.752716e+01 1.681094e+01 3.037716e+01 8.721378e+00 2.272631e+03 2.062020e+01 5.993909e+02 4.194078e+02 6.355503e+02 1.498867e+00 8.099622e+00 7.518560e+01 3.036139e+01 7.577792e+02 1.070385e+02 1.126801e+03 6.893395e+02 5.305789e+02 2.025161e+01 1.459016e+02 9.052946e+02 1.902876e+02 2.770137e+02 1.033131e+03 4.810653e+02 2.050041e+00 1.002678e+00 2.725102e-01 1.636736e-01 1.581723e-01 7.515253e-01
<GCONST> 1.911169e+02
<MIXTURE> 3 1.324504e-01
<MEAN> 33
 6.466216e+01 1.495931e+02 1.109157e+02 1.357184e+02 1.746476e+02 1.762002e+02 4.596712e+01 1.350734e+02 1.367553e+02 1.022042e+02 1.494739e+02 1.207997e+00 1.755263e+02 1.635973e+02 1.596737e+02 6.769265e+01 1.651730e+02 1.054510e+02 7.784591e+01 1.414974e+02 1.688758e+02 1.613204e+02 1.123516e+02 1.605790e+02 2.583142e+01 8.045849e+01 9.783350e+01 7.623785e+00 3.678465e+00 3.390817e+00 2.699525e+00 2.146358e+00 3.431677e+00
<VARIANCE> 33
 2.084607e+03 1.960295e+02 4.752716e+01 1.681094e+01 3.037716e+01 8.721378e+00 2.272631e+03 2.062020e+01 5.993909e+02 4.194078e+02 6.355503e+02 1.498867e+00 8.099622e+00 7.518560e+01 3.036139e+01 7.577792e+02 1.070385e+02 1.126801e+03 6.893395e+02 5.305789e+02 2.025161e+01 1.459016e+02 9.052946e+02 1.902876e+02 2.770137e+02 1.033131e+03 4.810653e+02 2.050041e+00 1.002678e+00 2.725102e-01 1.636736e-01 1.581723e-01 7.515253e-01
<GCONST> 1.911169e+02
<MIXTURE> 4 3.251641e-01
<MEAN> 33
 9.388432e+01 1.389246e+02 1.182905e+02 1.418595e+02 9.326736e+01 1.739711e+02 7.707006e+01 7.185449e+01 1.050277e+02 1.036854e+02 1.578546e+02 7.362474e+00 1.421900e+02 1.138859e+02 1.595817e+02 8.934261e+01 8.457080e+01 7.374789e+01 7.864445e+01 1.262820e+02 1.684431e+02 1.345323e+02 8.205286e+01 1.077109e+02 7.509970e+01 8.212356e+01 9.029227e+01 4.101616e+00 3.330876e+00 3.110914e+00 3.026273e+00 3.912738e+00 5.173521e+00
<VARIANCE> 33
 3.899854e+03 5.530720e+02 2.023106e+02 2.850073e+02 3.543094e+03 1.762635e+01 2.857420e+03 2.700512e+03 2.513804e+03 1.927871e+03 4.629258e+02 2.202475e+02 9.049738e+02 1.230433e+03 2.932889e+01 2.788890e+03 2.342796e+03 2.771209e+03 1.898057e+03 1.459718e+03 1.057558e+02 4.720180e+02 1.524585e+03 2.081067e+03 2.452425e+03 2.086265e+03 2.233310e+03 2.448664e+00 1.944607e+00 1.175793e+00 5.680228e-01 1.726025e+00 3.397432e+00
<GCONST> 2.476525e+02
<STATE> 3
<NUMMIXES> 4
<MIXTURE> 1 3.996455e-01
<MEAN> 33
 2.682185e+01 1.519266e+02 1.107569e+02 1.354475e+02 1.739598e+02 1.755449e+02 7.771313e+00 1.365156e+02 1.436274e+02 9.015929e+01 1.074770e+02 1.908047e+00 1.761142e+02 1.623903e+02 1.595680e+02 2.998401e+01 1.657345e+02 1.364604e+02 7.845634e+01 1.195044e+02 1.734279e+02 1.633597e+02 9.950160e+01 1.259901e+02 5.660842e+01 8.532471e+01 8.948739e+01 5.180084e+00 5.455106e+00 3.247892e+00 3.008559e+00 2.290297e+00 4.109796e+00
<VARIANCE> 33
 2.382190e+02 3.924419e+02 7.302856e+01 1.050126e+01 3.037716e+01 1.374769e+01 2.822034e+01 2.062020e+01 3.514019e+01 4.109312e+02 3.789610e+02 1.832710e+00 7.601811e+00 1.586072e+01 4.648724e+01 3.251722e+01 5.953072e+01 1.104601e+02 3.305413e+02 1.542048e+02 1.791872e+01 1.261211e+02 2.601613e+02 9.754469e+02 9.464280e+02 3.310184e+03 1.931305e+02 8.334336e-01 1.204055e+00 3.653742e-01 1.627655e-01 1.183967e-01 7.383069e-01
<GCONST> 1.741353e+02
<MIXTURE> 2 2.191272e-01
<MEAN> 33
 2.855282e+01 1.496634e+02 1.164551e+02 1.350609e+02 1.695863e+02 1.752327e+02 1.494515e+01 1.362177e+02 1.506374e+02 8.710627e+01 1.134017e+02 7.981133e+00 1.698012e+02 1.629941e+02 1.587203e+02 3.277043e+01 1.660398e+02 1.453763e+02 7.832157e+01 1.286322e+02 1.677529e+02 1.521123e+02 1.111552e+02 1.058642e+02 7.434895e+01 1.149814e+02 1.108246e+02 5.903939e+00 4.564703e+00 3.285146e+00 2.625220e+00 2.551227e+00 3.607278e+00
<VARIANCE> 33
 4.437549e+02 6.080175e+02 2.447213e+02 7.778697e+01 3.037716e+01 1.439859e+01 1.045867e+02 2.071769e+01 1.418946e+02 1.001678e+03 7.753845e+02 1.746411e+02 6.179353e+01 8.814651e+01 4.403559e+01 1.168979e+02 1.080781e+02 3.582064e+02 6.538858e+02 4.707180e+02 2.143161e+02 1.588527e+02 1.239417e+03 1.502867e+03 1.718148e+03 3.526160e+03 5.231422e+02 2.198683e+00 2.142197e+00 1.167483e+00 4.127257e-01 4.058122e-01 1.964775e+00
<GCONST> 2.081450e+02
<MIXTURE> 3 3.244419e-02
<MEAN> 33
 2.196511e+01 1.657274e+02 1.278073e+02 1.303384e+02 1.414049e+02 1.778033e+02 2.098134e+01 1.112496e+02 1.322309e+02 7.794823e+01 1.278530e+02 6.537533e+00 1.672164e+02 1.129856e+02 1.564030e+02 3.074143e+01 1.083517e+02 7.765085e+01 6.552098e+01 1.422560e+02 1.733050e+02 1.501222e+02 4.750891e+01 1.070252e+02 5.540820e+01 1.142457e+02 7.742464e+01 3.714728e+00 5.149531e+00 2.632593e+00 3.233128e+00 4.139992e+00 7.024832e+00
<VARIANCE> 33
 1.951760e+02 1.407576e+02 5.319163e+01 2.205993e+01 3.138456e+02 4.192379e+00 1.065513e+02 4.063918e+02 5.167930e+02 4.359480e+02 6.002977e+02 2.194789e+01 9.466775e+01 1.414876e+02 1.307425e+01 7.555595e+01 3.312880e+02 4.880640e+02 1.665815e+02 2.636468e+02 2.070373e+01 4.741241e+01 1.088785e+02 4.376454e+02 1.140844e+03 6.954931e+02 2.599011e+02 5.275372e-01 7.021931e-01 1.523584e-01 3.113162e-02 2.069312e-01 9.888467e-01
<GCONST> 1.855641e+02
<MIXTURE> 4 3.487833e-01
<MEAN> 33
 1.707053e+02 1.383727e+02 1.148038e+02 1.529933e+02 3.071424e+01 1.753779e+02 1.335448e+02 1.963395e+01 1.490671e+02 1.555555e+02 1.704216e+02 4.584434e+00 1.242014e+02 8.358182e+01 1.609459e+02 1.671168e+02 3.549688e+01 1.346532e+02 8.437278e+01 1.501272e+02 1.701003e+02 1.308857e+02 7.642210e+01 1.107727e+02 8.630522e+01 7.250159e+01 1.045139e+02 3.849654e+00 2.781297e+00 2.601467e+00 3.119807e+00 4.802603e+00 5.908370e+00
<VARIANCE> 33
 3.902650e+01 5.334343e+01 1.227045e+02 3.424081e+02 7.307618e+02 1.646817e+01 3.424335e+01 3.391689e+02 1.269662e+02 7.297730e+01 7.119449e+01 6.332183e+01 6.893019e+02 4.586033e+02 6.089693e+01 9.818401e+01 2.863156e+02 3.589883e+02 5.774623e+02 2.205331e+02 6.353194e+01 4.060986e+02 4.589784e+02 2.215793e+03 2.932583e+03 2.149021e+03 3.454364e+02 1.450238e+00 3.780330e-01 2.970119e-01 6.797253e-01 1.754089e+00 2.019747e+00
<GCONST> 2.044504e+02
<STATE> 4
<NUMMIXES> 4
<MIXTURE> 1 4.021082e-01
<MEAN> 33
 1.733873e+02 1.380578e+02 1.090343e+02 1.370505e+02 1.750541e+02 1.762623e+02 1.350617e+02 1.349827e+02 8.995568e+01 1.610391e+02 1.738346e+02 1.086885e+00 1.761864e+02 1.628517e+02 1.624753e+02 1.655402e+02 1.682858e+02 1.394169e+01 1.070010e+02 1.552051e+02 1.693179e+02 1.628138e+02 1.051553e+02 1.557333e+02 8.608010e+01 7.812183e+01 1.598690e+02 5.281520e+00 2.695049e+00 2.817407e+00 2.779701e+00 2.281264e+00 5.263973e+00
<VARIANCE> 33
 3.902650e+01 2.694203e+01 4.384618e+01 1.818771e+01 3.037716e+01 8.766583e+00 2.822034e+01 2.062020e+01 2.315551e+01 7.166998e+01 2.398874e+01 6.936685e-01 7.285632e+00 2.819449e+01 3.584417e+01 8.223894e+01 5.658180e+01 1.119052e+02 8.983076e+02 2.080523e+02 2.251653e+01 1.042378e+02 4.631026e+02 2.647848e+02 9.355515e+02 8.799376e+02 2.049856e+02 3.094973e+00 7.656841e-01 3.225687e-01 3.923503e-01 2.539419e-01 2.225361e+00
<GCONST> 1.673186e+02
<MIXTURE> 2 1.806348e-01
<MEAN> 33
 1.701517e+02 1.410835e+02 1.131110e+02 1.367016e+02 1.707626e+02 1.747340e+02 1.333244e+02 1.358610e+02 9.081456e+01 1.553803e+02 1.668813e+02 2.928320e+00 1.705220e+02 1.617410e+02 1.623747e+02 1.603174e+02 1.635466e+02 2.211822e+01 1.002690e+02 1.413045e+02 1.694960e+02 1.485233e+02 1.145613e+02 1.313642e+02 7.066131e+01 1.094997e+02 1.506105e+02 5.049314e+00 3.945492e+00 2.661895e+00 2.630959e+00 3.224277e+00 4.511942e+00
<VARIANCE> 33
 7.744827e+01 7.144322e+01 1.130210e+02 6.239103e+01 4.494424e+01 1.371152e+01 3.906781e+01 2.062020e+01 6.268427e+01 1.773396e+02 8.544122e+01 1.119298e+01 6.822494e+01 1.224069e+02 2.561967e+01 2.633889e+02 1.420857e+02 2.502079e+02 1.695781e+03 3.580517e+02 3.889148e+01 2.953324e+02 1.473163e+03 1.780234e+03 1.782036e+03 2.015520e+03 4.579697e+02 4.378983e+00 3.252196e+00 3.850384e-01 2.802840e-01 1.952300e+00 3.191901e+00
<GCONST> 1.966753e+02
<MIXTURE> 3 1.806348e-01
<MEAN> 33
 1.701517e+02 1.410835e+02 1.131110e+02 1.367016e+02 1.707626e+02 1.747340e+02 1.333244e+02 1.358610e+02 9.081456e+01 1.553803e+02 1.668813e+02 2.928320e+00 1.705220e+02 1.617410e+02 1.623747e+02 1.603174e+02 1.635466e+02 2.211822e+01 1.002690e+02 1.413045e+02 1.694960e+02 1.485233e+02 1.145613e+02 1.313642e+02 7.066131e+01 1.094997e+02 1.506105e+02 5.049314e+00 3.945492e+00 2.661895e+00 2.630959e+00 3.224277e+00 4.511942e+00
<VARIANCE> 33
 7.744827e+01 7.144322e+01 1.130210e+02 6.239103e+01 4.494424e+01 1.371152e+01 3.906781e+01 2.062020e+01 6.268427e+01 1.773396e+02 8.544122e+01 1.119298e+01 6.822494e+01 1.224069e+02 2.561967e+01 2.633889e+02 1.420857e+02 2.502079e+02 1.695781e+03 3.580517e+02 3.889148e+01 2.953324e+02 1.473163e+03 1.780234e+03 1.782036e+03 2.015520e+03 4.579697e+02 4.378983e+00 3.252196e+00 3.850384e-01 2.802840e-01 1.952300e+00 3.191901e+00
<GCONST> 1.966753e+02
<MIXTURE> 4 2.366215e-01
<MEAN> 33
 1.221742e+02 1.487574e+02 1.159796e+02 1.364902e+02 1.605506e+02 1.750381e+02 1.031433e+02 1.309221e+02 1.202593e+02 1.391336e+02 1.553199e+02 2.971968e+00 1.720241e+02 1.518588e+02 1.605975e+02 1.105110e+02 1.493494e+02 6.867255e+01 9.434879e+01 1.407738e+02 1.715582e+02 1.550970e+02 9.445842e+01 1.359824e+02 4.757083e+01 8.809513e+01 1.081180e+02 7.093435e+00 3.314069e+00 2.928284e+00 2.687294e+00 2.672456e+00 4.697729e+00
<VARIANCE> 33
 1.988557e+03 2.451599e+02 1.087043e+02 7.791346e+01 5.617070e+02 1.346922e+01 1.532234e+03 3.271380e+02 1.271076e+03 6.057159e+02 3.530471e+02 1.386749e+01 7.824411e+01 3.658402e+02 3.812531e+01 1.309781e+03 8.287935e+02 9.201949e+02 1.331573e+03 5.254236e+02 2.619709e+01 2.642192e+02 8.349323e+02 1.042391e+03 1.255114e+03 2.418984e+03 9.682919e+02 4.979649e+00 1.224708e+00 3.287562e-01 2.196697e-01 1.083234e+00 4.614080e+00
<GCONST> 2.200908e+02
<TRANSP> 5
 0.000000e+00 1.000000e+00 0.000000e+00 0.000000e+00 0.000000e+00
 0.000000e+00 8.734125e-01 1.265875e-01 0.000000e+00 0.000000e+00
 0.000000e+00 0.000000e+00 9.599372e-01 4.006280e-02 0.000000e+00
 0.000000e+00 0.000000e+00 0.000000e+00 9.396189e-01 6.038115e-02
 0.000000e+00 0.000000e+00 0.000000e+00 0.000000e+00 0.000000e+00
<ENDHMM>
~h "CN"
<BEGINHMM>
<NUMSTATES> 5
<STATE> 2
<NUMMIXES> 4
<MIXTURE> 1 3.811929e-01
<MEAN> 33
 1.731156e+02 1.376597e+02 1.068781e+02 1.393046e+02 1.744383e+02 1.760802e+02 1.350464e+02 1.342877e+02 9.066590e+01 1.557727e+02 1.759754e+02 1.472592e+00 1.748993e+02 1.596216e+02 1.627527e+02 1.630636e+02 1.665184e+02 9.804257e+00 9.364336e+01 1.534146e+02 1.702477e+02 1.617779e+02 1.033623e+02 1.550583e+02 7.300700e+01 8.558067e+01 1.530128e+02 4.778546e+00 2.746332e+00 2.589934e+00 2.450262e+00 2.362798e+00 4.710258e+00
<VARIANCE> 33
 3.902650e+01 2.376975e+01 6.711365e+01 3.311172e+01 3.037716e+01 1.186046e+01 2.822034e+01 2.062020e+01 2.870518e+01 7.447994e+01 2.154694e+01 3.118160e+00 1.602903e+01 7.639489e+01 4.503141e+01 1.040680e+02 9.936835e+01 8.154238e+01 7.511131e+02 2.194167e+02 2.476638e+01 1.454222e+02 6.136805e+02 3.820966e+02 1.486509e+03 1.486771e+03 3.233963e+02 4.418804e+00 1.130966e+00 3.275576e-01 3.481113e-01 6.797314e-01 3.446821e+00
<GCONST> 1.771231e+02
<MIXTURE> 2 1.756696e-01
<MEAN> 33
 1.012533e+02 1.398180e+02 1.076518e+02 1.437838e+02 9.384087e+01 1.734655e+02 8.971886e+01 7.298657e+01 1.018011e+02 1.051202e+02 1.684527e+02 1.532319e+00 1.700100e+02 1.022632e+02 1.640522e+02 9.335348e+01 9.186211e+01 1.750589e+01 6.989220e+01 1.454235e+02 1.706210e+02 1.600368e+02 5.969555e+01 1.498398e+02 5.135357e+01 4.145093e+01 4.520962e+01 4.399889e+00 3.136065e+00 3.091520e+00 2.991933e+00 3.760158e+00 4.396884e+00
<VARIANCE> 33
 1.230113e+03 4.707769e+01 7.752487e+01 8.047929e+01 1.818061e+03 2.647012e+01 2.322768e+03 2.326267e+03 2.499492e+03 4.163364e+02 9.842242e+01 2.702540e+00 6.284222e+01 5.371346e+02 3.605413e+01 6.093569e+02 8.002155e+02 5.944271e+02 8.388035e+02 5.530346e+02 2.956784e+01 2.274537e+02 4.524639e+02 8.693635e+02 1.666546e+03 1.154470e+03 1.366328e+03 2.117866e+00 6.675718e-01 2.628513e-01 2.971476e-01 1.702412e+00 2.112776e+00
<GCONST> 2.150848e+02
<MIXTURE> 3 1.756696e-01
<MEAN> 33
 1.012533e+02 1.398180e+02 1.076518e+02 1.437838e+02 9.384087e+01 1.734655e+02 8.971886e+01 7.298657e+01 1.018011e+02 1.051202e+02 1.684527e+02 1.532319e+00 1.700100e+02 1.022632e+02 1.640522e+02 9.335348e+01 9.186211e+01 1.750589e+01 6.989220e+01 1.454235e+02 1.706210e+02 1.600368e+02 5.969555e+01 1.498398e+02 5.135357e+01 4.145093e+01 4.520962e+01 4.399889e+00 3.136065e+00 3.091520e+00 2.991933e+00 3.760158e+00 4.396884e+00
<VARIANCE> 33
 1.230113e+03 4.707769e+01 7.752487e+01 8.047929e+01 1.818061e+03 2.647012e+01 2.322768e+03 2.326267e+03 2.499492e+03 4.163364e+02 9.842242e+01 2.702540e+00 6.284222e+01 5.371346e+02 3.605413e+01 6.093569e+02 8.002155e+02 5.944271e+02 8.388035e+02 5.530346e+02 2.956784e+01 2.274537e+02 4.524639e+02 8.693635e+02 1.666546e+03 1.154470e+03 1.366328e+03 2.117866e+00 6.675718e-01 2.628513e-01 2.971476e-01 1.702412e+00 2.112776e+00
<GCONST> 2.150848e+02
<MIXTURE> 4 2.674679e-01
<MEAN> 33
 5.900230e+01 1.229803e+02 1.200918e+02 1.272537e+02 6.821136e+01 1.665685e+02 1.986406e+01 3.083170e+01 4.606233e+01 8.273921e+01 1.368982e+02 1.104226e+01 1.426208e+02 1.067448e+02 1.685719e+02 4.444205e+01 5.186868e+01 1.256121e+01 1.072098e+02 9.730618e+01 1.640945e+02 1.124164e+02 9.149342e+01 9.622130e+01 1.072805e+02 1.068774e+02 4.315205e+01 3.936346e+00 3.268477e+00 3.451815e+00 3.373911e+00 3.475128e+00 3.602041e+00
<VARIANCE> 33
 7.466857e+02 3.853297e+02 2.062599e+02 5.252397e+02 9.153251e+02 6.401695e+01 2.232844e+02 6.757823e+02 8.158170e+02 8.956832e+02 3.343853e+02 5.012869e+02 4.213789e+02 1.465469e+03 7.672174e+01 1.622792e+02 3.456436e+02 2.492499e+02 6.423224e+02 4.717667e+02 2.118989e+02 3.774894e+02 3.257092e+02 3.123336e+03 2.110714e+03 2.462628e+03 7.436090e+02 8.157929e-01 2.063829e+00 7.437380e-01 4.563026e-01 1.137530e+00 9.499491e-01
<GCONST> 2.267105e+02
<STATE> 3
<NUMMIXES> 4
<MIXTURE> 1 2.767033e-01
<MEAN> 33
 6.412646e+01 1.322546e+02 1.114046e+02 1.392739e+02 5.024549e+01 1.739629e+02 2.722155e+01 1.840866e+01 3.117267e+01 8.651127e+01 1.549169e+02 2.358422e+00 1.565757e+02 8.502151e+01 1.625923e+02 5.911055e+01 5.652739e+01 8.339972e+00 1.086655e+02 1.065244e+02 1.720812e+02 1.287203e+02 9.309550e+01 1.104804e+02 7.323924e+01 7.725021e+01 2.121163e+01 3.787152e+00 2.944503e+00 3.617917e+00 3.359137e+00 3.230960e+00 3.799635e+00
<VARIANCE> 33
 2.393555e+02 1.025740e+02 1.447584e+02 1.075922e+02 3.624421e+02 2.496597e+01 3.464568e+02 2.923214e+02 5.578648e+02 4.997259e+02 7.842700e+01 7.283411e+00 9.845349e+01 3.653260e+02 6.324844e+01 2.248420e+02 1.404132e+02 7.297563e+01 4.724992e+02 4.289677e+02 3.614986e+01 4.249401e+02 5.232791e+02 2.783450e+03 2.179502e+03 2.284891e+03 4.017339e+02 5.308456e-01 1.271074e+00 5.187588e-01 5.665405e-01 1.615716e+00 5.430836e-01
<GCONST> 2.049400e+02
<MIXTURE> 2 2.654306e-01
<MEAN> 33
 4.827646e+01 1.348774e+02 1.152634e+02 1.368092e+02 4.528901e+01 1.754739e+02 6.642118e+00 5.063486e+00 6.859852e+00 7.461097e+01 1.573284e+02 1.541422e+00 1.581781e+02 7.617840e+01 1.591382e+02 5.074582e+01 5.033241e+01 2.481373e+00 9.728996e+01 1.210627e+02 1.736802e+02 1.322211e+02 8.751359e+01 1.348486e+02 4.534356e+01 4.543395e+01 5.569601e+00 3.494336e+00 3.520838e+00 3.972307e+00 3.831128e+00 3.712669e+00 3.457292e+00
<VARIANCE> 33
 6.344730e+01 4.456725e+01 5.885715e+01 5.001316e+01 5.645869e+01 1.684048e+01 2.822034e+01 2.062020e+01 2.982107e+01 7.439047e+01 6.474617e+01 3.374420e+00 8.047540e+01 7.500868e+01 5.034500e+01 3.223997e+01 2.801217e+01 3.148238e+01 3.994294e+02 4.259424e+02 2.090941e+01 4.096145e+02 3.527941e+02 1.036766e+03 1.018114e+03 1.040932e+03 2.159245e+01 9.926837e-02 5.329573e-01 2.694028e-01 1.593563e-01 7.394900e-01 1.231987e-01
<GCONST> 1.681514e+02
<MIXTURE> 3 2.654306e-01
<MEAN> 33
 4.827646e+01 1.348774e+02 1.152634e+02 1.368092e+02 4.528901e+01 1.754739e+02 6.642118e+00 5.063486e+00 6.859852e+00 7.461097e+01 1.573284e+02 1.541422e+00 1.581781e+02 7.617840e+01 1.591382e+02 5.074582e+01 5.033241e+01 2.481373e+00 9.728996e+01 1.210627e+02 1.736802e+02 1.322211e+02 8.751359e+01 1.348486e+02 4.534356e+01 4.543395e+01 5.569601e+00 3.494336e+00 3.520838e+00 3.972307e+00 3.831128e+00 3.712669e+00 3.457292e+00
<VARIANCE> 33
 6.344730e+01 4.456725e+01 5.885715e+01 5.001316e+01 5.645869e+01 1.684048e+01 2.822034e+01 2.062020e+01 2.982107e+01 7.439047e+01 6.474617e+01 3.374420e+00 8.047540e+01 7.500868e+01 5.034500e+01 3.223997e+01 2.801217e+01 3.148238e+01 3.994294e+02 4.259424e+02 2.090941e+01 4.096145e+02 3.527941e+02 1.036766e+03 1.018114e+03 1.040932e+03 2.159245e+01 9.926837e-02 5.329573e-01 2.694028e-01 1.593563e-01 7.394900e-01 1.231987e-01
<GCONST> 1.681514e+02
<MIXTURE> 4 1.924347e-01
<MEAN> 33
 3.920380e+01 1.383448e+02 1.006360e+02 1.401917e+02 2.674189e+01 1.739761e+02 1.019170e+01 7.616076e+00 7.493981e+00 5.941205e+01 1.660659e+02 1.096788e+00 1.691153e+02 5.870499e+01 1.674681e+02 4.217541e+01 4.121201e+01 3.934997e+00 1.092790e+02 1.154072e+02 1.663338e+02 1.305478e+02 1.016094e+02 5.099252e+01 1.223641e+02 1.202187e+02 8.795859e+00 3.402710e+00 3.229781e+00 3.547692e+00 3.481366e+00 3.214804e+00 3.263169e+00
<VARIANCE> 33
 1.214930e+02 1.019882e+02 5.020611e+01 6.209697e+01 9.504707e+01 1.514585e+01 4.380230e+01 2.607300e+01 2.544897e+01 4.917041e+01 7.872748e+01 1.192936e+00 4.270688e+01 4.805145e+01 3.444724e+01 3.896102e+01 2.601832e+01 3.148238e+01 3.802471e+02 5.309050e+02 1.185972e+02 2.524121e+02 2.760123e+02 1.725399e+03 1.688567e+03 1.538343e+03 4.436914e+01 1.054315e-01 4.140705e-01 1.983915e-01 1.419114e-01 4.516201e-01 8.935244e-02
<GCONST> 1.698904e+02
<STATE> 4
<NUMMIXES> 4
<MIXTURE> 1 4.650972e-01
<MEAN> 33
 1.726803e+02 1.370268e+02 1.128790e+02 1.374874e+02 1.727078e+02 1.756685e+02 1.347097e+02 1.342399e+02 9.105048e+01 1.625936e+02 1.745596e+02 1.651944e+00 1.744113e+02 1.644273e+02 1.601864e+02 1.655691e+02 1.654589e+02 9.221067e+00 1.151131e+02 1.503853e+02 1.712682e+02 1.560930e+02 1.232576e+02 1.499377e+02 7.826124e+01 9.726597e+01 1.534723e+02 5.004207e+00 2.859355e+00 2.707781e+00 2.583173e+00 2.745544e+00 4.878144e+00
<VARIANCE> 33
 3.902650e+01 2.511799e+01 5.905875e+01 3.289084e+01 3.037716e+01 1.403135e+01 2.822034e+01 2.062020e+01 5.342218e+01 1.272456e+02 2.189689e+01 2.472095e+00 2.027624e+01 1.194030e+02 4.513943e+01 8.588444e+01 9.135307e+01 5.387323e+01 1.527557e+03 2.898924e+02 2.362127e+01 2.269858e+02 1.436086e+03 8.509636e+02 1.434455e+03 1.798748e+03 2.945775e+02 2.819589e+00 1.585019e+00 2.433824e-01 1.979136e-01 1.523723e+00 2.225311e+00
<GCONST> 1.806408e+02
<MIXTURE> 2 1.208561e-01
<MEAN> 33
 1.520444e+02 1.439879e+02 1.201057e+02 1.428089e+02 1.614816e+02 1.757609e+02 1.053343e+02 1.116391e+02 1.369502e+02 1.284431e+02 1.695805e+02 2.458840e+00 1.674285e+02 1.323120e+02 1.641811e+02 1.137471e+02 1.254117e+02 1.767266e+01 1.198795e+02 1.512601e+02 1.708969e+02 1.484489e+02 1.098287e+02 1.258008e+02 6.093855e+01 1.214678e+02 1.153476e+02 7.402423e+00 2.798748e+00 2.353197e+00 2.214768e+00 2.803572e+00 6.877599e+00
<VARIANCE> 33
 9.742460e+02 4.766476e+01 6.874155e+01 6.412584e+01 3.164786e+02 1.186607e+01 4.104745e+02 2.115236e+02 6.533000e+02 1.042687e+03 5.622252e+01 4.451812e+00 7.485448e+01 9.887743e+02 1.680499e+01 7.929991e+02 7.147755e+02 1.895395e+02 1.560531e+03 2.951688e+02 4.223782e+01 2.345902e+02 1.947814e+03 2.003780e+03 1.836245e+03 1.418649e+03 6.253786e+02 1.122503e+00 8.601911e-01 1.021019e-01 5.615925e-02 4.537945e-01 1.344896e+00
<GCONST> 2.038097e+02
<MIXTURE> 3 1.855244e-01
<MEAN> 33
 1.598228e+02 1.344695e+02 1.119725e+02 1.360350e+02 1.600379e+02 1.748993e+02 1.456474e+02 1.418932e+02 7.237833e+01 1.554436e+02 1.680068e+02 1.189545e+00 1.662606e+02 1.585852e+02 1.615282e+02 1.359859e+02 1.374053e+02 5.482843e+00 1.166641e+02 1.330667e+02 1.734179e+02 1.414827e+02 1.153577e+02 1.342999e+02 5.339376e+01 7.446704e+01 7.832449e+01 5.673229e+00 2.370883e+00 2.948815e+00 2.924349e+00 2.533036e+00 5.501630e+00
<VARIANCE> 33
 1.380394e+02 3.878562e+01 5.270835e+01 3.803214e+01 1.421990e+02 1.712994e+01 1.022025e+02 6.353314e+01 2.531480e+02 1.883591e+02 4.707901e+01 8.887684e-01 4.966062e+01 1.700237e+02 5.812977e+01 1.584331e+02 1.684449e+02 3.148238e+01 1.229246e+03 7.829741e+02 2.534906e+01 4.355095e+02 8.167019e+02 1.471898e+03 1.628335e+03 1.967323e+03 8.215110e+02 9.010185e-01 2.142441e-01 1.411987e-01 1.054047e-01 2.293150e-01 8.616290e-01
<GCONST> 1.859698e+02
<MIXTURE> 4 2.285218e-01
<MEAN> 33
 1.113061e+02 1.326070e+02 1.131794e+02 1.356160e+02 1.165712e+02 1.737246e+02 1.109893e+02 1.106072e+02 6.656017e+01 1.287189e+02 1.614706e+02 2.032802e+00 1.620007e+02 1.339330e+02 1.640179e+02 9.713795e+01 1.002196e+02 9.763084e+00 1.200383e+02 1.132092e+02 1.725735e+02 1.310005e+02 1.095623e+02 1.187975e+02 7.228206e+01 8.368815e+01 2.401309e+01 4.462083e+00 2.905217e+00 3.453769e+00 3.418242e+00 3.274178e+00 4.520330e+00
<VARIANCE> 33
 1.205677e+03 9.500961e+01 8.284301e+01 7.718262e+01 1.093966e+03 2.217137e+01 3.037549e+03 2.534337e+03 2.666587e+03 6.044907e+02 9.804947e+01 7.476312e+00 7.861776e+01 5.664188e+02 6.793154e+01 4.463153e+02 5.218586e+02 4.010146e+02 1.070296e+03 6.874374e+02 3.622646e+01 4.592460e+02 8.223457e+02 2.114840e+03 2.183987e+03 2.293787e+03 4.472417e+02 1.134109e+00 4.766919e-01 2.521588e-01 2.410384e-01 7.077753e-01 1.330243e+00
<GCONST> 2.168308e+02
<TRANSP> 5
 0.000000e+00 1.000000e+00 0.000000e+00 0.000000e+00 0.000000e+00
 0.000000e+00 9.181159e-01 8.188411e-02 0.000000e+00 0.000000e+00
 0.000000e+00 0.000000e+00 9.634780e-01 3.652197e-02 0.000000e+00
 0.000000e+00 0.000000e+00 0.000000e+00 9.217319e-01 7.826811e-02
 0.000000e+00 0.000000e+00 0.000000e+00 0.000000e+00 0.000000e+00
<ENDHMM>
~h "CP"
<BEGINHMM>
<NUMSTATES> 5
<STATE> 2
<NUMMIXES> 4
<MIXTURE> 1 3.226662e-01
<MEAN> 33
 1.737002e+02 1.367183e+02 1.099132e+02 1.373469e+02 1.741977e+02 1.755527e+02 1.344013e+02 1.337673e+02 9.183138e+01 1.567725e+02 1.749138e+02 1.734695e+00 1.744753e+02 1.597438e+02 1.628939e+02 1.630632e+02 1.635679e+02 8.708071e+00 9.694454e+01 1.505057e+02 1.700603e+02 1.592225e+02 1.069349e+02 1.541631e+02 7.805347e+01 8.462608e+01 1.496877e+02 5.270473e+00 2.823315e+00 2.704390e+00 2.596151e+00 2.576062e+00 5.231758e+00
<VARIANCE> 33
 3.902650e+01 3.132161e+01 5.110256e+01 2.773975e+01 3.037716e+01 1.534680e+01 2.822034e+01 2.062020e+01 5.398918e+01 1.195736e+02 2.143270e+01 3.496536e+00 1.918255e+01 9.403756e+01 3.880540e+01 1.013599e+02 9.724148e+01 5.291845e+01 1.219342e+03 2.891908e+02 2.252769e+01 1.945708e+02 9.107729e+02 4.942587e+02 1.325046e+03 1.452573e+03 3.117278e+02 3.492892e+00 1.367249e+00 2.401598e-01 1.760084e-01 1.055183e+00 3.138287e+00
<GCONST> 1.789221e+02
<MIXTURE> 2 2.129243e-01
<MEAN> 33
 1.682792e+02 1.470842e+02 1.043478e+02 1.460905e+02 1.671414e+02 1.720035e+02 1.169588e+02 1.169143e+02 1.258132e+02 1.375254e+02 1.665736e+02 2.143099e+00 1.680096e+02 1.376287e+02 1.665782e+02 1.349033e+02 1.323213e+02 1.657657e+01 1.011172e+02 1.441278e+02 1.700181e+02 1.465853e+02 9.944373e+01 1.016373e+02 7.590536e+01 8.814697e+01 1.225546e+02 6.767124e+00 2.679261e+00 2.297328e+00 2.330331e+00 2.749453e+00 6.739946e+00
<VARIANCE> 33
 8.548524e+01 1.124899e+02 7.888646e+01 1.062057e+02 9.527352e+01 3.518863e+01 1.905845e+02 1.868876e+02 6.267192e+02 4.864131e+02 1.057499e+02 8.505557e+00 8.174302e+01 4.814413e+02 5.976493e+01 6.278846e+02 5.284369e+02 1.940120e+02 2.246340e+03 3.424025e+02 5.104355e+01 3.395610e+02 1.809253e+03 2.964101e+03 2.832256e+03 2.462920e+03 8.303568e+02 2.534343e+00 8.322967e-01 1.239245e-01 1.513871e-01 8.942785e-01 2.667841e+00
<GCONST> 2.084610e+02
<MIXTURE> 3 2.129243e-01
<MEAN> 33
 1.682792e+02 1.470842e+02 1.043478e+02 1.460905e+02 1.671414e+02 1.720035e+02 1.169588e+02 1.169143e+02 1.258132e+02 1.375254e+02 1.665736e+02 2.143099e+00 1.680096e+02 1.376287e+02 1.665782e+02 1.349033e+02 1.323213e+02 1.657657e+01 1.011172e+02 1.441278e+02 1.700181e+02 1.465853e+02 9.944373e+01 1.016373e+02 7.590536e+01 8.814697e+01 1.225546e+02 6.767124e+00 2.679261e+00 2.297328e+00 2.330331e+00 2.749453e+00 6.739946e+00
<VARIANCE> 33
 8.548524e+01 1.124899e+02 7.888646e+01 1.062057e+02 9.527352e+01 3.518863e+01 1.905845e+02 1.868876e+02 6.267192e+02 4.864131e+02 1.057499e+02 8.505557e+00 8.174302e+01 4.814413e+02 5.976493e+01 6.278846e+02 5.284369e+02 1.940120e+02 2.246340e+03 3.424025e+02 5.104355e+01 3.395610e+02 1.809253e+03 2.964101e+03 2.832256e+03 2.462920e+03 8.303568e+02 2.534343e+00 8.322967e-01 1.239245e-01 1.513871e-01 8.942785e-01 2.667841e+00
<GCONST> 2.084610e+02
<MIXTURE> 4 2.514849e-01
<MEAN> 33
 1.184074e+02 1.409903e+02 1.102446e+02 1.447036e+02 1.155566e+02 1.723759e+02 9.525513e+01 8.962177e+01 1.240279e+02 1.032155e+02 1.676974e+02 2.681262e+00 1.653858e+02 1.011956e+02 1.649531e+02 9.534605e+01 8.730824e+01 2.803378e+01 7.682791e+01 1.355262e+02 1.700844e+02 1.478878e+02 8.547311e+01 1.259734e+02 5.931668e+01 7.106371e+01 9.057962e+01 5.775384e+00 3.174327e+00 2.772110e+00 2.691042e+00 3.418262e+00 5.805524e+00
<VARIANCE> 33
 1.933311e+03 2.040342e+02 7.382600e+01 2.206388e+02 2.468562e+03 3.996767e+01 1.563717e+03 1.176193e+03 2.075475e+03 8.817281e+02 1.054965e+02 7.187152e+00 1.433708e+02 1.033198e+03 6.790729e+01 1.301314e+03 1.197023e+03 1.782833e+03 2.007204e+03 9.593487e+02 4.322868e+01 5.483527e+02 1.606392e+03 2.536239e+03 2.598968e+03 1.867995e+03 1.813583e+03 3.064458e+00 1.812285e+00 7.745377e-01 5.575671e-01 1.513902e+00 3.519902e+00
<GCONST> 2.332881e+02
<STATE> 3
<NUMMIXES> 4
<MIXTURE> 1 4.811952e-01
<MEAN> 33
 1.549248e+02 1.390511e+02 1.161581e+02 1.388349e+02 1.560260e+02 1.756553e+02 1.272131e+02 1.235869e+02 1.092000e+02 1.279856e+02 1.744654e+02 2.639580e+00 1.749328e+02 1.259047e+02 1.628562e+02 1.299760e+02 1.292509e+02 8.170058e+00 5.485011e+01 1.565920e+02 1.644079e+02 1.560145e+02 5.602003e+01 1.578286e+02 3.945123e+01 6.333830e+01 1.016381e+02 6.283561e+00 3.197035e+00 2.862116e+00 2.734412e+00 3.324620e+00 6.425941e+00
<VARIANCE> 33
 1.587281e+02 2.269181e+01 1.066749e+02 3.460484e+01 1.654852e+02 1.654269e+01 1.056021e+02 8.162743e+01 2.925533e+02 1.330681e+02 1.750424e+01 6.205292e+00 2.072862e+01 1.482966e+02 3.401302e+01 2.228337e+02 2.639734e+02 6.361534e+01 4.373285e+02 1.662038e+02 1.795437e+01 1.550082e+02 3.509274e+02 3.000709e+02 6.042452e+02 5.445142e+02 4.595570e+02 8.715930e-01 5.190583e-01 7.440741e-02 8.423146e-02 7.905033e-01 6.850517e-01
<GCONST> 1.790246e+02
<MIXTURE> 2 1.215195e-01
<MEAN> 33
 1.127194e+02 1.530466e+02 1.232598e+02 1.442119e+02 1.288289e+02 1.751396e+02 1.026556e+02 1.008295e+02 1.515794e+02 1.145155e+02 1.713376e+02 5.350036e+00 1.682638e+02 1.153700e+02 1.551126e+02 9.848212e+01 9.773731e+01 6.819782e+00 5.952624e+01 1.689507e+02 1.660572e+02 1.668422e+02 6.595557e+01 1.565028e+02 2.940998e+01 5.939363e+01 8.255434e+01 5.918654e+00 3.996367e+00 2.863596e+00 2.970048e+00 3.652524e+00 5.689922e+00
<VARIANCE> 33
 3.023930e+02 1.449168e+02 6.238866e+01 7.897340e+01 3.283823e+02 1.763299e+01 2.153924e+02 1.284074e+02 3.193305e+02 1.380308e+02 4.209501e+01 2.613947e+01 6.604428e+01 1.288983e+02 3.692109e+01 1.198319e+02 1.292328e+02 3.148238e+01 1.710476e+02 8.032304e+01 1.697179e+01 1.106161e+02 3.198932e+02 3.071243e+02 6.178012e+02 8.906643e+02 2.725799e+02 3.721834e-01 4.135368e-01 1.235046e-01 9.480361e-02 4.541917e-01 4.743863e-01
<GCONST> 1.817175e+02
<MIXTURE> 3 1.215195e-01
<MEAN> 33
 1.127194e+02 1.530466e+02 1.232598e+02 1.442119e+02 1.288289e+02 1.751396e+02 1.026556e+02 1.008295e+02 1.515794e+02 1.145155e+02 1.713376e+02 5.350036e+00 1.682638e+02 1.153700e+02 1.551126e+02 9.848212e+01 9.773731e+01 6.819782e+00 5.952624e+01 1.689507e+02 1.660572e+02 1.668422e+02 6.595557e+01 1.565028e+02 2.940998e+01 5.939363e+01 8.255434e+01 5.918654e+00 3.996367e+00 2.863596e+00 2.970048e+00 3.652524e+00 5.689922e+00
<VARIANCE> 33
 3.023930e+02 1.449168e+02 6.238866e+01 7.897340e+01 3.283823e+02 1.763299e+01 2.153924e+02 1.284074e+02 3.193305e+02 1.380308e+02 4.209501e+01 2.613947e+01 6.604428e+01 1.288983e+02 3.692109e+01 1.198319e+02 1.292328e+02 3.148238e+01 1.710476e+02 8.032304e+01 1.697179e+01 1.106161e+02 3.198932e+02 3.071243e+02 6.178012e+02 8.906643e+02 2.725799e+02 3.721834e-01 4.135368e-01 1.235046e-01 9.480361e-02 4.541917e-01 4.743863e-01
<GCONST> 1.817175e+02
<MIXTURE> 4 2.757645e-01
<MEAN> 33
 1.450591e+02 1.392354e+02 1.126280e+02 1.400273e+02 1.548589e+02 1.760426e+02 8.795076e+01 9.125185e+01 1.560027e+02 9.919656e+01 1.729497e+02 1.284223e+00 1.746440e+02 9.897092e+01 1.618797e+02 8.609365e+01 8.935460e+01 9.803695e+00 5.301398e+01 1.476584e+02 1.659469e+02 1.462041e+02 5.151853e+01 1.595206e+02 5.788076e+01 3.676028e+01 9.445695e+01 6.041903e+00 3.140428e+00 2.727355e+00 2.647032e+00 3.114770e+00 6.391700e+00
<VARIANCE> 33
 7.627852e+02 3.881454e+01 1.918369e+01 1.646370e+01 4.502084e+02 8.170390e+00 2.707262e+02 2.070592e+02 2.428908e+02 1.986463e+02 2.982210e+01 1.046582e+00 1.701953e+01 1.352151e+02 3.422509e+01 3.131127e+02 2.488569e+02 7.201974e+01 4.062231e+02 1.648126e+02 1.855231e+01 1.266327e+02 1.822147e+02 1.790565e+02 4.166823e+02 3.446434e+02 2.752682e+02 1.034261e+00 3.587781e-01 6.937903e-02 6.242136e-02 2.202803e-01 7.351357e-01
<GCONST> 1.753899e+02
<STATE> 4
<NUMMIXES> 4
<MIXTURE> 1 3.969084e-01
<MEAN> 33
 1.749803e+02 1.377482e+02 1.067552e+02 1.391696e+02 1.755531e+02 1.757876e+02 1.347192e+02 1.340712e+02 9.120963e+01 1.629052e+02 1.765134e+02 1.156141e+00 1.755951e+02 1.660664e+02 1.622840e+02 1.687798e+02 1.710073e+02 7.467244e+00 1.089907e+02 1.600027e+02 1.678657e+02 1.625369e+02 1.207737e+02 1.600520e+02 7.950374e+01 9.135652e+01 1.629620e+02 4.988956e+00 2.442020e+00 2.868044e+00 2.597710e+00 2.099382e+00 4.498523e+00
<VARIANCE> 33
 3.902650e+01 1.183854e+01 4.727618e+01 2.143716e+01 3.037716e+01 1.088412e+01 2.822034e+01 2.062020e+01 1.886277e+01 4.249725e+01 7.754458e+00 6.331508e-01 6.236978e+00 4.163557e+01 2.075952e+01 3.710576e+01 4.310969e+01 3.185128e+01 6.279849e+02 1.051331e+02 1.754393e+01 8.058296e+01 6.654222e+02 2.311686e+02 6.359160e+02 6.847665e+02 1.259162e+02 2.544081e+00 3.383540e-01 2.512285e-01 2.117308e-01 2.353743e-01 2.477621e+00
<GCONST> 1.580750e+02
<MIXTURE> 2 1.471133e-01
<MEAN> 33
 1.721893e+02 1.340954e+02 1.128831e+02 1.368400e+02 1.715475e+02 1.747389e+02 1.377061e+02 1.353023e+02 8.699160e+01 1.600524e+02 1.702305e+02 2.353992e+00 1.707817e+02 1.611761e+02 1.619288e+02 1.584023e+02 1.618111e+02 1.249726e+01 1.094457e+02 1.534529e+02 1.641354e+02 1.618947e+02 1.111458e+02 1.616462e+02 6.538719e+01 8.786004e+01 1.426886e+02 5.899133e+00 2.426103e+00 3.238291e+00 2.714328e+00 2.421243e+00 5.545740e+00
<VARIANCE> 33
 3.958990e+01 3.349712e+01 8.356596e+01 2.649327e+01 3.862140e+01 1.786792e+01 2.822034e+01 2.062020e+01 5.635263e+01 1.141209e+02 2.949612e+01 5.476927e+00 3.218734e+01 1.114223e+02 3.739186e+01 1.424712e+02 1.465960e+02 1.146208e+02 1.434659e+03 4.931223e+02 2.308624e+01 1.699295e+02 1.033199e+03 2.222632e+02 6.470362e+02 7.065918e+02 5.049800e+02 2.070180e+00 7.011286e-01 4.571636e-01 2.133512e-01 3.690398e-01 2.094339e+00
<GCONST> 1.799272e+02
<MIXTURE> 3 1.471133e-01
<MEAN> 33
 1.721893e+02 1.340954e+02 1.128831e+02 1.368400e+02 1.715475e+02 1.747389e+02 1.377061e+02 1.353023e+02 8.699160e+01 1.600524e+02 1.702305e+02 2.353992e+00 1.707817e+02 1.611761e+02 1.619288e+02 1.584023e+02 1.618111e+02 1.249726e+01 1.094457e+02 1.534529e+02 1.641354e+02 1.618947e+02 1.111458e+02 1.616462e+02 6.538719e+01 8.786004e+01 1.426886e+02 5.899133e+00 2.426103e+00 3.238291e+00 2.714328e+00 2.421243e+00 5.545740e+00
<VARIANCE> 33
 3.958990e+01 3.349712e+01 8.356596e+01 2.649327e+01 3.862140e+01 1.786792e+01 2.822034e+01 2.062020e+01 5.635263e+01 1.141209e+02 2.949612e+01 5.476927e+00 3.218734e+01 1.114223e+02 3.739186e+01 1.424712e+02 1.465960e+02 1.146208e+02 1.434659e+03 4.931223e+02 2.308624e+01 1.699295e+02 1.033199e+03 2.222632e+02 6.470362e+02 7.065918e+02 5.049800e+02 2.070180e+00 7.011286e-01 4.571636e-01 2.133512e-01 3.690398e-01 2.094339e+00
<GCONST> 1.799272e+02
<MIXTURE> 4 3.088645e-01
<MEAN> 33
 1.595102e+02 1.491872e+02 9.804163e+01 1.507773e+02 1.559563e+02 1.727525e+02 1.328095e+02 1.307031e+02 9.631100e+01 1.348838e+02 1.760963e+02 1.092816e+00 1.726859e+02 1.299728e+02 1.693722e+02 1.434249e+02 1.414847e+02 9.406037e+00 6.523936e+01 1.593006e+02 1.681927e+02 1.591147e+02 6.670000e+01 1.407679e+02 5.354712e+01 6.123077e+01 1.126620e+02 5.186203e+00 2.856126e+00 2.180249e+00 2.140177e+00 2.972740e+00 5.974354e+00
<VARIANCE> 33
 1.719627e+02 4.635138e+01 2.649450e+01 5.469207e+01 2.497955e+02 1.645407e+01 6.305890e+01 8.628008e+01 1.633054e+02 1.220347e+02 7.664149e+00 1.475743e+00 1.847636e+01 2.545135e+02 1.284093e+01 1.881681e+02 2.475905e+02 1.517411e+02 2.548319e+02 1.346169e+02 2.295635e+01 1.213121e+02 4.256741e+02 5.476651e+02 7.744731e+02 1.114468e+03 5.476045e+02 4.364661e+00 8.552892e-01 1.035241e-01 1.546773e-01 1.943784e+00 2.934853e+00
<GCONST> 1.825728e+02
<TRANSP> 5
 0.000000e+00 1.000000e+00 0.000000e+00 0.000000e+00 0.000000e+00
 0.000000e+00 9.286801e-01 7.131995e-02 0.000000e+00 0.000000e+00
 0.000000e+00 0.000000e+00 9.393153e-01 6.068467e-02 0.000000e+00
 0.000000e+00 0.000000e+00 0.000000e+00 9.380590e-01 6.194095e-02
 0.000000e+00 0.000000e+00 0.000000e+00 0.000000e+00 0.000000e+00
<ENDHMM>
~h "CV"
<BEGINHMM>
<NUMSTATES> 5
<STATE> 2
<NUMMIXES> 4
<MIXTURE> 1 4.391567e-01
<MEAN> 33
 1.738840e+02 1.371074e+02 1.073168e+02 1.387584e+02 1.743769e+02 1.752591e+02 1.354154e+02 1.347294e+02 8.985511e+01 1.593096e+02 1.763064e+02 1.679907e+00 1.752844e+02 1.613706e+02 1.626079e+02 1.662349e+02 1.695325e+02 9.201297e+00 9.937200e+01 1.529520e+02 1.695605e+02 1.613563e+02 1.073436e+02 1.588345e+02 6.516887e+01 9.849300e+01 1.585231e+02 4.355057e+00 2.542536e+00 2.524753e+00 2.442134e+00 2.351659e+00 4.349832e+00
<VARIANCE> 33
 3.902650e+01 1.859949e+01 6.502044e+01 3.159202e+01 3.037716e+01 1.329892e+01 2.822034e+01 2.062020e+01 2.436282e+01 5.875747e+01 1.841099e+01 4.092057e+00 1.141503e+01 4.980215e+01 4.564151e+01 7.589358e+01 7.301574e+01 5.489749e+01 7.892834e+02 2.764862e+02 2.825704e+01 1.190384e+02 4.745391e+02 2.240423e+02 9.069306e+02 1.099068e+03 2.313333e+02 4.438223e+00 6.480243e-01 4.080316e-01 3.144839e-01 7.286766e-01 3.728727e+00
<GCONST> 1.728575e+02
<MIXTURE> 2 1.963417e-01
<MEAN> 33
 1.266735e+02 1.332124e+02 1.173698e+02 1.369554e+02 1.108041e+02 1.716599e+02 1.026203e+02 8.830893e+01 1.380056e+02 1.225026e+02 1.643816e+02 4.941562e+00 1.610223e+02 1.176418e+02 1.604797e+02 1.173436e+02 1.051558e+02 8.263311e+01 9.143663e+01 1.249705e+02 1.688774e+02 1.502463e+02 8.517766e+01 1.470246e+02 4.840318e+01 7.605668e+01 9.864922e+01 4.669609e+00 2.923575e+00 3.178099e+00 3.002163e+00 3.641354e+00 5.372241e+00
<VARIANCE> 33
 3.812212e+03 1.553357e+02 8.601986e+01 1.197224e+02 3.951224e+03 3.053243e+01 2.250027e+03 2.461219e+03 1.381781e+03 1.656568e+03 2.092699e+02 3.827863e+01 2.570844e+02 1.395897e+03 8.519294e+01 2.532679e+03 2.331573e+03 2.399246e+03 2.453521e+03 9.722760e+02 5.617385e+01 4.585155e+02 1.154895e+03 7.259578e+02 1.622792e+03 1.637881e+03 1.598157e+03 5.201401e+00 1.756785e+00 5.671383e-01 3.738939e-01 1.822352e+00 3.786931e+00
<GCONST> 2.378944e+02
<MIXTURE> 3 1.274329e-01
<MEAN> 33
 1.373870e+02 1.394483e+02 1.093375e+02 1.387243e+02 1.446338e+02 1.755502e+02 1.172331e+02 1.161898e+02 1.221269e+02 1.128675e+02 1.747203e+02 1.605933e+00 1.746002e+02 1.169409e+02 1.640909e+02 1.111171e+02 1.136595e+02 1.031201e+01 4.911031e+01 1.539432e+02 1.686918e+02 1.590313e+02 5.880162e+01 1.580905e+02 3.070864e+01 5.169416e+01 7.179334e+01 5.912564e+00 3.064235e+00 2.807007e+00 2.761851e+00 2.969713e+00 5.839621e+00
<VARIANCE> 33
 5.564081e+02 4.127732e+01 6.060938e+01 4.557802e+01 5.410538e+02 1.730498e+01 4.979941e+02 3.540716e+02 1.113726e+03 2.811275e+02 1.949207e+01 2.096031e+00 1.403396e+01 3.951416e+02 3.600654e+01 3.763736e+02 4.919587e+02 1.160882e+02 4.598784e+02 2.051508e+02 2.467549e+01 1.982856e+02 5.123436e+02 2.041396e+02 5.688887e+02 7.995300e+02 6.814885e+02 1.319375e+00 3.554428e-01 1.816532e-01 1.519541e-01 6.069038e-01 1.067029e+00
<GCONST> 1.915708e+02
<MIXTURE> 4 2.370682e-01
<MEAN> 33
 3.669547e+01 1.409847e+02 1.097286e+02 1.485557e+02 2.894710e+01 1.750611e+02 3.224362e+01 3.132978e+01 6.063120e+01 6.823030e+01 1.517644e+02 6.012263e+00 1.534271e+02 6.752386e+01 1.636440e+02 4.922126e+01 4.150119e+01 1.128563e+01 9.773328e+01 1.279605e+02 1.650817e+02 1.442478e+02 9.623483e+01 1.009268e+02 9.617001e+01 8.892782e+01 6.062840e+01 4.963684e+00 2.931911e+00 2.911227e+00 2.671574e+00 3.441410e+00 4.819938e+00
<VARIANCE> 33
 1.495827e+03 3.629131e+02 1.900591e+02 4.222834e+02 3.860073e+02 2.150059e+01 5.951700e+02 1.813042e+02 1.211100e+03 5.273071e+02 4.085403e+02 1.349718e+02 5.270330e+02 6.336277e+02 8.188086e+01 4.604148e+02 1.906629e+02 3.386490e+02 1.636477e+03 1.063913e+03 1.878772e+02 6.733746e+02 7.319266e+02 2.871912e+03 2.153359e+03 2.343342e+03 8.648623e+02 1.851457e+00 6.405221e-01 6.619351e-01 5.422592e-01 8.554919e-01 1.083254e+00
<GCONST> 2.263198e+02
<STATE> 3
<NUMMIXES> 4
<MIXTURE> 1 1.845405e-01
<MEAN> 33
 6.689894e+01 1.385145e+02 1.106560e+02 1.388659e+02 6.577760e+01 1.748295e+02 3.934515e+01 4.606456e+01 7.595782e+01 8.361160e+01 1.692025e+02 2.050850e+00 1.687462e+02 8.512787e+01 1.628868e+02 6.830596e+01 6.717448e+01 7.105870e+00 6.721970e+01 1.487341e+02 1.670866e+02 1.549410e+02 6.838506e+01 1.564458e+02 2.440250e+01 3.751938e+01 3.517098e+01 4.419303e+00 3.150300e+00 3.257546e+00 3.215562e+00 3.331725e+00 4.418772e+00
<VARIANCE> 33
 5.046437e+02 7.066138e+01 9.039803e+01 4.456902e+01 7.715307e+02 2.156202e+01 4.765268e+02 4.283459e+02 1.747748e+03 1.715360e+02 7.102268e+01 4.321309e+00 6.820872e+01 1.596645e+02 3.953498e+01 1.797661e+02 1.475907e+02 1.268537e+02 1.242962e+03 5.772773e+02 2.335412e+01 2.981182e+02 8.265963e+02 3.197273e+02 5.111658e+02 6.497661e+02 3.612095e+02 5.944837e-01 4.353897e-01 3.521386e-01 2.576544e-01 6.723437e-01 6.194188e-01
<GCONST> 1.965101e+02
<MIXTURE> 2 1.591686e-01
<MEAN> 33
 3.155598e+01 1.329848e+02 1.110160e+02 1.396220e+02 2.012673e+01 1.757893e+02 1.847111e+01 2.660756e+01 4.196221e+01 6.476044e+01 1.634671e+02 1.570894e+00 1.660554e+02 6.199400e+01 1.617986e+02 4.729880e+01 4.507475e+01 5.067793e+00 1.074510e+02 1.268116e+02 1.724193e+02 1.473152e+02 9.235815e+01 1.318291e+02 5.044244e+01 5.405518e+01 3.982292e+01 4.348495e+00 2.665692e+00 3.475753e+00 3.238691e+00 2.898782e+00 4.070184e+00
<VARIANCE> 33
 3.016219e+02 9.234322e+01 1.177575e+02 1.360724e+02 2.224598e+02 1.371581e+01 6.565462e+01 7.634991e+01 2.576775e+02 9.652842e+01 8.080775e+01 1.849053e+00 6.556020e+01 1.002428e+02 4.224489e+01 8.059646e+01 5.388707e+01 3.148238e+01 7.709276e+02 6.908414e+02 2.574257e+01 4.239574e+02 6.213933e+02 1.342169e+03 1.287796e+03 1.623696e+03 2.303002e+02 3.488037e-01 5.873916e-01 5.526035e-01 5.881963e-01 1.002087e+00 3.028592e-01
<GCONST> 1.888059e+02
<MIXTURE> 3 1.591686e-01
<MEAN> 33
 3.155598e+01 1.329848e+02 1.110160e+02 1.396220e+02 2.012673e+01 1.757893e+02 1.847111e+01 2.660756e+01 4.196221e+01 6.476044e+01 1.634671e+02 1.570894e+00 1.660554e+02 6.199400e+01 1.617986e+02 4.729880e+01 4.507475e+01 5.067793e+00 1.074510e+02 1.268116e+02 1.724193e+02 1.473152e+02 9.235815e+01 1.318291e+02 5.044244e+01 5.405518e+01 3.982292e+01 4.348495e+00 2.665692e+00 3.475753e+00 3.238691e+00 2.898782e+00 4.070184e+00
<VARIANCE> 33
 3.016219e+02 9.234322e+01 1.177575e+02 1.360724e+02 2.224598e+02 1.371581e+01 6.565462e+01 7.634991e+01 2.576775e+02 9.652842e+01 8.080775e+01 1.849053e+00 6.556020e+01 1.002428e+02 4.224489e+01 8.059646e+01 5.388707e+01 3.148238e+01 7.709276e+02 6.908414e+02 2.574257e+01 4.239574e+02 6.213933e+02 1.342169e+03 1.287796e+03 1.623696e+03 2.303002e+02 3.488037e-01 5.873916e-01 5.526035e-01 5.881963e-01 1.002087e+00 3.028592e-01
<GCONST> 1.888059e+02
<MIXTURE> 4 4.971213e-01
<MEAN> 33
 3.063644e+01 1.244604e+02 1.251664e+02 1.274426e+02 2.679773e+01 1.759709e+02 2.072315e+01 2.457069e+01 4.423112e+01 7.567165e+01 1.421816e+02 4.778357e+00 1.414711e+02 7.735773e+01 1.629547e+02 5.006892e+01 4.850024e+01 3.480702e+00 1.362659e+02 9.642418e+01 1.666030e+02 1.133573e+02 1.201958e+02 1.496838e+02 2.930292e+01 4.182818e+01 3.583052e+01 4.121860e+00 2.948766e+00 4.255837e+00 3.963177e+00 3.278320e+00 4.026524e+00
<VARIANCE> 33
 1.698044e+02 1.054400e+02 1.396974e+02 8.351015e+01 1.823382e+02 1.353983e+01 6.212175e+01 7.749998e+01 2.373974e+02 1.105249e+02 1.350072e+02 3.134638e+01 1.518951e+02 1.186493e+02 5.432296e+01 6.487289e+01 5.933076e+01 3.148238e+01 3.042329e+02 2.243376e+02 4.308033e+01 3.582563e+02 4.046667e+02 5.108848e+02 5.791306e+02 8.109794e+02 1.003450e+02 2.920222e-01 4.102308e-01 4.067421e-01 2.543074e-01 4.531267e-01 2.508897e-01
<GCONST> 1.842405e+02
<STATE> 4
<NUMMIXES> 4
<MIXTURE> 1 4.544618e-01
<MEAN> 33
 1.737545e+02 1.357506e+02 1.133352e+02 1.356431e+02 1.739656e+02 1.757638e+02 1.361386e+02 1.352913e+02 8.857011e+01 1.640558e+02 1.750590e+02 1.963273e+00 1.742701e+02 1.656187e+02 1.617544e+02 1.687642e+02 1.686968e+02 7.562631e+00 1.132685e+02 1.540339e+02 1.684842e+02 1.597662e+02 1.223858e+02 1.602847e+02 7.585442e+01 9.876186e+01 1.587128e+02 4.911554e+00 2.756269e+00 2.861696e+00 2.733004e+00 2.594811e+00 4.739560e+00
<VARIANCE> 33
 3.902650e+01 2.043560e+01 7.644205e+01 2.758887e+01 3.037716e+01 1.296025e+01 2.822034e+01 2.062020e+01 3.964691e+01 7.783412e+01 1.898217e+01 5.311812e+00 2.238511e+01 8.095668e+01 3.440762e+01 5.802999e+01 6.430783e+01 3.629527e+01 1.368286e+03 2.058153e+02 2.010865e+01 1.758008e+02 1.086596e+03 2.670825e+02 8.689912e+02 1.108203e+03 2.060169e+02 2.402175e+00 1.481882e+00 3.310839e-01 2.144669e-01 1.216704e+00 2.338362e+00
<GCONST> 1.749055e+02
<MIXTURE> 2 1.525466e-01
<MEAN> 33
 1.683383e+02 1.347207e+02 1.142277e+02 1.375579e+02 1.674870e+02 1.764816e+02 1.376288e+02 1.347299e+02 8.764126e+01 1.570848e+02 1.667052e+02 1.459922e+00 1.663471e+02 1.581584e+02 1.623668e+02 1.446517e+02 1.449852e+02 9.716366e+00 1.202846e+02 1.428791e+02 1.683620e+02 1.505911e+02 1.181896e+02 1.467551e+02 6.776089e+01 7.671381e+01 1.096856e+02 6.072799e+00 2.436323e+00 2.808744e+00 2.691731e+00 2.478369e+00 6.041395e+00
<VARIANCE> 33
 8.838778e+01 5.122988e+01 7.570484e+01 7.681691e+01 8.761934e+01 8.898449e+00 8.186044e+01 6.966886e+01 2.594266e+02 1.867289e+02 5.435079e+01 1.609666e+00 6.032987e+01 2.006399e+02 3.621087e+01 2.040902e+02 2.387919e+02 9.057674e+01 1.503748e+03 5.536411e+02 4.038507e+01 4.414986e+02 1.439337e+03 1.487369e+03 2.245759e+03 1.684468e+03 8.693851e+02 1.316977e+00 3.649073e-01 3.123915e-01 1.934496e-01 3.147920e-01 1.266491e+00
<GCONST> 1.920474e+02
<MIXTURE> 3 1.525466e-01
<MEAN> 33
 1.683383e+02 1.347207e+02 1.142277e+02 1.375579e+02 1.674870e+02 1.764816e+02 1.376288e+02 1.347299e+02 8.764126e+01 1.570848e+02 1.667052e+02 1.459922e+00 1.663471e+02 1.581584e+02 1.623668e+02 1.446517e+02 1.449852e+02 9.716366e+00 1.202846e+02 1.428791e+02 1.683620e+02 1.505911e+02 1.181896e+02 1.467551e+02 6.776089e+01 7.671381e+01 1.096856e+02 6.072799e+00 2.436323e+00 2.808744e+00 2.691731e+00 2.478369e+00 6.041395e+00
<VARIANCE> 33
 8.838778e+01 5.122988e+01 7.570484e+01 7.681691e+01 8.761934e+01 8.898449e+00 8.186044e+01 6.966886e+01 2.594266e+02 1.867289e+02 5.435079e+01 1.609666e+00 6.032987e+01 2.006399e+02 3.621087e+01 2.040902e+02 2.387919e+02 9.057674e+01 1.503748e+03 5.536411e+02 4.038507e+01 4.414986e+02 1.439337e+03 1.487369e+03 2.245759e+03 1.684468e+03 8.693851e+02 1.316977e+00 3.649073e-01 3.123915e-01 1.934496e-01 3.147920e-01 1.266491e+00
<GCONST> 1.920474e+02
<MIXTURE> 4 2.404443e-01
<MEAN> 33
 1.237804e+02 1.320145e+02 1.199784e+02 1.343528e+02 1.164832e+02 1.756482e+02 1.068267e+02 1.007853e+02 1.041086e+02 1.228811e+02 1.606620e+02 3.690269e+00 1.607426e+02 1.207960e+02 1.619760e+02 1.003273e+02 9.601491e+01 1.399838e+01 1.074857e+02 1.264467e+02 1.688358e+02 1.401447e+02 9.413506e+01 1.359261e+02 4.397142e+01 5.859762e+01 4.806528e+01 5.214346e+00 2.931389e+00 3.436673e+00 3.278824e+00 3.377495e+00 5.245935e+00
<VARIANCE> 33
 1.339653e+03 9.671322e+01 1.550049e+02 1.100086e+02 1.037420e+03 1.359428e+01 1.703292e+03 1.573805e+03 2.329308e+03 5.693672e+02 1.468370e+02 2.317226e+01 1.454693e+02 3.663587e+02 4.872833e+01 6.077418e+02 4.733684e+02 3.747923e+02 1.751346e+03 8.793965e+02 3.924236e+01 6.642956e+02 1.132961e+03 1.735570e+03 1.498193e+03 1.488729e+03 9.856959e+02 1.287785e+00 6.413522e-01 4.314159e-01 3.378073e-01 6.536377e-01 1.580903e+00
<GCONST> 2.203517e+02
<TRANSP> 5
 0.000000e+00 1.000000e+00 0.000000e+00 0.000000e+00 0.000000e+00
 0.000000e+00 9.192155e-01 8.078448e-02 0.000000e+00 0.000000e+00
 0.000000e+00 0.000000e+00 9.507467e-01 4.925330e-02 0.000000e+00
 0.000000e+00 0.000000e+00 0.000000e+00 9.311248e-01 6.887514e-02
 0.000000e+00 0.000000e+00 0.000000e+00 0.000000e+00 0.000000e+00
<ENDHMM>
~h "DC"
<BEGINHMM>
<NUMSTATES> 5
<STATE> 2
<NUMMIXES> 4
<MIXTURE> 1 5.377417e-01
<MEAN> 33
 1.736652e+02 1.365119e+02 1.080499e+02 1.381707e+02 1.749509e+02 1.759358e+02 1.351797e+02 1.343773e+02 9.044301e+01 1.576073e+02 1.751876e+02 1.565564e+00 1.747500e+02 1.611290e+02 1.619515e+02 1.627488e+02 1.677500e+02 1.087276e+01 9.830153e+01 1.531667e+02 1.692395e+02 1.623082e+02 1.065017e+02 1.569492e+02 7.334633e+01 8.784579e+01 1.543104e+02 4.685957e+00 2.599596e+00 2.662836e+00 2.471568e+00 2.348715e+00 4.578377e+00
<VARIANCE> 33
 3.902650e+01 2.361195e+01 6.136214e+01 2.857676e+01 3.037716e+01 1.115626e+01 2.822034e+01 2.062020e+01 2.499947e+01 7.864040e+01 2.446330e+01 4.031828e+00 1.983439e+01 4.485136e+01 5.219219e+01 1.135532e+02 6.801279e+01 1.029594e+02 8.922715e+02 2.908835e+02 2.915784e+01 1.492783e+02 4.399121e+02 2.938250e+02 1.141909e+03 1.260567e+03 2.791788e+02 5.282094e+00 8.712997e-01 3.822748e-01 3.727504e-01 7.893226e-01 3.342521e+00
<GCONST> 1.766191e+02
<MIXTURE> 2 1.265676e-01
<MEAN> 33
 1.327239e+02 1.381732e+02 1.109627e+02 1.384969e+02 1.381586e+02 1.772096e+02 1.187542e+02 1.133349e+02 1.209226e+02 1.144796e+02 1.738543e+02 1.230853e+00 1.735929e+02 1.146762e+02 1.620653e+02 1.072640e+02 1.079932e+02 5.908580e+00 6.231461e+01 1.597149e+02 1.698302e+02 1.630338e+02 6.571161e+01 1.546629e+02 3.591886e+01 3.945125e+01 5.941859e+01 5.939594e+00 2.966903e+00 2.967396e+00 2.885107e+00 3.004711e+00 5.799512e+00
<VARIANCE> 33
 4.750486e+02 2.253128e+01 6.494822e+01 3.134540e+01 5.008543e+02 6.070559e+00 5.142707e+02 4.442853e+02 1.083174e+03 1.454580e+02 2.482191e+01 1.335644e+00 2.337934e+01 1.984073e+02 4.029463e+01 2.972407e+02 3.628530e+02 4.230197e+01 4.878438e+02 1.915117e+02 2.698122e+01 1.440876e+02 4.063749e+02 4.015973e+02 7.552073e+02 7.174518e+02 6.702292e+02 8.633987e-01 3.422135e-01 1.768682e-01 1.462086e-01 6.152515e-01 8.178473e-01
<GCONST> 1.867088e+02
<MIXTURE> 3 1.265676e-01
<MEAN> 33
 1.327239e+02 1.381732e+02 1.109627e+02 1.384969e+02 1.381586e+02 1.772096e+02 1.187542e+02 1.133349e+02 1.209226e+02 1.144796e+02 1.738543e+02 1.230853e+00 1.735929e+02 1.146762e+02 1.620653e+02 1.072640e+02 1.079932e+02 5.908580e+00 6.231461e+01 1.597149e+02 1.698302e+02 1.630338e+02 6.571161e+01 1.546629e+02 3.591886e+01 3.945125e+01 5.941859e+01 5.939594e+00 2.966903e+00 2.967396e+00 2.885107e+00 3.004711e+00 5.799512e+00
<VARIANCE> 33
 4.750486e+02 2.253128e+01 6.494822e+01 3.134540e+01 5.008543e+02 6.070559e+00 5.142707e+02 4.442853e+02 1.083174e+03 1.454580e+02 2.482191e+01 1.335644e+00 2.337934e+01 1.984073e+02 4.029463e+01 2.972407e+02 3.628530e+02 4.230197e+01 4.878438e+02 1.915117e+02 2.698122e+01 1.440876e+02 4.063749e+02 4.015973e+02 7.552073e+02 7.174518e+02 6.702292e+02 8.633987e-01 3.422135e-01 1.768682e-01 1.462086e-01 6.152515e-01 8.178473e-01
<GCONST> 1.867088e+02
<MIXTURE> 4 2.091230e-01
<MEAN> 33
 1.151998e+02 1.288858e+02 1.128344e+02 1.408128e+02 1.053998e+02 1.712645e+02 9.365537e+01 8.373180e+01 9.932533e+01 1.208801e+02 1.584670e+02 3.560336e+00 1.602255e+02 1.140462e+02 1.591424e+02 1.040089e+02 9.205403e+01 4.110182e+01 1.099712e+02 1.125597e+02 1.711841e+02 1.451550e+02 9.850694e+01 1.252740e+02 6.296549e+01 7.395387e+01 6.383743e+01 5.252466e+00 2.574865e+00 3.222776e+00 2.903082e+00 3.201943e+00 5.438270e+00
<VARIANCE> 33
 1.870113e+03 3.069500e+02 1.483414e+02 2.237025e+02 2.735971e+03 4.598590e+01 2.400985e+03 2.128207e+03 2.789404e+03 7.578387e+02 3.252691e+02 1.585592e+01 1.848606e+02 7.439996e+02 8.412606e+01 1.329090e+03 1.054111e+03 2.729347e+03 2.022944e+03 1.464824e+03 3.286055e+01 6.084914e+02 1.285942e+03 1.683599e+03 2.499479e+03 2.387989e+03 2.096190e+03 2.682900e+00 1.507956e+00 7.936984e-01 4.888715e-01 1.471515e+00 2.531779e+00
<GCONST> 2.373593e+02
<STATE> 3
<NUMMIXES> 4
<MIXTURE> 1 2.896423e-01
<MEAN> 33
 9.482111e+01 1.385288e+02 1.100566e+02 1.422554e+02 9.159908e+01 1.740490e+02 8.256696e+01 7.979504e+01 8.035159e+01 1.163574e+02 1.643314e+02 1.747475e+00 1.648646e+02 1.124477e+02 1.626464e+02 8.824398e+01 8.695531e+01 3.562011e+00 9.362864e+01 1.351160e+02 1.720880e+02 1.468700e+02 8.484714e+01 1.144367e+02 6.609045e+01 6.652363e+01 1.756728e+01 4.328324e+00 3.393317e+00 3.467946e+00 3.268381e+00 3.847620e+00 4.457703e+00
<VARIANCE> 33
 1.722563e+02 5.929213e+01 1.607884e+02 1.263784e+02 3.938799e+02 2.170019e+01 1.508011e+03 1.580825e+03 3.033086e+03 1.445975e+02 5.935753e+01 2.526637e+00 7.161593e+01 1.716331e+02 2.247628e+01 4.900549e+01 4.317804e+01 3.148238e+01 7.775429e+02 5.267660e+02 2.587760e+01 4.391869e+02 7.753234e+02 2.263057e+03 2.452522e+03 2.226194e+03 2.069453e+02 5.173920e-01 8.989782e-01 3.322837e-01 3.685211e-01 1.401547e+00 5.368448e-01
<GCONST> 1.995104e+02
<MIXTURE> 2 2.319273e-01
<MEAN> 33
 7.395741e+01 1.297643e+02 1.136284e+02 1.362031e+02 6.693992e+01 1.753230e+02 3.258877e+01 2.646208e+01 3.871741e+01 9.588960e+01 1.573032e+02 2.717237e+00 1.616309e+02 9.551082e+01 1.615384e+02 6.753806e+01 6.728950e+01 2.956100e+00 1.164816e+02 1.048099e+02 1.704305e+02 1.423484e+02 8.392310e+01 1.470926e+02 4.706044e+01 4.166932e+01 1.938680e+01 4.410318e+00 3.135721e+00 4.003987e+00 3.792659e+00 3.759925e+00 4.008385e+00
<VARIANCE> 33
 2.049093e+02 3.670592e+01 6.320010e+01 3.399508e+01 2.230606e+02 2.282088e+01 3.963356e+02 3.267076e+02 8.727857e+02 1.318911e+02 9.994627e+01 8.019813e+00 5.373108e+01 1.142457e+02 2.834837e+01 5.137968e+01 5.171767e+01 3.148238e+01 7.099749e+02 7.566195e+02 2.684787e+01 3.827497e+02 5.521000e+02 4.483660e+02 6.734375e+02 6.493362e+02 2.506458e+02 4.528782e-01 7.694843e-01 1.686528e-01 1.023228e-01 6.362711e-01 2.467017e-01
<GCONST> 1.856940e+02
<MIXTURE> 3 2.455524e-01
<MEAN> 33
 7.736886e+01 1.404909e+02 1.083196e+02 1.400995e+02 7.443570e+01 1.753413e+02 2.966926e+01 3.257210e+01 4.573268e+01 1.092604e+02 1.592807e+02 7.951576e-01 1.614071e+02 1.066008e+02 1.590658e+02 7.463058e+01 7.415461e+01 2.122645e+00 1.050941e+02 1.266038e+02 1.720770e+02 1.322274e+02 1.034920e+02 1.095902e+02 6.435120e+01 6.603510e+01 1.603645e+01 4.381344e+00 3.599754e+00 3.647076e+00 3.504139e+00 3.567008e+00 4.350701e+00
<VARIANCE> 33
 8.943346e+01 3.997170e+01 3.614132e+01 5.125484e+01 2.716626e+02 1.009721e+01 3.653300e+02 3.798331e+02 1.108994e+03 5.686962e+01 3.539140e+01 5.357184e-01 5.111135e+01 6.883591e+01 2.740932e+01 3.071743e+01 2.716466e+01 3.148238e+01 3.712195e+02 2.864317e+02 2.248583e+01 2.818420e+02 2.881510e+02 2.184856e+03 2.793857e+03 2.591289e+03 1.705968e+02 4.609770e-01 5.238692e-01 1.093707e-01 9.017133e-02 2.997325e-01 3.612543e-01
<GCONST> 1.781130e+02
<MIXTURE> 4 2.328756e-01
<MEAN> 33
 7.070795e+01 1.203022e+02 1.148557e+02 1.335285e+02 5.801641e+01 1.703973e+02 2.135485e+01 1.618584e+01 2.202841e+01 1.132505e+02 1.379970e+02 3.501718e+00 1.414949e+02 1.132650e+02 1.544462e+02 6.506020e+01 6.522616e+01 2.372437e+00 1.425562e+02 8.982752e+01 1.721997e+02 1.067900e+02 1.276688e+02 1.062845e+02 8.433462e+01 8.367383e+01 1.050162e+01 3.983031e+00 2.554409e+00 3.959726e+00 3.854212e+00 3.111138e+00 3.903452e+00
<VARIANCE> 33
 7.033005e+02 2.571888e+02 1.361306e+02 8.093921e+01 4.960061e+02 6.272630e+01 3.367396e+02 1.653240e+02 3.717079e+02 4.044951e+02 1.831629e+02 4.175200e+01 1.895891e+02 3.912867e+02 9.921069e+01 1.083450e+02 1.016388e+02 3.148238e+01 2.671037e+02 2.399647e+02 6.617442e+01 1.541584e+02 2.707190e+02 1.983309e+03 2.306575e+03 2.411181e+03 1.072568e+02 3.834153e-01 4.155581e-01 3.805288e-01 3.126629e-01 7.464445e-01 4.442328e-01
<GCONST> 2.013952e+02
<STATE> 4
<NUMMIXES> 4
<MIXTURE> 1 4.515228e-01
<MEAN> 33
 1.723640e+02 1.382400e+02 1.106812e+02 1.386137e+02 1.735394e+02 1.761459e+02 1.346049e+02 1.343607e+02 9.103432e+01 1.641140e+02 1.742968e+02 1.305325e+00 1.749025e+02 1.666382e+02 1.614052e+02 1.661413e+02 1.660367e+02 1.024567e+01 1.211931e+02 1.542427e+02 1.692944e+02 1.569425e+02 1.318412e+02 1.525235e+02 8.535962e+01 9.580631e+01 1.548279e+02 4.804862e+00 2.860082e+00 2.786410e+00 2.535168e+00 2.534000e+00 4.637348e+00
<VARIANCE> 33
 3.902650e+01 2.205443e+01 8.116321e+01 2.819136e+01 3.037716e+01 1.191810e+01 2.822034e+01 2.062020e+01 3.892200e+01 1.027007e+02 1.839293e+01 2.511828e+00 1.600584e+01 9.069474e+01 4.623172e+01 7.843807e+01 8.671180e+01 8.823912e+01 1.521693e+03 2.332145e+02 3.303031e+01 1.718080e+02 1.277793e+03 6.742935e+02 1.201413e+03 1.321633e+03 2.517764e+02 2.781608e+00 1.536319e+00 3.415160e-01 2.003434e-01 9.166844e-01 2.386236e+00
<GCONST> 1.783960e+02
<MIXTURE> 2 1.411748e-01
<MEAN> 33
 1.679071e+02 1.381357e+02 1.097523e+02 1.398810e+02 1.680446e+02 1.749437e+02 1.372522e+02 1.326254e+02 9.012250e+01 1.635848e+02 1.669467e+02 1.335361e+00 1.670984e+02 1.638983e+02 1.617476e+02 1.421258e+02 1.420671e+02 9.578076e+00 1.339192e+02 1.343572e+02 1.705849e+02 1.459713e+02 1.328541e+02 1.285408e+02 7.445415e+01 9.780736e+01 1.047264e+02 6.111447e+00 2.314055e+00 2.700840e+00 2.640347e+00 2.400360e+00 6.017859e+00
<VARIANCE> 33
 9.758121e+01 5.825711e+01 5.890004e+01 5.196597e+01 9.228884e+01 1.893713e+01 9.890560e+01 7.772489e+01 2.613558e+02 1.521153e+02 5.459045e+01 1.668753e+00 5.895560e+01 1.526236e+02 4.334668e+01 1.966215e+02 2.622289e+02 7.274114e+01 1.367189e+03 6.811584e+02 3.631282e+01 3.882848e+02 1.162348e+03 2.387936e+03 2.468174e+03 2.128646e+03 7.477378e+02 9.305124e-01 2.466594e-01 2.219847e-01 1.249306e-01 2.131850e-01 8.232812e-01
<GCONST> 1.902783e+02
<MIXTURE> 3 1.411748e-01
<MEAN> 33
 1.679071e+02 1.381357e+02 1.097523e+02 1.398810e+02 1.680446e+02 1.749437e+02 1.372522e+02 1.326254e+02 9.012250e+01 1.635848e+02 1.669467e+02 1.335361e+00 1.670984e+02 1.638983e+02 1.617476e+02 1.421258e+02 1.420671e+02 9.578076e+00 1.339192e+02 1.343572e+02 1.705849e+02 1.459713e+02 1.328541e+02 1.285408e+02 7.445415e+01 9.780736e+01 1.047264e+02 6.111447e+00 2.314055e+00 2.700840e+00 2.640347e+00 2.400360e+00 6.017859e+00
<VARIANCE> 33
 9.758121e+01 5.825711e+01 5.890004e+01 5.196597e+01 9.228884e+01 1.893713e+01 9.890560e+01 7.772489e+01 2.613558e+02 1.521153e+02 5.459045e+01 1.668753e+00 5.895560e+01 1.526236e+02 4.334668e+01 1.966215e+02 2.622289e+02 7.274114e+01 1.367189e+03 6.811584e+02 3.631282e+01 3.882848e+02 1.162348e+03 2.387936e+03 2.468174e+03 2.128646e+03 7.477378e+02 9.305124e-01 2.466594e-01 2.219847e-01 1.249306e-01 2.131850e-01 8.232812e-01
<GCONST> 1.902783e+02
<MIXTURE> 4 2.661271e-01
<MEAN> 33
 1.354600e+02 1.328738e+02 1.128590e+02 1.383886e+02 1.286138e+02 1.720581e+02 1.274477e+02 1.217464e+02 8.434287e+01 1.358189e+02 1.628920e+02 3.034918e+00 1.611743e+02 1.332793e+02 1.610043e+02 1.094286e+02 1.063955e+02 1.032035e+01 1.139906e+02 1.196625e+02 1.707517e+02 1.377593e+02 9.940511e+01 1.275519e+02 6.123838e+01 7.077519e+01 4.532883e+01 4.713892e+00 2.812565e+00 3.320143e+00 3.232045e+00 3.258300e+00 5.045872e+00
<VARIANCE> 33
 5.845005e+02 1.305585e+02 1.283718e+02 1.260994e+02 7.632851e+02 4.717205e+01 1.210573e+03 1.240361e+03 2.317981e+03 3.421587e+02 1.027557e+02 3.184012e+01 1.363782e+02 4.203282e+02 6.902158e+01 3.975317e+02 3.962124e+02 2.389499e+02 1.469561e+03 1.174554e+03 4.278914e+01 6.777244e+02 1.496500e+03 1.826531e+03 2.138121e+03 2.043998e+03 1.155223e+03 1.514159e+00 5.962157e-01 4.363717e-01 3.887254e-01 8.767876e-01 1.228857e+00
<GCONST> 2.206071e+02
<TRANSP> 5
 0.000000e+00 1.000000e+00 0.000000e+00 0.000000e+00 0.000000e+00
 0.000000e+00 8.869285e-01 1.130715e-01 0.000000e+00 0.000000e+00
 0.000000e+00 0.000000e+00 9.593772e-01 4.062275e-02 0.000000e+00
 0.000000e+00 0.000000e+00 0.000000e+00 9.292543e-01 7.074571e-02
 0.000000e+00 0.000000e+00 0.000000e+00 0.000000e+00 0.000000e+00
<ENDHMM>
~h "FM"
<BEGINHMM>
<NUMSTATES> 5
<STATE> 2
<NUMMIXES> 4
<MIXTURE> 1 2.657723e-01
<MEAN> 33
 1.723051e+02 1.377276e+02 1.087129e+02 1.382060e+02 1.747684e+02 1.766172e+02 1.349517e+02 1.340733e+02 9.097501e+01 1.561964e+02 1.749270e+02 1.346111e+00 1.751534e+02 1.611043e+02 1.616694e+02 1.629811e+02 1.669275e+02 1.137102e+01 9.426991e+01 1.528796e+02 1.700221e+02 1.620331e+02 1.080223e+02 1.584892e+02 7.128603e+01 9.034935e+01 1.538242e+02 5.017712e+00 2.796437e+00 2.641493e+00 2.528499e+00 2.338390e+00 4.870137e+00
<VARIANCE> 33
 3.902650e+01 3.043117e+01 7.352735e+01 3.483254e+01 3.037716e+01 9.033079e+00 2.822034e+01 2.062020e+01 3.781818e+01 8.714481e+01 2.285991e+01 2.996175e+00 1.624924e+01 5.171132e+01 4.760609e+01 1.282193e+02 8.635713e+01 1.225393e+02 9.835427e+02 2.346581e+02 2.188503e+01 1.428561e+02 5.568406e+02 2.195058e+02 9.922704e+02 1.211765e+03 2.830428e+02 5.026984e+00 9.177866e-01 2.861203e-01 4.264601e-01 7.863290e-01 3.186268e+00
<GCONST> 1.767031e+02
<MIXTURE> 2 2.667102e-01
<MEAN> 33
 1.719997e+02 1.389368e+02 1.104541e+02 1.674746e+02 1.001319e+02 1.735014e+02 1.351382e+02 9.330992e+01 1.315388e+02 1.557430e+02 1.699843e+02 4.593561e+00 1.527243e+02 1.076364e+02 1.620736e+02 1.689365e+02 9.968053e+01 7.302825e+01 8.349707e+01 1.435134e+02 1.676924e+02 1.583669e+02 4.373084e+01 1.226133e+02 6.535239e+01 1.017521e+02 1.450077e+02 3.742187e+00 2.733726e+00 2.614396e+00 2.137053e+00 6.277918e+00 6.610190e+00
<VARIANCE> 33
 3.902650e+01 5.650361e+01 1.207820e+02 9.057381e+01 5.284057e+02 4.796088e+01 2.822034e+01 2.491025e+02 3.079916e+02 7.650610e+01 9.796879e+01 2.485884e+01 2.854251e+02 6.537813e+02 7.055097e+01 6.775043e+01 1.277561e+03 1.187934e+03 5.820813e+02 4.621982e+02 5.531487e+01 1.420791e+02 1.968661e+02 2.260806e+03 2.251685e+03 1.777311e+03 4.292008e+02 2.174218e+00 1.003888e+00 2.354259e-01 3.697002e-01 2.397428e+00 3.873054e+00
<GCONST> 2.056635e+02
<MIXTURE> 3 2.667102e-01
<MEAN> 33
 1.719997e+02 1.389368e+02 1.104541e+02 1.674746e+02 1.001319e+02 1.735014e+02 1.351382e+02 9.330992e+01 1.315388e+02 1.557430e+02 1.699843e+02 4.593561e+00 1.527243e+02 1.076364e+02 1.620736e+02 1.689365e+02 9.968053e+01 7.302825e+01 8.349707e+01 1.435134e+02 1.676924e+02 1.583669e+02 4.373084e+01 1.226133e+02 6.535239e+01 1.017521e+02 1.450077e+02 3.742187e+00 2.733726e+00 2.614396e+00 2.137053e+00 6.277918e+00 6.610190e+00
<VARIANCE> 33
 3.902650e+01 5.650361e+01 1.207820e+02 9.057381e+01 5.284057e+02 4.796088e+01 2.822034e+01 2.491025e+02 3.079916e+02 7.650610e+01 9.796879e+01 2.485884e+01 2.854251e+02 6.537813e+02 7.055097e+01 6.775043e+01 1.277561e+03 1.187934e+03 5.820813e+02 4.621982e+02 5.531487e+01 1.420791e+02 1.968661e+02 2.260806e+03 2.251685e+03 1.777311e+03 4.292008e+02 2.174218e+00 1.003888e+00 2.354259e-01 3.697002e-01 2.397428e+00 3.873054e+00
<GCONST> 2.056635e+02
<MIXTURE> 4 2.008074e-01
<MEAN> 33
 1.039221e+02 1.565576e+02 1.133030e+02 1.506746e+02 1.246055e+02 1.706884e+02 8.508001e+01 1.038263e+02 1.350917e+02 1.015167e+02 1.653730e+02 2.596131e+00 1.626430e+02 1.328645e+02 1.630938e+02 8.480668e+01 1.146837e+02 8.022830e+01 6.183319e+01 1.559321e+02 1.677191e+02 1.513438e+02 6.661871e+01 1.342309e+02 6.385707e+01 8.144391e+01 1.160742e+02 5.768531e+00 5.522356e+00 2.586280e+00 2.677170e+00 3.809237e+00 4.270847e+00
<VARIANCE> 33
 1.346305e+03 3.033935e+02 8.724667e+01 6.350317e+02 1.279531e+03 5.139001e+01 1.005267e+03 9.207156e+02 2.314792e+03 7.379307e+02 1.635354e+02 5.278067e+00 2.440829e+02 7.923585e+02 5.973742e+01 9.329122e+02 1.330225e+03 4.112949e+03 1.709886e+03 4.434579e+02 5.792273e+01 6.656567e+02 1.713858e+03 1.193969e+03 1.818338e+03 2.395326e+03 2.859680e+03 3.730652e+00 7.428657e+00 6.536379e-01 5.792482e-01 1.392152e+00 2.563344e+00
<GCONST> 2.345502e+02
<STATE> 3
<NUMMIXES> 4
<MIXTURE> 1 3.863893e-01
<MEAN> 33
 1.208928e+02 1.624790e+02 1.150904e+02 1.351994e+02 1.733872e+02 1.742041e+02 1.079936e+02 1.361544e+02 1.158520e+02 1.201525e+02 1.654683e+02 2.505557e+00 1.748693e+02 1.633879e+02 1.636181e+02 1.201234e+02 1.713875e+02 5.825737e+01 4.698803e+01 1.609986e+02 1.645881e+02 1.533628e+02 1.014333e+02 1.538850e+02 8.066349e+01 7.165295e+01 1.506814e+02 7.796923e+00 6.381720e+00 2.568713e+00 2.603807e+00 2.300133e+00 3.712788e+00
<VARIANCE> 33
 4.249460e+02 8.286176e+01 1.036499e+02 2.006528e+01 3.037716e+01 1.881322e+01 1.139264e+02 2.062020e+01 1.180591e+02 3.233658e+02 7.796084e+01 5.647909e+00 1.109942e+01 3.589052e+01 3.738447e+01 3.882159e+02 4.478446e+01 4.377023e+02 1.259260e+02 9.196088e+01 2.348697e+01 1.625039e+02 9.033318e+02 3.631386e+02 6.221122e+02 7.889359e+02 2.751632e+02 2.778776e+00 2.995550e+00 2.275933e-01 1.535929e-01 4.822774e-01 9.398304e-01
<GCONST> 1.819607e+02
<MIXTURE> 2 2.185159e-01
<MEAN> 33
 1.017916e+02 1.685842e+02 1.124071e+02 1.360677e+02 1.767180e+02 1.741221e+02 8.196796e+01 1.359862e+02 1.420187e+02 9.711537e+01 1.638267e+02 4.807215e+00 1.744609e+02 1.625580e+02 1.667372e+02 7.571791e+01 1.707752e+02 9.574178e+01 4.263351e+01 1.625218e+02 1.633131e+02 1.538018e+02 9.186121e+01 1.503885e+02 9.283815e+01 4.444038e+01 1.372762e+02 7.967398e+00 6.515204e+00 2.401051e+00 2.733509e+00 2.054827e+00 4.012169e+00
<VARIANCE> 33
 2.415370e+02 3.786028e+01 1.749433e+01 1.123852e+01 3.037716e+01 1.816694e+01 8.311098e+01 2.062020e+01 8.748522e+01 7.224615e+01 8.862178e+01 7.578895e+00 1.007908e+01 1.399315e+01 5.232751e+01 1.664369e+02 2.695155e+01 1.633376e+02 1.921074e+01 7.375568e+01 3.437901e+01 1.883367e+02 2.470233e+02 4.878448e+02 3.806090e+02 4.248842e+02 1.246213e+02 1.958286e+00 1.023487e+00 1.052300e-01 1.161286e-01 6.021449e-02 6.177013e-01
<GCONST> 1.640334e+02
<MIXTURE> 3 2.185159e-01
<MEAN> 33
 1.017916e+02 1.685842e+02 1.124071e+02 1.360677e+02 1.767180e+02 1.741221e+02 8.196796e+01 1.359862e+02 1.420187e+02 9.711537e+01 1.638267e+02 4.807215e+00 1.744609e+02 1.625580e+02 1.667372e+02 7.571791e+01 1.707752e+02 9.574178e+01 4.263351e+01 1.625218e+02 1.633131e+02 1.538018e+02 9.186121e+01 1.503885e+02 9.283815e+01 4.444038e+01 1.372762e+02 7.967398e+00 6.515204e+00 2.401051e+00 2.733509e+00 2.054827e+00 4.012169e+00
<VARIANCE> 33
 2.415370e+02 3.786028e+01 1.749433e+01 1.123852e+01 3.037716e+01 1.816694e+01 8.311098e+01 2.062020e+01 8.748522e+01 7.224615e+01 8.862178e+01 7.578895e+00 1.007908e+01 1.399315e+01 5.232751e+01 1.664369e+02 2.695155e+01 1.633376e+02 1.921074e+01 7.375568e+01 3.437901e+01 1.883367e+02 2.470233e+02 4.878448e+02 3.806090e+02 4.248842e+02 1.246213e+02 1.958286e+00 1.023487e+00 1.052300e-01 1.161286e-01 6.021449e-02 6.177013e-01
<GCONST> 1.640334e+02
<MIXTURE> 4 1.765787e-01
<MEAN> 33
 9.817923e+01 1.644057e+02 1.206913e+02 1.321247e+02 1.658655e+02 1.710263e+02 9.053555e+01 1.297712e+02 1.390808e+02 1.092987e+02 1.537966e+02 9.537310e+00 1.645881e+02 1.503629e+02 1.607606e+02 9.242471e+01 1.553978e+02 7.773825e+01 4.306563e+01 1.609504e+02 1.695234e+02 1.451008e+02 8.933269e+01 1.142863e+02 6.755256e+01 8.890592e+01 1.397587e+02 6.259866e+00 5.849635e+00 2.256743e+00 2.952065e+00 3.178003e+00 4.675877e+00
<VARIANCE> 33
 8.890800e+02 1.198403e+02 1.708894e+02 3.453985e+02 2.554438e+02 5.432990e+01 3.358190e+02 1.274172e+02 3.500561e+02 4.711134e+02 3.429452e+02 5.269249e+02 5.410235e+02 3.677396e+02 6.272880e+01 1.349439e+03 5.078694e+02 1.536782e+03 3.326827e+02 1.325147e+02 4.012818e+01 4.217079e+02 1.706959e+03 1.404314e+03 2.440387e+03 3.094667e+03 6.489752e+02 3.012257e+00 2.771866e+00 3.228298e-01 3.957337e-01 1.468706e+00 3.084126e+00
<GCONST> 2.236547e+02
<STATE> 4
<NUMMIXES> 4
<MIXTURE> 1 3.441795e-01
<MEAN> 33
 1.755747e+02 1.354914e+02 1.087333e+02 1.360963e+02 1.776701e+02 1.762695e+02 1.349847e+02 1.345631e+02 9.045223e+01 1.595609e+02 1.770592e+02 1.098662e+00 1.756085e+02 1.646610e+02 1.628581e+02 1.668715e+02 1.693627e+02 6.492366e+00 9.597446e+01 1.598377e+02 1.690776e+02 1.674041e+02 1.114304e+02 1.532981e+02 8.614017e+01 7.281419e+01 1.587645e+02 6.274308e+00 2.259976e+00 2.926459e+00 2.733162e+00 1.898114e+00 5.739491e+00
<VARIANCE> 33
 3.902650e+01 1.301615e+01 2.323626e+01 9.258392e+00 3.037716e+01 7.853470e+00 2.822034e+01 2.062020e+01 1.886277e+01 1.743720e+01 5.848750e+00 7.787945e-01 6.549934e+00 1.403563e+01 2.536881e+01 3.071743e+01 4.186270e+01 3.148238e+01 2.394251e+02 8.232098e+01 1.429630e+01 5.696229e+01 2.231760e+02 2.915584e+02 8.275222e+02 9.069460e+02 1.155262e+02 9.955881e-01 1.617791e-01 8.024488e-02 8.060214e-02 4.375103e-02 1.187402e+00
<GCONST> 1.458960e+02
<MIXTURE> 2 2.294593e-01
<MEAN> 33
 1.694834e+02 1.362287e+02 1.141336e+02 1.364203e+02 1.729194e+02 1.742426e+02 1.349407e+02 1.363890e+02 8.867034e+01 1.566536e+02 1.734730e+02 3.012299e+00 1.741208e+02 1.616759e+02 1.633456e+02 1.658070e+02 1.700607e+02 1.283491e+01 9.371901e+01 1.510442e+02 1.662491e+02 1.564351e+02 9.848948e+01 1.440624e+02 9.394182e+01 7.570689e+01 1.601119e+02 5.035851e+00 3.483145e+00 2.899322e+00 2.593075e+00 2.756898e+00 4.781713e+00
<VARIANCE> 33
 6.480415e+01 3.221741e+01 7.071466e+01 2.875233e+01 3.665214e+01 1.736842e+01 2.822034e+01 2.062020e+01 3.704448e+01 1.159316e+02 2.658790e+01 6.352090e+00 1.731784e+01 4.405920e+01 3.706676e+01 1.257270e+02 5.408445e+01 1.202711e+02 1.226551e+03 3.485447e+02 3.121463e+01 1.594796e+02 8.004110e+02 4.753022e+02 1.613502e+03 1.838036e+03 2.373779e+02 4.143976e+00 2.122177e+00 3.612788e-01 2.516407e-01 1.499793e+00 2.302498e+00
<GCONST> 1.818078e+02
<MIXTURE> 3 2.294593e-01
<MEAN> 33
 1.694834e+02 1.362287e+02 1.141336e+02 1.364203e+02 1.729194e+02 1.742426e+02 1.349407e+02 1.363890e+02 8.867034e+01 1.566536e+02 1.734730e+02 3.012299e+00 1.741208e+02 1.616759e+02 1.633456e+02 1.658070e+02 1.700607e+02 1.283491e+01 9.371901e+01 1.510442e+02 1.662491e+02 1.564351e+02 9.848948e+01 1.440624e+02 9.394182e+01 7.570689e+01 1.601119e+02 5.035851e+00 3.483145e+00 2.899322e+00 2.593075e+00 2.756898e+00 4.781713e+00
<VARIANCE> 33
 6.480415e+01 3.221741e+01 7.071466e+01 2.875233e+01 3.665214e+01 1.736842e+01 2.822034e+01 2.062020e+01 3.704448e+01 1.159316e+02 2.658790e+01 6.352090e+00 1.731784e+01 4.405920e+01 3.706676e+01 1.257270e+02 5.408445e+01 1.202711e+02 1.226551e+03 3.485447e+02 3.121463e+01 1.594796e+02 8.004110e+02 4.753022e+02 1.613502e+03 1.838036e+03 2.373779e+02 4.143976e+00 2.122177e+00 3.612788e-01 2.516407e-01 1.499793e+00 2.302498e+00
<GCONST> 1.818078e+02
<MIXTURE> 4 1.969008e-01
<MEAN> 33
 1.234306e+02 1.606015e+02 1.089354e+02 1.424125e+02 1.655725e+02 1.745498e+02 1.161683e+02 1.321806e+02 1.092006e+02 1.284124e+02 1.580304e+02 4.511662e+00 1.711120e+02 1.518565e+02 1.638494e+02 1.497024e+02 1.607548e+02 2.963034e+01 4.703445e+01 1.548148e+02 1.671330e+02 1.473211e+02 8.782439e+01 1.271073e+02 1.160185e+02 4.954406e+01 1.497067e+02 3.490727e+00 5.037462e+00 2.069465e+00 2.188995e+00 2.681908e+00 3.637559e+00
<VARIANCE> 33
 7.357239e+02 2.667228e+02 1.539428e+02 1.434965e+02 4.300808e+02 1.492645e+01 2.607633e+02 2.562030e+02 6.045196e+02 4.480432e+02 1.069252e+02 4.828998e+01 1.082637e+02 3.036016e+02 3.774924e+01 6.680316e+02 7.116924e+02 6.452026e+02 1.396515e+03 2.138837e+02 3.683121e+01 2.139738e+02 1.078725e+03 9.260306e+02 1.677046e+03 1.109490e+03 1.523276e+03 3.833561e+00 2.492974e+00 5.041150e-01 4.607426e-01 1.262048e+00 4.817286e+00
<GCONST> 2.171093e+02
<TRANSP> 5
 0.000000e+00 1.000000e+00 0.000000e+00 0.000000e+00 0.000000e+00
 0.000000e+00 9.332385e-01 6.676149e-02 0.000000e+00 0.000000e+00
 0.000000e+00 0.000000e+00 9.471430e-01 5.285705e-02 0.000000e+00
 0.000000e+00 0.000000e+00 0.000000e+00 9.196858e-01 8.031425e-02
 0.000000e+00 0.000000e+00 0.000000e+00 0.000000e+00 0.000000e+00
<ENDHMM>
~h "FN"
<BEGINHMM>
<NUMSTATES> 5
<STATE> 2
<NUMMIXES> 4
<MIXTURE> 1 3.189753e-01
<MEAN> 33
 1.729339e+02 1.369315e+02 1.091141e+02 1.376499e+02 1.745970e+02 1.754294e+02 1.350744e+02 1.342613e+02 9.066431e+01 1.570548e+02 1.753453e+02 1.725711e+00 1.748987e+02 1.629435e+02 1.619312e+02 1.634208e+02 1.663716e+02 1.298981e+01 9.771655e+01 1.527138e+02 1.694431e+02 1.625122e+02 1.155689e+02 1.580740e+02 6.964349e+01 9.382931e+01 1.544597e+02 4.903712e+00 2.671571e+00 2.771476e+00 2.526105e+00 2.376925e+00 4.944459e+00
<VARIANCE> 33
 3.902650e+01 2.452147e+01 7.426573e+01 3.023524e+01 3.037716e+01 1.345757e+01 2.822034e+01 2.062020e+01 3.506198e+01 1.191392e+02 2.133454e+01 5.376751e+00 1.929593e+01 6.997081e+01 5.042654e+01 1.625424e+02 8.951115e+01 1.472437e+02 1.058084e+03 2.696162e+02 2.564846e+01 1.331132e+02 7.726671e+02 2.962014e+02 9.505511e+02 1.258407e+03 3.638859e+02 5.522956e+00 1.274542e+00 3.392375e-01 3.845991e-01 6.768134e-01 2.789924e+00
<GCONST> 1.798754e+02
<MIXTURE> 2 2.514457e-01
<MEAN> 33
 1.711135e+02 1.403332e+02 1.097777e+02 1.486077e+02 3.048754e+01 1.747766e+02 1.344371e+02 2.374160e+01 1.539464e+02 1.569101e+02 1.705033e+02 2.863518e+00 1.415845e+02 7.548149e+01 1.665868e+02 1.685356e+02 4.104322e+01 1.294818e+02 8.894054e+01 1.510070e+02 1.697886e+02 1.297180e+02 1.005031e+02 1.045373e+02 6.951781e+01 7.648799e+01 1.048688e+02 3.612864e+00 2.502842e+00 2.517336e+00 3.109920e+00 3.657940e+00 7.025925e+00
<VARIANCE> 33
 3.902650e+01 3.774363e+01 1.153117e+02 2.531012e+02 8.841270e+02 1.515460e+01 2.822034e+01 3.180256e+02 1.239117e+02 5.049951e+01 7.189841e+01 9.882057e+00 6.680038e+02 5.705068e+02 4.053131e+01 8.958083e+01 1.928873e+02 2.400603e+02 5.107415e+02 2.458487e+02 5.088734e+01 6.015470e+02 1.028685e+03 2.568428e+03 2.719576e+03 1.881005e+03 3.816083e+02 1.049968e+00 3.045194e-01 1.890382e-01 6.694210e-01 1.242091e+00 1.150043e+00
<GCONST> 1.993282e+02
<MIXTURE> 3 2.514457e-01
<MEAN> 33
 1.711135e+02 1.403332e+02 1.097777e+02 1.486077e+02 3.048754e+01 1.747766e+02 1.344371e+02 2.374160e+01 1.539464e+02 1.569101e+02 1.705033e+02 2.863518e+00 1.415845e+02 7.548149e+01 1.665868e+02 1.685356e+02 4.104322e+01 1.294818e+02 8.894054e+01 1.510070e+02 1.697886e+02 1.297180e+02 1.005031e+02 1.045373e+02 6.951781e+01 7.648799e+01 1.048688e+02 3.612864e+00 2.502842e+00 2.517336e+00 3.109920e+00 3.657940e+00 7.025925e+00
<VARIANCE> 33
 3.902650e+01 3.774363e+01 1.153117e+02 2.531012e+02 8.841270e+02 1.515460e+01 2.822034e+01 3.180256e+02 1.239117e+02 5.049951e+01 7.189841e+01 9.882057e+00 6.680038e+02 5.705068e+02 4.053131e+01 8.958083e+01 1.928873e+02 2.400603e+02 5.107415e+02 2.458487e+02 5.088734e+01 6.015470e+02 1.028685e+03 2.568428e+03 2.719576e+03 1.881005e+03 3.816083e+02 1.049968e+00 3.045194e-01 1.890382e-01 6.694210e-01 1.242091e+00 1.150043e+00
<GCONST> 1.993282e+02
<MIXTURE> 4 1.781328e-01
<MEAN> 33
 1.292617e+02 1.349053e+02 1.111446e+02 1.442030e+02 1.006002e+02 1.731176e+02 1.031847e+02 8.615629e+01 1.223908e+02 1.296471e+02 1.649062e+02 4.912357e+00 1.616003e+02 1.116023e+02 1.620356e+02 1.203819e+02 9.638749e+01 7.465870e+01 8.136702e+01 1.208308e+02 1.676561e+02 1.510603e+02 7.883528e+01 1.332443e+02 6.528231e+01 7.309802e+01 8.838549e+01 4.620728e+00 2.686851e+00 3.026885e+00 2.936024e+00 3.602160e+00 5.640946e+00
<VARIANCE> 33
 2.499311e+03 1.280799e+02 8.620444e+01 1.725566e+02 3.757691e+03 4.213602e+01 2.395252e+03 2.527145e+03 1.566968e+03 1.305526e+03 1.602921e+02 7.651013e+01 3.870255e+02 1.396392e+03 4.833905e+01 2.304961e+03 2.291761e+03 1.869174e+03 1.744846e+03 1.397468e+03 6.216222e+01 3.168678e+02 1.247463e+03 1.925171e+03 2.480767e+03 1.928041e+03 1.375669e+03 4.642176e+00 1.376762e+00 4.657498e-01 3.242052e-01 1.430253e+00 4.576047e+00
<GCONST> 2.382967e+02
<STATE> 3
<NUMMIXES> 4
<MIXTURE> 1 2.627953e-01
<MEAN> 33
 8.800360e+01 1.399697e+02 1.122734e+02 1.348832e+02 1.746803e+02 1.765073e+02 6.645795e+01 1.359435e+02 1.460591e+02 1.143637e+02 1.521251e+02 2.075324e+00 1.748228e+02 1.625904e+02 1.670811e+02 7.955413e+01 1.644161e+02 8.860970e+01 1.175725e+02 1.275386e+02 1.705969e+02 1.628895e+02 1.083338e+02 1.301844e+02 5.109790e+01 8.481963e+01 1.019450e+02 8.421154e+00 2.796510e+00 3.228854e+00 2.522586e+00 2.106883e+00 3.451503e+00
<VARIANCE> 33
 2.209050e+03 1.827973e+02 6.332914e+01 1.619277e+01 3.037716e+01 8.694081e+00 1.309643e+03 2.062020e+01 7.173127e+02 4.226433e+02 3.595522e+02 3.303702e+00 1.308322e+01 2.634046e+01 6.260993e+01 3.206071e+02 7.191754e+01 4.037527e+02 2.219804e+03 7.154386e+02 2.917934e+01 1.678332e+02 5.645140e+02 1.731248e+03 1.143750e+03 2.670441e+03 4.597419e+02 1.157282e+00 1.185526e+00 2.536398e-01 7.956152e-02 1.453038e-01 5.870100e-01
<GCONST> 1.935808e+02
<MIXTURE> 2 4.267196e-01
<MEAN> 33
 2.307092e+01 1.315107e+02 1.108316e+02 1.357598e+02 1.750576e+02 1.752887e+02 1.007432e+01 1.347939e+02 1.441496e+02 6.681128e+01 1.447205e+02 1.429029e+00 1.743702e+02 1.626996e+02 1.668732e+02 3.879615e+01 1.619357e+02 1.236638e+02 1.231965e+02 1.041389e+02 1.698856e+02 1.662405e+02 1.098730e+02 1.220590e+02 6.287729e+01 8.137614e+01 8.393130e+01 6.482015e+00 2.954328e+00 3.294817e+00 2.870213e+00 2.183939e+00 3.640687e+00
<VARIANCE> 33
 1.388073e+02 1.350140e+02 4.392004e+01 1.859414e+01 3.037716e+01 1.609758e+01 4.260405e+01 2.062020e+01 6.027749e+01 2.209197e+02 3.488073e+02 1.235271e+00 1.420909e+01 1.942774e+01 4.503897e+01 7.080642e+01 8.130967e+01 1.134099e+02 6.682328e+02 3.788106e+02 3.362644e+01 8.824937e+01 3.426714e+02 2.421087e+03 2.179740e+03 2.537413e+03 1.646532e+02 1.195944e+00 9.703242e-01 4.666408e-01 2.981194e-01 1.256080e-01 9.364753e-01
<GCONST> 1.792759e+02
<MIXTURE> 3 1.762942e-01
<MEAN> 33
 1.867698e+01 1.395126e+02 1.264647e+02 1.292263e+02 1.687720e+02 1.764958e+02 1.322324e+01 1.373733e+02 1.503405e+02 6.919063e+01 1.361866e+02 6.642587e+00 1.699980e+02 1.632038e+02 1.663116e+02 3.749069e+01 1.702103e+02 1.418413e+02 9.981940e+01 1.149348e+02 1.705439e+02 1.524251e+02 1.031153e+02 1.264137e+02 5.558130e+01 1.076544e+02 1.073732e+02 6.529505e+00 4.249186e+00 3.996353e+00 2.715064e+00 2.822406e+00 3.711465e+00
<VARIANCE> 33
 1.631061e+02 3.967396e+02 6.502126e+01 3.737336e+01 3.037716e+01 1.032318e+01 5.782906e+01 2.062020e+01 7.834106e+01 1.461686e+02 1.588298e+02 5.685877e+01 1.404199e+02 7.532124e+01 2.929635e+01 6.658123e+01 5.506884e+01 1.410366e+02 4.276367e+02 4.592606e+02 3.192339e+01 1.379396e+02 1.199498e+03 1.011036e+03 1.097399e+03 3.301329e+03 2.883423e+02 2.075162e+00 5.552991e-01 4.171788e-01 8.504693e-02 2.017694e-01 3.614612e-01
<GCONST> 1.861474e+02
<MIXTURE> 4 1.341902e-01
<MEAN> 33
