~o
<STREAMINFO> 1 88
<VECSIZE> 88<NULLD><USER><DIAGC>
~v "varFloor1"
<VARIANCE> 88
 4.048248e+01 2.331025e+00 1.001595e+00 1.505309e+00 2.653995e+01 0.000000e+00 2.906700e+01 1.886775e+01 1.850339e+01 1.510365e+01 5.862761e+00 8.231366e-01 2.922583e+00 1.225081e+01 4.581000e-01 3.120482e+01 2.333878e+01 3.196490e+01 1.263137e+01 5.907506e+00 8.415152e-01 4.064506e+00 9.528612e+00 2.221422e+01 2.131278e+01 2.248235e+01 1.995622e+01 3.498970e-02 1.892515e-02 4.731689e-03 3.353710e-03 1.102175e-02 2.808012e-02 0.000000e+00 2.589376e-05 2.538997e-05 1.912637e-04 3.179345e-04 6.903976e-05 3.407006e-04 5.651740e-04 8.207194e-06 1.239727e-05 4.769793e-05 9.297499e-06 4.186538e-05 1.238964e-03 1.292433e-04 6.253720e-05 1.963334e-03 5.576430e-06 6.817173e-06 2.778557e-05 1.500277e-04 2.072113e-03 1.676601e-04 1.608857e-04 3.287704e-03 4.618509e-05 6.249674e-05 4.900259e-05 6.728540e-04 1.397105e-04 1.336898e-04 1.357290e-03 3.092719e-05 6.048742e-05 1.534878e-04 1.728118e-04 3.984805e-04 1.005804e-03 2.473179e-04 2.204991e-04 9.276327e-04 9.041611e-04 3.029841e-03 6.003633e-04 4.409562e-04 8.070807e-05 9.498797e-04 7.753851e-05 5.870939e-05 1.436506e-04 3.710419e-04 4.542782e-04 7.674652e-04 1.073157e-03 1.919067e-05
